152 128
601 0.097788796 -0.23447523 0.24134469 0.19443934 -0.009028629 -0.15809652 0.12928206 0.16551527 -0.07410519 0.09810165 0.13310732 -0.0763038 -0.07167791 0.18705967 -0.03803654 0.14843956 -0.03948847 0.111617036 -0.09710993 -0.069920756 0.1352118 0.16020851 0.1655251 -0.06849399 0.06675934 -0.056833316 -0.2628611 0.14511132 -0.028566135 0.01763397 -0.11895467 -0.01087492 0.19190626 -0.0067775575 0.16001803 -0.1168776 0.31756574 -0.088131785 0.16640764 0.009440695 -0.039061107 -0.06904842 -0.208723 -0.17976423 0.08137331 -0.06931103 -0.12825559 0.11489823 -0.017804211 0.054876406 0.16183329 0.13562877 0.1010712 0.20157014 0.11300412 0.16007775 0.14563133 -0.014745664 -0.11035978 0.285932 -0.07701807 -0.15288027 0.10893035 0.16434133 -0.01498171 0.03555623 0.09617139 0.04117911 -0.30917683 0.040915787 0.23150195 -0.009880695 0.021426613 0.0421075 0.051784944 -0.1484718 -0.031591345 -0.018018313 -0.10995316 -0.0029867364 -0.14535902 -0.1816978 0.09624018 0.1516393 0.18855226 -0.020513115 0.11711232 -0.055162217 -0.14633998 0.24945514 -0.05911148 -0.06901342 -0.039282043 -0.005777408 0.25559595 -0.056755602 0.025745856 -0.25436834 -0.104862556 0.08631038 -0.14309841 0.10258647 -0.15877071 0.032019682 0.09190107 -0.09381559 0.011556348 -0.108828664 -0.13067046 -0.18701418 -0.05597166 -0.20325059 -0.22807565 0.08875081 0.056371164 0.13853271 -0.17851423 0.122971244 0.068738505 -0.052463677 -0.15682371 -0.2595245 0.0073541184 -0.13740742 -0.01026166 0.0022231818 -0.017177349 0.021852117
414 -0.14158031 -0.027677324 -0.021267973 -0.042641692 0.1511012 0.13026193 0.08569881 -0.25266218 0.08372047 -0.15333414 0.039125573 -0.022500873 -0.014340079 -0.15115361 -0.12474636 0.060803015 -0.060828533 -0.12488128 -0.071885996 0.018097445 0.12228181 0.056096092 -0.070790455 -0.19767617 -0.24112664 0.078120515 -0.17312963 0.10385125 0.27897912 -0.007899982 0.067891754 -0.016904216 0.07610864 0.053781487 0.17185503 0.07210191 0.20424135 0.09070715 -0.097630195 0.16065018 -0.025366053 0.14297485 0.07501856 0.08626555 0.18108524 0.042353928 -0.14262187 0.08242116 -0.01651847 0.16046605 0.029972993 0.1384296 0.06630915 0.24856605 -0.043980684 0.1648852 0.13871242 0.08124183 -0.002648062 -0.021051493 -0.15860584 -0.0007504132 0.026299212 0.10259198 0.17282306 -0.041707538 0.05159318 -0.09195734 -0.24422057 -0.098286115 0.15108357 -0.1096911 -0.10456902 0.081850074 0.00036823907 -0.05027308 0.05539531 -0.030371921 -0.037632037 0.09792231 -0.07499463 -0.197685 0.006756177 -0.027964842 0.17637198 0.1052809 -0.07158256 0.10106009 0.05324531 0.03822052 0.0018088424 0.2015195 0.16366693 -0.090554476 0.13795218 0.116906084 -0.006242878 -0.060057566 -0.17982356 -0.23659799 0.08875045 0.09947387 -0.18021424 -0.12303607 0.03619583 0.09156695 -0.16736598 -0.10337959 0.10350943 0.014793458 0.1707218 -0.0014489697 0.13083279 -0.05228527 -0.1345971 -0.10197108 -0.08729297 -0.08195296 0.073567845 0.010841151 0.14517757 -0.3387085 0.020461673 -0.1172654 -0.034713317 -0.19552281 -0.058547597 -0.044761684
580 0.21523464 -0.2823725 0.18312661 -0.019464167 0.053053204 -0.030708719 0.07330222 0.06834288 -0.16391174 0.21164335 0.09048343 -0.122515485 -0.007324444 0.15408252 -0.13199969 0.063172735 -0.10779179 0.027151583 -0.09854786 -0.1027571 0.17036612 0.1945962 0.063944176 -0.1817368 0.09573105 -0.085957706 -0.35884905 0.13613153 0.0677359 0.042190902 -0.033925682 -0.1591359 0.26844847 0.1461411 0.25048825 -0.11157976 0.17836599 0.020444466 0.30551922 0.11586873 0.08642012 -0.14315242 -0.11582699 -0.11640197 0.086342685 -0.0017230368 -0.030106058 0.03688929 -0.0062986864 0.047958955 0.10284146 0.12665854 0.076382995 0.16388537 -0.002134591 0.2422763 0.18817946 0.01775638 -0.07554731 0.24040872 -0.23259316 -0.25502828 0.20123258 0.019807832 -0.1713151 0.006422961 0.105985254 0.017287789 -0.2030014 -0.1414599 0.12733917 -0.1932948 -0.085061945 -0.14378533 0.0076765907 -0.085442 0.052795928 -0.01598198 0.010697518 0.088143475 0.0050718365 0.011101668 -0.026623305 0.10122002 0.08368675 0.0014698568 0.16232297 0.034528267 0.00080132385 0.21393625 -0.097221464 -0.11262029 -0.070445284 -0.01539184 0.25204933 -0.16926098 -0.08845812 -0.016269023 -0.13667208 0.1063381 -0.13651232 0.017489944 -0.11029277 0.033581037 -0.010846154 -0.064171426 0.07308829 -0.048889276 -0.10359535 -0.085222535 0.116241075 -0.13158703 -0.056970086 0.06273713 -0.08008546 0.13991803 -0.1048565 0.12281985 0.12955187 -0.036588788 -0.045172047 -0.18603776 -0.08569693 -0.08317347 0.22716059 0.1906184 -0.08672148 0.04889552
373 -0.04438231 -0.19310555 -0.025178667 0.14818723 -0.0634432 0.028442333 -0.06113974 0.15777862 0.022649348 -0.10210776 -0.04213156 -0.22661877 0.015905991 -0.11860463 0.0040642167 0.02769206 -0.11520318 -0.05055691 -0.15654162 0.009788507 0.028063841 0.23235591 -0.12381697 -0.11518146 0.10770372 -0.11297041 -0.35784674 -0.0057164794 0.13958073 -0.07111921 -0.08795831 -0.04580053 0.15964147 -0.13279241 0.25067237 -0.0036225077 0.11721753 -0.13542408 0.124203995 -0.048174515 -0.03969533 -0.006701212 -0.055480853 -0.173022 0.07273214 -0.059280466 -0.07337039 0.03451588 -0.076711565 0.1310582 0.20886908 0.004754729 0.15914711 0.18645157 0.06436772 0.2171661 0.38452902 0.030116428 -0.1113996 0.10474769 -0.07867135 -0.2745551 0.2252322 0.01114609 -0.09036843 -0.0063375304 -0.043624748 0.096839935 -0.13065724 -0.08014533 0.06478336 -0.2040281 -0.1603714 0.016746124 0.041611653 -0.10715707 0.06985662 0.2140231 -0.12826826 -0.014666801 -0.2351185 0.08940208 0.2011694 -0.05611597 0.0046016243 0.15464775 0.064303674 0.05860235 0.20441733 0.36581525 0.009820038 -0.06763742 -0.22227916 -0.027455788 0.21638912 -0.12899163 -0.1476214 0.0018005305 -0.10939856 0.032461423 -0.05922222 -0.0038326276 -0.15525986 0.10675728 0.031969417 -0.03169643 0.02540904 -0.03145161 -0.03333533 -0.23228197 -0.013807799 -0.10723036 -0.008451295 0.13143224 -0.114083186 -0.015841449 -0.09699164 0.04599847 0.092970274 0.035363857 -0.2441629 -0.19540004 0.08782348 -0.049015526 0.19825937 0.18249291 -0.0502607 0.04252136
636 -0.1964219 -0.3658462 0.06753194 0.092456326 -0.037316 -0.28989685 -0.1810764 -0.08934952 -0.31206146 0.101547085 0.28675112 0.12010537 -0.20454228 0.20161022 0.097579256 0.05638966 0.22955003 -0.052996777 -0.20985548 -0.025090385 0.01586682 0.16047694 -0.27017346 0.0010610168 0.05415516 -0.19005072 -0.084868744 0.106929705 0.10901742 -0.23258168 -0.15058711 0.004709946 0.015287297 0.11641578 -0.013678136 0.12854823 0.2955301 -0.17571837 -0.06338148 0.15527675 -0.10295753 0.32548234 0.10925255 0.0190628 0.07501736 -0.03718363 -0.11289981 -0.080883496 -0.2126833 0.08731723 0.23894735 0.21611826 0.30033758 -0.030113561 0.044106167 0.08122798 0.13689248 -0.3807308 0.10495441 0.32904956 0.18994781 0.21940628 -0.03956558 0.17464508 0.17137136 -0.10192689 -0.049115416 0.25412795 -0.045444727 -0.21035673 0.22109966 -0.20931537 -0.24450485 -0.20474757 0.04429806 0.070295386 -0.10835122 0.0130821895 -0.06909437 0.07494685 -0.08595399 -0.30477986 0.21476994 0.2568542 0.07964247 0.11786142 0.19592486 -0.060328364 0.085539855 -0.14139804 -0.030365702 -0.20280333 -0.07298815 -0.011361918 0.21365547 0.017925669 -0.044120453 -0.445173 0.1248483 -0.3363437 -0.21086007 0.0201285 -0.084345035 0.044766374 0.021155346 0.1071916 -0.11431432 -0.13246045 0.07300464 -0.08201271 0.18340597 -0.08608351 0.23871656 0.087777935 -0.12932824 -0.025966046 -0.050594293 -0.0070226453 -0.0018344389 0.0019641395 0.15849757 -0.11545011 -0.15053332 -0.048786424 -0.029016618 -0.0566271 -0.044660635 -0.1530317
492 0.03319994 -0.20962568 -0.00780277 0.08976824 0.095867 0.0024725855 0.00682453 0.036753546 -0.0023142996 -0.057803467 -0.019132106 -0.18246803 -0.12049197 0.12857105 0.055398714 0.109445706 -0.048665274 -0.08352599 -0.14537427 0.03392051 0.07712324 0.19723313 0.0414758 -0.14599173 0.048464485 -0.082240865 -0.28234136 -0.08467003 -0.008808581 -0.051958326 -0.18028148 -0.101194635 0.17887451 0.07972777 0.09167044 0.047105405 0.14545518 -0.019967115 0.25469232 0.019716378 0.1374351 -0.19667129 -0.091127016 -0.030687444 0.10924288 0.025168614 -0.1359681 -0.04601489 0.005097936 -0.088361934 0.08575987 0.16117583 0.216426 0.22502111 0.12227821 0.233224 0.4565423 0.15527335 0.030208644 0.22620265 -0.05195427 -0.25653553 0.26945326 -0.011528512 0.009485114 0.11744451 0.14282589 0.050815795 -0.14100155 -0.060323156 0.04070534 -0.09837409 -0.20959824 -0.07841059 -0.00895016 -0.20268056 0.012492698 0.14289118 -0.16714482 0.027395613 -0.13226447 -0.05005495 0.16215993 -0.012206521 0.12566939 0.14647311 0.106065586 0.14615877 0.03010315 0.2408966 0.061005887 0.033025756 -0.15173589 0.006753737 0.11204244 -0.13995881 -0.106875904 0.08266861 -0.18139195 0.06393163 -0.00888858 0.09287563 -0.10724118 0.1517176 0.07424651 -0.029324878 0.055708162 -0.04579058 -0.1811789 -0.1668784 -0.05557319 0.04163989 -0.08520175 0.0671452 -0.15173495 -0.13216712 -0.09462341 -0.07612946 0.05789002 0.06905172 -0.15604112 -0.10286918 -0.12349494 -0.03638326 0.25879124 0.0038086288 0.041076984 0.15703781
591 -0.049783714 -0.25320253 -0.047703266 0.15362866 0.006074748 -0.04283705 -0.13824883 0.14671026 0.124959275 -0.08189121 -0.032110278 -0.20534185 0.047775928 -0.06759929 0.0370222 0.0064019556 -0.10440393 -0.07269515 0.03650607 -0.11985885 0.080487564 0.19273177 0.047375068 -0.091018885 0.08023056 -0.030937796 -0.24806143 0.058800552 0.031970557 0.0018098941 -0.065690026 -0.0594092 0.15824072 0.04048907 0.247106 0.10485197 0.122873396 -0.043559875 0.2072988 0.0739829 0.017581064 -0.12057278 0.0018024353 -0.15734722 0.19629204 -0.005295229 0.040324453 0.045903057 -0.16259837 0.17151235 0.18212043 0.011211336 0.14655249 0.1750062 0.09372782 0.1824358 0.31734887 -0.028073754 0.018685225 0.15428437 -0.14023186 -0.3138385 0.18201083 -0.010586996 -0.03736447 0.09514959 0.021541469 0.17617106 -0.24902984 0.026058218 0.07895335 -0.16262165 -0.28118473 -0.029130092 0.0120817805 -0.15089042 -0.08186013 0.18551019 -0.120764844 0.08580394 -0.11103679 -0.060902115 0.22600505 0.090037994 0.06036533 -0.08432727 0.18432257 -0.05894665 0.19563586 0.26795292 0.056359075 -0.06480023 -0.14442874 0.037298415 0.2749912 -0.08003453 -0.1488455 0.08878169 -0.22842853 0.034866784 -0.036452334 0.068649486 -0.12553754 0.036981814 -0.006283571 -0.08561297 0.120976105 0.09514378 -0.1737968 -0.07159731 -0.061914623 -0.01101019 -0.09655343 0.10557025 -0.07100387 -0.0017714115 -0.051404018 0.04240679 0.090528436 0.11506666 -0.2863506 -0.22846973 0.101164155 0.05673893 0.26492882 0.051376257 -0.04221854 0.2682357
370 0.010972525 -0.35530248 0.07060295 0.03505946 0.020548781 -0.110430464 -0.14177889 0.14553088 0.0324603 -6.912587e-05 0.060956914 -0.14500402 -0.07724926 -0.076976486 -0.047344755 0.15408371 -0.16233248 0.042436622 -0.17576392 -0.07316349 0.14137715 0.15417878 0.021887673 -0.18874533 0.05426582 0.05090615 -0.24986698 -0.07690367 0.15933348 0.044632476 -0.26433313 0.05899372 0.09991066 0.0027460568 0.2603613 0.028228642 0.101591304 0.032545213 0.15649496 0.027806276 0.013398984 -0.041020934 -0.11452306 -0.16771571 0.081668675 -0.051653016 0.0044584605 -0.010499704 -0.122243725 -0.020962011 0.16539656 0.15741295 0.14384605 0.14183617 0.10403169 0.19922718 0.3490275 0.11481888 -0.0043991837 0.12668104 -0.029614827 -0.24337946 0.2354077 -0.009766682 -0.16635577 0.12704077 0.030343652 0.031106254 -0.08675522 -0.099217646 0.21171932 -0.085530154 -0.22626373 0.12768231 0.054075122 -0.04535612 -0.07742291 0.16975318 -0.04218658 0.04991918 -0.14931123 0.06505539 0.22548197 0.048843976 0.124685094 0.07089525 0.059077024 0.008700425 0.0647397 0.30035266 -0.057758216 -0.015219378 -0.16031429 0.02287631 0.18507227 -0.1797733 -0.16807216 0.07437264 -0.14369425 -0.06948533 -0.057483837 0.18747132 -0.059983075 0.057291392 0.08367874 -0.0005580856 0.008591354 -0.093040645 -0.09521289 -0.2562818 -0.067656465 -0.069345675 -0.046932988 -0.112994865 -0.13433169 -0.083566576 -0.0032037427 -0.008739641 0.0047579613 0.03449663 -0.20456977 -0.2597054 -0.0030487275 0.015030024 0.19928317 0.3038468 -0.20085782 0.17482607
524 -0.05010103 -0.28206268 0.08711472 0.025064185 -0.07908191 -0.04809904 -0.15130383 0.14115715 -0.013611412 -0.08989383 -0.10151445 -0.23021065 -0.039129347 0.00079744647 -0.017376058 0.10439785 -0.035363585 -0.096671 -0.14373113 0.025538376 0.028944341 0.1358933 -0.038764954 -0.088524364 0.09406227 -0.04581884 -0.25520927 -0.075583816 0.062222514 -0.022087106 -0.18392225 -0.06765435 0.12031257 -0.06322116 0.123515956 0.113461845 0.08210593 -0.047107257 0.21584815 0.029009672 -0.013043301 -0.13967997 -0.14399327 -0.124842495 0.19878584 0.050417792 -0.027047308 -0.03739149 -0.1646715 0.06897093 0.26762435 0.09456895 0.153005 0.088780515 0.11310537 0.16458519 0.37303305 0.11686334 0.031512834 0.090292335 -0.15199997 -0.2920037 0.2667601 0.014279474 -0.062120963 0.10254465 -0.07239103 0.16908205 -0.11868656 -0.022016846 0.11346537 0.07524519 -0.16238731 0.07584446 -0.021260906 -0.26894152 -0.08834429 0.14550732 -0.045185152 0.07479768 -0.18033007 -0.020370413 0.082880326 0.095104255 0.16041568 -0.086939834 0.2084651 0.154238 0.19829917 0.26004666 -0.122330144 -0.07439649 -0.1751658 -0.0017525045 0.22313805 -0.12025714 -0.108658046 0.042057917 -0.12788996 0.042711727 -0.09440343 0.05137446 -0.19470645 0.0037540332 0.03703823 0.02181794 0.07897058 -0.00025483576 -0.18440624 -0.08294232 0.03734781 -0.04839053 -0.23202993 0.11419675 -0.043079227 -0.029982597 -0.08668367 -0.03220507 0.16540514 0.03353736 -0.045414735 -0.24945192 0.04626226 -0.08329859 0.16967973 0.11325235 -0.115470916 0.25669688
412 -0.021881925 -0.3166684 0.06961257 0.01641588 0.021221925 -0.024710722 0.015678639 0.040472332 0.039675537 -0.09100758 0.015501064 -0.28165752 -0.019100804 0.15351598 -0.020561546 0.15369812 -0.116273105 0.0033729689 -0.17160761 -0.0024379238 0.2023138 0.26937255 0.07535287 -0.049020734 0.037817 -0.10720508 -0.28278014 -0.20100409 -0.014635933 0.038396355 -0.032430235 0.007913331 0.22080086 0.07851871 0.15494098 -0.07258604 0.21017915 -0.04665837 0.20682964 0.07884561 0.10176007 -0.10015026 -0.053601623 -0.20939478 0.009415633 0.13202009 -0.12700011 0.1200546 -0.06485086 -0.05413427 0.0695248 0.032579213 0.31209064 0.1551976 0.10424792 0.36924434 0.28894997 0.08345787 0.00010309135 0.09833437 -0.11819176 -0.24726579 0.093265064 -0.03565767 -0.011602111 0.14290299 -0.023649417 -0.06930277 -0.0093283225 0.01362545 -0.0075712306 -0.15318643 -0.12784503 -0.1426326 0.036362816 -0.011334998 -0.005715864 0.24140157 -0.18530807 -0.024832608 -0.08579449 -0.121560186 0.15014595 0.050256684 0.14143404 -0.028682705 0.18916352 0.12627995 0.10692903 0.41962823 0.0437054 -0.031353902 -0.20399326 0.067576885 0.22888443 -0.06845819 -0.18268283 0.047105126 -0.054348864 -0.17803666 0.035043158 -0.0134830875 -0.15123655 0.09670533 0.09172471 -0.108898945 0.15087938 -0.023218576 -0.0850771 -0.24383023 0.07414252 -0.03818387 -0.05840393 -0.07604671 -0.06275243 -0.13188292 -0.15556018 0.17321268 0.111899376 -0.07787512 -0.2199713 -0.26707855 0.03864911 -0.082192495 0.14264578 0.11324899 -0.1831705 0.09520977
553 -0.1298367 -0.3348644 0.15003772 0.11178727 0.2066443 0.031075185 -0.088177055 0.014446466 0.024153838 -0.014197078 -0.19933191 -0.26776955 0.04350752 -0.06397415 -0.078282185 0.034635413 -0.049673907 0.020431604 -0.08688918 -0.08184612 0.13040534 0.21882828 -0.027693065 -0.069055885 0.06792624 -0.12483004 -0.27968106 -0.102978535 0.061100736 0.081514075 -0.04709585 -0.025834592 0.117085174 0.023994787 0.13938794 -0.0699693 0.1430801 0.006459198 0.18317191 0.1616479 -0.06743348 -0.05802102 0.03117191 -0.17751114 0.19825211 0.19362196 -0.35397953 -0.024705183 -0.10366513 0.006317122 0.17169923 0.13451196 0.16723016 0.1674603 0.08009668 -0.004568903 0.2435167 0.059814215 -0.12703931 0.055838544 -0.07884459 -0.21501234 0.34663478 -0.013086771 -0.1975207 0.17688128 -0.042673413 0.090353996 -0.06066448 -0.0717069 0.11079186 -0.0012862155 -0.14980173 -0.046703752 0.025707802 -0.02820231 -0.044450033 0.15744713 -0.19803186 -0.019494742 -0.12643567 -0.052866843 0.17474708 0.20731494 0.2049133 0.057703972 0.18158095 0.096170366 0.12096516 0.3130782 -0.14252853 -0.1079465 -0.19948116 -0.0070281834 0.066344246 0.1396088 -0.17733932 -0.012582187 -0.112639114 -0.16615562 -0.055117656 0.10385515 -0.1147878 -0.03798107 0.09311125 -0.15891711 0.16809782 0.03627103 -0.007948346 -0.13855231 -0.07257 -0.056448933 -0.122206375 0.07916344 -0.159342 -0.14029492 -0.040276513 -0.09777325 0.07277215 -0.035267655 -0.10481243 -0.17400293 0.15966056 -0.0054840595 0.27576303 0.21516101 -0.18866505 0.13706562
567 -0.080435924 -0.4325137 0.23590358 -0.04738106 0.069623515 -0.2005165 -0.05932926 0.15038866 0.16095424 -0.10522616 -0.1305508 -0.11584946 -0.03910634 0.03376341 -0.05843079 -0.052847993 -0.12385434 -0.020125994 -0.057029203 0.01933336 0.21128403 0.083815314 -0.019680064 -0.013201324 0.15598612 -0.058194414 -0.34408316 0.104568474 0.07831189 0.029528985 -0.08425451 0.07480467 0.031993806 0.00073109276 0.13840602 0.057279225 0.18768866 -0.07316944 0.08788714 0.03731551 -0.00075335585 -0.052718315 -0.0972044 -0.073870964 0.24003412 -0.058280747 0.0060932087 0.08606233 -0.08506465 -0.017862216 0.06999547 0.14327845 0.0207826 0.104582466 0.04514435 0.17132984 0.36204377 0.035964463 -0.079040654 0.18367632 -0.13438654 -0.19919114 0.29240912 -0.114985414 -0.058634132 0.16038212 -0.01861657 0.12685381 -0.12160138 -0.0146315675 0.08401669 -0.17302868 -0.18960285 -0.09453159 0.035341807 -0.16700572 0.015983751 0.096647516 -0.038525257 0.021637814 -0.11544167 -0.0655334 0.1968323 0.015200766 0.034331687 0.19511043 0.010379521 -0.0016320236 0.010649513 0.2748072 -0.0715759 0.053534698 -0.23379718 -0.06515632 0.23820126 -0.06822862 -0.09777223 0.079700276 -0.120473444 -0.028299665 -0.1373166 0.11932952 -0.1374499 0.061102524 0.20518132 -0.08708304 0.15756789 -0.021954315 -0.26701725 -0.20952918 -0.07182516 -0.056334265 -0.10307268 0.15287489 -0.18911375 -0.21899654 -0.21486506 0.072484836 -0.064991996 0.033106636 -0.20765348 -0.26172468 0.03267115 0.14447655 0.1519594 0.19943607 -0.2032521 0.21220401
566 0.08111313 -0.37610015 0.22625257 0.15537491 0.060570735 -0.12609544 0.008482678 -0.015501402 0.007740237 0.058648396 0.10114017 -0.28922328 -0.0537089 0.041012432 0.10285782 0.10005062 0.05284873 0.017912786 -0.12814412 0.15521997 0.15647541 0.17409542 0.06035277 -0.1354532 0.095536426 0.015434598 -0.3579839 0.0867195 0.118050456 -0.007418548 -0.1989699 0.04007018 0.14780055 0.105627306 0.14017998 -0.031294215 0.05513923 -0.0656547 0.26075304 0.12201871 0.11146113 -0.13049982 -0.086355776 -0.12138404 0.019920064 -0.012454415 -0.042279094 0.03429926 0.0007608538 -0.032707263 0.12171946 0.17979588 0.14717297 0.06537136 -0.024810404 0.3591839 0.23013705 0.14481911 -0.048984963 0.09712346 0.022545533 -0.34671187 0.27163696 0.064817175 0.026912464 0.19330592 0.013618528 -0.02068111 -0.12467358 -0.035707906 0.09592684 -0.108174905 -0.28376427 0.013054881 0.053642742 -0.25647527 -0.0609625 0.09084424 -0.119290166 0.13622555 -0.20508972 -0.04499894 0.122650914 0.035635866 0.050010964 0.052676886 0.09051268 0.068885945 0.06940692 0.20964713 -0.11414354 -0.022442505 -0.22180264 0.08416425 0.17118156 -0.100424334 -0.13383691 0.094809175 -0.18152873 0.05131713 0.0007392697 0.08541162 -0.17631452 0.0081385495 -0.072246574 -0.0020425967 0.0923468 -0.07464823 -0.14062726 -0.18255267 -0.021837024 -0.10917058 -0.037411254 -0.04096306 -0.040182568 -0.018703619 -0.07721175 -0.11283876 0.10437599 0.030485854 -0.16216567 -0.08859935 0.104589015 0.0131723955 0.21953784 0.07602892 -0.038262874 0.047272485
423 -0.051614877 -0.32122785 -0.005773746 0.1903335 0.19306618 -0.00033313627 -0.0025625625 -0.018803244 0.079677105 -0.034276675 -0.12500426 -0.4025474 0.068858765 0.0024080153 -0.08526961 0.09356116 -0.15281422 0.030798905 -0.1983587 0.0062434985 0.17966262 0.38563836 -0.003903712 -0.038941924 0.12409296 -0.092095695 -0.3084773 0.0523679 0.17808536 0.04018158 0.00077917194 0.12625466 0.13010293 0.10951339 -0.00852952 -0.055376172 0.17476971 0.043945584 0.1530652 -0.03740424 0.1815085 -0.10948431 -0.10970803 -0.18190973 0.058402203 -0.0021907624 -0.101754375 0.08027339 0.052429266 -0.097841546 0.11606297 -0.15437979 0.13993709 0.13818772 0.06548452 0.091114886 0.34328753 0.0826907 -0.09873026 0.08533971 -0.043251436 -0.17650843 0.10883498 -0.086082995 -0.039423577 0.14340337 0.063006766 0.21979578 -0.23197737 -0.1546592 0.18452942 -0.21117033 -0.09104859 0.07690413 0.042789068 -0.04233256 0.009168319 0.18261327 -0.08612976 -0.08871249 -0.23684193 -0.023882253 0.11920423 0.070066705 0.043177523 0.050877422 0.176387 -0.14326943 0.1837458 0.32591486 -0.0651645 -0.03941861 -0.021977685 -0.07199113 0.26851502 -0.04571707 -0.22794418 0.0442787 -0.15231387 -0.08167411 -0.12173719 0.07950364 -0.05755203 0.033026833 -0.0068999114 0.012613436 -0.06557668 0.008640595 -0.03775823 -0.09318026 -0.07068519 -0.088732764 -0.08977243 0.039817426 -0.1833181 -0.032243952 -0.07407019 0.086104654 0.08210618 -0.027114362 -0.30468574 -0.2290218 0.064971335 0.02790966 0.14767227 0.3005208 -0.1630442 0.36226198
542 0.05650119 -0.43501338 0.035664976 0.15821566 0.15944894 -0.08166216 -0.06644457 0.083164304 -0.036457248 -0.03761787 -0.03533564 -0.22767273 0.16140054 -0.07332923 -0.0018277394 0.15306458 -0.055901147 -0.061118424 -0.034183417 -0.038710304 0.11957726 0.17273417 0.002605496 0.0064891153 0.151633 0.122911006 -0.396669 0.08217988 0.023401394 0.05130675 -0.1630945 -0.060520727 0.1409166 -0.027415795 0.1006328 -0.024324136 0.2096711 -0.15300684 0.30381882 -0.005313548 0.07812366 -0.1605848 -0.02015758 -0.13800552 0.12048322 0.10358789 -0.061203863 -0.019657368 -0.06698115 0.06978632 0.0769017 0.011706105 0.04660044 0.21531911 0.12908243 0.15981951 0.29972845 0.1793012 -0.15389289 0.1796205 -0.08086192 -0.20192496 0.11398925 0.10229957 -0.047062784 0.20260477 0.056173258 0.16375624 -0.101769105 0.06717827 0.18296425 -0.10539325 -0.26672286 -0.04444826 -0.015348569 -0.2146089 -0.038649574 0.0026599828 -0.04110481 0.07292969 -0.06706919 0.07306902 0.20445631 0.11259118 0.09970337 0.056165878 0.047905542 0.0709915 -0.045127403 0.35449937 -0.16255504 -0.063586056 -0.19216748 -0.0014205105 0.2875779 -0.02325542 -0.08676879 0.040718656 -0.060345653 -0.040165417 -0.079566084 0.045089472 -0.07509163 -0.05051143 0.116935 -0.13945116 -0.0640984 0.09666725 -0.14933829 -0.15424325 -0.045825373 -0.11159985 -0.15476415 0.03826155 -0.14126472 -0.044633143 -0.14071721 0.03571703 -0.020435138 0.09444692 -0.05699926 -0.27414232 0.12711254 0.017897975 0.29777873 0.11793708 -0.092061065 0.24981476
461 0.011159781 -0.29301462 0.031651538 0.055915967 0.15305677 -0.096135564 -0.13577588 0.041612063 0.031951673 -0.04084959 -0.194461 -0.24724206 0.101187564 0.021089746 0.07885589 0.14067195 -0.16797374 -0.02114108 -0.11988054 0.051970348 0.18850473 0.27099553 -0.08265107 -0.041784663 -0.02141827 -0.02201889 -0.24809417 -0.062263113 0.06537731 0.06458829 -0.11397494 0.009030252 0.112231694 -0.037937455 0.13595016 0.06991421 0.12857476 -0.008660845 0.1441575 0.083011664 -0.04672863 -0.1501007 -0.15207046 -0.2175053 0.104379185 0.1393523 -0.08762846 -0.036500756 -0.11233113 0.041689564 0.10138818 0.03181434 0.047930982 0.18190764 -0.018495936 0.2868606 0.2984483 0.14111501 -0.121435955 0.20574415 -0.07551609 -0.23114422 0.1885992 0.04039375 -0.23239458 0.20380443 0.0617415 0.11801855 -0.009469728 0.14863274 0.13529396 -0.18173751 -0.28009364 0.014113279 0.0034279334 -0.12122388 -0.11152706 0.26058507 -0.03921235 0.060434777 0.0317459 0.12268506 0.19714658 0.19373867 0.053265188 0.10300157 -0.01860995 0.10849458 0.113228664 0.30028176 0.036843337 -0.0054877433 -0.15341344 -0.028856423 0.27274418 -0.06520877 -0.07710143 -0.0152205005 -0.16577713 0.04493362 -0.022972617 0.009397979 -0.07094167 0.11701052 0.094490066 -0.14289424 0.1148526 0.025387766 -0.11237413 -0.16600192 -0.056707423 0.007839294 -0.042126067 0.0016647191 -0.05390549 -0.09659077 -0.08893234 0.010517786 0.016888384 0.12582333 -0.07086964 -0.24948825 0.08318447 0.016225012 0.26010123 0.12810849 -0.14387639 0.23994413
616 0.16598748 -0.06584368 0.20844248 0.015696757 0.0959704 0.022642016 -0.27340928 -0.07496087 -0.26913106 0.093569465 0.005716138 0.081948124 -0.33810502 0.014664524 0.06061346 0.094150946 -0.17047106 0.019250417 0.058148753 0.00726808 -0.05176365 -0.029636394 -0.16442296 -0.29173726 -0.26356757 0.0032284397 -0.2396929 -0.052179746 -0.15479098 0.08617298 -0.11000173 0.036667038 0.1289435 -0.015120965 -0.16835886 0.022833563 0.2053338 -0.031644695 -0.1319398 0.08219188 -0.22556941 0.19170761 0.2161276 -0.012759846 0.15706491 0.16474855 -0.18145846 -0.04708106 -0.3996893 0.06311295 -0.1532772 0.10982945 0.26530933 -0.3297514 -0.029348763 0.018881623 0.1474586 -0.0037660284 -0.071767054 0.074546345 -0.14428806 -0.038199853 0.039561827 0.034249365 0.36019358 -0.070013896 0.17819074 0.06694958 -0.13807034 -0.40752625 0.24045108 -0.008733028 -0.3541751 -0.17074722 0.030531898 -0.16803107 -0.27916196 -0.066350415 -0.14954917 -0.14662163 0.052387588 -0.18363029 0.18859215 0.2680566 0.04764674 0.11186085 0.28671008 -0.19812338 0.2249436 -0.13725449 0.1352858 -0.0064751734 0.14991021 0.025656277 0.417893 0.22031105 -0.073203824 -0.42196444 -0.09215376 -0.24935961 -0.020664118 0.24731691 -0.17806184 0.027518384 -0.005103941 0.024705186 -0.06978224 -0.22867934 0.024997838 0.07967025 0.09936389 -0.15548737 0.1186067 -0.08397683 -0.1474309 -0.032737598 0.0019351225 0.07650569 0.08707556 0.12861441 0.089313336 -0.04881295 -0.03664211 0.15682833 -0.25311726 -0.09943967 -0.07190935 0.10655617
685 -0.028101992 -0.2227437 0.07253369 -0.13289551 -0.034501586 -0.23802264 -0.10978912 0.030114086 -0.26235914 0.1519117 0.36430085 0.17719321 -0.26731494 0.10646591 0.11843231 0.12296116 0.23306677 -0.19176802 -0.106162325 -0.00041879798 0.042160735 0.14865685 -0.38888803 -0.20230918 0.16576143 -0.14266136 0.008675741 0.17606796 0.076482825 -0.2866964 0.006556743 -0.0021352468 0.051784564 0.039769504 -0.115918644 0.021983353 0.21063884 -0.08508023 -0.18259083 0.1756454 -0.07138759 0.2296065 0.20163587 -0.13173272 0.08437201 0.047267105 -0.27431878 0.029899422 -0.21707219 0.3128403 0.16675504 0.15550645 0.25425443 -0.041110598 0.0006433346 0.10795793 0.14816773 -0.32974195 -0.16039409 0.11713291 0.06981285 0.064313725 0.009086178 0.29244485 0.141072 -0.0700312 -0.08764432 0.23708121 -0.0805189 -0.2535135 0.22832902 -0.09034843 -0.24464868 -0.1322798 0.0904374 -0.11730865 -0.062249783 0.069447406 -0.139065 0.042586878 -0.04376684 -0.35619956 0.010468115 0.14057788 -0.030155327 0.08959242 0.039043963 0.12372246 0.20062351 -0.06731217 -0.038999293 -0.22976497 0.014760785 -0.01075903 0.11894298 0.07554853 0.08032908 -0.42240804 0.118677326 -0.21479571 -0.2186965 0.06688314 -0.20137452 0.17419174 -0.11676773 0.112184025 0.012974613 -0.10689175 0.14667565 -0.050404023 0.0064971033 0.015085253 0.19387907 0.052248955 -0.036321815 -0.052715905 -0.17852223 -0.06309028 0.04086664 -0.22182488 0.056687683 -0.094129875 -0.16456881 0.036698002 -0.060535148 -0.0092404075 -0.12566267 -0.041851066
376 -0.028145527 -0.26135355 0.1314853 0.025562404 0.1142534 -0.07900252 -0.07906369 0.20400496 0.003478233 0.08725831 0.03447587 -0.25263748 0.02989038 0.09918734 0.05020239 0.001944551 -0.151528 0.042092044 -0.17978226 0.11403741 0.24934657 0.13470325 0.040307987 0.029366074 0.16156094 -0.08270944 -0.2300216 -0.0149805695 0.050846912 0.039862256 -0.12651743 -0.009358688 0.2475753 0.08687845 0.17721781 -0.054066733 0.10842905 0.026075965 0.1652513 0.09052021 0.059482418 -0.033247516 -0.043600757 -0.17523451 0.12205268 -0.010257822 0.048257567 0.20412491 -0.08986635 0.026945451 0.027064936 0.1786795 0.07369039 0.19021103 0.054679852 0.26138312 0.34370324 0.25706148 0.018217418 0.12847908 -0.13542284 -0.31228718 0.2584016 0.0014384986 -0.0085779475 0.1366983 -0.03273616 0.10757012 -0.18059598 -0.039174855 0.0785402 -0.08727768 -0.030097159 -0.018567469 0.12990762 -0.28518972 0.038939394 0.12513462 -0.124134205 -0.094691284 -0.2652357 -0.04330849 0.14285257 0.0017443292 0.11196791 0.05593142 0.06616938 0.024411082 0.071495086 0.2792023 -0.0656661 -0.056204602 -0.109838516 0.05341045 0.13796577 0.09213211 -0.059248906 0.13570677 -0.066450536 -0.11712395 -0.11064774 -0.04147682 -0.1317157 -0.01465426 -0.04375588 0.05489853 -0.05426007 0.03749671 -0.17096066 -0.13463 -0.052200682 -0.035412665 -0.16012286 0.025755554 -0.22621405 -0.13393609 -0.06539646 -0.015014426 0.08046562 0.062553495 -0.18347843 -0.21253589 0.108974226 0.049798172 0.24451806 0.16534603 -0.19283743 0.19270563
428 -0.02588803 -0.1614622 0.17672692 -0.005125841 0.15628211 -0.13524081 0.2787853 0.124699414 0.069756776 -0.11567284 -0.033941574 -0.19153246 0.10768084 0.15375039 -0.039405037 0.11591201 -0.03182074 -0.019619433 -0.1052138 -0.11820411 0.052631922 0.20133388 0.0615577 -0.13164191 0.1728676 -0.15898998 -0.26396236 0.1407459 0.13266207 0.05409612 -0.18899094 -0.03337418 0.31718317 0.099277414 0.08920566 0.078055084 0.300601 -0.04682279 0.21147625 -0.12925677 -0.0036728983 0.056502774 -0.02344834 -0.22630061 0.09103318 0.056521636 0.0027670143 -0.032394912 0.10532115 -0.0808391 0.23083092 0.26915696 0.053898476 0.1654938 0.03507378 0.21656145 0.15093331 0.08405749 -0.1938088 0.2067026 -0.24516483 -0.1857446 0.2169808 0.019531045 -0.013574214 0.040175896 0.19480571 0.07727835 -0.012293731 -0.021172322 0.06531982 -0.114585154 -0.19612841 0.109944016 -0.048038166 -0.04267726 0.031200057 0.056855634 -0.33242974 0.048845198 -0.16005225 -0.01718155 0.10420096 0.15824932 0.29554453 0.22024386 -0.06664511 -0.09687296 0.05999955 0.3242446 -0.14549899 -0.17507668 -0.19179866 0.06553834 0.20835659 -0.13152425 -0.13502763 -0.16980423 -0.08861346 0.023811545 0.03323992 0.010753947 -0.1209615 0.08627665 -0.02436815 -0.2383229 0.006167699 -0.07990204 -0.049405284 -0.069753304 0.09795836 -0.19259806 -0.14436847 0.10050657 -0.14746948 -0.15950333 -0.08831677 0.08704063 0.042250022 -0.046247315 -0.08545341 -0.19718301 0.008450796 -0.16331704 0.22911257 0.057778582 -0.22230397 0.10048042
659 0.033022545 -0.08539834 -0.011774565 0.07460367 -0.03689918 0.23075251 0.2939176 -0.3146099 -0.045191824 -0.017024253 0.07152352 0.06649828 0.11960792 0.010774145 -0.08322207 0.3065269 0.2637637 -0.24121813 -0.0479751 0.16206604 0.2843758 0.05894974 -0.3139991 0.23181053 -0.3920283 -0.16069528 -0.34613594 0.040599193 -0.0039220355 0.032303248 0.1701647 -0.197667 0.19336107 0.012385107 0.050404277 -0.012508199 -0.2092258 -0.04457844 -0.061852068 0.210607 0.021119548 -0.25374037 -0.1783256 0.15404163 0.28011766 0.020109901 0.36624336 -0.019428594 -0.31797856 -0.0022876023 0.2335976 -0.02023919 0.054037057 -0.009978355 -0.08222313 0.3176093 0.27431607 0.120546915 -0.113371216 -0.04823597 -0.115169615 0.007262021 0.044860635 0.004569675 0.19088735 -0.118404225 -0.059444275 -0.28366014 -0.30593026 0.08313375 0.33883804 -0.1807601 0.18296672 0.34803766 0.224769 -0.023789942 -0.03446283 -0.023622813 0.0051876097 -0.0076396423 0.07440315 0.014532552 -0.0825967 -0.013243733 0.06925167 0.24811397 -0.17722227 -0.004621962 0.27865565 0.16207908 0.0642812 0.11595135 0.45411745 -0.14938314 0.032857027 0.103715315 -0.04981896 0.056470726 -0.1424952 -0.23694792 0.06321597 -0.045840517 -0.0839119 -0.042734545 -0.29894176 -0.074522324 -0.23688416 -0.05581768 -0.33664095 -0.0742994 -0.0061280723 -0.23095265 -0.16591355 0.07285974 -0.042878345 -0.33292317 0.1738178 -0.045786414 -0.26065615 -0.13343199 0.03962745 -0.30380666 -0.12411276 0.10446934 0.11683431 -0.077672265 -0.11459748 0.046426546
612 0.11758874 -0.20257904 0.11308671 -0.10035164 -0.09722132 -0.20906778 -0.16724704 0.11901664 -0.35474914 0.20581669 0.39431384 0.11119092 -0.33706895 0.054556392 0.13201298 0.042107165 0.2944557 -0.1716036 -0.032874305 0.07959707 -0.028633866 0.14315993 -0.24402826 -0.22470273 0.0012917029 -0.19714712 -0.11432882 -0.016468655 0.20462745 -0.3514761 -0.047194246 -0.010865937 -0.002123756 0.15551618 -0.17334983 0.08928042 0.20990454 -0.18197033 -0.10007019 0.16431256 -0.12422683 0.09966589 0.21053727 -0.14467849 0.050232403 0.011433205 -0.32191375 0.015733812 -0.33138007 0.3131986 0.1940333 0.04162798 0.25852102 -0.1815828 0.015979892 0.22674902 0.21594217 -0.39209777 0.03553294 0.14097506 0.117084906 0.174054 -0.051689506 0.13569778 0.25757113 -0.16393584 -0.14275941 0.24147269 -0.056467574 -0.16088188 0.19629762 -0.07771686 -0.30426252 -0.1376877 0.033436272 0.07776415 -0.20166057 0.10211353 -0.17674536 0.027990907 -0.026475659 -0.33057904 0.073344074 0.19698334 0.058853615 -0.0411573 0.12932691 -0.007876519 0.22105658 -0.10808593 -0.08501279 -0.18014652 0.10343992 -0.07932412 0.12729184 0.028622942 -0.06830786 -0.4004649 0.058873735 -0.194572 -0.19923414 -0.007463594 -0.16264738 0.02767152 0.0059169126 -0.0033246886 -0.053511083 0.06004078 0.03410587 -0.15242279 0.045803864 0.037117295 0.28482047 0.16846499 -0.09035015 -0.025611218 -0.009354917 0.11902361 0.08073087 -0.118036196 0.0049621062 -0.2292661 -0.20700468 0.04579276 -0.086638205 0.023553524 -0.073765695 -0.017321965
395 0.17802529 -0.31596163 0.0739984 0.02266755 0.118044116 -0.01856131 0.057455275 0.28591165 -0.12531334 0.18222505 -0.15332277 -0.20176229 0.08454942 0.09891742 -0.01015796 0.02620341 -0.08141414 -0.03799754 -0.017820312 0.07009286 0.017782552 0.017696198 0.08518383 -0.065584406 0.09637424 0.11648942 -0.3541669 0.063345805 0.06826995 0.1007854 -0.08260563 -0.009084051 0.124537624 0.15847488 0.08387932 -0.041436665 0.24259754 0.05178946 0.20024669 -0.033533853 0.032404914 -0.04143009 0.004019265 -0.12255633 0.11503964 0.013089575 -0.112811804 -0.08300134 -0.19091873 0.13991901 0.1270146 0.077401474 0.16203353 0.22039455 -0.014728954 0.07903544 0.28415182 0.02445288 -0.12117292 0.06493792 -0.0061685024 -0.09579972 0.15078272 0.113714814 -0.13193053 0.165369 0.075631544 0.15229847 0.01757424 -0.05017323 0.10242394 -0.24839643 -0.1724361 0.0032495207 0.03566683 -0.003536846 -0.1825968 0.08251652 0.008517594 0.07159221 -0.18210849 -0.22147 0.028897636 0.1844741 -0.026226602 0.02916276 0.2716261 -0.1424543 0.035326708 0.164287 -0.081303775 -0.0020492042 -0.2326541 -0.15431854 0.24289776 -0.13846605 -0.0086807525 -0.08008116 -0.1609089 0.014207203 -0.1439281 0.12652948 -0.14368148 0.15061179 0.16370676 -0.11727879 -0.058712292 -0.07734342 -0.07218401 -0.13509491 0.094703704 -0.17384596 -0.01636307 0.089213595 -0.18078737 -0.08842514 -0.05671172 0.12471735 0.16736567 0.016404841 -0.034981724 -0.25389066 -0.17434871 -0.052098855 0.11561197 0.12563114 -0.07969456 0.14176248
615 -0.07198756 -0.07292128 -0.037257936 0.18125023 0.05308191 0.048049614 0.28866073 -0.33023548 -0.13030067 -0.0026565134 0.06918346 0.06148382 0.247078 0.04588714 -0.07949223 0.23368625 0.22418454 -0.18550743 -0.07544494 0.19620465 0.33210388 -0.05339322 -0.38507214 0.2582505 -0.29327384 -0.044430934 -0.24767388 0.01950975 0.091422826 -0.010897438 0.14183877 -0.041367773 0.19412364 0.1763158 0.019140625 0.0070302156 -0.27715373 0.1339482 -0.14555636 0.31087938 0.015679078 -0.04844575 -0.07160601 0.1952477 0.22557029 0.1910074 0.2701489 0.028507879 -0.32737145 -0.077482685 0.24773946 -0.036013838 0.08792581 0.121276274 0.08835817 0.41823807 0.18482694 0.16198115 -0.06644529 -0.06514141 -0.01992001 0.06222639 0.012006674 0.16689363 0.14270744 -0.05186701 -0.07149641 -0.2914276 -0.27135655 0.03939275 0.19015858 -0.3172994 0.1553159 0.3161628 0.19706537 0.03489898 0.051233284 -0.09660428 -0.23423964 0.013500708 0.05136836 0.021069713 -0.017571492 0.014267931 0.032649912 0.12376394 -0.15446672 0.043148287 0.31461373 0.049648054 0.019071883 0.02786848 0.42960784 -0.107443675 0.07003832 0.13255036 -0.028231218 0.08705086 -0.20615621 -0.13153312 0.0033850763 0.015767029 0.009791517 0.053720992 -0.2052382 0.017217893 -0.29598644 -0.038759395 -0.22834426 -0.03793107 0.072224334 -0.2398633 -0.0033629022 -0.098445065 -0.1599687 -0.26907924 0.092813425 -0.17282335 -0.26345628 -0.32299626 0.11026293 -0.2984128 -0.12054191 0.117830776 0.12294301 -0.08181082 -0.08389957 0.04234218
640 -0.039921433 0.024286686 -0.07179361 0.06737698 -0.03715037 0.14023747 0.22615606 -0.24760549 -0.15296653 -0.07247694 -0.09988486 0.016836058 0.21392746 0.09318934 -0.07624175 0.23504561 0.2763822 -0.20586479 0.0020445974 0.2298656 0.19578287 -0.06867528 -0.360391 0.25996095 -0.3417925 -0.23925087 -0.27946022 0.117618896 0.057209197 0.07657413 0.41516998 -0.07195729 0.10465679 0.034153208 0.001943035 0.009801696 -0.19268663 0.11174374 -0.12134485 0.2732717 0.03805014 -0.12450071 -0.11658517 0.1522398 0.38629866 0.14081557 0.30646378 -0.050000526 -0.35629523 0.067797996 0.20146924 -0.01275285 0.23948537 0.056443397 0.0325509 0.24101205 0.32665366 0.1996539 -0.021490809 -0.03968858 -0.109946 0.050039265 -0.016701147 0.15807456 0.11910137 -0.018526632 -0.19227755 -0.29393366 -0.3019142 0.11368036 0.35339728 -0.18403949 0.15418941 0.33506414 0.26678404 -0.023538785 -0.030312262 -0.04371618 -0.11684707 0.079648316 0.084007 0.007777355 -0.055168416 -0.05853583 0.0952811 0.18603638 -0.16217425 0.09741142 0.26933593 0.10051973 0.11731369 0.027820336 0.41107434 -0.20030229 -0.0016094771 0.16536658 0.06500159 0.06432116 -0.24187429 -0.2716624 -0.038359668 0.007045528 -0.07424006 -0.002082105 -0.20112449 -0.053678207 -0.31382322 -0.038882487 -0.33903357 -0.050061185 0.031690676 -0.24745788 -0.089008 0.06809131 -0.0784539 -0.3275818 0.09815295 -0.0815702 -0.19754896 -0.1718636 0.12516756 -0.3000023 -0.13293646 -0.00967771 0.17188749 -0.013816008 -0.082884826 0.04514416
513 0.17941383 -0.31385934 0.13382834 0.017934237 0.042989828 -0.040466245 0.021983193 0.1515732 -0.060104545 0.02291211 -0.077709995 -0.067430295 0.17872517 0.12243939 -0.039860573 0.11362315 -0.1595666 0.0041535283 -0.09182747 0.052754264 0.09047086 0.1610417 0.067365624 -0.16174866 0.060410082 -0.13166615 -0.27467334 0.054770373 -0.04696982 0.071047805 -0.09452903 0.036643088 0.13942109 0.09929177 0.06473386 0.046386074 0.14982013 0.021972513 0.15328081 0.069216706 -0.15103905 -0.093666665 -0.08963801 -0.08786753 0.050185576 -0.039217312 -0.09973773 0.15558322 -0.09091222 0.08613941 0.12914483 0.043855358 0.13022815 0.20723137 0.08397153 0.15558979 0.2527362 0.15000163 -0.094943345 0.22493976 -0.12790653 -0.3004034 0.22385287 0.016435253 -0.03210572 0.20909916 0.0032695318 0.09887846 -0.12983316 -0.022256041 0.059358988 -0.21295412 -0.123941265 -0.12103622 0.08699834 -0.14484549 -0.052266084 -0.007129384 -0.08340534 -0.031011386 -0.1229198 -0.060229093 0.09059891 0.021603946 0.21075626 0.10672147 0.1400594 0.014205518 -0.07417199 0.3312322 -0.08135583 -0.040198408 -0.12825398 -0.049948458 0.19136547 -0.06661467 -0.07726702 -0.03331028 -0.041171655 -0.02201908 0.0034316871 0.06816433 -0.13505583 -0.052301414 0.053435706 -0.12471051 0.053951968 -0.05746321 -0.14523879 -0.1436777 -0.06533227 -0.09514371 -0.1417228 0.105503455 -0.014821749 -0.12042852 -0.17827764 0.06083934 0.045821097 -0.050420035 -0.14571396 -0.23729752 -0.10234745 0.06394016 0.27133256 0.24394467 -0.10472947 0.12366177
577 0.013119828 -0.08716996 -0.071478136 0.058522988 -0.025562884 0.1714703 0.2643805 -0.23888615 -0.12211547 -0.049481053 0.08200372 0.076876245 0.13599214 0.050644945 -0.071665205 0.31637534 0.19298404 -0.18304804 -0.15295838 0.21746334 0.3373595 0.047008626 -0.37450907 0.25627592 -0.38914326 -0.15153599 -0.26765192 0.04759482 0.091750234 -0.00039649545 0.20878406 -0.091043085 0.12351914 0.041999407 0.07023866 0.015789442 -0.20006691 0.08686475 -0.03509814 0.23083362 0.003591807 -0.09929284 -0.090308405 0.28179264 0.2841488 0.12138515 0.30572757 -0.0009209204 -0.24648009 0.06895843 0.20359436 0.08637728 0.088317044 0.031077435 -0.0043436773 0.195817 0.2757352 0.08145231 -0.086153105 0.024683777 -0.13971509 -0.07638604 -0.045705896 0.10861111 0.07161779 -0.13442479 -0.11672668 -0.331754 -0.34941462 0.07796467 0.36086226 -0.16860528 0.09904741 0.48059633 0.2473639 -0.07456389 -0.054690666 -0.2320087 -0.18013552 0.03523442 0.17944863 0.0913122 0.060372323 0.04348423 0.08668318 0.24786994 -0.18559971 0.03437344 0.26083186 0.1344214 0.14720492 0.10244081 0.42788666 -0.09591966 0.07200621 0.18801083 -0.068903215 0.1319112 -0.21646072 -0.12026767 0.0985527 -0.067285135 0.07122364 0.07270728 -0.34112886 -0.07657981 -0.35994518 -0.0004153088 -0.28001168 -0.11168983 -0.05452945 -0.17310095 -0.10681928 0.031655367 0.047341794 -0.22422045 0.12411273 -0.07016638 -0.27861297 -0.1443577 0.1174695 -0.3135247 -0.12293577 0.06154058 0.24223024 -0.119366325 -0.12307354 0.04264361
599 -0.100159325 -0.11947896 -0.010642541 0.05270104 0.00050013675 0.029284313 0.15026852 -0.2049004 -0.1516074 -0.060259447 -0.022719994 0.0066926396 0.21986263 0.043373268 -0.06557919 0.22934736 0.4106021 -0.2321018 -0.08105734 0.2924705 0.21593527 -0.076653175 -0.36833552 0.15346186 -0.3456301 -0.16474529 -0.38875154 0.024341332 0.22566307 -0.021264806 0.29286492 -0.0069848043 0.023721788 0.108038574 0.063248195 0.067205004 -0.14558788 0.023194745 -0.093404494 0.29663768 -0.09087357 -0.11014191 -0.10782923 0.2963722 0.5055791 0.033318963 0.16065896 -0.04209964 -0.2748532 -0.08562259 0.14249666 0.045838233 0.14441541 0.054946467 0.12585545 0.27992067 0.18730006 0.19089544 -0.07374449 -0.028410308 -0.17433491 0.062235452 -0.00576761 0.117530815 0.12215281 -0.121236876 -0.15194711 -0.37397534 -0.2946333 0.0114798555 0.29693624 -0.23451675 0.15777487 0.41232383 0.33204854 -0.032789607 -0.05632804 -0.0710399 -0.1833293 0.0051208367 0.024716137 0.025639012 -3.8056432e-06 -0.022842461 0.08834321 0.2377805 -0.2592506 0.07291507 0.33695212 0.046687365 0.06356956 0.022436164 0.35109642 -0.053310364 0.04989838 0.33765206 -0.114176966 0.12781383 -0.1364052 -0.0975621 0.03928549 -0.13684379 0.06837175 0.020133315 -0.22025377 0.017830756 -0.37339798 -0.11607777 -0.33759323 0.00909279 -0.15710674 -0.21830945 0.060012314 0.04885627 -0.13857956 -0.25881353 0.058085963 -0.03359926 -0.33037692 -0.19674608 0.20826115 -0.31318352 -0.083830565 0.08591391 0.09014773 -0.07906714 -0.04144602 0.14363608
483 0.09263969 -0.26792666 0.18383974 0.07904748 0.05171034 -0.14143284 -0.058928266 0.21212529 -0.18583821 -0.13615887 -0.14795469 -0.12629835 0.07347579 0.036865834 -0.08209689 0.016614927 -0.1057143 0.072901554 -0.048159145 -0.029375523 0.009908746 0.16180493 0.1961523 -0.2226693 0.17280217 -0.02952761 -0.17154625 0.12859914 -0.04625103 0.017478991 -0.12375442 -0.047764156 0.2129037 0.18447874 0.119951956 -0.0703707 -0.051486902 0.020795133 0.21962951 0.014727376 -0.06316773 -0.12490628 0.010087553 -0.046701424 -0.019670498 -0.12848066 0.17416075 -0.10930911 0.051191114 -0.1135413 0.048148647 -0.011164695 0.20831591 0.11715203 0.014562214 0.18244407 0.23048764 0.14415367 0.08750118 0.093949184 -0.016634386 -0.3185413 0.1371026 0.03459621 -0.07686359 0.09867957 0.17466474 0.049567766 -0.29852194 -0.10146765 0.10690979 -0.22495987 -0.246375 0.012323829 0.025033243 -0.3039882 -0.036672894 -0.048906725 -0.20076813 0.015773553 -0.08371571 -0.08944546 0.21787296 0.19047733 0.1535705 -0.007844775 0.21783234 0.0900582 0.10578714 0.23707278 -0.12451088 -0.06800018 -0.041519932 -0.03381408 0.29645613 0.061042484 -0.2200577 0.030399263 -0.056947313 -0.10104911 -0.16521412 0.05623395 -0.12372996 0.08910566 0.07911314 0.06293891 0.04534441 -0.1442659 -0.12486101 -0.11035045 0.1388199 -0.19561198 -0.08717406 0.18712157 -0.08570178 -0.042790476 -0.044619374 0.02629087 0.073646605 -0.11112245 -0.18866588 -0.24065784 -0.105691105 -0.07198622 0.24508032 0.06294839 -0.026170397 0.13403167
436 -0.048618734 -0.2746185 0.065687984 0.03573927 0.1647317 -0.034131344 -0.13859308 0.18765843 0.009181162 0.057816762 0.03070273 -0.31179905 0.13118792 0.1160893 0.026137631 0.078348845 -0.26747316 -0.036369674 -0.054029103 -0.12833296 0.2344869 0.19563396 -0.04499424 -0.1505188 0.09234994 0.08387676 -0.28457233 0.06681252 0.031636078 0.06601286 -0.110408776 -0.03576687 0.22425976 -0.07179308 0.13492586 -0.053728282 0.06401942 -0.005480656 0.17531224 -0.02444492 -0.042380176 -0.11146627 -0.056795 -0.14581746 0.10355582 0.008969218 0.014361507 0.062050354 -0.077977434 0.1233141 0.13252006 0.026098568 0.1452475 0.1482917 0.06618367 0.13625364 0.19865899 0.12695067 -0.11032051 0.30030668 -0.07951783 -0.33441854 0.17421181 -0.0029534183 -0.14951566 0.16630386 -0.1295727 0.04807865 -0.108053856 0.035361674 0.15342899 -0.20263834 -0.21026127 -0.08709925 0.071423575 -0.18451142 -0.19602147 0.18640198 -0.150932 -0.111575544 -0.14386226 0.01711741 0.19895035 0.06846829 0.051334243 0.11759849 0.0070658782 0.022973716 0.17263046 0.266709 -0.04032545 0.022206075 -0.1312868 0.104933195 0.17409493 -0.04502393 -0.044473343 -0.009523786 -0.2789328 -0.084075704 -0.08658444 0.102588214 -0.10117273 -0.04628722 -0.025422143 -0.005940108 0.030937469 0.07058656 -0.10107179 -0.08576176 0.026885275 -0.08873819 -0.22340016 0.074380204 -0.16087629 -0.020512577 -0.24656567 0.0147413565 -0.060965482 0.08874864 -0.22580723 -0.1369692 0.1094527 0.16280027 0.22720665 0.12772502 -0.14741029 0.1697403
635 -0.07505112 -0.038378827 -0.050870012 0.09083638 0.012123065 0.23043433 0.20869523 -0.42899093 0.0004847472 -0.15383796 0.012930579 0.09233988 0.15009293 0.033056367 -0.034728777 0.1300251 0.18629543 -0.25709406 -0.027512977 0.19098349 0.3182581 0.062287822 -0.38241038 0.251046 -0.37396374 -0.105554655 -0.28741267 0.009023198 0.095497936 0.051030625 0.2070177 -0.24295385 0.20199417 0.08704532 -0.048724294 -0.117955 -0.27417466 0.07997793 -0.060689233 0.38492495 -0.06325793 -0.17016047 -0.08097928 0.30590105 0.36946833 0.15815474 0.24114451 -0.0050545447 -0.26029688 0.027014503 0.2180476 0.006898135 0.069768876 0.034817483 -0.009180319 0.23680691 0.26329362 0.03808369 -0.23660323 -0.06785873 -0.15472095 0.09730306 -0.02461464 0.06283772 -0.0057175574 -0.1358914 -0.06522688 -0.34830883 -0.29708663 0.034669675 0.39258072 -0.13305767 0.040014714 0.23855536 0.33913094 0.02740961 -0.11927105 -0.13508263 -0.19147645 0.058072824 0.07210071 0.022053996 0.069632374 0.12516119 0.00062196294 0.26155013 -0.10638394 -0.023551239 0.28834477 0.100292705 0.09013445 0.00401896 0.3852675 -0.19667746 0.11468943 0.15346837 -0.048693858 0.16538422 -0.29921618 -0.10320278 0.035910364 -0.07287202 0.022389732 0.021354813 -0.26283967 -0.0031283223 -0.2778492 0.011589862 -0.24778292 -0.099686205 -0.0037646051 -0.13349676 -0.12143235 0.07536844 -0.06364934 -0.22172645 0.11936622 -0.18410063 -0.16912854 -0.22130606 0.13098134 -0.28179583 -0.17767751 0.05636491 0.1974405 -0.11394234 -0.043240942 0.00808348
559 -0.08639702 -0.27356845 0.045064386 0.08890257 0.10698768 0.035567977 -0.0053674453 0.068159565 -0.055685986 -0.11138664 -0.015965246 -0.3131139 -0.029940236 -0.0458347 0.072774604 0.040704846 -0.0854436 -0.05232881 -0.07437377 -0.0011374017 0.034597706 0.2502328 -0.022766657 -0.05321472 0.09115501 -0.022994673 -0.26888335 -0.10461265 0.10945137 0.018427681 -0.29896414 -0.13204385 0.15647298 -0.0006128717 0.15754856 -0.048221316 0.07785123 0.00071984617 0.22860543 0.04917943 0.026971431 -0.17025565 -0.10127745 -0.025996745 0.1827046 0.009303411 -0.015025724 -0.052603647 -0.009477977 -0.026589936 0.17681725 0.09766139 0.1572532 0.13310497 0.061467312 0.15880209 0.31547 0.090431914 -0.07189593 0.12334981 -0.033645757 -0.3250191 0.16687103 -0.03667713 -0.19288515 0.097846545 0.041467045 -0.047497455 -0.10488743 0.0018879386 0.18019958 -0.034673043 -0.13402312 0.13566647 0.12985207 -0.1846334 -0.08410848 0.08505044 -0.17018771 -0.06893554 -0.1964129 -0.1264753 0.14704974 0.0863867 0.07278642 0.026988374 0.062432565 0.10775094 0.15780191 0.1969127 -0.004552258 0.028678687 -0.2799139 0.00792836 0.19175854 0.039506074 -0.071647376 0.16555047 -0.21828441 -0.0074678916 -0.07302068 0.118522376 -0.14454399 0.1257279 0.13762005 0.011811021 0.08377672 -0.17222735 -0.13133696 -0.18483368 -0.029930271 0.027489254 -0.093014225 0.07062446 -0.16517672 -0.09202925 -0.10861107 -0.027298188 0.07199714 0.06539482 -0.14454609 -0.18738641 -0.041163355 0.047354326 0.14664015 0.02860292 -0.100018434 0.1880286
650 0.037973847 0.030100167 -0.02817731 0.11748346 0.046148255 0.18777128 0.19030662 -0.24577343 -0.1412801 0.040770542 0.11715268 0.06311767 0.16243282 0.00507784 -0.080207504 0.18116021 0.17965932 -0.1691142 -0.040795624 0.22117311 0.33091903 -0.01051221 -0.36451688 0.066344164 -0.3856056 -0.09154285 -0.18083528 0.0077611506 0.030058118 0.02373021 0.32121795 -0.12888345 0.16749579 0.028785655 0.103789546 -0.0834102 -0.30419004 0.07999897 -0.13592923 0.17743634 0.01589241 -0.019229207 -0.14610069 0.15323102 0.45403334 0.04510644 0.33698168 -0.10743352 -0.3709466 -0.025423758 0.20472172 -0.05149858 0.15250793 0.12050625 0.053001113 0.25748512 0.1340875 0.18034579 -0.14271796 0.0716754 -0.12454403 0.02353509 -0.001491856 0.059205055 0.06537092 -0.18616056 -0.2181083 -0.3499058 -0.20241933 -0.05931406 0.30032575 -0.19483541 0.2689677 0.33032995 0.3028335 -0.079113714 -0.054691207 -0.08559522 -0.18564433 -0.13244683 0.06478501 0.10854333 -0.0030273015 0.043733597 0.14413023 0.27349097 -0.104299344 0.08672416 0.3306176 0.107421 0.084226325 0.13802603 0.42763612 -0.03056104 0.20732167 0.14027062 -0.06803759 0.10418218 -0.20302744 -0.21348459 0.0074738865 -0.07137596 0.018653823 -0.10860097 -0.29532477 0.012010691 -0.3725702 -0.0813027 -0.23279725 -0.11865067 0.0429591 -0.22675093 -0.026880777 0.05892063 -0.19263877 -0.32717377 0.13843568 -0.16821511 -0.36620057 -0.1686935 -0.017361142 -0.24690701 -0.038918883 0.0871325 0.24435848 -0.12867227 -0.1086394 0.07934879
500 0.117348 -0.28152996 0.26017776 0.049837425 0.07391081 0.025942858 0.049643256 0.033695303 -0.08882968 0.060742106 -0.083420224 -0.28455436 0.061050624 0.03593425 0.05777161 0.16895722 -0.046225145 0.034642465 -0.06700319 -0.05751692 0.053483456 0.17146051 -0.07803146 -0.19890745 0.13732535 -0.01741448 -0.24246496 0.098381855 0.060903672 0.04980417 -0.14449131 0.02479528 0.12369493 -0.040666178 0.10741692 -0.023388691 0.21859716 -0.0034101454 0.14724427 0.01574245 0.026399706 -0.062069986 -0.045454465 -0.124330215 0.058257364 0.06712075 -0.032949347 -0.0021720612 -0.15279633 -0.040714264 0.14614971 0.0850992 0.122019485 0.18186167 -0.010050834 0.18114981 0.18022947 0.1232498 -0.14683917 0.17192714 -0.117251076 -0.14931849 0.20163912 0.07941259 -0.06420887 0.121837184 0.020560294 0.034505904 -0.06685976 0.010663424 0.11626618 -0.1221886 -0.058855053 0.07223744 0.06853384 -0.094975404 -0.042950314 0.026592163 -0.079277836 -0.08480084 -0.20364897 -0.18970868 0.08184128 0.10853164 0.15293053 0.1418898 0.1796441 -0.013333872 0.03153269 0.283731 -0.14483796 -0.077283375 -0.115307584 -0.013055148 0.15520917 -0.05443501 -0.034960054 0.008853198 -0.045536272 -0.025784466 -0.053443477 0.1341627 -0.25110835 -0.037787456 0.17716968 -0.18061104 -0.050325803 -0.19046605 -0.12408832 -0.10523219 0.043941338 -0.06696737 0.027906958 0.10907249 -0.062691085 0.01807646 -0.015463639 0.06536486 0.16140944 -0.049798213 -0.061076727 -0.17772467 0.08355972 -0.070575304 0.30059466 0.2136317 -0.031569716 0.10808358
641 0.15174995 -0.06374805 0.057964943 0.17103867 0.06822384 -0.067349054 -0.024013158 0.20168877 -0.15782069 0.08797801 0.08596854 -0.27130958 -0.031248376 0.091855094 -0.0017185697 0.16048625 -0.15276414 -0.049766995 0.09267581 0.047839105 0.17121682 0.25140396 -0.017687753 -0.2658661 0.15350261 -0.26000443 -0.19833632 0.056768004 0.117980525 0.060290273 0.076161414 -0.15084228 0.18147711 0.032662693 0.15157841 0.1342708 0.03440522 0.06049064 0.20605859 0.2245959 0.051858507 -0.056549415 -0.14470647 -0.19035757 -0.0038953915 0.124585316 0.026045986 0.06877125 -0.19042322 0.047971103 -0.009686215 0.104569994 -0.018678255 0.05110883 0.1285409 0.019199984 0.3472166 -0.026464088 -0.06403625 0.29569975 -0.1252868 -0.13908276 -0.0668052 0.07653524 -0.15067677 0.08036634 0.046331156 0.11338803 -0.13072932 0.2241546 -0.018741602 -0.16874714 -0.16314752 -0.16197757 0.09103367 -0.12519048 0.039390747 0.17648451 -0.14901032 -0.09051169 -0.2813529 0.042965878 0.04714409 0.12978221 0.08875194 0.032091875 -0.00394059 0.05514236 0.039663676 0.31867623 -0.13097292 -0.056841474 -0.051605932 0.07781541 0.25448725 -0.33437875 -0.116639964 -0.059634518 -0.21597897 -0.021719655 -0.19847101 -0.0010447792 -0.21629767 -0.001764962 0.006874712 -0.010413652 0.045737427 -0.109322466 -0.09443875 -0.06610623 0.18027052 -0.1329526 -0.05405888 0.07843182 -0.13083091 -0.037668053 -0.013679892 0.011095033 0.21311057 0.27678806 -0.09209943 -0.2270524 0.10105866 0.0069963536 0.26264095 -0.04632622 -0.2862862 0.058913264
637 0.21174252 -0.057753514 -0.011327419 0.22137307 0.07685995 0.0862284 0.08195602 0.10300513 -0.13425103 0.02940432 0.07447948 -0.10709816 -0.023382194 0.20813839 0.10718821 0.016829077 -0.22195636 0.35883117 -0.009177904 -0.020827845 0.05149642 0.21605879 0.039810132 -0.22179902 0.23072919 0.032494556 -0.120855935 0.056080844 0.033999182 0.07375668 -0.18850856 0.06994459 0.32629633 0.036782097 0.361607 -0.12848608 0.09157296 -0.15468001 0.14349853 0.1598333 0.058813017 -0.13383566 -0.09052307 -0.08128828 0.09987371 -0.015690738 -0.15041251 0.14794111 0.024353726 -0.0321641 0.17713968 0.07998448 0.114315175 -0.04636126 0.06045431 0.21171142 0.33086288 0.22887006 -0.110721886 0.021063423 -0.11223145 -0.16398817 0.08634245 0.006463335 0.052473668 0.12544836 0.0052251094 0.1133255 -0.19984996 -0.16721721 0.20863847 -0.16816674 -0.23679833 -0.111888334 0.026557408 -0.18970196 0.04397609 0.110621534 -0.20272127 0.071508765 0.09338517 -0.06391328 -0.009658054 0.090392776 0.20256406 0.082338564 0.1366265 0.049543757 0.0043758294 0.20756909 0.023870923 -0.054813944 -0.0043736584 0.024041543 0.34423307 -0.01117013 -0.110220134 -0.030348014 -0.19118088 -0.08379617 -0.17720973 0.032363687 -0.16310182 0.15508468 0.13567479 -0.08264273 0.12140335 -0.16192308 -0.094639525 -0.10236359 0.13303934 -0.066058405 -0.1432199 0.029363735 -0.18523735 0.12512645 -0.053650957 -0.033098392 0.13725568 0.024646083 -0.1559982 -0.058287468 0.008537325 0.058087092 0.24299122 0.20163469 -0.14223956 0.16186605
475 -0.023332853 -0.31844643 0.18963383 0.09252912 0.1040857 -0.097144626 0.048343234 0.040741537 -0.019307606 0.036826503 -0.052471027 -0.22845258 -0.09076646 0.15497017 0.07177314 0.05072522 0.03459639 0.061293926 -0.12323236 -0.07150828 -0.033649843 0.26761624 0.0653923 -0.14049038 0.04963114 -0.06821807 -0.25296947 0.124022625 0.032960627 0.048664197 -0.0446325 0.028241295 0.10922134 0.031721555 0.19727036 -0.013579444 0.13931777 0.007421346 0.3144351 0.11713389 0.032681007 -0.092261024 -0.06143334 -0.14631365 0.19242541 0.057966594 0.066066116 -0.05596357 -0.04350926 -0.09339424 0.09627893 0.16109934 0.23399734 0.14685884 0.06378754 0.27809724 0.2904485 0.19680418 -0.01667598 0.20173375 -0.15511662 -0.3205489 0.2541097 -0.017556617 0.024983527 0.1892946 0.0055427398 0.022896599 -0.088162914 0.02452329 -0.011870673 -0.09273151 -0.23629367 -0.09403404 -0.107710294 -0.21380527 -0.02220201 0.2473958 -0.13112968 0.24654657 -0.041997895 0.063921705 0.15504007 0.04130093 0.20358591 0.12265614 0.02407309 0.058921784 -0.09026167 0.2547131 0.006556575 -0.05975274 -0.21849728 0.09872688 0.2459826 -0.028768977 -0.018896628 -0.0011953699 -0.16410254 -0.03742399 -0.1146183 0.08432717 -0.16210434 0.09015397 -0.009554614 -0.11121094 0.03500512 -0.009572879 -0.21901037 -0.1745043 -0.055873293 -0.076168954 0.055274617 0.12731738 -0.116561845 -0.102029845 -0.17003226 -0.081985995 0.18654867 -0.037238784 -0.33239353 -0.1611156 -0.005637171 -0.022051718 0.35544246 0.119869694 -0.035105284 0.24676202
400 0.058479022 -0.30562684 -0.009258668 0.1997851 0.045493614 -0.03605754 0.0020337394 0.17106397 -0.13428041 -0.045276932 0.0025857675 -0.38000807 0.028487256 0.19082692 0.232122 0.009921319 -0.015972333 -0.031634346 -0.13082455 -0.032273006 0.20009673 0.26403743 -0.024197241 -0.073347256 0.052234586 -0.037376557 -0.27318698 -0.08067086 0.024092518 0.02221726 -0.24518345 -0.0998069 0.3004791 -0.016527725 0.05281038 -0.02060374 0.18825905 0.002396069 0.27332547 0.02563006 0.058116816 -0.16207556 -0.06939605 -0.120807275 0.06918894 0.032416902 -0.012624178 -0.021090072 -0.038574126 0.010717797 0.058469515 0.086367115 0.1505562 0.22952226 0.043721132 0.28950894 0.23208189 0.11394022 -0.072202764 0.39018655 -0.1591142 -0.22533786 0.18953706 0.116197705 -0.13979883 0.1285736 0.17061636 0.08740632 -0.08056428 -0.056634836 -0.066744335 -0.1726318 -0.2412419 -0.14141792 0.06765135 -0.109607495 0.0460124 0.12339203 -0.14669473 -0.09076528 -0.07264797 0.058380242 0.18137671 0.10163399 0.15530504 0.07450873 0.17673467 0.08087536 0.058747504 0.31218228 -0.088873684 0.03345305 -0.073528826 -0.023237547 0.31672937 -0.08516767 -0.07104965 0.075921975 -0.081369154 0.0706085 -0.034108218 0.0059189647 -0.063264504 0.0985447 -0.08375226 0.030594448 0.033429507 -0.10326791 -0.15033868 -0.15019834 0.08152147 0.0657274 -0.049963616 0.027194694 -0.104264095 -0.111321144 -0.12636463 -0.04761872 0.11379359 0.046835143 -0.21867703 -0.20616387 0.04595186 -0.10682889 0.31556696 0.072383754 -0.09441972 0.18634458
623 -0.0044151875 -0.37292206 0.21674907 0.018686013 0.0075124996 -0.11169681 -0.21952464 -0.15681021 -0.08135659 0.116102256 0.3574546 0.23495488 -0.1387447 0.14112467 -0.11385304 0.013975227 -0.0034590624 -0.10970859 -0.18218392 0.05749385 -0.056175012 0.013002949 -0.051690634 -0.2712419 -0.062042937 0.007750765 -0.09002391 0.028749775 -0.10294548 0.006849943 -0.17071682 -0.049190234 0.028789442 0.13441247 -0.23606703 0.053770356 0.15361674 -0.2036613 -0.056845754 0.11065845 -0.17822342 0.057380185 0.11332542 0.04519557 0.22182819 0.17216735 -0.22518146 0.12566233 -0.44926614 0.14374588 0.000115945586 0.11937543 0.020597536 -0.24085552 -0.012844736 0.22120774 0.18179612 -0.025365982 0.09286583 0.181366 0.07267839 0.09393162 -0.042475287 0.0003934857 0.40698582 -0.19160266 0.13816321 0.20241997 -0.18876444 -0.26712087 0.085639216 -0.3002051 -0.54218894 -0.06602831 -0.03882628 -0.19521913 -0.18731397 -0.06376737 -0.18916188 -0.13775174 0.000706943 -0.10647715 0.09295143 0.17015806 0.027892778 0.24281058 0.42765915 -0.10731018 0.071000814 -0.110833086 0.03986186 0.18277812 0.0126659395 -0.16628623 0.35515353 0.13975489 -0.18111025 -0.37910792 0.090611786 -0.13332218 0.12483598 0.10108939 -0.14948718 0.15321322 -0.025033638 0.015550771 -0.04815415 -0.19149645 0.041480105 0.12697838 0.12172968 0.030619748 0.21475908 0.0508563 -0.18025514 0.005682984 0.1348459 0.16952452 -0.12310771 -0.21953158 0.14021373 -0.18724588 0.026100377 0.1095127 -0.29259473 -0.07745175 0.20110995 -0.09360504
348 -0.04325436 -0.3189669 0.011373408 0.20729694 0.078446746 -0.106984444 0.07557786 0.028808443 0.0991123 -0.16864786 -0.12919231 -0.30498335 0.04755574 0.00990351 -0.16261166 0.17166492 -0.20799376 -0.13840681 -0.15142159 -0.028571608 0.017029243 0.24439073 0.15803987 -0.11405493 0.17667882 -0.062225074 -0.32648715 0.0993629 0.06437672 -0.08241144 -0.16907564 0.08560283 0.15961616 0.057080124 0.04319784 -0.080274105 0.17176998 0.03871378 0.20266823 0.14522001 0.10663665 -0.015582351 -0.15912719 -0.19822748 -0.013984567 0.21872064 0.008622509 -0.04216042 -0.056616493 0.09875375 0.21486413 0.18260609 0.12452154 0.060086727 0.081369266 0.1960995 0.27429664 0.02818007 -0.1817265 0.06379352 -0.080570735 -0.2973589 0.20007768 0.016664103 0.036664456 0.11239403 0.29465172 -0.18114842 -0.0546145 0.022648621 0.10856248 -0.18374453 -0.3169778 -0.037608486 -0.024255998 -0.09253686 -0.05839026 0.042813808 -0.40886796 -0.11434575 -0.09156011 -0.046831053 0.1851909 0.03123982 0.06491559 0.063373186 0.14247316 -0.004351222 0.048639186 0.27972233 -0.25141045 -0.094197094 -0.26848572 -0.003056148 0.15760623 -0.010900463 -0.0045914124 0.06489029 -0.11702212 -0.033400785 -0.10676453 0.0009228999 -0.08318133 0.18562391 0.05291045 -0.11607578 0.082435 -0.036694195 0.066473246 -0.08040778 0.032050684 -0.25966212 -0.12892906 0.029986897 -0.27922824 0.03543358 -0.29348776 0.0057441466 -0.11984964 0.0915968 -0.1335562 -0.22365345 0.16814956 0.1176273 0.23542163 0.13142663 -0.18394913 0.08611361
438 0.0713183 -0.4295007 0.0013081208 0.16091603 0.07556516 0.018802088 -0.16773154 0.039020874 -0.18055488 -0.09338626 0.013272101 -0.22849537 -0.03831414 -0.109301165 0.07292637 0.18346068 -0.05828332 -0.05892545 -0.12797748 -0.02354628 0.122193426 0.35062027 0.026923213 -0.13906464 0.27971187 -0.031095734 -0.32413816 0.024860084 0.019918008 0.17203341 -0.19047475 0.059049588 0.0074039237 -0.014236615 -0.029114619 -0.012363504 0.1778985 0.11693804 0.23459895 0.05562002 0.0213342 -0.16259305 0.03440812 -0.112296775 0.038126808 0.046939403 -0.025637198 -0.119685344 -0.09772202 -0.016039778 0.08675249 0.0082238475 0.17902842 0.15258048 0.048017375 0.06450231 0.2565052 0.12625727 0.027805183 0.27085593 -0.023748254 -0.1800462 0.2176975 -0.0327653 -0.2775771 0.062800564 -0.0543367 0.038791478 -0.055683956 -0.023039041 0.022685302 -0.14862852 -0.26023906 -0.024648111 0.046042148 -0.11162996 -0.008234624 -0.041217502 -0.16345915 -0.006264523 -0.15660548 -0.06426844 0.15487364 0.13517395 0.07410174 0.12145419 0.19042872 0.07641858 0.0039145495 0.28638273 -0.10778435 -0.00842976 -0.17271444 -0.0070589585 0.20697103 -0.11669217 0.008841327 0.023750007 -0.22823659 -0.11133026 0.024695816 0.051683474 0.050032154 0.11996774 0.17194532 -0.067893416 -0.013009106 -0.0028260907 -0.047760967 -0.19840106 0.1109897 -0.11153067 -0.046796363 0.013526747 -0.051018555 -0.112950675 -0.10265152 -0.008211408 0.11859708 -0.027495684 -0.3033058 -0.2666138 -0.11599855 -0.00034642185 0.12243505 0.046310652 -0.11181588 0.17560174
561 -0.031467777 -0.34695423 0.16510472 0.13110293 0.01672903 -0.04927433 -0.10600521 0.07611146 -0.056321356 -0.13708957 -0.13655531 -0.18175766 -0.06621466 0.018408548 -0.046003662 0.10995131 -0.1821336 -0.025725346 -0.031133698 -0.09020795 0.06530565 0.317503 -0.019019587 -0.13301344 0.006480381 0.028496983 -0.36753118 4.1957144e-05 -0.008420891 0.035478007 -0.27289772 -0.04296404 0.12710907 0.06704274 0.17114775 0.0760434 0.17150326 0.008067357 0.22557099 -0.0030877283 -0.019704925 -0.08892807 -0.08719301 -0.1747855 0.184135 -0.050300803 -0.04937834 -0.042502705 -0.044577148 0.043600142 0.17115553 -0.010134832 0.034215864 0.2161889 0.13598819 0.19402263 0.29974493 0.18568674 -0.13946281 0.18835387 -0.08127541 -0.27056018 0.28886518 -0.014215059 -0.12047679 0.073194906 0.04121171 0.13482642 0.011506331 0.08805359 0.12110133 -0.056619007 -0.12494862 0.023862472 -0.117249124 -0.19832674 -0.12024855 0.09877579 -0.08268146 -0.032051444 -0.041126784 0.03973705 0.16207525 0.14496355 0.04701434 0.14208792 0.097858965 0.029874407 0.054924317 0.19615616 0.07282917 -0.04770701 -0.155138 -0.01953145 0.16999999 -0.22883084 -0.06393351 -0.042158663 -0.16340889 -0.10968402 0.031590465 0.014709641 -0.21854603 0.02747481 0.05314328 -0.057671234 0.023847537 0.029893672 -0.22420867 -0.14850551 0.08414734 -0.0692349 -0.16565521 0.19606328 -0.13288794 -0.19533598 -0.026369512 -0.16115473 0.063231364 0.055981923 -0.03557818 -0.12352324 0.022872861 0.04743192 0.21242528 0.114392065 -0.07471709 0.24177371
465 0.10207043 -0.31482315 0.09965678 0.13060057 0.10081118 -0.044838555 0.086150445 0.08533725 -0.062488303 0.09630312 -0.03394044 -0.23361522 -0.08584533 -0.057937045 0.012530604 0.0736014 -0.046095993 -0.058206093 -0.15949398 -0.05772883 0.11052428 0.22588003 0.024834698 -0.17076886 0.21711844 -0.23718646 -0.26887244 0.06565752 0.080810726 0.064441435 -0.08109675 -0.035671886 0.28489682 0.03860467 0.07987449 -0.09446639 0.15578884 -0.029211301 0.17888868 0.021301793 -0.10508905 -0.079019554 -0.20567994 -0.06704688 0.07021447 7.542717e-05 0.01137259 -0.013869155 -0.027101228 -0.015249703 0.07800749 0.13687262 0.10766147 0.0149833225 -0.00338558 0.15308212 0.28192636 0.10468687 -0.07847882 0.25318986 -0.041443046 -0.25139663 0.11181154 0.09126307 -0.014738064 0.12810835 -0.00500391 0.071926855 -0.12514533 -0.007913343 0.17376217 -0.12608752 -0.058209248 0.10900932 -0.0049334927 -0.02035489 0.044708014 -0.03174147 -0.07291503 0.074305266 -0.10565362 -0.037902694 0.1071884 0.18391769 0.1917525 0.15934415 -0.003483218 0.06683006 0.01279672 0.2961511 -0.1547414 0.02840571 -0.18062496 -0.07928579 0.39763594 0.057805136 -0.08722917 -0.01487752 -0.08718918 -0.08603445 0.05972119 0.12139434 -0.05011659 -0.037775807 0.19735132 -0.14387737 0.06303199 -0.020566009 0.01149407 -0.1229868 -0.041199677 -0.09266322 -0.027206035 0.04199251 -0.04976864 -0.015133111 -0.013192417 0.20358597 0.12566839 0.023914412 -0.19749616 -0.17020497 0.039544895 -0.10114698 0.14281048 0.3714616 -0.02488028 0.11700228
595 0.049453087 0.001782896 0.09206282 0.14397629 -0.031965252 0.12882343 0.1425966 -0.28765774 -0.11739796 -0.059805047 0.07652984 0.044996206 0.104721345 0.0409583 -0.077446654 0.30957422 0.31888205 -0.15874624 -0.008735268 0.2701452 0.17625815 0.042840213 -0.44156203 0.20817775 -0.43224838 -0.23562825 -0.33322716 0.085073434 0.039648935 0.07882022 0.21859378 -0.19613472 -0.01978152 0.15893246 0.05611261 -0.024882754 -0.2520483 0.0059936442 -0.029551992 0.22049111 0.03308721 -0.16409455 -0.099256404 0.15430146 0.33577657 0.055724613 0.31134188 -0.025779542 -0.30684406 0.05964975 0.23867036 -0.05408671 0.10171671 0.07854765 0.035533167 0.29143932 0.22408178 0.16111685 -0.113011375 0.027629415 -0.16240571 0.087846994 -0.013267944 0.1883406 -0.02059168 -0.07010302 -0.027280597 -0.33980876 -0.15119436 0.15597291 0.17259516 -0.18724693 0.04096659 0.36411366 0.27980557 -0.010894687 0.039117254 -0.098953694 -0.1886171 0.07689693 0.03210989 0.028154865 0.09677156 -0.0065338826 0.114778474 0.20522615 -0.29358643 0.0048973905 0.15289658 0.10001655 0.06825751 -0.024339665 0.31298998 -0.19826448 0.080049366 0.23446213 -0.08148187 0.16434571 -0.3173759 -0.25318506 0.16590296 -0.03087907 -0.031084407 -0.040878877 -0.2957532 -0.013827385 -0.2867367 -0.027581995 -0.36004928 0.0034883986 0.052679934 -0.164868 -0.111614816 0.05587912 -0.06041217 -0.28680176 0.1710431 -0.19037202 -0.21310054 -0.11463564 0.03291141 -0.34451014 -0.20998979 0.08335008 0.15441418 -0.16704698 -0.030612592 0.005953521
506 0.0493628 -0.28618696 0.050858635 -0.15692566 0.058440443 -0.11845625 -0.08150813 0.055043217 0.006312205 -0.14020339 -0.11406774 -0.10870354 0.05985462 0.011267651 -0.095779136 0.17559008 -0.1612544 0.10588439 -0.2153913 0.13595673 0.10922512 0.2434453 0.052508254 -0.0979633 0.04730346 -0.09154945 -0.20222805 0.12363387 0.17213428 -0.0027259218 -0.13037787 -0.008527334 -0.025847929 0.093061894 0.2483678 0.042599693 0.09738102 0.10395349 0.049303107 0.06984299 -0.017546467 -0.059370857 -0.16551962 -0.10425234 0.0749521 0.06545228 -0.08782432 0.033533853 -0.06300923 0.08088813 0.21475922 0.07553623 0.030712783 0.17957224 0.040191256 0.14902855 0.30321294 0.1711545 -0.0898187 0.08330017 -0.0644486 -0.33864778 0.17064646 -0.122799486 -0.15243703 0.14829993 -0.0542665 0.10306997 -0.056831315 0.02821252 0.08224001 -0.16540447 -0.34904668 -0.011393139 -0.029440073 -0.14833945 -0.10823111 0.099516444 -0.16163795 0.04016393 -0.14729682 -0.00903284 0.20380099 0.068406396 0.1073714 0.09598825 0.06904285 0.03645799 0.035535987 0.42268935 -0.10122142 0.16431682 -0.24708956 0.077680536 0.20156555 -0.15275648 -0.16820523 0.011030664 -0.19744672 -0.07790231 -0.10413712 0.009176997 -0.068856284 0.030842531 0.08805892 -0.056911957 0.16115262 -0.012512244 -0.0865297 -0.18775962 -0.09335554 -0.055112556 -0.10516691 0.09385746 -0.040637635 -0.20339237 -0.15631743 0.026899228 0.06715314 -0.008801591 -0.20978893 -0.30210617 -0.056254804 0.13678895 0.24551794 0.046323866 -0.1874321 0.1477099
544 0.07865131 -0.38365707 0.2476841 0.16171773 0.088632084 -0.040894233 -0.13000792 0.10055609 0.016020803 -0.056594376 -0.12851642 -0.3323217 0.037056666 0.020387638 0.1576698 0.104997106 -0.076344736 0.014979988 -0.14644477 -0.00016126226 0.29880035 0.25603408 -0.0495092 -0.07238119 0.19907835 -0.082346156 -0.3770177 0.11700785 0.12241831 0.07546322 -0.07553258 0.042016797 0.04739308 -0.00053346576 0.17775181 0.08370146 0.29337075 0.00223181 0.23619495 0.039954524 0.078090295 -0.08669369 -0.15926783 -0.05894149 0.15846598 -0.013633199 -0.013569385 -0.07648766 -0.08025325 -0.097756974 0.1201879 0.15091069 0.23874599 0.12910779 0.086898975 0.20118174 0.31689212 0.13927343 -0.059461396 0.26258656 -0.08439601 -0.2369977 0.42600182 -0.07571458 -0.084947504 0.18874913 0.030225104 0.10563525 0.012713912 -0.0075494368 0.05772795 -0.050497603 -0.18493904 -0.0010209958 0.06666916 -0.17678837 0.081202105 0.06042675 0.02968303 0.13733102 -0.06931775 -0.09324911 0.16692436 0.06992973 0.15603723 0.03207187 0.09208683 0.084893145 0.102940634 0.21217711 -0.035198797 -0.03959551 -0.048005287 -0.044368446 0.14144954 -0.05427223 -0.09642585 0.0932516 -0.19465612 0.02291245 -0.09610981 0.16377613 -0.1439138 -0.06394233 0.11672072 -0.123975 0.008572071 0.054088168 -0.11103661 -0.14547881 0.07573283 -0.048291285 -0.03196416 0.11055601 -0.014259032 0.04365089 -0.12772958 -0.062703416 0.057396054 -0.053459376 -0.21161164 -0.1226416 0.0056387885 -0.02430588 0.12397961 0.11950368 -0.022095583 0.19913214
584 0.10972085 0.1392613 0.17770176 0.1425446 0.21612154 -0.025999865 -0.08159006 -0.054024346 -0.30138043 0.21079668 0.117552705 -0.061570182 -0.22511376 0.022675555 0.08249274 0.17596099 -0.19678274 0.06435648 0.093374565 0.07744864 0.21976167 0.026277132 -0.2970747 -0.33823502 0.035846572 -0.0819047 -0.36037424 0.24378571 -0.07318931 0.034759067 -0.1830649 -0.19942456 0.1857346 0.22792275 -0.13311526 0.098532416 0.038328167 -0.13643867 -0.21303546 0.08844206 -0.15408525 0.0068941754 0.25077525 -0.12765048 0.2739986 -0.01956462 -0.12843291 -0.10878767 -0.3082612 0.10716405 0.010810207 0.25260487 0.3709806 -0.31278056 0.1027345 -0.1214592 0.262137 0.122765206 -0.2439968 -0.18334395 -0.17516115 -0.008752488 -0.254797 -0.14791039 0.24229956 0.124895595 0.24539557 0.015614068 -0.25185356 -0.3271826 0.18367977 0.031179288 -0.3489179 -0.1446147 -0.048956443 -0.25103208 -0.033326738 -0.1891898 0.084111094 0.074791275 0.04839232 -0.1569465 0.15998329 0.11572111 0.12142075 -0.29514137 0.19720547 -0.12841846 0.09150805 -0.33189794 0.16888332 -0.14875609 0.12983394 -0.21359354 0.17065121 0.15656598 0.0963958 -0.3204291 -0.2690761 -0.34270892 -0.06472653 0.09013197 -0.12715447 0.20588228 0.20483388 0.12268698 -0.10706213 -0.017894942 -0.07493519 -0.06276169 0.14106192 -0.0005222086 -0.028247815 -0.060976584 -0.14772972 0.06980295 -0.22665437 -0.10290119 -0.11885934 0.108472064 -0.20332463 -0.017427564 -0.071033545 0.043729592 -0.22217555 -0.13405924 0.04324893 -0.04059353
422 0.11792973 -0.20106757 0.13963756 -0.11487107 -0.0073804962 -0.02659415 -0.05339694 0.021959497 -0.14186993 0.22197558 0.22837524 -0.16161394 -0.1365039 0.033483174 0.19988191 0.12510534 -0.037946545 0.17291097 -0.16999765 -0.095167086 -0.058738567 0.22529466 -0.07237812 -0.19592987 0.03576737 -0.105170384 -0.26282284 0.1062058 0.045003314 -0.0829676 -0.110406786 -0.1259699 0.04037447 0.029378217 0.02415386 0.023590412 0.28643945 -0.10916689 0.021635868 -0.13230097 0.067954175 -0.06756602 -0.06786922 -0.0701824 0.042432178 0.25841275 -0.06612362 -0.027119014 -0.13434736 0.18383831 0.026448244 0.1227518 0.20588748 -0.074193016 0.0022135295 0.14987417 0.29279563 -0.03761762 -0.17590867 0.054624114 -0.04651108 -0.16551545 -0.1382167 -0.09541196 0.4238737 0.13942273 -0.109598346 0.12034303 0.06669478 -0.19586074 0.079206675 -0.4045049 -0.103078015 -0.25305894 0.042530805 0.06570864 -0.08780907 0.004485185 0.018002585 0.13051426 -0.08861272 0.048400752 0.12907352 0.22417957 0.08352955 0.040884897 0.17262782 -0.095945776 0.12968265 -0.0145036215 -0.0864862 -0.1823712 0.037081715 0.1854945 0.31600842 0.1358072 0.020483285 -0.30008927 -0.03466154 -0.25741667 -0.15602364 0.08462548 -0.21635942 0.022276238 0.113111705 -0.10745742 0.069853306 0.012221034 -0.011018979 -0.05412756 0.07449451 -0.10924257 0.009291347 0.13509291 -0.08539584 0.10360156 -0.10247177 0.13936387 0.1022286 -0.08693472 0.060796596 -0.011612242 -0.1884548 0.016768249 -0.29433808 0.17557912 -0.04278508 0.081846334
378 0.04549619 -0.38355964 0.2771347 0.09615971 0.07091096 0.017861824 0.0049469755 0.07030506 -0.006321852 0.009393604 -0.09305433 -0.25417578 0.00039753978 0.12257085 -0.011699437 0.093951926 -0.18486302 0.029987225 -0.11928826 -0.007905748 0.1561405 0.29975888 -0.019256974 -0.03476623 0.1454551 -0.11410038 -0.2592172 0.03563543 -0.051745534 -0.026016895 -0.25325754 -0.13274506 0.15015861 0.03969717 0.20241638 -0.011322752 0.16156453 -0.13716662 0.103425905 0.06639471 0.111217074 -0.13864219 -0.08266151 -0.1412808 0.0061841565 0.040945977 0.08521499 0.11139748 -0.1406445 0.09472278 0.19970374 0.07411924 0.09063083 0.11056985 -0.054204494 0.25740418 0.33839676 0.076052636 -0.04979303 0.1334345 -0.07033935 -0.28846443 0.230611 0.07832513 -0.15080696 0.053788178 0.17854765 0.12184855 -0.07804031 0.03919815 0.087801956 -0.17839424 -0.13281232 -0.0006291777 -0.041322738 -0.24074462 -0.0289202 0.12827335 -0.08201176 -0.060643382 -0.116010815 -0.05182168 0.1954506 -0.041422542 0.090634145 0.13095589 0.09515564 0.071619324 0.05293675 0.23583224 0.07338046 -0.047493715 -0.110715136 -0.040013835 0.112200804 -0.1413435 0.03665455 0.11349762 -0.13985151 -0.018160265 0.10364092 0.031833574 -0.21240738 0.124190606 0.052957475 -0.060612366 0.000364411 -0.058347505 -0.20193587 -0.16245104 0.05989394 -0.03993605 -0.14895654 0.11339409 -0.04253385 -0.05480473 -0.06714583 -0.048154656 0.11577935 0.02402558 -0.1732901 -0.2124648 -0.058409028 0.09213508 0.25934982 0.09013702 -0.10561923 0.11730087
581 0.109511696 -0.68120795 0.25491825 0.37142155 -0.00825268 -0.021539051 -0.13985899 -0.54108155 -0.82123387 0.37919474 0.6391487 0.2344592 -0.465755 0.08530603 0.12913302 0.84741366 0.34203583 -0.2919156 -0.24958144 0.4634968 0.58043295 0.38462922 -1.2698704 -0.45850992 -0.7950853 -0.21235907 -1.1452008 0.5520105 0.23126373 -0.17500922 0.10542815 -0.1970903 0.49699003 0.18952914 -0.07722431 0.093107335 0.37034178 0.08091386 -0.40152448 0.5406617 -0.3622569 0.257211 0.16417521 -0.0010621666 1.0202461 0.32072392 -0.11615335 -0.056419753 -1.221065 0.5976191 0.6064069 0.49956965 0.7006655 -0.11571808 0.20367032 0.4021927 1.2662631 -0.042246286 -0.46047568 0.32780546 -0.34806946 -0.092415705 0.053361833 0.2576293 0.61607057 -0.19883439 0.06934193 -0.004544897 -1.0126582 -0.62736154 0.7363139 -0.6498899 -0.8786943 0.03457395 0.42219472 -0.46761507 -0.44724876 -0.03676268 -0.6107387 -0.025898546 -0.14002614 -0.6351768 0.36169463 0.8788506 0.38463473 0.7084167 0.54850906 -0.19196786 0.8273688 0.34939834 0.029183242 0.024948576 0.88625973 -0.22183189 0.9272084 0.43799016 -0.19672364 -0.88835996 -0.54838806 -0.8230438 -0.26213259 0.25636545 -0.40351632 0.41422415 -0.04792083 -0.15531985 -0.47308347 -0.20179574 -0.23740053 -0.35179916 0.44726494 -0.524066 0.21258876 0.104524106 -0.59316045 -0.5716541 0.15796106 -0.023882179 -0.31537777 -0.34694013 0.13194884 -0.9372857 -0.37794048 0.023838397 -0.02682835 -0.22377229 -0.32856828 0.13597104
642 0.107285134 -0.6841025 0.24630296 0.37872174 -0.006900842 -0.026800096 -0.13246357 -0.5336524 -0.8333065 0.3709516 0.6341626 0.22314525 -0.46775228 0.085472554 0.13401929 0.8486616 0.3521112 -0.27882 -0.2480101 0.46925265 0.57875675 0.38063258 -1.2827098 -0.4615549 -0.7902659 -0.20518637 -1.150959 0.54859066 0.2220024 -0.16874608 0.10063445 -0.18367769 0.48601797 0.18378493 -0.08638572 0.098796755 0.36169878 0.07804271 -0.41879815 0.53221345 -0.35958 0.2584626 0.17565203 -0.00054339884 1.0125322 0.31890452 -0.11113958 -0.0599457 -1.216296 0.60188854 0.608844 0.48677188 0.70987546 -0.119434796 0.19361882 0.39077222 1.2629021 -0.037612364 -0.46086508 0.33424136 -0.3531857 -0.09582376 0.04604114 0.24633041 0.61589926 -0.18873835 0.061687123 -0.006152814 -1.0062053 -0.625406 0.72055495 -0.6488541 -0.88011813 0.022847574 0.42369056 -0.47101682 -0.45080376 -0.035565156 -0.6058732 -0.03812481 -0.14363989 -0.6299716 0.36180514 0.8713307 0.38565463 0.71080536 0.5400336 -0.19492856 0.82885504 0.33934632 0.041562125 0.0109673245 0.8828592 -0.21019149 0.9055908 0.44451666 -0.18410589 -0.8935265 -0.54564637 -0.82253206 -0.26484236 0.24625477 -0.38998947 0.42542362 -0.047727417 -0.15440665 -0.47885627 -0.20171437 -0.23110898 -0.36039075 0.4501468 -0.53990555 0.20711595 0.1114455 -0.5934094 -0.5662938 0.14894937 -0.040945865 -0.31437674 -0.33440217 0.12000796 -0.94143486 -0.36695677 0.032083012 -0.029109603 -0.21443272 -0.33200026 0.14624049
363 -0.14944252 -0.26923206 0.13908125 0.18776229 0.025019916 -0.196342 -0.16232166 0.14017914 -0.09160225 0.110283285 0.020390833 -0.2320871 0.004141509 -0.04041099 0.030404426 0.09072612 -0.16622818 0.093802825 -0.19992541 0.0551733 0.14343156 0.14694078 0.12796733 -0.11369131 0.17759101 -0.07490857 -0.21083301 -0.1434987 -0.08650986 -0.011143214 -0.21935567 -0.04468076 0.1543458 0.1417146 0.11940266 0.095918596 0.20153229 0.0010443176 0.1813286 0.13029554 0.07654357 -0.110256255 0.0069512064 -0.08097686 0.12546852 0.073996164 -0.049316723 -0.06613097 -0.2435846 0.07481524 0.16473663 0.23510623 0.1901387 0.09442923 0.071368955 0.115120314 0.30419016 0.12331553 0.007751154 0.13145603 -0.0154585065 -0.25080615 0.33697104 -0.005590616 -0.0497651 0.23058094 0.10323112 0.0026764446 -0.09912438 0.06264116 0.116133325 -0.07647947 -0.1178145 0.114880495 -6.076891e-05 -0.3223072 0.047392305 0.12753156 -0.11027104 0.16435745 -0.13718951 -0.053499475 0.23929559 0.14990109 0.24591097 -0.003698007 0.1908238 0.20661819 0.08545143 0.23780636 -0.018308653 0.028894056 -0.1427924 0.08273737 0.13050658 0.04036545 -0.027625125 0.1805945 -0.056097984 -0.056267723 0.039068747 -0.018422997 -0.02403844 0.12407349 0.027350033 -0.114016056 0.0032961273 0.046112213 -0.16053924 -0.15705527 0.03432568 -0.020459035 -0.12614572 0.061930638 -0.08989227 -0.075764686 -0.12344111 -0.09100387 0.13607101 -0.06275704 -0.2136918 -0.20658232 0.09974814 -0.053683914 0.2833929 0.11651862 -0.07362136 0.29973897
645 0.029531695 -0.24623002 0.04079496 0.15820672 0.20111237 -0.04096651 -0.015733482 0.14122085 0.13269366 0.07531302 -0.03421508 -0.32928666 0.2490519 -0.052000318 0.12988162 0.15017505 0.011441273 0.040685464 -0.2536817 0.20969355 0.0861933 0.2255901 0.14917786 -0.1191455 0.2435354 -0.0385194 -0.37485892 -0.004501896 0.09182224 0.21537413 -0.17035457 0.024917237 0.05372006 0.17606269 0.22362286 0.012204841 0.15876958 0.048612908 0.055875205 -0.12982218 0.043474853 -0.048700403 -0.08200314 -0.22633529 0.21874087 -0.120510615 -0.11271574 -0.08367616 -0.014585101 0.022524593 0.1375162 -0.04852886 0.09241708 0.17726131 0.05564148 0.14504245 0.35617012 0.038582865 0.043952003 0.078667454 0.03110503 -0.3043037 0.14900231 -0.13181674 -0.17823584 0.065892644 0.041939378 0.32192174 -0.32157937 -0.019210204 0.01617937 -0.2845499 -0.11998825 0.18692441 -0.048747156 -0.1915934 0.093870424 0.17286682 -0.11496431 -0.030840993 -0.30793115 0.011753587 0.063883096 0.12731174 0.08816421 -0.018070398 0.31824848 -0.026768785 0.3041983 0.385687 -0.011153754 -0.0074791205 -0.11558267 0.10853195 0.23975657 -0.21117143 -0.16745238 -0.114326425 -0.07536424 -0.041052267 -0.1342727 0.025419211 -0.053973556 0.25153905 0.007616857 0.051228054 0.06390295 -0.17090103 0.06768121 -0.24616198 -0.1593125 -0.107065395 -0.08693176 -0.079327315 -0.19983095 -0.27706733 -0.21725108 0.07104651 0.013708202 -0.21672194 -0.32021648 -0.21998428 0.044117305 -0.07208698 0.10435576 0.13760468 -0.139716 0.3218568
579 -0.020799572 -0.24593545 0.00087231933 0.07911459 0.037369218 0.058550354 -0.09862425 0.021250758 -0.24655196 0.25215316 0.2434684 0.035664886 -0.22110005 -0.05917694 0.0573234 0.05222496 0.083744496 0.09955418 0.06511504 -0.054205038 -0.037259262 0.05993522 -0.2509247 -0.008866681 -0.11566849 -0.08725172 -0.029212236 -0.074451946 -0.15772118 -0.089281276 0.014813843 0.062289696 0.11436909 0.16069835 -0.09709446 -0.07960643 0.32378837 -0.034990445 -0.21923012 0.10367259 -0.15319596 0.028190041 0.14035401 0.113939345 0.1503169 0.051702425 -0.21196505 -0.047103602 -0.30594665 0.24197355 -0.046917666 0.2084466 0.18734638 -0.18652304 -0.07041364 -0.011739495 0.03311134 -0.294858 -0.052177098 0.1627669 0.16549169 0.08357391 0.04455959 0.112285025 0.1711847 0.029228348 -0.0009560409 0.15002069 0.0010521752 -0.18482181 0.22309321 -0.15862171 -0.28146803 -0.07883022 0.027064186 -0.13908412 -0.19762635 -0.0806009 -0.04244172 0.018875182 -0.024640407 -0.28704795 0.090853915 0.46760625 -0.09558639 0.14881794 0.5047369 -0.03249073 0.20400165 0.09486933 0.09223944 0.16946468 0.09855745 -0.10581686 0.34122565 0.15236901 0.009684836 -0.4184657 0.04753668 -0.12772533 -0.10157615 0.11103867 -0.10741118 0.09431935 0.10646613 -0.14441024 -0.074948736 -0.24096376 0.066154785 -0.117275424 0.22730353 -0.044730768 0.190286 0.027302947 -0.0069351485 -0.27379623 0.06053403 0.14743632 0.008926545 -0.14547805 0.07916184 -0.17749272 -0.12710378 -0.051704317 -0.21071887 -0.107280806 -0.04606574 0.03206534
374 0.07508716 -0.4163571 0.0606097 0.17320009 0.06315074 0.01931943 -0.18570967 0.0404406 0.021621373 -0.024501093 -0.11861927 -0.1888307 -0.020194024 0.008227236 -0.06234466 0.29529312 -0.012646074 -0.045664992 -0.21366188 -0.03206073 0.07869086 0.23238373 -0.0072380076 -0.07038722 0.10013591 0.007991298 -0.2938356 0.071363576 0.07575877 -0.04055014 -0.06258625 -0.06210181 0.033765685 0.060071457 0.29044357 0.0005651376 0.24293447 -0.013986897 0.1854168 0.0948805 0.09202647 -0.105836466 -0.0011663212 -0.12784773 -0.057515934 0.052683942 0.13214993 0.03832778 -0.07191556 0.003332754 0.15727806 0.08211458 0.13647315 0.16095823 0.11841095 0.21524172 0.24934292 0.0668997 0.007609691 0.016506737 -0.1168253 -0.23004335 0.12499699 -0.0027042597 -0.13465379 0.13722001 0.10763462 0.12641896 -0.09080856 0.0051665553 0.13802598 -0.07180875 -0.28681356 0.011482781 0.11698603 -0.13219471 -0.0060921274 0.102455385 -0.12304834 0.06292474 -0.04271916 -0.059190776 0.21035172 -0.031795356 0.07172269 -0.11676806 0.05361971 0.15015146 0.10351231 0.35416308 -0.005702841 0.027759383 -0.22424445 -0.015200969 0.31899944 -0.03192094 -0.082403876 0.2206385 0.002368825 -0.15504372 -0.06359342 0.09166263 -0.0896522 0.0023014164 0.14218177 -0.09761674 0.024009159 0.045264725 -0.15758845 -0.045377623 0.051331766 -0.10104118 -0.033401843 0.05741401 -0.12639138 0.007112212 -0.120126486 -0.0029383427 0.13889728 -0.108161725 -0.06428368 -0.24041498 0.09230488 0.0165984 0.39113146 0.11356227 -0.14325921 0.16196585
630 0.15241249 -0.15643412 -0.0024270795 0.11499848 0.11811789 0.1121873 -0.034021042 0.0146419415 -0.22670645 0.16614738 0.281723 -0.036154203 -0.19232589 -0.100392364 0.09869671 0.2261929 0.016534653 0.04669498 -0.052490897 -0.09776876 -0.19648254 0.31120926 -0.034841422 -0.16318664 -0.06745649 -0.25889215 -0.018912435 0.06787688 -0.047334753 -0.12500434 0.02726975 0.049293634 0.01852521 -0.014575559 -0.13130148 0.0053667654 0.2288821 0.039711237 0.03664068 0.14195114 -0.064261824 0.117089935 0.05900939 -0.07962634 0.17082717 -0.004450724 -0.37356755 0.07693345 -0.04307598 0.16748662 0.0045737256 0.3055239 0.16643211 -0.21197331 0.16390279 -0.037207637 0.30424777 -0.12090624 -0.03829305 -0.036077213 -0.020932512 0.03554746 -0.2607228 -0.0071406444 0.41636354 -0.16267624 -0.17515941 0.27751586 -0.21615253 -0.2821632 0.21663566 -0.113519885 -0.36759454 -0.31696105 0.004329612 -0.24212292 -0.15311494 0.013427877 -0.08203099 0.047290955 0.17355299 -0.09422462 0.059825316 0.30022767 0.13763084 0.17378032 0.41007403 -0.07880275 0.071258165 -0.048441496 0.18282828 -0.20114073 0.3473218 -0.090506256 0.10610254 0.20567106 0.115578726 -0.43342733 0.030523289 -0.19898504 -0.28227144 -0.091234714 -0.1780588 0.2023661 0.13864005 -0.18156016 -0.031360637 -0.12282444 0.029638533 -0.45635685 0.14189014 0.05504816 -0.04040726 0.13933639 -0.012723663 -0.032997668 -0.02472962 -0.07242388 0.036670413 0.12969562 -0.0012352763 0.016426502 -0.12034428 -0.04809499 0.019711927 -0.04531924 -0.1089688 -0.09609739
609 0.14355285 -0.2711562 -0.09102723 -0.020141786 -0.1452453 -0.060081143 -0.007526567 0.10423106 -0.23765552 0.09910691 0.16504872 0.09230435 -0.3202328 -0.123194024 0.21048309 0.0917022 0.08772619 -0.15280944 0.012124503 -0.10773369 -0.03694436 -0.055642176 -0.08268058 -0.15681323 0.045349162 -0.15411942 -0.19809568 -0.010674756 -0.073079094 -0.066935964 -0.15704183 -0.18187039 0.02455288 0.13615377 0.12183887 0.021578278 0.18175822 -0.07455289 0.06583224 0.10946578 -0.2522277 0.06538956 -0.17875904 -0.04445162 -0.040407367 -0.097113505 -0.15264244 0.13002196 -0.14211571 0.29201096 0.03898659 0.026808238 0.17384207 0.107460156 0.17714663 0.11262865 0.26075462 -0.322901 -0.07584597 0.25472426 0.0057001356 -0.07771529 0.013928655 -0.01143668 0.16644774 -0.018481053 -0.024891 0.0943135 -0.12837324 -0.040330987 0.084724404 -0.18534602 -0.05018256 -0.16621 0.018663017 -0.05620209 0.19241185 -0.16907676 -0.023430739 0.105082184 -0.19313179 -0.26383838 -0.015216751 0.24263947 0.02670647 0.13263735 0.25624076 0.059723627 0.011073927 0.10830667 0.076615945 -0.20316844 -0.005858049 0.05556137 0.5018871 0.002876916 -0.12660812 -0.2615663 -0.006830533 -0.09923792 -0.0016139586 0.10110507 -0.1740877 0.07695616 0.20216468 -0.08699753 0.13130258 -0.09210209 0.04501513 -0.17436197 0.0469244 -0.16627242 0.13634999 0.12383721 0.013682837 0.046614602 -0.14585842 0.14908575 0.08323084 -0.09290185 0.09548147 -0.14633708 -0.028625432 -0.006062836 -0.028340766 0.24054624 0.0025383423 0.045194607
514 -0.022496665 -0.30872136 0.1723413 0.1346638 0.07711792 -0.043323454 0.035633672 0.061481178 0.036401656 -0.08945113 -0.118411444 -0.1790901 -0.05178537 0.03798086 -0.17490563 0.11915607 -0.1271254 0.019926956 -0.17629959 0.05087803 0.21633142 0.29965198 -0.09387074 -0.20445417 0.08617551 -0.1006191 -0.23820916 0.0640197 0.059649657 0.0056655826 -0.054911133 -0.008414097 0.17060551 0.11827008 0.37654963 -0.061022833 0.15311627 -0.032463137 0.20376068 0.10202878 0.024546951 -0.09933426 -0.1224639 -0.24419917 0.08411794 0.08842113 -0.014151096 -0.012133218 -0.06818706 -0.01929181 0.086783536 0.10240151 0.16675968 0.118189864 0.014962571 0.14557339 0.24603257 0.032531317 -0.049186617 0.052574128 0.016083304 -0.32830685 0.31666175 -0.03873009 -0.110375956 0.13761845 0.0044200215 0.09460711 0.033402156 -0.020086857 0.16821098 0.00809993 -0.26470324 -0.015080113 -0.07188374 -0.23680782 -0.044545967 0.121224925 -0.071027726 0.0076996544 -0.17504418 -0.110074796 0.2109931 0.047266267 0.132887 0.034683768 0.16330789 0.15945153 0.12651688 0.37882036 0.07594797 -0.04495216 -0.13986509 -0.0060284524 0.20873548 -0.10099928 -0.17609943 0.024719233 -0.07150307 0.0058846693 -0.06397328 0.14517468 -0.19698364 -0.042398896 0.08155309 -0.0758277 0.047391027 -0.08583598 -0.08615092 -0.12178847 0.03646644 -0.082980864 0.03222463 0.024614597 -0.07242992 -0.013661288 -0.08940719 -0.08422865 0.045038532 -0.046330154 -0.18607202 -0.16277184 0.13790053 0.05531141 0.24607319 0.18676104 -0.047527883 0.19136883
576 -0.013968877 0.03567044 -0.05416936 -0.026306788 -0.045671515 0.08396286 0.1992225 -0.3201887 -0.07743374 0.028259555 0.016857946 0.1634086 0.098521724 0.14846174 -0.102926426 0.3353249 0.29387558 -0.10308436 -0.02112271 0.17755021 0.32017064 0.010119943 -0.34162256 0.16645531 -0.38413462 -0.09291113 -0.32483903 0.03120316 0.116115466 0.061447047 0.2939202 -0.19802476 0.1882515 0.11310505 0.086447954 -0.059821658 -0.1876582 0.14159706 -0.0033312072 0.2166318 0.026729023 -0.1744659 -0.09358763 0.053121217 0.38123325 -0.020008063 0.29364523 -0.046710745 -0.31678325 0.02246747 0.2165948 0.030338645 0.18317585 0.14248343 0.109286666 0.22017156 0.20591415 0.10622139 -0.042389646 -0.029983416 -0.15049158 0.09977848 -0.24001366 0.1540056 0.056468 -0.1223227 -0.10599949 -0.29915747 -0.30890137 -0.05143547 0.27455786 -0.14752842 0.19386694 0.4065699 0.19811726 0.0721106 -0.21115474 0.061102644 -0.2258035 0.047124527 -0.0861719 0.062470756 -0.017469674 0.02935006 0.08027145 0.318944 -0.1553781 0.12225552 0.20201483 0.040691633 0.081251845 -0.08807072 0.44404268 -0.046756875 0.13902631 0.051174734 0.014457233 0.085886605 -0.17867073 -0.04798029 0.14353509 -0.02161665 0.06347697 0.13313594 -0.3141072 -0.05728458 -0.3463961 -0.0040712687 -0.2978674 0.008693674 -0.06277494 -0.16422394 -0.15397215 0.035588916 0.035527058 -0.3277855 0.028766999 -0.10174246 -0.25951508 -0.3080576 -0.021559577 -0.27606344 -0.16469572 -0.05686129 0.06926248 -0.044260006 -0.10192167 0.18017541
431 -0.011835153 -0.26523605 0.1554173 0.1850278 0.04140204 0.014815573 -0.11861101 -0.06705238 -0.10411574 -0.16323714 -0.022379568 -0.2554247 0.011464412 0.024718573 -0.01529981 0.23082626 -0.086101696 -0.018091071 -0.08677999 -0.07910264 0.24831425 0.25738984 0.0004487386 -0.094968304 0.09879936 -0.07711548 -0.26678017 -0.11276256 0.048631094 -0.10201549 -0.1032614 -0.04481826 0.1676887 -0.01621762 0.17269357 -0.029988796 0.18445963 -0.08020365 0.26905394 -0.0004621441 0.0041264426 -0.1150826 -0.118472435 -0.1759954 0.12149008 0.040125526 0.09828759 0.04022645 -0.03412314 0.050417606 0.10302161 -0.038790353 0.1374792 0.124005415 -0.13069756 0.18828836 0.25736967 0.19733372 -0.028077789 0.2189839 0.028106127 -0.22633938 0.17111218 -0.013912585 -0.16738874 0.05232441 0.016723754 0.04007982 -0.042977598 -0.014592554 0.0831814 0.0024480189 -0.2903709 0.017621055 0.022885125 -0.27541178 0.028536906 0.16567208 -0.056825113 -0.048498616 -0.27817386 -0.17356303 0.2202434 0.020105211 0.112224236 0.0509467 0.1686536 0.16668485 0.066681005 0.4418951 -0.06825733 -0.14756036 -0.12370525 0.11462833 0.0879555 -0.12951015 -0.06361928 0.063868076 -0.21471001 0.081072696 -0.008681063 0.045036893 -0.17996415 -0.023809962 0.014216927 -0.034203645 0.015675582 -0.0027136093 -0.08823428 -0.049235296 0.051889084 -0.15549542 -0.09457006 0.024278352 -0.19886737 0.018578216 -0.080730535 -0.031596463 0.082057126 0.00455218 -0.26099935 -0.35526556 0.12516302 -0.037850965 0.22235477 0.1766205 -0.15954378 0.20128995
590 0.043202832 -0.3841787 0.10517936 0.22711086 -0.28811026 -0.16721436 -0.32057643 0.16575393 0.10407542 0.16747506 0.14058399 -0.056378983 -0.15838103 0.04676943 0.05226532 0.04428169 -0.05916372 -0.04812761 -0.06310813 0.13816652 0.0072457795 0.28782836 -0.17470793 -0.37029418 -0.026652116 -0.294156 -0.10277776 -0.04279721 0.060907315 -0.13414152 0.0050405934 0.28458253 -0.05595873 0.19333743 0.15972356 0.21091913 0.2878662 -0.0828994 -0.21071354 -0.1078415 -0.07151334 0.06509582 -0.08244278 0.043586407 0.1302961 0.018130695 -0.21142022 0.011251253 0.12472247 0.31802043 0.09902339 0.21569927 0.18725483 -0.04009028 0.085175045 -0.014826713 0.21995665 -0.15498143 -0.004170026 -0.02055109 0.10370162 -0.12687932 0.09893863 0.093096465 -0.07096871 0.10867946 -0.2527757 0.20866014 -0.18106754 -0.025778027 -0.027028995 -0.07556141 -0.23167306 0.05570995 0.13371395 0.14216755 -0.09267001 -0.019149126 -0.11361307 0.0010811366 0.17129087 -0.25368345 0.014532205 0.15458524 0.08692935 -0.04539144 0.25900117 0.0026140031 0.15810645 0.41822106 -0.027801618 -0.18947086 -0.305515 -0.2580401 0.19717152 -0.1684109 -0.40206763 -0.08852248 -0.3049993 0.037522305 0.082780264 0.20213188 -0.164589 -0.07670341 -0.09718928 -0.02648062 -0.06716699 0.01323835 -0.14248909 -0.008128097 0.22413729 -0.13350466 -0.226964 0.2111926 0.0030316536 -0.15395536 -0.07329645 0.03759088 -0.13321826 0.06916917 -0.049544178 -0.13045438 0.032308012 -0.19703269 0.13895021 0.025600886 -0.024903165 -0.02802542
515 0.026711935 -0.30080682 0.05258024 0.04558459 0.07841893 -0.11456516 -0.009052105 0.01731629 0.05338336 -0.08019728 -0.038595695 -0.21242973 -0.110553496 0.21359229 -0.049159158 0.020388713 -0.13014258 0.15204822 -0.06192489 0.00040594308 0.13958345 0.18102996 0.031006224 -0.2364289 0.015669044 0.059070654 -0.15008324 -0.06702395 -0.0031250583 -0.06799441 -0.05405547 -0.05021295 0.11708673 -0.045427512 -0.0080878455 -0.08116543 0.23887672 -0.20160078 0.14963742 0.14359716 0.23409036 -0.17471878 -0.036561463 -0.3074044 0.102775 0.1442469 -0.090391845 0.050333206 -0.071647085 0.034974046 0.07890635 0.092196934 0.07321133 0.0582766 -0.053851344 0.13078508 0.41838333 0.075477816 0.1457469 0.2465883 -0.03348822 -0.041913677 0.20579454 -0.011939795 -0.064333886 0.020838575 0.13381825 -0.017915852 -0.11554107 0.06896213 0.01480688 -0.18977399 -0.35448202 0.08552335 -0.020315597 -0.27980912 0.026495831 -0.0009868271 -0.1855487 0.14697959 -0.20388675 0.14836727 0.21248801 0.12749162 0.051754013 0.25377738 0.33005616 0.1568388 0.017455995 0.2664553 -0.085533656 -0.023524197 -0.07893513 0.18118063 0.27324858 -0.119452 -0.12873705 0.08187142 -0.31999105 0.19936578 -0.026988816 -0.021444913 -0.1176738 0.0039976947 0.153345 0.09127109 0.046836827 -0.002997503 -0.1842141 -0.1601526 0.08312707 -0.13615972 -0.089059815 0.13476446 -0.049236007 -0.08271709 0.02947804 0.06966703 -0.026978968 0.005817923 -0.14199087 -0.22386266 0.0126124425 -0.053963155 0.34958196 0.17047462 -0.15393728 0.3229794
391 0.14625554 -0.12264774 0.111246035 0.21850312 0.18141007 -0.035068 0.056805775 0.07998131 -0.03691833 0.040426787 -0.07420457 -0.2104536 -0.062556475 -0.02678141 0.04678235 0.18343748 -0.017313123 0.02664451 -0.25975814 -0.05905755 0.14904031 0.24167421 0.14400482 -0.20655935 0.18946026 -0.056146767 -0.33944094 0.046385653 0.032942344 -0.12909743 -0.17446297 -0.12872303 0.19298515 -0.13303801 0.09430672 0.0225961 0.17444994 -0.09498776 0.22092721 0.0628798 0.010977931 0.0040282486 -0.18433234 -0.06362577 0.07953973 0.08280435 -0.0044354284 -0.11502443 -0.10245699 0.0445073 0.048522536 0.20589523 0.12980384 0.15677099 -0.013359785 0.06431843 0.3800535 0.16077349 -0.17454521 0.09659622 0.06531954 -0.26902738 0.025782324 0.0015190663 -0.110198624 0.19147135 0.053364415 0.021827286 -0.10249187 0.07877728 0.080524154 -0.13894255 -0.15508421 0.106043845 0.11716881 -0.17126498 -0.09945335 0.11813891 0.024021463 -0.049095035 -0.05915683 0.08392087 0.19041394 0.07215603 0.113105565 0.09080527 0.11207289 0.06727717 0.1346151 0.19190718 -0.17273648 0.020647682 -0.2253262 -0.06430382 0.20955421 -0.04447512 -0.09007302 0.16373765 -0.27787685 -0.13597631 0.0017499956 0.096630864 -0.09377885 0.09640852 0.030688994 0.06900411 0.08110262 -0.12479643 -0.11909589 -0.19103776 -0.08076565 -0.06405838 -0.07972229 0.022536192 -0.1735195 -0.10850066 0.012573267 0.03050352 0.024061207 0.09355995 -0.13001034 -0.1886084 0.007524917 -0.013144284 0.22343828 0.25822553 -0.080588415 0.17239223
600 -0.036251567 -0.028517354 -0.057162005 0.067643315 -0.040879313 0.14695981 0.18481652 -0.31527248 -0.105754994 -0.068454936 0.07800498 0.09849513 0.13410582 0.062298123 0.040751882 0.25633284 0.24204318 -0.15800138 -0.040526953 0.20162986 0.19285733 0.010103028 -0.2862505 0.22897987 -0.3137323 -0.1618282 -0.15663408 0.02000261 0.14781736 -0.010611508 0.22424544 -0.09006124 0.1497336 0.079401374 0.15740192 0.066748545 -0.1841968 0.20267577 -0.09895399 0.2936502 0.017206542 -0.0065551023 -0.22842415 0.17564788 0.42951068 0.15401748 0.2947092 -0.06824929 -0.18725486 0.025454089 0.14744571 0.07837379 0.10782113 0.07073197 0.11052903 0.3244183 0.33184943 0.19539742 -0.21617047 0.030826459 -0.16729176 0.0039697965 -0.086475454 0.15822008 0.05437247 -0.1707076 -0.06373474 -0.42342645 -0.22299464 0.12350439 0.3478732 -0.167431 0.08195596 0.29410926 0.33795482 0.016379759 -0.035611868 -0.012481246 -0.22416982 0.048979823 0.102791995 0.0971048 -0.028500691 0.081411846 0.059176106 0.22869465 -0.25807804 0.08029167 0.25487337 0.1209321 0.18948017 0.016951827 0.48370883 -0.107594974 0.12450838 0.084434636 -0.0074435542 0.13657191 -0.3070999 -0.1190597 -0.076000005 -0.050066624 0.025655681 -0.0038079016 -0.24137145 0.009927141 -0.33370405 0.031046534 -0.2763158 -0.13228439 0.008860875 -0.24449368 -0.01033795 -0.023972426 -0.107253425 -0.2675114 0.042375565 -0.20895933 -0.33375037 -0.18808752 0.16083248 -0.24565096 -0.24147126 0.06207924 0.15703607 -0.13954467 -0.13502373 0.0014742144
606 0.030190226 -0.18736282 0.18616892 0.15602267 0.16160545 -0.17010686 -0.14347804 0.20612863 0.09503503 -0.21240552 0.023287179 -0.30986652 0.065140076 0.008811933 0.17521192 0.046519432 -0.08382321 -0.07254717 -0.031419303 -0.06878188 0.122138046 0.2908668 0.04305787 -0.19398887 0.014907172 -0.12510912 -0.25135207 0.044539448 0.08947161 0.07078514 -0.08951117 -0.0014552075 0.18931971 0.09176945 0.18273069 -0.060705926 0.23584262 0.058937054 0.05449034 0.061418038 -0.0968606 -0.21471693 -0.19166799 -0.100549854 0.14724779 0.089857355 0.1326952 -0.12686037 -0.118955754 -0.007355471 0.15363626 0.23085932 0.09563411 0.21739545 -0.1103473 0.38947734 0.3938275 0.04497298 -0.021354683 0.24414533 -0.122951515 -0.11407538 0.105726816 -0.11052842 -0.20760524 0.019908331 0.11087333 0.14046866 -0.03839441 0.111817546 0.06035561 -0.12838866 -0.272327 -0.0007802727 0.0334564 -0.0743277 0.019093351 0.037172295 -0.0858089 -0.038994484 -0.07812858 0.15989351 0.19694676 0.03726475 0.04425296 0.09063483 0.15739694 -0.0042654 -0.025512496 0.36390197 -0.03572201 -0.16825624 -0.13555335 -0.060782935 0.17007644 -0.19719043 -0.14392866 -0.005052317 -0.13941133 0.100059845 -0.20644723 0.15065448 -0.101893894 0.13043202 0.028517554 -0.04715329 0.090425156 -0.19664007 -0.25158763 -0.051371705 0.02028464 0.07168161 -0.059140883 0.0682142 -0.14462796 -0.024055911 -0.06650905 0.11163118 0.09206707 -0.015091099 -0.21000753 -0.3597093 0.0034781655 -0.15324752 0.3171889 0.04316201 -0.101278745 0.31407148
604 0.0886554 -0.48532405 -0.09266375 0.12860492 0.098451935 -0.032029636 0.012506165 0.1199279 0.1320412 -0.08485441 0.030399641 -0.29941615 -0.019292768 0.043723226 0.04098863 0.20534468 0.09180839 -0.07629759 -0.12688991 0.07403512 0.06409889 0.2671191 0.0815124 -0.10567348 0.047071397 -0.048963748 -0.38470203 -0.062173128 0.18772289 0.10043736 -0.113173075 -0.05008495 0.200939 0.14122637 -0.05024244 -0.069728754 0.13664338 -0.1351824 0.12241264 0.045469627 -0.03264944 -0.112295024 -0.2135195 -0.0993596 0.16986673 -0.03212373 -0.2172791 -0.036492214 -0.16214487 0.027291808 0.2659909 0.07984925 0.04244756 0.050349608 -0.010135842 0.2704945 0.32043853 0.20877181 -0.021400463 0.06204071 -0.113943584 -0.23525782 0.1949432 0.11704104 -0.21342175 0.13919066 0.09712878 0.047916546 -0.1926207 -0.028792193 -0.064213365 -0.13645676 -0.2646978 -0.066670775 -0.09327718 -0.04283974 0.05581506 0.2895056 -0.018314207 0.08812146 -0.11647581 0.028610632 0.05025655 0.0045904447 0.16070877 0.023469483 0.024345543 -0.023270186 0.009625561 0.26991665 -0.2138792 -0.081767835 -0.19147426 -0.09409123 0.2381627 -0.04539433 -0.06433686 0.011158153 -0.17780177 -0.048611786 -0.00017438809 -0.09819916 0.008858796 0.13829109 0.07939069 0.07713992 0.0760229 0.027403368 -0.06316261 -0.10348072 -0.2099524 -0.028712194 -0.016673438 -0.07973952 -0.23644619 -0.15249388 -0.22705953 -0.12283753 0.05530975 0.081151 -0.17029676 -0.3130952 0.004792195 -0.13745058 0.17818011 0.24946614 -0.025069317 0.04432073
