532 128
3830 0.07555138 -0.020507418 0.18448289 0.13210598 0.115094475 0.06749222 0.07139907 0.16227482 0.084783345 0.10294967 0.12856896 -0.067082204 0.04136198 -0.020930372 -0.09641126 -0.053563464 0.047775384 0.12718458 0.20964439 -0.078111194 0.18192124 0.16395395 0.051215433 0.08967023 0.052589197 0.08028002 -0.13735056 -0.013440366 0.08457246 -0.08008381 -0.048236948 0.30751184 -0.06881203 -0.083574675 -0.16722737 -0.28062505 0.35426867 -0.122802496 0.076096155 0.21136536 -0.092022 0.22136989 0.22252111 -0.052076414 0.22897393 -0.3347369 -0.009160778 0.11226373 -0.24798994 -0.11080014 -0.020539522 -0.16106188 0.21456814 0.045631476 0.16137978 -0.039623428 0.33820072 0.0011548181 -0.06301355 0.16267152 0.13266194 -0.30279315 -0.052224368 0.033640582 0.23021851 -0.18186781 -0.066732824 -0.032335095 0.013770392 -0.04750496 -0.119855255 0.25302702 -0.068640284 0.22495581 0.21497673 0.12210976 0.22023194 0.056269184 -0.19532965 0.10346318 0.24581479 -0.2638677 -0.10919004 0.04104152 0.23455025 0.1979245 0.13142477 -0.19093797 0.019578082 0.33818048 -0.27033606 -0.24873546 -0.004061242 -0.2714486 0.35559118 0.06612766 -0.013089386 -0.35011554 0.060196742 -0.019843742 -0.1267055 0.057732116 0.13058807 -0.08612404 -0.04887849 -0.058310095 -0.18446697 0.041728847 0.15680067 -0.01598859 0.039419252 -0.23113582 -0.23335697 0.169238 -0.006383569 0.26179835 0.118956044 0.1466655 0.030246008 0.02046382 0.03695804 -0.30075455 -0.30274892 -0.26606128 -0.023865372 0.046912096 0.07927809 -0.08382194
3545 0.13340768 -0.000968579 0.2387175 0.4705117 -0.0733463 -0.022055646 -0.12166246 0.34177113 0.050905827 0.024007471 -0.061196167 0.08359775 0.056257185 0.038497932 -0.04410915 -0.06415972 -0.013647153 0.21007958 0.12094308 0.15837121 -0.008585662 0.27137458 -0.1377223 0.2966004 -0.1832675 0.071721 0.03207463 0.17557551 0.14303568 -0.08244283 -0.05730246 0.24806713 -0.091890804 0.12311067 -0.14629123 -0.13316683 0.13260582 0.098764956 -0.023079092 -0.028987031 0.019093575 0.006656495 -0.069629446 -0.036857627 0.10345241 -0.32062766 0.042972676 -0.17167184 -0.27754682 0.2284684 0.19846748 -0.2560812 -0.050983224 0.17702785 0.31404364 0.008182119 0.21820185 -0.030365339 -0.15014417 -0.27522606 0.046433896 -0.22910543 0.20370515 -0.014514288 0.14790264 -0.09242988 0.06820119 -0.024881363 -0.22928672 -0.032767456 0.0044138865 0.27890202 -0.18263789 0.1776199 -0.06696015 -0.015234423 0.19207615 0.14699224 -0.23441328 0.009047843 0.21776229 -0.2525353 -0.1618448 0.07606479 0.4304439 0.043912485 0.2213978 0.118702464 0.05883398 0.14967015 -0.1314929 -0.24253301 0.2506978 -0.13970733 0.26126367 -0.020201808 0.05314106 -0.27633974 0.13800311 0.13516712 0.050301313 0.10989175 0.02627265 -0.049698986 0.07840068 -0.07181187 0.068200886 0.24175481 0.013012393 0.22662625 -0.01577571 -0.29615563 -0.110466294 0.3693161 -0.065289624 0.23822106 0.070697404 -0.017428443 -0.14514992 0.33708036 0.23152842 -0.3027239 -0.19503136 0.12870644 -0.14604057 -0.054494545 -0.11126784 -0.16158338
3680 -0.1991587 -0.36009327 0.1796121 -0.17152937 -0.069648094 -0.15786958 0.31687158 -0.19076334 0.101482555 0.2552515 0.22470807 -0.062124338 -0.25035548 -0.037152357 0.15369214 0.22455052 -0.066297084 -0.02624837 -0.13728322 0.020052994 -0.071138196 0.298621 -0.08246739 -0.28334773 -0.10348201 0.090864204 -0.13084896 0.08325028 0.26870373 -0.25463837 0.04921957 -0.10338682 0.2041463 -0.033812925 -0.2295389 -0.07422046 0.023442551 -0.18469454 0.018256404 0.15542796 -0.11967894 0.20237091 0.2387678 0.22909945 0.08135234 0.12733519 -0.20343417 -0.15018177 0.01783163 -0.33096364 0.08641514 -0.15566206 0.081941865 -0.036132175 0.18761298 0.04646602 0.17353998 -0.0031496068 0.13473313 -0.19339243 0.051194742 -0.0056210873 -0.0047538662 -0.085423015 0.37734762 -0.07710472 -0.23540887 -0.045554947 -0.010561865 0.031222457 -0.026005996 0.0038845008 -0.22047405 -0.07529307 0.3430228 0.055633653 -0.031942397 0.24608754 -0.1264254 -0.023210209 0.24636732 -0.32130978 -0.10660016 0.06705666 0.14646262 0.15831012 0.113612466 -0.27265254 0.0014152284 0.16451894 -0.099323116 0.0306999 0.07316304 -0.01637861 0.5068375 -0.07572709 -0.03228018 -0.53736806 0.021002855 -0.21569777 -0.15144221 0.14180803 0.030571928 -0.003047119 -0.11895668 -0.25700107 0.0014519581 0.06633275 -0.007937411 -0.22002591 0.11612334 -0.16673198 0.021582095 0.20934448 0.08419455 0.03091967 -0.08562613 -0.027693748 0.043281768 -0.09361101 -0.15493159 -0.10016917 -0.27290794 -0.2917524 0.0045208023 -0.049296167 0.04482321 -0.036503896
3924 -0.22399747 -0.30820847 0.033186752 -0.36590782 0.049812324 -0.19492155 0.17331232 -0.16755965 0.040143587 0.28344664 0.09299782 0.005301048 -0.28074613 -0.027654087 0.12721972 0.1091345 -0.07254624 0.11873294 -0.13458641 -0.028534722 0.0075461655 0.24814346 0.005695667 -0.13291983 -0.43561628 0.1423391 -0.22650799 0.00509796 0.00087138056 -0.098151706 0.28819215 -0.25167724 0.28868482 0.114400364 -0.016641855 0.06165309 0.13948229 -0.3324011 -0.16930173 0.26099283 -0.17843395 0.058683615 0.19927259 0.3146204 0.08766619 0.07758413 -0.30775005 0.08643527 -0.024193933 -0.24017787 0.18754017 0.03586318 0.16713259 0.042360418 0.04355093 0.25773692 0.25725317 -0.053266406 -0.039277416 -0.24991654 -0.043304287 -0.13608487 0.103540696 -0.09263054 0.4110331 -0.31003958 -0.08413765 -0.1662071 0.0173595 -0.12781912 0.16533327 -0.09119193 -0.36152923 -0.116442665 0.23639785 0.056076087 -0.044057224 0.1492035 -0.34727824 -0.014520367 0.2828451 -0.15840064 0.10839312 -0.016119944 0.22352222 0.13075419 0.010835443 -0.37127095 0.17723536 0.17629649 0.017185789 0.1164967 0.040774256 0.1370155 0.17954825 -0.112786934 0.09751832 -0.41974783 0.14841324 -0.27470496 -0.22757168 0.0026138984 -0.11912977 -0.0143423695 -0.34934616 -0.028663563 0.04296927 0.21729033 -0.02114869 -0.09181635 0.2509874 -0.19432695 0.13512734 0.17060313 0.15995422 0.009700426 0.00036199778 -0.014603434 0.07211276 -0.10959584 -0.18748406 -0.1567382 -0.3142989 -0.41852292 -0.14243387 -0.14227565 0.07513832 -0.090413265
3629 0.29128242 -0.1282187 -0.09958766 0.15977515 -0.093101375 -0.10995168 -0.12372228 0.029617114 -0.16605122 0.37995538 -0.23803116 0.04272264 -0.023251984 -0.18028408 0.068726815 0.2597359 0.026524587 0.3368127 -0.25873256 0.3151001 -0.1642138 0.0008450832 0.037512764 -0.30242872 -0.20623039 0.14053102 -0.3696588 -0.024381144 0.13907221 -0.39267159 0.097617045 -0.020521104 0.1839698 0.20071045 0.013311341 0.46819428 0.29436344 0.018397814 -0.13105449 0.36446172 -0.12332574 0.14328846 -0.27743194 0.07352755 0.4775506 0.09845558 0.0056240982 0.009170257 -0.00576378 0.08243686 0.09613008 -0.2676665 0.2267368 0.17616017 -0.15521224 0.040898077 0.3526618 -0.11044306 0.014957203 -0.25734118 -0.5222647 0.253163 0.2440507 0.4364576 0.23788978 -0.065783985 0.44474822 0.057753466 -0.13128576 -0.2573775 0.12523052 -0.1075076 -0.059536926 -0.19704853 -0.08854792 -0.056321464 0.09380746 0.17097569 0.14887503 0.5902133 -0.14500451 -0.23216578 0.34745768 0.036650177 0.1136299 -0.08592409 0.30468285 -0.114093326 0.4197505 -0.00059419137 0.15221694 0.002117762 0.28794584 0.03262869 0.188314 0.23232068 -0.26715562 0.005077738 0.5160603 -0.15291138 -0.14704463 0.40731862 0.02832529 -0.034353055 0.11536389 -0.08187264 0.30001646 -0.0250847 -0.24583964 -0.16187835 -0.027424663 -0.21903916 -0.08659483 0.13671483 -0.15074773 0.025342803 0.19523124 -0.03216197 0.45358938 0.24296522 -0.15884657 -0.295878 0.17777541 -0.022683347 -0.39184123 -0.47560507 0.024971126 -0.14795625
3734 0.04920138 -0.00437898 0.10688401 0.37287545 -0.13214503 0.079767644 -0.06278979 0.082158536 0.3090147 -0.0375994 0.10767864 0.17929436 -0.00378597 -0.08598146 -0.1344413 0.021879448 -0.09224189 0.1609611 0.07084911 0.11372832 0.08024495 0.052193224 -0.0087996265 0.18247464 -0.35658932 0.22878836 0.14074272 0.23846711 0.06883663 0.03254446 -0.12314652 0.34613183 -0.09425263 0.11967678 -0.09925022 -0.029012905 0.11942079 -0.005633976 -0.06424141 0.06300586 -0.14843106 0.13305508 0.01635224 0.0072582606 0.15856966 -0.48735207 0.13773939 0.051606286 -0.3044745 -0.11708703 -0.00013586401 -0.2852158 0.032979432 0.16930021 0.17998973 -0.046143115 0.28593773 -0.10319443 0.012745703 0.030487178 0.01550422 0.026603432 0.0685281 0.13390599 0.39036363 -0.1825936 -0.096756026 -0.080013886 -0.24105667 -0.10278942 -0.07883155 -0.007852035 -0.14029796 0.07473827 0.12444455 0.114671744 0.14717221 0.009946812 -0.10265407 0.10123053 0.068330504 0.022183836 0.04638379 -0.12919188 0.43553847 -0.0035886213 0.2620587 -0.19087492 0.19349721 0.19376384 -0.23546764 -0.16069864 0.2164832 -0.2299251 0.106499515 0.026315633 -0.016840555 -0.1960917 -0.098832384 0.26710168 0.022575479 -0.20738904 -0.010482806 0.14444582 -0.08426028 -0.15091927 -0.021876989 0.16254051 0.26888144 0.120614424 -0.10116867 -0.15505457 -0.026490733 0.17016356 0.053123407 0.39416245 0.12568536 0.11620859 -0.08926947 0.3086064 0.10024009 -0.19008741 -0.16205092 0.11083664 -0.08491756 -0.2323439 0.0490322 -0.13139176
3674 0.15503684 0.03649148 0.14663891 0.25651687 0.046383064 -0.0708673 -0.041989733 0.12895596 0.37081277 -0.071045205 0.031909984 -0.14021614 0.14168817 -0.20978859 -0.24111272 -0.15127608 -0.0317281 0.070260145 0.01821405 -0.08169783 0.20309891 0.1495517 0.03398391 0.12498382 -0.2501028 0.2547316 0.21105145 0.12640457 -0.046818458 -0.020301852 -0.14425695 0.31891432 -0.1320515 0.10203677 0.024109656 0.054766417 0.39010638 0.04090666 0.0421186 -0.013329185 -0.31466642 0.23575911 0.031755414 -0.07927291 0.25268912 -0.29422572 -0.029082507 0.033411533 -0.25074673 0.15160419 0.08887479 -0.12575011 -0.11067332 0.05897728 0.21567701 -0.13635464 0.21035908 -0.008500354 0.04976505 0.06613229 -0.009673709 -0.04579645 0.11731739 0.0142410025 0.29955527 0.025995022 -0.053685732 -0.046635322 -0.24611515 -0.18840957 0.15764824 -0.06432869 -0.39207914 0.061928164 -0.014797989 0.0269535 0.18202412 0.059978206 -0.16427481 -0.07326777 0.2764814 -0.07508918 0.084900774 0.05514451 0.5619572 0.0064920117 0.33084694 -0.033458274 0.05384857 0.086813875 0.042439688 -0.1699958 -0.027870718 -0.18033808 0.083942614 0.18164115 -0.06486112 -0.14726095 0.14477089 0.28206846 -0.13509636 -0.14091043 -0.20515592 0.14355856 0.064930156 -0.18665837 -0.14755176 -0.016704848 0.08107899 0.10438873 0.012730121 -0.18214019 -0.029859718 0.1796105 0.10161832 0.2900553 0.16385432 -0.0012269099 -0.015744405 0.2068573 0.04848285 -0.10081593 -0.103173174 -0.06864288 -0.015831042 -0.086457655 0.06732452 0.12876612
3907 0.17898653 0.28473085 -0.12434108 0.12596522 -0.003086645 -0.17345649 -0.2198888 -0.014138657 -0.05311632 0.34093344 -0.16779827 -0.024354424 -0.06538048 -0.13616149 0.12685129 0.339831 0.082824476 0.14725897 -0.12152133 0.42969415 -0.28670847 -0.017630892 -0.09102673 -0.14878702 -0.19547947 0.17972337 -0.25495762 -0.00306322 0.29199943 -0.2786517 0.054604206 -0.110243455 0.27188438 0.17492376 0.11444468 0.399949 0.2440495 -0.059758797 -0.21908319 0.2529419 0.07712472 0.073268466 -0.3144472 -0.025373837 0.47217533 0.02037783 -0.21581385 0.01678025 -0.14779347 0.21800399 0.15503629 -0.07595323 0.16567148 0.1331782 -0.23699057 0.1862367 0.49227607 -0.2189047 -0.04198014 -0.17741682 -0.51910317 0.07485991 0.30904382 0.26088208 0.18251233 -0.020677114 0.5057474 0.022375511 -0.18119268 -0.2744854 0.07168689 -0.1820821 -0.16263574 -0.144853 -0.06201874 0.0115221 0.1532142 0.3060462 0.14803673 0.49243963 -0.22640802 -0.40365627 0.23313726 0.12500359 0.081754096 0.0790261 0.22131048 -0.2352077 0.3925664 -0.026826303 0.12858391 0.00022142088 0.26049474 0.059232496 0.08178493 0.30687782 -0.22861399 0.11813404 0.42263526 0.022976058 -0.21015148 0.30003056 -0.049377006 0.004061251 -0.010674468 0.08063015 0.30400494 -0.102736995 -0.067288525 0.034716673 -0.05981095 -0.09474009 -0.110614784 0.21747418 0.028536152 -0.051828723 0.18863693 -0.09438958 0.50372505 0.24275663 -0.08463533 -0.2193804 0.21473503 -0.032299608 -0.43194085 -0.46177882 0.014194946 0.097250216
3456 0.14692704 0.08276789 0.108230494 0.26257908 -0.067524575 0.0788604 -0.14585316 0.19636253 0.27797514 0.0033940272 0.27097225 -0.29976624 0.07020423 -0.22691098 -0.14660133 0.013006591 0.11526564 0.027219933 0.024340278 0.17530005 0.082693934 0.08912483 -0.0625689 0.20676666 -0.314239 0.12856781 -0.014587067 0.2035017 0.05031148 0.09599891 -0.034184 0.37509078 -0.1374863 0.16175236 0.06546498 0.060339794 0.07942725 0.05240144 -0.11466321 -0.13230993 -0.08439523 0.063902795 -0.023293981 0.0228386 0.15312737 -0.33798617 0.2547449 -0.0646419 -0.03732027 -0.0018221184 -0.069698595 0.0004452308 0.024477936 0.109325565 0.43349573 -0.13495295 0.19556436 -0.08447394 -0.09652958 -0.15133974 0.068366535 -0.015074001 -0.13718627 0.39442363 0.32871538 -0.14625636 -0.051476702 0.07284751 -0.06825707 0.12344148 0.075586356 -0.1620816 -0.08104452 0.084626585 0.16230275 -0.0070314663 0.29297662 0.09111146 -0.085083045 0.10572746 0.27912873 -0.11474191 0.06841935 0.18820454 0.54183877 -0.025987407 0.07218029 -0.15988788 0.132237 0.05379733 -0.19712308 -0.13548607 0.33377272 -0.31147075 0.2657953 0.034948166 -0.12636106 -0.1490935 0.1686483 0.18784381 -0.12089911 -0.08657515 0.064193584 -0.016493106 0.09537235 -0.26916203 -0.08764164 0.04820327 0.1702695 0.24620791 -0.07511599 -0.11584235 -0.1340274 0.36031732 -0.050339147 0.2736744 0.061060783 0.09046402 -0.041851122 0.111616395 0.13149785 0.020245176 -0.0003508002 -0.097039625 -0.0717808 -0.26400408 -0.14117911 -0.13972531
3611 0.17129704 -0.0006047121 0.29176536 0.08429774 -0.11396221 0.22900377 -0.08898913 0.21718566 0.12454497 -0.039883677 -0.13717172 0.09538111 0.034322508 -0.048758946 -0.121002756 0.3043531 0.03423505 0.2581118 0.034430843 0.2631639 0.17057508 0.10472208 0.08903462 0.33016953 -0.101681374 -0.07203577 -0.08990277 0.2862901 0.06543657 0.11432902 -0.11746501 0.3206519 -0.15229456 0.08121801 -0.12537903 -0.2949368 0.09025824 0.01429288 0.014254189 0.02130373 0.022860967 0.08651561 0.1253757 0.03450161 0.037195455 -0.29658937 0.1514458 -0.1542944 -0.05526177 0.051244356 0.17572157 -0.052983586 0.032445982 0.32368198 0.43344796 -0.0046943678 0.2001573 -0.2430313 -0.19959718 -0.13664436 0.07914663 -0.08687339 0.07084392 -0.07378958 0.260971 -0.033969693 0.05205866 0.089451 -0.1921248 -0.11741994 0.09478507 0.16426387 -0.1912503 0.23373532 -0.17288132 0.1389055 0.0028020097 0.08205251 -0.109603986 0.1312124 0.37405753 -0.34769088 -0.07581161 -0.030286755 0.22042301 0.056669127 0.3031272 -0.006827259 0.13384317 0.19355708 -0.06454038 -0.36208287 0.19273087 -0.3107352 0.4737936 0.10200055 0.025582286 -0.13245285 0.2500697 0.023515519 0.06771622 -0.11803643 0.012303065 0.058509182 0.060112473 -0.053426217 -0.18046279 0.08257112 0.1586728 -0.090247475 -0.097472176 -0.072381295 -0.07793703 0.4844502 0.08776503 0.24374744 0.05036438 -0.056467142 0.020275718 0.267953 0.044914544 -0.20428357 -0.345854 -0.06717123 -0.062891774 -0.24101931 -0.27373958 -0.030270634
3514 0.050409365 -0.059006862 0.00081457396 0.35041323 -0.19977504 -0.10109066 0.082622066 0.18191151 0.26321405 0.07765609 -0.052716978 0.0002887529 0.059229583 -0.17059867 -0.06634212 0.1195115 0.16681303 0.1995348 0.1481956 0.1505642 -0.044577695 0.3001388 0.03655275 0.07645461 -0.15033145 -0.1397125 -0.08996719 0.22921251 0.09921633 -0.05149394 -0.24236743 0.42087287 -0.28081718 0.082881235 0.13266343 0.0013404109 0.060094066 -0.12527017 0.064011134 0.08314941 -0.1373369 0.10491576 0.19503234 0.024502996 0.050816365 -0.26417714 -0.10384339 -0.18371147 -0.28873596 0.24115051 0.11696581 -1.8525589e-05 0.017889153 0.054638002 0.27187663 -0.07721319 0.089605294 -0.08650583 -0.07598873 0.04544346 0.2362161 -0.20484617 0.09715991 -0.011836617 0.13941136 -0.18051052 -0.016030073 0.09434964 -0.3327268 -0.026198687 -0.079848796 0.2611703 -0.31816167 0.14179215 -0.09876757 0.0022139593 0.095456764 0.035169903 -0.10867334 0.055149365 0.2997807 -0.1004236 0.13195236 -0.059997085 0.42592752 0.009530966 0.19707328 -0.0065670153 0.07615151 0.00527464 -0.12325433 -0.4077863 -0.022006754 -0.027423913 0.39500207 -0.08659464 0.0752424 -0.1838835 0.19669046 0.07295938 -0.10835678 -0.15591429 0.06384213 0.019347448 0.05816856 -0.19263136 -0.09353555 0.22131045 0.112642564 -0.021482976 -0.014076811 -0.13445367 -0.14886458 0.40990967 -0.069347315 0.3988451 0.29429567 0.047826618 -0.11001216 0.20096764 0.23088935 -0.0768723 -0.2621716 -0.15992486 -0.1366833 -0.30578887 -0.1291437 -0.14550588
3633 0.21953438 -0.12756377 0.23310454 0.4381196 -0.08266676 -0.00090917485 -0.06869404 0.11919326 0.33884618 0.016562432 0.063295215 -0.15730196 -0.025509723 -0.06697213 -0.16486336 0.03819705 -0.013939967 0.2045029 0.25696054 0.0017277754 0.1055355 0.10887831 0.060498867 0.17415114 -0.14523095 0.107549205 0.18613936 0.19093098 0.020113423 0.05604855 -0.21706282 0.27001297 -0.16594972 0.1773538 0.002743094 -0.006832842 0.18712562 0.097302325 0.08959994 0.10576478 -0.24515128 0.0520875 0.05929915 -0.065306544 0.22660872 -0.27834597 0.18075663 -0.19834842 -0.25451165 0.20911825 0.07865835 0.01743145 -0.08247179 0.22993548 0.39792427 0.04597157 0.18117987 -0.00036878302 -0.13479054 -0.06351174 0.023257721 0.055424143 0.018472787 0.29635623 0.35197067 -0.18156694 -0.10866323 -0.032821942 -0.061146382 -0.11702177 0.02659847 0.17504267 -0.2369419 0.026392182 0.23384681 0.012011027 0.29351166 -0.00863357 0.119443744 -0.0046840664 0.112554565 -0.27789468 0.007215825 -0.026048908 0.3954514 -0.00091550505 0.119011946 -0.16657588 0.13434121 0.16506189 -0.2382144 -0.09973307 0.22527398 -0.21133226 0.080774404 0.102560885 -0.2150304 -0.28364742 0.10758485 0.1272568 -0.092127934 -0.07776764 0.047670756 0.055271838 0.085242875 -0.07559354 -0.025516914 0.1117746 0.21837823 0.20049477 0.04736364 -0.15823658 -0.05017585 0.32585412 0.008847788 0.31568253 -0.07712683 0.12797196 0.017317712 0.19099727 0.019439857 -0.0797616 -0.22764087 -0.12185862 0.049114436 -0.074929036 -0.065390706 -0.27844802
3737 0.1876624 -0.0581016 -0.02506853 0.12947363 -0.06439556 -0.008583841 -0.030130649 0.20108901 0.34439453 0.0822331 -0.09625233 0.05432393 -0.30111623 -0.016743159 -0.10766969 0.08580226 0.19313009 0.34223768 0.18597592 0.15532503 0.03346935 0.15142144 -0.078880444 0.32700905 -0.21935552 0.0060969894 -0.026821483 0.16242583 0.14561234 -0.065979876 -0.21703655 0.29074892 -0.09869292 0.27137575 -0.04539307 -0.10183742 0.19161183 -0.0133086 0.03922409 0.038082562 -0.115054674 0.23610494 0.06334538 0.10470678 -0.04368934 -0.145387 0.16810226 -0.07134358 -0.07702197 0.07016652 0.06439534 -0.020351972 0.09948545 0.23604313 0.52303106 -0.12305108 0.11541606 -0.21613877 -0.19065197 0.0395672 0.18530221 -0.27775964 0.16558616 0.080378994 0.22324227 -0.18487486 -0.049625557 0.21542971 -0.33052573 -0.10069872 -0.022831308 0.21170135 -0.25294343 0.17994769 -0.23964024 -0.30961496 0.16634473 0.04781872 -0.26539892 0.071030855 -0.07967096 -0.3105294 -0.050788544 0.03915174 0.5024012 0.34817615 0.20467745 0.20237553 0.08418896 0.19743542 -0.11397274 -0.27722514 0.25610238 -0.18737294 0.20912655 -0.14542077 0.07608043 -0.20270534 0.23490246 0.13053788 0.1859204 -0.14331056 -0.0062927958 -0.08621631 0.20795062 -0.08851669 -0.18916029 0.033569973 0.15416946 0.0896369 -0.18687315 -0.1454677 -0.04528322 0.43315488 0.08114434 0.27608156 0.36712056 0.13092417 -0.09261633 0.26285407 -0.019004112 -0.28199998 -0.05264781 0.07602117 -0.025227338 -0.18834867 0.039005015 -0.15574981
3604 0.16756627 -0.045571756 -0.116587095 -0.022187458 -0.16548435 0.103302784 -0.031802416 0.22591914 0.20681562 0.14704803 -0.025234876 0.035652325 0.09418549 -0.008456978 -0.14745681 0.0032807603 0.1274298 0.19757003 0.03961693 0.093981266 -0.2517089 0.2288147 -0.06973468 0.013223632 -0.15088674 0.15396921 0.028959263 0.38230243 0.21833761 -0.069947086 -0.27850828 0.38627362 -0.000909172 0.35573104 -0.08319452 -0.09849034 0.12172346 -0.0015834497 0.1351339 -0.21745193 -0.02238078 -0.11782211 -0.1727425 -0.036173593 0.106687255 -0.10186548 0.067573845 -0.14333503 -0.088465646 0.026264168 0.13035165 -0.22412889 -0.09313472 0.24666674 0.24168816 0.021702666 0.003968363 -0.072539955 -0.24490452 -0.06372293 -0.15371525 -0.12139352 0.09256622 -0.09229358 0.2294616 0.0034965847 -0.22543928 -0.029372873 -0.0008067218 0.22707471 -0.068287775 0.2340805 -0.17737077 0.12973593 -0.1812325 0.12530716 0.17670396 0.008688368 -0.055647023 -0.17035665 -0.005251563 -0.25450903 -0.082330056 -0.015871009 0.28234974 0.04196512 0.31247374 -0.117015086 0.0964183 0.18889402 -0.22458807 -0.105203904 0.030374877 -0.3188677 0.4687692 0.2537638 0.07684781 -0.14870502 0.032689784 0.07094075 -0.17545676 -0.23342144 -0.17849232 0.025204279 0.07710931 -0.18157394 -0.16436714 0.056908406 -0.08673159 0.2051718 0.13657095 -0.09346847 0.057233665 0.5073664 0.011565852 0.4321185 0.0004021631 0.035156317 -0.32414228 0.33040324 -0.19043782 -0.12429421 -0.2174371 0.008129854 0.17924716 -0.088667564 0.04956386 0.11192993
3971 0.19290037 0.15158151 0.25982007 0.3020234 -0.12776212 0.050678734 0.083443046 0.16403407 0.13500206 0.081268795 -0.09748073 0.14301448 -0.20208895 -0.22482975 -0.15634036 0.0060728984 -0.2581604 0.2302897 -0.04945834 0.0879445 0.20110984 0.035868905 0.036635343 0.22001967 -0.111618295 0.1625763 0.314586 0.24111949 0.12234953 0.21314819 0.06465522 0.4161273 -0.4226018 0.15480645 -0.09302109 0.09051618 0.22166985 0.039787292 -0.27972695 0.18878883 -0.15706548 0.20373866 0.17919375 -0.096792124 0.19735044 -0.23759371 0.2280852 -0.005519495 -0.19434161 -0.045067668 0.01080433 -0.07797047 0.027720846 0.22096607 0.31295222 -0.015802652 0.12252068 -0.13060518 -0.17094752 0.056936372 -0.01177806 -0.09849628 0.18248135 -0.13096744 0.40579757 -0.14538968 0.20313896 -0.088753 -0.17661417 0.06750575 -0.05339372 0.17693585 -0.18962705 0.21645047 0.15883018 0.21657903 0.12080504 0.16122004 -0.034189325 -0.032584358 0.17056794 -0.33374417 -0.023240201 0.087552175 0.40648222 -0.11075587 0.034038533 -0.24413382 0.14053994 0.0058916803 -0.024729969 -0.026747765 0.23083648 -0.15750995 0.1730572 0.1504155 -0.052115027 -0.26112765 0.06663879 0.014058269 0.18129723 -0.020611672 -0.08790201 0.22881542 -0.04942073 -0.12674902 0.13498263 0.34920713 -0.012979056 0.1493916 -0.10949563 -0.26285887 -0.4265853 0.26926893 -0.00650688 0.4820109 0.27493358 0.090677455 0.055099316 0.123786665 0.12738967 -0.046857644 -0.19584207 0.040313445 0.026928741 -0.17675178 -0.23504442 -0.19372612
3760 0.2676874 0.10437154 0.16733105 0.33407563 -0.091752775 0.03416539 0.043898825 -0.0059397263 0.47944498 0.08401218 -0.09865959 -0.1143386 -0.009574022 -0.2310315 0.08963882 0.026536325 -0.10387958 0.03291689 0.34892696 -0.13948816 0.1892812 0.023598194 -0.09883365 0.044298507 -0.38757038 0.028885217 -0.2005855 0.0499661 -0.11376769 -0.004777904 -0.18938856 0.1649434 -0.2416554 0.16744837 -0.23668693 0.07496287 0.3120095 0.33165216 -0.14721273 -0.18536769 -0.14903861 0.15525381 0.30944574 -0.11641504 0.11137164 -0.3582061 0.19763175 -0.25401214 -0.23757057 -0.010978874 -0.08442593 -0.2890918 0.12072961 0.15185778 0.043555234 -0.017791642 0.12732764 0.3515621 0.031709116 0.10000149 0.13795769 0.15321958 0.041113008 -0.008994789 0.28866193 -0.006773397 -0.078908876 -0.11236957 -0.10027184 -0.058077138 0.007613604 0.06937039 -0.31548566 0.25007397 0.077283196 -0.019947855 0.24151625 0.17839189 0.078241 0.17927966 0.15591004 -0.21023947 0.043120544 0.15554154 0.35371622 -0.016133683 0.20749538 0.013660572 0.19876342 0.0915285 -0.15222456 -0.36283597 0.19221923 -0.14009564 0.08883256 -0.024457503 -0.035391692 -0.24826078 0.13422196 0.04654672 -0.018677473 -0.13331579 -0.07424695 0.09607397 -0.19642669 -0.015899578 -0.04580131 0.16029005 -0.034396738 -0.095118724 -0.07955904 -0.26137418 -0.022691049 0.36314595 -0.0932207 0.4236111 0.06382195 0.010583105 -0.011314846 0.29933512 0.1997317 -0.17656243 -0.18980178 -0.19527215 0.1246876 -0.27366897 0.32784495 -0.23747881
3824 0.22913408 0.12158949 0.04100951 0.33191624 0.09854417 -0.08505227 -0.07246005 0.17337953 0.3214097 -0.04019392 -0.035657283 -0.030047514 -0.028902698 -0.18119742 -0.18803358 -0.0075100856 0.059421282 0.27516264 -0.20451991 0.0978903 -0.036670588 0.14169304 0.04837923 0.29845664 -0.22995825 0.05663674 -0.12092373 0.18968277 0.1555697 0.10794692 -0.13984554 0.41868976 -0.14412622 0.16835612 0.048123404 -0.33831227 0.004501383 -0.0032773188 -0.07741032 0.15944563 -0.12915042 0.18795618 0.079236865 0.12193633 0.2435746 -0.10541716 0.054535538 -0.21141262 -0.11591533 0.26461783 0.039212096 -0.08668934 0.012554478 0.048623722 0.36665955 0.113041475 0.068071924 -0.12711003 -0.14130563 -0.07454012 0.3569217 -0.22168216 0.08732044 0.09591014 0.19620427 -0.090890944 0.097291924 0.03369133 -0.045069195 -0.0103711765 -0.028293299 0.17186278 -0.068455085 0.05474819 0.02961848 0.046549935 0.09064752 0.14669017 -0.078123696 -0.033074234 0.09339919 -0.0718416 -0.03668615 0.08123144 0.48792717 0.12165477 0.18566796 -0.0062498106 0.13173985 0.25230157 -0.30005923 -0.32663056 0.23091994 -0.12617138 0.1847781 0.05776691 0.054181345 -0.21856329 0.039353263 0.079034545 -0.13747813 -0.0289107 0.04432264 0.09103956 -0.0037373707 -0.2772334 -0.09021814 0.1801296 -0.027398616 -0.060078062 -0.19929764 -0.10485346 -0.14982858 0.63710123 -0.008070663 0.2817989 0.3025281 0.1371213 -0.10739834 0.2616536 0.27252385 -0.2279391 -0.25179616 -0.09665855 -0.16660252 -0.09074056 -0.14896783 -0.24550186
3873 0.07804201 -0.034242902 0.12580286 0.29964575 0.069023564 0.107180156 0.062032994 0.31991258 0.19582841 -0.079710364 0.05130076 -0.011119563 0.14288658 0.020443177 -0.054221097 -0.10453913 -0.2150517 0.1293491 0.17704184 0.16179106 0.12953089 0.10465052 -0.14849728 0.15424196 -0.26563385 0.22433409 -0.12592821 0.31667128 0.0930494 0.05297921 -0.11163576 0.35936463 -0.12319644 0.03315857 -0.13833271 0.0112856 0.1993091 -0.030149179 -0.06874316 0.18105967 -0.14600429 0.33736715 0.24736956 -0.17633009 0.25059983 -0.33679682 -0.007987049 0.17358552 -0.15605643 0.052152593 0.2816461 -0.39784682 0.040436942 0.07246197 0.30482373 -0.12767272 0.103639364 -0.20697197 -0.081768945 -0.22517203 0.06831734 0.038992897 0.03176445 0.03451692 0.5726717 -0.22599961 0.044880684 0.120368846 -0.15140416 -0.07295421 0.0309818 0.115594566 -0.033569686 -0.05987241 0.050150245 0.06007016 0.25704545 0.13124397 -0.002564338 -0.10173413 0.12529545 -0.2581851 -0.2416248 -0.011083454 0.42759323 -0.09328899 0.24337377 -0.031520277 -0.11624905 0.2549167 -0.1212284 -0.26518342 0.20865269 -0.06175706 -0.01417378 -0.04768595 -0.055051424 -0.093058735 0.05404535 0.09614094 -0.077603385 -0.19796884 0.03132759 0.2939545 -0.03255013 -0.19285099 0.028031783 0.121405855 0.034411896 0.15245514 -0.14140892 -0.043630052 -0.084058605 0.25784647 -0.16995168 0.30620703 0.002740557 0.2079855 -0.06866518 0.29109812 0.10346557 -0.37617856 -0.054854896 0.011746173 -0.19231112 -0.40715185 -0.15151094 -0.11957663
3630 -0.3801495 -0.54451704 -0.20979746 -0.4020591 -0.2990257 -0.069084205 -0.15588418 -0.48340422 -0.17127013 0.22821502 0.25074723 -0.07430258 -0.074989125 -0.28551215 0.10275114 0.24752957 0.13176365 0.2916819 -0.055613346 -0.14085451 -0.55217266 0.18520151 -0.23611273 -0.050416134 -0.2511349 0.4500293 0.013896004 -0.04548471 -0.09072281 -0.23628044 -0.084475696 -0.22368206 0.27864063 0.28568134 0.013125836 0.03251031 0.21820077 -0.23306642 -0.055401187 -0.042823657 0.03997053 -0.15454073 0.08197673 0.02609072 0.28423974 0.21730925 0.032233506 -0.017294759 -0.028204935 0.06252728 0.15068112 -0.2226405 0.19074458 -0.024186952 0.19539337 0.10959841 0.482359 -0.112476006 -0.13689476 0.24809748 -0.15463924 0.07782849 0.084809825 -0.20892088 0.099584036 -0.055985276 -0.38820353 -0.10303271 -0.2589345 -0.27882737 0.3677977 -0.2605681 -0.007911205 0.11521384 -0.14733621 0.083897196 0.0047323867 0.09670651 -0.25944299 -0.14191994 -0.038391255 -0.1409885 0.0016000161 0.16142802 0.19659261 0.64560896 0.06278478 0.05347373 -0.04309714 -0.12568043 -0.04698406 -0.027633052 0.5845079 0.1795371 0.5357908 0.29875606 0.23378877 -0.2784106 -0.20467506 -0.3816493 -0.4777506 -0.3253994 0.016494162 0.34584442 -0.1095673 -0.32472208 -0.034691125 0.32223827 0.10764526 -0.09282493 0.13455302 -0.47515252 -0.07006477 0.5044938 -0.006503851 0.11609093 0.055804968 -0.038032487 -0.36343813 0.10791496 -0.43131807 0.018568354 -0.2788643 -0.27341056 -0.15805462 0.12394926 0.04812273 0.14722541
3877 0.085978776 -0.048817225 -0.01776639 0.24108405 0.049675502 0.02780097 0.1213117 0.18522854 0.26456577 -0.038405467 0.07122687 0.18813229 -0.06345177 -0.08675111 0.057080507 0.028045254 -0.08233373 0.18293637 0.050592616 0.2241227 0.16392931 0.11569386 -0.08642791 0.28925726 0.023064377 0.34784067 -0.062897615 0.03559633 0.18832576 0.11170529 -0.2681222 0.57012933 -0.102286875 0.3439067 -0.15905523 -0.17901763 0.03902638 0.05754659 0.07254951 -0.3039438 -0.21282686 0.18075095 0.10065747 0.090116575 0.25376952 -0.3017388 0.044731975 -0.001732914 -0.08629259 0.0755838 0.04503342 -0.1762186 -0.04862106 0.15239869 0.249572 -0.33173025 0.3187045 0.06543914 -0.13801809 -0.19744429 0.0018164846 0.14759839 0.021248877 0.015334264 0.2572597 -0.1890531 -0.03966281 -0.075281486 -0.1319719 0.029081915 0.022493111 0.2714074 -0.07425451 0.13888174 0.11795511 -0.10595947 0.23860146 0.08710668 -0.047316346 0.31217942 0.33039677 -0.21800657 -0.20337735 -0.014446174 0.45221347 0.013955937 0.24552599 -0.16601653 0.15521316 0.32773387 0.07463912 -0.28843427 0.2035159 -0.20749015 -0.09538989 0.06311591 -0.11342398 -0.15871143 -0.079233125 0.07773226 -0.03392441 -0.24375759 -0.11041709 -0.061154958 -0.02169208 -0.083091214 -0.078639574 -0.0055373716 0.14142053 0.0702638 -0.099149376 -0.36020005 -0.2097123 0.37695837 -0.19607608 0.36399022 -0.10936002 0.13046025 -0.17661333 0.11426399 0.06469621 -0.33974445 -0.08527393 0.07159821 -0.27534893 -0.32150474 -0.22969143 -0.22362764
3437 0.09111235 -0.028161304 -0.08248828 0.16180463 0.38507608 -0.15840246 -0.011319454 -0.082326725 -0.039416336 -0.0312568 0.16748416 -0.010064217 -0.10083553 2.9269322e-05 0.016007822 -0.0074980524 -0.14073811 0.06391722 0.13364282 0.2320807 0.013403571 0.3084365 -0.068116575 -0.152877 -0.06489479 0.1458532 -0.15110262 0.16322327 0.05134621 -0.1548332 -0.26605198 -0.2831839 0.14805251 -0.054270376 0.021182444 0.14594573 -0.11265282 0.107919425 0.035491824 -0.14788492 -0.35554835 0.107553214 -0.19014108 -0.22275531 0.08734935 0.13508816 0.049688537 -0.25482586 -0.033673882 0.2705171 0.2010318 0.047826286 0.13402922 -0.011565614 -0.23338073 0.14793298 0.5161143 -0.3007742 -0.26822543 0.11260958 0.17240722 0.14886276 0.056920744 0.09075507 -0.012217668 0.093188524 -0.035773434 0.19964953 -0.07896641 0.03414429 0.092748165 -0.20197085 -0.26917544 -0.14948596 0.25196564 0.24382374 -0.20525943 -0.080916196 0.107840784 0.29514748 0.00070252083 -0.02461047 0.15936461 0.14526385 0.06885224 0.004630831 -0.1067378 -0.27872488 0.018266292 0.1666171 0.06671722 -0.18196332 0.057324525 -0.15945296 0.12563024 0.1787866 0.19399248 -0.3109529 0.124028146 -0.01982708 -0.16223054 -0.037387505 -0.14213586 -0.16897394 0.115159854 -0.1324577 -0.028864074 0.04829646 -0.18658678 -0.041601423 -0.009679626 -0.18924667 0.20673417 -0.08154966 -0.2245783 0.06575393 0.35600296 -0.051013313 0.07080413 0.20038174 -0.12332265 0.1245032 0.036012523 -0.13397296 0.076265104 0.00408754 -0.0056348895 -0.039923448
3692 0.32473436 -0.06258786 0.1418051 0.2117348 -0.11733229 -0.13292442 -0.008312701 0.23224932 0.5252761 0.12789884 0.12135689 0.05677374 0.18141231 -0.13565707 -0.24846901 -0.08825936 -0.06842441 0.032978445 0.20624393 0.029117899 0.12576467 -0.023320852 -0.15920657 0.14114732 -0.41019562 0.1696245 0.07373249 0.23240022 0.06560655 -0.058939174 -0.09995749 0.4258895 -0.04663434 0.17711079 -0.03800318 -0.102530904 0.31348646 0.004280537 0.0445151 -0.055859987 -0.27407172 0.17431901 0.16837226 -0.19869411 0.13593899 -0.19915196 0.08922856 -0.06774931 -0.245778 0.11155418 -0.04097737 -0.19326319 -0.13105804 0.15738991 0.21778077 -0.22481693 0.36121342 -0.23704556 0.093839146 -0.092908256 -0.04871987 -0.12396464 0.084362864 0.12224809 0.33310008 -0.24236675 -0.14819543 -0.13431635 -0.14739972 0.12772258 0.044668317 -0.025391204 -0.08766723 0.09255183 0.02769016 0.119737916 0.35445282 -0.06323584 0.0564842 0.1964374 0.09909019 -0.10728595 0.016937938 -0.028327685 0.34973946 -0.0757939 0.17993009 -0.26606104 -0.01840059 0.16709799 -0.13915157 -0.12598383 0.16840842 -0.22374833 0.06262717 0.17038755 -0.05252611 -0.3338824 -0.07301482 -0.032021414 0.048021063 -0.31755888 -0.05569496 0.16328682 0.026402673 -0.16715084 -0.013946438 0.25658745 0.13055716 0.100576185 -0.24130313 -0.16992857 -0.15254554 0.17867911 0.079501696 0.31320655 0.04296917 0.20017947 0.008911123 0.09553486 0.03981154 -0.26629147 -0.017069276 -0.1274847 -0.13436367 -0.3081028 -0.15504496 0.08867901
3651 0.08120079 -0.05323563 0.22112758 0.41535833 0.054181293 -0.11469058 -0.04106696 0.30859372 0.2535789 0.009726675 0.0587843 0.019213066 0.18347022 -0.06394336 -0.21137589 0.14836404 0.11173543 0.054191414 -0.004096544 0.1331496 0.026022358 0.20512883 -0.07517895 0.14425747 -0.38650426 0.14653648 0.20784797 0.15270093 0.07325702 0.0363471 -0.22937928 0.384086 -0.14454368 0.22556232 -0.012568737 0.072164826 0.32852748 -0.09722428 0.023949236 -0.047506906 -0.11278996 0.29447463 0.1455537 0.0906137 0.13528459 -0.39686877 0.18457156 -0.11237133 -0.3052607 0.0020871493 -0.20039226 -0.1173517 0.0059920787 0.24685034 0.12512389 -0.087647386 0.26044965 0.011417862 0.0020101008 -0.028819026 -0.059696507 -0.056645934 0.21445033 0.07437655 0.12811463 -0.07052957 -0.06931084 0.09383188 -0.17663155 -0.14971098 -0.002074702 0.051201977 -0.03619274 0.11036962 0.22559154 0.052328322 0.16867882 0.0068463124 -0.04048323 -0.02395821 0.27563262 -0.2060275 0.03767035 0.18916142 0.54611254 -0.14068472 0.010956 -0.14643764 0.103038065 0.13478078 -0.24850808 -0.18042189 0.15723285 -0.21142228 0.27778924 0.12241587 -0.07157482 -0.1674962 -0.051013693 0.06449403 -0.05140444 -0.2615496 -0.11235377 0.11146145 0.17682044 -0.27214152 -0.22343016 0.21517283 0.07425632 -0.030140026 -0.25770107 -0.09177445 -0.21342589 0.11422831 -0.095089994 0.23243669 -0.097229816 0.27863574 -0.14634313 0.21697775 0.08076297 -0.31692544 -0.21238527 0.13007066 -0.20089568 -0.28482342 -0.103818774 -0.17658089
3884 0.129141 -0.025799794 0.09360681 0.3484347 0.14976788 0.10514316 -0.102270685 0.102765635 0.18465246 0.059940007 -0.15519056 -0.12626974 -0.035863962 -0.16686784 -0.09440841 0.14954087 0.019808821 0.034385107 -0.010233372 0.30212453 0.09448567 0.20374961 -0.0062577263 0.20722835 -0.27296582 0.02460091 -0.030104956 0.2144331 0.06694334 -0.079501905 -0.14324874 0.41302276 -0.15070267 0.17798036 0.14659283 -0.13563494 0.10492241 0.14024833 0.21011274 0.031319395 -0.110423215 0.17726575 0.22197765 -0.015400626 0.1563932 -0.25145686 0.071630694 -0.11715588 -0.11312346 0.13054635 -0.059689697 -0.12229499 0.06445779 0.17439003 0.60791796 -0.082011685 0.34875953 0.00045274693 -0.14857304 -0.07644159 -0.019065753 -0.3331419 -0.020383982 0.15792292 0.13722168 -0.022115475 -0.062933676 0.10355371 -0.013525677 -0.008722456 0.11389919 -0.10955049 -0.010658094 0.04426249 0.042602528 0.1429204 0.18718426 0.09357691 -0.19004415 -0.036290534 0.32610306 -0.23245919 -0.013186718 0.0885353 0.44255844 -0.024524013 0.19891816 -0.031927902 0.20225923 0.26355952 0.06905976 -0.19706562 0.22901325 -0.055241242 0.06073076 -0.12556149 -0.107025355 -0.041415114 0.09671275 0.055248436 0.022528855 -0.15214317 -0.070264064 -0.013336017 -0.09332169 -0.25345492 -0.016317332 0.35579446 0.15419118 0.06909222 0.029533671 -0.17023396 -0.099085085 0.5444832 0.07997073 0.3326693 0.25182897 0.2484133 -0.059673995 0.39693922 0.19402371 -0.3039095 -0.202492 0.026191056 -0.011117666 -0.07341007 -0.1820377 -0.011839797
3708 0.28378892 0.28830358 0.06883936 0.063594 0.2118126 0.0023113294 0.1128786 0.10516464 -0.38325804 0.37311953 0.29554075 -0.50222784 -0.33293638 0.0016142905 -0.108823374 -0.05947307 0.21194954 0.01554509 -0.0691729 0.20058586 0.17485426 -0.104827195 -0.3215283 -0.33226308 -0.32880643 0.23041664 -0.55535585 0.17220855 -0.040583033 -0.15131308 -0.12350127 0.15665968 0.17149585 -0.33960778 -0.15991233 -0.0038806235 0.50375074 -0.54315925 -0.3860309 -0.5383611 0.033126045 0.36974493 -0.30587396 -0.15063305 0.38427582 0.034206506 0.0054625026 -0.5652952 -0.2697086 0.023635592 0.28862798 -0.054507438 0.41871122 -0.1532778 -0.20069693 0.058923014 0.41800812 0.081407085 -0.25270373 0.16566916 -0.16157731 0.34149185 -0.04237796 0.60236996 -0.15766743 0.12861674 -0.19470039 0.079415746 -0.11944484 -0.34474412 0.2902122 -0.055287194 -0.4202237 0.39018375 0.41473922 0.14034873 -0.23806727 -0.62881726 -0.18581986 0.10605036 -0.23101318 -0.32864547 0.3190852 -0.28938395 0.42260084 0.48912618 -0.035834204 -0.39797315 0.3104019 -0.11911618 0.14510235 -0.2570019 0.28182045 -0.027067658 0.03348922 0.34542605 0.10358342 -0.06808616 0.072778806 0.030277327 -0.14535473 0.037652064 -0.0030316808 0.10691026 0.033231013 -0.08255169 0.21958908 0.4000031 -0.03571126 -0.37819096 0.07643549 -0.11018287 0.14172219 0.2730178 -0.24508364 -0.0034316822 0.46154875 0.46775958 0.34382948 0.10501309 -0.28635925 -0.06506415 -0.14223917 -0.21699145 -0.1749887 0.18282099 -0.23547114 -0.06545798
3518 0.08399592 -0.014660683 0.09964358 0.15453914 -0.12066849 0.0361297 -0.021978457 0.43475026 0.38686797 0.13087036 0.038870882 -0.0322282 -0.17602718 -0.23054317 0.03980978 0.1498117 0.13913971 0.13684984 0.14525764 0.16975877 0.12539892 0.17537232 -0.07088474 0.3320206 0.0031172172 0.01772345 -0.110778324 0.26039112 0.17747502 -0.28602535 -0.05044437 0.22910587 -0.27683273 0.11362377 -0.00017208913 -0.16402382 0.009526777 -0.14363725 0.08675173 0.103185244 0.16559933 0.035342313 0.15679684 0.100302905 -0.08794141 0.0022080536 0.17046043 -0.13937478 -0.19047529 0.26427105 0.097866364 -0.24018529 -0.22004661 0.00660965 0.42308372 0.07934058 0.12523279 -0.11381803 -0.2174934 -0.08242599 0.038211476 -0.38536808 -0.10521463 -0.08411538 0.107763395 -0.15671581 -0.040815838 0.1598526 -0.25340974 -0.14971094 0.08764581 0.18320103 -0.048223533 0.08899023 -0.06153396 -0.166116 -0.023150029 -0.07073788 -0.19083238 -0.06240237 0.05914419 -0.36141774 0.04784626 0.02348645 0.3891728 0.10993686 0.3513194 0.1183478 0.16797686 0.10542262 -0.056003463 -0.31092367 0.21007751 -0.21008754 0.26791784 0.10871899 0.08919981 -0.21137469 0.06682501 0.13228168 -0.07004448 -0.094126716 -0.04601458 -0.08005329 0.062938705 -0.10950007 -0.16426261 0.13974413 0.1465613 -0.024823828 -0.0063004554 -0.08935741 -0.009797489 0.40017256 -0.058459688 0.4910107 0.20002775 0.12718327 0.05500238 0.31637385 0.001654435 -0.24799475 -0.15206535 -0.023778938 -0.07387812 -0.20690238 -0.081009224 -0.08755189
3790 0.1310865 0.108956784 0.19492112 0.1785237 -0.19553283 0.0008896076 -0.06986048 0.33853367 0.2471522 0.25703722 0.0038355037 -0.050518632 -0.049957592 -0.13479826 -0.054331828 0.18186711 0.19857988 0.3735986 0.062899925 0.06264291 0.10119852 0.14275731 0.067881905 0.35093606 -0.054782823 0.023021808 -0.17511813 0.22458476 0.16126123 -0.13991617 -0.13481039 0.35556403 -0.30581978 -0.003698753 -0.13643971 -0.10233369 0.15901273 -0.01236183 -0.03438227 0.19024867 -0.0060926205 0.24188566 0.11501716 0.15485036 -0.13525404 -0.13785166 0.30404803 0.014769548 -0.1563258 0.21953055 0.12745766 -0.256789 0.08009071 0.34092832 0.2192058 0.08086088 0.12933472 -0.26000488 -0.011682914 0.00048019708 0.11771552 -0.3810809 -0.013819691 -0.08424529 0.14459056 -0.23718394 -0.14586584 0.048225936 -0.20802996 -0.2003284 0.01624231 0.06363778 0.013081876 0.27969828 -0.15465719 0.09022879 0.063647084 0.083370455 -0.191793 0.067765094 0.28805405 -0.18323235 -0.10169528 0.06703727 0.4943783 0.053620197 0.33267245 0.06092192 0.23558831 0.24407533 -0.2167729 -0.2826637 0.019037303 0.047640145 0.18561862 0.27897635 0.01661327 -0.23000358 0.043822672 0.025658427 -0.0087988805 0.0013279069 -0.19247308 -0.14253442 0.16027829 -0.22463459 -0.10431543 -0.032138713 0.105054446 0.15301418 0.056254145 -0.09878962 0.12569323 0.45024252 0.015438735 0.26459214 0.20867237 0.17402545 -0.26590976 0.37132898 -0.0051771956 -0.05855493 -0.18535873 -0.11352733 -0.16278502 -0.14469852 -0.15197475 -0.12909175
3858 0.112171404 0.09962118 0.1606271 0.17756815 -0.14389196 -0.006757799 -0.093575306 0.11427558 0.17440842 0.07729697 -0.16569132 0.14422846 -0.005911445 -0.083351314 -0.28061032 0.28745577 0.248559 0.30982825 0.13523258 0.27417153 0.016210716 0.25112242 -0.076920874 0.2261603 -0.2986271 0.027052913 -0.021909669 0.17554602 0.058236223 0.030308679 -0.34706035 0.35765022 -0.22062427 0.1612797 -0.028455708 -0.26673514 -0.08335128 -0.020707037 -0.06101922 0.19625638 -0.19071995 0.06313188 0.15145431 0.116537854 0.13501866 -0.0863284 0.08739305 -0.14317906 -0.13964762 0.20064947 0.09418325 -0.006115927 0.08468778 0.20801365 0.42969903 0.08505391 0.074556924 0.054894336 -0.19088432 -0.04469054 -0.012508519 -0.33598095 0.029429514 0.1252723 0.26414335 -0.15715784 0.029308347 0.10580856 -0.35780486 -0.10532034 -0.027450921 0.18731424 -0.12719627 0.13846532 -0.05041975 -0.09149555 0.13065538 -0.11062322 -0.22476526 -0.091788575 0.18822995 -0.26247498 -0.087897986 0.03125125 0.5084587 0.04225667 0.16050574 0.008212796 -0.045923952 0.18629164 -0.06324647 -0.3639762 0.19941437 -0.1594332 0.17772774 0.15666817 -0.1357735 -0.14120048 0.09442393 0.19681117 0.12141697 -0.15383716 -0.056069825 -0.07713921 0.11157833 -0.05376757 -0.06651165 0.14050144 0.005986803 0.031582117 -0.052860744 -0.20856935 0.061373435 0.44972625 -0.052335184 0.19439562 0.30473897 -0.07091174 -0.1194197 0.35193592 0.04997378 -0.24317126 -0.275146 -0.09409207 -0.1598509 -0.07661544 0.103417985 -0.13503169
3576 -0.035077564 -0.075149514 -0.0061106803 0.43751532 0.058656354 0.025202962 0.013909523 0.18513058 0.27410775 0.04095885 -0.27609497 -0.08428359 -0.089100674 -0.05777816 0.041718695 0.12525086 0.32122445 0.26256844 0.076609865 0.24126123 0.034665503 0.14767575 0.18875635 0.32395223 -0.052943677 0.29974326 -0.09259443 0.17232738 0.41540343 -9.342587e-05 -0.25123754 0.31639692 -0.1482261 0.066106394 -0.015825517 -0.29435626 0.11925801 0.099772826 0.02194468 0.026357982 -0.11958448 0.074969284 0.2076334 -0.028587062 0.011081906 -0.07070536 0.17741176 0.15266053 -0.30676052 0.040979013 0.23172924 -0.13896438 -0.0316171 0.21084158 0.115953036 -0.08844274 0.17925225 0.0017045499 -0.04850474 -0.22870624 0.2436792 -0.21041197 -0.083169736 0.106239036 0.12739135 -0.04666309 0.068792515 -0.008436728 -0.2497862 -0.23611364 0.083647914 0.28000295 -0.23034878 0.19408567 -0.05940555 0.15268202 -0.12206552 -0.13071713 -0.21085672 -0.07349273 0.2594031 -0.30347168 0.09997981 -0.032278348 0.2715746 0.18308401 0.26118338 0.19083333 0.09577264 0.21687117 -0.20901105 -0.21959516 0.14886056 -0.4089131 0.2920625 0.19800319 0.20408002 -0.12645842 -0.06671073 0.07080534 0.019713154 -0.08219662 -0.03200089 -0.110040955 0.015379974 -0.08206584 -0.010694797 0.44685778 0.115259305 0.14508326 -0.0048517887 -0.16768521 -0.011366602 0.5212401 0.15178058 0.3912323 -0.006420129 0.049096987 -0.021908756 0.23172538 0.1470636 -0.14609984 -0.1413127 -0.014604115 -0.12562118 -0.2581091 -0.02998213 -0.00858728
3675 0.18735923 0.03451458 -0.15977892 0.32319027 0.17958611 0.038968924 0.30194616 0.103237204 -0.35494238 0.19444464 0.50804365 -0.584043 -0.16838358 0.11435598 -0.0232188 -0.12015469 0.095061146 0.117568746 -0.24553971 0.3897491 0.27280262 -0.19926378 -0.32029468 -0.35102504 -0.4215188 0.24709134 -0.6660294 0.036890745 0.13665491 -0.15439449 -0.2517395 0.09435833 -0.010907059 -0.44009465 0.05402775 -0.15540297 0.4365723 -0.26340243 -0.23223855 -0.4551293 -0.04153956 0.5276862 -0.39855635 -0.23450157 0.2975549 0.06890954 -0.02497173 -0.42279962 -0.28742218 0.11656954 0.27960268 0.07248263 0.28197786 0.0746025 -0.12176713 0.067216046 0.36141938 -0.07043735 -0.12869853 0.3047554 -0.12778774 0.44972214 0.19062862 0.5808399 -0.23688032 0.14619362 -0.07378432 0.1594594 -0.09896502 -0.3192756 0.3194218 -0.07866276 -0.41389963 0.30563176 0.3175211 -0.0992268 -0.10662476 -0.63875073 -0.08523408 -0.104859665 -0.26166305 -0.24444553 0.32032636 -0.07066604 0.37165585 0.6302384 0.1092771 -0.37909436 0.038007 -0.00953285 0.10423709 -0.18442658 0.11377052 -0.027345052 0.12710854 0.4356088 0.019550586 -0.011474568 0.020199612 0.103129014 -0.1623567 0.11310185 -0.1567886 0.19522303 -0.03438144 0.05282099 0.30392635 0.43911418 0.07483437 -0.33039936 0.1757898 -0.119408935 0.06623323 0.21694045 -0.11418597 -0.053586945 0.47993082 0.39709657 0.19645366 0.22303674 -0.17489392 0.025563259 -0.18023534 -0.24890774 -0.22308904 0.10356078 -0.30790147 -0.16113721
3438 0.33715883 -0.045599043 0.18501773 0.412935 -0.1173474 0.106658295 0.074809946 -0.059669543 0.46275717 -0.113305025 -0.062073644 0.033917993 -0.07897925 -0.107902415 -0.11396022 -0.1920378 0.028303975 0.21357366 0.081432946 -0.0054645617 0.048409 0.10568064 -0.26486883 0.21568991 -0.33566582 0.12335561 -0.0057135494 0.3711832 -0.04316122 0.02777089 0.041238472 0.16353714 -0.108566195 -0.052454263 -0.16870217 0.13859536 0.2755662 0.26933163 -0.015381634 0.19995958 -0.3571581 -0.060850948 0.22333838 0.077970974 0.2598965 -0.3922218 0.17109135 -0.012045307 -0.2657235 0.11250411 -0.21234466 0.041647267 0.03742006 0.30455878 0.054065164 -0.12956665 0.12208634 -0.21215065 -0.032917805 0.010071969 -0.143568 0.2073616 -0.026740858 -0.19854271 0.47297284 -0.22340377 -0.21562022 -0.011280938 -0.20270881 0.2761626 -0.14130957 0.13958243 -0.24221514 0.013951146 0.1385534 -0.025687568 0.13060045 -0.028787779 -0.1809386 0.011043683 0.56430423 -0.10108035 0.13880305 -0.102173306 0.2252776 0.10240279 0.18030883 -0.24456471 0.30057693 0.06074135 -0.051901203 0.07717214 0.26123223 0.017927637 0.16530798 -0.33806995 -0.051151913 -0.27439493 0.038736522 -0.06384463 0.0033181778 -0.17507732 -0.15538383 0.16434477 -0.21725805 -0.16765197 -0.04164248 0.13274424 0.14716889 0.07242426 0.14649977 0.053581554 -0.2504942 0.43620363 -0.026807183 0.19946742 -0.057628434 -0.0916415 -0.1537242 0.4010581 0.060419027 -0.3022953 -0.07871302 -0.1533349 -0.22655764 -0.103120685 0.07106113 -0.32401866
3596 0.23760545 -0.16598085 0.15634853 0.4224726 -0.035398528 0.092264526 -0.085361466 0.04748024 0.4575526 0.16445172 -0.061773047 0.05335111 0.02892172 -0.17645004 -0.26702932 0.17741328 0.13596392 0.25232044 0.16868888 0.13475569 -0.056733713 0.08145225 -0.054648843 0.21102184 -0.27108148 0.035047386 0.051582076 -0.015621714 0.048145484 -0.02352776 -0.17393292 0.28462386 -0.2678719 0.12930948 -0.10642887 -0.040527362 0.1865455 0.017512305 0.029294243 0.02247844 0.07578269 0.20691307 0.030903554 0.038290977 -0.012397277 -0.10544261 0.111630045 -0.16130063 -0.20971581 0.1614058 0.20670897 -0.1479677 -0.002823118 0.26114562 0.3347221 -0.054645248 0.08968746 -0.05443691 0.11006207 -0.03182942 -0.07620137 -0.3268717 0.11321689 0.09489704 0.30679247 0.02905269 -0.09300972 -0.011060411 -0.25685042 -0.08705853 -0.15716437 0.2664057 0.020457795 0.07540965 -0.15464328 0.087541334 0.113353014 0.010659313 -0.24789171 0.06529999 0.26465607 -0.31113023 0.046200756 0.04606168 0.40736854 0.07235333 0.19221283 -0.0625946 0.112638034 0.4504907 -0.071622014 -0.32424527 0.07163806 -0.1692797 0.13007984 0.17113824 0.012400048 -0.23821194 -0.20466602 0.008986359 0.07631021 -0.113612175 -0.15810186 0.16735749 -0.15349707 -0.04880924 -0.06726643 0.031270236 0.09534821 0.11500613 0.07115865 -0.13907047 -0.10641921 0.38960811 -0.1846714 0.34619486 0.09568504 0.056217745 -0.178529 0.3201797 0.050679147 -0.0048230425 0.05233673 -0.06662473 0.040725604 -0.34949985 -0.16752636 -0.12203524
3938 0.22672842 -0.03054898 -0.009018078 0.37654167 -0.059681293 0.082990356 0.05345661 0.19546191 0.2521031 0.09105195 -0.009182722 -0.0042592185 0.068710886 0.051633634 -0.23618113 0.0017385622 0.12549084 0.027880203 -0.0111654615 0.15807244 -0.019098165 0.16120753 0.035910543 0.34637123 -0.31208643 0.2179276 -0.06601703 0.3212301 0.10169609 0.14313543 -0.05710423 0.3213925 -0.15105502 0.108888336 -0.117075644 -0.16325934 0.08885497 0.0760961 -0.080376014 0.04201085 -0.05795534 0.093941525 0.0036662116 -0.13861188 0.034682084 -0.21807586 0.094853364 -0.12973222 -0.106375344 0.21090776 0.08071002 -0.057834867 -0.16035216 0.25523886 0.3250539 0.06991323 0.25418797 -0.06893194 -0.1304232 0.042043407 0.21739739 -0.35957155 0.025317675 0.37673876 0.47454497 -0.083432406 -0.03055585 -0.009685651 -0.13413459 -0.16674434 -0.076076716 0.2119871 -0.09079011 -0.027664669 0.18092906 0.032181755 0.30296636 0.016827993 -0.12232257 -0.04370775 0.13396983 -0.1332211 -0.03719189 0.03258645 0.53955233 0.18482159 0.28938377 0.037417304 -0.05194577 0.11927246 -0.22135216 -0.32139745 0.24650988 -0.112459205 0.03264171 0.13648835 -0.11475022 -0.20921795 0.004934718 -0.019783456 -0.096246526 0.018721249 -0.051118344 0.09662962 0.056404363 -0.21995664 -0.25684175 0.1700223 0.03468019 0.18024065 -0.14148434 -0.13678126 -0.30135843 0.437299 -0.20795932 0.23657379 0.027357616 -0.035601422 0.050530214 0.30860868 0.029117847 -0.1915763 -0.15113924 0.0022151684 -0.21126266 -0.0853728 -0.095724426 -0.13532998
3578 0.2540936 -0.06287247 0.16965602 0.31103072 -0.15960771 -0.06477011 0.041950617 0.18860234 0.29743743 0.14908919 -0.29437682 -0.07465742 0.054236654 -0.13693208 -0.07380674 0.20351166 0.33235973 0.40354365 0.08741232 0.33740756 0.075601995 0.33090645 0.08727768 0.38337195 -0.26786387 0.1666309 -0.13413621 0.49379513 0.026530806 -0.09553455 -0.25544757 0.39016408 -0.1544972 0.19475849 -0.00046222776 -0.13592124 -0.058230437 0.027378038 0.10976445 0.15994073 0.06974702 0.32588235 -0.11383047 -0.037878443 -0.17288907 -0.13059904 0.095824175 0.014325738 -0.23790206 0.123349555 0.14653324 -0.17821066 0.17563969 0.124244094 0.37479258 -0.030728228 0.260767 -0.070937075 -0.12233963 0.1474223 0.09077979 -0.3788171 0.026084017 -0.04618372 0.11605971 -0.10564796 -0.056151442 0.28657177 -0.08043798 -0.021998279 0.08692297 0.10044111 -0.21626379 0.07090685 -0.030980363 -0.12523055 0.05388205 0.048175227 -0.107092105 -0.15157522 0.13107857 -0.21040478 -0.14473367 0.15934612 0.35148105 0.07170954 0.3102408 -0.097960286 0.16831566 0.14620923 -0.063728854 0.03265964 0.07706851 -0.21887296 0.254544 0.10017771 -0.07970964 -0.2509892 0.08391194 0.03431635 0.061570358 -0.19895287 -0.007304377 0.0011330204 0.16625851 -0.09377129 -0.3234136 0.26417574 -0.007294176 0.17996806 0.11681148 -0.29579294 -0.06385023 0.32847586 -0.1569358 0.06278982 0.006485312 0.10378361 -0.09360905 0.13358237 0.03610774 -0.11587796 -0.27958775 0.052530635 -0.22823113 -0.12889381 0.046336614 -0.13148782
3730 0.062722966 -0.07699848 0.23722845 0.2727043 -0.06835693 -0.022845889 -0.24183197 0.44522357 0.1532694 0.2028679 -0.10051549 -0.097260855 -0.02223682 -0.18810454 -0.12817948 0.24400024 0.06398693 0.32284915 -0.059888266 0.32740414 0.037064854 0.31935984 0.061620757 0.15806417 -0.06254808 0.032760996 -0.13127537 0.1401438 -0.013286102 -0.22142212 -0.04941027 0.25031343 -0.323881 0.30677155 0.3083848 -0.23007843 0.09839896 0.037464753 -0.026909506 0.033087708 -0.18777722 -0.06583738 0.24414307 0.18097612 -0.25572866 -0.13460054 0.111972354 -0.06503176 -0.30933464 0.26284882 0.3424783 0.0036050465 0.0048028105 0.0040395195 0.33310434 0.024430254 0.14763632 -0.022397848 -0.00557022 -0.08679978 0.16085315 -0.12062265 -0.041436095 0.15014522 0.119676895 -0.045696173 -0.1519649 -0.031771284 -0.3547601 0.16943586 -0.30225974 0.1963278 -0.019938793 0.30243242 -0.31238082 -0.12933652 0.24026196 -0.041185822 -0.31022298 0.091885276 0.09978029 -0.13994184 -0.02130962 0.11255149 0.31498885 0.32254255 0.43471584 0.16037533 0.1797302 0.2605359 -0.32989934 -0.23610903 0.2752886 -0.101766996 0.19378035 0.03527983 0.1754926 -0.34299746 0.10465061 0.16184019 0.02124824 0.042811856 -0.118082576 0.02196618 0.20351031 -0.28576887 -0.30080774 0.19445707 0.027026081 -0.05944657 0.04411598 -0.0943809 -0.19666475 0.40644112 -0.1507553 0.47818702 0.33598742 0.047319915 -0.12629302 0.59767693 0.023838077 -0.15376543 -0.19094259 -0.08126741 -0.19225487 -0.26367685 -0.12438392 0.0013354776
3617 0.035475682 -0.32837054 0.10034196 0.13083091 -0.29010564 -0.36150542 -0.115299396 -0.044216063 0.06947622 0.11757978 0.14754193 0.093731016 -0.11297476 -0.02408954 0.17700917 0.069909155 -0.024056599 -0.15928307 -0.30614647 -0.19729401 -0.1593209 0.27507067 -0.23440799 -0.43606353 -0.004554346 0.09150942 -0.012027526 0.30815926 -0.12961693 0.075068146 0.08395946 0.15959245 0.12782244 0.15065624 0.0075269174 -0.19617167 -0.042008154 -0.22920635 -0.102139235 0.046311006 0.19056775 0.30461589 -0.12883657 -0.020769738 0.16596533 0.118243344 -0.15123746 0.05465057 -0.024240997 -0.00447241 0.42018524 -0.1096786 0.12995693 -0.13653968 0.12898618 0.35895315 0.10034268 -0.050056174 -0.05383899 0.0720208 -0.048209056 0.20932625 -0.18579681 -0.29258698 0.11129834 0.055768054 -0.26380137 -0.13234903 -0.17224939 -0.20382027 0.1156788 -0.07718371 -0.35943338 -0.14146668 0.2602068 -0.12152689 -0.09641147 0.14716843 -0.0268076 0.16908854 0.091872334 -0.058217663 -0.103113025 0.2653982 0.16736886 0.3311093 0.16559887 -0.13010721 -0.30524492 0.4977075 -0.18552092 -0.0006391462 0.09235162 -0.22189373 0.34684077 -0.11257994 0.07255668 -0.46630412 -0.18335624 -0.21208727 -0.35807094 0.06642645 -0.09676795 -0.09411354 -0.15182096 -0.022913313 0.025461946 0.088183336 0.17094816 -0.14216897 0.1893726 -0.21202274 0.0037020429 0.32876354 -0.12645642 0.28601134 -0.045080815 0.006423156 0.030766783 -0.3742375 -0.38053307 -0.095859885 -0.20035496 -0.18168882 -0.12103603 0.04153736 -0.09008308 0.08997556
3506 -0.38988307 -0.2568249 -0.005269416 -0.11314534 -0.0390451 -0.18334171 0.49564746 -0.16934152 0.049144763 0.1787484 0.33212674 -0.3098957 -0.28501981 0.09115092 0.010424709 0.22084598 0.008715015 0.15477934 0.04656233 -0.101251036 -0.01723673 0.25457132 -0.017863369 -0.12428662 -0.37136847 -0.0084638875 0.01994518 0.04543013 0.22332276 -0.05141357 0.36972123 0.008861508 0.30837858 -0.03570248 0.108343795 0.17027846 0.13456006 -0.060949568 0.033746827 0.09675395 -0.29249528 0.07984236 0.14491001 0.23852457 0.120320745 0.13852574 -0.3240997 0.08077194 0.014147199 -0.24849004 0.4178975 -0.010435245 -0.13153827 -0.096312374 0.1370084 0.24513647 0.5271346 -0.08506668 0.023454683 -0.089033715 -0.1634939 0.007813206 0.1469527 -0.18457974 0.38342953 -0.3082261 -0.0022449228 -0.24474253 -0.000568983 -0.1030868 0.23436949 -0.18323901 -0.33670744 0.06378004 0.213339 -0.015921269 -0.010845716 0.0888839 -0.25081494 -0.01953782 0.061753724 -0.24536957 0.07755237 -0.032386206 0.0301873 0.1412432 0.047880225 -0.23257616 0.26711464 0.35102132 -0.060321566 0.185744 0.20515034 0.22277184 0.44064632 0.14602835 0.16711932 -0.42579994 -0.032903858 -0.22660755 -0.18762869 0.046606105 -0.019514613 -0.16240998 -0.26429182 -0.14164646 0.068036474 -0.05562057 -0.04567464 -0.28416422 0.39069682 -0.13745332 -0.108130954 0.4487879 0.012498702 -0.08141874 -0.10304985 -0.20380211 0.31522906 -0.25514752 -0.25497708 -0.118874006 -0.17847598 0.033062477 -0.009352752 0.112886816 0.013446657 -0.10678792
3593 -0.5053961 -0.30296564 0.20869797 -0.18999751 -0.08495966 -0.2638326 0.1514653 -0.32267514 0.038171735 0.13330537 0.0055455207 0.031875227 -0.37192866 -0.011490997 0.14944643 0.17772122 0.0109085655 -0.037112 -0.13209845 0.015418925 0.10991256 0.1422017 -0.17852029 -0.23344332 -0.20401968 0.21314408 -0.12099314 0.0813064 0.12115155 -0.10907093 0.21691874 -0.13727333 0.02395938 0.025507389 0.0036503014 0.20870218 0.10695223 -0.22518305 -0.024655273 -0.06500923 -0.15460092 -0.07611746 0.10358333 0.26415348 0.14266758 0.0009894336 -0.16195202 -0.12070728 0.037321873 0.02125804 0.3279429 0.09984178 0.03262926 0.0330811 -0.03666475 0.1618273 0.17536147 -0.10529756 0.07999913 -0.21086583 -0.01062602 0.016618328 0.25073284 -0.05274176 0.17835306 -0.16035867 -0.2231932 -0.33192056 0.045164924 -0.23927829 0.2455338 -0.29149532 -0.3755545 0.045588963 0.21468061 -0.13371225 -0.076530695 -0.0014052098 -0.33450502 -0.2281434 0.07062527 -0.22820772 -0.13988292 0.05503908 0.14353071 0.39563507 -0.035380274 -0.3042385 0.17399721 0.20497322 0.018940931 0.2888712 0.15157335 0.09804455 0.6279044 -0.106259726 0.23645334 -0.3578678 0.1257868 -0.08488254 -0.3813383 -0.08311316 -0.07810259 0.00030440773 -0.062330775 0.012297188 -0.03712036 -0.035619177 -0.103978485 0.04029112 0.24382386 -0.15488109 -0.27514407 0.31184936 0.007214838 -0.013903248 -0.18596096 0.0011637644 0.27479792 0.048143554 -0.22889775 -0.27226388 -0.24534471 -0.22807786 -0.20212063 0.11399394 0.15411516 -0.07465886
3707 0.17749642 -0.22562774 -0.015700655 0.093248114 0.15480398 -0.07293692 -0.23804815 0.10671131 0.072338745 0.052212313 -0.1218948 0.060969986 0.07841599 -0.31388402 -0.14119504 0.07924356 0.22727504 0.3736595 0.23544112 0.21201126 0.17127182 0.22879146 -0.024253374 0.30298954 -0.22138675 -0.33768398 -0.1372486 0.2676905 0.014191129 -0.16902824 -0.13637204 0.35536602 -0.42943648 0.29124126 -0.03415042 -0.124072954 0.011459902 -0.1221969 0.3517097 -0.14295512 -0.0068909833 0.1884488 -0.11338497 0.02598644 -0.011446058 -0.16834557 0.070432216 -0.11372373 -0.33658308 -0.010145363 0.32396433 0.060648087 0.12940735 0.019406602 0.3916019 0.09204392 0.14679897 -0.14983052 -0.015739791 -0.083162285 0.2100537 -0.18026115 -0.034214564 -0.088405736 0.14018108 -0.04034117 -0.07850377 0.24121636 -0.42069778 0.049757335 -0.22416618 0.17418295 -0.18839905 0.07642153 -0.19492432 -0.08120968 0.20397532 -0.0009108419 -0.306977 -0.1240143 0.035111926 -0.24065533 0.03918593 -0.06063903 0.5050845 0.0623591 0.2854574 0.1720096 0.06545666 0.027669542 -0.30570614 -0.28685734 0.083952665 -0.25205547 0.24332313 0.16687043 -0.007281581 -0.14387564 -0.0041722422 -0.08549673 0.0019422449 0.25672072 -0.1488531 -0.1065706 0.039728623 -0.03417543 -0.19674632 0.17377053 0.13812384 -0.110271566 -0.20332292 -0.41467103 -0.033104636 0.701255 -0.15006857 0.3066862 0.17849064 0.09485875 -0.04966227 0.37615037 0.17556117 -0.31687912 -0.30604172 -0.14405955 -0.17235139 -0.27351278 -0.13737974 -0.30020103
3800 0.29813907 0.049184717 0.056126468 0.06749225 0.081876904 0.107524045 -0.3293715 0.12246994 0.32814872 0.17420545 0.0036978035 0.04779099 -0.02889858 -0.18054405 -0.20747253 0.0025798818 0.1231475 0.14298609 0.037741166 0.1372613 -0.15993047 0.3281056 0.056294173 0.21558504 -0.22097407 0.071628824 -0.2187706 0.11260465 0.09084099 0.040069334 0.0011881621 0.49255502 0.035229176 0.27116865 -0.09622882 -0.31043214 0.1585084 -0.09099919 0.23820604 -0.068196654 -0.2691982 -0.09305118 0.14511766 0.14744182 0.19705124 -0.27721918 0.25929692 0.0022810264 -0.065598406 0.02425057 0.13283855 -0.15549532 0.16832021 -0.06637172 0.21766752 0.15893884 0.21432261 -0.010885844 -0.059894796 -0.13137981 0.111339055 -0.22462007 -0.05546122 -0.06866961 0.25317702 -0.023220941 -0.0047686333 -0.07608713 -0.2229233 -0.0045235455 -0.017500835 0.21335544 -0.16300595 0.110214874 -0.026262593 0.021609418 0.12756126 -0.032976944 -0.2548581 -0.04646408 0.3801311 -0.26732033 0.12287166 -0.04260652 0.54062957 0.0021901093 0.25319445 0.14027596 0.14567283 0.012046531 -0.32468352 -0.32288203 0.092436515 -0.30404738 0.12689789 0.04341133 -0.12305623 -0.053369645 0.035186566 0.0019434188 0.09713663 -0.16436943 -0.061709072 0.01426133 0.051981553 -0.17068188 -0.13078605 0.26230854 0.008199796 0.03578222 0.04841218 -0.057866868 -0.15272589 0.50673693 0.037545886 0.24665393 0.22055364 0.03821667 -0.110613756 0.23392226 0.08588172 -0.24419394 -0.16080719 -0.13153414 -0.29467645 -0.24625604 -0.064669274 -0.119505845
3586 0.09540729 0.059944414 0.05508406 0.3254765 -0.15024877 0.00010525188 0.02639685 0.24886818 0.41715664 0.066951334 0.1007394 -0.040535625 0.04315001 -0.271199 0.07412899 -0.08743907 -0.21255974 0.44049335 0.14601816 0.1030445 -0.011396122 -0.07120312 0.30104858 0.23962453 -0.3862232 -0.01966614 -0.14301488 0.15905076 -0.103237905 0.10414083 -0.10347704 0.15911998 -0.0043221284 -0.1358737 0.011748039 -0.20441286 0.38459963 0.3359645 -0.103199676 -0.17603193 -0.14611894 -0.19000079 0.3612616 -0.09423125 0.3020686 -0.35184562 0.3894434 0.032840446 -0.43447226 0.08006707 0.043665364 -0.10396876 0.09899191 0.17581944 0.33251777 -0.083200514 0.24623899 0.0039403676 0.18801652 0.093275964 -0.09692741 -0.097915635 0.05045001 0.24852535 0.080165274 -0.020168519 -0.034792405 -0.011888828 -0.2957761 0.00695784 -0.14208022 0.011286762 -0.47965568 -0.0860932 0.2057827 0.1498533 0.23210192 0.004164666 -0.25381684 0.12083474 0.013558522 -0.23498149 -0.20571409 -0.04564578 0.5582652 -0.17317317 0.12793908 -0.2940244 -0.1605064 0.08481213 -0.11636063 -0.022569105 0.035724845 -0.12094757 0.15041755 -0.0697918 0.18330754 -0.15999334 -0.034429356 -0.07507806 -0.023873737 -0.18845657 0.03172703 -0.029540244 0.008263133 -0.11976286 0.11559582 -0.24113604 0.032859143 0.07495168 0.16274679 -0.2886776 -0.11698955 0.29246005 -0.0875254 0.23768117 -0.06474845 -0.053539693 0.08849295 0.138786 -0.06526011 -0.32930982 -0.2518658 -0.071023144 0.032303274 -0.023611924 -0.22874564 -0.24147731
3464 -0.28211653 -0.27539897 -0.11949681 -0.39953297 -0.29672062 -0.15161058 -0.1479109 -0.31365424 0.026479037 0.23364465 0.078963496 0.039305877 -0.06259054 -0.23947252 -0.08909007 0.1274865 -0.03023234 -0.014367142 -0.023990992 0.007818329 -0.43159378 0.5108782 -0.03989245 -0.18024804 -0.11426743 0.33061132 -0.02709957 0.072041996 0.060660284 -0.1258536 0.06276923 0.0021382694 0.18945102 0.2443698 0.07252069 -0.035074424 0.23886451 -0.2267308 -0.076952584 -0.30184188 -0.1203456 -0.37246752 0.0144021 0.15500051 0.115983136 0.32567966 0.032259572 -0.0067339647 -0.14223629 0.23160608 0.17127925 -0.3114541 0.13050345 -0.11116119 0.35422984 0.079709165 0.22260177 -0.19866197 0.20588863 0.289685 0.11542304 -0.020879613 -0.09112625 -0.29946706 0.2024555 -0.27502868 -0.0515244 -0.048257846 -0.058741186 -0.17169453 0.30999994 -0.0134526715 -0.029931283 0.12108871 0.026508408 -0.053084824 0.09605553 0.121407665 -0.29958832 -0.0669982 0.26459226 -0.0661446 -0.1809564 0.30635294 0.31576303 0.5009593 0.078537814 -0.017734412 -0.035633687 0.048330043 0.04574805 -0.119154856 0.4249847 0.03199896 0.4937373 0.14029324 0.17618749 -0.43996686 -0.105395585 -0.28145695 -0.17668293 -0.182882 -0.059671648 0.38750458 -0.072342426 0.117183134 -0.0113566285 0.37457034 0.047272876 -0.21615711 0.021386698 -0.3621831 0.007560878 0.39920732 -0.022242187 0.13055946 -0.05658209 0.10955404 0.027847849 -0.058852643 -0.49025908 0.14420748 -0.27833235 -0.050484132 -0.15813293 0.095945925 0.3048927 -0.09883563
3584 -0.030823182 -0.29375592 0.09035559 -0.17508438 0.10070282 -0.08298733 0.12327015 -0.18075056 0.31243968 0.5717314 0.23813613 -0.015922321 -0.11908979 -0.10120932 0.29188025 0.19408771 -0.1556061 0.1407727 -0.19292942 0.109120235 -0.14842632 0.1820414 -0.31986403 -0.041542143 -0.38149455 -0.27831382 0.08657337 -0.070457414 0.018626105 0.27909917 0.28017226 -0.14029661 0.1589304 -0.06279461 0.1613034 0.22270602 0.06755299 -0.18372093 -0.28446683 0.11270478 -0.31856987 -0.071156375 0.15426831 0.13613077 0.10124831 -0.11552477 -0.079574265 -0.07943761 0.19830132 -0.20101844 0.20918009 -0.119371004 -0.09167282 0.14863643 -0.052861735 0.027715892 0.27104828 -0.18344364 0.09591193 -0.12900142 -0.08255209 0.20222528 -0.16161108 -0.19054715 0.3546186 -0.16758052 -0.39049584 -0.1652227 -0.039954662 -0.01833057 0.17422289 -0.13590293 -0.26147437 -0.25566125 0.42898613 -0.03371119 0.1359525 0.14839923 -0.40615484 -0.0780022 0.114537746 -0.20784605 -0.02108112 -0.05635819 0.22018878 0.49061486 0.10913661 -0.60981095 0.2786548 0.10315839 0.02076513 0.007971904 0.12680465 0.107600994 0.24062741 -0.25561193 0.15127067 -0.27182338 0.0094851 -0.07457332 -0.28381708 -0.06843271 -0.43987775 -0.2982219 -0.38799068 -0.11955062 -0.05920847 0.21508154 -0.06899003 -0.17403127 0.04695447 -0.1880849 -0.13228738 0.33240208 -0.07745753 0.04073191 0.06851789 -0.10995166 0.20864277 -0.07960022 -0.15514964 0.20017569 -0.3159252 0.16557667 -0.35637972 -0.0474856 0.15704842 -0.031771906
3829 -0.20372261 -0.55066276 0.014003318 -0.34216443 -0.30246925 -0.0457712 -0.026886389 -0.3941254 -0.14595383 0.23443645 0.11135069 -0.27510032 -0.22486785 -0.14621311 0.1870093 0.21585712 -0.05916724 0.2748503 0.091736205 -0.25512522 -0.47409773 0.23689859 -0.08532649 -0.37508678 -0.31478596 0.45285848 -0.16486607 0.045881618 0.039893597 -0.1086115 0.05792175 -0.5706783 0.007262078 0.40776092 0.099775955 0.16284424 -0.05643698 0.1290158 -0.1844707 -0.17203192 -0.22137311 -0.17837346 0.06919305 0.3212832 0.2607298 0.39230528 -0.24121949 0.07355875 0.084406585 0.08861592 0.42562848 -0.32201117 0.3536966 0.16899869 0.19467023 0.19841951 0.4666026 -0.18978408 -0.035211414 0.1370847 -0.19727397 0.059245877 -0.029923096 -0.2501799 0.11158495 -0.28566733 -0.20900768 -0.028759032 -0.21762313 -0.07016574 0.32144776 -0.16936088 0.060118042 0.056454778 0.11668566 0.11620819 -0.15017435 0.14443159 -0.2412331 -0.24295874 -0.009545297 -0.32707918 -0.108681634 0.0927776 0.24294084 0.43377745 0.18597865 -0.060761657 -0.016267188 -0.17155635 -0.21497108 0.0141520165 0.18338051 0.020938724 0.4046408 0.24038154 0.11963454 -0.37957263 -0.4626454 -0.18418844 -0.429802 -0.2654752 0.10211221 0.38518986 0.067041606 -0.19841647 -0.019493235 0.17523333 0.12763478 -0.18876691 -0.095446095 -0.4484347 -0.017663384 0.47899672 0.2057934 0.09407844 0.06466629 -0.039536748 -0.2311465 -0.06562234 -0.49035302 0.023771353 -0.13780916 -0.21700178 -0.4081394 -0.049582537 -0.08837783 -0.16222115
3804 0.050601866 -0.0391946 0.21054398 0.19099547 -0.14130422 0.04222559 -0.07103148 0.3966247 0.24718608 0.22884047 -0.22952779 -0.14115518 -0.036530692 -0.03695853 -0.33373526 -0.052325875 0.24904425 0.29678917 0.024548268 0.10401955 0.18626334 0.12680951 -0.020446265 0.24653105 -0.32061446 -0.1576867 -0.089821614 0.26170135 0.109401956 0.001204316 -0.17386863 0.23567636 -0.10561343 0.08465709 0.09783901 -0.3104483 -0.07040587 -0.064290084 -0.005874929 0.104518645 -0.06783811 -0.027876932 -0.044690564 -0.027448736 -0.08158799 -0.25592178 0.022840502 -0.052230854 -0.1272154 0.33645636 0.055501185 -0.05765536 -0.13359393 0.09864938 0.3645217 0.17324263 0.19494487 -0.23428501 -0.054640625 0.019574221 0.07332083 -0.46842554 0.057609305 -0.054256953 0.1733803 -0.23202217 -0.11602082 0.08032525 -0.28013858 -0.078478985 -0.052009527 0.37813294 -0.123792194 0.035028275 -0.009222007 0.0047450126 0.08050442 0.15789385 -0.087726325 0.06341781 0.12225819 -0.16949266 -0.049414713 0.07004367 0.4412124 0.0468154 0.18716626 0.13557485 0.11295945 0.09967757 -0.092714965 -0.360236 0.22268316 -0.1875729 0.3302552 0.21960178 0.06731291 -0.098303065 0.17781582 -0.10500655 -0.19767179 0.040815447 0.013965699 -0.058655545 0.009149081 -0.17081697 -0.062234133 0.12297512 0.29071614 -0.0016454281 -0.04939173 -0.35605234 -0.007989221 0.4125462 0.035631523 0.3924735 0.14829165 0.19839594 -0.10404194 0.19535358 0.12867676 -0.20321241 -0.26831794 -0.08175532 -0.2547124 -0.4036042 -0.1362513 -0.05750161
3521 -0.06499901 0.1503379 -0.049966827 0.12706089 -0.010269038 0.2300915 -0.18706055 0.19172302 0.05790142 0.08944613 -0.18429637 0.0889254 -0.06844615 -0.2588574 0.25180602 0.4380641 0.08793858 0.09783816 -0.18928687 0.26901796 0.10740198 0.027121395 -0.038401596 0.19360584 -0.11237564 0.16156894 -0.12191807 0.106638566 0.24603662 -0.10353608 0.0654013 0.039954808 0.12851307 -0.17430726 0.09781374 0.29436296 0.26300097 0.095417574 0.06285748 0.16137713 -0.07657497 0.12246048 -0.398608 -0.10627722 0.5105166 -0.086708374 -0.09494689 0.035423 -0.20368409 0.11663132 0.19404854 -0.30387202 0.27093726 0.1841055 -0.0406923 0.08129747 0.19777514 -0.05487214 -0.3026809 -0.29139522 -0.4091622 0.29287955 0.08569716 0.40898487 0.1714322 -0.16687436 0.42702815 -0.27790305 -0.10464065 0.036241293 0.1205494 -0.3093739 -0.2106553 -0.2435384 -0.0802487 0.20586489 0.113466054 0.03187437 0.009391598 0.6474964 -0.33240926 -0.26828802 0.47825268 -0.042757098 0.10650468 -0.09921998 0.3042415 -0.14180416 0.15471956 0.08116262 0.0970081 -0.10486151 0.35779005 -0.25692752 0.018241562 0.3176241 -0.32637903 -0.1589696 0.31860927 -0.18903631 -0.1444454 0.2959213 0.054750357 0.19287318 0.36229977 -0.1157279 -0.06413427 -0.027854595 0.16834891 -0.010419517 0.11813182 -0.14302762 -0.27520365 0.09536892 -0.09589717 -0.24161753 0.23630877 -0.13300659 0.5606388 0.21135166 0.18719013 -0.37808296 0.35144725 -0.08101618 -0.29217583 -0.5490803 0.022216883 -0.009073411
3455 0.046478044 0.0508699 -0.15215802 0.27120617 0.01458603 -0.10118336 -0.29151452 0.0679801 -0.18247133 0.43866035 -0.29138985 0.04022394 -0.06100109 0.09632506 0.13249606 0.14942323 0.09533639 0.22049172 -0.0887292 -0.01772684 0.02661462 -0.12175853 0.11270045 -0.21345587 -0.031957977 0.29265565 -0.09943711 0.006605844 0.16606861 -0.40636405 -0.07157923 0.034368932 0.15727094 0.18188 -0.027664993 0.333202 0.31467798 -0.1563172 -0.20098466 0.21332571 -0.180787 0.24244384 -0.24233727 -0.026090205 0.49620137 -0.12835827 -0.13974847 0.20326744 -0.1110447 0.27235627 0.31327677 0.098834015 0.20162238 0.08351204 -0.08237666 0.08898291 0.3275979 -0.27165362 0.16276923 -0.27235758 -0.48076385 0.20021272 -0.00131426 0.47822845 0.32015514 -0.015840083 0.52303416 0.21715342 -0.34543973 -0.18854295 0.027894784 -0.26258534 -0.2789445 -0.015226284 0.016549088 0.25531426 0.16845314 0.26050428 -0.05632005 0.49217424 -0.0908077 -0.2907854 0.2664081 0.022499286 0.019995408 -0.1097243 0.3072801 -0.18967576 0.3362814 0.13141623 0.10167291 -0.069209665 0.21005656 -0.0198169 0.25578347 0.5808585 -0.26251712 0.20665906 0.5149317 -0.11038465 0.110667825 0.20974733 0.104645856 -0.12850133 0.097491406 -0.076536655 0.41850686 -0.0010292782 -0.23671307 -0.04732189 -0.096903525 -0.17508952 -0.22646482 0.1598729 -0.2636706 -0.17803645 0.081148215 -0.14007579 0.48480487 0.40421033 -0.043279693 -0.30725023 0.38456988 0.0018994319 -0.61726207 -0.52655566 0.09893582 -0.003277589
3834 0.1295149 -0.26006922 0.04251148 -0.12529017 -0.0548295 0.13316874 -0.029611325 -0.12138022 -0.03228942 0.2751125 0.20938817 -0.14193079 -0.33546263 0.11080901 0.5020406 0.12930425 -0.09617001 -0.06377132 -0.16767687 -0.11920107 -0.34470072 0.40150666 -0.43394428 -0.47064856 -0.09021622 0.04217773 -0.06357404 0.2533887 0.14200117 -0.14955999 0.01750796 -0.025525393 -0.12581512 0.02053861 -0.16790007 0.023929112 0.28872082 -0.27591693 0.27212125 -0.082288176 0.02354506 0.18162113 0.07757646 -0.10013485 0.30371082 0.12474037 0.16849056 0.19920865 0.10816375 0.32106745 0.26144004 0.26975212 -0.048682738 -0.11916204 0.3303308 0.13159999 0.06769322 -0.15927449 0.08897909 0.118771434 -0.10826334 0.21819402 -0.041417327 -0.38647914 0.32588816 -0.04712872 -0.10176188 -0.21701932 0.3901591 -0.10220086 0.13905084 -0.05223223 -0.6364107 -0.18272257 0.38404298 -0.06897705 -0.12914167 -0.14571156 0.084798485 0.12268396 -0.22025618 0.042530548 -0.13465613 0.2594534 0.07259984 0.5152592 -0.049970135 -0.1974316 -0.19743018 0.24417664 -0.06597649 -0.07621164 0.1536825 0.16577232 0.18961665 0.13290013 0.115174055 -0.33455616 -0.20586719 -0.26052803 -0.33664042 -0.16467336 -0.2604161 -0.093454 0.09804971 -0.08005002 -0.0029852914 -0.09244356 0.1591352 -0.289026 0.11801263 -0.4513389 0.3045916 0.019961327 -0.06759229 0.3528384 0.15996952 0.055142764 0.15434037 0.018686675 -0.16137116 -0.04916136 -0.18242018 -0.07594747 -0.2516772 -0.20742363 -0.12301693 0.19435336
3462 0.19816774 -0.111839555 0.013213418 0.16979033 -0.09898553 0.243888 0.035891257 -0.09877616 0.045208856 -0.21487248 -0.13931075 0.16921683 -0.0031050306 0.06318957 0.1473653 0.1828339 0.29500747 0.28396907 -0.21527097 0.26794702 0.0045486167 0.11483867 0.150344 0.42794663 -0.062648274 0.11219208 -0.17544699 0.41641113 0.0002530113 0.028513143 -0.16944675 0.35686293 -0.01867692 0.11224955 -0.10788117 0.003579669 0.30106413 -0.2183072 0.3402834 0.02485497 -0.03180607 0.08266683 0.2506448 0.024242649 0.35150915 -0.37447342 0.19242045 0.09456121 0.038056865 0.19334304 0.010575848 -0.14285019 -0.045463312 0.0033525687 0.537279 0.016796414 0.21835347 -0.23768538 0.012718661 -0.34929752 0.14778157 -0.28264782 -0.015706416 0.19321759 0.13189407 0.26533478 0.0126671735 -0.14899291 -0.23087215 0.0010420785 -0.0025446778 0.07194177 -0.41763088 0.20961109 -0.062128242 -0.16259181 0.24760908 -0.11223665 -0.020306049 -0.016550398 0.13101256 -0.13907214 0.043931644 -0.01302608 0.49253276 -0.08858485 0.122741826 0.047970846 0.16616064 0.14678448 -0.26969776 -0.31752178 0.21751025 -0.21115571 0.2625657 0.4160465 -0.019919015 -0.28072974 -0.09698094 0.45002973 0.24472347 -0.17069085 -0.1806155 -0.17175858 -0.20928793 0.060670298 -0.2741553 0.4280179 -0.055785056 0.0028980116 -0.043803778 -0.23881195 -0.022493964 0.67117655 0.07365269 0.3091478 0.10324433 0.13472974 -0.30277836 0.1683553 0.03121907 -0.22081923 -0.13972709 -0.15897796 0.09256123 -0.26282477 -0.31426632 -0.2216135
3568 -0.21975443 -0.11068448 0.25227273 -0.2473217 0.039093647 0.046693634 -0.15632568 -0.23731895 0.0045439084 -0.041854918 0.2945616 -0.10173466 -0.38002864 -0.0077233757 0.4124471 0.32496363 -0.21912938 -0.18523334 -0.15663148 -0.1653449 -0.2925225 0.11255972 0.047591772 -0.09683232 -0.25493786 0.22403969 -0.097300306 0.46157303 0.17977186 -0.032201976 0.1098593 -0.05057435 0.13474573 0.084055774 -0.080945 0.043968696 0.046698082 -0.48380855 0.025499655 -0.16779889 0.0065838126 0.47299471 0.027388047 -0.10022183 0.18984425 0.24691965 0.20199704 0.108215526 -0.10534991 0.021683544 0.3500994 -0.23446992 0.05349369 0.17866139 0.070431806 0.27292496 0.1156579 -0.21234976 -0.053660147 -0.18236665 -0.14596243 0.051000066 0.10980549 -0.32229874 -0.01409883 -0.17321175 -0.14767006 -0.09753625 0.33794814 0.064003274 -0.073507756 0.01210821 -0.46078473 -0.23459785 0.3348804 -0.042654317 0.021792531 0.082545005 -0.09900382 -0.04317778 -0.0819387 -0.180588 -0.0140415 0.105876066 -0.15665081 0.4523339 -0.050255876 -0.24208876 -0.020246075 0.24801607 -0.30653164 -0.17384149 0.177848 0.35834476 0.29014108 0.19365568 -0.022281371 -0.095550254 0.10291873 -0.48030955 -0.49076504 -0.20214207 -0.28416085 -0.022232013 0.036325574 -0.0027619388 0.07745403 0.16530514 0.106380984 -0.043637626 -0.053177416 -0.25728673 -0.1585148 0.41478488 -0.18757485 0.023276672 0.13661437 -0.14557032 0.00980976 0.0048778043 -0.1547681 0.055719785 -0.3580125 -0.062024057 -0.16072904 0.13835517 0.10436057 0.14726384
3628 0.4347033 0.2181486 -0.1412172 0.40377066 -0.025218382 -0.20954326 0.2267479 -0.04139478 0.43545085 -0.043689776 0.0053467364 -0.3716337 0.31327415 -0.2613914 0.20480344 0.12164206 -0.16918299 0.06290633 0.14205486 0.016135251 0.38839898 0.02990831 -0.24937919 0.009560324 -0.21589792 -0.1274323 -0.053270172 -0.16539799 -0.17068163 -0.2610393 -0.38980687 0.121557 -0.10549844 0.19325098 -0.6614774 0.29754388 0.09994793 0.01987064 -0.1575017 0.08981194 -0.33080918 0.19021101 0.15852772 -0.41417143 0.32048965 -0.30704656 0.6039605 -0.42745677 -0.43337572 0.08240431 0.11139628 0.085501455 0.1675335 0.13795565 0.020276122 0.016868087 0.18191014 -0.009307522 -0.27895945 0.42437834 0.18384022 0.09386524 0.32162035 -0.024018485 0.040338185 0.0137932645 0.15364163 -0.29205114 -0.20932892 -0.10717027 0.12809491 0.08774434 -0.36882815 0.1852963 0.012470625 -0.19254656 0.34913683 0.11684584 -0.087775126 0.2716162 0.15300986 -0.10279063 -0.014942602 -0.12012939 0.18562728 0.0052172155 0.08470583 0.12409439 0.36917758 -0.22250631 -0.39049852 -0.33776793 0.07560534 -0.15050988 0.034873396 0.10920885 0.06927494 -0.341632 0.1677991 0.1189699 -0.22544739 -0.30425382 0.086185426 0.17929421 -0.43269485 0.057049505 0.21136063 -0.03796885 0.00038157258 -0.11877529 0.09869774 -0.29531527 0.062055685 0.3267524 -0.1810215 0.5596122 -0.09831022 -0.2492334 -0.14421573 0.5736188 -0.2632877 -0.36964536 -0.32812437 -0.14376248 0.23392917 -0.5485035 0.22408412 -0.10660647
3471 0.11151674 -0.029283674 0.095384 0.2586771 -0.17127688 0.34220394 -0.08869263 0.62793136 0.4283767 -0.12481667 -0.4059574 0.087488264 -0.03023524 -0.022934057 -0.031192852 -0.16414392 -0.113140106 0.07398385 0.0032816874 -0.01090518 0.28872365 -0.013467373 -0.19910115 0.23182732 -0.2820422 0.26827925 0.06967777 0.1563042 0.32837582 -0.037588954 -0.1006337 0.16071063 -0.018737132 0.22645368 -0.04718296 -0.117700644 -0.049415547 -0.28482443 0.121822774 0.2080121 0.075837806 -0.060264695 0.12757005 -0.051803157 0.16472626 -0.051010784 0.32572407 0.21076834 -0.16806617 0.25419822 0.19359137 -0.32421425 -0.11130002 0.27070197 0.32556468 -0.22810128 0.24043892 -0.1751651 -0.21574986 -0.16520399 0.05540155 0.21568 0.29438236 0.10217774 0.41999868 -0.14474875 0.13184194 0.2924335 -0.14805599 -0.25170514 0.04188573 0.18332633 -0.3292141 0.12630795 -0.11320148 0.087763414 0.29822737 -0.046943706 -0.23000745 0.3799747 0.032272927 -0.17422962 0.086716756 -0.08630718 0.35785142 -0.039277688 0.16322292 -0.23246396 0.08750353 0.24597096 -0.34704897 -0.13760419 -0.0128437895 0.08383973 0.09934295 0.10395839 -0.04032622 -0.090746894 0.1837497 0.087570965 0.14282398 -0.0841178 -0.12084061 -0.014046758 -0.19095312 -0.14969967 -0.12295551 0.07337721 0.01947486 0.009331642 -0.44205087 -0.3552414 -0.3804604 0.51601416 -0.13909365 0.1884597 0.16104317 -0.044544965 -0.27383995 0.3153186 0.078030095 -0.27323133 -0.040357716 -0.048943497 -0.12006822 -0.06196264 -0.12300443 -0.090545475
3577 0.10830659 0.059793558 -0.10093232 0.29314956 -0.010907173 0.16144206 -0.077710286 0.2669139 0.2931258 0.17601332 0.115540795 0.06633627 -0.031488728 -0.04868286 -0.078032166 -0.13916805 0.074937254 0.009088808 0.119506784 0.21723308 0.006603881 0.17182066 -0.042589914 0.0032437406 -0.33847266 0.26323676 0.22065751 0.18976653 0.054022837 -0.013832791 -0.024185652 0.43260035 -0.13757606 0.26107338 0.0447854 -0.25673187 0.25107956 0.06970991 0.144245 0.13298398 -0.084861174 0.13406536 0.17333204 -0.084048584 0.30201414 -0.35610867 0.12252152 -0.043774992 -0.2357573 -0.05136812 0.07904562 -0.16544506 0.011192769 0.2512249 0.082528986 -0.014946476 0.20568264 -0.067593195 0.11450318 0.0062599597 -0.025105081 -0.040772587 0.04521798 0.02672936 0.2800828 -0.19059166 0.0026608983 -0.07857213 -0.04224181 -0.16636536 -0.22052953 0.23135832 -0.39059216 -0.030584991 0.093236595 0.0075729857 0.25795794 -0.03872529 -0.06912527 0.15959312 0.14494814 -0.14286831 -0.2219531 -0.097727746 0.46781817 -0.061952226 0.18616764 -0.08618501 0.11997394 0.09268107 -0.059828438 -0.12403666 0.14180386 -0.26027742 0.14322455 0.15593356 -0.23784302 -0.20388886 0.053549267 0.11231715 0.20315123 -0.24399544 -0.07033054 0.09732899 0.1041693 -0.22676344 -0.26098514 0.15225147 -0.015116228 0.13292159 -0.031261005 -0.2012883 -0.07167667 0.37531924 -0.12227368 0.08500227 -0.053945996 0.21859732 -0.045103915 0.17895885 0.15179229 -0.15875284 -0.16948517 -0.036482077 -0.1982281 -0.25134942 -0.032233335 -0.34298068
3847 0.059428595 -0.017995333 0.0020254157 0.39025572 0.14092737 0.1806491 -0.25376344 0.22430559 0.2525508 -0.17993794 0.15242776 -0.24095345 0.23700143 -0.40591395 0.18856145 -0.040076293 0.09353598 0.06794754 0.28835326 0.17479649 0.04680638 -0.14613307 0.07300936 0.21143866 -0.6196051 0.28803036 0.15931925 0.051753867 0.20083 -0.10805851 0.12276732 0.23271918 -0.1617582 0.17478687 -0.17494226 0.07287641 0.38298628 0.11060303 -0.031797905 -0.3477536 -0.40478167 0.3419426 0.31634215 -0.13909133 0.36859307 -0.119224966 -0.08149532 -0.4667781 -0.14968562 0.3670187 0.06198683 0.11279473 0.06609785 0.2890182 0.028656092 0.031344183 0.42970285 -0.15051314 -0.22147007 0.12930913 0.088693544 0.033858005 0.23954314 0.14361821 0.27953875 0.32936773 0.24054237 -0.05544657 -0.008174139 -0.16355924 -0.023849841 -0.050440166 -0.4557166 -0.19441026 -0.17532003 -0.16189465 -0.08709616 0.3192307 0.11138907 -0.18186511 0.30602574 0.14416513 0.3528199 0.22116645 0.20502643 0.039570868 0.41288728 -0.17362984 -0.061381258 0.07485614 -0.0006001293 -0.21046889 -0.0612308 -0.23407179 0.18727659 0.12584701 -0.22862138 -0.44296235 -0.11399203 0.31150565 0.13687003 0.1342136 -0.21431671 0.1629114 0.3129486 -0.022278165 -0.18576828 0.109044746 0.2692515 0.16997194 -0.057202857 -0.29372364 0.24950266 -0.084721304 -0.24655294 0.33374614 0.24618249 -0.029542735 -0.06366602 0.07951985 -0.21533275 -0.058097582 0.13327804 -0.098319426 -0.22155054 0.10263816 -0.22922419 0.27034077
3442 -0.08066346 0.1442664 -0.04917047 0.21326344 -0.062056873 -0.13751487 -0.1598319 0.29482403 -0.089991696 0.49232817 -0.28523135 0.03913794 -0.009573162 0.02496808 0.17141482 0.26318058 0.12946661 0.24969794 -0.18473475 0.50610876 -0.36948583 -0.22833182 0.19799033 -0.20661306 -0.23661774 0.08598231 -0.19782284 -0.18860193 0.25941575 -0.31629035 0.05369815 0.09356948 0.29710194 0.029379413 -0.1303706 0.3742764 0.18420848 -0.003906592 0.0053212554 0.21824639 0.06832778 0.36463183 -0.49790037 0.025997017 0.41371083 -0.045317777 -0.20906553 -0.058822412 -0.38230947 0.16592495 0.3447374 -0.36253303 0.33753645 0.3848774 0.08390796 0.06439933 0.2761976 -0.23719312 -0.096068315 -0.2704771 -0.4588027 0.4529259 0.08479647 0.19701423 0.110908225 -0.14442427 0.5089397 0.013960279 -0.30324644 -0.22031212 -0.0018838249 -0.35848814 -0.08373637 -0.21331283 0.13638586 -0.016321957 -0.084471 0.30694064 -0.051959068 0.6650188 -0.24992459 -0.27562767 0.246926 0.21555297 -0.048567206 -0.2526564 0.360991 -0.18675072 0.1566437 0.18173866 0.07508746 0.07429052 0.32752132 0.034166496 0.07252288 0.43313524 -0.25818688 0.10877941 0.45402676 0.02949709 -0.34348 0.46931857 -0.06733121 0.067615554 0.040575426 -0.014651568 0.11558333 0.24399266 -0.2997161 -0.037999723 -0.07848852 -0.2881978 -0.0958632 0.04006427 -0.32360166 -0.18164028 0.24471143 -0.027985303 0.31041563 0.38929912 -0.23251142 -0.315861 0.15214252 -0.023704851 -0.35041898 -0.35329783 0.14245597 -0.03671456
3501 0.2987808 0.03898566 0.085521385 0.4393888 -0.010434022 0.090228155 -0.064730704 0.24484603 0.18292159 -0.13189839 0.035420105 -0.057951443 0.07932162 -0.18147947 -0.055798616 -0.016153086 -0.077337824 0.27159086 0.19700891 0.23734036 0.16509438 0.21734515 -0.025473429 0.14609586 -0.29887128 0.16147164 0.058785204 0.03838386 0.29357716 0.0762806 -0.13360229 0.5396015 -0.10945523 -0.03965155 -0.18026704 -0.031230189 0.34793523 0.1032143 -0.012133165 -0.15690555 0.012258683 -0.11546123 0.35344225 -0.13934302 -0.002038554 -0.33419457 0.014145997 -0.019150896 -0.21333796 0.028065989 -0.07969068 -0.023658145 0.0861703 0.24803782 0.1279426 -0.07210973 0.13306811 -0.048627526 -0.08538818 -0.080684364 -0.24954389 0.21780989 0.03777063 0.18260658 0.38004792 -0.19325505 -0.057768043 0.11058243 -0.25722367 -0.009697554 0.021663222 0.077402495 -0.37471822 0.16779548 0.25669962 -0.16367814 0.25544995 0.15386093 -0.05065736 0.06962207 0.1338677 -0.07654447 -0.017981466 0.048989084 0.387881 -0.08878721 0.17719787 -0.19969088 0.23810126 0.19085789 -0.37362045 -0.18377219 0.38561407 -0.059853926 -0.037504934 0.0606803 -0.13015656 -0.06516922 0.0022057171 -0.015254376 -0.1940643 -0.13177416 -0.011459094 0.013576906 0.091757104 0.0084767705 -0.08613146 0.1858887 0.23441292 0.07149554 0.0140397055 -0.093463846 -0.07334667 0.33696154 -0.045698352 0.43418685 -0.063646875 0.011656395 -0.10550256 0.1953963 0.18700816 -0.06489787 -0.19832459 -0.06404573 -0.13059649 -0.12312876 0.007877445 -0.11662492
3705 0.14346582 -0.16378072 0.05220467 0.12348416 0.03158482 -0.115913756 -0.15801933 -0.15723903 -0.19523464 0.32179114 0.0010897298 0.1959884 -0.07173905 -0.016297081 0.34937307 0.19093528 0.2696339 0.170311 -0.40408698 0.20120262 -0.20607872 -0.061289273 0.12656328 -0.21041328 0.027544983 -0.13004099 -0.40704992 -0.018692601 0.3269671 -0.4918845 0.19291984 -0.2082052 0.22772084 0.2534457 0.14135543 0.20586558 0.21709199 0.042128135 0.13880076 0.18370311 -0.1785293 0.022607014 -0.3384797 0.15955077 0.19329661 0.13530354 -0.23931748 -0.10861695 0.06990317 -0.056222677 0.34729612 -0.10087723 0.12354136 -0.05188915 -0.32513592 -0.05032757 0.17550428 -0.22463858 -0.033340257 0.07939155 -0.2264675 0.09675844 0.4406872 0.30892843 0.17914915 -0.28602138 0.15191266 0.14655457 -0.032781836 -0.18498929 0.26010865 -0.11189814 -0.23769955 -0.21748808 0.17882657 0.028755685 0.118438825 -0.13968715 -0.030991888 0.38190433 -0.058740485 -0.2986693 0.31877604 -0.0041409563 0.1300486 0.06719062 -0.25975844 -0.4122312 0.3284828 0.008966593 -0.09466767 0.37460583 0.26574445 0.48474756 0.3476275 0.022039518 -0.30598333 0.03148532 0.23213212 -0.12567993 -0.29043967 0.32777575 -0.21360804 0.0035848469 -0.34429705 0.1254656 0.24796274 0.20107569 -0.3264608 -0.2401521 0.2280527 -0.36954236 -0.10314001 0.22937083 0.102300726 -0.29184228 0.15689133 -0.012729451 0.34881657 -0.03023953 -0.056152392 -0.34139526 0.131237 -0.26855087 -0.09469636 -0.32439634 0.045456048 0.18601078
3529 -0.34475282 -0.44330725 -0.11556267 -0.29454383 -0.28233838 -0.22345895 0.22260743 -0.6640301 -0.113152616 0.23360527 -0.05894118 -0.24683455 -0.22839628 -0.28036946 0.2592429 0.1340637 -0.1574396 -0.07608196 -0.04294879 -0.10132073 -0.48488778 0.23145297 -0.37764627 -0.12523766 -0.22661757 0.6059702 -0.011950361 0.15730257 -0.068723716 -0.029026447 0.040300027 -0.2436556 0.2554383 0.23210514 0.10521165 0.23017177 0.25801 0.00048932916 -0.09751808 -0.1352858 0.055067047 -0.13976762 0.09912546 -0.10530503 0.20354469 0.26394197 -0.12665956 -0.078880265 0.059649657 -0.05093455 0.29150605 -0.4280539 0.12920284 0.14143007 0.10097869 0.07802709 0.21356982 -0.3364956 -0.100621924 0.1824529 -0.24167264 -0.06330395 -0.11818973 -0.19876504 0.3113139 -0.117961176 -0.33097225 -0.24565347 -0.14014982 -0.23897628 0.15378112 -0.12730567 -0.23033248 0.13397993 0.10629873 0.13370815 -0.09460851 0.18575901 -0.45707312 -0.18157044 0.11181042 -0.22808962 -0.18020631 0.096968226 0.031033587 0.38049254 -0.10623148 0.1283216 -0.0114373015 -0.13876113 -0.17426537 -0.033521585 0.60081214 0.3041061 0.40428033 0.2803702 0.17331323 -0.23021245 0.041233677 -0.22895332 -0.33434525 0.007818532 -0.07363757 0.18430911 0.0152648045 -0.04255691 -0.056046534 0.35433596 -0.047409274 -0.00573023 -0.0052155997 -0.48455223 0.23822744 0.3909741 0.060492635 0.26525277 -0.13098104 0.15553321 -0.31811744 0.103678636 -0.20663917 -0.12772125 -0.17478783 -0.1565207 -0.03874841 0.010283537 -0.12351371 0.18669768
3546 0.30915365 0.14904915 0.063823126 -0.31038263 0.25791568 -0.042315736 0.021798326 -0.21842057 0.5013811 -0.06974311 0.5055494 -0.39064887 -0.26681912 -0.11714902 -0.071529 0.5237854 -0.10669551 0.069430836 0.057786293 0.31477803 0.30807924 -0.057167664 -0.3290908 -0.660477 -0.62977934 0.21894309 -0.2116797 -0.09992427 0.11308289 -0.42083168 0.100508735 0.068258904 0.27707765 -0.08429106 0.23051277 0.24207306 -0.09092236 -0.049266703 -0.011350459 -0.13003984 -0.37748006 0.5874189 0.008781327 -0.43173116 0.49416342 0.34843802 0.10906041 -0.32970637 -0.6839927 0.43375918 0.5362124 0.31848377 -0.13890254 0.1543351 -0.22521849 0.2270597 0.5547141 -0.6324787 -0.2951933 0.15167773 -0.64193666 0.04922229 -0.57826805 0.5245179 -0.1816884 0.12554693 0.14479627 -0.08664636 -0.40710095 -0.5493375 -0.0451519 -0.35301322 -0.6824901 0.30687818 0.09887445 -0.29536417 0.10314032 -0.17596932 0.09772338 -0.25131705 0.15805385 -0.27507493 -0.016427236 0.33763486 0.21406138 0.6146346 0.013314017 0.024420945 0.37789533 0.2255814 -0.035196397 -0.27256086 0.2763806 -0.11731963 0.29064015 0.41606787 0.40134975 -0.58006537 0.019352617 -0.14061965 -0.25363144 -0.08452959 0.09874465 0.25080916 -0.29939944 0.0026384061 -0.09160399 -0.07913533 -0.8767692 -0.36850685 0.2614736 -0.32441902 0.19663271 -0.42577547 -0.06435186 0.4550167 0.5303268 -0.23838872 -0.33180064 0.298784 0.26719883 -0.34337702 0.25039285 -0.25626603 -0.30557722 0.0061158934 0.060445253 -0.09720869
3918 0.20318645 0.053069353 0.3053479 -0.017653357 0.08953778 -0.100319676 -0.008595976 0.47759494 -0.10346981 0.1847316 0.16877495 -0.17747188 -0.2757962 0.089176446 -0.01676239 -0.10821717 0.5196029 0.33387893 -0.30262125 0.3831217 0.11797178 0.19707468 -0.38562995 -0.12934211 -0.092805564 0.11285044 -0.6653849 0.09491234 -0.051368892 -0.275428 -0.15168568 0.0791725 0.043700863 -0.07930142 -0.21207836 -0.21612495 0.6485889 -0.3720157 -0.5183966 0.043556467 0.23232105 0.092098124 -0.061868187 -0.3508977 0.22732589 -0.22125456 0.022453586 -0.21355978 -0.13831384 0.0021674323 0.20227775 -0.06628763 0.14293158 -0.1397827 -0.36809745 -0.17469485 0.60524464 0.37318558 -0.33577004 -0.05617179 -0.2233041 0.2986985 -0.1265853 0.24226394 -0.40222216 0.09851451 0.07955412 0.043095037 -0.13652699 -0.2812142 0.10840731 0.21182886 -0.15439506 0.3243338 0.45253912 0.3973885 0.049135555 -0.42109755 -0.11458466 0.028141674 -0.0706561 -0.37949732 0.18830384 -0.5349381 0.49393895 0.39490336 0.126213 -0.33499327 0.1485946 -0.017625103 -0.1258495 -0.31690466 0.32968977 -0.022312565 -0.14269656 0.3532542 -0.048708517 0.042981025 0.03532877 0.23740138 -0.069027156 0.24957661 0.10245662 0.2070476 -0.002097102 -0.13581362 0.3750468 0.11381476 0.008605529 -0.19728892 0.10784389 -0.043068416 -0.023029666 0.14005801 -0.22488059 0.03869764 0.2873392 0.65136045 0.36705026 0.0012172107 0.055269048 -0.27905074 -0.34214824 0.058424436 -0.09769469 0.0980393 -0.1579254 0.09975835
3762 0.15176749 -0.1508521 -0.1678895 0.21394423 -0.26816392 0.11933319 0.030173272 0.024901135 0.19328634 -0.16987856 0.05090606 0.05517489 0.0931887 -0.071191676 -0.291973 0.362623 -0.08217409 0.30751842 -0.36510098 0.05693972 0.102813974 0.027277784 0.038400963 0.27740198 -0.052429166 -0.025100295 -0.17594372 0.40122846 -0.13149187 0.16284718 -0.03251585 0.55072546 -0.009252788 0.16136447 -0.09831747 -0.12666434 0.24088478 0.07333175 -0.17890918 0.22825089 -0.30927348 0.078020826 0.02732697 0.14126898 0.114939295 -0.2605183 0.29911172 0.030537875 -0.005952564 0.34834203 0.078493945 -0.08551287 0.21744828 0.1213506 0.36022973 0.10797594 0.3884724 -0.031532027 -0.31162566 -0.39189193 0.14406961 -0.24686274 0.10643872 0.2184782 0.009714951 -0.14738782 -0.034164164 0.19160548 -0.097544916 0.07118697 -0.19506682 0.30659473 -0.24711853 0.31917816 0.17777964 -0.0750224 0.015179051 0.17472206 -0.2197428 -0.13801971 0.21070635 -0.22566038 0.19441976 -0.023471579 0.40033048 0.10164836 0.06714888 -0.06729115 0.15817635 0.55870485 0.029704481 -0.29502353 0.20619383 -0.18116252 0.21897183 0.08924491 -0.36569977 0.09525648 0.07608798 0.43509653 0.029108401 -0.27271038 -0.18260852 -0.121260025 -0.12895653 0.08195362 -0.40300217 0.4501465 -0.07897829 0.004233413 -0.04634226 -0.17369302 -0.04736896 0.4939725 0.27051145 0.34946424 0.09591779 0.22242342 -0.16228548 0.3442366 4.6341644e-05 -0.27259785 -0.042092174 -0.24637671 -0.01968863 -0.33375445 -0.30458203 -0.12176413
3722 0.39330927 -0.013226821 0.19242418 0.35108972 0.23877749 0.04014442 -0.16999371 0.4647327 -0.078152865 0.66030806 -0.53661627 -0.04632319 -0.12922078 -0.010231039 -0.047999855 0.059260894 -0.090432964 0.3472086 -0.2561883 0.40394485 -0.10164673 -0.03624883 0.06703987 -0.07314848 0.01157931 0.19695002 -0.13652924 0.20901878 0.12970802 -0.3152742 -0.011904439 -0.005473634 0.47927594 0.18444404 0.18122597 -0.011564155 0.1558425 -0.24423455 0.0057410276 0.28018394 0.15423171 0.09358932 -0.24593915 -0.113488786 0.111795045 -0.15184575 -0.19663695 0.19623825 -0.09748746 0.17263363 -0.00050740025 0.0032906788 0.35571653 0.0018485634 0.0374717 0.08447366 0.26625758 -0.14002228 -0.13425682 -0.4122307 -0.37067765 0.17557038 0.3033738 0.4359692 0.015489125 0.033333145 0.3156448 -0.011335957 -0.3095301 -0.47531345 0.12020502 -0.081385106 0.07739757 -0.023193175 0.07965857 0.021600308 0.035305437 0.26977018 -0.047527913 0.521574 -0.20182501 -0.17091085 0.12601264 -0.026230318 0.1910228 -0.03965921 0.18992303 -0.14755312 0.50077575 -0.008686156 0.17420857 -0.0036826394 0.12186758 0.09802779 0.20066868 0.49795744 -0.2323771 -0.11995612 0.25315326 0.03431625 -0.117533885 0.36510342 0.05651661 -0.06932803 0.2435523 -0.024267713 0.16458169 -0.011348263 -0.23386702 -0.2301624 0.018676799 -0.31176892 0.047928866 0.25015834 -0.20460741 -0.10915658 0.12594627 0.10459621 0.5162461 0.5659546 0.16124955 -0.24657966 0.19370303 0.021031385 -0.27356073 -0.18173118 -0.104005314 -0.06857498
3900 -0.2507218 -0.2769246 0.30475193 -0.27613914 0.052958 0.007336829 0.30780324 -0.3360475 0.078082025 0.2465862 0.105461895 -0.1740638 -0.042266954 -0.055614002 0.22444186 0.30046672 -0.0034806496 0.15988299 -0.09028143 -0.04713856 -0.038644694 0.10614935 -0.120161556 -0.12670733 -0.34119695 0.11719358 -0.098587975 0.06248573 0.028277744 -0.054550584 0.12455421 -0.09979283 0.3309883 0.08893954 -0.16677164 0.31624535 0.22786744 -0.14692403 -0.04693989 0.06907797 -0.07476665 0.08651171 -0.13669321 0.21200332 0.105028875 0.08621061 -0.36385447 -0.048446655 -0.20025614 -0.5333618 0.19186379 -0.1111549 -0.04703135 -0.20905004 0.17202614 0.16006562 0.23898235 -0.15234333 -0.18358402 0.008587964 -0.017764514 -0.16066225 0.17235444 -0.21529938 0.3145706 -0.27887526 -0.14928567 -0.1257467 -0.0070302486 0.054336622 -0.08382567 -0.09567237 -0.35773575 -0.0617558 0.19708964 0.102646135 -0.06896613 0.38840178 -0.23367101 -0.29994756 0.404761 -0.15543503 -0.04037084 -0.028758818 0.009678113 0.38478664 0.056740712 -0.114929594 0.074511506 0.20792758 0.029524233 0.061792333 0.3117678 0.23064575 0.72115254 0.16177262 0.19456021 -0.23059696 0.15797146 -0.20287782 -0.23980609 -0.066127874 -0.26056626 -0.0015470728 -0.3021286 -0.1315387 0.15738274 -0.03247761 0.009331594 0.025319874 0.11822721 -0.54616594 0.18573739 0.20821187 0.070245884 -0.034194335 -0.20758419 -0.13395946 0.059655014 -0.090652674 -0.23378861 -0.19654648 -0.18250145 -0.23617661 -0.2893637 0.32884163 -0.25509962 0.05896524
3945 -0.45389763 -0.3977625 -0.029849112 -0.26872915 -0.4151328 -0.15354168 -0.029253691 -0.5418475 -0.16683474 0.3136313 0.13295986 -0.053240616 -0.003027744 -0.09739721 0.3069922 0.3025623 0.2657421 0.10292351 -0.039777126 -0.13454062 -0.5725884 0.20671414 -0.32692248 -0.26444092 -0.31573364 0.37890667 -0.08957897 0.052015897 0.075328626 -0.027918393 0.08694211 -0.20986858 -0.038021296 0.19151051 -0.08489383 0.1063973 0.049386207 -0.15894361 -0.10503018 -0.3425776 -0.19049293 -0.04790519 0.05045807 0.06403423 0.28390127 0.3327715 0.0027431035 0.020777851 0.047350425 -0.09113451 0.22770882 -0.20258196 0.31383446 0.01992088 0.23316567 -0.12883179 0.40640482 -0.16866003 -0.23933697 0.2532345 -0.25551683 0.2607723 0.08601584 -0.013916534 0.082441114 -0.43117654 -0.31537712 -0.13077211 -0.26724482 -0.23544298 0.42553535 -0.1530527 0.03481997 0.09945231 -0.08963793 -0.01004513 -0.07817524 0.009093534 -0.40144387 -0.14980265 0.15188663 -0.23169224 0.084790014 0.072635375 0.066940404 0.5576109 0.084133886 -0.027972426 0.06076246 0.106991075 -0.07858479 0.019867504 0.25031054 0.20367305 0.27014607 0.44681898 0.21802786 -0.34729746 0.068363205 -0.08989844 -0.2887244 -0.10548271 -0.080402195 0.23710798 -0.06951446 -0.28844678 -0.18470843 0.41816038 0.12413136 -0.16771075 0.08219734 -0.19706284 0.10761415 0.334295 -0.028127322 0.18269072 -0.08216077 0.0348497 -0.4439447 0.06669895 -0.2404199 0.09745553 -0.24810605 -0.1139399 -0.14547713 0.25111526 -0.105222166 0.080832526
3926 0.12088775 -0.051442012 0.18683787 0.12183398 -0.04963091 0.09266871 0.253339 0.26024544 -0.035288095 0.13362412 0.084794 0.06338352 -0.16829254 -0.12427536 -0.25588986 -0.107398525 0.17249502 0.19413935 -0.058331072 0.11987563 0.18254764 0.10956451 0.15216693 0.29250807 -0.1323268 0.033475593 0.16010891 0.32122096 0.0765709 -0.07554562 -0.02111958 0.5410878 -0.22799142 0.07972815 -0.11776326 -0.08110953 0.09266644 -0.10677395 -0.004316176 0.1689881 0.053207733 -0.14700624 0.13758902 0.062800124 0.039720524 -0.16736509 0.3546042 -0.11719915 -0.21873601 0.00810192 0.16813967 -0.2787253 0.288704 0.19997843 0.21066004 0.046195287 0.13400781 -0.037858706 -0.075659305 -0.16616245 0.08160936 -0.25315377 0.21624412 0.10713234 0.2396301 0.0888516 0.048926916 0.31757325 -0.23767088 -0.063289806 -0.15526903 0.17679198 -0.14930348 -0.030509867 0.008126815 0.12761 0.25882387 0.3184483 -0.13656168 -0.12107589 0.2017691 -0.48636281 -0.059688397 0.1576285 0.26238546 0.1685388 0.23815891 0.19586015 0.064878926 0.16252708 -0.2269574 -0.27555206 0.16313826 -0.14344412 0.11649875 -0.07023286 0.1124431 -0.197656 0.34728697 0.15386635 -0.06791146 -0.002280995 -0.17991206 -0.097724214 0.060423005 -0.060551766 0.0024844187 0.21570018 0.09548295 0.0059645358 0.3363951 -0.23894289 -0.11786866 0.3190902 0.011160826 0.4375576 0.22338143 -0.09034748 -0.21822491 0.18977626 0.17536178 -0.25704914 -0.15302628 -0.1311925 -0.25100547 -0.2526219 -0.31404972 -0.22913025
3826 -0.14906305 -0.23911937 -0.050666682 -0.1713878 0.10462253 -0.32656306 0.34167737 -0.26758596 0.082210265 0.29096332 0.058553483 0.02474456 -0.3744075 -0.009806408 0.21907005 0.15654099 -0.18025358 0.19558977 -0.23833235 -0.13836327 -0.11142267 0.20435853 0.10044461 0.034450725 -0.21361236 -0.14611349 -0.06863314 0.073667765 0.22574212 -0.09188769 0.30057555 -0.17371878 0.21282533 0.07742627 -0.19171616 0.21759596 0.22591345 -0.39387062 -0.26521835 0.084199466 -0.13658136 0.16004586 0.03225996 0.22308786 -0.16211918 -0.09245731 -0.26580682 -0.16291411 0.018853977 -0.25692934 0.24059193 -0.030746026 0.093238726 -0.05438364 0.27934867 0.05055314 0.20590907 -0.036485452 -0.14671117 -0.26630557 -0.05750599 -0.009654473 0.08233086 -0.16075411 0.3787147 -0.49691656 -0.4345951 0.049848292 -0.09188146 -0.040858887 0.1335732 -0.22607753 -0.36504316 0.00040451903 0.22551109 -0.17640999 -0.1411092 0.1598353 -0.37297165 0.03257495 0.43394613 -0.27263814 0.20049773 0.09787608 0.25316498 0.170845 -0.006354854 -0.30724305 0.21232487 0.20068485 0.012528291 0.045476172 0.15955104 0.33524746 0.41520965 0.09806122 0.15612592 -0.52418643 -0.15225936 -0.17445496 -0.14091626 -0.071465686 -0.20361568 -0.10124279 -0.40069678 -0.014081027 0.14579058 0.23321344 -0.059257727 -0.058196954 0.22698486 -0.2942772 0.13869786 0.0017037633 0.13530469 -0.105052054 -0.06585507 -0.033497386 0.10961931 -0.049030058 -0.20577991 -0.20893382 -0.074429795 -0.39805686 -0.15883152 -0.013777449 0.1149008 -0.06557222
3640 0.27161592 -0.03814884 0.042936783 0.19662015 -0.15632068 0.1203229 -0.042043246 0.14555602 0.106385574 0.04673794 -0.1193746 -0.2151097 -0.112605385 -0.032033008 -0.13338397 0.23025325 0.25082538 0.29482764 0.057759147 0.08343852 0.18149678 0.37996474 -0.049585976 0.18436429 -0.32591826 -0.0018039733 -0.06578781 0.1932107 0.31050053 -0.23380679 -0.29463497 0.2309332 -0.24578163 0.26806548 0.13806729 -0.17341155 0.09512566 -0.017600263 -0.10874094 0.12087287 0.21821932 0.07242913 -0.09078474 0.15622213 -0.023982184 -0.044304937 0.04398653 -0.038432177 -0.27464464 0.21571556 -0.046161946 -0.31402802 0.02387566 0.044978473 0.7107831 0.05651587 0.25273943 -0.11682135 -0.013631603 -0.14357427 0.19967228 -0.027075822 0.009460921 0.01645498 0.21062909 -0.08404716 0.018496254 0.005606373 -0.3001525 -0.0074005025 -0.0011088109 0.21568435 -0.13254607 0.17160425 -0.22412089 -0.09669281 0.13523585 -0.095241725 -0.21667138 -0.04173193 0.097972296 -0.15163432 -0.044604257 -0.09545882 0.3825897 0.028923841 0.14711386 0.06413434 0.17251433 0.07451083 -0.15376967 -0.29550543 0.17796332 -0.27540576 0.29379553 0.043752912 0.071027294 -0.06328267 -0.052633263 0.3888935 -0.014331044 -0.18529168 -0.25147697 -0.011773101 0.11399595 -0.15709291 -0.062283814 0.22663401 0.12498527 0.14592922 0.076483354 0.016300086 0.035520695 0.36349538 0.0065630153 0.37311536 0.19365771 -0.072984226 0.10854575 0.21973588 0.13326457 -0.2578447 -0.24794343 -0.25236523 -0.12897177 -0.15625514 -0.013661713 -0.26072416
