171 128
830 -0.0694022 -0.25459015 0.14526081 0.17901571 -0.11810305 -0.07880313 0.021241026 0.14266671 -0.054121885 -0.028069487 0.034003373 -0.22650577 -0.17890738 0.08252496 0.17846347 -0.083755806 0.050995097 -0.023566457 -0.06261015 0.050765086 0.16251701 0.14935158 -0.067165315 0.025290582 -0.022413284 -0.07159886 -0.15530023 0.05882193 0.119880565 -0.019640137 -0.1981721 0.056188244 0.070166 0.11812917 0.0016984136 0.05892626 0.07694566 0.10893412 0.19055511 -0.104415506 0.036995832 -0.026669117 -0.00952953 0.022212455 0.015120414 0.087924935 -0.08688912 0.18672316 -0.0640011 0.01714351 -0.028358731 -0.08065295 0.061870646 -0.08738432 0.2314549 0.027825743 0.2502234 0.10407348 -0.014133308 -0.026780577 0.100348204 0.015743626 0.100654006 -0.06896584 -0.043433856 0.032968864 -0.33166778 0.09201129 -0.12137788 0.05131988 -0.059627064 0.043219645 -0.07147412 -0.264887 0.05906599 -0.19784772 0.021900965 0.19142489 -0.028653674 -0.05370261 0.0279243 0.09520215 0.12212695 -0.04676332 0.028494662 0.027983185 0.2441711 0.07524094 0.027257776 0.16758128 -0.02575308 -0.12887262 -0.058438063 0.042691562 0.06465947 0.0067987363 -0.029800136 -0.16420661 -0.013424755 0.011536279 -0.14581467 0.12052413 -0.11232563 -0.046625875 0.054256823 -0.064602286 -0.12604009 0.17543489 -0.03853897 -0.100015365 0.0069545424 -0.045136422 0.052385468 0.19713575 -0.15863037 -0.030924378 0.09835581 0.14989293 0.19092856 0.101117 0.07837759 -0.012634006 0.018033706 0.22353058 0.013751858 -0.039449237 0.055105176 -0.031371396
784 -0.021866396 0.046186134 0.012086499 0.1828986 0.104327 -0.1591122 0.19256142 0.06513619 -0.034083497 0.29022563 0.2833967 -0.002792676 -0.058976553 0.081243455 0.19303563 -0.0006426593 0.07911755 0.14014116 -0.0027753 -0.1411131 0.105507314 0.12708622 -0.16566321 -0.20715922 -0.0903063 -0.18514127 -0.05003566 0.1333628 0.0410962 -0.048953433 -0.12812468 0.019385092 0.121595524 0.16697745 -0.21959649 0.105639406 0.18232888 0.13068166 0.17826495 0.009358172 0.08970936 -0.16605861 -0.063085005 -0.10081616 -0.010295545 -0.014642222 -0.17601314 0.0074247005 -0.053191584 -0.042193983 -0.02562006 -0.104659006 -0.028075015 0.029082844 0.09272456 0.037337236 0.0419163 0.019772602 0.012974387 0.005121496 0.18954018 -0.0039626076 0.06451157 0.113784455 -0.05193223 -0.12469616 -0.11537414 0.03231985 -0.12602445 0.06490329 0.0017041373 0.11470847 -0.077809215 -0.2271126 -0.06714411 -0.17797723 -0.05126039 -0.027614666 -0.06691473 0.0566584 -0.08149656 -0.04774705 0.080291085 0.18183398 0.068607666 -0.09378358 0.13914783 -0.04937826 0.022768514 0.25125742 0.061809912 -0.08841582 -0.06880948 -0.02115874 0.077319115 -0.059744887 -0.116613366 -0.123071745 0.13817714 0.09589 -0.06813306 0.019726982 0.0117544755 -0.16698533 -0.050017294 0.11854642 -0.04762638 0.07128407 -0.05253789 -0.1674732 -0.08718819 -0.045321144 0.021707693 0.036498234 0.046662755 -0.035128824 0.023015372 0.20123482 0.0018723632 -0.0470183 0.15145768 0.14857063 0.09782207 -0.006433233 0.01648022 -0.018698746 0.042154685 0.02213937
734 -0.097826704 -0.14427422 0.14490874 0.15968783 0.19295427 -0.033120748 0.03051863 0.05824561 0.029546311 0.21145034 0.20993045 0.072185084 0.007818523 -0.109738104 0.14307494 0.06965345 0.109529346 0.13653332 -0.061168887 -0.16735835 0.016608315 0.15330048 -0.2736965 -0.18035617 -0.025448991 -0.34205332 -0.005538982 0.112381496 0.10328135 -0.041785106 -0.10766669 -0.14541326 -0.05172815 0.15306179 -0.049590666 0.091167554 0.22680624 0.084701315 0.12819411 -0.00080405315 -0.024201026 -0.041941587 0.066346146 0.012916549 0.117517166 0.16781949 -0.027190583 0.08506469 0.045881353 -0.17779797 0.016710928 -0.06859616 0.0050179935 0.009280011 0.09488728 0.12240477 0.061238796 0.0071060024 -0.14904542 -0.025442297 0.20240967 -0.11684119 0.15084206 -0.09576627 0.110143915 -0.096123785 -0.07049598 0.11815589 -0.19165666 0.12764952 0.018795373 0.18259485 -0.11643172 -0.14976723 0.062042765 -0.13025889 0.006750644 0.009607144 -0.049807798 0.13118081 -0.012296882 -0.04876033 -0.016096946 0.11876768 -0.051572163 -0.01702265 0.06708268 -0.15766656 0.10075717 0.2746829 0.07947442 -0.08322791 -0.04862111 0.06232643 -0.06994975 -0.040659994 -0.12824163 -0.051532112 0.07953867 0.11040148 -0.015352862 0.13633437 -0.032142974 -0.11030388 -0.14297572 0.07844041 -0.05017013 0.073216364 -0.050507445 -0.13955471 -0.04988035 -0.06188109 0.11627692 0.07827629 -0.12522475 -0.12677921 -0.010595705 0.10064292 0.0026539478 -0.0067846174 -0.08339076 0.113361835 0.19417103 0.060281582 -0.02461926 0.008209626 0.061896022 0.22119911
686 -0.012264935 0.022514388 0.08937111 0.055593524 0.059587806 -0.0662352 -0.13765627 0.073997006 -0.018010976 0.17843378 0.003955065 0.089828864 0.010864013 0.06942406 -0.024899542 -0.070948966 -0.0019608235 -0.017103067 0.010147926 -0.0019314166 -0.057156533 -0.004159285 0.008500541 -0.07815327 -0.14419143 0.03998849 0.08184922 -0.026078274 -0.009183129 -0.18188104 0.18014786 -0.013521686 -0.08080059 0.10103752 -0.12198383 -0.07609274 0.06934892 -0.1456705 0.05479149 0.04797722 0.12861757 -0.1843968 -0.11549137 -0.08661105 -0.08798158 -0.036226552 0.032959864 -0.023957634 -0.0591761 -0.007680534 0.14551944 0.038499 0.07489837 0.105951466 0.079660356 0.0465322 -0.006822565 0.019823892 -0.11263606 0.15978141 0.15213232 0.040211033 0.23642243 0.037650015 0.23666221 -0.12730294 -0.23014288 0.24545015 0.10805087 -0.21256357 -0.0027088893 0.12678376 -0.36369112 -0.12100826 -0.1672133 -0.21951176 -0.0048633437 -0.07430045 -0.13357055 -0.022124695 0.015008154 0.1800623 0.1372024 0.25528896 0.104146115 0.18977685 0.16582426 -0.021292303 0.011594665 0.0952449 0.11779205 -0.0058816876 -0.030165754 -0.003921747 0.19789027 0.107138276 -0.09864622 -0.23958655 0.07711261 -0.1064958 0.17255507 0.008069926 0.01745349 -0.07973169 0.05045995 -0.016849209 0.014687811 0.25030234 0.39128378 -0.12469404 0.054891106 -0.24284217 0.06595696 0.17382199 -0.123452365 0.12591353 0.06914198 0.16646181 -0.024603065 -0.11933124 0.03702612 -0.064864546 0.107864685 -0.14895536 -0.011787752 0.17180336 -0.107272446 0.054227054
758 -0.02545343 -0.369273 -0.18196349 0.0012618805 0.027361374 -0.16971716 -0.2867444 0.19848238 -0.22602706 -0.120796785 0.048721567 0.042216845 -0.23556167 -0.1539967 0.20733458 -0.033006385 0.0050665704 0.16214725 -0.18303673 -0.15377918 0.2174186 0.1508712 -0.09346103 -0.08572423 -0.054844815 -0.06089518 -0.08471889 -0.17294541 0.2881443 -0.26740634 -0.1717737 0.06478738 0.07339269 0.18010157 -0.1371999 0.29617992 0.067767076 -0.010506211 -0.08714586 -0.021675454 -0.021149034 0.1845412 -0.17460991 0.02482952 -0.10541222 -0.046960462 0.0052997777 -0.16976658 0.047396228 -0.051353052 0.33442923 -0.17022131 0.13376345 -0.014024429 -0.020285226 0.09764126 -0.018854206 -0.012730581 -0.008232117 0.10729486 -0.005462298 -0.020364944 0.12037979 -0.15317641 -0.09926779 0.13524081 -0.06837831 0.12970391 -0.06391626 -0.07622559 0.04916502 -0.1577607 0.012659069 -0.15512283 -0.055932745 0.0838143 -0.0020054919 -0.19049838 -0.2957156 0.023863362 0.10731377 0.025962697 0.26474878 0.120197006 -0.17620827 0.021380266 0.18533099 -0.1332427 0.2939409 0.065522656 0.050849155 -0.07251886 -0.026546404 0.059425384 0.29786807 0.041869745 -0.05340903 0.11470779 0.01787226 -0.15761405 -0.023796715 0.12952626 -0.119931914 0.069501564 0.25066558 -0.11333801 0.00504925 0.17740019 0.034468513 -0.2592844 0.18182917 0.07661872 0.08373953 0.21081711 0.12686981 0.13010058 -0.027223406 0.0884772 0.09541668 0.1765649 0.0045600967 0.13065635 -0.00705736 -0.07554584 0.026282607 -0.098394506 -0.0019418425 -0.09528877
747 0.009840339 -0.16354074 0.025081022 0.08046333 -0.0072217183 -0.12774503 -0.30141145 0.05681763 -0.107179634 0.0016758634 0.024232358 -0.23440701 -0.24156378 -0.090148814 0.45253915 0.095988184 -0.11463249 -0.099706315 0.048382126 -0.049831938 0.20548087 0.18059243 -0.0043176804 -0.07775173 -0.23532315 -0.1350541 -0.18098803 0.0318369 0.09729641 -0.20958346 -0.16496824 -0.14866012 -0.088856556 0.024479793 -0.14307928 0.17517886 0.12744059 0.00049409305 0.06725471 -0.07755761 0.017183151 -0.0050815954 -0.11354345 -0.039495487 0.07666398 -0.06123762 0.098446146 0.0526349 -0.016244385 -0.07970665 0.06451905 -0.26774246 0.027300006 0.0779384 0.18664244 -0.14899153 0.14543162 0.11368243 -0.12218416 0.01567942 0.0138398465 -0.08715354 0.0932373 0.027792165 0.072106786 -0.050824985 -0.062305696 0.12241282 -0.10449065 -0.13365567 -0.044020463 -0.026526047 -0.045407824 -0.12212074 -0.06297063 -0.087045304 -0.122679874 -0.066662066 -0.07598905 -0.099456474 0.034287017 0.010828253 -0.017796794 -0.024452081 -0.08221112 -0.009109449 0.24168219 -0.18203074 0.04802544 -0.014547277 -0.025818268 -0.0135824755 0.07705713 -0.030332243 0.06581678 0.012619078 -0.018157955 0.0028386875 -0.086586185 -0.11485299 0.18870357 0.035200007 -0.09050308 0.0783534 0.11015604 -0.047797572 -0.05926938 0.21519552 0.14760152 -0.072951876 -0.109065644 0.025880322 -0.123200655 0.09171801 -0.06993314 -0.03361563 0.02030219 0.08504334 0.16837631 0.026352903 0.0582738 -0.08779522 -0.14511004 -0.054662406 0.1418799 -0.07619529 -0.11103411 0.07185968
828 -0.058133617 -0.1808047 0.13011308 0.16599661 0.048372623 -0.095555775 -0.075646214 0.0949429 -0.05671392 0.15463147 0.14442623 -0.22680706 -0.16567674 0.023963084 0.19116415 0.01009764 0.07755287 0.05794891 -0.07883917 -0.10574196 0.097628474 0.24432479 -0.08083486 -0.10600768 -0.051065646 -0.1629118 0.047085114 0.08083761 0.13960795 -0.08896757 -0.26467052 -0.17233635 -0.057722144 0.06356461 -0.14531827 -0.0173222 0.08551622 0.11531751 0.20149268 -0.037569787 0.08717436 -0.1314185 0.051608875 -0.0152119305 0.09375631 0.031693462 -0.09782038 -0.07823882 -0.11409465 -0.046303324 0.15413976 -0.15845977 0.1717714 0.08459901 0.0775251 0.07496712 0.13060588 -0.0014200881 -0.11947144 0.04546932 -0.018835327 0.028139012 0.16945542 0.13870691 0.082913645 0.09113609 -0.09549759 0.045310955 -0.0734325 -0.0661349 -0.078148976 0.08557275 -0.2727999 -0.2533906 0.04044667 0.037847012 0.0232566 0.07730227 0.055216648 0.01807043 0.07384894 -0.0068892995 0.022789497 -0.022600977 -0.10147966 -0.036721557 0.22121997 -0.055784743 -0.12372591 0.06607932 0.08205125 -0.09629371 0.047734577 0.044698548 0.1511243 0.11556894 0.022081586 -0.14551319 0.050509267 -0.06589861 -0.067827165 0.03632111 0.05092124 -0.058155425 0.022100415 0.1321895 -0.09500153 0.025890244 -0.0033085973 -0.18008427 -0.070640646 -0.014324508 0.011287088 0.09717102 -0.1129391 -0.15496522 0.01406422 0.051203404 0.026811749 0.0055662114 0.035994098 -0.06800606 -0.07898817 0.23264793 0.13126642 -0.06541698 0.15953256 0.13622673
849 -0.06851752 -0.3022976 0.1476083 0.059966058 -0.064335875 -0.18405835 -0.0052162665 0.30205843 -0.13611004 -0.0067899707 -0.047345936 0.10307083 -0.26945525 0.016858358 0.20924902 -0.028122554 0.01810574 0.06039409 -0.0037818013 -0.22988093 0.2986876 0.046763234 -0.08159385 -0.08844766 0.018918864 -0.036932915 -0.17045806 -0.012657306 0.23212627 -0.26342025 0.0069652 -0.030998943 -0.044229537 -0.1442286 -0.09957523 0.22975083 0.17985004 0.0059392145 0.07440542 0.089153536 0.03646007 0.01807938 0.13546604 0.007531253 0.055653572 0.008279342 -0.095156185 0.09773248 0.15161094 0.034492873 0.15494967 -0.08629419 0.07996165 -0.0043502753 0.06350946 0.100932166 0.114754744 0.11260255 -0.010417288 -0.13350943 0.11523834 -0.2016928 0.14424235 0.094286166 0.044559784 0.10421984 -0.124872625 0.051668763 -0.22218744 -0.05328685 0.018945726 0.052034408 0.07095525 -0.08508164 0.0074006747 -0.076266184 0.009297484 0.07622112 -0.24487022 0.028904146 0.08017268 -0.031194588 0.09992801 -0.055819973 -0.024519572 0.06780006 0.021562343 0.05319321 0.14049439 0.1490872 0.11304152 -0.14377941 0.093032084 -0.17183897 0.24128184 0.016894432 -0.049500342 0.025561422 -0.11225045 -0.10043012 0.021482673 0.17892127 0.018083896 0.056874476 0.20182812 -0.041313265 0.060595814 0.19898865 0.022720594 -0.15189779 -0.097116746 0.037091028 -0.107532926 0.13400805 0.09930906 -0.01680927 0.24983609 0.19464947 0.0052561406 0.0059165275 -0.01513399 0.11661165 -0.23016298 -0.12391184 0.1432678 0.052497335 -0.008460123 -0.007509017
713 0.018048061 0.093242615 0.091978066 0.057603683 0.27966404 -0.12205997 0.06008377 0.00090935436 0.011185076 0.09407628 0.33407465 0.036651395 -0.0016089127 0.00039993034 0.11952509 0.06712078 0.032883707 0.12750536 0.06552001 0.111217804 0.22007912 0.08629606 0.0019341345 -0.10792235 -0.020067815 -0.022438942 -0.09933006 0.20699364 0.1436926 0.08900537 -0.0681649 -0.09376153 0.06909579 0.2496275 -0.20906799 0.059423745 0.23685783 -0.020493906 -0.03791254 0.09100928 -0.041645724 0.069642104 0.09142249 -0.18629852 0.1579223 -0.008910554 -0.08597556 -0.049822345 -0.19203071 -0.025014644 0.07285023 -0.022989104 0.1828403 -0.114067 0.043674443 0.016853178 0.16558835 0.059076637 0.0060862503 -0.078495905 0.16285056 -0.10836469 0.15230623 -0.016016858 0.067206085 -0.26943305 -0.06073791 0.043712832 0.03693593 0.069887266 0.0010491413 0.07043795 -0.18351196 -0.27973363 -0.07536864 -0.3854187 -0.05808366 0.19842231 -0.030190649 0.25479925 -0.09287459 0.021495268 -0.018344318 -0.020606447 0.17302738 0.016151609 0.06852467 0.004087739 0.047805734 0.03849295 -0.049252026 -0.033520155 -0.19118072 -0.13642973 0.03627197 0.08083733 -0.00594773 -0.004064587 0.09256792 -0.16481236 -0.028058616 0.14371195 -0.027029812 -0.16104232 0.022527661 -0.08497208 -0.12412177 -0.047726832 0.19835523 -0.07558623 0.006760037 0.118401445 -0.031103665 -0.05513578 0.014676154 -0.105882846 0.03908745 0.15848681 0.19705899 -0.023485703 -0.013398182 -0.037508305 -0.14086793 0.03511371 -0.13709928 -0.08072003 -0.06864727 -0.03159992
719 0.14756021 -0.1380239 -0.015824907 0.16120362 0.23897877 -0.11481111 0.087243766 0.05398027 0.04138923 0.118909 0.09354329 -0.10872866 -0.14031045 0.049633864 0.30567867 0.14776404 0.017439203 0.14171953 0.051637914 -0.015064582 0.11967845 0.15729065 -0.17878781 -0.21298406 -0.14636897 0.05859187 0.100210615 0.010613176 -0.008656329 -0.040913668 -0.11661076 -0.16339602 0.0221874 0.23055029 -0.16906355 -0.0077804206 0.24132165 0.09797575 0.28709346 -0.034880653 -0.2032433 -0.009262786 -0.03584252 -0.03904296 0.033269126 0.18476541 0.031342234 0.00802301 0.08265269 -0.014425097 0.1077175 0.036781594 0.13115583 0.03267563 0.19773372 0.105296336 0.18896328 -0.081009455 -0.12946688 -0.124585815 0.09858119 -0.17533368 -0.017828563 -0.11953329 0.045309585 -0.016326878 0.0941767 -0.080251634 0.056144837 -0.03708659 -0.010811109 0.16278271 0.042099115 8.153028e-05 0.057195593 -0.09469849 0.06750482 -0.15573129 -0.13661657 0.22526222 -0.05506996 -0.03563566 -0.016993426 -0.004849271 -0.047344495 -0.049845487 0.20240715 -0.18401773 -0.15549353 0.23784916 0.19355147 -0.22507462 0.044075675 0.06938078 0.074758016 -0.018376416 0.033206232 -0.22194856 0.0064030667 0.04311388 -0.0018117481 0.050778538 0.08498814 -0.23540948 -0.027948292 -0.026164247 0.018785402 0.10493447 -0.095011584 -0.041322343 -0.13792269 -0.036687274 -0.09471036 0.1420711 0.06108486 0.0038957936 0.12816787 0.14331135 0.070835315 0.06889596 -0.0033146162 0.12064109 0.015549462 0.11025403 0.09099542 -0.13406697 -0.057051357 -0.023519898
688 -0.096796945 -0.09550922 -0.0641746 0.16794124 -0.0061038346 -0.1910154 0.10969423 -0.07464775 -0.16674793 0.029266784 -0.025369631 -0.1918542 -0.0052924072 -0.030971348 0.20020545 0.111670114 0.0847041 0.07107367 -0.019131834 -0.10662995 0.20837036 0.1803949 -0.17192785 -0.14572355 0.06069538 -0.054814108 -0.22788218 0.12905161 0.08651645 -0.028388798 -0.30513033 -0.13724244 -0.12674262 0.09226835 -0.063372314 0.13355751 0.077121764 0.12910289 0.24766685 0.058651734 0.10119499 0.01744983 -0.038706128 -0.16413163 0.09835002 0.11269513 -0.21073501 0.19357552 -0.009181702 -0.04223819 0.01807296 0.041757528 0.12652738 -0.084825605 0.15047051 -0.030922303 -0.115088776 0.08292549 -0.12862012 0.05822196 0.14644334 -0.2126009 0.14392798 0.057992287 -0.07152571 0.044656686 -0.1736338 0.15404117 0.018616602 -0.16965598 0.040385112 0.054165963 -0.26927307 0.06045872 -0.022986673 -0.23644757 0.07315487 -0.018736243 0.13564608 0.013237614 -0.13415064 0.10620372 0.0933493 0.08002179 0.008920425 -0.025108658 0.08611536 0.092700616 0.08958143 0.14794412 0.038958628 -0.17088327 0.0048811124 0.055010613 0.18177317 0.072653055 -0.07281946 -0.06654139 0.064529434 0.019555049 -0.11763852 0.047562864 0.1102414 0.14232269 0.017938072 0.0085520595 0.01842654 -0.040301044 0.07314803 -0.03728189 0.07318503 0.114830576 -0.0909213 0.078763686 -0.077471614 0.031455144 -0.0010566358 0.24866806 0.016370833 0.18827012 -0.018240524 0.046626586 0.2777854 0.20240712 0.014291631 0.15475723 -0.026287459 0.18847515
834 0.055875972 -0.28648683 0.1017235 0.02018025 0.10923526 -0.17493057 0.021433102 0.1630926 -0.044014797 -0.008008534 0.13890132 -0.13191697 -0.1505685 0.101625234 0.20065773 0.029309327 0.061335366 0.13848805 -0.06168821 -0.08780733 0.17933773 0.07200423 -0.11116877 -0.053874172 0.03820982 -0.26888424 -0.103016056 0.023171568 0.099348746 0.024108613 -0.30737606 -0.11021679 0.14517422 0.30263868 -0.13518618 0.38366666 0.14206615 0.1236361 0.07311091 0.043067165 -0.121947594 -0.11904057 -0.006481956 -0.038702544 -0.096654736 0.024116619 -0.11449928 0.027998803 0.008863461 -0.099684626 -0.03308504 -0.028954893 0.10987738 -0.2196325 0.07697031 0.017041937 0.09569742 0.03666367 -0.13498478 0.08327116 0.057613354 -0.12464227 0.13425136 -0.21309884 0.10319983 0.020598914 -0.04825353 0.049665198 -0.09787734 0.10072141 0.035598297 0.09481814 -0.07525725 -0.11116065 0.20554055 -0.22195958 0.090763405 0.042200807 0.11876411 0.042117294 0.014461324 0.054038007 -0.099427216 0.030950397 -0.03901961 -0.05124548 0.14078708 -0.05299759 -0.012293233 0.22743185 -0.13738418 -0.10978552 0.043727633 0.02238815 0.013275162 0.002332521 0.012456048 -0.14525986 -0.13088475 0.065962374 -0.0004726995 0.11838852 -0.019868447 -0.19854577 -0.15250279 0.012990318 -0.096057825 0.087402344 0.056668192 0.17250715 -0.021126373 0.15237966 0.08160848 0.10721514 -0.0043683024 0.034596518 0.083365396 0.084128 -0.016150873 0.07720295 0.12645876 -0.019036638 -0.053361088 0.06778316 0.10822278 -0.021855436 -0.051288787 0.04781298
695 0.026248667 -0.23333664 -0.041058477 0.11957714 0.21163099 -0.15439735 -0.057263184 0.14765114 0.03263231 0.062232535 0.13779517 -0.047725692 -0.16348685 0.1137958 0.20642947 0.0553299 0.09822238 0.19239181 -0.105703086 0.039232656 0.19381398 0.1005967 -0.16682164 -0.0447806 -0.12852256 -0.13081636 0.017008154 0.09001225 0.073667064 -0.06611797 -0.29120597 -0.09184768 0.14882548 0.32325587 -0.084802136 0.22071274 0.15901741 0.048713833 0.18840335 0.013069204 -0.012579408 -0.108072326 0.041573618 -0.14591551 0.008920111 -0.02468784 -0.04578781 0.045860246 -0.13622499 -0.23504037 -0.09681505 -0.13211225 0.09133764 0.07815451 0.04576221 -0.029781712 -0.05400298 0.13781798 -0.0114755025 -0.01334387 0.09602209 -0.13608032 0.09992309 -0.13339515 0.0321743 -0.10874095 -0.11669179 0.10819113 -0.1413977 0.034151327 -0.05870357 0.09229624 -0.017022632 -0.009369062 0.086251006 -0.13661787 0.062475685 0.07606751 0.037311077 0.14612365 -0.09013608 0.13917367 -0.014228397 -0.0093227215 -0.10901152 -0.021714902 0.24309462 0.040984407 -0.13867882 0.28429338 0.04419417 -0.13216186 -0.04738687 -0.022934366 0.15541892 -0.02832203 0.0030013074 -0.08826223 -0.040996354 0.050392248 -0.08577552 0.08522137 -0.12468881 -0.20959713 0.092859074 -0.022087019 0.04390822 -0.10362758 0.03483409 0.018507207 -0.19052415 0.063954845 0.040110774 0.019086512 -0.17928283 -0.14896996 0.067706935 0.068009 0.012444964 -0.004120398 0.09070783 0.07803719 0.038119305 0.11454823 0.13280873 -0.0018496818 0.07391457 0.10964789
694 0.07481852 -0.15013897 0.11998969 0.15635811 0.05494294 -0.018465864 0.06915434 0.17154163 -0.077084936 0.15392579 0.18723568 -0.16338064 -0.07897661 0.0139663555 0.30679217 0.027896857 0.23389481 0.019639557 0.13711327 -0.055751894 0.24328178 0.20414944 -0.1361216 -0.04191995 -0.09593546 -0.27854526 0.0820301 0.08111832 -0.053675808 0.12098582 -0.03547328 0.08284745 -0.023776647 -0.055317864 -0.18184352 -0.0962878 0.32634667 0.013185291 0.055450644 -0.011340145 0.19417943 -0.18143283 0.049781095 0.008079074 -0.038065966 0.04628788 0.0026465948 -0.10374568 0.015021891 -0.06797672 0.018657638 -0.10936755 0.18810438 -0.08875342 0.08528809 -0.035624657 0.08007776 -0.0010341415 -0.04913878 0.13193092 0.027872244 -0.09274421 0.16577527 -0.16108622 -0.023856597 -0.046810295 -0.04473915 0.015893068 -0.095686704 -0.013786202 0.0049368865 0.11808665 -0.1708389 -0.12210585 -0.016084539 -0.025903914 -0.011080522 0.012337857 -0.09363516 0.12189307 0.12766755 -0.13619816 -0.15852875 0.020549424 0.05941745 -0.20514917 0.2445875 0.012233962 0.26025352 0.06396975 -0.043062214 -0.118279435 -0.16115533 -0.10179899 0.00460173 0.0278192 -0.07369764 -0.28201798 0.06196999 0.19548158 0.0006618152 0.17627522 -0.044094305 -0.11763273 0.17662765 0.063624494 0.08934279 0.101147056 0.05483459 0.1558212 -0.19969995 -0.0153209865 0.22433881 0.2371146 -0.019713169 0.18087523 0.11011582 0.39723557 0.19040944 -0.030675987 -0.045465946 0.20945613 0.124812484 -0.10263624 0.09449918 -0.19065131 0.14450367 0.120936975
705 0.043539822 -0.10704464 0.015215787 0.034872364 -0.019681204 -0.28320736 -0.001427469 0.096716456 -0.10000948 0.01357682 0.1462345 -0.093503416 -0.1702941 0.01677199 0.36829588 0.043066084 0.01738143 0.105363585 0.1263885 -0.106052905 0.00829462 0.25799185 -0.20102043 -0.024775548 -0.08624766 -0.1906753 -0.08161855 0.016292024 0.08885703 -0.1832833 -0.1830384 -0.20647067 0.024699753 0.033397295 -0.20332924 0.21664938 0.08594012 -0.062137827 0.16215749 0.025993546 0.10685513 0.014960012 0.101538084 0.02924064 0.024828592 -0.033700626 -0.09800406 0.037047915 -0.029719926 -0.010044025 0.06168789 -0.07819207 0.17434841 -0.034084752 0.13572624 -0.16570893 0.022951307 0.050694637 0.058233008 0.09719743 0.019812753 -0.021625705 -0.071692586 0.07250273 0.02535692 -0.15568052 -0.10098994 0.18006071 0.0037443088 -0.033145845 0.15848893 0.12693542 0.016944405 0.03815281 0.16099663 -0.15047325 -0.010035849 -0.0643417 -0.1683449 0.074586555 0.082608454 -0.095257156 0.0688056 0.10238588 -0.19435869 0.04317581 0.13959303 -0.19555113 -0.124129176 0.1650552 0.024077503 -0.14342786 -0.1471017 0.021099905 0.17450088 0.02203195 0.08313113 -0.15145761 -0.05788621 0.025890421 0.16290322 -0.03467953 -0.01919064 -0.12831976 -0.047885012 -0.055582922 -0.08715883 0.069062024 0.08624926 0.030921768 -0.048477937 -0.020624809 0.037517425 0.25604245 0.016413448 -0.054015424 -0.01737183 0.051940043 0.039784748 -0.008207233 0.059112456 0.12323591 -0.16239722 0.20839301 0.12914217 -0.17994213 0.037539158 0.0294033
724 -0.05091966 -0.108656816 0.19510768 0.0017430239 0.13747591 -0.18653852 0.15434061 -0.034092195 -0.029203808 0.16425858 0.048637178 -0.017331302 -0.30077434 0.15376623 0.1543784 0.21035722 0.06373316 0.09471373 -0.08648109 -0.1012728 0.09900357 0.2502463 -0.10323789 -0.09090492 -0.09617395 -0.031021448 -0.014000782 0.19452575 0.2559144 -0.061535418 -0.19944593 -0.15472648 -0.096250035 0.123067446 -0.18569762 0.109013975 0.12738702 0.12376252 0.07745567 -0.0667192 0.028070498 -0.005642077 0.14500086 -0.114267424 -0.17658362 -0.03119059 -0.15311801 -0.043904245 -0.15107875 -0.24698706 0.027753498 -0.043657742 0.019017385 -0.09367301 0.19371763 0.1274621 0.28009796 0.0946729 0.013194419 0.027883966 0.17550325 -0.045752652 -0.0010227129 0.02890804 0.024003552 -0.03170089 -0.06800616 -0.03248209 -0.05195708 0.0036409816 -0.0493505 0.06287729 -0.07915726 0.004006932 0.032700356 -0.2282314 0.14072916 0.10732897 -0.096609205 0.047785267 -0.087809876 -0.07726568 -0.08223176 0.116226815 0.13976143 -0.1582843 -0.001132958 0.036697913 0.1325676 0.087223545 0.027944744 -0.13158551 0.09086655 0.02730882 0.05723989 0.07770538 -0.085289836 -0.20135221 0.11092586 0.048945457 -0.13070638 -0.00681303 0.061478842 0.015474523 0.13717663 0.01277844 -0.079475455 -0.044535797 -0.030144392 -0.13345127 -0.048886526 -0.04617198 0.035147645 0.052292068 -0.05687897 0.0035214948 0.10867961 0.27625817 0.10024023 -0.016577065 -0.017084857 -0.011501383 0.13024199 0.16766644 0.00707271 -0.17832603 -0.0067556715 0.1221963
726 -0.08024519 -0.3065181 0.107739024 0.023896214 0.13854426 -0.00739066 0.022056634 0.055687204 -0.29344362 0.13057691 0.12876649 -0.14707936 -0.04839758 0.29527736 0.29374564 0.034654066 0.1620412 0.11512078 0.025205625 -0.008713593 0.2585875 0.07482622 -0.15167506 -0.15423247 0.026684886 -0.2742271 0.104334794 0.2744236 0.093748264 0.14601481 -0.39385092 0.14543092 -0.03819297 0.2005577 -0.12958989 0.14972845 0.02895674 0.11536198 -0.0006529845 0.14009191 0.059664026 -0.08022172 -0.17353219 -0.085996486 -0.038629673 0.0082574375 -0.1418174 0.10784663 -0.08377093 -0.03664664 -0.044096805 0.019468982 0.10683202 -0.06303136 0.21388873 0.04229092 -0.09674049 -0.028112281 -0.023802891 0.17490949 0.023223422 0.036958355 0.24077779 -0.028013969 0.01429193 0.015701082 0.005965032 0.19398065 0.046001595 -0.03566574 -0.017115336 0.012591784 -0.111938424 -0.058657482 0.049218606 -0.2452823 0.09931873 0.05504914 -0.1169198 -0.026183257 -0.0029586041 0.07091348 -0.1804999 0.05418552 0.2002858 -0.025348525 0.14850807 -0.049285755 -0.06366947 0.041148264 0.09047074 -0.15002537 -0.11558073 -0.003915047 0.030553907 0.0711224 -0.10553111 -0.29588845 -0.031165063 0.023976114 -0.017941732 -0.04651674 0.032838177 -0.15820009 0.21882977 -0.033839636 -0.019565014 -0.20552485 0.052117176 -0.012342042 -0.08833844 -0.086793676 0.07920803 0.27426928 0.06230363 0.11122666 -0.020147042 0.2675037 0.010173842 -0.017649125 0.25987774 0.028446522 0.016508294 0.14837629 0.061067574 -0.05042879 0.039179195 0.019753426
752 0.063079834 -0.03423038 0.18010578 0.13207752 0.08368467 -0.24317044 0.028907605 0.04370639 0.0011629437 0.10389369 0.26806056 -0.11292407 -0.28047356 0.05796631 0.2297999 0.014857926 0.11627566 0.1629235 -0.07895184 0.054737348 0.10738922 0.14337896 -0.09452423 -0.053125303 -0.07413424 -0.25351164 -0.09084613 0.041515175 0.15797196 -0.12822758 -0.22836185 -0.14969015 0.04095824 0.025393302 -0.22984007 0.07640368 0.2899466 0.08691543 0.2056954 -0.113862924 -0.037828773 -0.19984359 -0.023032196 0.078294545 -0.068946324 0.025812125 -0.1117459 0.070978776 -0.13765346 -0.071263306 -0.022176307 -0.07277717 0.03388027 -0.050843645 0.10370606 0.17474923 -0.09386068 0.015824227 -0.03165088 0.06359094 -0.04271132 -0.0040767435 0.0780674 0.016647423 0.10869306 -0.11100469 -0.08372377 0.067874394 -0.13478404 0.06635972 -0.05878552 0.024441076 -0.20242512 -0.17444442 0.05776172 -0.05333849 0.032956067 0.005623757 -0.12244921 0.16606855 0.011468077 -0.0075126006 -0.027414026 -0.06561804 -0.08085538 -0.049512215 0.0921294 -0.08870325 0.0066059735 0.15587606 0.092063054 -0.22213021 -0.06197879 -0.08716165 0.12384524 0.017212 -0.034566525 -0.15691487 0.1002547 0.024076423 0.018741209 0.019295724 0.069728844 -0.055575773 -0.059527565 0.07097477 0.06847478 -0.070783764 -0.10793046 -0.060784377 -0.030858211 0.04386602 -1.1415537e-05 0.14074129 -0.07349385 -0.0056256773 -0.036011223 0.18875147 0.04072864 0.05898598 -0.013346904 0.07241605 -0.022514455 0.09001341 0.18093112 0.030552104 0.07171027 -0.06754347
766 -0.13638933 -0.017767387 0.05649028 0.21106371 -0.08347712 -0.17722502 0.055124123 0.02410714 -0.12574361 0.16105556 0.19725372 -0.115741834 -0.16866945 0.06955024 0.12697478 0.20267622 0.11860736 0.14033231 -0.06213186 -0.19170703 0.13235408 0.15419482 -0.14704481 -0.15878823 0.013438222 -0.007007964 0.04736831 0.14332837 0.11826818 -0.098939836 -0.20868517 -0.12484933 0.08170741 0.082653634 -0.1925033 0.07976607 0.37009946 0.047727656 0.24993724 -0.029054366 0.0955067 -0.17882246 0.088554405 -0.07476272 0.028355284 -0.030733937 0.007206535 0.13338321 -0.01052716 -0.26112923 0.18398136 -0.088148825 -0.027270243 -0.025444694 0.18906958 0.011799729 -0.036136508 0.058267307 -0.08317511 -0.10182625 0.045070704 -0.012458624 0.020503733 -0.038878325 0.17567836 -0.045135915 -0.15876424 0.04446487 -0.11302205 0.028981816 -0.04771696 -0.15813407 -0.1409595 -0.23990372 0.13304132 -0.20097463 -0.09456789 0.025747908 0.02857479 0.053025942 -0.062279336 -0.0111584235 0.047962546 0.03775513 -0.09669101 -0.060658343 0.16076592 0.14635357 0.032688074 0.081114456 0.1570504 0.061324395 -0.1747217 -0.062268917 0.14540675 0.08157542 0.051170614 -0.33457646 0.05942978 0.12634669 -0.041702155 0.12459428 0.08861947 0.012707439 -0.012874714 0.015118091 0.005994183 0.029243432 -0.16608915 0.031635012 0.12447762 0.036257077 -0.09338804 0.055463992 -0.09348012 -0.04693434 0.07390631 0.28690234 -0.05279646 0.05315308 -0.022384997 0.0826334 -0.07912145 0.23901293 0.03313015 -0.05498504 0.15418807 -0.029159324
736 -0.04305796 -0.017760029 0.09981112 0.14325136 0.44167367 -0.120752916 0.07090103 0.06666531 -0.06438988 0.12032628 0.22886068 0.14642657 0.11303972 -0.06707769 0.20824558 0.10884596 0.052278236 0.037687227 -0.029043542 0.023527194 0.059234444 -0.087666675 -0.032189675 -0.0025259042 0.041044567 0.011425597 0.017929206 0.1983584 0.14615253 0.024657441 0.19764017 0.17519039 0.3877374 0.24662659 -0.31824768 -0.09361426 0.22419271 0.09436006 -0.12207728 0.053336833 -0.0634411 0.24083042 0.2154188 -0.070438646 0.15680707 0.08291835 -0.09980708 0.23709117 0.011808249 0.03229413 0.09525453 0.52210027 0.26010168 -0.12779756 -0.05605605 -0.0022851543 0.20055583 -0.05263886 0.057533953 -0.0010653863 -0.09424695 0.04285429 0.09818558 -0.04229994 0.25940502 -0.1648082 0.07777243 0.031970926 0.002191891 -0.07717389 0.23289989 -0.041418754 -0.5365745 -0.15921476 -0.21109802 -0.44607982 -0.17797698 0.033995926 -0.14210284 0.48179507 -0.013058874 -0.16455114 0.124921955 0.4385145 0.3717411 0.20708035 0.073270515 -0.2341517 -0.019792888 -0.020855311 -0.11969502 -0.022326445 0.03415671 -0.14202586 0.052059885 0.047937267 -0.07344732 -0.025639528 0.07594628 0.06811605 -0.041061193 -0.07134729 -0.2304833 0.08834522 0.18717462 -0.040366188 -0.07566187 -0.054819275 0.2216425 -0.0057449676 0.31164238 0.017113373 0.17449816 -0.19707865 0.13580489 -0.100623675 0.06636084 -0.09069634 -0.03164473 -0.07005163 -0.12388294 -0.34044072 0.24083626 -0.090725794 -0.20982222 -0.14899676 -0.23331392 0.011987158
805 0.067078374 -0.07779268 0.033512 0.22789747 0.27453887 -0.16145271 0.04979077 0.12962374 0.06436976 0.23662022 0.26990807 -0.10864907 -0.22475466 0.103795275 0.2086821 0.035542693 0.057046954 -0.01901458 0.11341157 0.00079703925 0.0916182 0.1853611 -0.13826987 -0.18657194 -0.12720667 -0.054564398 0.004078143 0.18859471 -0.13634442 0.0043684607 -0.05952485 -0.1516805 0.10954417 0.0064667477 -0.21003038 0.07363116 0.2418544 0.20783943 0.06697903 -0.08847999 -0.033526704 0.029960899 -0.062247958 -0.0771051 0.037924837 -0.14382324 -0.026727488 -0.007194113 0.1412405 -0.16011931 -0.052439436 -0.034379266 0.123704284 -0.0431243 0.13714565 0.0871937 0.11422351 0.12477827 -0.054551378 0.20267187 0.15562254 -0.16479918 0.22180712 -0.20913982 -0.046838418 -0.0074362806 -0.21727085 0.0038114267 -0.10187924 0.12873791 -0.026475305 0.07932305 -0.03297211 -0.057284147 -0.028360095 -0.11431377 -0.13591397 0.08760422 -0.08308845 0.07654795 -0.061123867 -0.08051563 0.053031914 -0.037069857 -0.14679518 -0.056128815 0.12095161 -0.09240268 0.057200905 0.21184376 0.07171665 -0.16932614 -0.047820453 0.014080712 0.07846759 0.17494605 -0.15244967 -0.03457088 -0.04207143 -0.059001498 0.10590623 -0.11248376 0.0071590063 -0.06503023 -0.15882032 0.08580282 0.08636703 0.07755907 0.079024345 -0.020077845 0.12376333 -0.007245161 0.0028185956 0.16978274 -0.16609563 0.10510785 -0.075803936 0.10670144 -0.041872207 0.25117493 -0.062484488 -0.047491476 0.0026662238 -0.0044682967 0.13961188 -0.08828946 0.022525493 -0.055085517
774 0.082702816 -0.031011073 0.06623022 0.07475093 -0.041995354 -0.26702246 -0.025269248 -0.11339552 -0.113693506 0.19785413 0.21469223 0.014705951 -0.38279337 0.19175415 0.11481244 -0.15746962 0.11725143 -0.022064013 -0.06714071 -0.08568066 0.14734103 0.16869102 -0.2071527 -0.24684726 0.09903606 -0.15415363 -0.092476964 0.114751354 -0.040992714 -0.051320385 -0.21252619 -0.032375917 0.0015455172 0.06006955 -0.1430172 -0.045837965 0.18267602 0.064967655 0.016570153 -0.22940204 -0.06880897 -0.16915272 0.05103996 -0.055181373 -0.22737524 -0.0073525268 -0.24586172 -0.015890853 -0.056802545 0.10992186 -0.013341026 -0.037982885 -0.040824268 0.043282118 0.076788664 -0.13519746 0.085489616 0.02340645 -0.008580865 -0.034492236 0.22281918 0.058349933 0.12877403 -0.034051545 -0.0723364 0.01607509 0.025894215 0.22254549 -0.056582093 -0.19907004 -0.013468174 -0.094686516 -0.13623211 -0.1101126 0.14839308 -0.09066341 -0.14102268 0.20713662 -0.19138208 -0.00078006665 -0.18268374 0.15003733 0.10907562 0.10860568 -0.09034328 -0.05358437 0.10535514 -0.28238386 -0.15063243 0.17675306 -0.15122704 -0.16725038 -0.079831064 0.14143977 -0.047155898 -0.062293615 0.11699662 -0.08577844 0.028938629 0.14178264 -0.08206944 0.16708165 0.067346945 -0.008341461 -0.16728686 -0.01820601 -0.026197862 0.14950204 0.07454054 -0.072610386 0.025822934 -0.05980843 -0.025880393 0.14709891 -0.1293661 -0.0038090276 -0.08391199 0.10260854 0.1402703 0.009181049 -0.065243155 0.090978734 0.051174115 0.04508116 0.08409185 -0.11561716 -0.17965333 0.2490115
853 0.07216356 -0.067687154 0.06322714 0.10168177 0.015784923 -0.1615901 0.2324282 0.019520935 -0.04945713 0.08573606 0.41424 -0.054436456 -0.26618958 0.21797727 0.2060696 -0.004195841 0.05688419 0.156045 -0.096101455 -0.15688528 0.2035911 0.13766019 -0.08619136 -0.13301481 -0.16759427 -0.12028801 -0.034705006 -0.051409457 0.0032905217 -0.09596382 -0.16633898 -0.077831805 -0.049737092 0.22112772 -0.231189 0.046775635 0.1007945 0.13936433 0.12908489 -0.12322496 0.039177574 -0.061760522 0.037461966 -0.14072773 0.08700008 -0.07794059 -0.043036703 -0.007611034 -0.089381 -0.10970639 -0.042595834 -0.15018284 0.061011814 0.021353211 0.26902297 0.16482355 0.073562086 -0.01589725 -0.08343206 0.11405461 0.066682614 -0.18554169 -0.035959255 -0.115886874 0.08075367 -0.10224746 -0.014785897 -0.03831128 -0.11093754 0.023525627 -0.0035845274 0.031694856 -0.052741613 -0.048693456 0.048094828 -0.09850269 0.04199073 -0.06072402 -0.036887873 0.13326414 -0.114314206 0.027079139 -0.017946677 0.16437638 0.017020855 -0.11392543 0.19213152 -0.058460012 0.05307926 0.22344877 -0.06402687 -0.048586722 0.035265785 -0.023430571 0.21136425 -0.06464489 -0.086009465 -0.032773446 -0.049975444 0.016865497 0.18403944 0.09728312 0.041704062 -0.094643496 -0.15489902 0.07192045 -0.00015158806 0.19494553 0.005871816 0.09262497 -0.05559219 0.09418734 0.014199399 0.17924456 -0.04371623 -0.0058878306 -0.063426435 0.11985952 0.089905925 0.021261888 0.008638665 0.16534247 -0.105810545 0.018529596 0.0022051039 -0.12564988 0.025499824 -0.09257398
829 -0.043969423 0.055962358 -0.20277447 0.1834949 0.12481896 -0.0050598546 0.018267207 -0.014453837 -0.027119366 0.23119944 0.18362217 -0.13726993 -0.03301992 0.3447248 0.10323056 0.15992771 -0.042344213 0.07366118 -0.023855533 0.04468531 0.2858695 0.20102867 -0.082477584 -0.14263886 -0.2556192 0.06464533 0.13382253 -0.02952471 -0.07271477 -0.26316294 0.012733172 -0.091857 0.14446324 0.29008707 -0.11765328 0.06274799 0.2038709 0.08303757 0.053780645 0.20923682 -0.066964366 0.052421946 -0.019987946 -0.13738364 -0.14573574 0.28816712 -0.24401647 0.30090684 0.06258008 -0.009683814 -0.015781447 0.14853778 0.28871587 -0.028886532 0.1159584 0.30249262 0.10119711 -0.076505795 -0.05594918 0.12972206 0.09320094 -0.17298338 0.034926984 -0.13873744 0.120455936 0.042785827 0.044265777 0.009621351 0.017313322 -0.020464921 -0.040156204 0.059520952 0.12663598 -0.04795698 0.17016774 -0.12282306 0.15477732 -0.113083 -0.11647125 0.19429034 -0.16467035 0.020074481 -0.1280597 0.021010254 -0.14045219 -0.34813717 0.118880816 -0.13069607 -0.051627606 0.17208236 0.2051571 -0.34021154 0.08517211 -0.2467294 0.10812797 0.022358146 -0.051284876 -0.25359848 0.11278591 0.13920687 -0.10785337 -0.03645103 0.026565498 -0.13767786 -0.1370429 0.061088137 -0.09569824 0.2944555 -0.0029462196 0.034275193 -0.09401385 -0.09664092 0.13829932 -0.2545031 -0.04736803 -0.06884813 -0.13527426 -0.0018887141 0.118848845 -0.1572167 -0.15826328 0.023858393 0.060637377 0.08478067 0.07983733 0.02204575 -0.10696399 0.08817351
748 0.16926569 -0.26963857 0.04112263 0.09383614 -0.06879388 0.053401243 -0.26144078 0.11890979 -0.096506245 -0.0923152 0.07679423 0.0888413 -0.109096445 -0.14702211 0.43284267 0.08853056 0.061708134 0.09388288 -0.13278833 0.106904514 0.14720209 0.2402545 0.20765588 0.017211873 -0.18977983 -0.042568278 -0.18715681 -0.028637057 0.26521662 -0.13377023 -0.2385267 -0.060813457 0.09534323 0.019522922 0.003311714 0.13705942 0.24401368 0.09039952 0.18386987 -0.10858873 0.18380223 0.17886932 0.01901908 0.25203627 -0.00029869363 -0.04451087 0.02329264 -0.0030185017 0.111229636 0.04846839 0.07623776 -0.21403983 0.21516973 0.006642926 0.059005346 0.008744967 -0.11193277 0.008328895 0.12111906 0.08602918 0.00072766724 -0.016474267 -0.07893004 -0.12860571 -0.07622209 -0.098865196 -0.16735876 0.018227343 -0.17818269 -0.2053011 0.05233788 -0.06013867 0.001150522 0.030945903 -0.10540424 0.048725262 -0.051312707 -0.024365464 -0.1517204 0.056036703 0.06677916 0.14485328 0.16646367 0.20489655 -0.009761512 0.13029884 0.24499397 -0.011760616 0.2386765 0.25783318 -0.0035255977 -0.2559798 0.2607929 -0.10004433 0.29946917 0.0839726 0.061779052 0.01811652 0.027159315 -0.037396137 0.011195089 0.23578377 0.11217666 0.08045674 0.11702712 0.055203874 0.1115966 0.18276381 -0.041458137 -0.176346 0.06061358 0.06674414 -0.075516954 0.1298606 0.077033505 -0.012531969 0.102259666 0.21494047 0.034857284 0.044632968 0.060237978 0.013920535 0.051392075 -0.21611951 -0.0030503285 -0.048079778 -0.19980581 -0.07568458
745 0.023563236 -0.21842244 0.013770692 0.09076185 -0.028244931 -0.30626342 0.1094865 0.30380675 0.02882 0.13990466 0.22538409 -0.021543322 -0.05279399 0.057419796 0.029796755 0.020255748 0.01472269 0.079445556 -0.04713215 -0.07191381 0.2182919 0.13613614 -0.02240367 -0.12233697 -0.04505643 -0.0673906 0.12287363 0.056846566 0.09972951 -0.011089613 -0.025136905 -0.10913759 0.040608037 0.20124821 -0.23735195 0.21893321 0.14816813 0.10165342 0.01009095 -0.08172863 -0.026165586 -0.22759587 -0.008014987 -0.024555486 -0.0662101 -0.015163906 -0.08163804 0.003240507 0.048564546 0.049315937 0.024288272 -0.10262037 0.11436351 -0.0321881 0.17514367 -0.011899324 0.070375904 -0.08351218 0.00890975 0.07592285 0.061218638 -0.25225127 0.07539702 0.035820078 -0.099933624 0.11963919 0.15856577 0.13480848 -0.14464448 -0.07530525 0.042109 0.13900553 0.2174907 -0.15823348 0.052833278 -0.20581263 0.12945354 -0.12276691 -0.20892382 -0.029263956 -0.015122391 -0.09087357 0.19852468 0.00532632 -0.04257904 -0.0451187 0.24410774 -0.12063229 0.12672658 0.15818496 0.071195856 -0.113790914 0.089086086 -0.13459602 0.24054053 0.019369844 -0.069143645 -0.288764 -0.03199648 0.13856675 -0.108046204 0.17424634 0.035229474 -0.15988936 -0.09929777 -0.006124918 -0.07761813 0.13336012 0.039264455 -0.16798253 -0.113576084 0.16025862 -0.070089035 0.18052925 0.028463367 0.0325211 0.10571975 0.050783273 -0.036090568 0.09646556 0.07150901 -0.05112455 0.0031088463 0.10994203 0.12700272 -0.13174488 -0.039322905 0.11519037
824 -0.023090234 -0.2711541 0.13117772 0.1780267 0.01843709 -0.16263454 0.020762773 0.16072547 -0.1576817 0.16953668 0.22230925 -0.20987785 -0.2347388 0.17872281 0.17102306 0.13657673 -0.019040652 -0.0041424967 0.042623166 -0.039719936 0.04642718 -0.0059710853 0.00047360128 -0.013396741 0.032534856 -0.15023562 -0.12672059 0.16346781 0.04716604 -0.039756052 -0.21227024 -0.02707004 -0.095071755 0.11153844 -0.093570046 0.087903984 0.2217964 0.18585795 0.19971435 0.002668817 0.25638017 -0.03942201 0.09137938 -0.015561069 0.0033717023 0.051931866 -0.14996178 0.10455524 -0.045414127 0.09143488 0.13654691 -0.09728147 0.037666906 -0.20855898 0.17377435 0.12939656 0.03367319 0.16032842 -0.099416405 -0.02395256 0.032756258 0.06854311 -0.06338054 -0.2548163 -0.047382005 -0.039007306 -0.25262243 -0.06325518 -0.11133019 -0.01802424 0.02516035 0.00278768 -0.22561722 -0.073045686 0.10347955 -0.15642983 -0.007223214 0.046888623 0.028057845 0.01415044 0.033729404 0.035436235 0.06821515 -0.051770087 0.039076105 -0.043155607 0.040089924 -0.1687411 0.06253005 0.32648766 0.02152145 -0.12630194 0.16753708 0.03314638 -0.00086611486 -0.02193363 -0.10681872 -0.12055504 -0.06786702 0.03952917 -0.06440938 -0.013391163 0.0025706147 -0.023504034 -0.04076778 0.04004536 -0.11727582 0.11002505 -0.013850436 0.008181114 -0.21984464 -0.0003492972 -0.014410966 0.06107703 -0.05289257 -0.05873815 0.15424271 0.26102352 0.033949196 0.054809127 -0.043341305 -0.11615981 -0.22376946 0.17465164 0.10881017 0.057179168 0.03430754 0.09713906
847 0.033996582 -0.13337155 0.13878457 0.13488758 0.048733134 -0.2675964 0.23479328 -0.008145976 -0.02759497 0.16133007 0.20079124 -0.0019749766 -0.16270578 0.17427109 0.22502017 0.15027614 0.002776629 0.15473 -0.002018528 -0.15167242 0.2871623 0.1398933 -0.21611187 -0.1213603 0.09066502 -0.08534483 0.008435126 0.122426555 0.044462953 -0.15895098 -0.10566194 0.03757668 0.13261248 0.23410234 -0.054362454 0.0763023 0.15412527 0.065373436 0.18039507 -0.011231445 -0.10409903 -0.011928559 -0.08996161 0.008301818 0.22763866 -0.1250105 0.020164609 -0.003983721 0.028496258 -0.041821435 -0.020193808 -0.22603951 0.024909895 -0.028608909 0.20471448 0.14541312 0.013424729 -0.0013037116 -0.24889746 0.014865047 0.071092136 -0.13299339 0.0062094796 -0.060424753 0.22383997 -0.042673994 -0.21475728 -0.0035816592 -0.14609107 0.045441482 0.142166 -0.048533306 -0.027162762 0.07419577 0.15178841 -0.18571746 -0.115256846 -0.021453256 0.008145164 0.23492265 -0.0933605 -0.011573456 -0.056992255 0.13253815 -0.134218 -0.129992 0.037626985 -0.12029166 0.12647244 0.1901078 0.05909235 -0.08760133 0.023241116 0.104021914 0.13750502 0.16051999 -0.04554088 -0.22384347 0.105309166 -0.047279842 -0.03020392 -0.06729949 0.119216464 -0.16806841 -0.14361882 0.13793215 0.07651449 0.031419836 -0.11677641 -0.11648595 0.015302544 0.05361972 0.047732923 0.11161366 -0.07888163 -0.056473807 0.07144107 0.03755868 -0.020355156 0.13671921 -0.111615695 0.072809555 -0.11889925 0.040684693 0.17710015 -0.14662172 -0.031158898 0.22232111
842 0.07729068 -0.020306885 -0.0078058955 0.109112255 0.17885359 -0.22735807 0.005428469 -0.015664298 -0.115840025 0.24076754 0.14323047 -0.13428801 -0.12944032 -0.0035430763 0.16832022 0.10412975 0.056415785 0.079474375 -0.18399213 -0.15891865 0.14881621 0.14195 -0.11488832 -0.07867476 -0.009832777 -0.024337886 0.16003436 0.07324261 -0.083573826 -0.019215591 -0.13359538 -0.086099364 0.13240829 0.19160752 -0.20723599 0.16882005 0.16184622 0.0862803 0.16138777 0.12324342 -0.0032163067 -0.040738873 0.085263625 -0.13647951 -0.040008582 -0.12960823 -0.22402501 0.0416314 0.042368528 -0.22799973 -0.06977577 0.037046302 0.15078387 -0.029528765 0.046573054 0.015345734 0.1042316 -0.03941317 -0.12674022 0.035334915 0.21827741 -0.026242439 0.14356516 -0.05398806 -0.047221586 0.05186059 -0.18360773 0.09358453 -0.24719831 -0.058860663 0.054947853 0.14049783 0.15376407 -0.14686862 0.07950495 -0.21189298 0.0031987424 0.06664076 0.07581866 0.102710925 -0.04865633 -0.18267453 0.069349214 0.20366096 -0.083680235 -0.030505002 0.14328797 -0.17005163 0.037151717 0.43450195 -0.17176433 0.06588004 0.024818247 0.07427402 0.09519021 0.15842755 -0.16697109 -0.15495105 0.022370469 -0.025314625 -0.043625098 -0.006485691 -0.017595954 -0.067959994 -0.168074 0.06775225 -0.0101836445 0.028503533 -0.054496985 -0.0436185 -0.16719241 0.011349185 0.030309498 0.23859121 0.00017918301 -0.0020874874 -0.012824414 0.19606227 -0.0784618 -0.046736013 0.13278513 0.18345189 0.09841563 0.086882606 -0.01692279 -0.14714725 0.04124937 -0.065742694
781 0.009409997 -0.07431396 0.046829086 0.080073245 0.12841922 -0.16805796 -0.09715942 0.12060399 -0.1337778 0.17583853 0.30621684 -0.03548414 -0.28698814 0.022835243 0.19522768 0.17095195 0.101797454 0.08232168 -0.040337063 -0.08343747 0.031248303 0.13224238 -0.08171033 -0.051114973 -0.043358695 -0.16885649 -0.08352307 -0.11353721 0.18930925 -0.02227762 -0.12154929 0.0003236944 0.053329624 0.0736097 -0.13698727 0.12550786 0.081775166 0.015109165 0.2459668 0.21035624 0.16668996 0.018417053 0.07224884 -0.022258548 -0.11659529 0.15391062 -0.17304906 -0.078623354 -0.02160766 -0.04952866 0.004576048 0.013680785 0.23128282 -0.00017429086 -0.06621212 -0.18184562 0.058159966 0.10673388 -0.013002313 -0.026940279 0.082682736 -0.082568854 0.055566464 0.06628856 0.09407052 -0.13705613 -0.045436505 0.10058976 -0.050979607 -0.009041647 -0.11131648 0.14019006 0.044255435 -0.12400932 0.02673374 -0.06714257 -0.046378728 -0.024106933 -0.06452154 0.056128237 0.0031073303 -0.05881826 -0.034567006 0.16258948 -0.06851517 -0.18134491 0.19886105 -0.06085591 -0.008221133 0.21461949 0.06479768 -0.05397812 0.061071012 0.16384263 0.09503333 -0.2062846 0.056335744 -0.00424007 -0.11325186 -0.06582245 -0.085007414 -0.082706444 0.19196989 -0.084731266 0.006325458 -0.03291523 -0.10334426 0.1333231 0.11264338 0.052133746 -0.15255372 -0.059874576 -0.13960227 0.14173105 -0.1339521 -0.034457847 0.243647 0.23917075 0.039101135 0.11873196 0.061373092 0.026192836 0.06373421 0.0723847 0.01893048 -0.16340137 -0.08076633 0.0714588
810 -0.0738261 0.045041483 0.18694745 0.06786122 0.13951968 -0.15496457 0.07279207 -0.057951327 0.028440144 0.19408213 0.23241618 -0.094637804 -0.22778422 0.015314263 0.09819407 0.23168457 -0.025668822 0.090979934 0.05061779 -0.03935055 0.18998101 0.13619068 -0.035436288 -0.16572139 -0.053170577 -0.06536274 -0.18551654 -0.08147117 0.03720834 0.068034 -0.08036183 0.001525357 -0.1245039 0.13030225 -0.20328598 0.00420114 0.25501233 -0.10765482 0.16750596 0.12485548 -0.1130726 -0.106471755 -0.060610972 -0.04574427 0.058075227 -0.0012897364 -0.09281706 -0.13801798 -0.071021535 -0.017772198 0.14192663 -0.053423166 -0.014631396 -0.010820273 0.07167526 -0.12217383 -0.084830984 0.027335638 -0.14690512 -0.04596466 -0.03154787 -0.08378582 -0.10602604 -0.20922859 -0.056055874 -0.10093424 -0.059945896 0.2230305 -0.30385473 -0.0017552624 -0.092335805 0.16815767 -0.11168337 -0.09659573 0.08218642 -0.3558163 0.04574049 -0.012033115 -0.083661884 0.19619183 -0.14070159 -0.07990488 0.09764041 -0.10367908 0.053500365 -0.1386857 0.26652837 -0.27836215 0.032027427 0.27876228 -0.07363044 -0.2199451 0.025299322 -0.019715445 0.071891025 -0.100489095 -0.10041955 -0.15576178 -0.14764398 -0.008879323 -0.037787385 -0.023804724 0.17404272 -0.13411531 -0.13353306 -0.010381755 -0.15063043 0.12515406 -0.037510205 -0.14985627 -0.01773539 -0.008283773 -0.032875326 0.34582573 0.04371381 -0.006845595 -0.026383318 0.020249875 -0.10701701 0.22975002 -0.024533067 0.05927525 0.033236783 0.16846593 0.07591154 -0.24964996 0.12225472 -0.05785051
773 0.011516888 -0.19383284 0.18893696 0.15585211 0.03185093 -0.19933118 0.17328517 0.048851166 -0.089597836 0.16210848 0.21555762 -0.052578863 -0.32138866 0.078734964 0.07674841 0.089975916 0.03936265 0.26078007 0.059289914 0.031675935 0.12143082 0.20895751 -0.19567643 -0.050489057 0.023441609 -0.045204435 -0.18107489 0.18908367 0.08265534 -0.012985662 -0.22454362 -0.16054824 -0.14380908 0.029958166 -0.10507218 0.12334724 0.16426516 -0.050750226 0.13419464 -0.074372314 -0.035803325 -0.098265894 -0.14199725 -0.028580634 -0.13189036 -0.025100678 -0.22597249 -0.13896547 -0.1968527 -0.021277785 0.006697851 -0.05150488 0.17938803 0.22317755 0.34372523 0.02269246 0.08344165 0.19366905 -0.12688403 0.112471566 0.09198749 -0.12458464 -0.02376458 0.11100304 0.055580117 -0.21916156 0.030914878 -0.10497957 -0.17274395 0.11997461 -0.061623547 -0.01672632 -0.1199628 0.066353716 0.18369387 -0.17070813 0.056738727 -0.16329075 -0.015831681 0.16767263 -0.073464744 -0.055281274 0.038134944 0.044207055 0.060760584 -0.0686908 0.10092827 -0.1023808 -0.01052057 0.2668018 -0.09072862 -0.28778735 -0.038582284 -0.10851577 0.09916887 -0.07237287 0.025556393 -0.04162839 -0.021772185 0.13608035 0.014458787 0.034695618 0.0707067 -0.052575603 0.033649504 0.051718898 -0.12988697 -0.11728541 -0.06294945 0.0002006765 -0.13409266 -0.06668708 0.18404154 0.13193612 -0.12087045 0.032078862 -0.0639442 0.20043182 0.07446937 0.14200014 0.017769465 0.06271754 -0.060445827 0.020673202 0.04276266 -0.07223271 0.07477703 -0.041157577
797 0.086346306 -0.3131576 -0.20813191 -0.022744764 -0.24302642 -0.14777625 -0.33753362 0.1981992 -0.13162325 -0.14574888 0.09976772 0.13707733 -0.2102914 -0.053329196 0.43034038 -0.13870479 0.074550934 0.27037755 -0.04012613 -0.2810932 0.17559983 0.18023674 -0.15247591 -0.11639146 -0.05618318 0.007625965 -0.22172764 -0.17798011 0.24122028 -0.3450468 -0.23843466 -0.040494394 0.0070219594 -0.025762562 -0.29876474 0.16739023 0.036248554 -0.011607447 0.0862778 0.072555155 0.22532356 0.1406531 -0.19103749 0.1553471 0.041763585 0.123441145 -0.012774206 0.036857598 0.13562383 0.06170717 0.19814296 -0.26794222 0.16985007 0.10608998 0.012988137 -0.0762423 0.10767124 0.10755573 0.12618728 0.15672891 0.014128954 -0.13571905 0.0043849084 0.0031287048 -0.20994745 0.039604083 0.0011714768 0.057476997 -0.037128907 -0.15632287 -0.008691753 -0.13918051 0.06214269 -0.0106635075 0.06095303 -0.008795356 -0.11173725 0.027984805 -0.33535483 0.00025487406 0.07850806 -0.114961274 0.0044184625 -0.09886218 -0.082135715 0.09555708 0.21297094 -0.2836697 0.09578965 0.059789527 0.20788838 -0.0032755777 -0.13915038 -0.14428832 0.32202142 0.10450102 0.014466468 0.06847798 -0.086591 -0.05858506 -0.07261766 0.13097113 -0.010966474 -0.05510119 0.082945526 -0.16049536 0.09941674 0.09415086 0.032452945 -0.21068558 0.17403857 -0.24874419 -0.08558132 0.1568526 0.052674815 -0.007529945 -0.018497987 0.3106732 0.12706247 0.097701184 0.06827984 -0.0052529867 -0.12302579 -0.13954192 0.036624204 0.005170531 -0.059876204 -0.13307595
760 -0.035838332 -0.12643453 0.03247786 -0.030860893 0.19226782 -0.17053765 0.009031289 0.0010650259 -0.09253148 0.17967583 0.1737103 0.04637235 -0.32735476 0.01326855 0.19124286 0.019761484 0.10398703 0.10817601 0.036040258 -0.18940563 0.033460837 0.07763828 -0.025345957 -0.10383744 -0.12985156 -0.11618719 -0.004725204 0.098242894 0.11374124 -0.026765604 -0.15075241 -0.002770957 0.088789806 0.09931732 -0.13182177 0.08013028 0.16142559 0.047932215 0.13040406 0.10188453 -0.030649405 0.046873286 -0.040581774 -0.20872857 -0.084544316 0.016684365 -0.12856926 0.0024052097 -0.10391261 -0.22002354 0.13333307 -0.069664694 0.023464 -0.024816623 0.0208878 0.057089526 0.051782362 0.08934354 -0.021332785 -0.0050342856 0.123454146 -0.047953315 0.15624826 -0.11898948 0.052044403 0.0031349498 -0.09833625 0.11917798 -0.06201059 0.09546383 0.032865077 0.18621047 -0.07759342 -0.3454921 -0.11080615 -0.21566372 0.15528813 0.037056156 0.07458934 0.09138892 -0.021782722 -0.010596548 -0.027603244 0.24222557 0.00011950117 -0.17824733 0.094881356 -0.040967032 0.06792612 0.35172385 0.055895388 -0.036866777 -0.014693962 -0.13225119 0.051927306 -0.14747956 -0.05110501 -0.17896186 0.05245373 -0.05563187 -0.06578035 0.00014703178 0.07659595 -0.07521717 -0.11719657 0.12814485 -0.0041667996 0.21344234 0.03300679 -0.038267 -0.18289384 -0.020428428 -0.040312655 -0.051999368 0.030618882 1.6252663e-05 0.068690814 0.17639284 -0.089117944 -0.015595914 -0.07180944 0.11615919 0.029469265 0.20992605 0.04839926 -0.102376536 0.0835626 -0.05230907
827 -0.06707746 -0.054892432 -0.0017041331 0.16320267 0.08163205 -0.025609449 -0.051290844 0.14546199 -0.23792422 0.20835295 0.19673009 0.035056353 -0.15396263 0.017474376 0.2780186 0.20495427 -0.0188502 0.049824577 -0.09703834 -0.13269907 0.1720066 0.061747566 -0.11842677 -0.19080989 0.1300646 -0.19746551 -0.059639424 0.035922803 0.27232006 0.034645386 -0.13362658 -0.036638316 0.108859874 0.06176136 -0.03732691 0.16777597 0.2544755 -0.015454158 0.14779076 0.113111004 0.090284176 0.070473574 0.032154184 0.085405484 -0.08275963 0.02339822 -0.03285755 -0.09527417 0.03657811 -0.16476987 0.16235664 -0.04921858 0.16110213 0.16317926 0.18032265 -0.07772283 0.17354016 -0.032080643 -0.05921138 -0.051301308 0.07669097 -0.07676532 0.05434488 -0.062447555 -0.046956103 -0.003236604 -0.11512825 0.050462194 -0.21377227 0.059240457 -0.003090099 0.16551803 -0.11744372 -0.07152714 0.032284815 -0.13768922 0.008646085 -0.00948625 -0.19672391 0.10562763 0.10210891 -0.07100753 0.15924102 -0.032378573 -0.17791986 -0.2242436 0.06418064 -0.026162121 -0.045661848 0.1123939 -0.06442081 -0.14609267 -0.10828572 0.25583246 0.22165085 -0.08087864 -0.040527996 -0.166333 -0.1174377 -0.091742575 0.0050748833 0.04343228 0.10324113 -0.07080868 -0.08463961 -0.049870867 0.08367236 0.15318365 -0.08121283 -0.067617044 -0.14279853 -0.03178886 -0.08463173 0.1876295 0.11118062 0.07817094 0.13206731 0.14311862 0.09319292 0.091524675 0.08429926 0.06713436 -0.042997442 0.11113157 0.0646159 -0.100497685 0.01770948 0.13929309
696 0.14334519 -0.17248319 -0.14110798 0.33461007 -0.009861936 -0.21487406 -0.029352235 0.046321418 0.021399511 0.28865576 0.088752754 -0.06490072 -0.14027186 0.27074724 0.13862042 -0.090531 0.14125544 0.07289909 -0.10250607 -0.076088935 0.17449604 0.31348178 -0.053474914 0.064792275 0.038882412 -0.31306583 0.01878579 0.0029002144 0.16199325 -0.021490546 -0.18283361 -0.06723694 0.036535587 0.12677714 -0.06821366 -0.023666933 0.26680204 0.040764313 0.15613867 -0.09103622 0.010135545 0.02872395 0.035077944 0.0034512535 -0.14301732 0.027123783 -0.20412366 0.076483645 -0.03445037 0.0077261217 -0.04479244 0.028931448 0.043838248 -0.07181828 0.16100171 0.17850299 0.03591804 -0.09632065 -0.033105694 -0.04062821 0.1330173 -0.06907546 0.17769827 0.07141883 0.087670624 -0.036236513 -0.042720698 0.1898218 -0.086158946 -0.022952309 -0.16029176 -0.05918071 -0.11667203 -0.13251837 0.08644531 -0.1368523 -0.024655797 -0.12887087 -0.09228488 0.10090995 -0.14735451 0.016371487 -0.047287848 0.04834217 -0.15859069 -0.11374669 0.1566154 0.080793 0.0978647 0.21296671 -0.0044411644 0.040630635 0.07020232 0.036128294 0.03061201 0.070413195 0.02791186 -0.11921751 0.11530397 0.16938215 -0.18280752 -0.058910243 0.017467063 0.018915782 0.055591118 0.028901724 -0.123037726 0.09497641 -0.057886034 -0.00084888074 -0.05203694 0.06821613 -0.06950646 0.1801376 -0.11367925 0.025782323 0.120602354 -0.06535239 0.07932358 0.1131822 -0.10074498 0.025476495 0.06636914 0.09866052 0.05842945 -0.009120774 0.07212488 0.082197145
727 0.026827324 -0.10566098 0.010744774 0.1831787 -0.10628639 -0.2620125 0.120945 0.2780884 -0.14247999 0.24705498 0.16780734 -0.12797321 -0.16319874 0.07673947 -0.005824983 0.077222444 0.20149009 0.07114067 -0.042342562 -0.18096837 0.049426947 0.08419536 -0.16740824 -0.19555683 -0.049744435 -0.27857193 0.047339518 0.2492999 0.028538786 -0.11097339 -0.08396033 0.025934663 -0.26211318 0.07892387 -0.2615609 0.19496667 -0.021924729 0.26083693 0.2195102 -0.17585132 0.13331066 0.0998218 0.015070727 -0.09379193 0.011382636 0.15817824 -0.18092312 0.00095687667 0.11099479 0.079642184 -0.064451456 -0.14339066 0.01496732 0.0164479 0.24746843 0.1838833 0.15919821 0.04247841 -0.1218909 6.090239e-05 0.11003502 -0.23553063 0.088224076 -0.062335256 0.0606729 0.09609442 -0.16278583 0.1582046 -0.06816386 0.0037648329 0.03817133 0.06271389 -0.12102303 -0.045101266 -0.07931977 -0.20765138 -0.17850596 0.029255679 0.05447639 0.11467054 0.11409216 0.094435 0.08547239 0.23856775 0.0029267725 -0.03751879 0.021972032 0.018718004 0.19209231 0.20570013 -0.025097597 -0.17079225 0.017441824 0.159044 0.08567888 -0.0069522094 -0.07693184 -0.071027465 0.026591616 -0.107535005 -0.1442698 0.340606 0.010431404 -0.11168522 -0.02769997 0.031472 -0.051407516 0.030835485 0.00937733 -0.12331733 -0.17180906 -0.15598628 -0.1369251 0.08617082 -0.0049336907 -0.05810915 0.0792387 0.12299154 -0.096010424 -0.17998986 0.05757572 0.023593877 0.055676915 0.15032585 0.016030423 0.09783398 0.17701805 0.19004594
800 0.05509334 -0.18358767 0.118368834 0.09816874 0.17035897 -0.097396396 -0.017444748 -0.010425857 -0.18618408 0.07050188 0.2619894 -0.22023769 -0.24676274 -0.17026037 0.1405608 -0.093551405 -0.06664082 0.112786904 -0.014751006 -0.13894625 -0.0057021384 0.09690471 -0.15932448 -0.04043638 0.017948423 -0.23623627 0.03422945 -0.03675877 0.051936086 -0.053946737 -0.18761502 -0.093492076 -0.09002767 0.1688262 -0.18318613 -0.018594712 0.19178624 0.24115814 0.26248163 -0.009023667 0.046029557 0.010358544 0.04477619 -0.115260296 -0.19105504 0.013544889 -0.1393232 -0.15626663 0.17641617 -0.069578245 0.31955552 -0.19579607 -0.11290006 0.08670326 0.017464159 -0.23365362 -0.011956992 -0.0027696604 -0.002472044 0.043448992 0.054785453 -0.14090598 0.11996504 -0.018339599 0.19994515 0.036944825 -0.22270109 0.123894826 -0.11345038 -0.1866676 -0.24003136 0.014099869 -0.15184614 -0.052836183 0.0996143 -0.23380475 0.27735257 0.023880003 -0.0454138 0.08045637 -0.124868646 -0.020791467 -0.013733676 0.010383597 0.054616895 -0.22431095 0.23378064 0.021936012 -0.036831275 0.12924275 -0.23940465 0.04415563 0.0016221871 -0.03160054 0.16433457 -0.056733456 0.10099576 -0.22495903 0.07520553 -0.13800605 -0.031534567 0.12012983 -0.0030245872 0.012391049 -0.10214508 0.122498415 -0.08632393 -0.030160291 0.07796498 -0.16340709 -0.10145447 -0.045030233 -0.056036532 0.08867583 -0.14048469 -0.028669717 -0.00988644 0.07531379 -0.0057722023 0.033677958 -0.04250165 0.07885368 0.05241735 0.0160401 0.18417798 0.08700596 0.082295775 0.19941662
687 0.08206733 -0.13717158 -0.066144705 0.18787228 -0.020020355 -0.103760034 -0.2782081 0.01928688 -0.18276882 -0.027336987 -0.0033731337 -0.16612591 -0.296048 0.14645886 0.16624005 0.22306152 0.19891673 0.07239586 -0.254397 0.0070976065 0.14099696 0.4101618 0.039166216 -0.024859566 0.0203189 -0.22516677 -0.086059496 0.042683337 0.14702715 -0.15091978 -0.38681653 0.023896478 0.22394142 0.19771124 -0.27593866 -0.12556484 0.2890247 -0.04505432 0.24647892 0.091246806 0.03763329 -0.06112438 -0.027627354 0.008126101 -0.14032306 0.045723524 0.10596243 0.012311848 0.18551138 0.015418569 0.080086954 -0.09335397 0.021854421 -0.12242309 0.03612049 0.03442506 0.22265716 0.06102351 -0.040136505 -0.07335872 0.08182642 -0.026887044 -0.12674482 -0.10545447 -0.008009911 0.059909943 -0.032247685 0.20995021 -0.13885987 -0.20354103 -0.08386027 0.010051771 -0.25968757 -0.19970533 0.15942116 -0.11467388 -0.03839244 -0.04701512 -0.23400593 -0.10791992 0.03225766 0.16093762 0.2188091 -0.1229034 -0.0770637 0.22914855 -0.14663623 -0.050292775 0.02315521 0.05550198 0.0039931275 -0.201849 -0.047306795 -0.11325413 0.027067114 -0.010751709 0.050115786 0.17637527 0.14996444 -0.028476903 0.2278396 -0.12973322 0.02709968 0.03157486 0.06998288 -0.070841536 -0.009623286 0.062173814 -0.03790442 0.033182316 -0.24676186 -0.032072596 -0.08944372 0.05141559 -0.20400839 -0.123445705 0.13934055 0.090799086 0.06525001 0.025662096 -0.06640661 0.00153244 -0.057214428 0.15331444 0.117811 0.14286369 -0.22263667 0.19354798
856 -0.06324593 -0.2570336 -0.046897154 0.14530261 0.15945993 -0.19489162 -0.24848911 0.07726516 -0.11113671 0.0030516284 -0.046951946 -0.3381278 -0.2919159 -0.0767152 0.34089062 0.19573414 -0.07941979 0.24817467 -0.18337902 -0.21793917 0.09292481 0.029309185 0.20666711 -0.40605003 0.10467574 -0.05995785 -0.1619229 0.12015206 0.096495554 -0.10285777 -0.15809822 0.030013787 -0.0030079952 0.08573566 -0.056795362 -0.21688865 -0.0032625624 -0.014014771 0.20943658 -0.039485287 -0.014878167 -0.08923922 -0.1220667 0.0066707516 -0.017174052 -0.008133623 0.08351202 -0.117693596 0.10848286 0.008359748 0.009184132 -0.09038946 0.07889606 -0.0006360011 0.04037767 -0.06697042 0.18976808 0.14829412 -0.15358004 -0.009678485 0.1270289 -0.023750046 -0.025887437 0.010647465 -0.065068595 0.17533712 0.12405739 0.07890198 -0.0008567103 -0.09364809 0.0005764677 -0.16997342 -0.16837727 -0.23970738 0.01876255 -0.20150541 0.07349091 0.17213646 -0.16652547 -0.06180341 -0.116378814 0.057411604 0.09414319 -0.07162862 -0.012956835 -0.051663086 0.17568724 -0.036366988 -0.12387143 0.08171633 -0.24301443 -0.09966869 -0.016488424 -0.07201671 -0.01132099 -0.10198772 -0.0368783 -0.11526724 -0.07888304 0.034425784 0.11967015 -0.009128296 -0.09437963 0.106155984 -0.116609566 0.14143665 -0.09632876 -0.015730154 0.33058417 0.0052572633 -0.2965065 -0.0062454473 -0.007119289 0.17454307 -0.24970055 0.2399176 0.047786713 0.21638927 0.37266767 0.06565466 -0.17631134 0.12801361 0.032217175 0.25937936 0.070774 0.059102885 -0.24648035 0.12795176
697 0.04330157 -0.37620214 0.0012301422 0.086074 0.116814904 -0.34682 -0.113025054 0.050276894 0.026425758 0.051302057 -0.1753883 -0.27471077 -0.124971494 0.031114439 0.52839154 0.09921879 -0.25296044 0.14521287 0.1601374 -0.17063606 -0.022847889 0.12517695 -0.09383347 -0.17862697 0.16230817 -0.2241699 -0.04743463 0.19241518 0.1332714 0.10912063 -0.12424866 -0.024225116 -0.010518292 0.34867564 -0.1179866 -0.042424984 0.28680858 0.17852862 0.095717885 -0.040973578 -0.0797968 -0.14267954 0.18273698 0.051054616 0.013345959 0.0836475 -0.102639645 0.04074265 -0.21274598 -0.08802958 0.122302406 -0.26846102 -0.026202148 -0.0115247 0.10827688 -0.060447253 0.034786616 -0.013156893 -0.22471474 -0.023098376 -0.0778335 0.035654787 0.027944012 -0.07524767 0.034568958 -0.07400184 -0.30039355 -0.03800763 0.09567067 -0.009633348 0.06380344 0.029762428 -0.10885018 -0.17941137 0.026807962 -0.05883944 0.062292483 0.0745105 -0.09646154 -0.061243113 -0.05144999 0.10653704 0.00808528 0.0550335 0.0007427998 -0.15617119 0.17698488 -0.022550926 -0.052016 0.06631539 -0.15242752 -0.02922675 0.15959102 0.024213081 -0.0021301827 -0.04594081 -0.049737543 -0.19567439 -0.039850812 -0.19822921 -0.09501736 0.08437387 0.018182922 -0.018984277 0.03239882 0.07927154 0.028389884 -0.021294218 0.09533559 -0.036639057 -0.045475923 -0.011128228 0.10953996 0.20328332 -0.08959949 0.086015485 0.11918072 -0.054054152 0.18919997 -0.049164206 -0.18606314 -0.07551172 -0.07541311 0.10498421 0.013008376 0.20715983 0.005444874 0.026687564
840 0.13394743 -0.36206704 0.1050808 0.13603109 0.04981506 -0.13938206 -0.056022648 0.03206007 -0.28185052 -0.045132536 0.14555694 -0.3206892 -0.24749126 -0.093663335 0.20326681 0.12812756 -0.014637524 0.071646966 0.17987183 -0.18276025 -0.007994937 0.24816613 -0.21787906 -0.1605715 -0.053185605 -0.0777991 0.15202883 0.010065272 0.08451641 -0.09403448 -0.24449666 -0.21317476 -0.00032530376 -0.01987818 0.116530284 -0.23169787 0.12379217 0.11032587 -0.020743314 -0.025078984 -0.14272085 -0.0028891668 0.200139 -0.0015099762 -0.067577735 0.019886982 0.1083244 0.009324147 -0.08573062 0.14221857 0.100147136 -0.10632152 0.16273233 -0.22567181 0.20044787 0.08170748 0.08912468 0.01805451 -0.058504086 0.02445527 0.10659194 -0.120829575 0.077336505 -0.058054414 -0.00750517 -0.21330227 -0.0069288514 0.17860812 -0.16950652 0.04293619 -0.12249367 -0.001360142 -0.047289416 -0.0852135 -0.2125966 -0.12479744 0.034854524 0.0633819 -0.1237244 -0.17705752 -0.14893693 0.17124714 -0.023478623 -0.12578782 -0.05851622 0.061781995 0.07623691 0.21869206 -0.06478058 0.11593852 0.06492159 -0.18689217 0.09823898 0.13533685 0.11909033 -0.016384996 -0.08610793 -0.29246512 -0.09871747 0.0026416937 -0.16517647 -0.039642423 0.025232377 0.049212888 0.032526866 0.064125314 -0.15418169 0.1495846 0.30468732 -0.13969643 -0.03331999 0.07795306 0.075204685 0.09882679 -0.12350936 -0.14628232 0.20334478 0.08092471 -0.089247346 -0.009959632 -0.17187308 -0.010796689 -0.03488565 0.08107715 0.06965853 0.117797926 0.051029094 0.0028538639
738 0.0127441175 -0.2623066 0.09447412 0.20183225 0.19056393 -0.34084493 0.016242428 0.20001766 0.028253023 0.41405386 0.21600065 -0.1361355 0.024056382 0.034852386 0.10081374 0.00014663838 -0.038660675 -0.04903305 -0.0601199 -0.11682257 0.0010547854 0.057364732 -0.0035672581 0.039287563 -0.23285325 -0.25670984 -0.056184594 0.21038778 -0.0037528586 0.06493671 -0.2091694 -0.023889134 0.115748025 0.21865854 -0.0511619 0.17878182 0.101156846 0.06388729 0.124177866 0.045186773 -0.07543363 -0.2339711 -0.06433991 -0.19968446 -0.01906565 -0.07978663 -0.17582211 -0.032236263 0.16132557 -0.26892653 0.19644281 -0.05412582 0.04127938 -0.121170275 -0.0681935 0.052483372 0.03232995 -0.08923715 0.032730564 0.08773603 0.15417519 -0.25097257 -0.002672306 0.077016145 -0.09143299 -0.15008081 0.029428761 -0.0074007213 0.039318573 0.14005424 -0.02263238 0.121070646 0.11494507 -0.067341596 0.14302194 -0.18670312 -0.009283821 -0.015394445 -0.09023655 0.14916241 -0.21516019 -0.19116202 0.21917397 0.1774889 0.032067604 0.11257307 0.26709536 -0.06498226 0.11490222 0.25629792 -0.14048849 0.07007952 -0.036108166 -0.008244951 0.11157601 -0.1944942 0.08804007 -0.21507083 0.047854118 0.16390693 -0.0692119 -0.04099658 -0.019740297 -0.21872531 -0.17817917 -0.038594525 -0.17686968 0.24465868 -0.15594217 -0.015412022 0.011459399 0.17995793 0.122593224 -0.034126043 -0.023280201 -0.06183134 0.0019593197 0.35882938 0.051069055 -0.15810373 0.074151054 0.22772206 0.0077281427 0.029863615 0.012494941 -0.16193202 -0.0043567247 0.08913422
823 0.13622348 -0.23128366 0.084550396 0.13700813 0.001300222 -0.10545039 -0.10978429 0.03241015 -0.12127066 0.2351256 0.07428804 -0.2092377 -0.2500097 0.044618968 0.37210852 0.1525166 0.054701384 -0.002191857 0.048651643 0.01730462 0.10404467 0.1551305 -0.16317992 0.008576768 -0.060941722 -0.14061801 -0.13857466 0.30157998 -0.08060366 -0.1371172 -0.24905957 -0.16098677 -0.06982897 0.0072491677 -0.05090652 -0.04445324 0.1387225 0.052561227 0.19579291 -0.049283385 0.05429628 -0.1684367 0.028947417 -0.110957004 -0.13384113 -0.16068816 -0.008046594 -0.13972224 -0.084836476 -0.0061065396 0.15958023 0.05098801 0.034058202 -0.06317266 0.13853693 0.03329296 0.16298668 0.061726563 -0.11390169 -0.02854583 -0.0054957755 -0.05536088 -0.09056546 -0.099166 0.046043642 0.06852077 -0.065652154 0.04059575 -0.13692845 -0.12433624 -0.018251603 -0.13918935 -0.12401076 -0.067235336 0.0674934 -0.12154495 -0.14175852 -0.017694889 -0.15631883 -0.13343585 0.024507508 0.021874756 -0.0014662484 0.0007760416 -0.08693332 -0.07556603 0.24761793 0.033337515 -0.15119925 0.23259705 -0.23911586 0.005398287 -0.012741438 0.097302854 0.019990642 -0.06806502 0.012263158 -0.17715885 0.04657112 -0.025738858 -0.053392213 -0.08652837 -0.04702172 -0.018155795 0.006980409 -0.019980384 -0.12287058 0.12613939 0.02913173 -0.34410837 -0.12118457 0.04575238 -0.08873842 0.040519275 -0.09600027 0.11145103 0.14341275 0.30591565 -0.04607763 0.015976546 -0.022970589 -0.032422364 -0.18399292 0.06588545 -0.083198376 -0.054945193 0.010462495 0.03374483
812 -0.16152693 -0.38750768 0.44003394 0.14126873 0.10121866 0.3071881 -0.13365693 0.15632619 -0.18037668 0.055794977 0.043378003 -0.020910457 0.02975183 -0.037443865 0.18343808 -0.14372905 0.04601519 0.019925218 0.11612412 -0.13787563 0.038672727 -8.822545e-05 -0.02444405 -0.12615174 -0.15374927 -0.26210156 0.15285975 0.08053267 0.009454328 -0.040167145 -0.44073045 0.051076997 0.018788671 -0.07850839 -0.35810155 -0.070946 0.13257277 -0.051140737 -0.113358974 0.0958141 -0.17313547 -0.12538834 0.098760195 0.07197323 0.10910217 0.13030295 -0.27155134 -0.01676468 -0.2362078 -0.24770531 0.030033454 -0.02797853 -0.034125566 0.11993837 0.14624804 0.020660957 0.046326607 -0.07242135 -0.10713777 0.16737537 -0.04640984 -0.18518625 0.30823782 -0.17987604 -0.100495756 -0.036209967 -0.18374911 0.11431036 -0.08628635 -0.14872469 0.2881807 0.07563174 -0.27556175 -0.18016161 0.09362426 -0.12644665 -0.18431158 -0.2267466 0.03266023 -0.05733364 -0.35157412 -0.0138299875 -0.15300338 0.158674 -0.020018706 -0.06835702 0.17136349 0.20017958 0.1128264 -0.059537232 0.06944838 -0.09687162 -0.20801401 -0.20332773 0.23251727 0.13465792 -0.20146488 -0.122650124 -0.18529178 0.20902993 0.10962064 0.037978392 0.22999468 -0.2572845 0.05696014 0.12495644 -0.07959524 -0.06358337 0.11789427 0.04809458 -0.13006078 0.013511665 0.03273409 0.021121673 -0.08139028 0.3281867 0.045466263 0.18466122 -0.15667935 -0.1037071 0.08162115 -0.009950957 -0.02696393 0.14163123 0.014670373 -0.17772934 0.020278363 0.06966229
820 0.057740465 -0.049581915 0.029588211 0.17240688 -0.033828635 -0.09083991 -0.11570578 0.038409498 -0.16484834 0.19275023 0.09110989 0.14934264 -0.15836242 0.04457808 0.3799272 0.085805796 0.057947602 0.16047816 0.018838597 -0.13656898 0.12708645 0.23414618 -0.35273436 -0.0063720024 -0.14978254 -0.1898294 -0.06726713 0.069662236 0.0013577772 0.018036084 -0.19280228 -0.06988908 -0.042310555 0.015409485 -0.113276735 0.108255476 0.017400483 0.10398432 0.11971748 0.0015560697 0.011043661 0.07518303 -0.09513113 0.11864468 -0.05567758 -0.024141438 -0.13819976 0.106655344 0.1720385 0.12729526 0.097882904 -0.1593504 0.20258717 0.046022527 0.30126777 -0.023203656 0.14307216 0.14472422 -0.08216019 -0.080502205 -0.12567997 -0.10993334 0.09926551 0.07431965 0.07063825 -0.074550696 -0.053233877 0.036529124 -0.093649216 -0.10927402 -0.025357375 0.08098169 0.05664405 -0.085942626 0.117504165 -0.042523596 0.04984205 0.037855115 -0.020648655 0.032020044 -0.1377531 0.07646138 -0.012249406 0.050147407 -0.026163632 -0.07679112 0.21856101 0.05051032 -0.0176939 0.14737372 0.10514343 -0.09739287 -0.008084605 -0.13086714 0.14859581 0.12541837 0.1074533 0.018283915 0.16612963 -0.009495473 -0.1017245 0.06832416 0.01817168 0.00804405 0.08071875 0.061714232 -0.14240149 0.23156747 -0.016809557 0.020187963 -0.12326654 -0.013113408 -0.111416094 0.20598559 -0.07829391 -0.028670311 0.07938112 0.18141098 0.26852012 0.092506535 0.21626487 0.049310833 -0.0022259972 0.00058973354 0.072682954 -0.105542906 -0.07651135 0.099783994
731 -0.13079277 0.061677493 0.07582275 0.12856364 0.16119789 -0.21955566 0.16276774 0.0182503 -0.086514875 0.1379269 0.2688494 -0.02864544 -0.059059173 -0.0900633 0.12181837 0.017005036 0.0490272 0.048530642 0.08474793 -0.104850166 0.15446849 -0.077824116 -0.17284416 -0.12795866 0.040833402 -0.08753375 -0.11553225 0.19241348 0.23436864 0.0014782628 -0.17399643 0.061649654 -0.113779016 0.04838656 -0.21240626 0.042993333 0.2224159 0.22737359 0.28717738 0.024735086 -0.06200121 -0.1716356 -0.0009300663 -0.07458825 0.029912077 -0.115317605 -0.18222298 -0.12442021 -0.03834158 -0.015723608 0.15443493 -0.11331593 0.23650566 0.004029993 0.09414302 0.04215089 0.11112155 0.15902366 -0.23068124 0.10517593 -0.06914834 -0.17559887 0.019134022 -0.2202521 -0.03243574 -0.05942065 0.0744613 0.07303155 -0.2504979 0.042923905 -0.094643906 0.15667984 -0.240114 -0.14254028 0.06943726 -0.25977543 -0.016005507 0.07042098 0.06008982 0.073635034 -0.10105629 0.0009699017 -0.11347694 0.095046215 0.08928829 -0.10456357 0.17433408 -0.15898284 -0.032836445 0.21075405 0.048703983 -0.16334549 -0.055522528 -0.067995094 0.08311695 -0.027906703 0.09451925 -0.052587505 -0.14698932 0.19030201 -0.12942712 0.13545619 0.06847286 -0.17140827 -0.057512466 0.13532935 -0.034145154 -0.07795848 -0.053527504 -0.06872272 -0.2154918 0.0036092494 0.07146215 0.09583899 -0.018928342 -0.08307057 -0.00092732004 0.23280187 -0.020748725 0.17197765 -0.07379795 0.18053825 -0.08835538 -0.09796701 0.19957167 -0.0075564934 0.09875035 -0.05294928
778 -0.06383067 -0.23800942 0.17761053 0.0009705461 0.15562162 -0.1283424 0.0047822096 0.14718787 -0.15238245 0.03883743 0.24725762 -0.13563818 -0.39368767 0.106223434 0.27990925 -0.060356576 0.04947543 -0.0120791225 -0.022598553 0.067883484 0.20695242 0.08619703 -0.051137216 -0.10907393 0.011635068 -0.32711634 0.11480945 0.27250353 -0.04878213 0.22180538 -0.18654567 0.09370989 0.14581773 0.18555142 -0.22985396 0.19172111 0.06269053 -0.14789687 0.0365355 0.2609709 0.13621755 -0.10301328 0.023850698 0.024865635 0.029127173 0.033145763 -0.17926525 0.04239579 -0.23101987 -0.17287809 -0.22742178 0.06273333 -0.06758725 -0.05798522 0.026290543 0.047939505 -0.12047647 0.020234073 -0.12110556 -0.0028373168 -0.0594044 0.067351334 0.027753903 -0.009336682 0.09538237 0.018152714 -0.21045491 0.06136601 -0.10524469 -0.08751543 0.15092263 0.06082109 -0.07455235 -0.014199193 0.10898319 -0.075566664 0.028031267 0.032813795 0.00093051884 -0.1880773 -0.1190995 0.20442833 0.042786714 0.088369705 -0.0098057855 0.042478077 0.2580404 0.016269624 -0.005293221 0.2947149 0.14483961 -0.07341672 -0.049799576 -0.15021023 0.2583039 0.017131694 -0.24893844 -0.25102732 -0.072887965 -0.095286086 -0.02461245 0.10525857 0.05304007 0.03038121 0.13920575 0.07418896 0.115585275 -0.05633837 0.1056546 0.010112806 -0.065336 0.028216166 0.10860133 0.21469049 -0.0006087852 0.18357131 0.12950294 0.2880678 -0.048335254 0.021468954 0.14249505 0.12574282 7.7301374e-05 0.16259803 -0.07847699 0.0011612539 0.110766865 0.10979362
701 0.07635803 -0.34490594 0.16595507 0.31607205 0.004196159 -0.19964144 0.02073107 -0.050489247 0.014365759 -0.078481965 -0.014738748 -0.12976573 -0.21877351 0.07834895 0.080134206 0.008082094 0.13060585 0.15210424 -0.024888752 0.12725274 0.299292 0.10263726 -0.27649957 0.15533099 0.046840806 -0.047662634 -0.11605502 0.055771876 0.1875034 -0.014900689 -0.37551326 -0.054011423 0.14457068 0.167132 0.030304745 0.13850167 -0.06348219 0.04262589 0.1941312 -0.029306294 0.06953256 0.16692577 0.022941936 0.07257097 -0.0501307 0.06947661 -0.12994868 0.031608697 -0.13110153 -0.11297323 0.10914119 0.09473537 0.031210786 -0.22262987 0.01717339 0.014279721 0.21553534 0.06386505 0.1503693 -0.06022088 0.15812162 -0.11351461 0.01926488 0.049549066 0.06806832 -0.01160209 -0.14326228 0.018985255 -0.17566419 -0.00656536 0.0056861816 0.00031149064 -0.14754283 -0.11513391 0.16223876 -0.26571253 0.12921898 -0.027800584 0.04974465 -0.06597841 -0.19196054 -0.10160919 -0.13499212 -0.024752267 0.076745965 0.0004263536 0.05096607 0.056694176 -0.06120212 0.23129287 -0.0033300892 -0.13352416 -0.041957993 0.014680801 0.1608676 0.016140977 -0.024895238 -0.15672025 0.057581153 0.08991687 -0.00454197 -0.053734846 -0.027684396 -0.040581264 0.057028927 0.083068036 -0.07321032 -0.019487211 0.18723534 -0.0823858 -0.2475512 0.0074964925 -0.077994004 0.16293891 -0.31038564 0.17240411 0.078326605 0.21711212 0.060637146 -0.058868323 0.04463697 0.08382654 0.23748682 0.25118 0.16103119 -0.029144773 0.003171015 0.16676567
819 -0.056734353 -0.44084373 -0.044809483 0.24375936 0.03818194 -0.20247124 -0.18859619 0.04385048 0.05560332 0.10773246 0.08968139 -0.16359359 -0.09872969 0.027846295 0.34009033 0.109282054 -0.20516254 0.109277345 -0.044324815 -0.2133349 0.21170014 0.068059176 -0.012897958 0.0179241 0.028875826 0.009430436 -0.21431838 -0.011255619 0.09985983 -0.046150737 -0.29000816 -0.13368581 0.031023817 0.1522046 -0.07154604 -0.27643505 0.059691425 -0.09570912 0.12870058 -0.09115736 -0.05848812 -0.038678464 0.018192716 -0.09778343 -0.040266763 0.01936616 0.0065880436 0.07980967 -0.048532892 0.07148831 -0.010266358 -0.23524025 0.05908259 -0.06487954 0.16242576 -0.0056897276 0.25300172 -0.0038260678 -0.15039666 0.004321124 0.12936117 0.042691216 -0.14499383 0.015462254 0.029515754 -0.01636616 -0.00397236 0.12071733 -0.040211134 -0.04918661 -0.08671802 -0.017158011 -0.27145606 -0.057085257 -0.1292875 -0.13918293 0.123802945 0.10663538 -0.17227694 -0.17203748 -0.15718856 0.10304795 0.05579639 -0.13364004 0.057360224 -0.15204287 0.19947633 -0.043130342 -0.11762388 0.018332856 -0.25259745 -0.1664609 -0.0054621883 -0.03956766 0.16503952 -0.1294908 -0.17316447 -0.13128863 0.12915193 -0.12824309 -0.21146499 0.11144514 -0.12351103 0.02970048 -0.20419973 0.1264296 -0.032002546 0.08829419 0.077732176 0.020101469 -0.21371247 -0.071041174 -0.09228802 0.15424192 -0.16559872 -0.03440727 0.0059855157 -0.09702433 0.077057935 0.15607665 -0.0047529945 -0.10297257 -0.027147837 -0.009034815 0.06419073 -0.039456245 -0.013332887 -0.079294726
780 0.069277816 -0.28662503 0.18092592 -0.018423937 -0.100706995 -0.27483568 -0.07829276 -0.013300308 -0.22577801 0.075179175 0.029108772 -0.12962802 -0.20664164 0.03134515 0.30647197 0.021314345 0.18871206 0.032516826 -0.033605333 0.077943906 0.19544308 0.1252928 -0.20908646 0.092282556 -0.007820897 -0.22280341 -0.09287113 0.20602457 -0.039099205 -0.16768162 -0.17730394 0.1000923 -0.019638417 0.17819001 -0.07135362 0.030959887 0.067515746 0.03128414 0.16206017 -0.07243685 0.17151166 -0.046915527 0.097365 -0.0053986176 0.07109163 0.045005992 0.070532784 0.072658 -0.19649275 -0.09360727 0.08179079 0.018848423 0.0010633975 -0.18573338 0.006574163 0.1780424 0.27861628 0.060016662 -0.0056677163 -0.037790157 0.0034262962 -0.1666414 -0.056595143 -0.07068967 0.022892958 0.044577323 -0.030969054 0.04344487 0.069513254 -0.14543492 -0.02427909 -0.032570034 -0.048481498 -0.09513306 0.065688595 -0.21644 0.093899876 0.31712952 -0.048985083 -0.00082124124 -0.12616621 0.16398388 -0.07702168 -0.05263426 -0.07309389 0.019462373 0.18459566 0.13929823 -0.018117012 0.24976988 -0.010065123 -0.102166645 0.069915876 0.071398236 -0.11071748 0.21250005 -0.15585417 -0.110367924 0.12778614 -0.062054496 -0.07577274 -0.07357826 0.011816454 0.08954004 -0.046996575 0.11074837 -0.026324892 0.24668069 0.10118947 -0.12454145 -0.08112074 -0.02775749 0.009978171 0.14387329 -0.14396058 -0.07778187 0.20052466 -0.0008838416 -0.007731902 -0.014619276 -0.08532996 -0.11321859 -0.09288496 0.1844602 0.1089892 0.006385561 0.021731703 0.1423616
703 0.1940125 -0.32752824 0.07590334 0.020665232 -0.17947099 0.04122807 -0.21822558 -0.067545086 -0.26137602 -0.09568536 0.02248783 0.12862983 -0.12316431 -0.1410215 0.27340266 0.0041552386 0.079507485 0.079628386 0.0012907053 -0.09123289 0.16060223 0.21590026 0.11837452 -0.062733866 -0.028340075 -0.08193815 -0.23187013 0.013696921 0.18752721 -0.3309268 -0.28437823 0.02408636 0.051345795 -0.0667268 -0.15325731 -0.012884137 0.21187402 0.06772727 0.24419563 -0.07171632 0.08656745 0.08194986 0.14111824 0.00029203197 -0.074996136 -0.040794622 0.03158762 0.07084401 -0.0028543575 -0.05164234 0.0061660884 -0.26615885 0.0743967 0.034087326 0.07805425 0.024557661 -0.023903655 0.18222448 0.00030807097 0.22018538 -0.029567061 -0.02193522 0.025970561 -0.05064789 0.0052256626 0.08675731 -0.003388125 0.1462397 0.009036734 -0.16916358 0.025527302 -0.021197734 0.06066524 -0.042399935 0.037530743 -0.02273624 -0.027731607 0.028035179 -0.23170684 -0.055840895 -0.01825416 0.0024203167 0.11604122 0.013191492 -0.1192766 0.040762078 0.19397783 -0.0873624 -0.085627094 0.1046334 -0.020040844 -0.29210293 -0.14638361 -0.168332 0.23076534 0.049943622 0.14703025 -0.1045479 -0.047832225 -0.022987077 -0.0035472068 0.06752329 -0.2231876 0.013564868 0.096306995 -0.12690684 0.15409997 0.23700559 0.07006508 -0.4149531 0.057020787 -0.023270579 0.0025294113 0.16262321 0.13091192 -0.0754383 -0.020038377 0.097629376 -0.028204862 0.102033034 -0.2089829 0.15133543 -0.026940884 -0.034838848 0.13135347 -0.097496524 0.025069647 -0.057961386
698 -0.09149161 -0.3712647 -0.041042026 0.18825828 0.18829134 -0.3338967 -0.17276801 -0.17007242 0.0706256 -0.01003417 -0.10707558 -0.10274857 -0.2814394 -0.11518143 0.30172125 0.012927344 -0.29192936 -0.087674685 0.023596188 0.13270037 -0.13317047 0.11996467 -0.03252158 -0.1293047 0.10705666 -0.023848811 -0.05598934 0.08372605 0.17271885 -0.3969013 0.2035149 -0.05624483 -0.10888506 0.14239554 -0.26866558 -0.055777106 0.13839497 0.13649851 -0.038150802 0.031442348 -0.08372708 -0.08591724 -0.012369794 -0.07535241 0.13879068 -0.13812037 -0.14857283 -0.15630804 0.20032825 0.066378966 0.1531658 -0.19599696 -0.17727587 0.08859057 0.13851781 -0.04220898 0.07488536 -0.0003156184 -0.15838867 0.0689475 0.33543706 -0.016329939 0.15970647 -0.15348417 0.06255735 0.24661112 0.07955484 0.14100637 0.089941695 -0.15340792 -0.03587558 0.10728076 -0.030047491 -0.11530441 0.18660417 -0.16809812 -0.0812603 0.34428388 -0.15306255 -0.03229784 0.0034197427 0.23239468 0.16597074 0.111333884 -0.048372652 -0.18529001 0.24066141 -0.031862486 -0.22351618 0.27066296 -0.14458142 -0.0046193893 -0.10082003 -0.21003284 0.16786507 -0.05323691 0.15049756 0.011191191 -0.012118999 0.048410784 0.2817697 -0.04907485 0.022108328 0.07149426 -0.009075077 0.2997477 -0.16328144 0.017334875 0.36616674 0.07341592 -0.15741695 -0.13805872 0.12657107 0.48343694 -0.32463017 0.005495575 0.07099441 -0.052503776 0.15948224 0.015796313 -0.15810572 0.20258985 0.2555048 -0.1831769 0.17543444 0.1714024 -0.012524055 -0.061760314
815 0.16594176 -0.13612619 0.1206167 0.0932269 0.11585989 -0.18855087 0.04470322 0.099645816 -0.28975272 0.029571649 0.1047862 -0.09611558 -0.3352417 0.24768415 0.34125927 0.052816425 -0.097346395 0.19058026 -0.05729108 0.16758679 0.20363027 0.13958345 -0.06514546 -0.08705871 -0.06288221 -0.15558542 -0.13076164 0.0055215214 0.28927204 -0.22916414 -0.25418958 -0.069691755 -0.027945196 0.09655162 -0.07320372 -0.07810066 0.15585686 0.18032359 0.121231325 0.07394186 0.033574246 -0.119638205 -0.059005536 0.098727114 0.10345306 -0.030915713 -0.055539615 -0.06835998 0.043622114 0.020004615 0.060668092 -0.03359361 -0.00054930575 0.07058002 0.25875738 -0.07323684 0.22800086 -0.08186852 -0.15093482 0.15591414 0.06927345 -0.20962666 0.06750049 -0.06486125 -0.08695874 -0.061299726 -0.045823444 0.06284589 0.03506878 -0.05935221 0.027197225 0.2209384 -0.21216156 -0.11430444 -0.08648849 -0.15145755 -0.013026421 0.04722562 0.019300533 0.048220206 0.010299858 0.025457459 0.052971333 -0.17833973 0.10518779 0.11044496 0.050686736 0.18729328 0.12104851 0.03822027 0.06878168 0.038216453 -0.12236951 0.08764713 0.00031343132 -0.036616925 -0.045850452 -0.12527764 -0.039922867 0.2561096 -0.13129416 0.015079858 0.014104141 -0.070764825 -0.08844952 0.07001213 -0.22508724 0.030268703 -0.096953735 -0.08512334 -0.020011524 -0.047600284 -0.05862729 0.1733772 -0.021130057 0.05254502 0.029392613 0.10748199 0.09143273 0.11878377 0.14733405 -0.09136568 -0.011548233 0.046749778 0.15984444 -0.15545419 0.14756645 0.19356254
733 -0.12016569 -0.047097795 -0.07169583 0.17296742 0.07445898 -0.12924348 0.10876382 -0.13519442 -0.09777826 0.17155732 -0.09097205 -0.0006316424 -0.06706105 0.26717773 -0.02805186 -0.026339104 -0.037325338 0.10120525 0.0035260033 0.22109759 0.18561171 0.1827703 -0.11563649 -0.21467759 -0.19297636 -0.11761406 0.10191493 0.14559968 0.027690047 -0.1627981 0.024244554 -0.29827917 0.25104648 0.48626864 -0.14738777 0.12941997 0.12682255 -0.102985166 0.11414177 0.24258137 -0.20378706 -0.06780125 0.10831392 -0.14751154 -0.15931931 0.20619816 -0.24215172 0.1515598 -0.042649526 0.046587728 -0.09223584 0.00063308224 0.6282573 0.10834627 0.087282926 0.14242078 0.21483867 -0.23400041 -0.016143307 0.08881641 0.20013322 0.12807824 0.06642576 -0.23550007 0.070045605 0.16127661 0.33580557 -0.08783134 0.045626152 0.12063237 -0.35704228 0.07567413 -0.012285265 -0.00013245232 0.08723932 0.05961273 -0.15452054 -0.26996914 -0.013108384 0.41299728 -0.1641234 -0.14192905 -0.118906245 0.22802146 0.2905448 -0.26668397 0.13826098 -0.14104351 -0.075912006 0.12773986 0.038167913 -0.08528445 0.14708678 -0.30256575 0.10282729 0.47478878 -0.19287995 0.11174631 0.10204939 0.07632745 -0.20102006 0.06744005 -0.06899142 -0.2418216 -0.1415494 -0.019413643 -0.033131577 0.21566637 -0.059535388 0.23718683 0.044758607 -0.108593 0.07574595 -0.18094449 -0.0396282 -0.12138669 0.0009347776 0.1504386 -0.07671915 -0.23421767 -0.26613626 0.07871039 0.032245494 -0.11670277 0.096869424 0.1319954 -0.100796945 0.21380092
723 0.021202717 -0.23606193 0.06606404 0.21527879 0.07592553 -0.100923054 0.05270403 0.16532445 -0.22685644 0.01439114 0.16159311 -0.034581084 -0.15056448 0.13557872 0.15433195 0.10547006 -0.0027449876 0.21618627 -0.13531713 -0.06483909 0.30503762 0.14864366 -0.21133025 -0.28042156 -0.08695531 -0.17707625 -0.20479362 0.10826159 -0.024560843 -0.086570986 0.05422161 -0.0017473671 0.14041156 0.014172285 -0.10697549 0.00048715848 0.11434264 0.051587474 0.23735777 -0.17203729 0.053865615 0.116082616 -0.06045747 -0.03715703 0.15175265 0.07721573 -0.105808854 0.06790111 -0.12872094 -0.050231464 -0.04126743 -0.18983814 -0.10639407 0.10563522 0.056856785 0.06127445 -0.04844717 0.058030404 0.050978016 -0.18635757 -0.017529635 -0.0626239 0.10623348 0.08752334 -0.06862024 0.09334068 -0.15731212 0.065091304 -0.083911546 0.06885254 -0.10764052 -0.064196564 -0.32189414 0.058970615 -0.04398662 -0.14749843 0.076675855 0.095904395 0.006322541 0.14849745 0.032472987 0.03444376 -0.07909265 0.20653637 -0.10943688 -0.036422953 0.1066894 0.035988186 -0.0072586597 0.15243542 0.241011 -0.17514428 0.133362 0.17537636 0.08434303 -0.10266021 -0.00992761 0.015534854 0.019438092 0.103873454 -0.20420374 0.00727386 0.049126334 0.10544343 0.10620731 0.032428727 0.079263605 0.19671708 0.005101668 0.0578217 0.0043311403 0.05452194 -0.02655073 0.19319478 0.0079941815 -0.13069944 0.15607214 0.08666378 0.19174321 -0.18300581 -0.048068203 0.085795395 -0.14634587 -0.014078439 0.076058485 0.02441128 -0.023357151 0.059406556
777 0.013039606 -0.15686262 -0.044577137 0.014734984 -0.18287003 -0.12975803 0.07737042 -0.16395454 -0.23827963 -0.076887496 0.062900595 -0.29428992 -0.11958746 0.16283135 0.27130607 0.14828905 0.38546407 0.15041405 -0.022238947 0.17775081 0.1275754 0.11802261 0.059755515 -0.075405784 0.054121505 -0.1613522 -0.07261334 -0.09824503 0.13060538 -0.20858905 -0.13261813 -0.1107789 0.05022953 0.16846077 0.07155741 0.07899072 0.211065 -0.03536611 0.11961255 0.028241491 -0.046699688 -0.15034503 0.31008568 -0.04756253 0.077193394 0.008042056 -0.18279524 0.16129988 0.057980232 0.00046338173 0.12972324 -0.1889447 0.16364773 -0.17132756 -0.025942195 0.08077982 0.19143362 0.002839872 -0.11742968 0.08127027 0.0023761352 -0.0775832 0.04187999 -0.04332951 -0.01216615 -0.27953914 -0.12838303 0.10432041 -0.09282749 -0.012969778 0.044204082 -0.0234179 -0.21578386 0.1722104 0.08085418 -0.0597288 0.24221046 0.03083005 -0.15115298 -0.083852164 -0.08744225 0.044895485 -0.11228285 -0.023652282 -0.06510222 0.14894757 0.014223597 -0.09342856 0.040813826 0.19618027 0.097821064 -0.038989782 0.19899319 -0.019336762 0.19073354 -0.046604887 -0.011531292 -0.025371322 -0.09195759 0.13000916 -0.19164208 -0.22645763 -0.22975016 0.24361762 0.03818506 0.11610445 -0.111534566 0.2752035 0.1273604 -0.12301431 -0.012027928 0.16991948 0.00049647724 0.17168584 -0.296818 0.050426777 0.20305595 0.23040628 0.14095743 -0.112696044 0.019971699 0.0999297 0.09553816 0.1663695 0.05577973 -0.21431115 -0.22134338 0.23914967
803 0.005752759 -0.29723004 0.018934483 -0.21494795 -0.02130168 0.05753863 -0.22561866 -0.036759265 -0.0151108075 -0.017708732 -0.044326805 -0.13697955 -0.38796744 -0.12951879 0.17844906 -0.024732878 0.275195 -0.21907784 0.076516815 -0.20155051 0.18757807 0.08076361 -0.19955531 -0.056969456 0.019131755 -0.10075178 -0.11093635 -0.038800433 0.074565284 -0.15498865 -0.022067253 -0.06118647 0.019247347 0.26490092 -0.26833406 0.102288835 0.270786 0.055439822 -0.21087055 0.1017082 -0.062015034 0.28087828 -0.25839975 -0.14533833 0.17423104 -0.0825953 -0.029920489 -0.23584692 0.08858072 -0.2281368 -0.18724854 -0.19857824 0.047428038 -0.12391184 0.2042378 -0.17275313 -0.06397658 -0.15603203 -0.02863908 -0.17405573 0.0820468 -0.19428618 0.22793145 0.11074063 -0.07371304 0.03534413 -0.10791409 -0.11361071 0.0955861 -0.12867466 0.031767596 -0.013494309 -0.22276996 -0.0036611152 0.1436789 -0.115219586 -0.1987855 0.14489727 -0.2115977 0.06829844 -0.21685176 -0.082297415 0.0019117192 0.049188074 -0.17892915 -0.068711996 -0.086416505 0.14089657 0.05646305 0.30192545 0.08538195 -0.13434711 0.11858926 0.07742658 0.27468187 -0.012453606 -0.15021928 -0.07202053 0.15679432 -0.029394504 0.2663045 0.053012446 -0.12989898 -0.34997514 0.011130582 0.11212826 -0.07900517 0.2701121 0.21460012 -0.29768372 -0.0066186017 -0.18267766 0.07484752 0.233011 -0.09568178 -0.20830019 -0.27156213 0.19190852 0.017819362 0.0416503 -0.04260065 -0.21806736 -0.21998301 -0.045563597 0.33005738 -3.1491345e-05 0.009779573 0.23310302
833 0.0725975 -0.01114404 0.041350752 0.27794504 0.0431166 -0.06879977 0.2503753 0.112612456 -0.08073363 0.21350873 0.10532846 0.076739475 0.093684204 -0.026353195 -0.07187363 0.12302176 -0.011486611 0.19947572 0.00016030899 0.3091833 0.25972584 -0.16123466 -0.062237754 -0.09366455 -0.10026341 -0.04168089 -0.033155788 0.20936947 -0.12901604 -0.054847747 0.038705003 0.2729851 0.3086664 0.18931174 -0.2274272 0.091259666 0.04291231 -0.17968576 -0.09527823 0.091618516 -0.19170263 0.05736262 0.00543487 -0.14492193 -0.08432652 0.080791146 -0.018982468 0.12890063 -0.19458252 0.05194641 0.23169118 0.1500075 0.31738758 -0.14026059 -0.16802092 0.002075845 0.35212576 -0.1391106 0.020334529 0.085070014 -0.14509413 -0.08374486 0.3241603 0.17842837 0.16996081 -0.00596407 0.19724384 -0.1467687 0.13229187 -0.09965631 0.039657764 0.07011737 -0.34660175 -0.068156086 -0.24366097 -0.5947986 -0.20644222 0.13290097 -0.045421913 0.27573463 0.13654576 -0.3128928 -0.002330971 0.509034 0.4614777 0.20678072 0.116407186 -0.149162 0.074084766 0.048307713 0.08066723 -0.013851876 -0.15636337 -0.0739808 0.2208527 -0.13100035 -0.009571958 -0.18623574 -0.1260268 -0.015046493 0.021819916 -0.10018795 0.06911635 0.039320737 -0.08533647 -0.023541076 -0.17695595 0.22885811 0.08792031 -0.0823979 0.28232738 0.09240614 0.18392068 -0.27213404 0.04314837 -0.100848004 0.2063304 -0.18791755 -0.11617855 -0.25813177 -0.3795311 -0.29998893 0.18172257 -0.35654366 -0.1811188 -0.008193306 -0.1419844 0.25175178
846 -0.32182902 -0.057455577 0.3833476 0.24547854 0.012335142 0.10159344 -0.016708983 0.2270971 0.089776464 -0.07901997 0.1921237 0.0017755463 -0.021713238 0.14599876 0.09973589 0.08677487 0.0145327905 0.12716408 -0.22519149 -0.19334158 0.23139153 0.21928021 -0.33639956 -0.028291974 -0.12663455 -0.24835633 -0.24540809 0.12448508 -0.1312126 -0.26948997 -0.10145322 -0.27303332 0.09372194 0.035516772 -0.1354846 0.15764542 0.11423385 0.005551077 0.06982558 0.018163793 0.05826803 -0.01640473 -0.21175197 -0.1295865 0.05141357 0.11940889 -0.027438357 0.0040779053 0.068062976 0.14861529 -0.013871533 -0.08484824 -0.14553986 0.0090307845 -0.0012733676 0.22805257 -0.023418874 -0.10274205 -0.27939332 -0.048917476 0.11563597 0.05808206 0.2769386 -0.09768963 0.22055241 0.18731768 -0.2335595 0.07277114 -0.40793812 -0.022065872 0.058602907 0.15303949 -0.07178063 -0.0027871786 0.06556473 -0.093336925 0.020402504 0.16825241 -0.14151026 0.15166765 -0.038521834 -0.022610072 0.04194156 0.08133733 -0.013629726 0.102843516 0.05363059 0.025377017 -0.16524766 0.26607946 -0.14357555 -0.13441542 0.092736565 0.20857815 -0.0016727037 0.0897593 -0.049431004 -0.23263328 -0.03405994 0.00065595325 -0.3010202 -0.21379831 0.07941213 0.0013642886 -0.28138784 0.10658634 0.14024086 0.15733296 0.10777871 -0.006028352 -0.035261616 -0.21709219 -0.0061773155 0.13475077 0.06992379 0.05187475 -0.034823928 0.31554133 0.057746768 -0.11548283 -0.092663795 -0.049757253 0.15514503 -0.06891547 0.13610548 0.05299866 0.14264971 0.010253997
718 -0.057355516 -0.27711365 -0.09217285 0.09893991 -0.14613998 -0.042464446 -0.31754345 -0.051898804 -0.18011 -0.046758648 0.05778144 0.10495707 -0.17846924 -0.03207368 0.18395911 0.022775112 -0.05291162 0.16727076 0.13339688 -0.1609978 0.23758033 0.12537391 -0.052203212 -0.14090708 -0.102658756 -0.16528837 -0.15388961 0.05291931 0.26754412 -0.34621847 -0.010160552 0.002982161 0.16728765 0.05973614 0.2098675 0.274733 0.11587015 0.0013041426 -0.0488899 -0.06558138 0.15418552 0.10301759 -0.057843488 -0.06288285 0.18208255 0.06715904 0.13508706 0.077655874 0.09639822 -0.10639482 0.08342882 -0.17127034 0.08290523 -0.019085106 0.1358053 -0.15598354 -0.087144524 0.08952039 0.08313412 0.10470376 -0.05861362 -0.015388019 -0.19223288 -0.063816845 -0.011003436 -0.04959833 0.059676193 0.19429545 -0.07326512 -0.09883377 -0.1436076 -0.040502314 0.070849724 -0.21742442 0.084676884 -0.06597275 0.011563306 0.03953006 -0.14874877 -0.0088768955 -0.05594674 -0.008950818 0.22004256 0.11110302 -0.016848935 0.077409185 0.20209545 -0.1979754 0.06350764 0.17812182 0.18948475 -0.18139912 -0.018329842 -0.17060743 0.30450132 -0.0044803126 -0.15163079 -0.1689102 -0.17519054 0.101868525 0.069895655 0.13929182 -0.10811046 0.016701296 0.00019733782 -0.060418393 0.010859466 0.29667455 -0.15126145 -0.23794907 0.075418085 -0.023963679 -0.04139045 0.24530256 -0.061311465 -0.16101168 0.034796998 0.1361518 0.011920511 0.2684972 -0.033432465 0.106913395 -0.09439649 0.07059149 0.20935969 -0.15304106 -0.14339793 0.0020014932
817 0.08613494 -0.30357984 0.14538832 0.052217245 0.06745998 -0.02095409 -0.3885825 0.0832795 -0.091208994 0.03496751 -0.018072331 -0.049506556 -0.06369871 -0.03688669 0.17193626 -0.065610595 -0.10864479 0.08106551 -0.0907323 -0.20759498 0.09924063 0.034796845 -0.08079745 -0.124801494 -0.039165664 0.07185578 -0.29486778 0.030895889 0.20479742 -0.25544047 -0.19293569 0.087244 0.0756308 0.08088627 -0.010192919 0.23834525 0.22153392 0.08455587 0.2067257 -0.05727309 0.17262872 -0.13065134 0.088573225 0.23567848 -0.031493902 0.07078792 0.07857564 0.09368173 0.019873977 -0.033231054 0.13473056 -0.052423995 0.24929307 -0.27918652 0.07827826 -0.06939402 0.012790598 -0.04389816 0.15256353 -0.0002828099 -0.114728324 -0.08930713 -0.017125893 -0.02992241 0.05676997 -0.1132466 0.14236487 0.10235308 -0.03171251 -0.3185584 0.13202743 -0.011249496 -0.076008804 -0.1690539 -0.1403895 -0.06713405 0.015398455 -0.10396587 -0.10446652 0.14436541 0.06631022 0.21628153 0.08633896 0.110521145 0.025453404 0.03935871 0.05886216 -0.07945857 -0.017276796 -0.114544906 -0.14905879 -0.13321082 0.22317548 0.016740687 0.2917019 -0.07744874 -0.053458024 0.055328406 0.0040512914 -0.039173454 -0.018905256 0.16392908 -0.20881662 0.115715064 0.17649898 -0.05163173 -0.03971296 0.23603912 -0.044912852 -0.07680786 0.2633577 0.029101422 -0.09041452 0.06309119 0.14224568 -0.03725152 -0.05917082 0.31519246 -0.009234752 0.23019747 0.15433364 0.03768921 0.11539937 -0.19528364 0.18984652 0.11931499 -0.238483 -0.013643221
708 -0.0068129078 -0.37364262 0.028040813 0.25020948 0.08717965 -0.26110458 0.016870135 -0.022688985 -0.22942215 0.122876756 -0.0986784 -0.009552063 -0.21435702 -0.05597512 0.47044134 0.15683107 0.06527904 0.10186942 0.15361714 -0.07639301 0.32065848 0.19856477 -0.18085782 -0.108152166 0.01883783 -0.23250847 -0.32792428 -0.01290746 0.23576151 0.09258689 0.012663318 0.010561044 -0.16672096 0.035071407 -0.21912758 -0.068193994 -0.029526966 0.04024919 0.108052984 0.042156305 -0.16980991 -0.007256912 -0.033991706 0.059566364 -0.12520306 0.0734314 -0.04275237 0.0050614327 0.10059049 -0.22930735 0.19387966 -0.15071853 -0.043616436 0.08232186 0.17151879 -0.075063474 -0.013086172 0.06839213 0.015243183 -0.07414207 0.0011038225 0.057157747 -0.11967969 -0.04869556 0.11303973 -0.013289647 -0.19578749 -0.008205827 0.045856636 0.122445755 -0.059600763 0.09611657 0.081767894 -0.28213152 -0.028223867 -0.20323415 0.04702202 -0.04038222 -0.16350749 -0.10739899 -0.12386527 0.10811897 0.046167254 0.15613101 0.0043894663 -0.27467582 0.3573793 -0.042210635 0.038329583 0.0023593518 -0.15953435 -0.18663336 0.05112495 -0.0010044322 0.048262864 -0.14830408 0.1122188 -0.039346647 -0.06736548 -0.18970318 -0.073407374 -0.055719864 -0.18636404 -0.049372684 -0.23462902 -0.062503055 -0.29431972 0.0784495 -0.07329969 0.03430308 -0.15143676 -0.031166404 0.085466996 0.2592991 -0.03430932 -0.06663572 0.050768025 0.045364164 0.21184604 -0.044132292 0.02416282 -0.083415784 0.27493423 -0.20944987 -0.04960759 0.017469157 0.099598125 -0.15325378
845 0.11227593 -0.20873417 0.18836807 -0.0016861496 -0.004305333 -0.17816393 -0.11262029 0.3067725 -0.20253469 0.024542423 0.15687986 -0.07987854 -0.205466 0.14828262 0.31242833 0.08533282 -0.0074990448 -0.034179624 -0.15851767 -0.05395129 0.03316696 0.15014254 -0.16714883 -0.060994342 0.03436027 -0.22183834 -0.19634648 -0.0004654207 0.08663362 0.06592397 -0.06846514 0.08912474 0.11797711 -0.027136333 -0.015885027 0.07036917 0.07927372 0.16875783 0.13079113 -0.0709648 -0.03630825 0.016880488 -0.00031928174 0.04527769 0.13730034 -0.0044374727 -0.18289825 -0.01738092 -0.11712048 -0.06864139 0.115069196 -0.024870079 0.007176571 0.051883228 0.065949544 -0.15974592 0.020893076 0.08700603 -0.18013985 0.0674525 -0.066688925 -0.077979244 0.1760166 -0.035129383 -0.104345374 0.028647518 -0.27914956 0.2108815 -0.11929168 -0.016860144 0.01881615 -0.057601593 -0.20057417 -0.05732857 0.21932341 -0.14614941 -0.053785063 0.013334897 0.011127529 0.19330356 0.09460516 0.07558019 -0.124915704 0.10604978 -0.077694535 -0.050851908 0.2717113 0.04992358 0.056980535 0.020853559 0.034695283 -0.115249045 0.13281813 -0.15553313 0.12501933 0.08916828 -0.053706612 -0.21809426 0.10516568 -0.05298419 -0.15048033 -0.020881733 0.051895052 0.16699378 -0.13357456 -0.080459386 0.047210217 0.085217334 0.031633195 0.17433612 0.0071424963 -0.010208629 -0.063877985 0.13234243 -0.16180107 0.19023366 0.3122211 0.19389439 0.17085856 0.03987202 0.059106473 0.15912743 -0.08484806 0.17639022 0.13889818 -0.070906624 -0.04067405 0.1511499
831 -0.006749179 -0.08799367 0.24334292 0.0484572 -0.06355346 -0.1203066 0.05767499 -0.040643383 -0.03778038 0.0337007 -0.058376767 0.0905188 0.01642293 0.062430806 0.32887775 0.0015766938 0.00053419836 0.0027011423 -0.08949917 -0.34860498 0.15130574 0.09961656 -0.14532928 0.08770182 -0.22125408 0.10768311 -0.15157609 -0.15153675 0.25444454 0.00873458 -0.31364888 0.23658308 0.018490147 0.095077455 0.10367336 0.003766699 0.2703213 0.16118336 -0.06305665 -0.15601358 0.00030673755 -0.070627026 -0.10997885 0.20274666 0.015744084 -0.093768 -0.15060647 -0.06528649 0.023070125 -0.14116473 0.22103502 -0.04563072 0.34118798 -0.052222125 0.05984016 0.14712265 0.27456707 0.06448725 -0.2873942 0.13285051 0.075962976 -0.014372542 -0.097449936 -0.19890325 0.02548077 -0.20605376 -0.09913286 0.28961074 -0.27372068 -0.22117762 0.021440992 0.06958718 -0.1047419 -0.13107727 -0.0976332 0.10825307 -0.09924305 0.12389994 -0.25919938 0.08846436 0.048218623 0.06627013 0.023050342 0.22873588 0.13134256 -0.15239732 0.27752012 -0.036086746 0.10487687 0.29743215 -0.10921552 -0.31943557 -0.124102876 0.012399571 0.2707433 -0.15832922 0.13797879 -0.030419959 0.04737437 0.11040301 0.08008049 0.28688985 0.0903598 0.053533506 0.13416159 -0.14038625 0.28928605 0.19809148 -0.174153 -0.077513136 0.039859127 -0.04925734 -0.051711515 0.017996041 0.2960425 0.15532167 -0.1396597 0.15728891 -0.13736601 -0.08054742 0.07662196 0.14204553 -0.018443814 -0.17844269 0.20725521 0.09301111 -0.013731152 0.13740395
754 0.11226676 -0.10613407 -0.026604464 0.09481327 -0.009389509 -0.25893763 -0.09097265 0.058478225 -0.1712292 0.07411849 -0.009134304 -0.16841264 -0.0886478 -0.14834312 0.3143812 -0.05182899 0.077584 -0.004029768 -0.111034825 0.06731465 0.23271601 0.09006316 -0.049968008 -0.05324941 0.035632577 -0.049954847 -0.058790717 0.017848933 0.15528783 -0.16590573 -0.44249576 -0.18387115 -0.029935678 0.0808146 -0.119677216 -0.056428026 0.12735781 -0.028293816 -0.041989412 -0.13518493 -0.07787796 -0.11099866 0.11364575 0.10164582 -0.010555127 -0.05134302 -0.074408874 0.12531021 0.039121155 0.032124143 -0.12307661 -0.061568446 0.01212377 -0.19716573 0.1455482 0.030068135 0.17233993 -0.036590945 -0.2077436 -0.12651491 -0.0042696367 0.023792317 0.018459769 -0.10918123 -0.16600206 -0.03668309 -0.08630364 0.11557671 -0.0025271303 -0.14008015 -0.07574755 0.07414568 -0.2556039 -0.29504707 -0.07183096 -0.2052178 0.04157354 0.10334271 0.020034863 -0.13035068 -0.14942567 0.21884999 -0.012152035 -0.086492874 -0.048940364 -0.05772567 0.2732842 0.23272544 -0.03910793 0.1000926 0.034701113 -0.26412067 0.04023516 0.15411538 0.16790447 0.03252794 -0.063256405 -0.21965173 0.0974764 -0.09385147 -0.16311051 -0.18480495 0.123622045 0.06793469 0.085768454 0.061517216 -0.01464109 0.08494479 0.03232598 -0.017798008 -0.123315185 0.05051069 0.087883085 0.021849792 -0.16938534 -0.18572278 0.22429942 0.1714812 0.08548513 0.032387055 0.0078101465 0.0665879 -0.035979733 -0.029911311 0.098082356 -0.13771985 -0.09975564 -0.0073230555
