791 128
3113 -0.2066849 -0.19342066 -0.18485859 0.15521047 -0.24611127 0.10219681 0.16476263 0.35328946 0.032559477 -0.15227664 0.19299209 0.17930704 -0.15950145 -0.0508382 -0.037345283 -0.17768149 0.0198774 0.09747678 -0.14874786 -0.18997416 0.24657008 0.18916993 0.002046333 -0.044050377 0.15042086 0.17536858 -0.18906528 -0.034516506 -0.02519641 -0.11182547 0.15427074 -0.2335686 -0.19016515 -0.14079359 -0.006492835 0.066778354 0.05691266 -0.1712641 0.09634143 -0.2667757 0.09211431 -0.02919922 -0.18348473 0.03262283 -0.0989912 -0.13021486 -0.03278311 0.32278004 -0.28356817 -0.1956469 0.069346175 -0.019197475 -0.020753587 -0.36655623 0.24612273 -0.16249217 -0.008979204 -0.07433196 0.08950757 0.22644489 -0.21643394 -0.018235331 -0.0229632 -0.1117436 -0.033998407 -0.050494023 -0.08274633 -0.13072628 -0.44578573 0.10087682 0.07171321 0.23923075 0.21582828 -0.060171857 -0.08245174 -0.080811456 0.07945449 0.0658157 0.010582249 -0.25398004 0.15401904 0.31135586 -0.031977873 0.120872684 0.058328286 0.40991437 0.11777399 -0.0011742172 0.023558801 0.17367138 -0.032825466 -0.33106017 0.18211433 -0.011332846 0.29532033 0.11086957 0.038629614 -0.15116012 -0.22388344 -0.00458672 -0.08006798 0.0131298 0.1505358 0.148363 0.12925708 -0.3706455 0.112818114 0.18637434 0.023817224 -0.30258656 0.059143387 0.09197414 -0.16122705 0.07838568 -0.48245674 -0.123126894 0.33374807 0.1640047 -0.12577355 0.11415069 -0.2560355 0.09131113 -0.14550816 -0.03832104 0.022190548 0.096449606 0.14152102 -0.09566225
2749 -0.051318217 0.08079797 0.42876706 0.05137919 -0.10542641 -0.17348239 0.20169045 0.014807616 -0.09029297 0.1454186 0.06960162 -0.011786964 -0.020465244 -0.24260171 0.09547996 -0.12706661 -0.22189353 0.21183285 0.17765918 -0.044555895 0.097641885 0.035471816 0.13518023 -0.09818218 -0.35362762 0.42997897 -0.11466878 0.11329777 0.24945085 0.0064903293 0.1400464 -0.09215694 -0.2027335 -0.0050863153 -0.05488607 0.30576771 0.12826307 0.10340172 0.17695688 -0.10583745 0.057953194 -0.0036146098 -0.08910312 -0.13806568 0.10240654 -0.10261841 0.12528403 -0.10844579 -0.08987543 -0.17774022 0.51437545 -0.2490648 0.06116973 0.07541632 0.0983584 -0.091019794 0.047709793 0.10013094 -0.2083729 -0.2549106 -0.2093397 0.28504077 0.030792465 0.18728423 0.15618049 -0.3211413 -0.07262064 -0.15993385 -0.08204972 -0.5428302 -0.21392396 -0.36370876 -0.27413002 -0.0012692574 0.07989433 0.060000535 0.100353226 0.10269405 -0.060786813 0.4435043 -0.16665101 0.18283805 -0.16268195 0.07688876 0.19993186 -0.19789578 0.18086062 -0.5119066 0.06455657 0.03984217 -0.21512459 -0.17685503 0.14828068 0.14085528 -0.2117442 -0.07659216 0.17247486 0.02125611 -0.06814944 -0.1499907 -0.23298347 -0.024465019 0.21645023 -0.04679388 0.06370983 0.106495544 0.025307788 0.035519052 -0.030727627 0.04859145 0.082744524 -0.1440038 0.31801027 0.04770716 -0.28176856 0.14746109 0.2366961 -0.18487851 0.18378094 -0.012286529 -0.15619214 -0.01350224 0.006578543 -0.09253772 -0.41740355 -0.0663035 0.4380709 -0.075250834
3016 -0.29261371 -0.15700832 -0.3170558 -0.057376374 -0.21142319 -0.029736891 0.15430033 0.09202605 -0.095775284 -0.20471378 0.22667623 0.2628948 -0.21721691 -0.10667876 -0.07215869 0.058038283 0.18540642 0.15952231 -0.012542268 -0.26536113 0.21265629 0.10940747 0.07827835 -0.123699285 0.116455525 0.08166798 -0.27225837 -0.031881925 -0.22371055 -0.050328 0.14093386 -0.2243678 -0.23930861 -0.10157976 0.08459619 -0.17206073 0.010022298 -0.07683928 0.21445163 -0.049290575 0.17690636 -0.21643658 -0.31564206 -0.18411976 0.11918053 0.07209939 -0.008994216 0.15452667 -0.09317731 -0.036695838 0.12091523 -0.10729056 0.0144922575 -0.38521415 0.26663417 -0.15430352 0.2367935 -0.008680613 0.1332225 -0.042431887 -0.15278849 -0.12984692 0.056679495 -0.07796326 -0.10655359 -0.06398409 -0.07612523 -0.12889992 -0.37584308 0.119258806 -0.061808057 0.18838179 0.21160673 -0.07450865 0.16309568 -0.030432945 0.08957216 -0.106192 -0.10660081 -0.022069132 0.3169649 0.09778715 -0.011535482 0.15041414 0.06525155 0.32580096 0.40173006 -0.021741249 0.084844686 0.16541894 -0.035998084 -0.27720326 0.15949656 0.020905616 0.3750791 -0.04639618 0.037671868 0.041130226 -0.14312758 -0.11036507 -0.032963917 -0.029270573 0.03680336 0.16763067 0.17096098 -0.4091887 0.23071216 0.27695036 0.043183737 -0.31579164 -0.008136542 0.09444364 -0.12524602 0.10788747 -0.41620913 -0.39429945 0.26410726 0.28011996 -0.1392613 0.1892213 -0.10914959 0.10970294 -0.14983073 0.20731914 -0.038419407 0.28465477 0.0020778954 -0.0069799633
1684 -0.054850705 -0.17178227 0.1906089 -0.0100984145 0.039823286 0.03456647 0.011129885 -0.09659354 0.28932855 -0.15275228 0.24014224 0.111978635 -0.19917601 -0.04734551 0.09546674 0.023699185 -0.11363188 0.009111253 -0.2188996 0.0842522 0.12657693 -0.07096877 -0.13221224 -0.04087479 0.15740347 -0.0815874 -0.15203881 0.2060107 -0.20443413 0.07865228 -0.024307193 -0.16164032 -0.049697813 0.07685512 -0.020390652 -0.18987298 0.08512658 -0.041978307 0.17750876 -0.079462335 0.14787927 0.08842801 -0.005695973 -0.16993941 -0.020323731 0.15443109 -0.1164767 0.08426212 0.12167318 0.08814296 0.025612388 0.24890205 -0.01573037 0.07570581 0.086242974 -0.02365466 0.036803402 0.037037645 0.089112155 0.23101026 0.16312036 0.04279856 -0.0054370523 -0.101997696 0.29446432 -0.14071885 0.101861775 -0.0142763 -0.2431978 -0.036506437 -0.18069229 -0.15292698 0.035890676 -0.094267525 -0.09213879 -0.032614004 0.039301164 0.0393849 0.06579893 0.1557175 0.034158465 0.1840239 -0.077536285 0.22417498 0.09977353 0.18460263 0.03201489 -0.359138 0.008152135 0.08105234 -0.068068564 -0.047308885 0.16374345 0.00891682 -0.17754486 -0.255169 -0.0060017123 0.030043276 0.09118305 -0.11581861 -0.1775818 0.15744896 0.19575283 0.11137498 -0.019898444 -0.0687123 -0.06396597 0.12555951 -0.08502187 -0.20876786 0.07463791 -0.27038616 -0.028383149 -0.031781238 -0.17467085 0.04320858 -0.018902555 -0.035354245 0.04138432 0.014760323 -0.13618366 0.06276337 -0.12790047 0.03642645 0.033801284 -0.03406008 0.13708009 -0.27227223
2953 -0.061740085 0.00076293934 0.4808811 -0.22629863 -0.2867032 -0.31169653 0.24716938 0.18814418 -0.36049318 0.2615404 0.056109034 0.23251042 -0.060241207 -0.25926524 0.26381394 -0.0019441568 -0.0439243 -0.021927157 0.3354553 -0.4044675 0.20591742 0.15259123 -0.026710154 -0.17783955 0.09431377 0.32598853 -0.18269281 0.2864019 0.10437254 0.04696907 -0.17177686 -0.17269103 0.046018455 -0.09557096 -0.06144667 0.29093415 0.30012733 0.027650481 0.26616147 0.074344456 0.17972219 0.27261522 -0.33186787 0.0709823 0.18324141 0.006561551 -0.28472495 -0.3826871 -0.120465256 -0.35787442 0.3563497 -0.10980148 -0.023154315 0.17749888 -0.14805675 -0.41340938 -0.08554379 0.30443653 0.012966235 -0.39489898 0.10000226 0.051964074 0.34640858 0.19213192 0.16307688 -0.46647224 -0.10692365 -0.13000636 0.025040362 -0.09921243 -0.15016556 -0.36177757 -0.310166 -0.07112477 -0.04125063 -0.06644535 0.08407019 0.09930364 0.065299444 0.16458519 -0.1629261 0.18034539 0.2676671 0.04775905 0.3495324 -0.07125389 -0.0037474672 -0.6308932 0.3082309 -0.044814743 -0.034278866 0.100292504 0.059496492 0.124677405 -0.066297434 -0.3333758 0.08724937 -0.41098502 0.25807625 -0.22805238 -0.23207307 0.16753067 0.116438635 0.07602241 0.28152922 0.050227635 -0.024187818 -0.31369266 0.2859921 0.005585633 0.18946722 -0.119043194 0.15169369 -0.121465676 -0.23651311 -0.16641268 0.0009809956 0.04180851 -0.18524836 0.05709131 -0.2883278 0.048823018 -0.054673858 -0.027888285 -0.265856 -0.036417235 0.09593217 -0.11125499
2687 -0.002493254 -0.12184722 0.12652591 0.041810635 0.1352744 0.23374061 -0.15845774 0.04088701 -0.058214273 -0.36610207 0.13431457 0.011584055 -0.30912545 -0.114327 0.03349349 0.039087273 -0.3588812 0.086022615 -0.22892813 -0.16436446 0.13837668 0.11226637 0.019593196 -0.35769057 0.23552139 -0.021933936 -0.10450172 0.006317967 0.2591574 -0.24253489 -0.030343762 -0.05695609 -0.09808432 -0.2462639 0.2530018 -0.34347266 0.33902988 -0.39921516 0.027731244 -0.088437624 0.188751 -0.09167714 -0.012760327 -0.0410028 -0.018038938 -0.0067649367 -0.04270958 0.20697512 0.13696629 -0.05710669 -0.12485231 0.17236862 0.10257265 -0.22815207 -0.07082615 0.17469053 0.16910364 -0.1377986 -0.08836494 0.16968538 -0.11774582 0.13467962 -0.09296665 -0.0424776 0.03540326 0.09819319 -0.03175501 -0.040255286 -0.020314988 -0.26686975 -0.21080488 -0.010375035 0.030470634 -0.50636727 -0.13097088 0.066193126 -0.113179065 0.028253235 -0.028955773 -0.17895408 0.25666642 0.32461426 0.18141143 0.10135199 0.1555704 0.5413448 0.29594505 0.069886215 0.14642103 -0.32278663 0.07782056 0.07105896 0.32787314 0.18761058 -0.071663834 0.24805132 0.185103 0.031678244 -0.2537243 0.07546013 -0.00035642937 -0.022211883 -0.30652165 0.23398627 0.114182696 0.1135136 -0.092448935 -0.05635431 0.38227943 -0.3745649 -0.13658851 -0.15798824 -0.05196003 0.17497374 -0.44153252 -0.09041072 0.026107235 0.13537289 -0.01937817 -0.06035201 -0.31860313 -0.14828801 0.013833775 -0.07581668 -0.32886073 0.03725301 -0.075586505 -0.31903854
2865 -0.21880437 -0.18271056 0.075863995 -0.08587117 0.28164047 -0.00948315 0.07239391 0.12670065 0.035987962 -0.0007605672 -0.021301048 -0.2660664 0.0216231 -0.069234066 0.15604605 0.12729056 -0.13888156 0.064776465 -0.05860314 -0.11522669 0.13542697 0.15939738 0.04932178 -0.20885283 0.025407255 -0.054840937 -0.21205398 0.4845001 -0.10678995 -0.15579183 0.17256235 -0.049584735 -0.20581518 0.06308502 0.07291504 0.2639708 0.1781907 0.10830247 0.10372495 0.044131946 -0.11983129 0.0782776 -0.14626189 -0.3512296 -0.040685885 -0.2787932 0.11069649 0.09188197 0.050322518 0.27188048 0.1304361 0.15555555 -0.44100636 0.046344668 -0.022452 -0.30179277 0.2519427 -0.17763765 -0.054244436 -0.041417107 0.14314151 -0.15636873 0.12886384 -0.03352355 0.19451906 0.13636328 -0.06601751 0.3061721 -0.0005466696 0.2575716 0.12784652 -0.16308482 0.13147132 -0.10250718 0.041719098 -0.36763725 -0.21911085 -0.07198955 0.046580352 0.12769055 0.46120062 0.23558371 -0.12955245 0.2847887 -0.1005037 0.23461875 0.50556904 0.08472487 0.21117806 0.52592945 0.0580729 -0.13051365 0.25275406 -0.24593623 0.35110724 -0.08013599 0.1627058 0.12345216 -0.051564477 -0.16302516 -0.3210966 0.19257636 -0.20873526 0.27185142 0.1686487 -0.03840863 0.11449219 0.09803206 0.040778 -0.5957999 -0.2993492 -0.34424227 0.0010084008 -0.0054558893 -0.19135526 0.243198 -0.0849173 -0.1403597 -0.10310676 -0.029872928 -0.09066779 -0.03173019 0.1048447 -0.018241033 -0.1257361 0.008064476 0.33133382 -0.07703904
2908 -0.026016088 0.074071676 0.4505744 0.17054838 -0.008540744 -0.46886367 -0.016335154 -0.13904604 -0.061211284 -0.13204955 0.09147889 -0.12559496 0.2628492 -0.18966608 0.10627801 -0.073219925 -0.10831919 0.29041976 0.075470135 -0.13997783 0.25608492 0.26471034 0.21410008 -0.18900922 -0.0967746 0.4383402 -0.07046621 0.27830863 0.04544486 -0.10184521 0.11630918 -0.23923738 -0.3245352 -0.1924527 -0.12541823 0.1744749 0.27547234 0.14640364 0.34002256 0.13248293 -0.012967124 0.088914245 -0.12815872 0.04494287 0.21553026 0.0205525 -0.16889195 -0.16296862 -0.02340463 -0.28725976 0.27785617 0.16651863 0.25405177 0.1280015 0.18410501 0.09784264 0.07578991 0.060179338 -0.20547475 -0.21611907 -0.302698 -0.20085308 0.08528635 -0.11110385 0.4249637 -0.2189377 0.122083224 -0.09933661 -0.16741385 -0.28773192 -0.25729623 -0.26958233 -0.26441598 -0.006664844 0.12074527 -0.09148714 -0.083485484 -0.096611604 0.0317705 0.061951872 -0.15003732 0.09716647 0.27976122 -0.10795826 0.13126092 0.033141952 0.047230765 -0.12042502 0.18721686 -0.039163712 -0.5471258 -0.094947636 0.27300277 0.16971844 -0.49037582 -0.079611406 0.23913679 -0.06180766 -0.048161875 -0.14175291 -0.24053633 -0.022218816 0.3726141 0.07330769 0.23461513 0.16919237 -0.012111219 -0.1535432 -0.014195365 -0.07608138 0.16949661 -0.025426647 0.077602595 0.14865379 -0.03380908 -0.31723532 -0.033306826 -0.094302736 -0.01435655 -0.093113616 -0.024100982 -0.18009529 -0.17025706 0.075707145 -0.009297219 -0.07606332 0.5288184 -0.012553664
3170 -0.072052926 -0.37449935 -0.17680202 0.10153286 -0.007454522 -0.009938056 0.02225832 0.16209568 0.19956782 -0.24164589 0.122419566 0.29568613 -0.22441266 0.008256198 -0.048660062 -0.09044367 -0.07904507 0.13076882 0.05610351 -0.16891067 0.09544797 -0.14878653 0.086485006 0.25330862 -0.023813382 0.10542941 -0.2771415 0.0323466 -0.07590595 -0.22829928 0.15739825 -0.07790135 -0.2644192 0.06354856 0.2774402 -0.06852251 0.21820311 -0.13855574 0.09147711 -0.3244104 0.19368726 0.07879736 -0.23353478 0.08221543 -0.06826205 -0.10373954 0.15099736 0.2974109 0.015324112 0.10580003 0.09757734 -0.015326123 0.19851066 -0.19674893 -0.123371035 -0.014119558 -0.019662904 0.16424142 0.00059068075 0.34169227 -0.2765609 -0.29033518 0.024490466 0.52234644 0.10533038 -0.029048549 0.28718308 -0.00022548508 -0.25507247 -0.034254633 -0.44989502 0.030632645 0.1612517 -0.0073935706 0.058635652 -0.08047327 0.28871983 0.06277308 -0.03969365 0.0001704152 0.21935546 0.3456078 -0.32923374 0.052036848 0.096479 0.36539724 0.19372673 0.107072115 -0.007598506 -0.19254953 0.02543933 -0.0016257202 0.20445639 -0.43351528 0.15728149 0.2751352 0.2616652 -0.12710436 -0.0076635215 -0.11133047 -0.10258671 -0.020125622 0.13753653 0.24802347 0.030200992 -0.21188575 -0.08840361 -0.12150297 0.013487113 -0.30284762 0.2734739 0.1917266 -0.15699087 0.11910668 -0.36491042 -0.4939595 0.02007704 -0.018400988 0.21365865 -0.30492833 -0.31408077 -0.026076337 0.20635454 -0.15617676 0.2002516 0.42080563 0.017262122 -0.38109198
2668 0.48146796 0.15063788 0.18482466 -0.053655174 -0.15958522 -0.12045422 0.39943242 0.18365738 0.10292284 0.107793786 0.070979275 0.23559256 -0.4060048 0.13918725 0.106124476 0.21456796 -0.29392377 -0.081041045 -0.09833557 0.008790689 0.30820742 0.3308708 -0.006685718 -0.23757692 0.047959637 0.15882534 -0.14208494 0.06193172 0.26722044 0.11609098 -0.09623973 0.072234705 0.3333131 0.2004456 0.23089403 -0.21847586 0.25388834 0.023943905 -0.004025429 0.05538731 -0.13587978 0.18022282 0.016569326 -0.15120085 0.04721147 0.2107448 -0.04133131 -0.046389822 -0.030921876 0.098290935 0.109484054 0.04043917 -0.028242001 0.0034993768 0.1637558 0.17853034 0.32123607 -0.3548155 0.0797136 -0.038153205 -0.21205598 -0.17446908 0.02224505 -0.20035306 0.1079093 -0.09337292 -0.16027799 -0.034350187 -0.21194234 0.009691393 -0.2639542 -0.06104272 -0.0072651235 -0.118382566 -0.2421384 -0.11696921 -0.04230825 0.10539288 -0.1796845 0.123285726 0.32030758 0.16989589 -0.10817427 0.26099727 -0.078569084 0.38389024 -0.02511014 0.039679468 -0.15837869 0.14521147 -0.17035352 -0.46479547 0.14261438 -0.06540163 0.14373049 0.021323258 -0.015823651 -0.029611843 -0.092464544 -0.27781633 -0.018794337 0.025148638 -0.03136495 0.36105338 0.08385088 -0.077528715 0.012328481 0.11718923 0.017037947 -0.18958992 0.18109168 -0.0039240113 -0.0017044797 0.108971395 -0.004145338 -0.06784315 -0.052643318 -0.14037551 0.09799947 -0.16634913 -0.020041103 -0.098757625 -0.10299956 -0.11535049 -0.24657609 -0.18785289 -0.24951471 -0.26746315
2746 -0.049881727 -0.017153094 0.20120065 0.0049971803 0.0095705325 -0.34810063 0.37818596 -0.085252985 -0.07445075 -0.29556128 0.31732202 -0.14566176 0.14384015 -0.40459925 0.016840424 0.0020162154 0.15534148 -0.02550351 -0.10774556 0.029106 0.2751443 -0.114524275 -0.087763354 -0.27947125 -0.20394705 0.17778362 -0.08676521 0.093805864 0.38368988 0.040365525 -0.20293559 -0.12937523 -0.17626594 -0.018327622 -0.26006106 0.4057215 0.29203779 0.30054277 0.25982553 -0.11534891 0.29222652 0.19187154 0.0069330772 0.19692932 0.14640118 0.10166264 -0.030462446 -0.49071276 0.0031025126 0.06943645 0.64682233 -0.10886624 0.17876709 0.28106055 0.036297385 -0.42333272 0.21597424 0.2746326 -0.19079468 -0.11405709 -0.39523998 -0.23391806 0.046179757 0.13150893 0.13977781 -0.1843013 -0.11392194 0.10756012 0.044623446 -0.22701555 -0.37445894 -0.38842696 -0.41627294 -0.29246235 0.25820667 -0.08523265 -0.007996803 0.33320507 -0.06007892 -0.0352922 0.038262613 0.19246854 0.10006949 0.26518133 0.11394804 -0.070018135 0.37096757 -0.3211496 0.3762004 -0.058722634 -0.4728832 0.105919905 0.17203246 -0.074655846 0.15739818 -0.037690226 0.008715146 -0.045664657 0.058000118 -0.04416765 0.058683377 -0.17504591 0.22028217 -0.017066976 -0.079143405 0.020323612 -0.083237074 -0.043579992 0.16717283 0.02041009 0.048215166 0.25329077 0.16506897 -0.33563882 -0.19804728 -0.08020083 0.1690745 -0.29501024 0.16724882 -0.035670374 0.18114376 -0.15287507 -0.3655939 0.1691215 -0.24737975 -0.18649702 0.33455983 -0.03186079
3009 0.20474745 -0.53937405 0.043087002 0.07130177 -0.1337366 -0.10016874 0.16325226 0.3680979 0.1042893 -0.0351048 0.17851414 0.042870577 -0.22277023 -0.006998589 0.047244873 -0.09680647 -0.09719441 -0.08077217 -0.046927303 -0.09345504 0.22158746 0.009834511 0.0692411 -0.11725412 0.29532441 0.03753872 -0.05509719 -0.05481799 0.101790056 0.25788754 -0.02559587 0.033523872 0.0191502 0.08308039 0.20839652 -0.013296137 -0.18334581 -0.36080542 -0.05020126 -0.17818561 0.35804218 -0.05946152 0.23354468 -0.042026162 0.2561356 -0.07360915 -0.2952697 0.29442087 0.2703971 0.37536174 0.077822775 -0.065739 -0.03500398 -0.16836458 -0.14071785 0.00583157 0.03878712 0.13432448 0.1565416 0.15930253 -0.009062159 -0.2917898 -0.17491478 0.09716764 0.005709709 -0.05841569 -0.08959079 0.019512396 -0.13414663 -0.11569206 -0.062041268 0.37023962 -0.028649595 -0.22304104 0.35099888 -0.19403152 -0.14658807 0.2649888 -0.36216608 -0.14200343 0.13921213 -0.15994968 0.005412615 -0.015181512 0.5521062 0.6848822 0.26262787 0.1540175 -0.07670193 0.12838559 -0.25875306 -0.37539575 0.16155115 0.009335158 0.17311399 0.341242 0.5689234 -0.21407029 -0.4860142 -0.108789764 -0.19927785 0.4116844 -0.091450386 0.12058915 0.45568165 -0.52639806 0.18404648 -0.06430085 0.0672049 -0.24341905 0.02245206 0.0028739625 -0.12596932 0.023749523 -0.32604173 0.19857486 0.3996252 -0.25705844 -0.12079659 -0.12083122 -0.045190033 -0.04304661 -0.026849592 -0.00045919514 0.064301945 0.3179446 0.094647385 -0.11880327
2888 -0.3895052 -0.43837804 0.24706914 -0.15312542 -0.088646345 0.1738377 0.01868766 -0.24327546 0.26732796 0.34575367 0.15269192 -0.04620483 0.044281013 -0.364948 -0.12437466 0.027479928 0.13983922 0.14640102 0.27427304 -0.04200192 0.056946315 0.25073963 0.038949367 -0.12420645 0.018166533 -0.051293444 -0.12814836 0.29805514 0.31291264 -0.024590774 -0.13546644 -0.024484107 0.042111184 0.07571421 -0.38973084 0.06764824 0.31821075 -0.02146771 0.55860126 -0.042081572 0.42387956 0.24067366 -0.14824177 -0.021613192 -0.12683822 0.13816811 -0.007821414 -0.10725206 -0.19571562 -0.17416787 0.23318568 0.16479751 0.2677031 0.3312932 -0.09902779 0.05372054 -0.183302 -0.21051136 -0.06156225 0.09131574 0.02197134 0.09341162 0.20703816 0.14493498 0.15621074 -0.35373497 0.21933967 -0.09865989 0.3266066 0.00352232 -0.36228883 0.035348117 -0.24240932 0.07078341 -0.40995717 -0.2235259 -0.11188843 0.12823758 0.032937866 0.43644178 -0.21547002 0.15963706 -0.086095065 -0.20795818 0.51603097 0.42110682 0.15511477 -0.28703696 0.16636966 0.30339122 -0.35896862 -0.19057101 0.314349 -0.020545004 0.1104903 -0.25150332 0.026582161 -0.26027492 0.29022306 0.0929296 -0.20204821 -0.01937686 -0.021867894 -0.15471709 0.08149131 -0.14914566 -0.06741951 0.15171352 -0.04919713 -0.13240674 0.007898414 -0.18233117 -0.08267811 0.20396316 -0.24486549 -0.15430352 0.14710705 0.21193382 0.1438721 0.07095438 -0.09574716 -0.11841377 0.073047586 -0.01869951 -0.39017463 -0.060105506 -0.05450802 -0.19929533
2986 0.011600198 0.10373679 0.21947236 0.21770483 -0.093736306 -0.22435324 0.1036309 0.0133539215 -0.22869225 0.081481285 0.065035395 -0.16773184 0.09286184 -0.37700388 0.30793262 0.055644445 -0.09504004 0.13766754 0.031343244 -0.36861378 0.0025817924 0.09162839 0.21854737 -0.13672945 -0.26745132 0.27082387 -0.16881676 0.07200527 0.31641227 0.022426492 -0.010274334 -0.15041396 -0.27554873 0.111364305 -0.20206264 0.30503258 0.02577052 0.18777488 0.41109526 -0.23348412 0.09256924 0.09239799 -0.1364758 -0.05575421 0.3759999 0.015837094 -0.040344495 -0.20159636 -0.023383375 -0.22612484 0.14742634 -0.035051405 0.00974292 0.05071546 0.013469655 -0.16616184 0.12172125 0.13545354 -0.44191504 -0.27743828 -0.09137868 0.014281432 0.047208834 -0.06988385 0.33159578 -0.280531 0.101248175 0.021867746 -0.13827975 -0.28654546 -0.26697022 -0.2869077 -0.3379804 0.0054745963 -0.0039313645 0.03203288 -0.005019151 0.06440119 -0.09741555 0.123819 -0.06207046 0.11958843 -0.0028543063 0.1526044 0.2825029 0.007506417 0.08893399 -0.4744897 0.12566906 0.071993954 -0.4132701 -0.015138151 0.28982842 0.1356021 -0.3016013 -0.10286526 0.042905655 -0.1670738 -0.0991787 -0.19421686 -0.14669874 -0.03618729 0.14590271 0.10947976 0.0067883283 0.1871592 0.06823553 -0.27017745 0.093636006 -0.022034269 0.17358701 0.12221671 0.035433512 0.086617 -0.17504776 -0.05003263 0.042678706 0.0011383403 0.17827082 -0.048730776 -0.17211208 0.09620158 -0.16046146 0.05946556 -0.18263738 -0.30399415 0.1240896 0.060498577
2877 -0.17263296 -0.14556451 0.29020312 -0.0711018 0.060728308 -0.2026066 0.078216985 0.06413086 -0.13011712 0.017008955 0.10609687 -0.09449886 0.09725275 -0.47039852 0.18627116 0.0120929135 -0.0026758797 0.13088645 0.35139832 -0.29163072 0.1016976 0.106368266 0.17214814 -0.08565624 -0.098904505 0.31351316 -0.11956609 0.19187886 0.14370531 -0.04464953 -0.081131585 -0.1368915 0.017343238 -0.07118459 -0.061180033 0.29795405 0.2800263 -0.009176108 0.353115 -0.02907995 0.11804069 0.12404948 0.058521654 0.05480628 0.20596166 -0.016313754 -0.11156405 -0.32242295 -0.008683528 -0.3625348 0.26576665 -0.21178868 -0.07980331 -0.008647587 0.012102011 -0.16041496 0.017495638 0.24235497 -0.16490272 -0.15413257 -0.20331447 -0.012069465 0.051000707 0.09313033 0.37585077 -0.3102036 0.15811509 -0.07660409 0.19433951 -0.20244934 -0.19219078 -0.53537667 -0.26680285 0.07311945 -0.19549556 -0.054556623 -0.11339746 0.018595668 0.068227075 0.048645206 -0.32009143 0.32127315 0.16259696 0.08447428 0.21897894 -0.021848762 -0.08637715 -0.3961943 0.25931215 0.036686152 -0.25431252 -0.051707014 0.2776753 0.15384074 -0.20877083 0.011695191 0.15994543 -0.1150762 0.18233056 -0.30506042 -0.14664927 -0.009930763 0.23002817 0.3825276 0.1603887 -0.08780413 -0.23526467 -0.14558382 -0.052684102 -0.16722982 0.24613298 -0.11364348 -0.10097275 -0.17695959 0.068495065 0.030479513 0.008247335 -0.23841532 -0.0019814624 -0.2113198 -0.1225747 -0.07904864 -0.09400611 -0.016615447 -0.240555 -0.025071163 0.16733389 -0.14374353
3417 -0.01131525 0.13671654 0.5633731 -0.0042288275 -0.19484398 -0.13870034 0.24414003 -0.07634287 -0.3194974 0.02612449 0.062441584 0.04609362 0.014710241 -0.42472583 0.07469144 0.005233464 0.013892416 0.15790786 -0.009368391 -0.5823823 0.14045677 0.179189 0.102777526 -0.069125056 0.022866184 0.2474772 -0.017025331 -0.022090161 0.22186837 -0.0054007526 -0.250742 -0.16445369 -0.18376178 -0.22401124 -0.11599725 0.31806684 0.11439276 0.08584452 0.141569 -0.13841228 0.24957249 0.33616632 0.011393704 0.08037288 0.20816982 -0.016893685 0.0031038478 -0.16224638 -0.119079486 -0.23272075 0.2986022 -0.22281994 -0.014029055 0.13215704 -0.08289127 -0.32504275 0.036839537 0.04271895 -0.1667491 -0.12297464 -0.033112064 0.25961372 0.22269496 0.036420316 0.21060649 -0.21080561 0.04170322 -0.2575569 0.107276015 -0.25949574 -0.12901351 -0.35668114 -0.3126147 -0.04718033 -0.04897737 0.06473546 -0.2100942 -0.038677815 -0.043792907 0.34711766 -0.043629773 0.032699276 0.18024968 0.10456257 0.24810556 -0.20984824 0.018631717 -0.57984525 0.10904531 0.07727768 -0.3671368 -0.07218694 0.37441266 0.13142917 0.20567755 -0.03199067 0.24108844 -0.09612214 -0.1782595 -0.091441035 -0.2346513 -0.08413387 -0.0045168656 0.08422443 0.19013824 0.062460925 -0.2079155 -0.32547033 0.06268545 -0.04812214 0.066956595 -0.17666863 0.19869603 0.06446062 -0.14862539 -0.014291789 0.06948371 0.028966626 -0.0013091073 0.047921464 -0.21480376 -0.19002323 -0.08135093 -0.026754646 -0.2648501 -0.107569896 0.26482546 -0.040328275
2786 -0.08889135 -0.05412319 0.56526923 0.002912874 -0.23147026 -0.3099183 0.14437243 0.039515547 0.04494393 0.03987722 0.04665922 0.1833379 -0.021094482 -0.29170394 0.08623882 0.09090877 -0.22020514 0.14067544 0.2426251 -0.17049941 0.048132986 -0.03510629 0.21670066 -0.039224453 -0.3017879 0.1578477 -0.009038359 0.07139576 0.32400435 0.04962588 -0.16133092 -0.22484618 0.07263456 -0.049178414 -0.22799277 0.40848708 0.11132556 0.13941963 0.37671497 0.0038543425 0.1251156 0.080928065 -0.24144354 -0.015211907 0.21853799 0.16509952 -0.064230375 -0.27070472 -0.045073144 0.029918246 0.39724705 -0.021956837 -0.20721503 0.05425362 0.06056735 -0.14280556 -0.2360445 0.21975183 -0.1916445 -0.21065465 -0.091097176 0.10059754 0.23005809 0.30114576 0.31704754 -0.3176375 -0.08413774 -0.25158587 0.0020115147 -0.2651159 -0.33323336 -0.2995287 -0.33307868 -0.07876831 -0.1383066 -0.029108584 -0.098191455 0.058808967 -0.14930688 0.41041312 0.062290896 0.04331836 0.13196747 -0.042414572 0.20563142 0.021500843 0.088272355 -0.40742642 -0.09159261 -0.06052422 -0.29166245 -0.058575068 0.23975424 0.29767114 0.07150616 -0.12800905 0.020411676 -0.13056262 -0.17240348 0.013787241 -0.206279 -0.14793287 0.23117928 0.11227219 0.069880016 0.11120054 -0.1572869 -0.223412 0.051017243 -0.008423617 0.18156396 0.045074515 0.12447192 0.12736441 -0.18265428 0.014953227 0.10219871 0.016273806 0.12306861 0.0049525327 -0.10669963 -0.09678426 -0.018773228 0.050296888 -0.32959884 -0.04560058 0.2869709 -0.117151
2664 -0.16015328 0.06869267 0.2085122 0.05920222 -0.060250007 -0.3000115 0.23488055 -0.21971941 -0.06279666 -0.0999261 0.107202046 -0.19325231 0.07026832 -0.24261175 0.10641855 0.0009290097 -0.12234129 0.1861212 0.12029015 -0.3325026 -0.0057593035 0.12954244 0.30625308 -0.13118286 -0.1822034 0.42162555 -0.25198144 0.12692593 0.12335654 -0.2363954 -0.10341465 -0.005235004 0.0152054615 -0.07480326 -0.02572315 0.3082242 0.09986623 0.1678703 0.19868927 -0.16779953 0.090607814 0.28999 -0.0496329 -0.16492227 0.21198867 0.017830387 -0.09692802 -0.24146041 -0.11841323 -0.0932535 0.23291796 0.012195047 -0.16636358 -0.015219881 0.20164345 -0.3966976 -0.007962486 0.18972878 -0.26797542 -0.1666911 -0.32062387 0.15506263 -0.108358465 0.12735684 0.22852813 -0.11418636 0.049356002 -0.07206457 0.07198964 -0.33248335 -0.36808205 -0.16869368 -0.45866153 -0.2067339 0.05053019 -0.05942756 0.084709495 -0.19428214 -0.13855001 0.18812482 -0.05513286 0.27422255 0.063549004 0.17934513 0.24694154 -0.06633657 0.052413706 -0.47267726 0.11281987 0.00535109 -0.5340293 -0.0891572 0.2548741 0.16474226 -0.17867841 -0.2762039 0.08870394 -0.094904914 0.20581675 -0.1108409 -0.09444962 -0.018137047 0.32779878 0.13129278 0.091430545 0.11365208 -0.2244733 -0.18758565 0.073883355 0.04230964 0.10208877 0.11956672 0.104850344 0.21760578 -0.07901594 0.006631885 0.025759086 0.06474696 0.053430326 -0.094005376 -0.23250198 -0.12998568 -0.35586673 0.10802873 -0.09331376 -0.04606141 0.4223609 -0.002878816
3320 -0.1630498 -0.2430831 -0.18240976 -0.057036944 -0.11218576 0.18167865 0.13964777 0.21612762 0.0065244962 -0.102006435 -0.06523324 0.15243027 -0.22834024 0.031980097 -0.01133315 -0.28457916 -0.30843508 0.08730535 0.056490608 -0.1511508 0.15628363 0.10673741 -0.028271677 -0.09086977 0.17865531 -0.07073712 -0.094865896 0.12814331 -0.003286277 -0.19749925 -0.05613068 -0.29984578 -0.30133063 -0.07230423 0.380147 0.015345693 0.17193086 -0.3459846 0.15706864 -0.32392937 0.20148642 -0.19414295 -0.19428614 0.16757825 -0.00316817 -0.12806726 -0.11254234 0.25392503 -0.1049295 0.17063059 -0.030226965 -0.06773028 0.3294244 -0.12617823 0.12617515 0.059461407 0.10947842 0.11043262 0.043182448 -0.049404513 -0.15509365 0.056465432 0.011994006 0.16834177 0.08497162 -0.0077184914 -0.12755811 0.18047728 -0.26376688 -0.13080539 -0.27317688 0.17189348 0.14305446 -0.15401077 0.19620754 -0.14210062 -0.026401771 0.14086637 0.016468318 -0.17550384 0.1787031 0.40378293 -0.1372224 0.03347347 0.08518036 0.476469 0.3186475 0.13503899 0.10926666 -0.28984892 0.25161424 -0.08642837 0.16494128 -0.04520433 -0.088631764 0.19508654 0.05351885 -0.09840605 -0.30510342 -0.034975797 -0.008512063 0.055157404 -0.015288316 0.1518551 -0.014512707 -0.21523353 0.03474734 0.04466124 0.23984824 -0.26170334 0.26744938 0.03681421 -0.24086916 0.14886339 -0.40365192 -0.101596504 0.38475195 -0.1233477 -0.14097872 -0.15683077 -0.10286375 0.028266652 0.009708068 -0.18664716 -0.04681225 -0.12304459 0.12636067 -0.20191002
3073 -0.069211006 0.13355437 0.47283623 -0.08981583 -0.11422031 -0.32396546 0.31205326 -0.14417617 -0.09420235 -0.18215537 0.17386231 0.09615668 0.104527995 -0.2632942 0.070351064 0.18421987 0.11759333 0.22403549 0.23981445 -0.49173066 0.045106653 -0.11936198 0.27120316 -0.20372126 -0.15270656 0.29519045 -0.090843245 0.073519506 0.23883118 0.060006343 -0.22827508 -0.17842269 -0.15953425 0.024687747 -0.21774195 0.2170663 0.24304971 0.320848 0.36913365 -0.08323013 0.18171242 0.12271129 0.07746613 -0.029363181 0.1360444 -0.026466928 0.14483824 -0.09398364 -0.06859058 -0.26568347 0.060729265 -0.15385686 0.050559595 0.24755913 0.043200452 -0.06550111 -0.15818623 0.39165956 -0.22785246 -0.3155187 -0.074947275 0.05044615 0.25067714 0.033591073 0.15140352 -0.15326557 0.061948758 -0.10940193 -0.041781027 0.06811987 -0.19385588 -0.2437038 -0.45168185 -0.061522808 -0.1233821 0.052214548 0.012897014 0.073681034 -0.010088348 0.5169963 -0.13304497 0.12534277 0.018099044 0.20566526 0.35430086 -0.08682588 0.15297754 -0.43645057 0.21836749 0.04645058 -0.24820128 -0.025199916 0.18503104 -0.11708167 -0.012438945 -0.23955475 0.20789102 -0.11730747 -0.18933633 -0.06702413 -0.2562149 0.031723473 0.13971278 0.14830807 0.21266551 0.022516139 0.018734856 -0.17913622 -0.0021444708 -0.0593769 0.04047051 -0.12931217 0.19131643 0.060952906 -0.30474225 0.052677073 0.023874033 -0.04805667 0.014461005 -0.16749181 -0.08187267 -0.1357128 0.04474403 0.032145184 -0.5216534 0.06472865 0.094980165 -0.09664223
2670 -0.14266774 -0.17575128 -0.016714891 0.31632423 0.3961298 -0.107364684 0.3745434 -0.43681443 -0.21764755 -0.34065983 0.27410558 0.2750216 -0.2518881 -0.2851577 -0.22074082 0.22384259 -0.34827852 0.3507368 -0.22875336 0.31681535 0.2985656 0.16955765 -0.13731419 -0.27640808 0.13209665 0.3053839 -0.33265468 0.026279727 -0.45013463 -0.21457773 0.19627027 -0.26290992 0.12412174 0.09831747 -0.15385425 -0.33289453 -0.11746865 -0.17335655 0.18844588 -0.090827644 -0.045957234 0.20831732 -0.31891015 0.07538053 0.10842084 0.049214825 0.11059215 -0.21855398 -0.31253743 0.48461443 -0.28888056 0.20574765 -0.124679424 0.52823514 -0.016407214 -0.025774073 0.2662604 -0.05242216 -0.10988225 0.21524958 0.2576157 0.28901744 0.05692819 -0.18494324 0.1415469 -0.50505376 0.039320126 0.10154646 -0.00058301684 -0.17945585 -0.32064646 -0.3779028 0.10226183 -0.19739592 0.11318733 0.19976251 -0.20202579 0.04850804 -0.3066032 0.16558573 0.114451796 0.37971354 0.07172272 -0.114759326 -0.06612101 0.38504094 0.37521598 -0.50694907 0.22144336 0.016699268 -0.13415864 -0.13120033 0.20975 -0.5322503 -0.19700216 -0.02830277 0.13760848 -0.3864051 -0.19720213 -0.3057369 -0.3206977 0.19243032 0.06667315 0.217055 -0.11934771 -0.12881766 -0.20797962 0.030935822 0.044087037 -0.36061254 0.4059056 -0.4386398 0.014173413 0.006012334 -0.30261075 0.030627573 0.2999076 0.30927682 0.5478485 0.24066398 -0.27506587 0.13330114 -0.013351255 -0.052081402 -0.0048897257 0.15469658 0.18507053 -0.05936042
2911 -0.13875137 0.032562863 0.16690269 0.10926642 0.07841803 -0.360608 0.1332734 0.007473077 0.037835833 -0.18647829 -0.055118714 -0.015368753 -0.005127591 -0.46129566 0.15727055 -0.13333403 -0.08516319 0.17483367 0.17541608 -0.13797443 0.13708134 -0.042322483 0.1457096 -0.1022532 -0.18485995 0.3684412 -0.14840266 0.27670702 0.21439902 -0.12916365 -0.01993622 -0.16953216 -0.15992346 -0.118712835 -0.069037154 0.33752257 0.13591953 0.13361207 0.32026324 -0.126253 0.09287005 0.1171758 -0.1568264 0.04966638 0.14134647 0.055767052 -0.15934001 -0.39238966 0.055075545 -0.09721623 0.47043368 -0.1643361 0.092670284 -0.039930016 0.028025625 -0.25455764 -0.014353565 -0.08753329 -0.32019746 -0.19449629 -0.11334706 0.118391186 0.1995708 0.11575812 0.35946286 -0.37038705 0.10183488 -0.0625196 -0.09691889 -0.2785035 -0.22181673 -0.40638873 -0.37735048 -0.0057532783 0.09542892 -0.0006307659 -0.25339586 -0.11187604 -0.02156747 0.32828277 -0.03238329 0.03981748 0.010856916 0.10150859 0.24160379 0.011025965 -0.0628314 -0.16294143 0.13856052 0.0918185 -0.32360286 0.012428544 0.24799217 0.24976836 -0.24621034 0.092163 0.14048171 0.028359642 0.2851744 -0.19790207 -0.12367867 -0.016029436 0.5425883 0.2050301 0.19450308 0.12298545 -0.06313668 -0.15555236 -0.03514632 0.071279615 0.15617448 -0.1682477 -0.0030271667 0.17270808 -0.10710588 0.06295826 0.006473703 0.023442425 0.11633794 -0.13687535 -0.13266121 0.014999991 -0.103143185 0.09695572 -0.27029815 -0.072236866 0.23213783 0.09713378
2920 0.06388766 -0.11515826 0.2859469 -0.16058381 0.08548659 -0.3733468 0.014337771 -0.12738867 -0.010485244 -0.07791792 0.2769703 0.044466197 0.086691946 -0.19711013 0.24512504 0.22335875 -0.038816717 0.16997328 0.103602104 -0.070756115 0.17234783 0.031115517 0.04840031 -0.13993153 -0.011786254 0.43784288 0.02542931 0.22354187 0.12023363 -0.21252912 -0.18720514 0.113970384 -0.0350657 0.1871613 -0.047455017 0.20340808 0.15991746 0.10025547 0.42659026 -0.24125177 -0.011706493 -0.024472816 -0.034344807 -0.037467767 0.18292089 -0.07502449 -0.00012552243 -0.21403992 -0.079736814 -0.10121818 0.37632665 -0.099217385 0.058494866 0.14022319 0.0068978257 -0.49774417 -0.020946989 -0.018195165 -0.3028949 -0.13674179 -0.3440282 -0.18344016 0.011518075 -0.010377762 0.24227397 -0.17125401 0.064336285 0.14883508 -0.042072892 -0.23766114 -0.006336747 -0.37434506 -0.3014314 -0.0014707936 -0.018084774 -0.26087394 -0.090622894 -0.11981135 -0.2866213 0.06883261 -0.06514889 0.30336386 0.13417207 -0.062835 0.20831428 -0.18170345 0.21642385 -0.30956703 0.18054366 0.11545996 -0.597388 0.009090985 0.09094985 0.19931632 -0.24465558 0.12873743 0.22390486 -0.12408215 -0.15499708 -0.06893977 -0.1466375 -0.36107257 0.19255483 0.18052597 0.052241597 0.07119867 0.0030867136 -0.21608068 0.23862316 0.036922995 -0.06275781 0.069744 0.07848724 -0.022738473 -0.02630992 0.054526825 0.1118562 -0.04773497 0.13952075 -0.14990863 -0.13346 0.036151577 -0.15522116 0.025806962 -0.08155824 -0.1341479 0.52769613 0.035144396
2864 -0.12550679 -0.0027263744 0.30138126 0.06488622 -0.17557026 -0.34429452 0.19573665 0.1681047 -0.016665624 -0.0314828 0.22425279 -0.17846888 0.06886268 -0.2625383 0.10362355 0.119806185 -0.06900769 -0.0074807266 0.08246112 -0.0805968 0.14250152 -0.04862491 0.04684186 -0.2429656 -0.19408892 0.39256594 0.029885463 0.049377114 0.30119142 0.19302121 -0.16613936 -0.25683057 -0.09786646 0.09868805 -0.15297261 0.13491386 0.15981115 0.24187063 0.04354092 -0.034074135 -0.021129625 0.2128146 0.06350494 0.11732027 0.1312275 -0.016742935 0.21459967 -0.48241657 -0.011138138 0.023983162 0.39666423 -0.013111838 0.10743411 0.16325714 -0.06928109 -0.35339203 -0.059217136 0.23340945 -0.2592111 -0.237564 -0.22643436 0.025669895 0.26924413 0.13963811 0.2629565 -0.46132648 -0.11130479 -0.21480323 -0.16134508 -0.25321457 -0.23625714 -0.011137121 -0.322243 0.050589114 0.07480891 -0.10064597 -0.08448388 -0.118168555 -0.24771205 0.08163144 -0.14890094 0.32997182 -0.09340102 -0.06661984 0.3136513 -0.08443448 0.0020789453 -0.2307476 0.108494624 -0.03502043 -0.24210712 -0.076846026 0.16468254 0.17265277 -0.11260514 -0.16093871 0.11699256 -0.11729448 -0.08570952 -0.12823561 -0.13553354 -0.07353288 0.21132821 0.13644607 0.023533426 0.048641708 -0.09579999 -0.20805004 0.0747112 -0.11573575 -0.09296976 -0.20676516 0.065538466 0.0013118687 -0.25263715 0.024626745 0.1262491 -0.045297053 0.29372188 -0.35388488 0.016436072 -0.13039415 -0.36000848 -0.1531931 -0.3053942 -0.16010596 0.2941756 -0.16440386
2777 -0.009240042 0.10049161 0.4408504 0.11469511 -0.18071613 -0.19304381 0.11197428 0.006496728 -0.0020045661 -0.18803793 0.19181414 0.031097695 0.19450754 -0.3160243 0.256138 -0.23571248 0.048194572 -0.04584335 0.20953369 -0.12119282 -0.030454857 -0.05760121 0.008552489 -0.29970157 -0.194372 0.20722525 -0.12006802 0.09345749 0.078184724 -0.15470265 -0.084421024 -0.39498243 -0.03734384 0.13253292 -0.21429554 0.2345105 0.27608553 0.34507623 0.2829102 -0.08668137 -0.08291353 0.19457643 -0.10198825 -0.100815915 0.2470273 -0.1274727 -0.053295914 -0.1517657 0.08993288 -0.112761796 0.28468767 -0.103241675 -0.020793492 -0.118938036 0.1200751 -0.3538325 0.029252691 0.25836465 -0.20629121 -0.16647951 -0.16599855 0.073328786 0.1684393 0.23686652 0.23955055 -0.22536635 0.095050134 -0.020072822 -0.13409412 -0.3395703 -0.13104457 -0.33395496 -0.4150966 0.089685835 0.100747555 0.034280915 -0.04871602 -0.023728194 -0.14131656 0.25275466 -0.10945957 0.22858441 -0.07060443 -0.053594075 0.16913728 0.08112484 0.08112782 -0.4190335 0.140681 0.027288072 -0.23987915 -0.12103017 0.25103793 0.08168775 -0.13120548 0.053477716 0.11088816 -0.0063062143 -0.14922664 -0.16007264 -0.39803636 -0.08516662 0.33412087 -0.019646846 0.15262002 0.21232295 -0.104338475 -0.17454953 0.02267414 0.029512614 0.16752544 -0.03832333 0.17195375 0.038083892 -0.07855088 0.16147523 0.046150424 0.17591593 0.352576 -0.14106032 -0.20802325 -0.031168727 -0.12504762 0.1859089 -0.5008101 -0.15177739 0.3455026 -0.010701218
3082 -0.16001467 -0.21935494 -0.17369092 0.06718372 -0.098034486 -0.07469143 -0.008003061 0.39504817 -0.03190231 -0.21109965 0.16029407 0.0027448921 -0.21255998 -0.21005492 0.2346018 -0.07598012 0.03677753 -0.092792876 0.08502394 -0.17789485 0.025292885 0.14667103 0.11700259 -0.20810278 0.11911152 0.20020494 -0.1966756 0.02727649 0.061171398 -0.029416775 0.049662746 -0.007975928 -0.035995092 -0.08071185 0.26231945 -0.13034406 0.0038214745 -0.31011882 0.06169022 -0.18811609 0.09863507 -0.040426407 -0.2947002 -0.029685287 0.08464351 0.15911993 0.031531215 0.28278425 0.25702548 0.2586358 0.06322927 -0.1989087 -0.068777576 -0.21565625 0.23726718 0.03222193 0.06323549 0.12315747 0.047859583 0.20236984 -0.18393208 -0.07968778 -0.020093828 0.17682241 -0.047213018 -0.13609725 -0.13875121 -0.27826503 -0.343939 -0.008502299 0.0036097446 0.14146572 0.11256144 -0.2626741 0.06632888 0.0976362 0.05103616 0.14879762 -0.055774532 -0.25135097 0.23828506 0.36221468 0.020160891 0.04159671 0.11513979 0.44765887 0.28861183 0.12431621 -0.053736433 0.27161178 -0.12472743 -0.13879219 0.17678165 -0.17649448 0.21879375 0.15743515 0.2903374 -0.09478075 -0.27035275 0.3056191 -0.14192355 0.009641184 -0.09484358 0.34379598 0.17648031 -0.51818275 0.19503853 0.21773487 -0.051250167 -0.18918905 0.09056598 -0.013132477 -0.3897652 -0.057164535 -0.3498157 -0.16832642 0.2716605 0.00589244 -0.07048784 -0.02282402 -0.18016633 0.24247766 0.01368113 0.010107767 -0.043145243 0.14030589 0.07849906 -0.21802196
2951 -0.56930923 -0.1225655 0.07682009 0.32579637 0.026655963 -0.04727053 -0.041147217 0.08957764 -0.049807046 0.0008274127 0.18493669 0.18294035 -0.18153378 -0.0793078 -0.25373197 -0.0025974647 -0.00013986681 -0.039950002 -0.013021541 -0.22824982 0.18858683 0.24715185 0.13318276 -0.08700047 0.17148665 -0.24842371 -0.29196167 0.22123237 0.27933237 0.0041722227 0.16792162 0.06457472 0.12175185 -0.4095601 0.10822803 0.2626873 -0.07104167 -0.32657096 -0.11590559 0.16380274 -0.116454005 0.01918231 -0.11109458 0.12009697 -0.0069322037 0.2345148 0.14487608 -0.12551057 -0.065737866 0.15484896 -0.0005041338 -0.27480173 -0.02299273 -0.32502264 0.22732262 -0.21307455 0.41088817 0.12294118 0.10002944 -0.052847683 -0.0067900466 -0.17720969 -0.14872703 -0.14702658 0.062592916 0.049658842 -0.3618793 0.06671778 -0.44529873 -0.084929585 -0.016677843 0.24486725 0.09953512 -0.038984288 0.20494421 -0.34561604 -0.26656187 0.078730226 -0.2465024 0.11347261 0.5232232 0.14244692 -0.04757769 0.21587746 0.06260263 0.46805504 0.24771625 -0.1477888 -0.1619241 0.024015874 -0.056394324 -0.14174958 0.11505836 -0.0397789 0.24703668 0.29115155 0.13893066 0.08388073 -0.06650537 0.096735016 -0.2536598 0.101457395 -0.29718408 0.08404382 0.13015158 -0.11867931 -0.15232354 0.20154664 0.08742768 -0.017619004 0.14818326 -0.107765384 -0.3724695 0.22643444 -0.20733926 -0.34846884 0.34866545 0.28941962 0.21558522 0.028923273 -0.07701944 0.19351122 -0.07163617 -0.22525764 0.00863718 0.33745766 0.09510296 -0.29474357
3134 0.33847976 0.14391519 0.116992034 -0.042430505 -0.045554597 -0.14963937 0.38527516 0.13602121 0.014963801 -0.05069573 0.17102729 0.2134168 -0.2993325 -0.10866767 0.014214344 0.148729 -0.27636337 0.016483516 0.0037802146 0.103242844 0.117462575 0.27267966 0.023432512 -0.16786382 -0.13184558 0.12487962 -0.29007682 0.08964176 0.07556933 0.13990933 -0.05318993 -0.09679652 0.2678714 0.250313 0.0450826 -0.20454021 0.28908864 -0.11119214 0.039791826 0.11432238 -0.1505967 -0.0029911606 -0.102954425 -0.21972583 0.05651967 0.17986841 0.057422977 0.16424346 -0.029338332 -0.06404021 0.04077874 0.06431525 -0.12300906 0.19958569 0.11750909 0.18410821 0.3490373 -0.21341321 0.027059367 -0.11686631 -0.1449831 -0.1478244 0.080473214 -0.16335936 0.07965406 -0.03195712 -0.008144551 -0.017693821 0.03480634 0.07847458 -0.19788103 -0.00045282135 0.012432521 -0.14486185 -0.237234 -0.13327053 0.0075600776 -0.04613058 -0.18188702 0.097144976 0.17759047 0.22275947 -0.13563693 0.30831498 -0.029811684 0.40990096 -0.030492343 -0.034110576 -0.028892748 0.09417789 -0.16168617 -0.5569429 0.2732776 0.057473175 0.069641896 0.09434196 -0.040452894 -0.11639866 -0.025029335 -0.20931554 -0.04721414 0.08675702 -0.13307236 0.23228121 -0.050005145 -0.26001236 -0.13290283 -0.021625116 0.09620804 -0.1701254 0.13613361 -0.06839465 0.018640367 0.07219467 0.08297299 -0.14965092 -0.0069238786 -0.24061427 0.18321788 0.008767973 0.022053659 -0.12987657 -0.007042748 0.073169865 -0.22202508 -0.19378763 -0.2217029 -0.14638953
3291 -0.116675064 -0.105266154 -0.114698514 -0.09486274 -0.16223444 0.044040482 0.09137282 0.098683156 0.07879149 -0.11791557 0.067607984 0.23624688 -0.21922566 -0.09695761 -0.00055425055 -0.10475813 -0.27473658 0.042271756 -0.03229228 -0.27893713 0.155114 0.02102326 0.12971868 -0.11262798 0.1331818 0.056568895 -0.13653466 0.07687174 0.16392766 -0.018190594 0.32374156 -0.21235462 -0.09481711 -0.0053600147 0.18834725 0.007959178 0.056509558 -0.18878312 -0.055643816 -0.19121012 -0.0020457453 -0.012313788 -0.20835115 0.040711828 0.23441453 0.020195778 -0.057631608 0.09695609 0.22879055 0.23540895 -0.26281682 0.14846158 0.14155191 -0.4582511 0.27484038 -0.21490255 -0.049432512 0.18458861 -0.14294414 -0.04108689 -0.12507987 -0.1777838 0.068549596 0.08834496 -0.096371494 -0.015733752 0.17185752 -0.15152624 -0.2518898 0.14340638 -0.069849394 -0.06882371 0.16688123 0.1416497 -0.106956765 -0.20052104 -0.13414972 0.018931076 0.19351831 -0.13716134 0.31582388 0.31793022 -0.2864458 -0.021335311 -0.030053884 0.5593383 0.18112382 0.30193925 -0.030340951 0.11838087 0.038344633 -0.28414327 0.13299581 -0.17767903 0.10854393 0.083899684 0.18348733 -0.23617066 -0.14814423 0.06769943 0.077200666 0.020369645 0.10311773 0.29250538 0.22193997 -0.23729803 -0.020722698 0.20562056 0.06737108 -0.35533345 0.3075934 0.035711765 -0.27797237 0.19038521 -0.37192157 -0.06285462 0.3646648 -0.20018677 0.09539861 -0.12798761 -0.32282314 0.24090996 -0.06016657 -0.1122629 0.010761803 0.18160023 -0.0015040926 -0.3084041
2960 -0.072669275 -0.08062284 0.43242916 0.040797338 -0.2797372 -0.113688566 0.19073479 -0.042732514 -0.1589139 -0.14449145 0.073784776 -0.047775604 0.25477862 -0.30971092 0.07756682 0.025254464 -0.054733727 -0.08200993 0.15257247 -0.20559883 0.13593587 -0.17463624 0.23901029 0.03654779 -0.10316196 0.32135364 -0.21863993 0.15204807 0.20656691 -0.033280294 -0.043498527 -0.097112566 -0.07250627 -0.03837941 -0.15253145 0.3269586 0.1339194 0.20129699 0.079125345 -0.09715991 0.13124464 0.11895008 -0.18592745 -0.29937217 0.3631568 0.12794371 0.006322967 -0.31966993 -0.037476283 -0.061157748 0.37167302 -0.32248858 0.20293699 0.08195842 -0.003862161 -0.30591902 -0.01619322 0.09907028 -0.16447952 -0.10860878 -0.14449058 0.13150087 0.14809777 0.14124395 0.25507796 -0.33263966 -0.037316274 -0.05336893 -0.023694102 -0.24063769 -0.30646563 -0.31883007 -0.3857488 -0.08619198 -0.084640786 -0.026380712 0.265466 -0.34216902 -0.053754568 0.17410448 0.124517225 0.084319346 0.08877566 0.027199227 0.49749646 -0.24885952 0.22404413 -0.48138675 0.118424885 -0.16909745 -0.34810796 -0.21485114 0.2335387 0.2596128 -0.20596705 -0.0063798237 0.079185575 -0.06255693 -0.09651176 -0.15962166 -0.2022192 -0.09741182 0.22028075 -0.022334157 0.1309533 0.2763806 -0.255532 -0.13665937 -0.05709907 -0.13545966 0.32971883 -0.25994503 0.095306925 -0.029619811 -0.22259608 0.11012959 0.2078572 0.068312034 0.1857762 -0.1854958 0.02811851 -0.1205916 -0.12552205 0.0473691 -0.35700157 0.031402603 0.14139794 -0.06475896
2679 -0.14834242 0.09495073 0.42258948 -0.13751635 -0.14069432 -0.28197482 0.37583226 0.021687137 -0.25109813 -0.14536819 0.019460918 0.18389551 0.075590685 -0.20341995 0.22758922 -0.0019027976 -0.039656635 0.13195954 0.12492018 -0.37057936 0.109556004 0.11991375 -0.005529353 -0.021944122 -0.17777245 0.25561684 -0.11837874 0.07319612 0.1754187 0.041117452 -0.031159645 -0.122975275 0.060141783 -0.15362434 0.005625361 0.09521274 0.06710906 0.020971999 0.1974943 0.07427934 0.16419181 0.14975841 -0.01288927 0.057732813 0.21648984 -0.007878376 0.11482616 -0.27286634 -0.07982206 -0.2278157 0.38277134 0.044887323 -0.033934142 0.06545832 -0.39512554 -0.21563105 -0.36698273 0.31575418 -0.08364193 -0.2570369 -0.14501254 0.19866133 0.39167005 0.07643985 0.22692554 -0.33924687 -0.005441161 -0.015757846 0.07592542 -0.25454593 0.06744568 -0.0542625 -0.49926585 -0.025496278 0.006624581 0.12238147 0.08701454 0.18352175 0.17774545 0.20223671 -0.09583988 0.31592038 0.28110114 0.13302144 0.33027405 0.16648936 0.042622253 -0.55942094 0.06749831 -0.24216458 -0.22510508 -0.076786675 0.3497621 0.2589645 -0.06460783 -0.017376572 0.12853217 -0.09989391 0.13632546 -0.1397621 -0.47222313 -0.0552593 0.070371225 0.2883405 0.110580705 0.08338366 -0.1296434 -0.2040077 0.21676855 -0.056807607 -0.22083512 0.08213006 0.20705643 0.18837056 -0.28368148 -0.19257593 -0.13791305 -0.15954614 0.10001254 0.2383488 -0.08373167 -0.2010148 -0.24931662 -0.17771974 -0.18467015 -0.1475638 0.11258626 -0.22891484
2890 0.041840848 -0.06535428 0.5845863 -0.16350576 -0.12949842 -0.09642877 0.103382595 -0.017791376 -0.20308962 0.13286065 0.2356008 -0.019585408 0.10583509 -0.3689467 -0.008940825 -0.044176623 -0.029882623 0.32042065 0.34233713 -0.37119925 0.09213228 -0.13872153 -0.09562928 -0.14296311 -0.13066952 0.12441538 0.07515961 0.16958338 0.31240925 -0.29319528 0.08832382 -0.18352209 0.22233805 0.0056459685 -0.09226367 0.32235858 0.061989676 -0.07166883 0.3727633 0.0779952 0.24855773 0.17345466 -0.11940618 -0.060971577 0.3581138 -0.028685186 -0.065891616 -0.24209534 -0.03956131 -0.32914874 0.4117569 0.093669556 0.007403204 -0.056739736 -0.30948544 -0.3224883 -0.3578882 0.22123747 -0.21512453 -0.27278987 -0.15355915 0.11560708 0.4657043 0.08061705 0.1270925 -0.23217686 0.008143325 -0.3313301 -0.015935026 -0.045503713 -0.11231889 -0.38096312 -0.25772753 -0.15649429 -0.023799656 0.022260709 -0.03467833 0.17442667 -0.21515284 0.20959401 -0.105641134 0.111114375 0.27550277 0.18694092 0.21655641 0.05141425 0.16847819 -0.5555943 0.25462028 0.070835695 -0.16142417 0.012499148 0.20672505 0.08023891 -0.12096462 -0.26438433 -0.10235758 -0.22224638 0.1688421 -0.0795768 -0.21505208 0.16824211 0.023817858 0.05858078 0.18072744 -0.06380086 -0.094484754 -0.18053775 -0.03978062 -0.24986282 0.24936087 -0.14218874 0.099105105 0.0062273815 -0.065908365 -0.08027435 0.040316314 0.090135835 0.10224439 -0.09527836 -0.048881765 -0.35390452 -0.23132734 -0.015865302 -0.29463977 -0.07395015 0.17212406 -0.16737297
2919 -0.13688242 -0.071741775 0.49938005 -0.02753258 -0.017924499 -0.29619575 0.1099161 -0.17313422 0.10933128 -0.2146681 0.11545566 0.08255726 0.06906112 -0.3663522 0.29191738 -0.012438624 -0.09224069 0.07173466 0.35598454 -0.4442616 0.033346437 0.13073577 0.108774535 -0.12707412 -0.21364978 0.17656834 -0.20183662 0.10922614 0.14638875 -0.18623257 -0.24413073 -0.0065982407 -0.29070762 0.13545609 -0.032397933 0.4667013 0.17283845 -0.049585428 0.14520027 -0.031164525 -0.23813717 0.22711518 0.054732643 -0.010668739 0.13108763 0.23889048 0.1807586 -0.18108264 -0.39460763 0.06174517 0.4015519 -0.12849273 0.12037642 -0.044449873 0.05753345 -0.2918099 -0.16092186 0.12520431 0.021045908 -0.20524216 -0.30382153 0.02554127 -0.040920157 0.10376298 0.13948923 -0.21388014 0.092644334 -0.18354963 -0.22014265 -0.1827283 -0.33532527 -0.37544307 -0.49736103 0.12493719 0.22696365 -0.12970126 0.08484173 -0.019735334 -0.081572294 0.25241625 -0.28589347 0.029797412 0.005645822 -0.1219882 0.21614704 -0.1647226 0.0661873 -0.48520532 0.005013042 0.09227542 -0.16167423 -0.10715595 0.34499362 -0.09876337 -0.09890724 -0.03206732 -0.02811634 0.008352207 -0.13241737 -0.3147024 -0.27506027 0.17305341 0.26319826 -0.17171791 0.03594964 0.059539646 -0.10430068 -0.1736709 0.17194347 -0.18943386 0.07321553 -0.056099683 0.086558014 -0.01456147 -0.1411356 0.28994927 0.032901477 -0.1956201 0.16864403 0.11746377 -0.25075856 -0.05250791 -0.11307724 0.28774083 -0.12524778 -0.05498897 0.36459368 -0.12127237
3054 0.018068146 -0.061956663 0.2808585 0.052308697 0.028470028 -0.38098577 0.16963516 0.111702204 0.025749465 -0.2932513 0.326493 -0.25610977 0.31276432 -0.4949379 -0.06743214 0.05109429 -0.021065878 -0.01570052 -0.21654212 -0.17336756 -0.0027782107 0.027648363 -0.0922005 -0.052300163 -0.31051585 0.21715856 0.08078883 0.009173257 0.23322196 0.0025508087 -0.21844614 -0.2424035 0.013499321 0.055416584 -0.064081095 0.26425335 -0.029808288 0.24186291 0.43812385 -0.016731573 0.14330561 0.38771304 -0.22310145 0.06264659 0.21029653 0.092492625 -0.096796855 -0.24108611 -0.2448091 -0.071917966 0.6446273 -0.09541244 0.18307982 0.13795745 -0.20106593 -0.3401901 0.027596325 0.17159128 -0.16828199 -0.20585491 -0.2044593 -0.092737354 0.05692811 -0.005812401 0.2631116 -0.16962461 -0.16091292 -0.088989876 -0.18239449 -0.35583022 -0.018554792 -0.5233103 -0.42642024 -0.055951085 -0.22266077 -0.20795949 0.0345678 -0.18641436 0.022434983 0.1568893 -0.123466656 0.22715354 0.28568342 -0.01918967 0.12008631 0.26383752 0.12932163 -0.40803283 0.17570966 0.070924886 -0.49852222 -0.070698366 0.14703336 0.1192661 0.0999435 -0.23440386 0.14659041 0.029469687 0.1287382 -0.053281605 -0.07455227 -0.15210351 0.2433412 0.046009965 0.0064481995 0.08120569 -0.017415725 -0.18049146 0.023365378 -0.1367675 0.1849616 0.11140564 0.04894007 -0.047668662 -0.25159925 -0.12124743 0.31594557 -0.19178414 0.36329204 -0.18088897 -0.049700633 0.046979997 -0.21361771 -0.08800634 -0.27703938 0.0030269958 0.1231486 -0.050543495
3280 -0.1820491 0.061403077 -0.11870446 -0.12224659 -0.05884459 -0.02405401 0.2735313 0.13823362 0.12651917 -0.22305062 0.08101039 0.37683383 -0.35635635 0.10230037 0.094300635 -0.10945956 -0.04230196 -0.16466957 -0.0840852 -0.1532848 0.016137257 0.37177452 -0.06334194 0.122049995 0.1822868 0.0037230114 -0.16144162 0.059986405 -0.0037369751 0.14043298 0.1738348 -0.02584336 -0.23634991 -0.12442637 0.13425785 -0.07054193 0.14633603 -0.32353556 -0.004421835 -0.3687206 0.14174956 -0.052817713 -0.28920838 0.01687504 -0.11310457 -0.28499457 -0.05450988 0.198449 -0.016189437 0.046892043 0.18152948 0.010327739 0.09752873 -0.19220203 0.024822028 -0.037028044 -0.077388994 0.07761188 -0.09141134 0.16526736 -0.37465847 -0.0800111 -0.024971051 0.2698203 -0.076563455 0.06813892 0.011535656 -0.07920178 -0.23561588 -0.08493983 -0.24851139 0.01630923 0.30249092 -0.058176816 0.044523824 -0.18884851 0.10400819 0.11193555 -0.050520487 -0.3219113 0.22270414 0.3563906 -0.06156378 0.07245453 0.2405657 0.2792735 0.43903273 0.07204269 0.023588477 0.019865999 0.13401577 -0.26736563 0.20609209 -0.25041035 -0.04070891 -0.09339711 0.22205122 -0.00090567203 -0.2866184 -0.067280784 -0.0036718766 -0.031685837 -0.008344344 0.15577793 0.10462913 -0.27550837 0.17962448 0.04188454 0.08853189 -0.26876473 0.14447285 0.17730324 -0.25902843 0.070587926 -0.64687574 -0.2603639 0.33847567 0.30020022 0.032138713 -0.41085258 -0.42298463 0.17021142 0.06694692 -0.15040906 0.24823852 -0.11384145 -0.017295793 -0.1774331
2754 -0.07122276 -0.07675384 0.314454 -0.07073047 -0.012318299 -0.45391715 0.23703033 0.027231771 -0.12066512 -0.14562038 0.13318495 -0.023923915 0.016144723 -0.59712416 -0.084455885 0.0069524576 0.06604029 0.020722227 -0.4665318 -0.15289378 -0.13165322 -0.07225167 0.11199736 -0.17886844 -0.04258551 0.41133332 0.10158611 0.30291173 0.31537294 -0.077976815 -0.12539501 -0.13764648 -0.17681831 0.19458719 0.058321986 0.10873806 0.22423927 0.08453211 0.23682946 -0.14381927 0.0037120637 0.041696124 -0.16035561 0.040420163 0.19616202 0.11052695 0.03129061 -0.3192871 0.052971985 -0.35941014 0.5082668 -0.031885434 -0.021917911 -0.018351521 0.22936912 -0.33239007 -0.20750766 0.29034275 -0.57626766 -0.22764374 0.05630568 -0.21816994 0.39023733 -0.14507027 0.20468512 -0.16110481 0.12623979 0.008295483 -0.08491119 -0.47265497 -0.18258585 -0.26354438 -0.3264484 0.013986687 0.112763725 0.04558425 0.050435167 0.052696023 -0.1455317 0.12666245 -0.040511906 0.104776286 0.0395974 -0.05685228 0.13128082 -0.10069343 0.21013936 -0.46449637 -0.078181185 0.18244231 -0.18214838 -0.002982825 0.26550135 0.18134105 -0.23264953 -0.22317697 0.07413174 -0.2040584 -0.05475005 -0.044289947 -0.19218086 -0.0012449876 0.19962288 0.11543808 0.0849231 -0.115550265 -0.18436776 -0.122380584 0.2626164 0.18170728 0.02166214 0.033662613 0.034837514 -0.15776934 -0.14320287 -0.109901935 -0.03798589 -0.037462912 0.07401907 -0.38522333 0.011426819 -0.0313498 -0.25025082 -0.15680973 -0.20500077 -0.055805538 0.2966399 -0.1463704
2778 -0.008259749 -0.31221813 -0.0396471 0.21515165 -0.28609434 0.3575055 0.037320163 0.2153301 0.056441113 -0.105709195 -0.102571085 0.13828994 -0.27030456 -0.17886633 -0.05337295 -0.20701505 -0.14477466 0.17453903 -0.05896183 -0.20952839 0.11380332 0.21414326 0.26604804 -0.045549113 -0.019966973 -0.055319007 -0.09699419 -0.13801047 0.0007021427 -0.02258008 0.23999931 -0.081667155 -0.34881333 -0.12361687 0.2322846 -0.0301414 -0.0844021 -0.25333017 -0.04183949 -0.3845063 0.21972601 0.08121444 -0.4329352 -0.19582139 0.11954374 0.025532207 0.03703101 0.121350735 0.011595749 0.0058175195 0.114291415 0.014647577 0.04838484 -0.42225572 0.18523392 -0.09887264 -0.0016095062 -0.024503024 -0.08872473 0.15006265 -0.2532818 -0.015627572 0.102054894 0.010696219 0.09341511 0.014430327 -0.38338116 -0.12245603 -0.2683349 0.15910977 -0.06875412 0.3182613 0.03407249 -0.069234215 0.22346884 -0.07279626 -0.037345976 0.051827487 -0.22554454 -0.0038858769 0.2000476 0.31155333 0.046733942 0.077014945 0.028341047 0.28162894 0.3901975 0.017368702 0.33386534 0.04769826 0.014405239 -0.19336824 0.23309693 -0.09697704 0.08836182 0.1487497 0.058133714 -0.05704235 -0.10506861 0.017701307 0.063257776 0.12073425 0.03518845 0.37708196 0.07471944 -0.56025374 0.116393544 0.038356584 -0.06747718 -0.2590432 0.17294921 0.036473896 -0.24424908 0.2280642 -0.47227138 -0.15030627 0.31800115 0.19510199 0.027241869 0.012305983 -0.11430349 0.050756954 0.043304358 -0.18256095 0.16883908 0.0121656945 0.060167614 -0.033631645
2913 -0.16234277 -0.075645745 0.3356682 0.0042080674 -0.07450815 -0.3416732 0.20117594 0.27205163 -0.05207569 0.18058434 -0.023400275 0.008358764 0.008294873 -0.30542317 -0.08058886 -0.070585385 -0.17574212 0.16415899 0.11785291 -0.397047 0.15936491 0.019127674 -0.20517446 -0.23896651 -0.022191213 0.309816 0.06058185 0.11837488 0.2569118 -0.07425845 -0.23339139 -0.09021602 0.17998496 -0.16817471 -0.15317379 0.33410078 0.22374405 0.3441448 0.2601156 -0.15296614 0.082722284 0.11525766 -0.14142162 0.04075398 0.2684435 -0.055346604 -0.05160655 -0.2692038 -0.16871603 -0.39335084 0.3181276 -0.018139776 0.077604085 0.07325401 -0.21086106 -0.33890098 -0.021609945 0.20177795 0.14317213 -0.31662676 -0.34261045 0.11044134 0.36763716 0.049364347 0.07211226 -0.33506405 -0.00951358 -0.35383084 -0.12150385 -0.11664686 -0.0823663 -0.24076515 -0.39242953 0.05932852 -0.1748815 0.22486044 0.004648883 0.120650284 0.024263386 -0.08386281 -0.076851614 0.30303198 0.0943882 0.06335731 0.26650304 -0.37908152 -0.014417394 -0.4048122 0.13130353 -0.07637392 -0.085756235 -0.1392405 0.35136175 -0.0156398 -0.052456554 0.050433286 -0.0077771447 -0.053218774 -0.06923254 -0.23231828 0.07287734 -0.047262467 0.045954786 0.25036058 0.34888792 0.1463671 -0.22494684 0.069754876 0.114368625 -0.24570765 0.09253778 -0.1547172 0.09135661 0.17200713 0.0046961154 -0.26841113 -0.20641343 -0.19102912 -0.0007456674 -0.013907761 -0.36622116 -0.05338872 -0.27349946 -0.3403439 -0.28286526 -0.047829438 0.21408823 0.004415951
3397 -0.23503216 -0.28242797 0.04566948 0.03409599 -0.062834516 0.3286092 -0.19337484 -0.06051488 0.119695514 -0.18042566 0.16671419 0.22952822 -0.062024165 0.004120208 0.06717087 -0.12640701 -0.22485526 -0.03487332 -0.07673081 -0.13106056 0.18157077 0.4320445 0.11187362 -0.27716935 0.3903287 -0.051498156 0.08051563 0.13900438 0.008048073 -0.16534644 -0.059046198 0.024053937 -0.20475799 -0.011435862 0.0073702806 -0.20445602 0.42008814 -0.22417346 0.0952517 -0.16907483 0.16371638 0.15784961 -0.11419298 -0.014515415 -0.08166496 -0.09739493 0.10271323 0.2201765 0.05450679 0.20333382 0.017241638 -0.09387242 0.06681676 -0.23471338 0.09838282 0.0069453875 0.077347524 0.119835645 0.08344236 0.025884591 -0.43572193 0.07360945 -0.14776894 0.07151985 -0.029461715 0.2592064 -0.014844722 -0.086872235 -0.30257225 -0.019152544 -0.27886555 0.09019949 0.041682776 -0.44411188 -0.0539686 0.100794114 -0.30540583 0.076945 0.21666357 -0.21943162 0.38394704 0.11958805 -0.12839347 0.17839411 0.034950174 0.40495476 0.11141018 0.2794173 0.052551884 -0.056146566 0.0050298613 -0.12014531 0.21842723 0.10903758 -0.051675968 0.21072568 0.24034566 -0.025993608 -0.35215235 -0.08255713 -0.078766145 0.20495428 -0.14938931 0.32865915 0.2418938 0.050382406 0.017877538 -0.060913157 0.14899093 -0.29453537 -0.21669751 -0.098981105 -0.17187656 0.17812552 -0.39543593 -0.10055244 0.34330377 0.069830656 -0.17500296 -0.17585042 -0.3556434 0.24238616 -0.3593358 -0.18285741 -0.2820725 0.1909261 0.03194214 -0.116185516
2719 -0.20654543 -0.064713486 -0.3217229 0.15522568 -0.30942613 -0.13964957 0.16596285 0.26430583 0.0018575491 -0.11286206 -0.015063164 0.21449064 -0.348767 0.039601885 0.122537114 -0.160189 -0.13042377 0.23553234 0.15344875 -0.17021312 0.13200992 0.020108527 0.09231326 0.038470358 0.15715565 0.0560724 0.041040815 0.28438196 0.1357602 -0.37251833 -0.11122067 -0.08743747 -0.1713467 -0.18975331 0.22738592 -0.12547615 0.27026582 -0.21321456 0.122386046 -0.4196439 0.3946952 -0.11210317 -0.31404498 0.010478774 0.08188288 0.029767038 -0.18818404 0.40274292 -0.27459615 0.19402438 0.16611588 -0.023259196 0.09978881 -0.22095539 0.09967902 -0.16562101 -0.053345636 0.048544433 -0.045614142 0.18563347 -0.27237263 -0.07490892 0.112277515 0.17287317 -0.08606295 0.058171734 0.01603822 0.007370822 -0.27050528 0.13563898 -0.17115545 0.09897979 0.16214512 -0.0314574 0.1288497 -0.10416091 -0.153306 0.069881834 -0.012153957 -0.054714814 0.24034347 0.17057386 -0.16802728 -0.0030874177 0.08378861 0.2701646 0.21136938 0.22290641 -0.0076883663 -0.11457043 0.17050487 -0.15285872 0.0725606 -0.33224416 0.08659821 0.27941483 0.3031932 0.17437631 -0.42380413 -0.016713185 -0.0028450848 0.13827893 0.13759847 0.06832163 0.078437105 -0.43083465 -0.0049987007 -0.01595387 0.09923918 -0.26363084 0.2679285 -0.003234137 -0.12738295 0.09669521 -0.5943044 -0.13985343 0.35665882 -0.012714637 -0.04659895 -0.034594797 -0.14598915 0.15043649 -0.0035594078 -0.07410882 -0.016813582 0.17344297 -0.03166026 -0.1940882
3267 -0.14120898 -0.21904302 -0.15277311 0.026247447 -0.1337477 0.03286249 -0.06379859 0.34817278 0.010265099 -0.12904628 -0.04119144 0.084989384 -0.100856476 -0.30175552 -0.22318636 0.0331875 0.09365308 0.16265945 -0.12881905 -0.12236276 0.29361886 0.1903553 0.10304332 -0.09508785 0.24932396 0.22586668 -0.21527946 -0.053822584 -0.16652939 -0.024655601 0.11424676 -0.07396873 -0.24913825 0.031569965 0.06387964 -0.006840023 0.11709308 -0.15174574 0.032374687 -0.13576686 0.19833046 -0.18356463 -0.27532896 -0.014784682 -0.0036861952 0.08745397 -0.0053433874 0.32091025 -0.088582456 -0.099112295 0.06921392 -0.14775233 0.14661501 -0.3119329 0.2777017 -0.1615883 0.025515597 -0.056523234 0.07638945 0.18672332 -0.2943029 -0.10656214 -0.13363048 0.19037579 0.013829771 -0.13255489 -0.24154349 0.009325507 -0.31655496 0.027323728 -0.1589226 0.083304085 0.1781524 -0.20954399 -0.099048845 0.17011552 0.020047799 -0.0643608 -0.18585481 0.033448525 0.25580895 0.21848708 -0.019388787 0.26474524 0.09420356 0.3974975 0.3078483 0.090010524 0.20781049 0.07145598 0.11617629 -0.26498988 0.056226373 -0.015239952 0.027712522 0.077504955 0.20634572 -0.15055965 -0.20635714 0.24237058 -0.022221848 0.006458989 -0.010025347 0.18276407 0.25505012 -0.37627873 0.051818516 0.06507331 -0.11176208 -0.36967525 -0.074655525 0.057764906 -0.08185132 0.07647042 -0.33374503 -0.28305066 0.21822582 0.29197815 -0.20758583 -0.010250516 -0.3792807 0.2452755 -0.13529241 0.102959864 0.2162935 0.22678885 0.0763426 -0.3415124
3252 -0.2968027 -0.37174913 -0.0038146588 0.08451321 -0.08214767 0.03329631 -0.0050846813 0.164048 0.016262045 -0.22165099 -0.040714025 0.19359054 -0.1714359 -0.0045490586 -0.12295537 0.024673494 0.07328636 -0.20132701 -0.09383792 -0.1407735 0.21728943 0.16807362 0.15531622 -0.059693158 0.20790727 0.05119302 -0.29348245 0.16726299 -0.16789395 -0.21088858 0.20761496 -0.26301846 -0.11391241 -0.14290199 0.10987907 0.04629125 -0.061064385 -0.2955529 -0.0821254 -0.038684245 0.11640962 -0.0059247776 -0.27511817 -0.19827284 0.010665498 0.15335646 -0.11011416 0.23007895 -0.22272864 -0.03730876 0.24557157 -0.11076579 -0.010674638 -0.35238826 0.36842862 -0.062660754 0.023037432 0.01905439 0.032875452 0.124403924 -0.14408708 -0.04492422 0.045672897 0.17625612 -0.1451204 0.019652365 -0.2421539 -0.14583714 -0.35906878 -0.12972699 -0.1293717 0.33658996 0.13395433 -0.078521855 -0.07311957 -0.02359302 -0.17089488 0.028911373 0.013130283 -0.0532005 0.115164444 0.31058404 -0.012677938 0.21769007 0.1086555 0.44323257 0.21251433 0.19468176 0.12281099 0.20659293 0.04892712 -0.15910831 0.23374084 0.06993845 0.21442193 0.15366252 0.44764453 -0.12701173 -0.32426408 0.015689481 0.053938195 -0.011437932 -0.1573679 0.19027181 0.09706408 -0.33454952 0.16146131 0.021642439 0.21815303 -0.30805382 -0.04512176 0.008034395 -0.020649334 0.10972035 -0.49839172 -0.20730378 0.3989743 0.0050812587 -0.1526449 -0.002057615 -0.16003503 0.36030942 -0.06151197 0.029399663 0.023658365 0.019717244 0.037561838 -0.13312493
3363 -0.057236303 0.03925982 0.22288004 0.024335679 -0.15981911 -0.4588571 0.38306612 -0.13617021 -0.16770971 -0.3308517 0.22171691 0.048011344 0.13732828 -0.5330277 0.100747235 0.0714912 0.032614987 0.111809045 0.035440013 -0.044905018 -0.09590194 -0.0055056857 0.14738284 -0.31058145 -0.08216785 0.27211455 -0.24143316 0.017332166 0.409709 -0.14510973 -0.15422991 -0.12279004 -0.12236374 0.15767622 -0.26018867 0.33053607 0.1825617 0.00061795505 0.24088418 -0.20416188 0.080768 0.24801761 0.03797226 0.13886362 0.14780569 0.01873669 0.004668886 -0.33672607 -0.12818383 -0.0033469254 0.58556557 0.0420305 0.28054237 -0.021290803 0.020734398 -0.43091795 -0.20518294 0.17990772 -0.12197551 -0.28705594 -0.063414514 0.054378204 0.25020465 -0.03574025 0.12594083 -0.21947983 -0.049042325 -0.14621323 0.12532064 -0.117585614 -0.04345563 -0.31398728 -0.271827 -0.0010966739 -0.077502266 -0.23608069 -0.043249447 -0.056097418 -0.14543729 0.28088555 -0.078353606 0.17239316 0.050217215 -0.067784004 0.21647556 0.06959396 0.16975157 -0.5135141 0.16899244 -0.08112336 -0.20217429 -0.2443883 0.17154858 -0.031908512 -0.29429528 -0.062409826 0.11560025 0.06582821 -0.04802334 -0.086618826 -0.069655724 -0.047109954 0.049300347 0.032174338 0.11606551 -0.06467892 -0.07477947 -0.22203839 0.16338085 -0.071361534 0.07989091 0.14063856 0.10257425 -0.13962406 -0.19217184 0.089435294 0.01153456 -0.06795445 0.23623964 -0.24228609 -0.041475214 -0.04012144 -0.34153438 0.029143112 -0.20262982 -0.19604568 0.18936552 0.016650219
3116 0.014792703 -0.16689663 -0.0328042 -0.0460927 -0.061199445 -0.16743548 -0.1332149 0.1111311 0.11121762 -0.121437706 0.14889657 0.26879272 -0.28524223 -0.05784533 0.23526803 -0.13084304 0.064086124 0.06989744 -0.13637972 -0.07703794 -0.15902817 -0.048133295 0.033077918 -0.09559871 0.10946216 0.10441206 -0.24714407 0.2821657 0.0067510256 -0.13345523 0.17061482 0.058660664 -0.34387192 -0.03185871 0.1759319 -0.13854222 -0.043424062 -0.09073911 0.20187375 -0.3213268 0.21688743 0.1249542 -0.22497909 -0.13096173 0.16337468 -0.03098945 -0.12044519 0.23227853 0.19260538 0.1992627 0.06508611 -0.12053572 -0.042238977 -0.32651037 0.05488961 -0.022616254 0.1254972 0.12177184 -0.10739831 0.16947243 -0.26924688 -0.1350073 -0.14027174 0.07896548 -0.20160292 -0.21173234 -0.13087769 -0.068134785 -0.19802937 -0.16049176 -0.08854684 0.29474452 0.302408 -0.16658047 0.043811653 -0.046783045 0.2244034 0.30816236 -0.26942018 -0.35365298 0.03907352 0.3592539 0.03651971 0.090454005 0.4991426 0.39709786 0.17649026 0.48955417 -0.09621749 0.018084731 0.041618057 -0.07215648 0.18092 -0.3109869 0.040954188 -0.05413916 0.15403229 -0.18183815 -0.26942155 -0.11236694 -0.40779343 0.043965995 0.13623051 0.0828694 0.23333871 -0.48204634 -0.04512922 0.054808673 0.20570369 -0.41042486 0.070669904 0.08082006 -0.15786055 0.11328706 -0.4673606 -0.14454885 0.23746094 -0.07476726 -0.04894095 -0.3078423 -0.21475759 0.21651158 -0.08565667 -0.33750898 0.09514973 0.18571113 -0.13177799 -0.26134914
2716 -0.24142411 -0.2185887 -0.0029195682 0.1940322 0.03620511 0.30620486 0.006410307 -0.025695408 -0.10539921 0.051653687 0.13300237 -0.107202545 -0.13814822 0.015769005 0.07200179 -0.07128911 -0.30422756 -0.02038814 0.0016362318 -0.41214624 0.15304291 0.2743021 0.066479616 -0.10575698 0.36154947 0.11761659 -0.20764272 0.49744263 0.065634415 -0.19554465 -0.17397937 0.076302156 -0.039929185 -0.11304271 0.28866002 -0.11625944 -0.03576014 -0.36735106 -0.2040078 0.096613556 0.16509216 -0.16829054 -0.42055202 -0.037132755 0.09339042 0.03475386 -0.054898463 0.28522295 0.019354304 0.12439499 -0.008977583 0.10528282 -0.19285062 -0.32735094 0.026045095 -0.071429566 0.17502813 -0.08012573 -0.044501793 -0.036223523 0.025862344 -0.21493399 -0.21772072 0.032895107 -0.002649501 0.023866493 0.2001753 0.10548556 -0.48398203 -0.05117853 -0.13186352 0.014380538 0.010055513 -0.34880108 -0.006714076 0.10930199 -0.13076647 0.09232443 0.15087995 -0.020041589 -0.021655086 0.21019308 -0.09696626 0.22091304 0.20640081 0.5705405 0.22100753 0.20670862 0.0066983197 -0.43017536 -0.04161763 0.013389947 0.09554078 0.19739914 -0.0117808655 0.039559644 0.19649296 -0.18974814 -0.28429604 -0.05987093 0.3050779 0.17643431 -0.064874984 -0.007505884 0.1653445 -0.11098729 0.109740265 -0.010275669 0.3548372 -0.3323258 -0.08037556 -0.09628871 -0.13680814 0.2145755 -0.42364067 0.066153064 0.043697443 0.20409954 -0.16319317 -0.049461316 -0.057019938 -0.19090462 -0.078270875 -0.2823759 -0.3371716 0.16708887 0.085538045 -0.53318036
2910 -0.12478442 -0.025002247 0.1895347 0.37100294 -0.028764019 -0.45162156 0.34801564 -0.15795712 0.06372014 -0.1607583 0.4170917 -0.15593202 0.22153364 -0.30945778 0.10372666 0.17370366 -0.08682175 0.11111584 -0.10062925 -0.18509401 0.044296585 -0.04246979 0.22853628 -0.28692853 -0.11653312 0.26591042 -0.033296205 0.35075676 0.40362632 0.048388794 -0.3471362 -0.044631205 0.0838859 -0.09759782 0.007939065 0.15933613 0.31948775 0.13135979 0.19358528 -0.22787592 0.20963442 0.2572148 -0.042420268 0.10839416 0.08803816 -0.02237447 -0.03800585 -0.4275727 -0.1210939 -0.2697739 0.56494504 -0.2392792 0.18454574 0.04231487 -0.12877122 -0.46787965 0.025457568 0.04096107 -0.12422593 -0.25423068 -0.22742938 -0.0132016875 0.2506985 -0.11229587 0.13426821 -0.1456759 -0.18487117 -0.06640061 -0.14377993 -0.3033911 -0.25215366 -0.4526303 -0.31890962 -0.16271646 -0.15107508 -0.020772245 -0.0956238 0.007878845 -0.0780532 0.11402579 -0.006223739 0.16146803 0.08361884 -0.043752935 0.25314087 0.2660677 0.2552065 -0.3603743 0.17392984 -0.1438329 -0.076046474 0.026195087 -0.06600214 0.12461432 -0.0568956 0.009090711 -0.0015316493 0.060778733 -0.14826947 0.055956714 -0.13425322 -0.10588445 0.13245684 0.07560912 0.03855895 0.095986106 -0.19633123 -0.26264796 -0.046106376 0.11576171 -0.060715765 0.16869405 0.17348601 -0.059386935 -0.0852574 -0.1993991 0.01340119 -0.07709693 0.100908674 -0.11626336 -0.16648208 -0.102867365 -0.13415195 -0.021016084 -0.2433463 -0.21677679 0.47102478 -0.08318362
2909 -0.083428375 -0.29956636 0.40271124 0.25814158 -0.30340454 -0.059775833 0.30492195 -0.12753429 -0.15733361 0.122452624 -0.11185013 0.09540993 0.17629951 -0.37023488 0.18861459 0.07436895 -0.07922118 -0.019202504 0.13274416 -0.19831678 -0.05086382 0.13333528 0.05598191 -0.24375577 -0.14516029 0.218535 -0.33768877 0.026480135 0.009303141 -0.0838578 -0.037594266 -0.27457222 -0.13502577 -0.070927724 -0.09495772 0.32118583 0.12650679 0.092155024 0.0027506386 -0.33221743 0.064446375 0.08858772 -0.121892154 -0.28453705 0.048173003 0.1153691 0.14283961 -0.41210058 0.0883898 -0.13152437 0.48475704 -0.07355546 -0.03346884 -0.02649822 0.12949431 -0.18527612 0.10569295 0.09393299 -0.08876902 -0.2134779 -0.24250826 0.24983801 0.09416041 0.14250797 0.2505565 -0.10124803 0.10152972 -0.11539109 -0.049825586 -0.30323088 0.019368595 -0.2315404 -0.53613275 0.10683366 -0.20787151 0.053783327 0.0616984 -0.08776817 -0.003141145 0.22745326 -0.22132595 0.23599793 -0.044823535 -0.04236703 0.38405997 -0.10982338 0.09536358 -0.3875774 0.13225281 -0.07261706 -0.30158007 -0.012787721 0.11567386 0.0033438208 -0.0015771647 -0.2676662 0.16370429 0.033512343 -0.07558405 -0.1704953 -0.18078849 0.064568825 0.3261123 0.19354008 0.117620684 0.07581359 -0.23006126 -0.18954591 0.22040586 -0.0111461645 0.3619083 0.054468047 0.1832368 -0.03010369 -0.06284833 -0.025626676 -0.06794438 -0.10065706 0.11809585 -0.14754348 -0.1282304 -0.070798926 -0.14602576 0.077562384 -0.3943094 -0.082935564 0.4495858 -0.11274121
2742 -0.053265017 -0.23781444 -0.09230975 -0.042844087 -0.09974036 0.3525137 -0.11952582 0.011266968 -0.042226337 -0.30897987 0.081063576 0.2792075 -0.35424495 0.08538002 0.11642797 -0.07082732 0.019858224 0.18795763 -0.015207878 -0.21908076 0.17497197 0.12104031 0.12897074 -0.036335897 0.13175972 0.13199589 -0.015796687 0.11471877 -0.014841943 -0.22317481 -0.028485218 -0.02903448 -0.18150504 0.02361457 0.30683812 -0.16220252 0.28613013 -0.4719325 -0.15045196 -0.24390803 0.21355605 -0.08224838 -0.3508192 -0.03149632 0.016704524 -0.14470376 0.1035137 0.20977423 0.018003473 0.048034467 0.1284852 0.06060881 0.03075297 -0.004340463 0.11298914 0.08431803 -0.017638031 -0.029618239 0.02988639 0.07645527 -0.15641968 -0.04720308 -0.024202056 0.04386305 -0.021175234 0.033899233 -0.11630095 -0.027987413 -0.33003008 -0.2816064 -0.09672319 0.016284158 -0.06094652 -0.38207993 0.018106328 -0.035888866 0.100412935 0.10702075 -0.06617518 -0.19440483 0.1926236 0.5180651 -0.053902563 0.15041281 0.040741336 0.6018153 0.13050894 0.19839376 0.053385764 -0.16264299 0.070905164 -0.05993447 0.20093197 0.08543128 -0.17693077 0.14565341 0.20234957 -0.20086883 -0.38665843 -0.06182132 0.026713451 0.049750827 -0.12374575 0.2029044 0.19832002 -0.046892352 0.020983558 0.101324886 0.36311632 -0.43159497 -0.23227726 -0.01803776 -0.094352596 0.3025826 -0.3220974 -0.17264828 0.31479275 -0.08556941 -0.15594882 -0.20297974 -0.18297447 0.12259875 -0.2223836 -0.082567714 -0.12629177 0.165292 -0.007045864 -0.08882937
3162 -0.44814506 0.16697304 0.014272397 0.18126985 -0.04654083 0.09848212 0.15806735 -0.09300843 -0.08008332 -0.15118948 0.2708951 0.41652155 -0.17399962 -0.33574346 -0.022553599 0.25102112 -0.013776453 0.14584269 0.085694626 -0.07162925 0.11368085 0.21111384 -0.020016214 -0.0746544 0.118784435 -0.15998201 -0.020624338 0.07093644 0.024333317 0.2627353 0.04127603 -0.05918503 -0.012471051 -0.33407387 0.14000988 0.3279215 0.08590536 -0.07455779 0.13884267 0.009255243 -0.07481798 0.0042759157 0.030855263 0.008708718 -0.06813596 -0.011912365 0.0030257218 0.33288202 0.20451513 -0.055231966 -0.19398825 -0.0011782169 0.16387364 -0.15588717 0.23968245 -0.27938962 0.21968575 0.26771182 0.196023 0.11253423 0.21498325 -0.16804256 -0.14280322 -0.16232853 0.08704608 -0.083689116 -0.52764857 -0.09727596 -0.65296257 -0.1336395 -0.04986141 0.19698985 -0.006782467 0.019305559 0.3518619 -0.62650055 -0.09798211 0.2089733 0.10692899 0.0631348 0.30827707 -0.24132667 -0.1477558 0.35156548 0.23329572 0.37783274 0.21078093 0.06348117 0.24210773 0.14146599 -0.31707036 -0.4531741 0.039636567 -0.03486864 0.4805864 0.03609183 0.21802577 0.016214387 -0.020314274 -0.10858411 -0.10887674 0.14588588 -0.12684926 0.20472537 0.024104103 -0.3264235 0.01161595 0.1486615 0.34969366 0.06534599 0.2619536 -0.09675312 -0.30363685 0.19803086 -0.39130846 -0.21790563 0.21647736 0.309941 0.043547977 0.022690203 -0.19249237 0.06677461 0.24657202 -0.073560305 -0.0009761984 0.1424705 0.116732046 -0.12266972
2925 -0.06871798 0.019144716 0.40561637 0.16455247 -0.030168962 -0.16878931 0.322085 0.014317375 -0.17193122 -0.14322056 0.4497201 0.07045006 0.24440317 -0.31220457 0.15597555 0.23640276 0.07759189 -0.054017246 -0.028841808 -0.12881276 0.13980928 -0.28614938 0.103214875 -0.27936175 -0.19166295 0.15777233 -0.113896705 0.04192139 0.36221868 0.12982921 -0.19234966 0.07958487 0.027642418 0.11682429 -0.17895229 0.16048668 -0.011803984 0.09057357 0.16272344 -0.39079604 0.080789365 0.13078755 -0.12194858 -0.030762238 0.13038434 -0.103115015 0.06328158 -0.2620615 -0.07065092 0.029108386 0.4892631 -0.32068625 0.14999671 0.27950722 -0.054506917 -0.319354 -0.039519873 0.041107036 -0.26466155 -0.43844944 -0.17677063 -0.108312495 0.2026946 -0.026869092 0.26351836 -0.16583604 0.08894014 -0.055693317 -0.0852875 -0.25838596 -0.33792806 -0.5176673 -0.38242722 -0.083400294 0.14456792 -0.25760007 -0.2634972 -0.040157907 -0.24954194 0.10318316 -0.1647061 0.43103048 0.05708778 0.12301809 0.20034158 0.1404171 0.016410246 -0.3886184 0.34629524 0.20725803 -0.37869847 -0.22421639 0.028968133 0.069322705 -0.15407814 0.03467164 -0.014290894 0.045077242 0.059118614 -0.07370488 -0.09349822 -0.1455581 0.3975785 0.013556991 0.16527593 0.106126204 0.011425491 -0.06400326 0.19286226 0.0696046 0.3580883 0.22143255 -0.1428784 -0.31343183 -0.10051135 -0.13056932 -0.032657687 0.06155575 0.18356207 -0.08827586 0.05697567 -0.18606983 -0.2903954 0.0137932 -0.09613112 -0.028454207 0.23663357 -0.065694846
2901 -0.08874348 -0.058097713 -0.20408025 0.41750565 0.0318743 -0.027767228 0.06729535 0.3329389 0.121727146 -0.1514277 0.12019112 -0.035139397 -0.20151308 -0.033218235 -0.05640843 0.22977324 -0.001558473 0.09693341 0.13398215 0.02782053 0.3079006 0.17545624 0.094359964 -0.15191594 0.2760328 0.15822504 -0.21483624 0.22597677 -0.07464083 0.11820979 -0.067617565 -0.12388767 0.045427192 -0.13781513 0.102385834 0.03166151 0.19056132 -0.14784352 0.007832665 -0.16434771 0.34058046 0.16821101 -0.46178734 -0.06181234 0.046745367 -0.26016364 -0.13699363 -0.014959562 0.2759912 0.3884499 0.12637526 0.11018814 0.08556345 -0.35605082 0.18007687 0.24381946 0.083751924 -0.0027843835 0.18781945 0.19274947 -0.2517792 -0.15747786 -0.20053542 -0.02976719 -0.32604295 -0.15614733 0.04562559 -0.01840178 -0.063629285 -0.11422079 -0.059091557 0.09510822 0.19827321 -0.30203545 0.13486612 -0.18731004 0.14249429 0.05436367 0.06621923 -0.19964902 0.26342666 0.27766615 0.01779643 -0.1022421 0.18276215 0.38250226 0.31696913 0.15735051 -0.37282643 0.3190113 0.022287095 -0.202804 0.30645207 -0.009754893 0.03271195 0.06724568 0.40020266 -0.03315159 -0.38330612 0.07799065 -0.0503935 0.030335391 0.044810977 0.44375512 0.23469451 -0.37618592 0.3472508 0.09644637 0.14391719 -0.25114155 0.2496134 -0.2725244 -0.0047632554 0.038909953 -0.41379762 -0.14134748 0.09910956 -0.21905148 -0.3803797 -0.093106374 -0.3790899 0.06815606 -0.09568533 -0.09201873 -0.013428637 0.084431425 -0.013809516 0.07586244
2839 0.021660483 0.039309945 0.10030467 -0.052460555 -0.09733514 -0.24154142 0.19692442 0.013601816 0.06484448 -0.09930163 0.12453685 -0.073019296 0.16370529 -0.33608028 0.2150736 0.13375004 0.09023374 0.064197 0.12425161 -0.060797337 0.1680502 0.18994735 0.18392317 -0.06363964 -0.08576618 0.5603541 -0.18210089 0.12416399 0.072210014 -0.13559182 -0.11131838 0.004685942 -0.17581642 -0.00260251 -0.07770805 0.22743827 0.26237762 0.26657692 0.41896668 -0.23228712 0.15151979 0.110399544 0.068644546 -0.10089221 0.2702884 0.08943852 -0.24732596 -0.13390905 0.054314755 -0.047275763 0.36583665 -0.082482696 0.05071615 0.05700924 0.03594519 -0.28223172 -0.12843007 0.048668884 -0.2437585 -0.18376662 -0.16572955 0.09968462 0.20660163 -0.021868864 0.339662 -0.25276083 0.04395844 -0.37792078 0.045914084 -0.2201431 -0.09448622 -0.3124525 -0.3791972 -0.011746151 0.11330004 -0.08608736 -0.20461054 0.0056651253 -0.048999745 0.26646468 -0.135958 0.076485425 0.034761593 0.035769995 0.27154985 -0.2530952 0.197411 -0.5853006 0.06766949 -0.100153275 -0.45359203 -0.23317532 0.20582274 -0.04877217 -0.14528288 -0.08821048 -0.037923224 -0.11151599 -0.20659275 -0.05821448 -0.11822494 0.042721733 0.2604889 0.29984623 0.14980297 0.1617633 -0.067300096 -0.23343755 0.006173624 -0.10702194 0.064022064 0.109878354 0.03338312 0.037198793 -0.14227644 -0.048017256 0.042477455 -0.060373988 -0.029418621 -0.08787737 -0.0101968385 0.022251723 -0.1864318 -0.11333901 -0.22293873 -0.33125988 0.26075447 -0.1008461
3101 -0.09505832 -0.33865207 -0.11197009 0.1719556 0.009347303 0.11963449 0.2385133 0.15482216 -0.223255 -0.24015202 0.07623749 0.36124384 -0.0044041476 -0.056625105 0.26951182 -0.07398525 -0.10055832 0.16040508 -0.032931883 -0.14519088 0.4327619 -0.04165311 0.18552965 -0.20332849 0.17235754 0.24374047 -0.20337424 0.26572645 -0.16532405 -0.10775502 0.13438219 0.24998312 -0.18066065 -0.18094632 -0.0053379983 0.113818854 -0.0069509624 -0.4524609 -0.0011990687 -0.47635844 0.028435176 0.16059963 -0.24526338 0.07334073 -0.024673259 0.06950659 0.030196436 0.18664764 0.02979948 0.097407766 0.21080591 0.1982695 -0.024071557 -0.31899765 0.39984596 -0.18090712 0.037923098 -0.015955184 0.0002638955 0.15786886 -0.15288454 -0.08911634 0.038305115 0.109467685 -0.19549647 0.107538015 -0.12160835 0.106931366 -0.13842717 0.047681503 -0.119329624 0.107935354 0.045220938 -0.103268854 -0.034999665 -0.09582036 0.05999838 0.25819272 -0.18955462 -0.088601686 0.28788468 0.15856583 0.010801057 0.006107944 0.185077 0.15708578 -0.18305051 0.16322415 -0.027958142 0.085934915 0.08846351 0.018740127 0.12340884 -0.26972166 -0.010790353 0.32185388 0.21558833 -0.070407465 -0.4359713 -0.26103374 0.25567722 -0.10085245 -0.013085706 0.118502535 -0.06776674 -0.22407229 0.20378302 0.08559315 0.09246342 -0.553538 -0.055467308 -0.045748103 0.040880222 0.12392208 -0.45743293 -0.124459095 0.19990681 0.029088927 -0.17615098 0.00063018146 -0.20181388 0.196871 0.11999341 -0.11318663 -0.30023193 0.23216127 -0.06221068 -0.3413797
3038 0.010114819 -0.13965632 -0.05158358 0.28498486 0.003436022 0.17327245 0.23430043 0.14380048 0.10797476 -0.09711088 -0.093009956 -0.027029179 -0.28641272 0.009177805 0.20127937 0.010091058 -0.39291352 -0.024117548 -0.06488117 -0.09290788 0.25345048 0.35627693 -0.08823129 -0.20760058 0.038900558 -0.112293944 0.10666838 0.14724235 0.19912642 -0.09524202 -0.05690633 -0.288243 -0.23868641 0.10459679 0.09820906 -0.32436454 0.2590407 -0.2539035 -0.113328755 -0.21056229 -0.25905845 -0.07870264 -0.07723173 -0.1503742 0.06415934 0.120131224 0.346735 -0.032762893 0.09507427 -0.015107727 0.028343916 0.014458327 0.06871209 -0.0961954 0.22407272 -0.06364258 0.115459524 0.037192278 0.0777013 0.008919068 -0.1844847 -0.4201992 0.109332874 0.011900328 -0.0008622359 0.19378649 0.15621738 -0.050935633 -0.2758373 -0.36586797 -0.023524586 -0.009181325 -0.041771382 -0.21868889 0.05650028 -0.07511259 0.011173696 -0.04741829 0.0827645 -0.3112114 0.319139 0.30925107 0.1076889 0.42288792 0.1622852 0.42996886 0.15562193 0.22087765 -0.13004737 -0.20830975 0.057688992 -0.26598305 0.17283587 0.18874796 -0.14187852 0.291863 0.103849575 -0.11543208 0.09227876 -0.08336297 0.022776982 0.1627894 -0.023045763 0.23476441 0.19881773 -0.27609342 0.064130485 0.114367396 0.13649796 -0.27889827 -0.035605595 -0.4601309 -0.014223051 0.08734851 -0.29911575 -0.08919637 0.19831802 -0.17449626 -0.05606862 0.028756663 -0.34178695 0.13331792 -0.11354141 0.060054872 -0.19369078 0.28918222 -0.2622419 -0.32585463
3137 -0.11113763 -0.30955106 0.36583441 -0.16078858 -0.09935944 0.050800093 0.008509018 -0.02789935 0.0042407266 0.31968716 0.28550595 0.097359754 0.24429512 -0.21679282 -0.023991143 0.20276487 0.15792197 0.19235538 0.32511693 0.16498677 0.26713994 0.18196514 0.1360832 -0.22187729 -0.16243842 0.01110449 -0.11695792 0.41187814 0.2326891 0.047768697 -0.2097104 -0.19650024 -0.110598505 0.01805588 -0.34523207 0.36400154 0.20188895 -0.15852155 0.41293886 -0.0668065 0.54429173 0.09779844 -0.19510266 0.07533309 0.36733896 0.03399517 0.032808274 -0.027463825 -0.19584338 -0.27061012 0.29489243 0.1576042 0.19474752 0.2247495 0.055366896 0.17128319 -0.33688805 -0.07303802 -0.19248971 0.12149692 0.13459805 -0.06558192 0.26637766 0.08578777 0.2636383 -0.5637065 0.49916393 -0.27506402 0.18462177 0.03235834 -0.21219015 -0.20943536 -0.3991051 0.10280522 -0.34476787 -0.18361661 -0.048172045 0.1816673 0.09406901 0.25459608 -0.16440792 0.3484016 -0.02574043 -0.23763172 0.5403174 0.2909407 0.08936693 -0.33993247 0.18962012 0.31983438 -0.009374046 -0.18824282 0.14623724 0.13133344 0.036142346 -0.20669414 -0.1381239 -0.055823628 0.089956485 -0.02864421 -0.1257073 0.16272332 -0.14323604 -0.070094466 0.17301908 -0.040626727 -0.1806278 0.22280227 -0.046330765 0.1911728 -0.07530882 -0.15534282 -0.011261122 0.081387095 -0.49014518 -0.021404896 0.04887355 0.23018646 0.15045173 -0.09648083 -0.08704379 -0.22261265 0.08546637 0.04223897 -0.2240617 -0.22930078 0.1086877 -0.22406635
2863 0.07830059 -0.054085284 -0.10984123 -0.19763565 -0.12682386 -0.12737532 -0.06383389 0.16634792 0.034573458 -0.15144008 -0.071540065 -0.16528216 -0.26541695 -0.09442172 -0.07756824 -0.24158508 0.0026468332 0.39516765 -0.27486852 -0.14972407 0.4516627 0.15050626 -0.05935736 -0.24572766 0.07692004 -0.004911428 -0.2394946 0.027473077 0.045224756 0.16166453 0.09372278 -0.110445224 -0.45554033 0.016536344 0.016415821 0.11235795 0.036357533 -0.3763445 0.24304241 -0.07948491 0.14944293 -0.14752078 -0.19959259 -0.25779122 -0.07114602 0.34207737 0.0010041513 0.19300903 0.22569859 0.027443513 0.31650725 -0.00663932 -0.042560697 -0.35303017 0.2506329 -0.30023935 -0.05669844 -0.2440668 -0.10472791 0.06919133 -0.09207473 -0.22074546 -0.113218725 0.0152622815 0.0064688753 0.03842476 -0.17088081 0.34176302 -0.19930054 0.016128277 -0.20304236 -0.16125481 0.0625419 -0.23514578 -0.055242464 0.002669363 0.040364627 0.14465787 -0.023646481 -0.028405733 0.21431321 0.3937386 0.009567567 -0.015843002 -0.16609034 0.2767991 0.2795729 0.14281163 0.061766557 0.16025953 0.27972135 -0.35473812 0.32787764 0.05941559 0.07357161 0.3090807 0.29237902 0.1092505 -0.15678392 0.08271974 -0.22558792 -0.09697643 -0.0049998565 0.1341578 0.24832696 -0.070903875 0.19180533 -0.049755055 -0.20889665 -0.4451579 0.0049492265 0.22231182 -0.10597501 0.11045662 -0.018522285 -0.23464748 0.02986804 0.16757332 -0.39465725 -0.28826007 -0.4460906 0.272 -0.18807493 -0.15985149 -0.0034511043 0.31618693 -0.089892216 -0.13320255
3114 -0.27022615 -0.15759778 0.25972396 -0.08416955 -0.14136639 -0.038049247 0.2096353 -0.2863127 -0.031718623 0.31025034 0.19735922 0.0005282968 0.33220148 -0.26545992 -0.11351244 0.11824368 0.17473707 -0.020109262 0.21557961 -0.19918488 -0.00281059 0.11597907 -0.0004906328 -0.1503553 -0.021045068 0.124472 -0.094459414 0.44121882 0.21220802 0.0013872988 -0.05714325 -0.16186117 -0.1891198 0.1936902 -0.23251793 0.066296436 0.19279763 -0.025842886 0.53242147 -0.019432463 0.59023947 -0.063209765 -0.14155824 -0.065468326 -0.016593331 0.079478696 -0.10029954 -0.16814056 -0.17378296 -0.31581107 0.29712346 -0.036258053 0.19631225 0.2759151 0.0464519 0.012728668 -0.19599329 -0.08202268 -0.107180215 0.12524259 0.006839511 0.0042017973 -0.056719597 -0.0792457 0.07213653 -0.535685 -0.04287635 -0.20918249 0.17785025 -0.06562849 -0.17614663 -0.26405418 -0.34040776 0.29126176 -0.1133752 -0.11420748 -0.17240237 0.41027057 0.1417151 0.44000447 0.037619498 0.33037516 0.055096306 -0.09087512 0.5452803 0.2995255 0.21192397 -0.46576786 0.10119085 0.13847849 -0.30707222 -0.18218698 0.3467806 0.100015074 0.08577561 -0.3756812 0.039783925 0.12473714 0.25112477 0.06301924 0.07829976 0.15160641 -0.29676536 -0.13731118 0.11112527 -0.090748206 -0.022805935 -0.005078149 0.0012930012 -0.09564816 0.31473982 -0.17760962 -0.02826741 0.2594147 -0.22444612 -0.15594716 -0.06744641 -0.070768036 0.14591166 -0.1069607 -0.12474483 -0.2669765 0.12254722 -0.008751442 -0.38219336 -0.2020305 0.04426119 -0.18525173
2912 -0.13669793 -0.04108627 0.46488848 -0.0014667977 -0.18729517 -0.27091065 0.1841957 0.073314086 0.028589452 0.09258355 0.07024754 0.077376574 0.17422356 -0.4046872 0.15026653 0.009418168 0.0002868389 0.29128817 0.17969383 -0.4883063 0.00665654 0.23474006 -0.071725674 -0.05708369 -0.05523913 0.19664034 -0.13369508 0.24869815 0.1106625 -0.021283653 0.046546955 -0.13106363 -0.18363431 -0.17816101 -0.13572907 0.38971385 0.1952177 0.1016761 0.19861905 -0.03643503 0.22698884 0.12719613 -0.21381128 0.011422453 0.28124145 0.039793726 -0.036150478 -0.24753344 0.10607706 -0.33680224 0.5557313 -0.17454004 -0.13188747 0.27780995 -0.00788551 -0.3300489 -0.04191978 0.13112652 -0.027286226 -0.3935043 0.11804838 0.20296448 0.30582577 0.105818465 0.2413578 -0.27348167 -0.08733695 -0.14175057 -0.04115093 -0.21184506 -0.10936266 -0.46907827 -0.16489018 0.062310733 0.017403934 -0.014159755 -0.058855504 -0.13115081 -0.17645591 0.06744072 -0.2805323 0.22517242 0.009299659 0.14510518 0.20382735 0.0004359924 -0.045990314 -0.41218653 0.32265306 -0.11979663 -0.19580024 0.079141825 0.10810064 0.060519345 -0.18131474 0.042602167 -0.17989115 -0.26861438 0.13666905 -0.30394736 -0.19334935 0.082973614 0.14493482 0.31669137 0.27887902 0.078465864 -0.33312756 -0.14309596 0.10051525 -0.16261123 0.07387042 -0.099296704 0.2409556 -0.04377283 0.04608036 -0.10863195 0.16498436 -0.008097766 -0.06755712 -0.13750157 -0.31940874 -0.22143093 -0.13131325 0.23427165 -0.18778089 0.020571148 0.2575942 0.121351525
3154 0.024830652 0.03794537 -0.29039764 0.32662058 0.031061117 0.006925127 -0.17846982 0.0069356677 -0.07378193 -0.12755671 0.09944766 0.2143432 -0.36148983 -0.1419165 0.29315752 -0.035103664 -0.09120854 -0.03545199 0.1238135 -0.19532377 0.25471726 0.22674383 -0.031277288 0.04194998 0.13945504 -0.071970835 -0.15172476 0.41455948 0.07390657 -0.011462429 0.17993242 0.096658155 0.21007438 -0.2705205 -0.12334376 -0.07861688 -0.10912815 0.014946485 -0.27508143 0.015408882 0.18294437 0.0959697 -0.17197144 -0.24245995 0.48637113 0.0628476 0.07763116 0.26690373 -0.20575377 0.10636785 0.19427145 0.12945643 -0.03715145 -0.04988005 0.20687708 -0.24723567 0.26465365 -0.10027454 0.18209822 0.16292407 -0.16818863 -0.24302812 -0.17168583 0.11056565 -0.016570812 0.21860741 -0.4124716 -0.022381496 -0.47262335 -0.12557389 -0.11769933 0.0953029 0.0041389796 -0.11435144 -0.06869839 -0.26503932 -0.08964584 -0.1550772 0.071426176 -0.17935902 0.3605237 -0.051467083 -0.31097174 0.5120523 0.12622201 0.2519077 0.13981728 0.044987533 0.11255135 0.101730645 -0.11019669 -0.579742 0.4033666 0.13436356 0.02330077 0.20156924 0.09044831 -0.13604826 -0.1468243 -0.08612503 -0.17958218 -0.10934138 -0.32662317 0.19460148 -0.09433738 -0.45283392 -0.008538609 0.17353942 -0.05362526 0.02340155 -0.04966143 -0.17170559 -0.1020444 0.11512856 -0.21496218 -0.31010947 0.2694765 0.048989553 -0.045760013 -0.21950842 -0.19998182 -0.062267825 -0.12572198 0.176726 -0.06764279 0.05969022 -0.009071707 -0.3062969
3434 0.0287574 -0.06294094 -0.2301301 -0.07731405 -0.18758292 -0.14631449 -0.12918743 0.100664526 -0.18938358 -0.31010938 -0.19355795 0.41082066 -0.14794981 0.0074006044 0.13279217 -0.16848166 -0.20652866 -0.09224746 0.13928504 -0.21000719 0.1519708 0.035827037 -0.0330003 -0.06202891 -0.003942939 -0.14062974 -0.12807474 0.3522546 -0.1304918 -0.09312688 -0.051031303 -0.05272144 -0.11943667 -0.14107144 0.25032246 -0.07654424 0.14983644 -0.29391706 -0.22806981 -0.24204062 0.17046551 -0.1921808 -0.17692623 0.14781009 0.055443265 -0.07522313 -0.08079529 0.4127832 -0.060613573 0.053619787 0.06884436 0.0457718 0.15317583 -0.21691738 0.08339535 -0.15361485 -0.041462295 0.1386041 0.017857196 0.14605546 -0.28359178 -0.12232392 0.04475874 0.38959652 -0.1316034 -0.07702747 -0.0127436975 0.030448942 -0.24934371 -0.06354829 -0.011342006 0.14855225 0.3809483 -0.18772392 -0.06642791 -0.23545949 -0.0742109 0.2008771 -0.042730667 -0.12505296 0.09080678 0.4667292 0.03219789 0.091492034 0.032782637 0.49449396 0.31146318 0.052024733 0.23541887 -0.20398824 0.0188416 -0.16805038 0.03703607 -0.19898394 0.046932675 0.072602734 0.26141757 -0.2608116 -0.18261206 -0.041312676 -0.0084240725 -0.17894602 -0.07625702 0.1409288 0.31677738 -0.25923616 0.06971071 -0.11314405 0.09772435 -0.37526336 0.36983874 -0.22416452 -0.25420582 0.19739011 -0.510693 -0.21820834 0.20821567 -0.035288885 0.059840586 -0.36854658 -0.15305148 0.15308514 -0.12980239 -0.23374611 0.12311733 0.1328789 0.07458058 -0.43521297
3198 -0.30385584 -0.016275255 -0.30647334 0.13530923 -0.07081645 0.3339639 0.012939773 0.054704573 -0.08198138 -0.012549828 -0.13086522 0.3422532 -0.19033182 0.00058345316 -0.13966964 0.23255053 -0.12040049 0.2281289 0.1877828 -0.16043352 0.22057594 0.17217313 0.14048925 -0.039508402 0.28122857 -0.014858986 -0.053718157 0.090468496 0.2639171 -0.024121094 0.39404482 0.18610787 -0.055861216 -0.261074 0.22082107 0.3254169 0.09363059 -0.2462505 -0.026530206 -0.2752643 0.14821918 0.017237384 -0.03803731 0.0203315 0.06088987 -0.08539718 -0.21805727 0.07281215 -0.05063753 0.09928889 0.19658072 0.11531327 0.09133807 -0.22711085 -0.07720202 -0.27530053 0.15262546 -0.07224422 -0.076465465 0.18841471 -0.13542284 -0.34982708 -0.16192605 0.01287995 -0.028048959 -0.08708442 -0.0058517894 -0.006898299 -0.14719036 0.07127102 -0.20070186 0.18948641 0.16735962 -0.04142506 0.0246926 0.10636767 -0.17646927 -0.148363 -0.080056444 -0.39343607 0.3554997 0.07208759 0.14249814 0.32393163 0.1810999 0.45889798 0.13415967 0.1934586 0.34562 0.15970781 -0.06879218 -0.16781944 0.46150318 -0.22469461 0.08420175 -0.039636344 0.18344751 -0.23270813 -0.0009169043 -0.12806472 -0.18922321 0.22210695 0.10420378 0.41053155 0.11542518 -0.18890251 0.071661755 0.3864061 -0.021809386 -0.37301165 -0.1263283 -0.18158555 0.019711817 -0.03939315 -0.20859337 -0.24311809 0.10331519 -0.04210617 -0.22426127 0.08486937 0.09230383 0.13491945 -0.15735976 -0.3609481 -0.012574047 0.07881154 0.063078836 -0.2036414
2916 0.074422486 0.2724939 0.19681011 -0.011416923 -0.076314226 -0.26627445 0.055475224 -0.017104998 0.077713266 -0.1332424 0.16579004 -0.13535076 0.0777907 -0.37657255 0.18364118 -0.29000166 0.20882076 0.038564928 -0.104567654 -0.0528287 0.11295735 -0.022640202 0.15352456 0.001282097 -0.1825795 0.31403396 0.20763794 0.20080066 0.4141229 0.09357351 -0.2296307 -0.33710715 0.16700204 -0.014050471 -0.124624014 0.26719365 0.12375267 0.097714394 0.15144221 -0.14557438 0.043354355 0.1745678 -0.18624787 -0.13594994 0.27277562 -0.007838925 0.036215346 -0.29435164 -0.21467188 -0.18363057 0.50016946 -0.20640501 0.10823065 0.1603916 -0.048556726 -0.2113756 0.07837749 0.0872301 -0.068071954 -0.24487849 -0.100302614 -0.123686254 0.09893927 0.12410291 0.27377278 -0.2087489 0.22779204 -0.009679511 -0.029813334 -0.24401577 -0.25969794 -0.48192096 -0.42147404 0.09925379 0.106961675 0.0034526244 -0.2706245 0.0049416237 -0.123645745 0.31634918 -0.1011793 0.3008089 -0.07669042 0.17103264 0.16183718 0.06343625 0.22949159 -0.5688298 -0.015432805 -0.17993845 -0.30346227 -0.21449296 -0.0012204928 0.19448435 -0.07490426 0.048135567 0.3862468 0.15152246 -0.058861177 -0.17576504 -0.09181224 0.17515822 0.4901369 0.31149703 0.26910928 0.11119331 -0.016055204 0.1230845 0.3444836 0.0041517606 0.3091274 -0.23208532 -0.09096478 0.12612823 -0.1420755 0.089812905 -0.07448164 -0.04968162 0.19130202 -0.1892486 -0.0031887277 -0.19861127 -0.03605758 0.19456409 -0.031744957 -0.04930745 0.24866578 0.065062754
2730 -0.32605672 -0.41787383 -0.03941275 0.030507062 0.081010126 0.14742485 -0.015795598 0.14780793 -0.2721745 -0.08265204 0.31928346 0.2072188 -0.25723496 -0.08016397 0.08229182 0.24444677 0.047432557 0.042679485 -0.006404459 0.21656518 0.31604397 0.23690334 -0.02860689 -0.029883204 0.19850492 -0.113740705 -0.059675302 0.2984916 0.067375556 -0.020842671 0.28714216 0.10914732 -0.010350517 -0.100215524 0.22795871 0.27185115 -0.046107568 0.14590824 -0.04311866 -0.008596996 -0.3193647 -0.023873031 -0.25751907 0.031112427 0.1113302 -0.0058675855 -0.028829096 0.40082747 -0.024260147 0.24231872 0.082038395 -0.11345123 -0.10892048 -0.29212582 0.0074132015 -0.15039067 0.3067979 -0.13377915 0.1415525 -0.13960905 0.065998815 0.12653814 -0.009197122 0.0127900075 0.29503602 0.21582389 -0.14905073 0.17929555 -0.36057314 0.020624422 0.001248785 0.011652161 0.06705486 0.07398101 0.025888924 -0.49211293 -0.24365531 0.08141134 -0.008956076 0.041849386 0.30919996 0.20542727 -0.1829197 0.17877498 0.22268265 0.2839931 0.40359586 -0.15030484 0.07801126 0.3414034 0.37524357 -0.5124842 0.24981974 -0.1585277 -0.01073986 -0.060277265 0.06493436 -0.014336827 0.07223756 -0.047850464 -0.26614964 0.014617769 -0.015040087 0.38683116 0.18039484 -0.2533627 0.1990292 -0.033985533 -0.14208582 -0.29613787 -0.105952136 -0.033560675 -0.17193739 -0.036411557 -0.1208049 -0.18925814 0.17235483 0.10816753 -0.17530894 0.22843179 -0.06509985 -0.37702867 0.25268582 -0.040986165 0.058885336 0.16658717 0.107146524 -0.18855815
3051 -0.26964366 -0.16487987 -0.25907904 0.14692283 0.02284425 -0.062217686 -0.16650577 0.14750205 0.19321847 -0.056040317 -0.14704946 0.33883685 -0.37442052 -0.09278438 -0.008220846 -0.2837401 -0.00824718 0.16278122 -0.15214382 -0.19148684 0.08748116 -0.08297924 0.16094545 0.13774276 0.087582916 0.113946624 -0.031156393 0.21200682 -0.28581983 0.012023676 0.021121139 0.113602825 -0.053456042 -0.027102927 0.112484194 0.12093788 0.3613817 -0.11201425 0.07406086 -0.26060525 0.049550902 -0.10518848 -0.045614153 0.26711994 0.18095218 0.1289042 -0.110259734 0.33580288 -0.00042169783 0.062148854 -0.16016372 -0.32634345 0.1470421 -0.17302667 0.18519968 -0.22870998 0.16020463 -0.053804886 0.074631914 -0.00051358866 -0.19706213 -0.17659734 0.030859169 0.012959084 0.053428125 -0.027678192 0.01289339 0.15791115 -0.2666819 0.17154108 -0.27691376 -0.05361247 0.08655194 -0.19513293 0.009185437 -0.17138052 0.11656388 -0.030424459 0.05108499 -0.20310433 0.16892985 0.3425582 -0.24142163 0.26622579 0.08110844 0.4245067 0.16572836 0.11774341 0.023881324 -0.013514034 0.02665491 -0.23407924 -0.03981229 -0.013980694 0.40700924 0.3231557 0.25423798 -0.0001834594 -0.18153724 -0.29179147 -0.052115083 0.024227168 0.010609695 0.30031237 0.04499292 -0.5679906 -0.021620777 0.032790698 0.19269511 -0.32828087 -0.0021456133 -0.09795134 -0.07939201 0.105827406 -0.70274556 -0.27565852 -0.010905179 -0.05560183 0.20445958 -0.23074786 -0.18950605 0.40432924 0.048751917 -0.16119277 0.10780102 0.01987522 0.07355292 -0.27095148
2661 -0.06042097 -0.3120454 -0.04258711 -0.26818502 0.073516704 0.29472807 0.14578162 0.026620703 0.14749607 -0.20120028 0.1291379 0.23217753 -0.10392598 0.13722573 0.38074353 -0.073727235 -0.42940313 0.072425395 0.010248579 0.06642409 0.111850925 0.14358556 -0.02275286 -0.121203735 0.17485581 0.029629799 -0.1207974 0.053774912 0.10807475 -0.3002999 0.033535205 -0.24641472 -0.32071984 -0.2109948 0.21207622 -0.19818269 0.35473812 -0.3699261 0.10898086 -0.23463856 0.104574755 -0.004463881 -0.25233912 0.11099908 0.045904543 0.16401692 0.027596794 0.2905008 0.09074236 -0.1442599 -0.037930302 -0.18114309 0.055256084 -0.25592414 0.19002268 0.095515504 0.29793426 0.15449877 0.050917514 -0.057115626 -0.07208476 -0.094948724 0.011389936 0.004029881 -0.12684193 -0.0046980316 -0.18187708 -0.06914341 -0.31184408 0.05272614 -0.1384559 0.11926287 -0.2045701 -0.24120419 0.013239094 0.15128511 0.041136883 0.10228149 0.1298389 -0.115051396 0.23644139 0.3331633 0.28028625 0.16165577 0.23717408 0.44006482 0.065422714 0.24557784 0.08878975 -0.24646515 0.34826842 0.019741474 0.14274295 0.10133075 -0.068308964 0.065372996 0.2497351 -0.03402216 -0.50819707 -0.012226848 0.005825697 0.09667044 -0.14000855 0.37465107 0.20540376 -0.21350278 -0.0005589069 0.047771204 0.2624957 -0.51368415 -0.0018005631 -0.022266878 -0.075573824 0.32798973 -0.39291134 -0.02436517 0.21760695 0.06747297 -0.056579884 -0.24840847 -0.2402573 0.16036254 -0.01722538 0.11620492 -0.049132325 0.21200368 0.019468106 -0.3047467
3035 0.15516032 -0.16901243 -0.18966554 0.10768006 -0.17517278 0.2363892 -0.052451033 0.2553123 -0.08274795 -0.031196166 -0.092333995 0.4153669 -0.16508915 -0.20590831 0.21170574 0.11263756 -0.112344235 0.15076043 0.10450009 -0.21331652 0.14443322 0.14723845 -0.122270055 -0.019785266 0.3283786 -0.049227335 -0.254501 0.15033853 -0.039080855 -0.05254299 0.016750963 0.05381417 -0.17926118 0.057859447 -0.10125791 0.041194372 0.0594098 -0.29391378 0.041371327 -0.11330317 0.019929456 0.21351239 -0.23026389 -0.060621 0.14526354 -0.13193397 -0.27487788 0.2398913 0.070748806 0.11231837 0.12511334 -0.2559649 0.29676744 -0.31956974 0.014579012 0.020565368 -0.059858367 -0.08804099 0.16265571 0.12147691 -0.39822176 -0.056761038 -0.049885854 0.22716331 -0.11188822 -0.00028500846 -0.13790563 0.25141746 -0.21774909 -0.02894377 0.022608764 0.16476665 0.088562936 -0.25694585 -0.0093611535 0.15101323 -0.011368417 0.13422325 -0.15119699 0.011586408 0.12807277 0.24019061 0.060707215 0.085576154 0.31047523 0.16614766 0.4121579 0.22883213 -0.15806994 0.07788343 0.10426177 -0.42194426 0.26662317 -0.19555959 0.06784735 0.09157747 0.55650777 0.0055966205 -0.41019467 0.0231653 -0.12612855 0.14998434 0.049783293 0.40734246 0.23369977 -0.48728994 0.19746412 0.16913435 0.11241144 -0.23300016 -0.13427615 0.30231842 -0.19906038 0.1398517 -0.42436227 -0.092946894 0.2770543 0.036654312 -0.07584522 -0.082945585 -0.21886817 0.1338666 -0.10830395 -0.054000754 0.05281197 0.20885654 -0.08733425 -0.2794563
