155 128
601 -0.23216173 -0.043109734 0.23117653 0.019413391 0.07797102 0.052447133 0.026821455 -0.02029658 0.113293424 -0.14484029 0.09732309 -0.109449156 0.029895958 -0.15239303 -0.13774978 -0.0076700463 -0.010408683 -0.051752575 -0.043509472 0.013483465 0.12769973 0.12005424 -0.028949736 0.19623367 0.15268436 -0.04614485 -0.2677796 -0.034563985 0.04656834 -0.14928278 -0.12588914 -0.023834934 0.0754839 0.15269624 0.07371152 0.11958189 0.22561768 -0.07014835 0.2339203 0.09075529 -0.29980266 -0.009002284 -0.009136442 -0.1325697 -0.09243798 0.0634757 -0.00395307 -0.12433309 0.32656267 0.09868001 0.14464973 -0.08230888 -0.08960257 0.33226064 -0.005719529 0.22673568 -0.15452935 -0.038042847 -0.019762302 0.074799165 0.13103352 -0.18501036 0.035769183 0.08123462 -0.087760784 0.17840615 0.05206693 0.2838908 0.13772266 -0.053514693 0.13197856 -0.032067284 -0.023957573 -0.06824895 0.15434 -0.12870125 0.22161648 -0.03319779 -0.11435398 0.22668187 0.09826464 0.106445216 0.25386187 -0.037747607 0.031123284 -0.061261524 -0.036115043 -0.018926512 0.17507939 0.3402063 0.03217483 -0.08379289 -0.10940137 -0.055360287 0.22494096 -0.20053273 -0.0798423 0.17101833 0.07640177 0.03698905 0.1267806 0.060729098 -0.07515714 0.032545775 0.19065286 0.007282274 -0.06090832 -0.027862616 0.14368159 -0.07758255 0.2112646 -0.072720386 -0.006659839 0.024358913 0.0077004074 -0.010160251 -0.05438552 -0.10975699 0.072783574 0.03750338 -0.03741379 -0.038019735 0.124014415 0.0784159 0.10629701 0.07454611 -0.234353 0.08160317
414 -0.17970869 -0.1924043 0.1646725 -0.049858853 -0.042359743 0.043840975 -0.042327173 0.093645446 -0.12519418 0.14767145 0.062505 0.08587891 -0.14814414 -0.1878646 0.02718544 -0.13531345 0.0765375 0.0736951 0.0035689266 -0.10114734 -0.024147946 0.072074704 -0.09251144 -0.116552316 -0.05312564 -0.0022803114 -0.09332364 0.037317205 0.22061631 -0.036783848 -0.10121721 -0.0528603 0.036663618 0.14798512 -0.078929394 0.030952824 0.28808716 0.05597331 0.17908989 -0.19635673 -0.08780871 0.20510662 0.09525732 0.035981465 0.17886049 0.10495262 -0.03839446 -0.122325614 -0.057500955 0.06990754 0.29887488 0.069816545 -0.009427927 0.0233182 0.093788885 0.02477669 0.10376907 0.11806541 0.089061245 -0.1404565 0.09428959 -0.18803482 -0.09842357 0.05133781 0.122575305 0.04007263 -0.0043553337 -0.009391637 -0.047243323 -0.16258669 0.14991014 -0.070038006 -0.14822699 -0.12810443 0.14023931 -0.07681138 0.006625568 -0.033332273 -0.14044419 0.14432488 -0.07417024 0.087914035 -0.05369864 0.22501221 -0.14945704 0.051230054 0.01204561 -0.19121374 0.34485543 0.070485756 -0.052854355 0.007886813 0.049316622 -0.13920765 0.17006832 -0.040484656 -0.012952089 0.091019996 0.026751969 -0.026877468 -0.23328152 0.18848214 -0.25812057 -0.18284105 -0.014034402 0.20639448 -0.09777588 0.114124544 0.088744886 0.061162233 -0.045914523 -0.09859734 -0.20798172 0.1672308 0.032876275 0.16467072 -0.077961616 0.117115386 0.09397937 -0.05790341 -0.052540623 -0.0404375 -0.080873504 0.15930335 0.005747335 0.13367051 0.016844053 0.042793814
373 -0.12710522 -0.18877451 0.031807855 -0.16970275 -0.09788957 -0.08185041 0.045804825 -0.04392476 -0.025962964 -0.14522918 0.16925497 -0.16666113 0.02447427 0.0006132191 0.11157308 -0.06802258 0.05131314 0.10812349 -0.0252989 -0.030746935 0.03706277 0.05051917 -0.05010991 -0.021576874 0.19839089 -0.043210994 -0.035506353 -0.020200921 0.12982541 -0.055427134 0.0014594487 -0.0053914925 0.013095296 -0.12991828 0.2108789 0.16013044 0.27622524 0.048831515 0.18316525 -0.14467598 0.022791581 0.04013779 0.18917353 0.0019882543 0.03826756 0.017885808 0.08315154 -0.3100145 0.3888986 0.107152924 0.23353662 0.089445695 0.13189103 0.14798172 -0.13833061 0.21168321 -0.15321554 -0.035734624 0.06235868 0.025599882 0.067444794 -0.18139097 -0.14136682 -0.12482559 -0.019681688 0.21704811 0.22852802 0.06746992 0.15952411 -0.08975802 0.10323512 -0.028289838 -0.028352436 0.053415656 0.25658745 -0.065452695 0.10314637 -0.08998291 0.068842635 0.17050073 -0.007779144 -0.06316205 0.19331124 -0.089633495 0.04766938 -0.1773457 0.160991 -0.15681186 0.23038079 0.31810564 0.07860581 -0.07584231 0.025404483 0.041638393 0.024333712 -0.0040708813 -0.06273361 0.11777625 -0.12097793 -0.020503433 -0.12858835 0.09909778 0.06900818 -0.03397479 0.09725286 0.14130981 -0.0011743681 -0.2145414 0.1034654 -0.18116228 0.3868477 0.20363048 -0.042031437 -0.0036663222 -0.034854107 -0.09144508 -0.070422284 -0.021926846 0.07807621 0.13551462 -0.10620832 0.29099977 0.04502462 -0.06804113 0.10195974 -0.1001955 -0.13543794 -0.012648522
580 -0.15495363 -0.12057991 0.11876473 -0.036112286 0.05520698 -0.057563495 -0.06416599 0.007395034 0.13875797 -0.267988 0.04980717 -0.1629523 0.0427615 -0.0077146376 0.096337415 -0.18229954 0.043449834 0.16476382 -0.024189536 -0.18261777 0.100484416 0.09804433 0.01998867 0.0049775545 0.2094601 -0.054153264 -0.20629925 -0.031857025 0.19758008 -0.31181902 -0.082308 0.018595053 -0.029276878 0.11900851 0.16449207 0.08625387 0.32362255 -0.12372143 0.32910293 0.04950784 -0.0915532 0.11895301 0.07473386 0.06499052 -0.1298887 -0.06613889 0.03774278 -0.11146358 0.28770968 0.014911309 0.11079245 -0.05556909 -0.004793593 0.13176137 -0.05911712 0.031157486 -0.030383933 -0.079677336 -0.02879835 0.089850776 0.22644709 -0.29687205 -0.091441885 -0.10295157 -0.055611387 0.2893388 0.14764822 0.3124931 0.1665277 -0.08071052 0.077208705 -0.050073124 -0.071484365 -0.01887372 0.085180864 -0.090006605 0.0817234 -0.09720582 -0.049124505 0.09072545 -0.041522805 0.14808805 0.1623736 -0.15486138 -0.060281426 0.012947663 0.14062168 -0.039860338 0.06615211 0.20079847 0.10142837 0.001029957 -0.11439601 -0.15026322 0.05664206 -0.1390679 -0.16967134 0.22834681 -0.0138524175 -0.037875127 0.11078989 0.2631922 -0.14334776 0.015183215 -0.020723002 0.012404761 0.022443898 -0.1584338 0.067059726 -0.12564637 0.28327623 0.10957462 0.06701318 0.03493324 -0.049016617 0.04401109 -0.044682287 -0.14050755 0.05561052 -0.004756843 -0.010186589 0.17433625 0.13907632 0.07473893 0.14216724 -0.0061302227 -0.17749558 0.06518275
591 -0.18144329 -0.129686 -0.028549146 -0.16258734 -0.08768784 -0.013813182 0.066149324 -0.08271312 -0.054564584 -0.05671227 -0.005476258 -0.09317015 -0.01577101 -0.04918708 -0.09808402 -0.028758084 -0.021653028 0.15991384 -0.1380824 0.02733965 0.037362304 0.09497031 -0.06264342 0.07559072 0.19224206 -0.06407928 -0.11960832 0.090276666 0.21249287 -0.21388993 0.053080097 -0.04143919 -0.014899114 -0.11738536 0.17007317 0.14155972 0.26320654 0.08397783 0.3110553 -0.032134358 -0.02411533 0.12583283 0.096401215 -0.07130688 0.039826985 -0.009246265 0.22670794 -0.24213365 0.30798513 0.04580308 0.26084316 0.1275737 0.026729032 0.2266279 -0.008762387 0.07768241 -0.12869027 -0.0070437514 0.026721489 0.13150302 0.0584519 -0.20519719 -0.09788908 0.050476626 -0.05678362 0.21753664 0.2362538 0.103258654 0.19712909 -0.13783014 0.11024377 -0.13325764 0.0061127157 0.02751704 0.08685023 -0.069422334 0.13749735 -0.11034486 0.03199869 0.15074639 -0.05205814 -0.122127876 0.16132595 -0.12889315 0.1118514 -0.10073569 0.023631083 -0.125148 0.16910926 0.175356 0.06549188 -0.13203941 -0.10105777 0.0033242207 -0.008235478 -0.10212221 -0.16342132 0.07871478 -0.2549807 0.08042236 -0.065593176 0.25855902 0.04102296 -0.040398784 0.12345597 0.18632725 -0.040165193 -0.21792142 0.03825588 -0.20086862 0.31923032 0.09310175 0.023032079 -0.045146387 -0.14240633 -0.028785523 -0.05581022 -0.10356866 0.059512302 0.13311766 -0.14940383 0.18651484 0.03322984 -0.07887396 0.08188994 -0.09850609 -0.023149345 -0.013696009
492 -0.27085894 -0.060940288 -0.018988391 -0.13928756 0.017468147 -0.036874376 -0.031050464 0.089366354 0.15915309 -0.06962069 0.07127752 -0.109794796 0.08323081 -0.14619023 0.07707159 -0.09876314 0.12811762 0.030973744 -0.12101216 -0.14826174 -0.041057874 0.11786128 -0.100708306 -0.025161272 0.31605852 -0.0979925 -0.12950651 -0.08015452 0.17129536 -0.17575754 0.020445174 -0.0046701827 -0.0037110753 -0.092632554 0.082160905 0.16093436 0.3114462 0.068851545 0.31222022 0.045075618 -0.0096109705 0.12723772 0.17156708 0.15842213 -0.1089644 -0.04744765 0.024245493 -0.14064772 0.34737834 0.008341158 0.26685792 0.016751897 0.032089334 0.20853828 -0.07474389 0.20707558 -0.018567724 -0.123082235 0.12430747 0.14220467 0.09041089 -0.10261593 -0.039221272 -0.060856063 -0.07844217 0.19186093 0.28208783 0.06845203 0.18558457 -0.057220597 0.07032686 -0.08939258 -0.043370366 -0.075431906 0.13308378 -0.18029825 0.14589305 -0.13437563 0.08889059 0.07781715 0.15300128 -0.06504202 0.07987274 -0.017486999 -0.03433455 -0.021784315 0.046041574 -0.03222322 0.19796334 0.2834935 0.08497137 -0.08683455 -0.058284894 0.012604042 -0.15947188 -0.09548689 -0.11732974 0.25438663 -0.0760219 0.08894863 0.0635255 0.22122087 -0.04057797 0.020198911 0.070724055 0.15151156 0.022040118 -0.29778153 -0.015672587 -0.070240065 0.2848665 0.10523482 -0.08784415 0.06300401 0.056336306 -0.04999595 0.03906857 -0.074991755 0.032156862 0.05242533 -0.11218755 0.10700839 0.028104154 -0.0609602 0.16841736 -0.013248381 -0.17330386 0.18887782
412 -0.18642 -0.022258446 0.089151554 -0.042613667 -0.09303406 -0.0029743183 0.0005373434 0.02109138 0.054511808 -0.20629649 0.11698228 -0.14178534 0.06921626 0.05939252 0.036886822 0.0064623 0.040044338 0.16239583 -0.015301256 -0.120419554 -0.087618195 0.0015992675 -0.10818571 0.029758334 0.20333599 -0.12597942 -0.14261661 -0.029620413 0.14091702 -0.062005818 0.06715309 -0.056797117 0.028429942 -0.038123917 0.22272585 0.18838567 0.3199497 0.1380249 0.3177087 -0.060560066 -0.09783455 0.0926538 0.080640785 0.06383477 0.003741027 0.0119308885 0.13752303 -0.15304235 0.41188818 0.042132124 0.1909209 0.043718807 0.0040021306 0.16177113 -0.0429535 0.27204946 -0.007145582 -0.0039878916 0.038021136 0.041988205 0.060287107 -0.120916694 0.10367086 -0.037675418 -0.063360356 0.18767187 0.265145 -0.015432457 0.17477275 0.007989395 -0.0030616862 -0.12425914 -0.049474075 -0.026188448 0.2093313 -0.15896858 0.16287991 -0.042497125 0.03342796 0.048640948 0.07084214 -0.08020956 0.17796956 0.012348314 -0.03705211 -0.07030481 -0.05665155 -0.09333703 0.032539 0.084932335 0.09775862 0.024525272 -0.16764562 0.062754616 0.058270227 -0.1461203 -0.0097742425 0.26399294 -0.15592426 -0.06271778 -0.1383216 0.26584905 -0.0008471055 0.0431332 0.167046 0.20570023 0.020673284 -0.20147444 0.068981275 -0.2215988 0.3017222 0.08819729 -0.0782418 0.08066309 0.037801303 0.0067137536 0.0123896925 -0.121806525 0.16616586 0.10235159 -0.10618183 0.1936753 0.03713918 -0.07350374 0.14886138 -0.07129272 -0.07227662 0.09544962
524 -0.32834446 0.011935582 -0.026985848 -0.17528628 -0.046403192 -0.006373505 -0.06301681 -0.06482711 0.033089235 -0.099422924 0.04432989 -0.060917467 0.07507934 -0.072378196 0.2291522 -0.081053525 -0.06377798 0.03735336 -0.045203824 0.014808283 -0.09049541 0.015961308 -0.104927324 0.011866342 0.20498769 0.022254977 -0.09961515 0.038119115 0.12937331 -0.118094146 0.091798045 0.088039346 -0.13573645 -0.17881791 0.081928864 0.19079867 0.26895532 -0.032014415 0.21689804 0.070045985 0.016108882 0.04345511 0.16425164 -0.010936963 -0.11128803 -0.049762625 -0.015621411 -0.17741567 0.21908402 0.012005838 0.18757063 0.08778787 0.08755324 0.222218 -0.0025066868 0.259479 -0.17167044 -0.050590083 0.11345702 0.097066246 0.06666315 -0.1653007 -0.004648826 0.00095650036 0.07488951 0.2351852 0.27433223 -0.07143214 0.13221088 -0.15257128 0.11971835 -0.18171264 -0.046742935 -0.03410399 0.17220274 0.012440587 0.13782267 -0.10424242 0.09085321 -0.025766574 -0.029542496 -0.122023806 0.210728 -0.11190525 0.055422075 -0.08888688 0.077601284 -0.14392027 0.14316419 0.22191834 0.045658328 -0.06860476 -0.03958063 -0.0031016925 0.053725485 -0.12676743 -0.03563415 0.12257224 -0.103634015 -0.00452193 -0.049971428 0.1561362 0.032152176 -0.03362136 0.0689126 0.20103346 -0.04534533 -0.27988467 0.07427721 -0.1249751 0.35079584 0.102613665 -0.018571984 0.072114594 0.119919114 0.035699353 -0.08610667 -0.16623825 0.06895938 0.0671555 -0.21709718 0.16475251 0.058342237 -0.19794005 0.13707426 0.0037925306 -0.26022625 -0.03196173
553 -0.15278763 0.0006114292 -0.0005683903 -0.17767446 -0.055124603 0.12358494 0.011059212 -0.11822927 0.11668962 -0.09965118 0.16050269 -0.13833179 -0.0061004385 0.13602236 0.118487075 0.099001795 -0.0068947626 0.0025863685 -0.09617359 -0.046646923 -0.020505236 -0.08593116 -0.118322864 0.123575605 0.24532808 0.09034422 -0.07140662 0.00041607505 0.00327897 -0.19139628 -0.011605394 -0.006099651 -0.02896395 -0.05153803 0.15249705 0.12321273 0.23496981 0.09682646 0.23732713 0.02364244 -0.14300805 0.089169785 0.023545666 -0.15817936 -0.14691962 -0.052153204 0.021930216 -0.26665202 0.37613794 0.027099438 0.15619285 0.13807428 0.0029285883 0.2331742 -0.06826423 0.10694709 -0.17452025 -0.06278049 0.02600185 0.2114175 0.19974427 -0.14230382 -0.025071545 -0.010246405 -0.035939865 0.21737762 0.17857632 -0.008387782 0.116742685 -0.14322098 -0.12679385 -0.1447887 0.009486076 0.039445512 0.33470953 -0.15393612 0.14421688 -0.1871139 -0.019212738 0.07975903 -0.027085196 -0.13668117 0.24328722 0.13448192 -0.07881939 -0.025946572 0.016079318 -0.008980302 0.21006447 0.2794209 0.020417767 -0.049701337 -0.040073484 -0.10028164 0.066181704 -0.092393845 -0.04862349 0.22181585 -0.07295286 -0.14409904 -0.115962595 0.13499688 -0.041271474 0.07535003 0.03389613 0.21912742 -0.087331004 -0.11958812 -0.009119689 -0.13104483 0.4210934 0.13968217 0.08112871 -0.031600676 0.14742334 0.004019219 -0.04820129 -0.08639645 0.07214132 -0.018640768 -0.048741985 0.33403826 -0.04788866 -0.050151654 0.020476397 -0.04623367 -0.018448675 -0.18181336
370 -0.21275048 -0.02917746 0.02944615 -0.22590318 -0.03734084 -0.048142496 -0.07545963 -0.037399657 0.07078949 -0.05703313 0.03473469 -0.22446729 0.1404296 -0.09008383 0.12924072 -0.07221134 0.012934903 0.06638409 0.0204195 0.024376407 -0.12477775 -0.072197855 -0.28858668 -0.031789113 0.11912373 0.041299593 -0.16565326 0.06625915 0.07189183 -0.27173263 -0.014069433 0.00645231 -0.077059165 -0.08433167 0.12842247 0.11269921 0.35541072 0.17647956 0.25352436 -0.031326827 -0.17249832 -0.045319192 0.06856471 -0.022847546 -0.14188865 -0.13134842 0.0632261 -0.3233038 0.29400206 0.10611589 0.22044523 0.10087306 0.18698315 0.09448426 -0.115174055 0.17327255 -0.19145004 -0.021768859 0.062482733 -0.013623013 0.13265578 -0.021399258 -0.012812788 0.14533341 -0.022553757 0.31137288 0.27661577 -0.1401812 0.2178894 -0.23841321 -0.02009734 -0.17748117 -0.10427086 -0.04804826 0.15333202 -0.07095557 0.18143147 -0.040488455 0.028439183 0.09001002 -0.052924953 -0.103406474 0.16385563 -0.032862104 -0.057972748 -0.027331889 0.15826046 -0.08064021 0.20391434 0.19630189 0.057700887 -0.22453545 -0.0705794 0.09154245 -0.07419896 -0.074128956 -0.014077285 0.20234355 -0.15817697 -0.06356858 -0.05539234 0.10631782 -0.08897898 -0.10179859 0.13872541 0.16412437 -0.026553184 -0.2874346 0.09689508 -0.1491578 0.21013089 0.09865575 0.08562403 0.119600244 0.013103521 0.03531049 -0.056036714 -0.06428665 0.11962406 0.059292622 0.032874864 0.11313196 0.09294139 -0.20534524 0.0649431 0.021799993 0.03288272 -0.0026205094
423 -0.25713927 -0.035375707 0.16139902 -0.115321085 -0.03922823 -0.11514311 0.086591154 0.048071217 0.16830349 -0.24647553 -0.0056816367 -0.26219648 0.061203722 -0.052506145 0.048856836 -0.07110617 -0.020363156 0.16606921 -0.030321255 -0.0060418095 -0.06820483 0.25371498 -0.09819977 0.0009183561 0.21708375 0.046337202 -0.13451865 0.022819025 0.041662186 -0.20373064 -0.039496668 0.006089116 -0.19075738 -0.13906609 0.18130316 0.13597384 0.38276017 0.066876054 0.24107538 -0.20586854 -0.09690879 0.060555264 0.13230388 -0.0051518003 -0.056736145 0.12891856 0.09962496 -0.39290857 0.25272903 -0.09960617 0.19003575 0.08562387 0.15780108 0.039569136 0.012882932 0.057362985 -0.14961767 -0.071158335 0.04757578 0.0475149 0.13031492 -0.1618798 -0.035918884 -0.09902718 -0.10328409 0.30931455 0.12251718 -0.00824601 0.1821854 -0.09501243 -0.03645947 -0.17964719 -0.19583593 -0.015355261 0.123304226 -0.09940337 0.15193607 -0.09668304 -0.038736157 0.013621638 -0.028650153 -0.106409825 0.14047912 -0.0076117544 0.11188512 -0.06113858 0.100330696 0.0032156592 0.16507865 0.19309938 0.008576781 -0.011693209 0.01019072 0.0054293913 0.04170583 0.0360734 -0.02981946 0.05708056 -0.112010844 -0.03186713 -0.13380557 0.1704611 -0.10329562 0.024806624 0.07236342 0.06955185 0.08432427 -0.14802688 -0.005025219 -0.2735637 0.3677817 0.1471609 0.08673493 0.055732537 0.06847105 -0.021129433 0.04324637 -0.11955532 0.10393304 0.0055716587 -0.114582926 0.1936569 -0.016782984 -0.13666357 0.063973516 -0.1786142 -0.09092798 -0.0342737
567 -0.0583115 -0.08177128 -0.0045253537 -0.17255576 -0.16308226 -0.040926702 0.0637508 -0.03855862 0.108300336 -0.12682189 0.129619 -0.10792276 0.049981758 0.0029116308 0.028809387 -0.11864431 0.010791378 0.13967451 -0.12438874 -8.4280655e-05 0.038957626 -0.029718682 -0.19169192 0.11911482 0.08296081 0.1064356 -0.107660756 0.04271608 0.27734244 -0.13905199 -0.049490433 0.12825331 -0.12431674 0.102370866 0.11289503 0.057111602 0.3126698 0.017487714 0.20141768 -0.009409472 -0.12048698 -0.023397606 0.1240337 0.06148734 0.018122451 -0.07678568 0.21197502 -0.24877945 0.2567366 0.09368551 0.25727078 0.10725824 0.003739108 0.24159998 -0.07017917 0.074358694 -0.13255733 -0.032129757 0.11728653 0.10521305 -0.004477765 -0.1253259 -0.007941092 -0.059786625 0.024971707 0.2118512 0.1769132 -0.059368305 0.2807511 -0.16647789 0.09269314 0.055245575 -0.02782727 -0.10975413 0.17667747 -0.10243393 0.19627093 -0.13961583 0.022572609 0.07904186 0.011561219 -0.15937628 0.1262187 -0.056755558 0.10195364 -0.11356089 0.093322404 -0.091112286 0.1699681 0.30320847 -0.00070589856 -0.17768686 -0.036024347 0.042930048 -0.0794107 -0.10829204 -0.006263342 0.15101945 -0.22045197 0.049933597 -0.0043885685 0.24559306 -0.10034969 -0.0015298933 0.09021245 0.1237612 -0.06297888 -0.174595 0.0808648 -0.15183657 0.22643201 0.029912151 0.07559883 0.094598845 -0.048866883 0.023524059 0.0076974444 -0.035616472 0.0055717425 0.021279613 -0.014073877 0.11465931 0.01163927 -0.11574881 0.10884444 -0.120112546 -0.22050254 -0.16631056
629 -0.033521146 -0.10247855 0.093127504 0.023574533 0.06732009 -0.07725451 -0.06295038 0.09151203 0.07411814 -0.23181137 0.077467285 -0.09254432 0.07041714 -0.24750957 0.11065896 -0.15312155 0.22328122 0.07315471 0.0587685 -0.0014544288 0.1516276 -0.069457226 0.009218245 0.1371053 0.20240442 -0.08015982 -0.25611988 -0.017995436 0.11120915 -0.31246555 -0.12338253 0.03945372 0.012267949 0.2663907 0.092736825 0.077293575 0.22745408 -0.08909441 0.38462958 0.16909954 -0.062427733 0.007384904 -0.09192359 -0.0487377 -0.18595538 -0.006921689 0.025887437 -0.059872527 0.28054902 0.1325725 0.05639728 -0.19965442 -0.030124137 0.2968018 0.03165354 0.018986301 -0.16066568 -0.0031185457 -0.16153029 -0.05233589 0.1387423 -0.39583036 -0.024441868 -0.094140045 0.014507339 0.14128993 0.03747403 0.36331695 0.06451153 -0.0619948 0.10550077 -0.16361777 0.033556312 -0.019297859 0.03669084 -0.080489255 -0.017378319 -0.051186867 -0.05815933 0.16295804 0.023156011 0.09816858 0.05207097 -0.06691539 0.024736764 -0.034585595 0.11104382 -0.16996963 0.25718668 0.33300975 0.051934067 -0.08410773 -0.037310604 -0.11326059 0.08607751 -0.06981243 -0.19215493 0.27470598 -0.076827876 0.010832691 0.122281685 0.042099196 -0.014008462 -0.084846474 0.07663265 0.03526519 -0.05236018 0.010575542 0.07599511 -0.12575045 0.2977231 -0.074699394 0.1834253 0.022240303 -0.06281655 -0.07243973 -0.0611176 -0.07131495 -0.0054315985 0.020251017 0.016194463 0.04119554 0.15287629 0.081985205 0.025477631 -0.04013276 -0.15998907 0.05848993
566 -0.016077865 0.039867874 -0.012815214 -0.050429773 0.052991763 -0.0026466318 -0.0123907225 0.008797642 0.09700265 -0.18334839 0.049423344 -0.1625285 0.10285683 0.0050664963 0.012771377 -0.1192757 0.10634918 0.09565896 -0.2490879 -0.08923809 -0.010100671 0.13771564 -0.038146168 0.0039061503 0.13620782 -0.066720046 -0.12798676 0.023574697 0.16141532 -0.13301933 -0.03076 0.06844139 -0.0777796 -0.103564404 0.20284642 0.087844305 0.27530468 0.12489381 0.22065863 0.07167847 -0.05797169 -0.01775681 0.12008295 0.0870271 -0.09313991 -0.0617691 0.07653343 -0.25424272 0.3821041 -0.03561053 0.25773218 0.10071321 0.10663615 0.2013833 -0.12805615 0.11392737 -0.012231405 -0.16933076 -0.020610988 0.072042905 0.12511739 -0.2148842 -0.21346486 0.038001686 0.09345379 0.20037483 0.33029434 0.11588925 0.2800582 -0.19635347 0.059303347 -0.03709917 -0.07150013 -0.04918806 0.20778841 -0.08872465 0.2236524 -0.089494385 0.015340055 0.10184065 -0.24872741 -0.09808708 0.13800116 -0.17603675 -0.038169667 -0.062507 -0.06036725 -0.019675996 0.10351638 0.2087994 0.13263702 -0.15012456 -0.03589212 0.04713024 -0.00067738164 -0.07202906 -0.105840005 0.13734862 -0.19273964 0.05831181 0.049778745 0.19224091 -0.18828367 0.038263805 0.1446008 0.17579046 -0.0015281697 -0.32893723 0.15843247 -0.05497177 0.35364392 0.037035972 0.12395353 0.004033924 0.022772329 0.098073795 -0.103552684 0.040333305 0.24109551 -0.08407417 -0.050403967 0.18359397 0.043818183 -0.011347631 -0.061434474 0.030130187 -0.041532356 0.08740828
461 -0.076623425 -0.018239792 -0.0064693606 -0.016258838 -0.012032908 -0.017211223 0.036092814 -0.10484753 0.06504211 -0.22012131 0.12138951 -0.051715124 0.17328992 0.07336284 0.13624159 0.023385491 -0.019830976 0.08176596 -0.064121954 -0.08411693 -0.046437036 0.10817713 -0.09239313 0.040439636 0.117591195 0.02808169 0.008036163 0.019697577 0.2342719 -0.16050467 0.08404074 0.032596014 -0.16513386 -0.040966313 0.13939762 0.15679367 0.27679372 -0.00051615475 0.16532937 0.00013861814 -0.23659614 0.20446962 0.18879384 0.13070123 -0.059357233 -0.119990416 0.06665563 -0.24882084 0.2081331 -0.09770897 0.3355722 0.06286759 0.13057703 0.14380306 -0.00018708289 0.17987393 -0.2316894 -0.07664712 0.124047175 0.21751772 0.12809552 -0.21316972 -0.0889402 -0.00213051 -0.0713955 0.19779402 0.2850863 0.010630644 0.25989807 0.04029935 0.10362611 -0.027973369 -0.13719262 -0.008896778 0.26030993 -0.06559884 0.14603947 -0.07018656 0.06484068 0.104913086 -0.08269994 -0.08621424 0.16503973 -0.054127168 0.12649524 -0.2567014 0.11051284 -0.12678969 0.23229751 0.298267 0.0061674807 0.029310472 -0.061840262 0.1484762 0.10885656 -0.18532379 0.06442497 0.25594053 -0.019426791 0.07128992 -0.1759352 0.041075133 -0.02312723 -0.04602846 0.04153135 0.11389293 -0.097929336 -0.21465376 0.10536742 -0.05182908 0.23706758 0.13467653 -0.06282552 0.014232008 0.13628764 -0.06499434 0.0026063256 -0.036935482 0.067841545 -0.021649815 -0.13220428 0.17491569 0.05828558 -0.12320223 0.028340494 -0.08888504 -0.1348251 -0.18851681
636 0.04933189 -0.18496695 -0.021677686 0.06216456 0.03418167 0.08515055 -0.062758245 -0.28597495 0.019448219 -0.052999865 0.046173435 -0.032002505 -0.055219136 -0.10255645 0.056487266 0.23395568 -0.20071416 -0.059875265 0.011224284 -0.026288077 0.12080439 0.20597468 -0.1430071 0.24222717 -0.16653995 -0.03180656 -0.045972697 -0.048242643 0.079045385 -0.12290239 -0.0989969 -0.09786032 -0.08539559 -0.035632122 -0.014410597 0.1284818 0.08722643 0.15324138 0.081978716 0.022239579 -0.045062773 -0.016196504 -0.1094743 0.030943383 0.18858726 0.024481198 -0.06606503 -0.077772014 -0.02041498 0.038937602 -0.03706691 0.16928622 -0.022373464 0.03715488 -0.0202303 0.2723763 0.07461942 0.036067173 -0.012507191 0.04884796 -0.08963158 -0.1244111 0.16776831 0.12226196 0.11133843 0.17656821 0.08384994 0.036006823 -0.10506201 -0.18495072 0.19505005 -0.03832528 -0.43150404 0.05888078 0.14085422 -0.204286 -0.18690224 0.14611265 0.26012808 0.37313867 0.26400417 -0.13834423 0.032078154 0.25448292 0.033766117 0.28691882 0.05518175 -0.13355349 0.3052452 0.30422014 0.0135050155 0.1293202 0.21139817 -0.033770487 0.27737728 0.0048289434 0.03995713 0.09921196 -0.346506 -0.1531907 -0.0010648972 0.15234181 -0.34462133 -0.11357508 0.052756768 0.08992962 0.092491746 -0.057316326 -0.0009033911 -0.23093915 0.40161395 -0.2533641 0.24630815 -0.15146184 -0.09259257 -0.2735036 -0.022685882 -0.06710783 0.12165556 0.102352776 0.008903429 0.0033351588 -0.11367125 0.25018835 -0.06417825 -0.14307484 -0.26672807 -0.040575624
641 -0.17827904 -0.12774922 0.13772097 0.07579112 0.02821746 -0.013017356 -0.17616557 0.047923125 0.17616807 -0.1576388 0.04193109 -0.17055514 -0.0067882515 -0.06897436 -0.104388386 -0.031968556 -0.09361027 0.055216145 -0.091556504 -0.019519422 0.1505696 0.11517843 0.05641847 -0.106014274 0.22795023 -0.052274972 -0.28475845 0.07674772 0.053267118 -0.35656482 -0.11306821 0.08380349 -0.015943347 0.05027504 0.27009323 0.025844403 0.24776575 -0.15701306 0.31387383 0.15556805 -0.13438164 -0.077006534 0.15402052 0.05066697 -0.051117316 0.06514282 0.08292485 -0.014615929 0.22932898 0.045865506 0.032467987 0.028662529 -0.04854247 0.2731802 -0.0092433365 0.17915735 -0.21929117 0.0013904604 -0.09383424 0.10279122 0.0833335 -0.21283673 -0.09681749 0.07285538 0.0020523218 0.27709258 0.04953633 0.2489324 0.10378146 -0.09159473 0.0034651652 -0.07254158 -0.010138608 -0.023505937 0.053845212 -0.19344813 0.20243482 -0.1752341 -0.10425412 0.03953393 -0.061833452 -0.0760176 0.21418141 -0.20420067 0.07726615 -0.10655627 -0.014980668 -0.19997114 0.14867403 0.12517633 0.09667951 0.08625202 -0.077005245 -0.038042862 0.009423382 -0.17502281 -0.1736695 0.25257707 -0.056299347 -0.03421063 -0.04431867 0.18576579 0.059429962 -0.1565032 0.09030249 0.15348774 -0.077121176 -0.088932686 0.01407338 -0.2078777 0.21551801 -0.12110288 0.019110318 0.07777655 -0.1442403 0.07771809 0.04483804 -0.083432265 0.23364472 -0.095126376 -0.15410581 0.014254731 0.1557117 0.115468144 0.08970863 -0.0040888907 -0.0073476983 0.14105423
542 -0.19078848 -0.06476657 0.08251737 -0.09596919 0.029441195 0.06528501 0.16275091 0.075210676 0.06973034 -0.31006587 0.14783582 -0.16863695 -0.00532114 -0.0018272226 0.19059213 -0.1457393 -0.12911695 0.087559365 -0.12585022 -0.07822695 -0.14873295 -0.018724848 -0.11660321 0.06796053 0.11548189 0.044715688 -0.05477879 -0.037164316 0.13705297 -0.1365695 -0.019375533 0.10914376 -0.115761526 -0.18164665 0.17580678 0.11704748 0.4320991 0.039635614 0.24981333 0.041099545 -0.23456101 0.11135479 0.14462352 0.13894029 -0.11497472 -0.06407451 0.029815406 -0.1781441 0.3748225 0.04642655 0.1910734 0.16580454 0.014013028 0.1613675 -0.029781487 0.17746785 -0.14315976 -0.065315984 0.16008668 0.015959088 0.1988845 -0.15752235 -0.016018247 -0.03432636 -0.009935993 0.089392066 0.119635485 -0.03474208 0.21195674 -0.08122638 0.10620674 -0.06286775 0.018850056 -0.055067748 0.13564739 -0.06117431 0.14716454 -0.1070408 0.18267463 0.09478919 -0.068894826 -0.15861747 0.23375906 -0.088710494 -0.080470964 -0.17347464 0.14246939 -0.06411453 0.2166981 0.21457334 -0.073134966 0.018335963 -0.16029525 0.004841297 0.009197163 -0.08040539 -0.051982593 0.10976093 -0.16876738 -0.03767955 -0.06376822 0.115424976 -0.09408685 -0.059055254 0.150325 0.07755245 -0.05977725 -0.21950486 0.031046227 -0.06465243 0.16474958 0.09716675 -0.014669856 0.0755514 0.08301134 -0.07165543 -0.0938924 -0.010612766 0.13192248 0.019763067 -0.060364403 0.108244866 0.07800264 -0.18761918 0.16470085 0.0140329385 -0.12172996 0.012067495
650 -0.029274624 -0.427169 -0.14115922 0.07194945 0.21255206 0.022561649 -0.03682192 0.33016315 -0.23811774 -0.35369653 0.03379138 0.10695844 0.09211324 0.11571264 0.4852485 -0.05444466 0.006310853 0.100002125 -0.13184787 0.08001799 0.0371273 0.0019374422 -0.14506769 0.16001153 0.0063972366 0.19603851 -0.2038795 0.056869563 -0.007773391 0.08132477 -0.17256561 0.07857762 0.3161699 0.08452056 -0.09384447 0.12785771 0.10569435 -0.06815057 -0.020996988 -0.12741962 0.024546722 0.11014525 0.2066366 0.12764628 -0.09906825 0.016795978 0.22440888 0.0048111775 -0.043896984 0.023327315 0.2385452 -0.18932544 0.27872378 -0.12189446 0.0197409 -0.034125127 0.0462798 0.06654881 0.3074447 0.1553658 -0.07789561 -0.12714484 0.066092655 0.08832995 0.13589178 0.23922995 0.17492385 0.113161735 0.14773217 -0.524649 -0.026924668 -0.3667398 0.02540276 -0.20612542 -0.043332282 -0.1385321 -0.12031696 -0.12616105 -0.20761624 -0.10229178 -0.0274448 -0.13585795 -0.012668159 0.2904505 -0.1029208 0.18831544 0.117215335 -0.07112632 0.37856054 -0.35676387 0.007494783 0.1125452 0.030783402 0.19674139 0.018674087 0.11662991 -0.09441016 0.2380544 -0.1438553 -0.08132684 -0.23636203 0.04705199 -0.037279867 0.15869738 0.03731011 0.01424629 -0.026087398 0.43080088 0.15136427 0.02044629 0.054231722 -0.08849023 -0.095126234 0.32349944 0.024953952 0.0434292 -0.18238117 -0.14568701 0.30295712 -0.078365766 -0.4443056 -0.2574629 -0.26888406 0.037441935 -0.18406142 0.293126 -0.040987544 0.16062063
599 -0.15086187 -0.435762 0.006752674 -0.0127169015 0.19338836 -0.05906211 -0.0057073827 0.36052155 -0.296097 -0.39020455 -0.011386617 0.019709028 0.006740103 0.0290527 0.43947104 0.021701364 0.060107242 0.12025876 0.020927593 0.055571187 0.024163939 -0.025803028 -0.13543361 0.10122196 0.14486176 0.17931695 -0.104789436 0.039645184 -0.0076448787 -0.0071373596 -0.1140669 0.022440953 0.28930402 0.10234875 -0.16279848 0.023257297 0.0317476 -0.044956733 -0.07772949 -0.23309796 0.014890015 0.23298042 0.12715808 0.2515461 -0.15421718 -0.09378794 0.2480797 -0.004888461 0.013087594 0.038869742 0.34777495 -0.2435564 0.18267687 0.093094036 0.010656431 -0.04112702 0.17423362 0.10840771 0.24880631 0.17638163 -0.047667205 -0.088843286 0.12379944 0.045409113 0.13463613 0.18842682 0.047086865 0.012809773 -0.013397737 -0.31633833 -0.022045864 -0.30827153 -0.0055398997 -0.24820714 0.0036846867 -0.15436277 -0.09340463 -0.18697308 -0.36227474 -0.0011090082 -0.12530836 -0.15476891 0.06742052 0.17046154 -0.09179718 0.13904811 -0.03963619 -0.0080494555 0.2971645 -0.30582076 -0.25542584 0.067907155 -0.14044595 0.14925303 0.06971619 -0.0427664 0.026037168 0.42224982 -0.081879675 -0.05558423 -0.1999343 0.028651081 -0.0732656 0.20716879 0.037863836 0.050738603 -0.023908256 0.39420465 0.11534392 0.056472454 0.023002695 -0.05604491 -0.266892 0.17611943 -0.112333275 -0.017593564 -0.21143278 -0.17159705 0.307632 -0.04222709 -0.26107213 -0.25255388 -0.2980247 -0.036049355 -0.2519487 0.358987 -0.12128984 0.17928606
623 0.09340995 -0.06883124 0.023499863 0.1674965 -0.05566215 0.1329311 0.06437011 -0.32856894 -0.061143722 0.1294655 -0.13717496 -0.049502 -0.17058091 -0.18423001 0.09308079 0.2244546 -0.2484612 0.09254324 -0.10678868 0.06313473 0.09106611 0.23449904 -0.3086158 0.0052633057 -0.22056854 0.020625938 -0.03828801 -0.24056648 0.10928871 -0.0497505 -0.06763625 0.07466472 0.078093745 -0.053754173 0.04801899 0.09155743 0.072589464 -0.012727211 0.07384967 0.060485605 -0.16064124 0.24545023 -0.017153278 0.16307542 0.18325062 0.041555822 0.048800934 0.10366741 0.09927498 0.12172866 0.12974209 0.3148586 -0.02460506 0.08813553 -0.079736814 0.10773701 0.026283858 -0.05701834 -0.13964768 -0.054600105 -0.003346944 -0.02264475 0.19768846 0.14610869 0.09767288 0.03544862 -0.05397989 0.24944238 0.043350253 -0.0173308 0.1829104 0.04662514 -0.32447356 -0.10994526 0.11566591 -0.20531328 -0.3742497 0.06909255 0.12606765 0.20496127 0.081926405 -0.19343494 -0.0051294724 0.26592708 0.08052415 0.061957452 0.016338058 0.035938185 0.30447224 0.37602362 0.13385043 0.0523546 -0.036780164 -0.11069715 0.14039531 0.023046998 -0.019923963 -0.121370785 -0.41389498 -0.2331647 -0.020463523 0.13857359 -0.47000134 -0.09741161 0.07542224 0.2164593 0.025992518 -0.10930278 0.1364401 -0.1286465 0.45592028 -0.32285547 -0.045689017 -0.0055421507 -0.017275928 -0.2868464 -0.004458161 -0.2683604 0.03009673 0.07132743 -0.026239943 0.054044757 -0.092035644 0.14600918 -0.15125695 -0.14267372 -0.12511335 -0.13611737
513 -0.11393938 -0.04443108 0.05709441 -0.091833614 -0.026293153 -0.07410522 -0.06898157 0.03489375 0.17933469 -0.14573556 0.016017674 -0.27985835 0.082597554 -0.0066994214 0.06559547 -0.12230728 -0.10686353 0.1842191 -0.028333489 -0.18107909 0.03938304 0.09157089 -0.06674843 0.10103754 0.13773288 -0.040840346 -0.18235342 -0.03844225 0.15754513 -0.2965818 0.048383765 0.096222706 -0.023282485 0.020933846 0.20063424 0.10331838 0.29043075 0.045648795 0.27540138 -0.059121713 -0.10018392 0.113808185 0.039063033 0.10768482 -0.060945753 -0.034656774 0.13529968 -0.11330403 0.41752407 0.13937065 0.3220379 -0.027597051 -0.046591904 0.22756615 -0.10777803 0.0663104 -0.12579623 0.009180551 -0.017646719 0.12199507 0.14435686 -0.29153243 0.022955803 -0.04724333 -0.018036058 0.29262272 0.10841895 0.10295621 0.13678835 -0.10368285 0.08922396 -0.06343868 -0.016070075 -0.096499726 0.20114234 -0.26780507 0.2258291 -0.23779617 -0.0591776 0.052541573 0.093272656 -0.030840144 0.09279147 -0.07551401 0.020793172 -0.15805674 0.04964817 -0.0018113626 0.1337614 0.20234558 0.00020818162 0.0018939961 -0.020759633 -0.04167549 0.042659596 -0.09008875 -0.1251299 0.040333487 -0.17428018 0.043229703 0.055585008 0.1140053 -0.015256367 0.04401018 0.0719715 0.041651573 -0.023819426 -0.20501237 0.09504891 -0.028768195 0.12269752 0.059866242 0.034373194 0.11210248 -0.06370387 0.027357223 -0.023981128 -0.08812931 -0.017457841 -0.0015502896 -0.039092172 0.030336568 0.046550542 -0.06676862 0.15811512 0.008089934 -0.11942183 0.07254987
659 -0.12771851 -0.4156331 -0.066573374 0.023124663 0.13088655 0.0863039 -0.061010808 0.39637366 -0.3294496 -0.37577856 0.05482928 0.10705827 0.09967868 0.15715194 0.46971858 0.033412192 0.07465497 0.07364063 -0.13530299 0.123421736 0.0075465087 -0.02221915 -0.22584917 0.037140712 -0.023195148 0.24500605 -0.1780451 0.11003388 -0.09467737 0.04209041 -0.22633013 0.019966032 0.22517328 0.12351062 -0.09808176 0.09289802 -0.02120782 -0.00047846755 0.00033367143 -0.05797342 -0.06243054 0.14970961 0.17244828 0.13325585 -0.11382566 -0.16433077 0.3725568 0.072544284 -0.023414474 0.10814235 0.24342178 -0.2658999 0.27626586 -0.0020569274 -0.089800544 -0.07049011 0.12086846 -0.021172373 0.25650647 0.17731875 -0.035213724 -0.1448918 0.029539296 0.0990755 0.20871866 0.09252172 0.05408931 0.043820962 0.15373659 -0.3554415 -0.049619306 -0.356417 0.024388842 -0.21194346 0.02001705 -0.12196319 -0.019293452 -0.08335262 -0.3128323 0.039149147 -0.05030641 -0.14285985 0.0708607 0.17450403 -0.12143145 0.09629128 -0.016427547 -0.0756891 0.42731345 -0.21569636 -0.01626694 0.026222609 -0.2103616 0.19612536 -0.025833711 -0.04038024 0.048358627 0.32626444 -0.153635 -0.13748306 -0.24024935 0.107423365 -0.10639197 0.039014917 -0.08464283 0.0031673969 -0.044746373 0.33768198 0.1466968 -0.028042974 -0.0057869144 -0.11570364 -0.11251418 0.32628116 -0.015239169 0.0714737 -0.20807754 0.0015163956 0.25087819 -0.07247982 -0.3519975 -0.2615976 -0.24618779 0.052978218 -0.13534328 0.17235936 -0.022622555 0.084444076
640 -0.14552876 -0.48681626 0.014288078 0.015602307 0.15659247 0.09179555 -0.014187419 0.41814837 -0.26285994 -0.35279855 0.09703744 0.09724258 0.1395149 0.20775707 0.43951616 -0.055804703 -0.019257534 0.11140422 -0.19477533 0.086833246 -0.033764668 -0.014316589 -0.13869174 -0.009685305 0.010081906 0.20979486 -0.16820258 0.07453514 0.03260085 0.107348636 -0.2761936 0.046150614 0.2989089 0.14381827 -0.1377256 0.10235337 0.019440942 -0.10412684 -0.13954516 -0.24450295 -0.021972511 0.17652644 0.120089 0.24602385 -0.18635525 0.00058092625 0.33322075 0.07277898 -0.05596184 0.0758266 0.28440732 -0.17514716 0.22415785 -0.0031134353 -0.06464203 0.14394397 0.02541129 0.09668945 0.32660598 0.15035307 -0.07674186 -0.08259369 0.2350592 0.031433493 0.051765792 0.14007464 0.13821697 0.08799323 0.15575951 -0.32407787 -0.1303355 -0.44426286 -0.022139344 -0.19339739 -0.0619682 -0.18591554 -0.046275392 -0.20919237 -0.23485863 -0.13031329 -0.035963845 -0.08083481 -0.121698886 0.23916179 -0.124288164 0.09563231 0.14116618 -0.099286206 0.33840725 -0.37241077 0.024156533 0.040123735 0.0075775427 0.2319877 0.031209908 0.033989098 -0.08318274 0.22979787 -0.15778989 -0.0008137693 -0.24002464 0.051502153 -0.011914457 0.090583935 0.07239711 0.021924099 -0.101392016 0.32696497 0.21238077 0.04155824 0.030599924 -0.26102695 -0.20244366 0.31391963 -0.06806648 -0.03090117 -0.26964602 -0.1878225 0.2643257 0.06843914 -0.38690886 -0.32676783 -0.27623206 0.016848072 -0.14416 0.20975536 -0.15067482 0.21326607
635 0.010940784 -0.42695972 -0.0013500924 0.014352387 0.18770103 0.13113515 0.20350504 0.31536695 -0.2975292 -0.4233494 0.0127881095 0.13553561 0.01290379 0.2821039 0.3795933 -0.008618578 0.0035365135 -0.09009642 -0.1966353 0.16060016 -0.06259018 0.009325487 -0.12975362 0.05867665 0.11004424 0.08390305 -0.20484725 0.04488723 -0.06292263 0.05617441 -0.30445483 0.03933405 0.22024164 0.07690665 -0.15405124 0.033625025 0.04032897 -0.12251479 -0.14052343 -0.14717884 0.010082995 0.1485635 0.08405293 0.18835121 -0.11821042 -0.036647517 0.19883323 0.10611651 0.0118408045 0.12095194 0.3300118 -0.18261391 0.13754234 0.043679543 -0.07683924 0.0010821635 0.09369404 0.120663755 0.12646534 0.21192302 -0.21857953 -0.2205314 -0.05220681 -0.015282302 0.123780705 0.11961096 0.11594963 -0.06730877 0.15251341 -0.3321441 -0.022009667 -0.36064965 0.06968868 -0.1910119 0.058552872 -0.16275337 0.00253592 -0.22361027 -0.2473175 -0.15572941 -0.23446615 -0.2244721 0.07900875 0.075839356 -0.2621677 0.06667823 0.09608103 -0.10762593 0.32518393 -0.13874306 -0.08645044 0.030429278 0.056170378 0.12092972 -0.13316758 -0.009168702 0.09571196 0.27694413 -0.1847545 0.014916759 -0.11840783 0.10370708 -0.14823739 0.27967748 -0.0677022 0.026925804 -0.018947227 0.28170633 0.13461567 -0.081293695 -0.046323262 -0.18349367 -0.16222684 0.28423986 -0.17326494 0.025498142 -0.15901187 -0.034656942 0.45738676 0.08027006 -0.32037136 -0.19086999 -0.2672099 0.025214281 -0.10632662 0.3187147 -0.09391075 0.21763594
577 -0.15510216 -0.5624257 -0.015383352 0.09178854 0.049629495 -0.046327557 -0.12204746 0.28715324 -0.19462676 -0.34735635 -0.02603464 0.17098485 -0.033739656 0.19220504 0.4826207 -0.0050116717 -0.09445524 0.15021129 -0.08055054 0.10958444 -0.053521596 0.02161401 -0.16574655 -0.041485887 0.07593621 0.19409175 -0.11130018 0.05953574 0.044510733 0.12577404 -0.18943514 -0.003629265 0.26017115 0.14917864 -0.15318051 0.015331238 -0.13442098 -0.16488229 -0.13350275 -0.17005214 -0.045883175 0.15965857 0.21102633 0.20435938 -0.15270074 -0.07466235 0.23156415 0.0969684 0.00028709244 0.13804188 0.33842844 -0.30874497 0.23142377 -0.030086922 -0.129766 0.082625516 0.11878644 0.045373946 0.30846998 0.16450556 -0.067624606 -0.104377486 0.13273619 0.031588726 0.11486779 0.19600537 0.257449 0.027154753 0.10563999 -0.43356034 -0.008089685 -0.24222924 0.0094284825 -0.28588215 0.07083682 -0.16887438 -0.063832 -0.21550678 -0.3183806 -0.15002076 -0.0057698404 -0.18027228 -0.013675984 0.31439546 -0.09876974 0.21449406 0.010136636 -0.15648243 0.23359534 -0.28064048 0.079856984 0.06409644 -0.02574739 0.21057709 0.09764315 -0.016151927 -0.08846912 0.2827998 -0.15602821 -0.0987424 -0.17327936 0.09342392 -0.0195596 0.15177555 0.020288855 0.13217951 0.10903225 0.3467395 0.24164915 -0.021401197 -0.09047935 -0.09004709 -0.22831336 0.24931766 -0.10911175 0.14495212 -0.17366794 -0.11363324 0.21306619 -0.08264493 -0.3581836 -0.1261865 -0.23595653 0.091657504 -0.13242765 0.3239112 -0.07149081 0.074403115
376 -0.2198981 0.13275631 -0.060496338 -0.093846254 -0.07010095 -0.12696306 0.039360527 0.13881716 -0.020056617 -0.17428163 0.27769238 -0.27682188 -0.10110985 -0.06946703 -0.012220095 -0.16589446 -0.08160349 0.12272277 -0.006883198 0.12661098 -0.04318959 0.0787796 -0.11005128 -0.05872844 0.09072318 -0.051444087 -0.07570661 0.08821835 0.09714954 -0.11190286 -0.047534242 0.006516464 -0.017683148 -0.09639894 0.16119067 0.22286135 0.4017567 0.03131581 0.16220482 0.0024938404 -0.002243152 -0.045477763 0.1304587 0.20260154 -0.018006204 0.18169807 0.19424655 -0.20213377 0.28344575 0.1620682 0.22480541 0.050577637 -0.0101974355 -0.0050995224 0.097276755 0.17046922 -0.1993023 -0.06070382 0.09370029 -0.005497336 0.22614446 -0.17133074 -0.10101304 -0.14657871 0.10337001 0.28677562 0.2995643 0.08766398 0.025424106 -0.17667617 0.04480401 -0.16448407 -0.15244624 -0.0155273285 0.11375625 -0.17984754 0.2524029 -0.17092976 -0.12146696 0.0013132811 -0.07744334 -0.019416038 0.14252323 -0.23446524 0.19686344 -0.057043765 -0.0077584703 0.0032846117 0.15343168 0.26094756 0.06139155 -0.016929802 -0.12280031 0.0536698 0.072206505 -0.05448653 -0.18252078 0.16151142 -0.23324104 0.036672913 -0.032230567 0.12079937 -0.0867154 0.06546942 0.15866393 0.043213878 -0.09955735 -0.2275663 0.0395856 -0.27060828 0.42235872 0.18157442 0.12242104 0.18741937 -0.096790545 -0.009903908 -0.12218617 0.022729388 0.15564583 0.07222021 -0.08754447 0.19025387 -0.010347214 -0.1339969 -0.07222971 0.0032111485 -0.113221236 0.005952956
428 -0.124804184 -0.1430913 0.19231217 -0.07842816 0.05696793 -0.16082416 0.06476776 -0.088701375 0.16810971 -0.15796764 0.031025363 -0.2515605 -0.07505207 -0.040053014 0.016267983 -0.20399895 0.2338141 0.17829695 0.064538896 0.058536854 -0.09709887 0.0026585713 -0.08085214 -0.03193235 0.23330902 0.041332763 -0.20250304 0.05532932 0.0059437826 -0.32154566 -0.051510062 0.023280308 -0.06358735 -0.01975084 0.2678481 0.082297124 0.2129355 0.047276046 0.19385067 0.053278714 -0.17789172 -0.039211433 0.13350937 -0.0034382606 0.019468123 -0.17403947 0.29228282 -0.22166896 0.17415759 0.07852235 0.13520664 -0.005576694 0.05129301 0.22709696 -0.017579095 0.15854886 -0.096557155 -0.09488283 0.13563836 0.0796907 0.24059099 -0.15853372 -0.0030577485 0.0589438 0.0627431 0.27779648 -0.007187603 0.0039159115 0.15689626 0.10135264 0.103549816 -0.06427421 -0.13638641 -0.166677 0.27813748 -0.2117279 0.101085305 -0.17621453 0.025360554 0.00490303 0.0047536325 0.011307302 0.08187114 -0.010270643 -0.05700881 -0.12875791 0.13201447 0.018290013 0.19699734 0.2772316 0.17168789 -0.1660091 -0.025355833 -0.107431814 0.08643198 -0.019542813 -0.18503864 0.14234391 -0.08139471 -0.06749681 -0.12746105 0.19474897 0.03818864 -0.091261685 0.121777885 0.07044079 -0.18230236 -0.3378232 0.0007127157 -0.18813454 0.19164102 -0.049275972 -0.012185013 0.11643147 0.0069421316 -0.024822721 0.15295509 -0.085206516 0.03867792 0.092883624 -0.1617584 0.17105702 -0.106355265 0.082414895 0.0010925515 0.047928214 -0.21219197 0.08583368
630 -0.05134545 -0.115750395 0.08384789 0.27639264 -0.060455684 0.11627463 -0.04903062 0.082462944 0.28455335 -0.05963506 -0.15692028 -0.02562916 0.00938255 -0.0026674715 -0.192066 0.085546345 0.10012236 -0.029496592 -0.04657472 0.034915283 0.12759079 0.13955274 0.015065002 0.029626798 0.07987252 -0.07996697 -0.20776421 -0.14368367 -0.010098946 -0.28547844 0.05205823 0.093183294 -0.12396184 0.0043741814 0.16108827 0.030816518 0.13627754 -0.16534494 0.18293878 0.11923485 -0.22153735 -0.00015097295 -0.013670075 0.023469146 0.01798593 0.16942571 -0.21850723 0.05253547 0.035617933 -0.03705605 0.07021767 0.18567531 0.04983276 0.11788348 -0.026568407 0.006037847 0.12412764 -0.12680331 -0.008490339 -0.08783635 0.10844303 -0.29889196 0.21056575 0.21702112 0.053837743 0.17701486 -0.040360376 0.3798527 0.009639585 -0.12942773 0.012211527 -0.14840016 -0.19814949 -0.14274345 0.15551543 -0.18071766 0.051526506 -0.07011185 -0.08614021 0.42228281 0.0375755 0.03710181 -0.028315032 0.024280982 -0.015321038 -0.055106953 0.18769412 0.047195747 0.17447357 0.4738574 0.07215507 0.035062704 -0.035637215 -0.29420942 0.29599062 -0.052720696 0.018143464 0.08674247 -0.19109112 -0.09607127 0.13965973 -0.053793136 -0.016287632 -0.105192244 0.07434023 0.078623384 0.10452893 -0.026151601 0.10111205 -0.051618192 0.18439932 -0.16264804 0.04217153 0.028208708 0.05947052 -0.08898478 0.096785955 -0.16540074 0.23519702 0.050283063 -0.030397136 -0.06762923 0.040271245 0.05783596 -0.08209924 -0.017045364 -0.11372078 0.10000093
483 -0.089431934 0.019670343 -0.08470458 0.030480575 0.049908854 -0.018070502 0.008342565 0.02917069 -0.015210222 -0.22574595 0.09763684 -0.08508679 0.10097481 0.04960769 -0.012171631 -0.21906465 0.14779855 0.12407806 -0.062414736 0.09822277 -0.019270489 -0.07280394 -0.098645 0.055723514 0.11947231 -0.14924902 -0.20611593 0.025808048 0.121747576 -0.18213977 0.03955447 0.013237435 0.008237256 0.019539168 0.16805904 0.15916096 0.28208733 -0.008075194 0.28897047 0.022982476 -0.17930627 0.08610765 0.21460435 -0.022923924 -0.17078736 -0.12928635 -0.024506759 -0.26402685 0.36143783 0.054536868 0.2887075 0.019548573 0.070286915 0.27760518 0.0070049395 0.17304826 -0.034381445 0.077883184 0.064684734 0.012930468 0.12343585 -0.17188615 -0.03276554 0.03882766 -0.0017966974 0.2674251 0.13089977 0.27888232 -0.02830517 0.065645546 0.15316916 -0.07024313 -0.08840229 -0.005128749 0.21580759 -0.11888901 0.110995166 -0.24118184 -0.013248404 0.22794716 0.2871559 -0.0759583 0.097968176 -0.1354593 0.089423634 -0.028175192 0.06013908 -0.012282515 0.013195827 0.2548354 0.16441593 -0.026688788 0.06491188 0.011407072 0.0225087 -0.11141257 -0.20206286 0.12591343 -0.17855933 -0.13325237 -0.07653087 0.08585037 -0.02760338 -0.19518751 0.088119544 0.11265362 -0.048703272 -0.17338371 0.16542478 -0.1489787 0.21090113 0.0384232 0.12371616 0.11539481 0.06989934 0.098573335 -0.07836157 0.021751195 0.15078615 -0.0179348 -0.10007834 0.15198535 0.20416437 -0.031514242 0.16316344 -0.14577346 -0.061468154 -0.031383563
590 -0.08341498 -0.18869986 0.06092179 0.007910989 -0.09659328 0.15073042 0.1570878 -0.1537613 0.090699896 -0.16618213 0.15745826 0.025557417 0.017233608 -0.2701985 0.064131 -0.090225935 -0.2897077 0.05167997 -0.034549434 -0.08814562 0.0777909 0.22554368 -0.12146524 0.057540923 -0.010126728 -0.07177661 -0.023706965 -0.02411939 0.22655274 0.12646171 0.0926188 -0.011931664 -0.06144772 -0.19501519 0.11033462 0.065136544 0.14088526 -0.20157348 0.15026782 0.02181684 -0.06759177 0.09478282 0.1982787 -0.048499525 0.15617593 0.08315204 -0.06593699 -0.19066449 0.0953271 0.12656236 0.03444584 0.1077156 -0.062383804 0.12595469 -0.21860564 0.1559777 -0.07095316 -0.1298197 -0.14189096 -0.029269405 -0.0010933105 0.014272311 0.13389479 0.013823223 0.049828462 0.07568462 0.00048307673 0.11041406 0.027168961 -0.25856212 0.27484977 -0.07386311 -0.096948154 0.049300138 0.04896354 -0.1392236 -0.13563752 -0.13914889 0.1940881 0.25422725 0.102407865 -0.08622975 0.029581875 0.2187916 0.060603358 0.16310596 -0.09859978 -0.037912026 0.12489399 0.1332839 0.092850685 0.05777024 0.18276234 0.016972968 0.1481184 0.17227143 -0.041597176 -0.02153189 -0.30136755 -0.14849463 -0.19923453 0.22369498 -0.16085322 -0.060502537 0.06174084 -0.02182798 0.19119729 -0.22942896 0.18072768 -0.17785276 0.3189828 0.05027548 0.0012005456 0.13329764 0.07587274 -0.15112945 -0.019123781 -0.088009514 0.058452513 -0.15799934 -0.20049214 0.17237806 -0.21457149 0.2009349 -0.13632895 -0.24972063 -0.26854357 -0.25429338
400 -0.24315323 -0.09737769 0.077179536 -0.14301747 0.015718512 -0.010315205 2.2036427e-05 0.041112706 0.037088018 -0.20455486 0.035451777 -0.1428309 0.04670867 -0.017292112 0.041471854 -0.07487781 -0.072739795 0.064281285 -0.011927271 -0.112272434 0.013930534 0.07038682 -0.019476034 -0.054608658 0.0761091 -0.068366274 -0.1786131 -0.039551478 0.062881015 -0.21186756 -0.036785822 -0.05465061 -0.13602504 -0.03734464 0.13457674 0.108678 0.1449782 0.080725126 0.26042464 -0.009838591 -0.10685978 0.051202007 0.07469559 -0.0038980944 -0.15761803 -0.05746556 0.10658261 -0.11779473 0.25030607 0.11857336 0.18430996 -0.048918597 0.082436025 0.26099792 0.013995916 0.13348159 -0.05594245 -0.010551257 -0.056161217 0.045525223 0.12201958 -0.20331116 -0.03156139 -0.025735069 -0.022259379 0.1972921 0.15094419 0.176782 0.12908603 -0.056248095 0.1332875 -0.1069987 0.04867409 -0.006401179 0.17350277 -0.104484715 0.16990949 -0.21459673 -0.049271252 0.1391858 0.023999898 0.06184536 0.09412324 -0.0922954 -0.030179497 -0.07450724 0.03190955 -0.054422826 0.17360242 0.18263793 -0.0071922387 0.012672835 -0.09377561 0.052529223 0.023693688 -0.10704561 0.014240435 0.27082253 -0.16079251 -0.03642277 -0.05610832 0.21666913 -0.10895065 0.009425908 0.16619352 0.103433035 -0.00465277 -0.21517955 0.104346015 -0.12131908 0.2561023 0.056912433 -0.0740107 0.1172146 0.065632395 0.008560822 -0.04851775 -0.1591462 0.07450048 0.04700293 -0.058459822 0.13804545 0.1276599 -0.063916944 0.23075372 -0.054711074 -0.14646761 -0.012516979
395 -0.28430074 -0.1598376 0.06003492 -0.094331175 -0.048869677 -0.038778193 -0.08490901 0.082281664 0.014639795 -0.21115251 0.13277863 -0.12984245 0.103311546 0.058751322 0.009790686 -0.10037556 -0.043407284 0.049218602 -0.025225576 -0.02387595 -0.15458564 0.090376884 -0.06415069 -0.021406496 0.18022367 -0.1457855 -0.11996743 0.016350986 0.095222935 -0.35071197 0.10516252 0.104425274 -0.21034724 0.0010889135 0.23703843 0.19389156 0.3275242 0.0065945406 0.31071386 0.1082657 -0.24583161 0.0010670689 0.08672131 -0.06527338 -0.0005121277 0.067386866 -0.11039491 -0.21001522 0.26313272 0.13327932 0.15750848 0.067114055 -0.108724475 0.10519364 0.096770875 0.14317247 0.03114785 0.008216537 0.09381756 0.026855884 0.16422127 -0.18744098 -0.024087837 0.014409618 -0.07133887 0.20119883 0.17380616 0.16801545 0.13097702 0.03699333 -0.01704963 -0.14718243 -0.057948772 -0.13958627 0.2961833 -0.10465674 0.17122222 -0.16033892 0.04504107 0.20637815 0.07716939 -0.04027834 0.032835573 -0.061977215 -0.07484866 0.059092745 0.02294005 0.03520899 0.076514386 0.3485913 -0.06947674 0.038294066 -0.0046709143 -0.052280743 0.007847791 -0.026053017 0.028766833 0.10795808 -0.18139046 -0.047651567 -0.11327339 0.07193836 0.01503379 -0.05568906 -0.031126784 0.08320498 -0.1354131 -0.1548787 0.11007376 -0.11019782 0.21039762 -0.03398939 0.1263819 0.0592935 0.027887547 -0.1255305 -0.11185139 -0.13556881 -0.011558588 0.0125912875 -0.09090141 0.17866714 0.12796032 -0.053499438 0.058867283 0.017650224 -0.15439285 -0.07398542
615 -0.04212162 -0.59239525 0.08859521 -0.067816384 0.1722656 0.068380415 -0.11174495 0.4523765 -0.27286655 -0.29595876 0.15757844 0.07954759 0.16788828 0.15346456 0.49750808 0.124191046 0.038155876 0.08585084 -0.05703825 0.1542912 -0.07387139 -0.22135772 -0.19517833 0.12795573 0.11264817 0.29517305 -0.10831789 0.14507774 -0.0014198985 0.06871495 -0.10032101 0.013788833 0.20914072 0.04672452 -0.21708469 0.047106653 0.07831695 -0.09562295 -0.10519203 -0.25215125 -0.10681412 0.16167963 0.08205879 0.17754868 -0.16453719 0.0019282773 0.30061996 0.101947345 -0.056345765 -0.050085016 0.28519967 -0.24487296 0.2830644 -0.07589951 0.025356494 -0.025760192 0.16608912 0.021667447 0.24798352 0.12823479 -0.100489065 -0.18211454 -0.006431314 0.0629532 0.033441603 0.10599146 0.2420644 -0.113160975 0.18703207 -0.36764118 -0.12260879 -0.27667314 0.07911458 -0.18713444 0.0241997 -0.24135572 -0.13534316 -0.14203636 -0.3464076 -0.118689105 -0.23520188 -0.21788442 0.08847967 0.18389134 -0.12172483 0.33590043 0.13107911 -0.14959666 0.34550777 -0.24300909 0.042809296 0.008595408 0.057134584 0.16290464 0.042546492 -0.03244579 0.044224277 0.38839644 -0.13390885 -0.06016915 -0.19009204 0.12684289 -0.14512618 0.18812546 0.040400397 -0.025191812 -0.058678675 0.35193664 0.21750195 -0.088747315 0.037321556 -0.16335978 -0.18881448 0.20686154 -0.09979827 0.14060435 -0.16582535 -0.15177596 0.26899442 -0.0047150087 -0.38144913 -0.2349734 -0.15960681 0.06912355 -0.18978795 0.28599232 -0.17275746 0.16701357
378 -0.27214807 -0.08026628 -0.06419229 -0.06005963 -0.08483312 -0.09626507 -0.113832615 0.078159034 0.088666715 -0.12050493 0.028574487 -0.14535888 0.067363486 -0.052335057 0.0977018 -0.059589915 0.10081217 0.08454604 -0.02788115 -0.08360069 0.041927774 0.08386134 -0.05254482 -0.029847719 0.22886232 -0.005369863 -0.2089611 -0.065960914 0.16074201 -0.2433704 -0.05026606 -0.054955594 0.037014365 -0.113424785 0.123471335 0.20987432 0.31312716 0.11506008 0.27041027 0.08893533 -0.080194816 -0.0652552 0.17805126 0.05437372 -0.06177537 -0.08085387 0.04840728 -0.2506844 0.2859407 0.09899438 0.28508323 0.092398085 0.11258042 0.21050295 -0.09672582 0.13926882 -0.045084637 -0.1075458 0.04503962 0.040369425 0.17437325 -0.104770824 0.051076114 -0.09785308 0.012188122 0.25188476 0.3497333 -0.04243517 0.21592084 -0.1492711 0.058635306 -0.20239782 -0.047754426 -0.10578014 0.10782141 -0.16620378 0.19810988 -0.14607503 -0.0021865286 0.099267185 -0.0025519964 -0.04682178 0.13522531 -0.12548764 0.027350746 -0.07022431 0.07346728 -0.074069634 0.15660767 0.22209826 0.06721102 -0.10086293 -0.024631884 0.0387693 -0.058124516 -0.14131282 -0.02383718 0.21610361 -0.16678421 0.045207717 0.0039432347 0.17828375 -0.06200033 -0.0011494041 0.08083407 0.22727147 0.06636438 -0.35918576 0.121319234 -0.3094441 0.20457895 0.1376103 0.066462755 0.022110973 0.05193105 0.041365173 -0.019565906 -0.015906341 0.010260298 0.10679214 -0.07999712 0.13180204 0.023780216 -0.26662436 0.17804085 -0.092091076 -0.07379075 0.06617978
612 0.166946 -0.07980665 -0.14232443 0.06427412 -0.21747409 0.03861545 -0.03915692 -0.22129208 -0.1961654 0.021696502 -0.01912778 0.13802326 -0.049084462 -0.020022314 0.04121043 0.20759645 -0.4264599 0.07470169 -0.0006167434 -0.22483832 0.11626441 0.23837611 -0.18034635 -0.16854303 0.10216402 -0.05292334 -0.2768071 0.027872782 0.1927567 -0.12925844 0.12981199 0.12668982 0.2939278 0.06902157 0.10635173 -0.009063879 0.008928983 0.0067573762 0.023270622 0.09055393 -0.0392135 -0.053703878 0.0496984 0.044032283 0.034059785 -0.053817652 -0.07118596 -0.034902353 0.14483738 0.2311379 0.19824111 0.25305074 0.07646961 0.033990458 0.030373111 0.24451485 0.01656238 -0.21473457 -0.12705679 0.114978135 -0.07031456 -0.045157697 0.026016323 0.123747684 -0.09178194 0.21548276 -0.05947908 0.21290477 -0.124676645 -0.1599924 0.19755866 -0.09876747 -0.2419671 -0.027375387 0.10591875 -0.24613428 -0.2256654 0.12215285 0.18478729 0.2752878 0.06594065 -0.09203456 0.15839203 0.2698509 0.1476552 0.17221507 0.14347064 -0.186576 0.25042805 0.347561 0.011849081 0.030386593 0.28209037 0.0043456964 0.3264025 -0.018937219 0.0906389 -0.15007737 -0.2735536 -0.16248974 -0.019828973 0.25889173 -0.14558004 -0.08054721 0.10910792 0.1070997 0.0474916 0.027242469 0.0809667 0.06533902 0.436198 -0.069637075 -0.03181958 0.05558996 -0.033077907 -0.3328583 0.046712443 -0.09059639 0.056015212 -0.13512762 0.21255621 -0.10843359 -0.21475701 0.077828415 -0.21665399 -0.28774893 -0.23270112 -0.07864097
465 -0.2934275 -0.07192122 -0.010361212 -0.06571677 -0.06262612 -0.035187457 0.085857876 0.049773928 0.03924462 -0.34212255 0.19277519 -0.11461362 0.110511094 0.0143873785 0.13456799 -0.09371692 0.054581482 0.15026975 -0.017726537 -0.1095642 -0.13324615 0.058779206 -0.0842859 0.07231217 0.27610108 -0.0918892 -0.028902572 -0.008541941 -0.000622705 -0.22025487 0.051306892 -0.048477218 -0.022419501 -0.074155785 0.1830112 0.059383657 0.30715975 -0.02169596 0.31522682 -0.0025480168 -0.08109887 0.078469835 -0.065652475 -0.012566642 -0.045414165 -0.0720137 0.039956436 -0.07881612 0.37951344 0.078433864 0.21595302 0.056942448 -0.04295646 0.24277069 -0.012272054 0.095859446 -0.019108871 -0.10338011 0.0056298003 0.15228239 0.10833722 -0.26810485 0.05983473 -0.01921662 -0.014844923 0.18806402 0.08011633 0.02689738 0.08351454 0.10740386 0.07882375 -0.19909066 -0.0005624123 0.0038068062 0.24906893 -0.0792422 0.2259002 -0.08335343 -0.024104498 0.13573612 -0.002081591 0.029565858 0.10799145 -0.13877381 -0.07098106 -0.10433365 0.039785136 -0.019451099 0.09594459 0.18306947 0.024797956 0.0041698394 -0.14720294 -0.09076832 0.017177476 -0.1363845 0.03759483 0.262199 -0.11800456 -0.08788836 -0.0324003 0.1857099 -0.14604539 0.011678901 0.08870434 0.059511896 0.014006723 -0.14249285 0.07021405 -0.27452424 0.28719014 0.09653058 -0.02525178 0.14620718 -0.030167049 -0.058972284 -0.0895673 -0.14727965 0.099070184 0.07406461 -0.0985722 0.09728601 0.016014755 -0.049815904 0.2065209 0.0420616 -0.04883936 0.06275812
559 -0.30094355 0.022515602 -0.018729806 -0.21199422 -0.028609226 -0.09729474 0.07407103 -0.066301666 0.046877477 -0.19051363 0.01090569 -0.1732763 0.082776956 0.026108876 0.0094974525 -0.105474696 0.0690672 0.08200209 -0.08740991 -0.13064669 0.006105413 0.15074955 -0.14703949 0.051472038 0.17136006 -0.07970657 -0.16691875 -0.04211968 0.066505186 -0.1671695 -0.0744398 -0.07708945 -0.03927365 -0.11666503 0.12540989 0.21407586 0.2765128 0.0495434 0.26628143 0.05611692 -0.121128045 0.05371244 0.100844055 0.05301245 -0.027500158 -0.06270661 -0.09693244 -0.24106586 0.2881031 0.034274895 0.25323734 0.15891626 0.043759804 0.2205552 -0.0285612 0.15847522 -0.06385431 -0.012082064 0.048116773 0.21987414 0.09951879 -0.049387027 -0.04921229 0.0063215704 0.114474155 0.28251186 0.22089185 0.09390641 0.18354662 -0.08349227 0.124589086 -0.13760188 -0.13661468 -0.043104265 0.20707886 -0.13607298 0.20697947 -0.20639393 0.0713714 0.0999063 -0.09449014 -0.09061653 0.16273563 -0.026856855 0.026699774 -0.06331437 0.08698705 0.03869698 0.06755524 0.24802348 -0.03866548 -0.046116386 -0.14630003 0.040580016 -0.00031533057 -0.08257714 -0.12513512 0.14505005 -0.14472766 0.11023824 0.016253745 0.20958364 -0.07669134 0.16795048 0.05332069 0.20311055 0.03426593 -0.27906486 0.009038924 -0.16224869 0.33155206 0.058635928 0.07454912 0.13040209 0.03764626 0.1151918 -0.010143815 -0.05995443 0.14543703 0.005847509 -0.05534625 0.17298828 0.09780163 -0.23078303 0.1518921 -0.015099493 -0.07733437 0.027803516
616 0.07016701 -0.3354933 0.049681745 0.2463385 0.21627739 0.16933343 0.061842315 0.008468342 -0.08192898 0.19753844 0.06322863 0.090401724 -0.16405125 -0.066847466 0.09848146 0.12129276 0.20496027 0.00923963 -0.31428006 0.11575581 -0.06745295 0.23635834 0.14978878 -0.17902522 -0.12752907 0.028984899 0.12657915 -0.17242531 0.027072228 -0.041209735 -0.1316724 0.17872666 -0.24359849 0.01812886 0.040307734 0.036325257 0.11622623 -0.2713087 0.218899 -0.20513415 -0.11235313 0.15808952 0.06089555 0.021495659 0.35959288 0.0076252385 -0.36524463 0.059515066 -0.00027250213 0.24468306 0.17030564 0.17026134 -0.16057993 0.21563315 -0.0044658734 0.14298484 0.082522295 -0.017767165 -0.03837818 0.06689616 -0.03066059 0.027433423 0.06833529 0.08432498 0.1703794 0.06068318 0.06125229 0.19304179 0.057102248 -0.075935096 -0.020784823 -0.03683324 -0.5148103 -0.21317871 -0.022254106 -0.12307755 -0.24671227 0.00044857454 0.023000857 0.39622527 0.23592459 0.061068606 0.14768082 0.3667334 0.22304986 0.15943123 0.41533655 0.0716112 0.20249066 0.4712599 0.1267249 -0.23915076 0.080477946 -0.28659582 0.29171318 -0.01431341 0.07934053 0.015499486 -0.10041841 -0.23598628 0.14929442 0.19458625 -0.27356488 0.102426 0.107223235 0.14179038 -0.048795383 -0.0029971225 0.032505017 -0.29851723 0.02822261 -0.25924826 -0.030084815 0.09053194 0.007914685 -0.14918347 0.11578081 -0.33914214 -0.022154272 -0.019697828 -0.16024326 0.01686098 0.022385389 0.02556886 -0.07070747 0.11939415 0.060136817 -0.10248416
475 -0.20014778 -0.1291824 -0.060950574 -0.19457622 -0.04576109 -0.051946398 0.009881991 0.052863568 0.008090122 -0.077067 0.124670096 -0.23230974 0.055219315 0.030742152 -0.025933677 -0.14476015 0.027284553 0.21224935 -0.19123943 -0.07543423 -0.04147467 -0.07746051 -0.055003926 -0.04679652 0.20203677 -0.0571956 -0.021802925 0.007202577 0.18681134 -0.24087618 -0.064781345 -0.050149184 -0.19779745 -0.1344994 0.13878144 0.04303071 0.25090903 0.10672364 0.21887113 -0.07133632 -0.0882378 0.060102876 0.08525633 0.11804853 -0.21663436 0.026133446 0.07876944 -0.12250912 0.38160768 0.057513572 0.24686308 -0.018937828 0.037698653 0.30740872 -0.029975258 0.20530762 0.01798304 -0.24251127 0.07822612 0.109313175 0.20740475 -0.14105915 0.029928513 -0.08089288 0.08698469 0.20853697 0.23546775 0.08360168 0.16133972 -0.101109564 0.12090714 -0.056015506 -0.11262297 -0.03873629 0.17765029 -0.08795166 0.21251714 -0.19229431 -0.027903453 0.020557903 0.07015532 -0.11880458 0.10934134 -0.09099348 -0.109079346 0.029947622 -0.0037006694 -0.060069863 0.17408445 0.24000314 -0.053225245 0.002827836 -0.18414846 0.09025866 -0.020310469 -0.20567353 -0.10410035 0.24384417 -0.21942179 -0.066977754 -0.13440475 0.11019433 -0.09147079 -0.11954105 0.08466416 0.114716835 0.032869503 -0.20569895 0.047962576 -0.22239567 0.29507214 0.062382746 0.0038763266 0.010964044 0.09849639 0.11071196 0.023562053 0.09224112 0.121710524 -0.004722792 -0.028990287 0.20073132 0.0024836138 -0.04869223 0.12803823 -0.09638953 -0.05720192 -0.04568014
500 -0.20986143 -0.007937647 0.071120895 -0.13980693 -0.049603447 0.020306116 -0.017792145 0.05816928 0.033407602 -0.212895 0.022547241 -0.15468831 0.12174473 0.040537633 0.07020823 -0.007001783 -0.020075703 0.19112577 0.02587816 -0.04379557 -0.05146115 -0.041901942 -0.051896833 0.03346042 0.2065815 -0.16122232 -0.13912012 0.03285457 0.07221394 -0.23765849 0.049017478 0.13658534 -0.06568076 0.08070559 0.1862052 0.16121878 0.20973574 0.08256759 0.21981053 0.017115703 -0.12654161 -0.01447823 0.12560706 0.0077759917 -0.026564544 0.046007764 0.042071875 -0.15048787 0.27260062 0.07921528 0.13454401 0.010252489 -0.03860093 0.25995764 0.020529825 0.1379656 -0.109294 0.07184175 0.029496716 0.048652813 0.07322621 -0.32618007 -0.09262935 -0.095722266 -0.0027878997 0.17656934 0.050091468 0.08830781 0.1129022 -0.007002107 0.07253622 -0.11101609 0.013226535 0.038951736 0.18780643 -0.05155339 0.22660667 -0.17494276 -0.06716949 0.09947781 0.09186214 -0.10250948 0.16117072 -0.061081797 0.0553203 -0.07449064 0.040028982 -0.15730242 0.23359454 0.2074968 0.037907604 0.0038328178 -0.1366957 0.033596102 -0.07902362 -0.047728047 -0.054277316 0.25390324 -0.20838428 -0.036247768 0.013253443 0.34569606 -0.09319379 -0.11282415 0.03613184 0.2040289 0.04696754 -0.14512748 0.079201214 -0.09121043 0.23918356 0.006185411 0.078959 0.062217444 0.0209128 0.07431152 -0.0014536902 -0.18139304 0.13535064 0.10148823 -0.05968684 0.15225512 0.21683219 -0.04598527 0.10612814 -0.071232036 -0.20234211 -0.053828713
436 -0.20685318 0.113718934 -0.049489267 -0.29306054 -0.025814578 -0.11150811 0.1251405 0.05948258 -0.11227707 -0.14107072 0.15247542 -0.26839265 0.046692997 0.03168261 -0.018551448 -0.20167862 0.042343345 0.13235722 -0.11671837 0.07506118 -0.234547 -0.09316006 -0.13987926 -0.06263723 0.05065129 0.09616946 -0.15265678 -0.045493398 0.038784895 -0.43282592 0.06379339 -0.13451657 -0.04657753 -0.24590184 0.097551726 0.12996262 0.27122575 -0.1026574 0.030954136 -0.18139188 -0.13637073 -0.088850036 0.08227388 0.15502605 -0.23321752 0.13851327 0.28513423 -0.19944903 0.3089808 0.2644722 0.16082974 0.11371142 0.0872335 0.02152913 -0.11879138 0.108159155 -0.018705552 -0.035224278 0.017901087 -0.037263665 -0.0199047 -0.046243064 -0.17176382 0.06631606 0.08313938 0.23317136 0.39509037 -0.1522634 0.08934699 -0.15421271 -0.09544675 -0.18940794 0.10777879 -0.10544458 0.03144961 -0.1398966 0.27206767 -0.23941138 -0.13294487 0.095679305 -0.09998694 -0.18734077 0.2538777 -0.091046736 -0.1529126 0.03889547 0.045950823 -0.01766245 0.29242387 0.19993111 -0.02603488 -0.025278658 0.08615064 0.027992906 -0.17260182 -0.033411946 -0.16717777 0.26962125 -0.07640863 -0.10428485 -0.094006814 0.011256893 0.004579718 0.0673136 0.17341156 0.12232436 -0.17835256 -0.09651152 -0.004345412 -0.21187939 0.30418462 0.19358125 0.006293377 0.15981643 -0.21857178 -0.019996712 -0.16628902 0.06657907 0.2376885 0.015024411 -0.17986313 0.10468355 0.14910899 -0.002223697 0.05053258 -0.090708956 -0.048251197 0.15916333
595 -0.017130384 -0.37080225 -0.09180345 0.15571906 0.24415432 0.12367383 -0.021436326 0.35737988 -0.29989228 -0.3068408 0.00028168908 0.12875992 -0.02651175 0.16504009 0.53392315 0.03126112 0.0498622 0.27603996 -0.19740008 0.17411184 -0.11692696 -0.014681034 -0.1146496 -0.075130604 0.027493367 -0.011017145 -0.115488224 0.06163862 0.06225832 -0.11431258 -0.027365874 0.03653495 0.20273775 0.18123475 -0.16058622 0.07307233 0.11140531 -0.17089972 -0.16673718 -0.07834112 -0.08299872 0.18580303 0.20828867 0.22182223 -0.10056839 -0.1551426 0.3669059 0.22842774 0.030509207 0.0097132055 0.3013155 -0.30992758 0.20651597 0.15764776 -0.097111836 0.085000716 0.18507697 -0.028136777 0.30521506 0.22164147 -0.16590439 -0.22998333 0.08493916 0.0606279 0.103707425 0.1216943 0.22960912 0.02858273 -0.040792014 -0.26394993 0.11547754 -0.25100663 0.10441133 -0.27709073 0.033015333 -0.2110542 -0.11904571 -0.20006433 -0.27161863 -0.041725315 -0.03984991 -0.1864635 0.053215966 0.1550904 -0.16357543 0.11156919 -0.024521848 -0.10057041 0.37112895 -0.32411736 -0.12205652 0.010515075 -0.076477624 0.17893519 -0.017183626 0.017877027 0.12488024 0.26215193 -0.15458398 -0.044813674 -0.23428498 0.057456724 -0.044831272 0.041095283 0.020825677 0.0107795 0.04827164 0.45522657 0.19256146 -0.043230873 -0.106189854 -0.11351708 -0.1488763 0.304167 -0.0476244 0.06787848 -0.16414027 -0.017114166 0.2954284 -0.0531744 -0.39357874 -0.22821675 -0.150863 0.0015877585 -0.16948348 0.37532184 -0.12111619 0.16315217
348 -0.15739249 -0.07493284 0.03387787 -0.11198752 -0.060945272 -0.10149279 0.12726937 -0.07817638 -0.027581215 -0.08580467 0.14225896 -0.0356145 0.053068142 0.035431776 0.10196248 -0.20644632 0.12635174 0.04253925 0.004626826 -0.10166465 -0.033237893 -0.006391956 -0.15202446 0.07293875 0.092947975 0.026002718 -0.16747822 0.059639554 0.1079562 -0.16313386 0.08982282 0.062413935 -0.049469758 -0.11748535 0.14617658 -0.0747186 0.27283695 -0.001558816 0.24402937 -0.004742571 -0.1255221 0.058325116 -0.048206594 -0.15628007 -0.06876799 -0.03502683 -0.022928758 -0.2932496 0.38974634 -0.031947512 0.37828004 0.13497463 0.032900415 0.35685846 0.07647266 0.2937846 -0.08842739 -0.18839419 0.11903204 0.25176704 0.17689322 -0.1873826 0.051688064 -0.09889049 0.15538034 0.11685909 0.1415756 -0.24995306 0.3474766 -0.06599296 -0.005194475 -0.06994984 0.079338335 -0.0837369 0.166019 -0.031551443 0.09257038 -0.17046706 -0.03171021 -0.025380487 -0.24897416 -0.091647536 0.27328545 -0.07448557 -0.046520833 -0.08612547 0.06586133 0.02390982 0.025157545 0.26653442 0.18253095 -0.16252391 0.03652831 -0.06660635 0.008914785 -0.15154926 -0.112521455 0.09010406 -0.1961051 0.028258568 -0.19230048 0.09609732 -0.08652123 -0.13614072 -0.056364298 0.15596707 -0.28015238 -0.3523049 0.20840633 -0.2892385 0.2920976 0.0072053866 0.09212647 0.066220455 -0.066059135 0.17437476 -0.08849292 0.00025704043 0.08476051 -0.030414002 -0.3045714 0.0065596206 -0.09560397 0.05413551 -0.08566355 -0.07765841 -0.045806136 0.035363544
685 -0.086916804 -0.32588744 0.15492053 -0.0026315015 0.04127449 0.23851907 -0.13073285 -0.14128575 -0.062623136 -0.079707 0.01318405 -0.057553194 0.24805775 -0.13172236 -0.15293585 0.11068392 -0.2975987 -0.22967449 0.081333965 -0.09850136 -0.025287086 0.0700783 0.05641275 -0.17873724 0.021239234 -0.15583222 0.0404876 -0.19695348 0.12601365 -0.37296677 0.19846034 -0.116173655 -0.09695452 0.00476143 0.15874335 0.21059489 0.0297734 -0.3001563 -0.22596362 0.09481351 -0.28447768 0.27341095 0.0008730055 0.20378353 0.07664343 0.21672711 -0.40145814 0.109910585 0.20018159 0.16426791 0.36453968 0.3887286 -0.0053958115 0.23773491 -0.29136088 0.27714276 -0.17365435 0.0054171323 -0.003335839 -0.077173114 -0.22714327 -0.2522853 0.18188408 0.11677223 0.12251144 0.105641484 -0.14859904 0.055971056 0.14045855 -0.047570936 0.2928622 -0.21466261 -0.18566965 -0.11819962 0.23190524 -0.21348079 -0.26355729 -0.025408538 0.14854755 0.08565607 -0.11015686 -0.009377108 -0.106329225 0.11334913 0.19517452 0.111207806 0.04995823 0.049649496 0.21745837 0.15649402 0.031077811 -0.07580035 0.17023568 -0.09928443 0.45970565 0.23353954 0.15894312 0.17743966 -0.25507715 -0.09310004 -0.009456684 0.11922823 -0.05132402 -0.20636864 0.072035946 -0.098855786 0.02125729 0.10597227 0.12793738 -0.04671248 0.56417507 -0.110686734 0.0460233 -0.18017504 -0.10494262 -0.19861665 0.108226605 -0.113569304 -0.11057177 -0.19031061 0.28661108 -0.17339186 0.002039808 0.12837994 -0.25616017 -0.07405252 -0.16891825 -0.15291582
438 -0.13173802 0.018587103 0.08338141 -0.09050584 -0.032367222 0.035412323 0.018374747 0.094068766 0.14751647 -0.16431895 0.23323181 -0.22995183 0.13157842 0.022102335 -0.0119849285 -0.054013424 -0.08577147 0.22203559 -0.013788222 -0.10617204 -0.1815028 0.23007087 -0.1397578 -0.0056944 0.06873611 0.07043248 -0.14013438 -0.098837405 0.12240415 -0.16932596 -0.045075055 0.13909051 -0.078269675 -0.025497911 0.14074247 0.19329701 0.37597024 0.062165525 0.1176412 -0.06963473 -0.11631238 0.04816249 0.21988371 0.06451602 0.051052034 -0.010089207 0.117339805 -0.3429571 0.34188113 0.043822195 0.25353092 0.12996043 0.0418663 0.1843973 -0.003037243 0.14486545 -0.095341556 0.01002627 0.103772394 0.07699284 0.08677674 -0.19872896 -0.00096070056 -0.056358233 0.065711215 0.16423428 0.20517936 0.045124527 0.24618825 -0.10325602 0.081398115 -0.10013446 -0.09475372 -0.035011243 0.19080651 -0.1460413 0.22853148 -0.13989738 0.05333763 -0.03386749 -0.012845471 -0.057617832 0.14918417 -0.077373855 0.055111717 -0.07026079 0.097223006 -0.12464454 0.10344695 0.18861528 0.018436171 0.14849284 -0.028763117 -0.015768258 -0.14295495 0.027280357 0.022173442 0.29455313 0.018852148 -0.025406847 -0.080052994 0.18463995 -0.1057237 0.050071128 0.09776973 0.080749966 0.034881484 -0.17673501 0.04759442 -0.07238153 0.26048493 0.1164749 0.17053007 0.041545104 0.023268769 0.037885305 -0.02426384 -0.076177076 0.122139275 0.045843065 -0.071809456 0.20899649 -0.06578057 -0.09927489 0.025074227 -0.05195197 -0.109841555 -0.08945778
584 0.080385365 -0.3142221 0.3289387 0.14451967 0.11710418 0.28504887 -0.06308653 0.12549321 -0.12388039 0.20671639 -0.058783565 0.016692696 -0.06376811 -0.043601636 -0.052323025 0.001579753 0.19504678 0.15184598 -0.01668512 -0.028288733 -0.037925556 0.07928532 -0.16926372 -0.04732903 0.08425716 -0.11824743 0.030530255 0.026672829 0.020774676 -0.17505087 -0.14978811 0.08519721 -0.20493372 0.18751803 0.18036482 0.11913362 0.21132243 -0.295567 0.11641639 -0.03606305 -0.19648443 0.06560955 -0.018979976 -0.023284033 0.2200707 -0.1108772 -0.33090353 0.1266923 0.09245056 -0.020303363 0.09732471 0.19332294 0.15616968 0.069647685 0.24742863 0.38592368 0.22248165 -0.07273404 -0.10171698 0.12746556 -0.19860047 -0.19574681 0.028833525 0.194304 0.021873724 0.122718975 0.23979297 0.1968457 -0.17306997 0.13870306 0.10383744 -0.035448566 -0.56970394 -0.14316395 0.12003489 -0.16000555 -0.05386362 -0.076674476 0.11172861 0.43753576 0.08791571 0.1428533 0.17811282 0.3418905 0.10745422 0.18017459 0.10683405 -0.18501423 0.01096293 0.35015053 0.116417184 -0.15481737 0.07165459 -0.14313018 0.09230295 0.16679022 -0.09243485 0.02893321 -0.25841048 0.02905731 0.1537351 0.090097345 -0.21668062 -0.014776189 0.32543504 -0.13003665 0.09158199 0.11614357 -0.05653052 -0.22350411 0.22068983 -0.40854177 0.18119828 -0.0026915083 -0.059471905 0.077673264 0.024924098 -0.07956721 0.05670429 0.11744355 -0.053232964 -0.021369498 0.03667596 -0.13234377 0.009810572 0.37353158 -0.009691048 -0.083257146
561 -0.19122757 -0.0697145 0.040101502 -0.22172636 -0.012770563 0.03873687 0.09991902 0.017115409 -0.02104586 -0.077982776 0.11686934 -0.13820136 0.1279973 0.112636864 0.13071561 -0.064072505 -0.069269225 0.19220002 -0.047356635 -0.022527767 0.099248424 0.0039655366 -0.064890586 0.14205658 0.17345127 -0.024905637 -0.15812613 0.061520148 0.0913098 -0.1299821 -0.0641805 0.075247236 0.016255317 -0.11901709 0.2677735 0.123742014 0.36458105 0.096449874 0.29462412 -0.099647865 -0.056354754 0.0700715 0.031463675 -0.011745333 -0.01970718 -0.04818666 -0.008220258 -0.21039912 0.40276617 0.13927779 0.21488118 0.16908538 0.06099039 0.116240345 -0.059542436 0.098410316 -0.20557389 0.018364634 0.07915548 0.12381405 0.020085245 -0.20467398 -0.16338672 -0.026733523 0.063818656 0.27838147 0.3189486 -0.13706756 0.18583117 -0.030222304 0.013748016 0.01574805 -0.016706558 0.0017177803 0.20072168 -0.08822255 0.14205216 -0.10217507 0.05409405 0.042481817 0.063710496 -0.01110243 0.07851407 -0.06449413 -0.024336938 -0.07084949 0.11558532 -0.017460272 0.17480882 0.2640092 0.1064036 -0.0153749185 0.08903108 -0.0028683222 -0.083980806 -0.10109693 0.011554501 0.24688433 -0.15138286 0.020869415 -0.04550391 0.1353885 -0.142088 0.009945475 0.07659401 0.15746371 0.010349889 -0.23992093 -0.023668926 -0.08554939 0.30199838 0.2029251 -0.08689028 0.21875562 0.20512524 0.10298368 -0.014302919 -0.094149835 0.1954657 0.040584262 -0.06090944 0.11920872 -0.08352785 -0.15456986 -0.078452855 0.0031217963 -0.10125153 -0.11551273
637 0.014522064 -0.08348404 0.15582559 0.1819993 0.0060221464 -0.10477646 -0.08263674 0.011362871 0.19336909 0.037117694 0.06838553 -0.06431418 0.08935073 0.012108019 -0.015763836 -0.21654986 0.2196911 0.14735518 -0.07753347 -0.065628506 0.048076842 0.06411707 -0.16651654 -0.015028897 0.33736572 -0.123044156 -0.22718623 0.007990038 0.21867417 -0.24263392 -0.06888033 0.07651277 -0.020889664 -0.110300705 0.3192396 0.2018721 0.4639313 -0.09618646 0.09450139 -0.11240487 -0.18162905 0.08006081 0.1344723 -0.06961589 -0.120081894 -0.004375638 -0.12593423 -0.057410743 0.19274406 0.16180004 0.23425424 0.000887282 0.02476239 0.106171094 0.0496897 0.04448793 -0.19242631 -0.15448849 -0.053638432 0.020372551 0.0905146 -0.1828756 0.066122495 -0.07423934 -0.16386698 0.2391819 0.20603582 0.10736701 0.067000225 -0.048888925 -0.053149823 -0.10352647 -0.09880117 -0.066752754 0.07948217 -0.082579866 0.12792462 -0.022570005 0.013592425 -0.057796367 0.03697523 0.03160848 0.030466136 -0.033394795 -0.023235042 -0.07412684 0.2131391 -0.0045816936 0.2715948 0.35720676 -0.021627668 0.069256514 0.11548559 -0.15177953 0.039368544 -0.05991416 -0.04942028 0.057784718 -0.17258233 -0.09051966 0.07757939 0.10344576 -0.10102054 -0.081671014 0.19424224 0.10801309 -0.054191627 0.05628642 0.12540145 -0.17243235 0.34372678 -0.032544456 0.115224384 -0.036442734 -0.10405791 0.07858927 -0.013021218 -0.03333845 -0.07839934 -0.07396085 -0.15678082 0.03790863 0.12521091 -0.0014716726 0.2298463 -0.05818485 -0.07099983 0.17079496
651 -0.0825436 -0.11882811 -0.0013103916 -0.14891809 -0.055447463 -0.06317501 0.005231353 0.16194446 0.03581993 -0.14365008 0.16170284 -0.21491349 -0.021572877 -0.055525698 0.09765831 -0.01120581 0.017542575 0.15282428 -0.11136678 0.061706547 -0.07778613 0.022605509 -0.08981383 -0.055059712 0.27823636 -0.002813728 -0.04822312 0.07793837 0.16127923 -0.15202613 -0.041611403 -0.15119267 -0.07164473 -0.09309989 0.12978682 0.1655105 0.4575751 -0.002529926 0.30751446 -0.10166493 -0.17997524 0.04791326 0.09283908 0.079387166 -0.11756206 -0.06496047 -0.055226315 -0.26746798 0.24942051 0.024487197 0.29843086 0.1873521 0.079352684 0.07947782 -0.027891792 0.077732675 -0.24267085 -0.057917736 -0.03552559 -0.02947181 0.26339173 -0.14825799 -0.08684057 -0.0868248 -0.18270513 0.24042226 0.18222044 0.16919616 0.1450148 -0.15811563 0.073019385 -0.16128974 -0.04597707 0.03605196 0.0588203 -0.061772797 0.15422656 -0.12361989 0.10622791 0.10695529 -0.1898047 -0.08400569 0.060895137 -0.20406213 0.043745454 -0.21670608 0.19377738 -0.14428572 0.19713314 0.16321704 0.057668496 -0.07345102 -0.08980736 0.0931393 -0.13076119 -0.12876624 -0.16533066 0.15078813 -0.18727526 -0.09156981 -0.066713184 0.041065246 -9.261268e-05 -0.05169104 0.048518706 0.027905706 -0.051285457 -0.21181722 0.12398123 -0.24133033 0.27150837 0.058927014 -0.040520146 0.0075957426 -0.14159878 -0.041162964 -0.1465669 -0.17475079 0.15297285 0.14383762 -0.16590641 0.28781426 0.037334908 -0.1381988 0.01964846 0.026046589 -0.06245236 0.014372131
581 -0.34360626 -1.6670507 0.47419506 0.1299378 0.42358425 0.30115652 -0.45958424 0.46062368 -0.30448067 -0.30656245 -0.022043556 0.2595446 -0.22119224 -0.14700282 0.73601556 0.3496692 -0.33766678 0.2988613 -0.41062 0.101724945 0.28437313 0.75315887 -0.74331135 -0.2050739 0.068838395 0.21182945 -0.5272532 -0.061935764 0.61154324 -0.6132862 -0.19761242 0.20577678 0.15654202 0.22588916 0.021915056 0.5110933 0.50231045 -0.5752849 0.19666786 -0.17728983 -0.6356886 0.738053 0.14567918 0.3588251 0.22636098 0.23653112 -0.30262318 -0.06839713 0.283624 0.44586125 0.88334584 0.51424026 0.23991588 0.6078078 -0.06403828 0.56199026 0.36281428 0.16293946 0.33821654 0.27449435 -0.19539279 -0.80003333 0.61137664 0.57172704 0.6313974 0.5686477 0.29472736 0.6581683 -0.005416987 -0.8546093 0.47064143 -0.8008817 -0.97988963 -0.77796954 0.4624908 -0.85578233 -0.7185573 -0.332464 -0.35015386 0.9385341 -0.003948096 -0.51830536 0.19997303 1.3036569 0.22080994 0.7473582 0.5947688 -0.32695803 1.3398992 0.85630995 -0.030826235 -0.031891964 0.24640313 -0.19306485 1.1651458 0.16858414 -0.032286484 0.5248634 -1.0954616 -0.6766185 -0.17930216 0.70147985 -0.82731223 -0.10956067 0.346593 0.29459205 -0.037899174 0.58281636 0.4997215 -0.32067484 1.1841413 -0.77615803 0.06876762 0.29861012 -0.37408087 -0.2488296 -0.38348153 -0.5568967 0.74708 -0.17777304 -0.47749168 -0.35730538 -0.22978742 0.27170482 -0.66041934 0.29138526 -0.46417284 -0.070867345
642 -0.35090283 -1.6727577 0.48007637 0.113496415 0.42121384 0.29974005 -0.47505817 0.46294814 -0.2948745 -0.29661444 -0.02188269 0.26459566 -0.23702717 -0.15121707 0.72604924 0.34538978 -0.35568178 0.29852745 -0.40539715 0.09366167 0.29513663 0.76701033 -0.7364163 -0.20690727 0.060509857 0.20602496 -0.5270591 -0.056991838 0.63346696 -0.62859225 -0.19550037 0.19631806 0.16281438 0.24823584 0.025734402 0.51314145 0.5027359 -0.57975334 0.214077 -0.16572753 -0.6410371 0.7494818 0.14664477 0.35092166 0.23386179 0.24360211 -0.31509492 -0.06558358 0.282224 0.43645757 0.88945735 0.5321168 0.22340992 0.63198227 -0.049620766 0.5593057 0.36465582 0.16126464 0.344465 0.27045238 -0.19315656 -0.79695266 0.6221183 0.5834587 0.6453964 0.55497885 0.29455486 0.663591 -0.011099317 -0.85384566 0.4732506 -0.8024113 -0.9895795 -0.7754464 0.46155474 -0.85813475 -0.72238684 -0.33963025 -0.36670932 0.9577602 -0.01733659 -0.52737945 0.2067145 1.3292845 0.22858849 0.7499127 0.6040833 -0.33428526 1.3442501 0.868606 -0.038888156 -0.038375307 0.2400576 -0.19888815 1.1829281 0.16568066 -0.041679133 0.5255792 -1.1093973 -0.680194 -0.17689753 0.71809345 -0.8375418 -0.12112452 0.33601844 0.28330454 -0.034368064 0.59117705 0.49446973 -0.31551573 1.1872461 -0.7729633 0.07034465 0.2996127 -0.3814986 -0.2584828 -0.37039262 -0.5381361 0.748683 -0.19157217 -0.47369027 -0.3573036 -0.23611753 0.2688528 -0.6664532 0.28270653 -0.46287826 -0.09329385
609 -0.15925531 -0.10601997 -0.091208294 -0.07096806 -0.028804189 0.06147519 -0.07243331 -0.22785634 0.1334661 -0.12699589 -0.01764187 -0.092114426 0.08036203 0.016793711 -0.06423806 0.11223609 -0.16343495 0.062819526 0.12092686 -0.07609185 0.14280203 0.14958602 -0.094043404 0.22986908 -0.17312224 -0.13270403 -0.15144281 -0.08895079 0.024127727 -0.252767 0.07626293 -0.041028216 0.08475439 -0.027719365 0.06798719 0.023179067 0.1865373 -0.043182064 0.07990641 0.05091787 -0.1468009 0.078647606 0.06773259 -0.008070726 0.12435158 -0.05574534 -0.017591557 -0.08957679 0.21975873 -0.04980616 0.26252085 0.08856759 -0.050861396 0.11066763 -0.024114106 0.00083632284 0.0023388267 -0.054677173 0.05125922 0.104113474 -0.03095191 -0.15067405 0.022667332 0.06352901 -0.13262843 0.14268944 -0.066480294 0.20199335 0.071302556 -0.012484817 0.19791488 -0.0040010903 -0.21068624 -0.09952802 0.098275356 -0.17992747 -0.15350883 -0.036698632 0.043567836 0.40519264 0.14635572 0.012311358 0.14754692 0.06038789 0.022511385 0.09086789 0.033525996 0.14576669 0.1894192 0.3496879 0.045071 -0.16367447 0.086910665 -0.05500777 0.34814498 0.028562518 0.055799086 0.10138366 -0.26333782 -0.034176063 0.16601096 0.035543423 -0.16616182 -0.12802774 0.039143953 0.05948293 0.13742359 -0.1460722 0.16010545 -0.0618425 0.18143816 -0.055623785 0.1301548 -0.007376343 -0.18030713 -0.22123569 -0.15346579 -0.09298415 0.13367862 -0.11491587 -0.04431191 -0.09277033 -0.025557082 0.19414166 -0.13219638 -0.17358515 -0.23741916 0.01706557
583 -0.04219073 -0.4412142 0.029198946 0.037406962 0.2853049 0.012225296 -0.009007654 0.35363713 -0.34226304 -0.23152234 0.0149053475 0.11276575 0.13611479 0.08210243 0.4929814 0.045477726 0.0014987204 0.10078823 -0.17409644 0.24027826 0.07752772 0.0039296565 -0.13675545 0.00426947 -0.0509628 0.24279812 -0.20797214 0.14430977 -0.015861029 0.02079279 -0.17218696 0.05926882 0.2690483 0.08327048 -0.20872413 0.042018455 -0.008742996 -0.12140661 -0.1682976 -0.2752694 -0.058307927 0.1311882 0.16935313 0.20004927 -0.09829772 -0.06787373 0.35292396 0.021230508 0.010892449 0.08025584 0.31155047 -0.1838393 0.19024959 0.17023663 -0.09088691 0.006900913 -0.009474942 0.118741706 0.33420938 0.16954038 -0.043583687 -0.18647301 0.13958912 0.07334803 0.13059786 0.24961299 0.14108677 0.031917103 0.21343857 -0.33740166 -0.011250051 -0.3062521 0.009582156 -0.23346105 -0.07601843 -0.094016545 -0.060001463 -0.1004474 -0.26241755 -0.09109511 -0.07978523 -0.18421876 0.11783989 0.18236896 -0.10626464 0.15277387 0.03288937 -0.01115766 0.3397883 -0.34869003 0.062605105 0.07789531 -0.066851616 0.27479947 -0.041944977 0.21731031 0.04242781 0.37946242 -0.018403865 -0.008242172 -0.13882782 0.07809063 -0.13636386 0.11728538 0.09073036 -0.012168372 -0.017249867 0.2884248 0.21622391 -0.003237697 -0.015734848 0.03456698 -0.075298205 0.3133464 -0.047158614 -0.0899521 -0.22862904 -0.09617694 0.35885546 -0.015650285 -0.4254557 -0.18957382 -0.25484744 0.07319879 -0.17126893 0.29599276 -0.099739075 0.18884966
391 -0.19796471 -0.025687695 0.07534005 -0.094625264 -0.05993253 -0.0048198383 -0.039658993 -0.016456742 0.17076948 -0.23509522 0.07104718 -0.097227685 0.08487804 0.044371787 0.09509807 0.094564006 -0.069584265 0.17280042 -0.11286617 -0.03481232 -0.19027351 0.059286058 -0.021006225 -0.03307826 0.11840774 0.0009507025 -0.20122033 -0.08423288 0.10032432 -0.1776361 0.06641237 0.032608792 0.10119619 0.02605181 0.11794443 0.16666104 0.20508914 0.108061135 0.22853132 -0.10721515 -0.15645865 0.06518944 0.13917129 -0.02413488 -0.05396295 -0.035089422 -0.030129302 -0.21688682 0.28036514 0.026108416 0.26194412 0.06806374 0.028013976 0.28860766 -0.07069984 0.25677207 -0.0745237 -0.033162855 0.06465751 0.030386062 0.07102309 -0.17579088 -0.047498286 -0.21952163 0.0805348 0.36913127 0.20318931 0.07142219 0.18437012 -0.0538235 0.088819034 -0.15532303 -0.008528211 -0.030275987 0.11001559 -0.07851808 0.365305 -0.16410047 -0.05947503 0.03600476 0.01503102 -0.10215965 0.11963528 -0.10831326 -0.0025797633 -0.23391996 0.022917915 -0.12816752 0.19104524 0.29005995 0.06402213 -0.06341064 -0.0285116 -0.034919318 0.0140659 -0.22166538 -0.2306655 0.17736939 -0.12400033 0.030460319 -0.08633549 0.14388564 -0.05645478 0.039767355 0.08094552 0.22135383 0.04223404 -0.27919537 -0.034797747 -0.14401986 0.24834852 0.04526566 0.13460264 0.079364404 0.1870053 0.1970436 -0.051797725 -0.10471527 0.10567836 0.029112091 -0.14385284 0.11712814 0.109061316 -0.058573224 0.008680382 -0.06570882 -0.007515784 -0.16097374
107 -0.23803534 0.021983415 -0.06544386 0.04088043 0.019396413 -0.06434263 -0.09482111 0.17928271 0.13695519 -0.2657145 0.05908101 -0.23217006 -0.028922146 -0.13870285 -0.0062742694 -0.25345954 0.057576526 0.044409763 -0.06998092 -0.01944866 0.0972855 0.08065209 -0.002600837 0.1866478 0.2029213 -0.01911837 -0.38626954 0.031604677 0.04503358 -0.18889205 -0.10453825 0.090113126 0.121153034 0.06704674 -0.033494305 -0.05434301 0.09871424 -0.12650992 0.20100056 0.037684385 -0.08764844 -0.017866999 0.015476432 -0.08133123 -0.05252775 -0.022400223 -0.12855415 -0.061447755 0.2858363 -0.053641427 0.21195614 0.14601591 0.100252606 0.39758515 0.13748457 -0.020193394 -0.07095181 0.021302303 0.0020454072 0.08459336 0.21518809 -0.31294566 0.032129325 -0.08418702 -0.09304849 0.16509575 -0.04381094 0.3192319 0.06990134 0.032434214 -0.012952125 -0.2167753 0.031258047 0.023426885 0.16659069 -0.07769799 0.17273334 -0.1637577 -0.12529114 0.079168454 -0.051019184 0.022767982 0.24674532 -0.0240105 0.03570788 -0.16577783 0.19842972 -0.12324015 0.17262903 0.484295 0.24663487 0.020421997 -0.0065141255 -0.07332673 0.041233987 -0.10378572 0.006641235 0.11015377 -0.027940152 -0.0418389 0.02184823 0.19564381 -0.025419226 -0.1079943 -0.06920709 0.011486758 -0.066394046 -0.053545997 0.064100765 -0.25616512 0.09512192 -0.057868518 -0.056499407 0.15187165 -0.20839043 -0.15019816 0.055053443 -0.013184597 0.21017472 -0.011322904 -0.15232685 0.07128173 0.008171006 0.054823555 0.15952185 0.038628962 -0.21634097 0.13531546
604 -0.21399906 -0.05431209 0.0432708 -0.17692645 -0.06866518 0.13843015 0.009553342 -0.06383739 0.10061415 -0.15830392 0.23067299 -0.06172389 0.07836316 0.004916092 0.181315 -0.039775234 0.11921076 0.16386807 -0.03226467 -0.1607625 0.047199804 0.14328726 -0.21385357 -0.14520174 0.21484807 0.07812517 -0.08473556 0.012249666 0.10005525 -0.16587177 -0.10047408 0.05773748 -0.03083458 -0.12779419 0.120036855 0.06593159 0.36648396 0.1396305 0.20601165 0.007834424 -0.14726001 0.04009703 0.2193136 0.07170886 -0.14218877 -0.093707584 0.11690225 -0.19917552 0.34272254 -0.06797194 0.27756634 0.076703034 0.020394122 0.09179927 -0.008026317 0.27484694 -0.16853198 0.006550292 0.10094989 0.12748906 0.09725998 -0.09764832 0.031470858 0.07542925 -0.092188284 0.24827778 0.1350488 0.16029765 0.22247814 0.023854248 0.07888707 -0.20092028 -0.19208428 -0.09928261 0.0810268 -0.100316845 0.22761786 -0.1912058 0.044647146 0.004286483 0.16279785 -0.013375431 -0.0450565 0.01367673 0.044729818 -0.010309882 0.0842557 -0.14045511 0.07187992 0.065844625 0.010134972 -0.12689818 0.012674301 0.071506955 -0.067760296 -0.19430412 -0.046753127 0.20508517 0.129271 -0.14222616 -0.12489668 -0.023783715 0.017941203 0.028070457 0.13251314 0.18386826 -0.008886228 -0.37378153 0.13174157 -0.25292695 0.247758 -0.15165707 -0.06039232 0.16670276 0.044610903 -0.01957978 -0.084260605 -0.11903164 0.04983554 -0.031603858 0.066626444 0.26399228 0.23705348 -0.18194225 0.007849416 -0.03736674 -0.13737941 -0.103153765
592 0.025796054 -0.19704011 -0.014069846 -0.07631478 0.059418574 0.08013965 -0.084697574 0.0052911625 -0.050916724 -0.13602501 -0.042454954 0.029999277 -0.037918635 0.0008453471 -0.035179198 0.021649895 -0.1077757 -0.2684599 -0.057317562 -0.124936156 0.012932796 0.24089222 -0.15587223 -0.0049437117 0.1465566 0.0027744197 0.058207188 -0.040996067 0.26445723 -0.05842336 0.1794254 0.044768956 0.023305504 -0.024943087 0.10905792 0.19943537 0.14341868 -0.035097264 0.026479695 0.18962646 -0.07742178 0.25506994 -0.063631825 -0.00051283534 0.2123734 0.19832346 -0.28647518 -0.03753044 0.010981652 0.06815512 0.11136723 0.3888085 0.034107383 -0.025648378 -0.015622102 0.14575846 0.16791771 0.012051484 -0.1021739 0.08285956 -0.22240523 -0.27056697 0.22364831 0.19362418 0.11477643 0.16858095 -0.014660172 0.1537004 -0.001469758 -0.15376827 0.29432267 -0.13845481 -0.30389863 -0.19374645 0.13967156 -0.19467203 -0.2733177 0.15546717 -0.019613588 0.29701012 0.065145366 -0.17572027 -0.1029046 0.22980583 0.09920633 0.157469 -0.12391271 0.08843329 0.1289179 0.31339064 -0.010054248 0.06159063 0.19654721 -0.27936137 0.47558576 0.024366844 0.04159508 -0.10496391 -0.14783782 -0.25392956 0.053661887 0.17356087 -0.28700092 0.0024416076 -0.1077483 -0.007129124 -0.123680115 0.033660464 -0.036724668 0.062056947 0.35036755 -0.14674154 0.30559534 -0.0034641607 -0.14748684 0.013655517 -0.12821783 -0.34836727 0.0163471 0.018527124 -0.045916006 -0.18031725 -0.017336696 0.071576 -0.052076224 -0.10400815 -0.068539165 -0.09020623
422 -0.09444569 -0.0549875 0.051643122 0.08784347 0.11442402 0.09904864 -0.009165708 0.05734939 0.07567816 0.0119903255 -0.04799396 -0.16709244 0.25198495 0.04196803 -0.14288272 -0.05803904 0.13788371 0.00895559 -0.0861103 -0.15205339 -0.06725247 0.020066053 -0.01211801 0.04847117 0.09546491 0.03803239 -0.20215547 -0.13855842 0.0816754 -0.18248352 0.281277 0.05343333 0.10249226 -0.10116592 0.1090864 0.259786 0.03221552 -0.045606893 0.034954622 -0.0699966 -0.22942601 -0.1453626 -0.09320042 -0.06284549 0.13006495 0.08518298 -0.14803535 -0.090030305 0.07077957 0.129762 0.12258698 0.06872664 0.07291442 0.10681115 -0.023452234 0.05635894 0.03327272 -0.106508836 -0.12260072 0.07496126 0.02958526 -0.047009435 0.11178705 0.20479043 0.05433611 0.34778333 0.002024642 0.13305081 0.11190422 0.056699634 0.1934345 -0.052916188 -0.19601792 -0.14079669 0.2601616 -0.15365776 0.06421225 -0.06354889 0.051036485 0.14565448 0.04153583 -0.019959813 0.06065261 0.08662826 0.011494711 0.010064398 -0.008690447 0.058907297 0.25688452 0.1924098 0.07135198 0.04889109 0.079807624 -0.1482693 0.1822582 -0.123761296 -0.042113036 -0.04907927 -0.2902958 -0.10382403 0.16014032 0.17317915 -0.28724247 0.08148779 0.092551336 0.1444647 -0.1512129 -0.1260463 0.11390496 -0.08971215 0.46727684 -0.16202779 0.14723557 -0.055317685 0.13784401 -0.079215854 -0.06275742 -0.3274018 -0.01878852 -0.032723576 -0.052931752 0.001946093 0.13019066 0.003693192 -0.037086163 0.04127952 -0.17415851 -0.05843504
506 -0.13929977 -0.01273645 0.11928778 -0.060888022 -0.053352028 0.025885321 0.06781528 -0.057274725 0.1782204 -0.02819431 -0.027030189 -0.13608244 0.11893579 0.04311512 0.08571376 -0.13102448 0.023494825 0.18535995 -0.09745862 0.00013489592 -0.06439183 0.088529915 -0.16374211 0.14952347 0.13979517 -0.016079584 -0.027901167 0.018972982 0.20249583 -0.19782808 -0.08114145 0.014477897 -0.08211546 -0.037223265 0.09608329 0.08269646 0.3341766 0.10024209 0.22060575 -0.0007017532 -0.101661004 0.014485353 0.00965697 0.1540492 -0.11116889 -0.019006426 0.1872147 -0.12493407 0.48024994 -0.041491445 0.341427 0.059095055 -0.004467058 0.018684877 -0.12131316 0.13672808 -0.16922301 -0.03742181 0.12844703 0.0015422194 0.15282531 -0.23264965 0.10659393 0.11813255 0.0760158 0.2703666 0.24528624 -0.06370659 0.19514693 -0.20703898 0.19495651 -0.11547103 -0.13479948 -0.11544593 0.31852978 -0.14474815 0.26986805 -0.15279385 -0.055804633 0.062787496 -0.01895619 -0.113804154 0.005947707 -0.15662889 -0.08315917 -0.15698045 0.06963534 -0.13271564 0.2084012 0.031871036 -0.052048847 -0.08875835 -0.041912947 0.04910606 -0.038634554 -0.20621292 -0.064919256 0.10222593 -0.20593366 -0.07171251 -0.006275405 0.098304324 0.022362763 0.1706224 0.11016107 0.14445113 0.08309255 -0.31066814 0.04067241 -0.15143895 0.20567839 -0.0031104316 -0.092330374 0.06142783 -0.005854852 -0.041246597 0.049715184 0.01829051 0.20244585 0.049752623 0.08249718 0.23427862 0.060201034 -0.1723454 0.10230929 -0.023343869 -0.0670538 -0.07292296
669 -0.32118937 -0.03310344 0.049027767 -0.20810594 -0.065651424 -0.11600961 -0.044127688 0.01390272 0.07491304 -0.092224315 0.069744654 -0.1723105 0.12981716 0.05536244 0.09977467 -0.1015764 -0.032626826 0.09579101 -0.11090098 -0.005764533 0.06027006 0.04010546 -0.19366762 0.093186416 0.16219029 0.06123761 -0.02426367 -0.022247022 0.21077561 -0.27748817 -0.18326083 -0.0011218106 -0.05912458 -0.027451599 0.12752563 0.34759933 0.35097253 -0.0931846 0.26509994 -0.06417531 -0.09226158 0.13902505 0.20230252 0.10075991 -0.025495643 -0.043959145 0.03960786 -0.2016083 0.33229977 -0.030810192 0.28230157 0.10886306 0.020511743 0.13310449 0.028723879 0.14396414 -0.12465483 -0.08424142 0.19945683 0.118698455 0.092029385 -0.0546831 -0.07233187 -0.041219905 0.13944563 0.3340363 0.24334747 0.119943686 0.11083892 -0.073757544 0.13814759 -0.043871697 -0.16618918 0.049533885 0.17223108 -0.07604533 0.122592695 -0.17451206 0.119198404 -0.008815953 -0.030132558 -0.014865698 0.18374746 -0.24959761 -0.08801556 -0.14402649 0.012425228 -0.19081903 0.12278308 0.1096279 -0.021493983 0.13893883 -0.06821497 0.09306153 -0.12883043 -0.12092922 -0.2305857 0.15510626 -0.20980395 -0.08960717 -0.009401955 0.043922476 -0.019261852 -0.014841534 0.016359003 0.15889099 0.06162724 -0.1908352 -0.12318984 -0.13858241 0.1160081 0.09025348 0.032996986 0.17123887 0.14353046 -0.044586428 -0.035376135 -0.09428245 0.16370684 -0.031601585 -0.100480735 0.054714024 -0.11406929 -0.06751285 0.010936233 -0.09316869 -0.08500578 -0.03955159
643 -0.08534978 -0.42952645 0.07510639 0.025332646 0.11443242 -0.015485868 0.014035067 0.30836985 -0.2574736 -0.28665298 -0.016015142 0.11818424 0.1587412 0.15685658 0.44967377 -0.0022865902 0.056838103 0.05492078 -0.06954096 0.24282163 0.003195849 -0.033735614 -0.14517708 0.031203188 0.12848389 0.11584234 -0.22166312 0.057434373 -0.030972866 0.00830389 -0.28654033 -0.0054901834 0.3124646 0.12552348 -0.26033008 0.0122107975 -0.003799231 -0.1512568 -0.17200886 -0.10040101 -0.13306876 0.2488532 0.14075637 0.12863195 -0.24509947 -0.003021875 0.27889404 0.105164684 -0.08017836 0.008096176 0.26460743 -0.22703508 0.30877057 0.07381535 -0.13945171 0.13863891 0.084020615 0.09558932 0.35579345 0.16884083 -0.055941157 -0.14087887 0.08503928 0.12773193 0.18739456 0.058138818 0.17104119 0.009829047 0.24316084 -0.3980879 -0.057910085 -0.3004988 0.073071525 -0.1913655 -0.085742086 -0.13517368 -0.1311831 -0.11355138 -0.26372144 -0.035358384 -0.21467327 -0.21158779 0.0209477 0.23158143 -0.10886422 0.1894062 0.20875782 -0.07984249 0.30166027 -0.2528189 -0.011545386 -0.12178247 -0.045253344 0.13302176 0.13606946 0.0016223282 0.04091506 0.33989063 -0.052285973 -0.02304615 -0.2653133 0.047246285 0.013325207 0.07918932 0.047828797 0.08726909 0.03401576 0.3582126 0.18338972 -0.052048333 -0.033951018 -0.21558295 -0.2526905 0.31808013 -0.1475441 -0.0025611247 -0.22150664 -0.22577947 0.33772096 0.09050893 -0.38458815 -0.26972133 -0.17116204 0.13101996 -0.14959317 0.18143389 -0.18055916 0.18448034
363 -0.11225579 -0.028363941 0.025206858 -0.09010141 0.045424443 -0.06675804 0.009396897 0.07247221 -0.13874348 -0.08273931 -0.22208308 -0.20999596 0.04627826 -0.17032468 0.15642086 -0.25457913 0.052516025 -0.09123085 -0.06905592 -0.040761624 0.090371355 0.10141953 -0.11123729 -0.032762155 0.28349054 -0.16356106 -0.09879032 -0.040905114 0.27082172 -0.13173987 -0.02966999 -0.12719893 -0.18179013 -0.019256828 -0.022827262 0.045569196 0.33385977 0.013496782 0.31723014 0.028844386 -0.120220356 0.046659715 0.14238557 0.15002665 -0.20539314 0.057499576 -0.008382258 -0.18429208 0.32961333 -0.11123165 0.26504895 0.040554367 0.0724371 0.32092062 0.09805906 0.26603574 -0.22667398 -0.111440666 -0.09455623 0.29329285 0.06451052 -0.22509383 0.027445218 0.043052502 -0.04465649 0.30328918 0.2056828 0.11733583 0.1945893 -0.24951284 0.09681046 -0.094797455 -0.28622365 0.08469097 0.023508627 -0.096940964 0.14409125 -0.2166471 -0.04327807 -0.03832961 -0.16684271 0.07918251 0.28859672 -0.09873352 -0.06246989 -0.17162992 0.106363446 -0.06341657 0.25065562 0.23150429 0.09241549 0.03143775 0.08494835 0.21257512 -0.115639694 -0.14687529 -0.16330841 0.30190328 -0.007977208 0.07963357 -0.025212105 0.14125335 -0.22088724 -0.031640653 0.04002606 0.19851871 -0.20376806 -0.3507717 -0.049880743 -0.20440143 0.21292171 0.19150053 -0.025128584 0.1347085 0.1079095 -0.1933395 0.098093525 -0.15028536 0.27087694 0.08512553 0.0019451629 0.17879932 0.12212691 -0.15462549 0.32169196 -0.19621885 0.04741164 0.0039090402
578 -0.07822251 -0.611187 0.07876645 0.09465047 0.13963756 0.18548244 0.00080623856 0.26689765 -0.26740372 -0.38132554 0.028447768 0.13351165 0.03416205 0.1576723 0.3977768 -0.011971006 0.06295024 0.09818127 -0.132665 0.14192581 0.011999096 0.015965445 -0.1957084 0.1014379 -0.030800045 0.22693007 -0.13953994 0.14437564 0.06697135 -0.019155612 -0.27039462 0.04840485 0.24133715 0.09341886 -0.094616234 0.025378298 -0.12878452 -0.18333042 -0.12815863 -0.17906232 -0.07395473 0.13709877 0.17342828 0.119096585 -0.10632664 -0.033416644 0.31767777 0.1284055 -0.035433006 0.16455406 0.36170766 -0.28797486 0.33458447 0.0460779 -0.11566367 -0.06677128 0.093771785 0.037342425 0.28380892 0.17600526 -0.13468872 -0.21082263 -0.13218701 0.0915325 0.1293829 0.06408203 0.19427729 0.06877277 0.01285074 -0.32758054 -0.1333975 -0.39617705 0.09847321 -0.21304339 0.05256343 -0.16892007 -0.1446563 -0.21095672 -0.43998656 -0.0053140298 -0.18718079 -0.10407159 -0.008166042 0.20365815 -0.040413287 0.027268533 0.003595837 -0.043351386 0.3602654 -0.16650653 0.021355467 0.022823768 -0.05912228 0.20292966 -0.038320735 0.077789314 0.0874159 0.3330636 -0.15639052 0.018820008 -0.16700776 0.070424 -0.13811687 0.17583501 0.045741886 0.01362944 -0.03531479 0.4018014 0.16105814 0.0912619 0.0052679316 -0.102516115 -0.08006149 0.37340638 -0.052459855 0.114726186 -0.20954166 -0.0019766816 0.2397683 -0.08722444 -0.33798438 -0.21719633 -0.25394553 0.035660565 -0.21713252 0.34560138 -0.17096975 0.07463222
627 -0.20906319 -0.5557382 0.13415031 0.097926304 0.24205175 0.116610214 -0.1040271 0.20138602 -0.24757797 -0.3877435 -0.036738336 0.08892443 0.015311754 0.11002321 0.5314002 0.039632726 0.057490736 0.09571873 -0.09628569 0.06319835 -0.0034590482 0.0513862 -0.29919282 0.09453997 0.050181918 0.21839394 -0.122709 0.119603984 0.032793347 -0.04383984 -0.2513763 0.007005654 0.2965574 0.008446707 -0.096762635 0.13395773 -0.06509263 -0.026510226 -0.21888933 -0.16488726 -0.03006884 0.06916954 0.27679342 0.07769033 -0.23496932 -0.013738189 0.47229287 0.106075704 -0.0494423 0.036694676 0.34388483 -0.20520662 0.40037504 0.0701883 -0.08056277 0.008136733 0.032651182 0.18565148 0.337061 0.14500731 -0.054424115 -0.15764008 0.07617664 0.07760788 0.19243461 0.038230438 0.07390421 0.0012581733 0.09646588 -0.33579516 -0.039720733 -0.27610904 0.0808702 -0.1877379 -0.002138868 -0.14031069 -0.09121581 -0.14926855 -0.39314228 -0.13778149 -0.15709461 -0.23201773 -0.037872195 0.29098082 -0.014129929 0.067598246 0.04718762 -0.041331783 0.46199095 -0.21421273 0.06070273 0.016727135 -0.14728494 0.298982 0.0039702337 -0.029588839 0.049944334 0.37214938 -0.06987879 -0.06812363 -0.16000456 0.07347837 0.04292834 0.113099925 0.07793305 0.1818191 -0.098308094 0.4836411 0.09211332 0.08374649 0.0033580891 -0.14843816 -0.1179823 0.22019313 -0.036872227 0.0667738 -0.24960774 -0.15795302 0.18759142 -0.124384135 -0.3803763 -0.20733 -0.016454285 0.11296996 -0.07064551 0.29668558 -0.114634626 0.1815544
579 -0.07543633 -0.2876452 -0.13425872 -0.052055668 -0.062818445 0.17489131 -0.053062648 -0.11421936 -0.077976175 -0.088915676 -0.15575406 -0.055825233 -0.30811507 0.0810734 -0.05256961 0.28678912 -0.21794145 -0.024160687 -0.04746212 -0.14626406 -0.113997914 0.3900853 -0.09145616 -0.08592364 -0.09932074 -6.382016e-05 -0.12274355 0.024213703 0.14276585 -0.14799567 0.11495531 -0.035369035 -0.07254548 0.1392746 0.122648045 0.29847503 0.039720457 0.05847996 0.112412065 0.02459475 -0.39189902 0.2116894 0.12269773 0.088881716 0.23970592 -0.032953512 -0.3830736 -0.092983074 0.1088585 0.1787789 0.06275847 0.23553663 -0.032499503 -0.06735826 -0.00834862 0.05085055 0.15875186 0.10869709 -0.13142452 -0.14839852 -0.014947063 -0.077063955 0.0595774 -0.057010144 0.0077478704 0.14156738 0.13684039 0.16336106 -0.009461877 -0.13033311 0.16037631 -0.047779344 -0.31230998 -0.2435948 -0.0133082075 -0.24190156 -0.08753789 -0.103332415 0.13746367 0.37984145 0.18520714 -0.051258653 0.016229235 0.2473531 0.20182511 0.10906122 -0.06882052 0.04348435 0.032673888 0.27812967 0.108005 -0.13351785 0.16720071 -0.026988981 0.28000173 0.04299006 -0.048276145 0.024102429 -0.2725726 -0.22840007 -0.02914174 0.17900574 -0.31444854 -0.058133878 -0.039734453 -0.01914225 -0.05368679 -0.03893013 0.14200744 0.038156662 0.26757538 -0.052649062 0.026762748 -0.034522 -0.23402476 -0.21254286 -0.09502471 -0.23777163 -0.042910777 -0.05850093 0.02169883 -0.17059977 -0.07822834 -0.016159963 -0.25776595 -0.04854515 -0.10146329 -0.16122258
