58 128
3980 -0.022826836 -0.016363526 0.14682373 0.05705901 -0.04215978 -0.21103504 0.08575512 0.06469974 -0.1452132 -0.021730276 0.117048316 -0.043720376 -0.078107625 -0.052108496 0.05194986 0.0500214 0.037598945 0.042744126 -0.07585038 -0.076056965 0.03326008 0.20963058 0.10311403 0.05214309 0.034064576 -0.02893604 -0.0017735888 0.061492916 -0.16363163 -0.10866377 -0.116979 -0.07323129 0.049205363 -0.017582938 0.026992407 0.05903254 0.18509665 -0.0831145 0.18837278 0.08820136 0.0719145 0.11708049 -0.038220502 0.04575055 0.011834089 0.20851053 0.06617014 0.0020720696 -0.05304282 0.0038114404 0.059373517 0.15433386 0.07069027 0.04566099 0.07404461 0.053574078 0.09875203 0.0046547865 -0.10734466 0.09689804 -0.026292562 -0.08744377 0.1844251 0.15974407 0.1314361 -0.04968877 0.14125238 0.042160302 0.0626336 -0.03595066 0.06610918 -0.058969375 -0.100210875 -0.17757554 -0.04953099 -0.0649631 -0.037414894 -0.013749734 -0.04163707 0.082934655 0.1035995 0.038415805 0.099124186 0.15208559 0.030300155 0.18226036 0.06841311 -0.01871934 0.0060686655 0.12308137 -0.05997462 -0.008520348 -0.015101717 0.08858653 0.10867688 0.010166068 -0.1871153 -0.20428339 0.09158408 0.012142767 -0.12889357 0.008733785 0.089033745 0.09701319 0.03328084 -0.06315609 0.07391238 -0.016883954 0.076861486 -0.20791781 -0.0029801992 -0.14628668 -0.06500708 0.0014904528 -0.0076364647 0.05002866 0.014522191 0.047690768 0.029564891 0.0018748152 -0.053795286 -0.016269596 0.033332948 0.0397857 0.014753937 -0.06354749 -0.04929774 0.007973842
4020 0.06865707 0.040034104 0.024393424 0.025243066 -0.04464955 -0.104350284 -0.016187776 0.059016667 0.0478968 0.031044971 0.10431524 0.029734038 0.053850997 -0.15827617 -0.16044869 -0.09337546 -0.10668178 0.094488665 -0.14182284 0.020961693 0.112497784 -0.037192203 0.20543577 0.016540037 0.019672582 -0.012907977 -0.1686362 -0.039472856 0.025065562 -0.07480777 -0.19019675 0.008810352 -0.06363924 -0.058915257 0.053241715 -0.019068781 0.091857 -0.05212576 0.19379707 0.10387208 0.1600287 0.20219763 -0.082428485 -0.07703561 -0.06586277 0.19641466 -0.034175888 -0.045854952 -0.06951636 0.041399367 0.11678855 0.07791716 0.07047145 0.021564499 0.12641962 0.13127466 0.053920526 -0.16950345 -0.07353196 0.05728178 0.14918008 -0.14714964 0.047607966 0.30362627 -0.0334794 -0.20702602 0.19806816 0.097753555 -0.0090056425 -0.013371692 -0.037442286 -0.00025516702 -0.05904676 0.010558217 -0.15216173 -0.017392157 0.02198356 -0.02067901 0.0050418507 0.14136949 0.01217768 0.058549605 0.0701354 0.04461373 0.04431858 0.11620768 0.15026999 0.0496874 0.09534411 0.2181108 -0.0048835673 -0.038669027 -0.06911697 -0.04811205 0.011833544 -0.106429145 -0.18911967 -0.20816834 0.022769466 -0.006231042 -0.111529596 0.061974574 0.043817837 -0.03683425 0.16424051 -0.092882395 0.067799695 -0.07017025 0.058189705 -0.08397891 0.043901 0.022069383 -0.0084685655 -0.0011612448 -0.06844636 0.0012341936 0.032850597 0.047818992 0.092874184 0.041214895 0.016299285 -0.11916158 -0.0497429 -0.0032020267 0.045671403 -0.043950554 -0.05624429 -0.020700922
3994 -0.045134928 -0.04236581 0.07274384 -0.17216715 -0.07476028 -0.28995103 0.050178662 -0.034325637 -0.13822325 0.11872548 0.102327645 0.01616855 -0.023811284 -0.059767913 0.0802835 -0.019261392 -0.07579898 0.06565373 0.023344927 0.08254306 0.08553096 -0.006793769 -0.14903238 0.13701008 0.022756206 0.04087876 -0.06665176 -0.071116544 0.03534027 -0.027600465 -0.20110744 -0.09860309 -0.029620897 0.063829966 0.08534666 0.070517056 0.052533377 -0.11109652 0.2457959 0.044222068 0.15512079 0.019617526 -0.06317449 0.17998888 -0.047752734 0.20837268 -0.009997936 0.011969441 -0.023623945 -0.10111713 0.031300284 0.050279763 0.15141296 -0.064566664 0.096788384 0.1294285 -0.07471824 0.025962261 0.11909394 0.051470652 0.030909065 -0.027254328 0.041767262 0.27181625 0.03220157 -0.1618295 0.16174938 0.08273292 0.05665329 -0.064473316 -0.12674613 -0.10906739 -0.11240503 -0.13770738 -0.20402282 0.017207356 -0.15013352 0.054301776 -0.061378088 0.11155669 -0.042196173 -0.081798 0.10508629 0.28102085 0.11347747 0.09267507 0.021535566 -0.007682027 0.0730703 0.052667383 -0.09069402 -0.0006137843 -0.21480332 0.16070771 -0.020899946 -0.18609476 -0.12698115 0.06689381 0.035197318 -0.007371886 0.011397283 -0.037850715 -0.009748442 -0.008595811 0.010546083 0.16551776 0.10500683 -0.085150905 0.076536946 -0.18894124 0.05969663 0.010119648 -0.033736996 -0.20253298 -0.07308671 0.0570287 -0.18008335 0.023207184 0.06473009 0.04559709 -0.13072552 0.076608784 -0.10239353 0.11245861 -0.16521174 -0.12704189 0.061445042 -0.042106498
4018 -0.028789349 0.017352622 0.14356363 -0.11811315 -0.06175144 -0.23778984 0.10739119 -0.004749444 -0.13641755 0.06922592 0.14207411 0.014479556 -0.07046156 -0.12312705 0.03458881 -0.120156735 -0.10758501 0.041020393 -0.056030948 0.023039471 0.017659405 -0.027519347 -0.037373602 0.029019263 -0.007240671 0.034145333 -0.025524143 -0.104296215 0.03419524 -0.023911424 -0.13132738 -0.057009965 -0.06637094 0.0838919 0.091950364 -0.0007909848 -0.015164331 -0.033584673 0.18999597 0.06429071 0.11706873 0.0968535 -0.13486524 0.16211227 -0.04963706 0.15082726 -0.123511255 0.039821826 0.03094465 0.007923077 0.026169773 0.042067263 0.07536163 -0.11008262 0.046969637 0.1884709 -0.076753065 -0.031086575 0.09455952 0.008071557 0.10659867 -0.072451256 -0.0051051574 0.24408448 -0.003260893 -0.16230413 0.15430109 0.05735563 0.08145969 -0.13019946 -0.10816114 -0.089178964 -0.046600573 -0.1589846 -0.17882404 0.047703978 -0.09252841 0.01926485 -0.11424775 0.08919812 -0.013283623 -0.05744427 0.15462232 0.31513458 0.04218547 0.029189916 0.040720854 -0.008247984 0.18103573 0.058712292 -0.09780135 0.006692032 -0.26542598 0.114370875 0.04457051 -0.14806929 -0.1702289 0.059799097 0.031902965 -0.0055231797 0.026943676 -0.05157798 0.010573107 0.005768271 0.05311807 0.15597692 0.1018923 -0.12278598 0.02477119 -0.11353883 0.0032667448 0.05295323 0.02446488 -0.23590785 -0.05648068 0.092861116 -0.13239488 0.05139472 0.1494337 0.023831736 -0.11876311 0.17347077 -0.14477503 0.05955682 -0.15960693 -0.09679196 0.09524523 -0.035843097
3981 -0.030321768 -0.03769996 0.029714158 -0.18138748 -0.021951595 -0.17945348 0.1053328 0.05014858 -0.19633314 0.06941572 0.060837697 2.0980518e-05 -0.06381024 -0.0064602154 0.035431918 -0.09865965 0.0073570698 0.0875206 -0.059666056 0.0010588083 0.081047006 -0.034728087 -0.14647496 0.09924375 0.09934733 0.03780432 -0.024188936 -0.0990976 0.09682819 0.0083727045 -0.19398943 -0.03969523 0.0048675495 -0.03670478 0.07638776 0.044728514 0.043537002 -0.08831527 0.22602989 0.031980682 0.10368554 0.027612 -0.13426164 0.1593624 -0.02821036 0.13332331 -0.15096311 -0.011464264 0.032321967 -0.044742294 -0.040914275 0.019441498 0.20821536 -0.00271248 0.114336476 0.10341231 -0.10926805 -0.0058885408 0.082447566 0.06376785 0.07763895 -0.01465315 -0.06060223 0.22325361 -0.058612943 -0.12472894 0.11003071 0.14609599 -0.022245353 -0.066569015 -0.05384089 -0.069617264 -0.056162678 -0.16089581 -0.14643401 0.02511521 -0.15030582 0.082386024 -0.04891057 0.10490765 -0.018470252 -0.12451012 0.13748789 0.36263648 0.07099939 0.05769391 0.07674772 -0.04406463 0.17186847 0.05846598 -0.10322695 -0.026822224 -0.24048053 0.10761094 0.1311249 -0.16269684 -0.18272537 0.0076407804 0.016582346 -0.063189335 -0.03407916 -0.060157567 0.008179202 0.07150261 0.0637346 0.11153308 0.13900635 -0.14499195 0.08423395 -0.18660384 0.1015683 0.059829026 -0.010480605 -0.15828449 -0.053012397 0.057906915 -0.15095241 0.06643298 0.06446989 0.077119045 -0.08497865 0.14342277 -0.021566957 0.07987261 -0.12927063 -0.100657426 0.14282459 -0.032203868
4030 0.006037664 0.05487798 0.08963156 -0.11281196 -0.0018386357 -0.1396107 -0.046874713 0.02774612 -0.13207889 0.020476706 0.11046645 -0.01181838 -0.13813074 -0.05189967 -0.016164599 -0.13604115 0.010552838 -0.005962759 -0.0681955 0.039101377 0.037022755 -0.03176199 0.010031112 0.082738645 0.002204765 0.041630533 -0.12807061 -0.14921975 0.03116066 -0.107849136 -0.037130274 0.033986267 -0.06375939 -0.013373327 0.12312071 -0.0005679639 0.02995362 -0.0044959933 0.074009486 0.065538615 0.16871281 0.11169951 -0.032617275 0.08776498 -0.049534984 0.1591947 0.023522457 -0.01574235 -0.018483764 0.020806018 -1.6141501e-05 0.09078823 0.10131923 0.009655691 0.10557851 0.16506201 -0.066562876 0.018995835 0.017125005 0.048103675 0.17702526 -0.11886678 0.089525685 0.33673906 0.0933183 -0.09042195 0.18215236 0.012432496 0.06173163 -0.15891334 -0.05265651 -0.08269705 0.0077385353 -0.115922995 -0.1621775 0.045050703 -0.0723347 0.033685785 -0.057662237 0.1630305 0.0885659 0.04569327 0.060636144 0.085670225 0.0026835797 0.10771098 0.022026747 0.11898625 0.050659876 0.117550544 -0.14185439 -0.02006946 -0.14463295 -0.016889742 0.106838495 -0.12625147 -0.1790933 -0.040184043 0.056109373 -0.08085651 -0.07180065 0.055080462 0.10371377 0.08217288 0.02469576 0.017293086 0.14632535 -0.08238583 0.044582184 -0.14989041 -0.021069806 0.082686625 0.068406336 -0.103492245 -0.107972115 -0.04205699 -0.090944454 0.027897667 0.10310744 0.08824837 -0.058738835 -0.012730965 -0.064169705 0.023125967 -0.061536767 -0.11722326 0.01731081 -0.07242009
4001 -0.034607586 -0.06891192 0.12792179 0.10306634 -0.081800334 -0.29356107 0.084707424 0.03613378 -0.09984618 -0.047053766 0.14151892 -0.10164266 -0.13972953 0.044358958 0.0036460871 -0.016695214 -0.04722409 -0.02960627 -0.10037309 0.035193093 0.24317844 0.16673711 0.003036439 0.036448516 -0.12121138 0.08475775 -0.14368789 0.046235077 -0.04669669 -0.22923553 -0.23163043 -0.18229266 -0.07649113 0.09910888 0.06631865 0.16286533 0.17686774 -0.0177981 0.26869965 0.031671125 -0.15996158 0.13357899 0.03023256 0.057655368 0.0900483 0.1326025 0.1074111 0.08085809 -0.08894108 0.025964435 -0.14762716 0.15494275 0.1515989 -0.0032037178 0.19294056 0.006270975 0.055409104 -0.013793889 0.048283696 0.037661195 0.100782335 -0.044669487 0.0944691 0.089231744 0.08561676 -0.012278442 0.074493 0.07049308 0.014480222 -0.032975927 0.07747302 -0.0014806602 -0.20183411 -0.09634525 -0.017386844 -0.051786613 -0.040552095 -0.032937106 0.055617984 0.09542929 0.0733034 -0.002401481 0.13599017 0.23920578 -0.07826479 -0.004467235 0.1791573 -0.06773872 0.010968107 0.07790696 0.1914452 -0.1175453 0.033897236 0.04960445 0.12586176 0.012955746 -0.25649765 -0.18170708 -0.054367747 0.062480807 -0.25604543 0.12683141 0.054995354 0.09573138 0.08017421 0.14023401 -0.008423255 -0.025678376 -0.03244274 -0.05011924 -0.0550538 -0.07629125 -0.059885073 -0.0669597 0.06900538 -0.023383396 0.13498002 0.035001013 -0.03781669 -0.09669256 -0.022345189 0.010766439 -0.08251422 0.041094955 0.03200554 -0.114299625 0.030462418 0.09677968
4023 -0.007307986 0.0014835598 0.15827736 -0.073326044 -0.06613192 -0.21612598 0.048889685 0.04311988 -0.15226685 -0.044211604 0.11713168 0.08404711 -0.038868096 -0.131107 0.09379376 -0.16123278 -0.05603732 0.030944385 -0.10261875 -0.053894762 -0.015474808 0.03849125 0.011242548 -0.039031014 0.067335054 0.028656324 -0.053840347 -0.117870346 0.074717686 -0.059527736 -0.18198168 -0.03093905 -0.07186676 0.056237716 0.050657265 0.043532237 0.042153984 0.002822965 0.23602478 0.051467806 0.17007422 0.041652557 -0.06848075 0.16047537 0.02785329 0.11750666 -0.05172091 0.034741182 -4.661652e-05 -0.041175988 0.03189021 0.09499732 0.08251125 -0.0034299423 0.04471519 0.151404 -0.037815347 0.039153785 0.04333633 0.009001315 0.05405401 -0.07658303 0.060272727 0.3201289 0.0374316 -0.11003406 0.14243932 0.07667805 0.050506078 -0.11087635 -0.085819 -0.13471086 -0.027042504 -0.14491594 -0.15766974 0.09931354 -0.05740518 -0.0075351056 -0.077817604 0.06488285 0.025487669 0.0222116 0.13754408 0.2325344 0.050228525 0.086615816 0.06417235 0.03817825 0.09284745 0.07691834 -0.14823158 -0.054805115 -0.19780394 0.088186055 -0.05639474 -0.16616878 -0.121002465 0.09140058 0.120002575 -0.062194996 0.013174622 -0.049651217 0.0702913 0.09287373 0.05214399 0.07491601 0.12802052 -0.17298405 0.10721785 -0.08418002 0.032775126 0.06558243 -0.044004586 -0.14541978 -0.07662331 0.13165686 -0.117490746 -0.05079967 0.0877062 0.056766063 -0.0781959 0.12907901 0.030692082 0.057245217 -0.1676382 -0.12768523 0.10392997 -0.15281403
4004 0.056985695 0.09316104 -0.021197552 -0.031865153 0.14206968 0.043105528 -0.019533994 0.03456179 0.049455274 0.06730322 0.24631546 0.089900434 0.0745917 -0.057410676 -0.002853567 -0.14914669 0.06342912 -0.001687126 -0.23683795 -0.025437431 0.07708669 0.020635355 0.120379545 0.04089562 -0.049010508 0.053211253 -0.14683321 -0.06380093 0.0019866186 0.0039195595 -0.21355319 0.05804 -0.086735144 -0.034231108 0.10333 0.022819707 0.18675672 0.049644243 0.2932022 0.13419819 0.1909406 0.17213921 0.032376632 -0.08847127 -0.09459835 0.11936352 0.0013436422 -0.062225644 0.106435634 0.17906348 0.14534102 0.106454745 0.26272127 -0.010960997 0.1507429 0.23911834 0.19834413 -0.0969666 -0.14805128 0.071435675 0.15475152 -0.17391 0.023270138 0.2313777 0.07420697 -0.16606645 0.20457874 0.07941643 -0.014356093 0.009864125 -0.029396651 0.11864321 0.105935045 0.05419614 -0.055204656 -0.04624736 0.07657585 0.017220102 0.048402254 0.16936795 -0.007958024 -0.12657142 -0.11032894 0.11765269 -0.0963214 0.066488646 0.16590205 0.080103524 0.153293 0.041059162 0.10922637 -0.13721009 -0.08939435 -0.0024036306 0.04966253 -0.14395837 -0.24776801 -0.12200987 0.00799808 0.012404753 -0.11492737 -0.027956754 0.0880291 0.09072015 0.011114477 -0.09274522 0.11161673 -0.15404227 -0.04493278 0.10416118 -0.0053393967 0.030368162 0.015302242 -0.035405017 -0.025810272 0.016038923 -0.12502097 0.15690552 0.035838142 0.11988816 -0.000702228 -0.042630974 0.06916193 -0.09428208 0.03106782 0.005108213 -0.058548838 0.027015446
4031 0.076377876 0.008955964 0.06908174 0.08318358 -0.050566826 -0.19695327 0.004035709 0.06015968 0.02613691 0.018882247 0.13403836 -0.034551095 -0.02654818 -0.19939761 -0.13494615 0.011320532 -0.12760444 0.0925039 -0.27506718 0.10617481 0.18601349 -0.022350596 0.17669249 0.0968058 -0.0038306622 -0.07377992 -0.12732047 -0.03425437 -0.10568708 -0.021574667 -0.28575787 -0.021845486 -0.011510623 -0.07666778 0.009651329 -0.02676912 0.1517717 0.007066177 0.22046703 0.064240046 0.047296785 0.14691967 0.01748528 -0.06561234 -0.20187154 0.26805538 0.021388594 0.03196741 -0.025237443 0.1272683 0.039544176 0.053839084 0.07327606 0.049640562 0.028986737 0.17428493 0.13827038 -0.22832656 -0.11742274 0.12143979 0.103222415 -0.12814727 0.012357836 0.109918155 -0.061305545 -0.12722524 0.15683596 0.09694322 -0.14238305 0.04990242 -0.096050754 -0.055460192 -0.06367865 -0.03523403 -0.21334875 -0.010982452 -0.015214032 0.068174064 -0.082067534 0.18901911 0.092243984 0.16878176 0.100303374 -0.06718851 -0.03627341 0.14535017 0.13487767 0.060125098 0.021813244 0.18034713 -0.046797633 -0.141239 -0.057402153 -0.09272074 0.012105437 -0.17449138 -0.17787081 -0.034812234 0.030468225 -0.016922249 -0.13875465 0.07817424 0.06430566 0.029577896 0.1282063 0.00030508643 0.13930002 -0.011448293 -0.01684567 -0.17061277 -0.0637665 0.09006453 0.07602925 -0.034117375 0.1374005 -0.10867424 -0.12313147 0.11322631 0.056961723 -0.028282376 0.065710165 -0.1587236 0.05053444 0.038091574 0.10414158 -0.024003675 -0.05458488 -0.11666033
3998 -0.05637943 0.014384045 0.04924889 -0.15852883 -0.04480361 -0.1806834 0.047761347 0.04699839 -0.17705253 0.077742174 0.10197546 0.021589216 -0.08388984 -0.11993247 -0.11476159 -0.17138325 -0.03179631 0.11207391 -0.103089295 0.037907593 -0.018183554 0.067882515 -0.01779099 0.023631727 0.035712153 0.0049618366 -0.09793491 -0.19616066 0.037861038 -0.07499265 -0.10660882 0.006580623 -0.045886066 0.10637429 0.023067102 0.121228255 0.13623972 -0.06821003 0.2121697 0.04180711 0.08367625 0.011649035 -0.09392378 0.15879329 0.050970934 0.09232386 -0.14430797 0.013383346 -0.020095924 -0.07922838 -0.016263984 0.033627488 0.12248827 -0.044297393 0.0672701 0.23329447 -0.08195255 -0.027898343 0.12383622 0.083479196 0.11743146 -0.11234142 0.03959908 0.30116266 0.029624945 -0.039057657 0.13962492 0.0011219893 0.069048025 -0.11153374 -0.021831557 -0.08925138 -0.03338562 -0.14270288 -0.15712541 0.01979476 -0.110728435 0.06582015 -0.008004526 0.101179235 -0.03333182 -0.09820817 0.15233263 0.26179162 0.05433389 0.08706762 -0.025925612 0.046206012 0.15898725 0.12628369 -0.08427746 0.08192278 -0.2788093 0.089429855 0.16792493 -0.0618223 -0.12719701 0.0066972803 0.05414677 -0.0302446 -0.0015169585 -0.041523866 -0.02499762 0.059471827 0.017057559 0.145114 0.089681424 -0.16399433 -0.0077765947 -0.120654725 0.07885921 0.047387738 0.028088205 -0.11559684 -0.06729041 -0.037906393 -0.12745306 -0.01652993 0.060791444 0.07019877 -0.10143807 0.13731478 -0.119369864 0.06073886 -0.13470271 -0.0799481 0.18354492 0.0127779115
4027 0.12522727 0.09713506 0.12916781 0.044020485 -0.03232259 -0.25847465 -0.014354165 0.1652761 -0.03957635 0.041639533 0.21560895 -0.086970545 0.023380479 -0.06573947 -0.15753798 -0.11739505 -0.13688782 0.13471551 -0.2372483 -0.031041384 0.14256768 -0.03269821 0.17423393 0.054309256 -0.0588749 -0.09791417 -0.19937885 -0.120329335 -0.069048636 -0.008916677 -0.15358548 0.12143936 0.030333133 -0.028908066 0.16343023 0.050831776 0.19735008 0.12538263 0.053732976 0.097296685 0.12877262 0.20919386 0.045027178 -0.0048010354 -0.099178255 0.024725566 -0.05743494 -0.07933541 -0.018495323 0.020875435 0.031258866 0.0869993 0.022321565 -0.002875203 0.16330412 0.1126278 0.1843367 -0.065325275 -0.17804864 0.006182575 0.12583937 -0.18857074 0.04535515 0.10765907 0.052842144 -0.16524927 0.1494227 -0.04170833 -0.0049273083 0.02973126 -0.03446546 0.02567539 -0.061398007 0.05266232 -0.13858213 -0.115897335 0.05006112 -0.017676253 0.06471912 0.23097539 0.05939408 0.07759904 0.12390027 0.00042754618 0.028348966 0.18639198 0.23257132 0.13680129 0.05960064 0.40726534 -0.014962934 0.044761404 -0.051406145 0.056141876 0.050821487 -0.07305546 -0.3021451 -0.10678438 0.01887764 0.068073675 -0.19506843 0.07292579 -0.041963402 -0.105423465 0.06484934 0.057179924 -0.03507104 -0.11121774 -0.040839735 0.03714788 0.08608684 -0.014789255 -0.025099596 -0.028580213 -0.013934576 -0.017916674 -0.10367355 0.111494236 0.023034416 0.14344847 0.037762515 -0.12732409 0.043625213 0.010372476 0.021811621 -0.17316619 -0.06282564 0.0034282736
4002 0.0676823 0.06343098 0.1151605 0.044521455 0.007717711 -0.25619674 -0.034798946 0.15722598 -0.033642694 0.06838193 0.16045089 -0.041091323 0.013629881 -0.1943492 -0.16551736 -0.09986898 -0.058264825 0.11392749 -0.162536 0.10192813 0.17272893 -0.043004677 0.15483226 0.08370189 0.063298695 -0.02006988 -0.113380834 -0.051471345 -0.047492217 -0.07978254 -0.16285805 0.009181797 0.013441012 -0.046354443 0.087011784 -0.03209369 0.052070674 -0.084254965 0.1019791 0.10121865 0.11389018 0.18408956 -0.05139812 0.0034707424 -0.1451222 0.19631504 -0.027340237 0.04387054 -0.06865318 0.053319935 0.08745586 0.18059604 0.11049886 -0.010391753 0.13515423 0.16359293 0.10454876 -0.13583669 -0.06778256 0.04344552 0.122496285 -0.15915655 0.10724414 0.23785223 -0.01887982 -0.18856159 0.26642323 0.09984942 0.017312333 0.07925229 -0.091520205 -0.051242422 0.009222777 -0.03607526 -0.20656003 0.0018441671 -0.054855466 0.032815933 -0.044207614 0.12520222 0.0038161166 0.05493179 0.08702906 -0.0010074807 0.05059001 0.09864516 0.12347949 0.05782705 0.054614477 0.20207968 -0.042415787 0.014828491 -0.17919701 -0.0049896147 0.007881302 -0.15673772 -0.17726308 -0.09400928 0.05001827 0.055825807 -0.0964697 0.06798141 -0.016287467 -0.03611412 0.10111385 0.024610844 0.07104657 -0.10558244 -0.0149838375 -0.07684306 0.008749236 -0.019412562 -0.03601211 -0.105586454 -0.05039344 -0.015853425 -0.08537417 0.07245724 0.0620331 0.06289876 -0.035519533 -0.101535544 0.029165294 -0.030839093 0.014441593 -0.04135683 -0.046333864 -0.048019864
4013 0.0263223 0.14858943 -0.062005993 0.089895435 0.01581397 -0.12781481 0.057743642 0.024179252 -0.025994338 0.071777746 0.23790541 0.03158384 0.1263054 -0.28080758 0.098850355 -0.24349184 0.10588055 0.030346898 -0.30057633 -0.03101975 0.060785778 0.09518939 0.16633978 0.011639794 -0.16908643 0.013894805 -0.14323008 -0.038175438 0.063342296 -0.12774661 -0.46782857 0.07158945 -0.19166215 0.00047224137 -0.109738104 0.18243852 0.16160586 0.062818475 0.20403136 -0.0067828028 0.19950934 0.031532157 0.03094452 0.00943455 -0.09061785 0.09920701 -0.024159696 -0.099487394 0.07947919 0.08561064 0.12871094 -0.026023023 0.13231167 0.019815154 0.0930887 0.06742235 0.073593736 -0.06622313 -0.15861197 -0.019979851 -0.007823793 -0.022797253 0.06989167 0.13328744 0.06786304 -0.16989043 0.16525275 0.01399997 -0.03977154 -0.066813774 -0.038551264 0.10730634 -0.09474242 0.08234329 -0.08917492 0.00021090444 0.13891801 -0.06910152 0.06284184 0.17489092 0.09695577 0.005540361 -0.016358359 0.027386166 0.011969965 0.110221684 0.21326016 0.07793938 0.16334517 -0.019907758 0.089755 -0.1327397 -0.08049939 0.087963566 0.019472191 -0.049384065 -0.2528208 -0.10304349 0.06758258 0.031088777 0.038526073 -0.0024711853 0.1457978 0.11496514 0.14543556 -0.103139766 0.14601508 -0.20546292 0.016791081 0.05509952 -0.03875671 0.07480472 0.07866281 -1.6214666e-05 0.06977482 0.08121055 -0.10538484 0.11274577 0.04591153 0.06377008 0.10896803 0.012044488 0.12330354 -0.039660614 0.14976466 -0.105398126 0.08215265 0.055894516
4029 0.018109854 -0.093198076 0.17065082 0.16070768 -0.021965083 -0.30176845 0.19935824 -0.026403973 -0.10189231 -0.026322138 0.13419594 -0.18471062 -0.06414216 0.029763114 -0.01552544 0.15193608 -0.06507541 -0.13609107 -0.035002764 -0.0607281 0.08876731 0.06620773 0.021172525 0.0075358 -0.0812739 0.120899536 0.034780867 0.02009311 -0.0981129 -0.22979769 0.00090426084 -0.1329309 -0.012049349 0.06201708 0.052010108 0.24117447 0.25234666 -0.00768109 0.2690167 0.015715411 -0.11821946 0.113179155 0.024613967 -0.044093724 0.1131178 0.17401548 0.09370341 -0.054848444 -0.1045988 0.04570253 0.012750973 0.26797512 0.06443301 -0.0047766548 -0.043710478 0.0052761333 0.08698142 0.05635534 -0.08152454 0.04125493 0.046211343 -0.08588073 0.12640056 0.3253671 0.10945734 -0.10307815 0.17609756 0.043941867 0.026874255 0.114730224 0.06867847 0.043531105 -0.17454948 -0.07288959 0.055503022 -0.0787795 -0.0601006 0.02097155 0.13536602 0.13100836 0.13990425 0.008493422 0.23661844 0.32087737 0.015271333 0.14626375 0.07209735 -0.09591242 -0.11917954 0.11842928 0.05389464 -0.018193167 0.03207201 0.10686332 0.096001305 -0.022231106 -0.19750491 -0.22579487 0.053209927 0.0495223 -0.24897927 0.08672394 -0.058902588 0.04932038 0.09192791 0.11376992 -0.03327691 -0.018782798 0.15631983 -0.07587628 0.016749147 -0.01515703 -0.14339557 -0.147846 0.06359185 -0.032022648 -0.006163107 0.11304986 0.058354076 0.025012352 0.04201113 0.04002216 -0.0031415527 0.1265748 0.0015661484 -0.119923376 -0.006665652 -0.01069289
3997 -0.000876063 -0.02727527 0.0729696 -0.21571493 -0.046626285 -0.15343998 0.116360284 -0.00637107 -0.22306843 0.083485015 0.095427535 -0.01481937 -0.056161895 0.019582137 -0.0016552741 -0.07302988 0.003276685 0.09758734 -0.097958565 0.012603482 0.057019982 -0.009278683 -0.04373407 0.07756861 0.060927913 0.06838806 -0.085353 -0.14014661 0.080848925 -0.018923188 -0.21897328 0.01695736 -0.033867247 -0.018843902 0.126759 0.0015304062 0.043037422 -0.056146085 0.15018018 0.037831824 0.16554762 0.060777307 -0.14151828 0.17019725 0.024440475 0.1453557 -0.21120848 -0.029428445 0.05333899 -0.06589507 -0.03351642 -0.007294756 0.16832682 -0.013651228 0.046435393 0.1323688 -0.06424031 0.028989822 0.084267065 0.045751 0.069480665 -0.009058749 -0.034716707 0.24742611 -0.04903416 -0.15304627 0.08134138 0.054892227 0.043531734 -0.11730066 -0.022347502 -0.083860435 -0.06957083 -0.20723112 -0.112470455 0.015156894 -0.13339484 0.08303266 -0.09677598 0.10497689 0.038247686 -0.12618804 0.17283802 0.4172225 0.07817538 0.10767396 -0.035860233 0.0010058426 0.14132713 0.12138394 -0.11988945 -0.03906888 -0.23389675 0.09543592 0.11661034 -0.122412674 -0.11609511 0.044031356 0.022810163 -0.05927648 -0.0068831206 -0.0889597 -0.036581177 0.10642295 0.12729107 0.12301069 0.11258872 -0.1242046 0.030828157 -0.18552114 0.105466366 0.07859133 0.017331501 -0.22715154 0.00070589106 0.007403442 -0.11803329 0.044403236 0.049752127 -0.0019228919 -0.03787582 0.16606495 -0.11634643 0.09809862 -0.1282463 -0.078216314 0.09058904 -0.05771761
4009 -0.033741213 -0.040430866 0.12521279 -0.14686659 -0.018467281 -0.27909485 0.0826631 0.107954636 -0.2787912 -0.03057891 0.15325028 0.025796691 -0.20165706 -0.053362727 0.13848767 -0.15419216 -0.011939775 0.006502165 -0.058871202 -0.042930994 0.047646075 0.017155576 -0.09885584 0.0119905025 0.065063134 0.020830752 -0.10886226 -0.109828226 0.0969476 -0.08150166 -0.24444693 -0.06882954 0.039104443 -0.010766853 0.11287235 0.022787815 0.021886952 -0.016062507 0.18634608 -0.0052927746 0.14172268 -0.020977717 -0.13606915 0.18381502 0.019649742 0.09544468 -0.08685889 -0.015477119 0.1245662 -0.053499576 -0.08491563 0.05177601 0.12865421 -0.029000461 0.14484338 0.15241233 -0.05712036 0.07389389 0.08256937 -0.0056314175 0.080287434 -0.07080152 0.027828386 0.18572956 -0.008862705 -0.03741196 0.16391017 0.12131048 0.017412283 -0.13573042 -0.05614674 -0.12895645 0.03604397 -0.20983025 -0.17261904 0.051757637 -0.13224182 0.04493516 -0.08744675 0.071428336 -0.009414613 -0.05109543 0.1206944 0.26521027 0.06187887 0.027144644 0.081182845 0.01477525 0.163531 0.031017428 -0.1659882 -0.046032645 -0.21509016 0.07333488 0.09928843 -0.16197836 -0.10317673 0.16008456 0.11773599 -0.06259626 0.02800558 -0.020720594 -0.009293159 0.06284426 -0.023269515 0.14437862 0.09361868 -0.14542224 0.06452768 -0.14127508 0.009823711 0.08277679 -0.06086405 -0.20984937 -0.07483038 0.11824012 -0.12376717 0.064968914 0.11683607 0.113619685 -0.1545908 0.18335901 0.008442413 0.047652572 -0.19330989 -0.082466796 0.15407231 -0.06930281
4019 -0.089746654 0.082299225 -0.068756714 -0.12698172 -0.02195612 -0.21246904 0.055571597 0.033441383 -0.097736664 0.04001059 0.08906166 0.02895529 0.022626583 -0.07954852 0.09351627 -0.12692086 -0.10585276 -0.044511773 0.0091543 0.038486645 -0.058988787 -0.07119665 -0.16316597 -0.01192243 -0.05430068 0.008756743 -0.07994299 -0.07032871 0.11384876 -0.041725136 -0.09103507 -0.052247483 -0.11106616 0.12949008 0.014890763 0.039814148 0.028185034 0.057038285 0.31077012 0.029039143 0.17641516 0.0031571854 -0.081135556 0.2204368 -0.012779623 0.098643586 -0.04453845 0.04123292 0.04816408 -0.026766174 -0.0158568 0.004740333 0.13132037 0.035653267 0.06784077 0.15339088 -0.10477187 0.008378273 0.03646861 0.08461951 0.07774178 -0.10615103 0.07031994 0.2844513 0.08244782 -0.08997368 0.14357099 0.022422455 0.06555829 -0.16473174 -0.14119065 -0.14967321 -0.07967003 -0.11356096 -0.16009824 -0.0051916796 -0.058212906 -0.027335871 -0.08410946 0.1836791 -0.053774662 -0.11028779 0.09163139 0.28555077 0.07926113 0.084773175 0.020448877 0.06693042 0.108257234 -0.017665317 -0.10333612 0.0116108935 -0.24499598 0.14377774 -0.06719933 -0.15107301 -0.12271607 0.08851569 0.020200482 -0.02613956 -0.04187582 -0.10841516 -0.012465247 0.0068242876 0.031034503 0.106232464 0.13634278 -0.14725886 0.08329153 -0.15523095 0.10437049 0.11900511 0.049935333 -0.17102146 -0.10599738 0.08077996 -0.18246076 -0.038659215 0.1992837 0.06984546 -0.21545494 0.1599116 -0.08952849 0.11232821 -0.099293195 -0.21357727 0.24784262 0.014999987
4038 -0.047354564 0.041613676 -0.117743 -0.06313218 0.05072618 -0.021277511 -0.12704545 -0.009386856 0.19643463 0.09295337 0.27874133 0.1292601 0.20212677 -0.1561744 0.016184496 -0.12970525 0.003422431 -0.027601222 -0.15390871 -0.06155606 0.058361407 0.017700758 0.06414943 0.1331033 -0.07653689 0.12709583 -0.10009579 -0.004563374 0.025205357 0.0011624957 -0.2875097 0.021098673 -0.0665268 -0.041899946 -0.00096864015 0.08405822 0.37832156 0.08123199 0.4664663 -0.034259457 0.14017017 0.065119006 -0.058514968 -0.12541996 -0.1403908 0.13398838 0.028931726 -0.11265552 0.14400956 0.10825315 0.05606738 -0.025421133 0.08385638 0.09834325 0.18630882 0.051592667 0.08276558 -0.13579325 -0.23068771 0.055192053 0.03251178 -0.10466407 -0.007020934 0.010036426 0.100736685 -0.0797314 0.17253354 0.076887846 -0.07064556 -0.15971105 0.003839596 0.04385249 -0.018265573 0.0049564154 -0.14789659 -0.064313605 0.10939634 0.048400074 0.009956902 0.27075252 0.009946081 0.019877277 -0.09243959 0.05012393 -0.12474353 0.09767069 0.11523977 0.052763287 0.08097379 0.05211962 -0.031518508 -0.057639293 -0.07196106 -0.03751887 0.1859965 -0.17345412 -0.30682546 -0.15800062 0.09900609 -0.040072974 -0.13098724 -0.024676096 0.12627852 0.056887 -0.017680824 -0.14353849 0.10407587 -0.06892412 0.06491211 0.042189226 -0.045768943 0.10182023 0.123262025 0.06694433 -0.04558839 0.032220945 -0.30326205 0.19462 0.010287792 0.15814218 0.035133377 -0.1776195 0.12392383 -0.0645281 0.08654164 -0.11867504 -0.054838426 0.050849758
4025 0.073411055 0.13034472 0.124236815 0.08685587 0.21641417 -0.4103704 0.26357955 0.13658053 -0.16440904 0.06267339 0.2890935 -0.14027646 0.17006409 -0.3008681 0.20454201 0.082449906 0.27119994 -0.009006699 -0.039277148 0.25013515 0.12042983 0.26458478 0.019954905 -0.048199285 0.05544767 -0.0024254243 -0.05206527 0.15295264 0.009463147 0.026242701 -0.2196038 -0.004547681 -0.1057743 0.23477213 -0.26855773 -0.025300061 0.11376531 0.048865937 0.17145957 -0.18902667 0.043770373 -0.020076366 0.0592981 0.14500739 0.07586614 0.05949821 -0.0037285613 0.14922778 -0.061826587 0.060214013 0.09360899 0.16680309 0.22243926 -0.03495845 -0.043492883 0.073624074 0.31737125 0.17585635 0.06650874 -0.023576558 -0.1150214 -0.037041426 0.090600915 -0.25394765 0.17274475 -0.18311939 0.016699426 -0.09389386 0.023957686 0.12937328 -0.0145048 -0.10599863 -0.22717164 -0.043584626 -0.1518174 -0.22470628 0.07563207 0.013420348 -0.17096479 0.3087482 0.0053435164 -0.0541993 -0.03967376 0.3932159 0.12844059 0.23370431 0.2063209 -0.15388246 -0.035283767 0.19361517 -0.119758055 -0.34086928 -0.05869251 -0.038103353 -0.12830152 -0.14274153 0.05800392 -0.003043588 -0.06905824 -0.052950844 -0.2823798 -0.18285288 -0.11998417 0.15868168 0.1678662 -0.08696896 -0.060131945 -0.105187826 0.00687036 -0.19607772 0.2231446 0.0010659533 -0.078301474 -0.2066518 -0.21975513 -0.25556412 0.093137965 0.07215388 -0.078097925 -0.1613949 -0.3112289 -0.061005507 0.007128772 0.013577898 -0.07433108 -0.0049918112 -0.05917568 0.1514895
4014 0.003241326 0.04397549 0.031405613 -0.080822706 -0.053932957 -0.06806091 0.0656165 -0.16552068 -0.17266881 -0.09236901 -0.04305556 0.027092364 -0.10523548 0.08601602 0.12733008 -0.18094374 -0.04654612 0.08311291 -0.022099132 -0.025673445 0.04827166 0.2095967 -0.01784487 -0.025721984 -0.08065088 -0.001498841 -0.2686714 -0.018389016 0.090422034 -0.09286423 -0.20571889 0.15628622 0.024067698 0.15090978 0.08131834 -0.10728033 0.20851701 0.17873135 0.110880405 0.22959864 -0.12140555 -0.06877563 0.09927092 0.13423182 0.06254931 0.09944696 0.027193092 -0.11266687 0.11657275 0.17413847 -0.05913322 -0.045890383 0.062135257 0.117205024 -0.012752454 0.3032817 -0.060339294 -0.08531281 -0.18253267 0.11765201 0.10458543 -0.16292867 0.15120171 0.063046835 0.051672436 -0.12520972 0.1918104 0.015700856 -0.10309487 -0.21040349 0.019584246 -0.005013103 -0.06620583 -0.03564747 -0.0049300296 0.020821035 -0.01217358 -0.0070385123 0.016700955 0.13279752 0.111417405 -0.1302025 0.03402062 0.2590553 -0.03246064 0.09837466 -0.0015482589 0.08656803 0.23767737 0.028497487 -0.06472445 -0.090648584 -0.021970788 0.02843262 0.242999 0.04578938 -0.07962917 -0.008822484 -0.07067903 -0.1207551 -0.13043936 -0.19252904 0.17237498 0.0783827 -0.23977563 -0.057580054 0.2190435 -0.11386314 -0.013406319 -0.039641645 0.11594523 0.03936591 0.16587523 0.14841373 -0.26780996 -0.12346478 -0.18733147 0.10258484 0.11884468 0.106724106 -0.09121587 0.113510855 0.08600438 0.2302959 -0.032942258 -0.18568006 -0.066135004 0.005344579
4017 0.0010688545 0.018375032 0.24760526 -0.26180077 -0.16946928 -0.043391258 -0.217646 -0.22759469 0.0866777 0.09531118 -0.039850067 0.09870601 -0.11278987 -0.011060772 -0.121841446 0.052352067 0.09026055 0.110170305 0.091268145 -0.06927844 0.04335878 0.056532692 0.20895094 -0.07141354 -0.054794647 -0.011589855 -0.14413461 -0.28432596 0.032459345 -0.2237404 0.025772717 0.079277635 -0.2251075 0.19106445 -0.002748794 0.15214051 0.15894593 -0.14783345 -0.035766512 0.087211564 0.022199648 -0.024797847 0.13291463 -0.053445056 -0.09781723 0.06840512 0.004550219 -0.17672412 -0.018483618 0.08429341 0.14300023 -0.06570414 -0.039979614 -0.09932674 -0.06363804 0.22061257 -0.117532305 0.13634492 0.024514213 0.1361294 0.1480386 -0.009868766 0.02472569 0.17384113 0.25126606 -0.14253964 0.2852832 -0.15313555 0.2213459 -0.18629949 -0.027451789 0.030983293 -0.24448079 -0.2678899 -0.02724787 -0.13012658 -0.09328523 -0.08241039 -0.21450904 0.20581935 0.2285463 -0.032984212 0.13981812 0.35066208 0.12743194 0.10061033 -0.054943226 -0.019931678 -0.0444369 0.13255773 -0.17323919 -0.22374545 -0.09893093 -0.017145954 0.2934322 0.04422905 -0.085109286 -0.15644476 -0.11960566 -0.046701968 0.061387084 0.078167856 0.3178426 0.21796668 0.10928088 -0.10382124 0.22470409 0.057671685 0.055350572 -0.3088929 -0.14901853 -0.102197036 0.27075762 -0.009123232 -0.16046073 -0.09082636 -0.052284382 0.0954867 0.16769248 -0.042923715 -0.12606022 0.14273581 -0.20808536 0.022355212 0.055192687 0.061340757 -0.0890665 0.06919883
3990 0.13722123 0.0037553236 0.25832087 -0.011845952 0.12508948 -0.30199388 0.22640325 0.21496595 -0.11733793 -0.010660029 0.14759079 -0.17760518 -0.018463198 -0.11956271 0.24941696 0.20420575 0.25388715 -0.016531007 -0.14373589 0.16905913 0.10269252 0.23761044 -0.008166688 -0.107693925 -0.14666927 0.04538273 -0.081906185 0.059087988 -0.04572823 0.012581793 -0.12072942 -0.014245743 -0.14663234 0.22865213 -0.12307423 -0.0043504946 0.09583238 4.6011053e-05 0.1897902 -0.06775246 0.0133692445 0.21235225 0.022558354 0.13210338 0.057628106 0.07762489 0.0070279953 0.17628424 -0.20598795 0.0063247425 0.053065103 -0.01643984 0.26195243 0.09940828 0.17384648 -0.027737428 0.31306565 0.12527262 0.028466694 -0.0031787504 -0.12481331 0.031071087 -0.00019372681 -0.18629444 0.21396457 -0.20220865 -0.08700241 -0.0641669 0.009217781 -0.047543358 0.03002575 0.011162783 -0.22469053 -0.19157803 0.0035969897 -0.14407425 0.081405886 0.083211035 -0.30398154 0.2143021 -0.14897795 -0.100764856 0.036265224 0.31973428 0.053254608 0.16784807 0.11231199 -0.05509581 0.04514775 0.29446903 -0.11343916 -0.341281 -0.038391847 -0.07210542 -0.044399694 -0.04475181 -0.0049285833 -0.10008088 -0.034448437 -0.09425542 -0.29534635 -0.30700272 -0.035868578 0.059062727 0.23241591 -0.1905758 -0.10471047 -0.0040501985 0.028152678 -0.22889528 0.044862147 0.031146998 0.061966136 -0.07019975 -0.18161695 -0.090792 0.0718701 0.1251546 0.14250262 -0.21149392 -0.14071125 -0.120210536 -0.115821816 0.085556276 -0.05274757 -0.09844839 -0.0595469 0.11345816
4000 -0.17241675 0.1994787 -0.10284853 -0.053377766 -0.18806414 0.022085195 0.03374154 -0.042456392 -0.22763276 0.22833064 -0.033614356 -0.09585109 -0.12098599 0.07652101 0.017560426 -0.11339898 0.10563581 -0.09642367 0.14688234 0.012113883 -0.21979208 -0.033497877 -0.051096734 0.1942288 -0.10408234 -0.03523341 0.051186275 -0.030235289 -0.25779402 -0.1389771 -0.032442212 -0.121140495 -0.070539944 -0.03711354 0.0829842 0.095904216 0.059964854 -0.015099403 -0.098961346 0.080607645 0.01697333 0.14814438 -0.08859673 0.18535395 -0.07852593 0.2557496 -0.1126286 0.11442989 0.09276035 0.2315841 0.09313845 0.20908064 0.051663138 -0.2132454 -0.089120574 0.09440074 -0.008946994 -0.08458302 0.088457674 0.26676834 0.10366283 -0.11185684 0.15049279 0.12933813 0.14818728 -0.18935028 0.015555084 -0.1923089 0.017773233 -0.3383417 0.0011079349 -0.10063898 -0.09953175 -0.23697484 -0.12302883 -0.23087288 0.052248973 -0.1806549 -0.26420048 0.28430507 0.0957383 0.06688823 0.080176316 0.21057636 -0.098168395 0.03668718 0.22191922 0.17164198 0.1906162 0.09298149 -0.06688403 -0.2376415 0.040564965 0.13066193 0.10868225 0.1029071 -0.25495994 -0.24767686 -0.03421968 -0.08654416 -0.13981833 -0.13473803 0.28463322 0.14318934 0.16026726 -0.16725715 0.14289212 0.13173537 -0.0402791 -0.14391232 0.04106124 0.040836588 0.28919658 -0.047233105 -0.15555799 0.0052780122 0.10862518 0.053377323 0.14196008 0.15501085 -0.02542248 -0.07788556 -0.10140162 0.034724012 0.07529879 -0.21665879 0.047462232 -0.034115154
4021 -0.04152483 -0.012749451 0.15479614 -0.087267265 -0.14396225 -0.15821992 -0.0033138448 -0.07000772 -0.18555917 0.14652504 0.14141372 0.012483928 -0.10813493 -0.06289623 0.10969855 -0.0462885 0.09595056 0.01838249 0.058443673 0.053985406 0.050564684 0.12755832 0.010166596 0.056905758 -0.04039908 -0.03399384 -0.2056259 -0.059881285 -0.120290205 -0.115622334 0.03102225 -0.043485068 -0.012050361 0.013309948 -0.0004416441 -0.0750092 0.092704125 -0.082144514 0.080435 0.04281487 0.10300465 0.114425525 -0.0006736941 0.079749145 -0.070307456 0.14579785 -0.018193645 -0.00640726 0.04380534 0.036942545 0.12737288 0.0059605935 0.090395436 -0.06328257 0.08455898 0.16681705 -0.2513962 0.04472201 0.15108761 0.27227974 0.14613146 0.0014046312 -0.09108824 0.2540513 0.07192703 -0.13358876 0.06993011 -0.04780894 0.103206605 -0.1612199 0.003441596 -0.022511045 0.016976997 -0.16588089 -0.041687272 -0.021029819 -0.0029078668 -0.09276335 -0.0680001 0.19151762 0.07566078 -0.05032735 -0.004255678 0.25565642 0.010809685 0.08529726 -0.034725986 0.021346558 0.07065289 -0.022132738 -0.20655343 -0.013081797 -0.051296964 0.027094757 0.13584086 0.0061997576 -0.12180725 -0.10922696 -0.107081935 -0.050202884 -0.100724906 -0.008772049 0.3745363 0.142974 -0.081727885 -0.0651535 0.21181864 0.07902464 0.11047344 -0.21587238 -0.0037611919 0.026045268 0.11095529 0.0074334545 -0.21684062 -0.029847315 -0.01936116 0.062323254 0.10099427 0.051213782 -0.18475883 0.041981965 -0.14355728 -0.04936535 -0.12190529 -0.06999914 0.015234933 -0.11296869
3982 0.00814618 -0.09181659 -0.10943684 -0.031552956 -0.12781455 -0.105744556 -0.12481081 -0.039194852 -0.11299093 -0.02786039 0.2323967 0.045577526 -0.10220871 0.10524399 0.056589443 -0.033544376 -0.13242762 -0.08418554 -0.025044551 0.00082216156 0.036428783 -0.01205662 0.12213047 -0.0699951 -0.02538735 -0.017281285 -0.45158812 -0.06690068 -0.051117174 -0.15224797 -0.2253934 -0.035564214 0.094485015 -0.062800966 0.3464172 -0.22620603 0.0007474584 0.14774416 0.12261816 0.14133415 0.2510135 0.11449697 -0.022424044 0.063419595 0.10152537 -0.03841938 -0.098940656 -0.068046845 0.22775438 0.09309827 -0.0027166198 -0.020886024 0.037416358 0.15613216 0.189802 0.115771376 -0.094980575 0.043230098 -0.07504155 0.22348624 0.09740342 -0.06806736 0.042883642 0.27869067 -0.05136926 -0.0795464 0.22199246 0.08885316 0.017871963 -0.13311909 0.04083678 -0.15371619 0.08618212 -0.19985202 0.0030806102 -0.071116135 -0.029196253 -0.14622322 -0.113810375 0.2869297 0.13699049 -0.06778196 0.012880354 0.30915135 0.093439125 0.0811017 0.023977173 0.19694154 0.009020846 0.10818209 -0.17160311 -0.13867588 -0.029408077 -0.05592203 0.050432876 -0.06471566 -0.061502315 0.17361505 -0.049008064 -0.004191981 -0.050850343 -0.07480844 0.102703944 0.077791214 -0.02441938 0.046082437 0.15805505 0.04732794 0.047629043 -0.08163626 0.055263065 0.17443343 0.018507032 -0.1093204 -0.08948303 0.07974904 -0.07239919 -0.043083545 0.13024405 0.1741839 -0.123352304 0.12747164 -0.0011089089 0.06581959 -0.0021839496 -0.1262318 0.12239245 -0.23385416
4033 -0.24037012 0.23689936 -0.058006655 0.00038604956 -0.17290375 -0.1719554 0.09389159 0.05897482 -0.24407749 0.18454954 0.12761083 0.07222401 -0.26878673 -0.07129676 -0.044250052 -0.050252087 0.22829218 -0.028062264 0.09256495 -0.06344732 -0.18752654 -0.010147925 -0.09918146 0.2198856 -0.0353358 -0.14636958 -0.0087632565 -0.034580197 -0.19451475 -0.29335663 0.03298122 -0.12634657 -0.054534484 -0.09610265 -0.03394461 0.2089162 0.102124 -0.12070287 -0.006612867 -0.0051714885 0.036407974 0.07400406 -0.0044255103 0.05711539 -0.13853659 0.11242027 -0.039982263 0.14043367 0.04117061 0.1123249 0.043190975 0.1521436 0.12058737 -0.16349608 0.09201846 -0.09006657 -0.057800625 0.0035979014 -0.0079636015 0.18017729 0.09544913 -0.0466895 -0.009057381 0.041103486 0.18381816 -0.1861147 -0.009173357 -0.042680502 -0.102579005 -0.20453376 0.1329396 -0.106955424 -0.087222606 -0.22937934 -0.15403005 -0.20261036 -0.15015422 -0.21214241 -0.09178649 0.3610945 0.22343656 -0.06852566 0.03731055 0.25797892 0.050197594 0.1312317 0.16883424 0.038543817 0.11497347 0.10674625 0.023206271 -0.05998706 0.1412418 0.1412509 0.09133275 0.11048914 -0.16126372 -0.22778897 9.944671e-05 -0.05088012 -0.21663807 -0.0410931 0.1289617 0.12993743 0.20112501 -0.15004586 0.13914444 0.12979415 -0.004904567 -0.21032712 0.044666734 -0.0086879125 0.18717146 -0.0067151245 -0.024101732 -0.110281266 0.045137204 0.11535467 0.097916685 0.009421109 -0.068273276 0.0042353175 -0.061313223 -0.06294763 0.060354974 -0.1806872 0.336422 -0.042632703
3992 0.04472904 -0.04676644 0.25408205 -0.2716102 -0.094777256 -0.053615287 -0.054483373 -0.12611222 -0.060509186 0.07156086 -0.04328151 0.008430665 -0.30805218 -0.07629769 0.11249474 -0.014645085 0.11015245 0.048100565 0.14721066 0.11816647 0.04259364 0.027260806 -0.0131195085 0.1195474 -0.111199826 -0.011083375 -0.07122772 -0.063997224 0.12596264 -0.11931563 -0.012488067 0.054137655 -0.08664025 0.07247542 0.04496396 0.11551134 0.22802621 -0.096401475 0.038077377 0.07925086 0.025292201 0.0023088318 0.01139795 0.04227648 0.12528273 0.08023668 0.15474346 -0.14356287 -0.13211088 0.008196432 0.112287976 -0.07246514 -0.03229186 -0.09209243 0.12378452 0.1872515 -0.05581731 0.10294317 0.09063574 -0.04761182 -0.0018331332 0.005695283 0.11667061 0.16808073 0.22187111 -0.098107345 0.29127383 -0.10039266 0.091871604 -0.21891387 0.095523685 0.08947108 -0.32123435 -0.075639956 -0.072936065 -0.12938823 -0.021420935 -0.0895542 0.0068084626 0.252811 0.14489788 -0.08317742 0.06941081 0.1985267 0.041443188 0.11904291 0.12588869 0.026001427 0.19084716 0.10834554 -0.121751495 -0.2416236 0.02723788 -0.044792507 0.33432 0.10304425 -0.2197638 -0.19435349 0.0059528407 -0.07865763 -0.028146114 0.18990597 0.18072136 0.10272437 -0.0264942 -0.007951068 0.15564528 -0.079341725 -0.13187209 -0.26742586 -0.113923304 -0.050162554 0.08576004 0.010369343 -0.14832191 -0.2016397 0.17600107 0.14645441 0.024588134 0.11053103 -0.06904182 -0.06603363 -0.21653338 0.08993258 -0.042978227 0.007350984 -0.11719154 0.121442325
3988 -0.08467809 -0.064586945 -0.026028048 -0.010300955 0.039510492 0.0007827259 -0.011867738 -0.15346564 -0.09424926 -0.14402384 0.03208164 0.13099694 -0.15337506 0.09671933 -0.016561389 -0.11415198 -0.04096269 0.040560633 -0.059939485 -0.0046730014 0.02363776 0.1900193 0.17672862 -0.15776202 -0.015179723 0.018551037 -0.33327848 -0.10921884 0.019684885 -0.15961142 -0.26615104 0.010148427 -0.05915083 0.15897776 0.10004369 -0.017987484 0.048582934 0.08686773 0.09439404 0.24375382 -0.089207195 0.027226001 0.15145777 -0.021985723 0.05118573 0.13536054 0.03767223 -0.14267422 0.13288012 0.2100687 -0.023419496 0.081029296 0.18837668 0.05718842 -0.055428308 0.3017864 -0.042791747 -0.074372806 -0.040528618 0.092439584 0.41603678 -0.34065136 0.110025115 0.2513831 0.039818384 -0.024887279 0.12036029 0.16029012 -0.060307845 -0.20975086 0.028957298 -0.16790433 0.103283696 -0.16000003 0.027314654 -0.05807115 -0.1649433 -0.085167736 -0.14014676 0.12193429 0.111631334 -0.04153498 -0.0242912 0.28938642 -0.009754977 -0.033789676 0.09529508 0.021662237 0.19241998 0.059356686 -0.03403913 -0.18737945 0.004376407 -0.03855434 0.20309924 -0.030110968 0.037853777 0.030920537 -0.011212283 -0.17516264 -0.027092194 -0.1330405 0.1391502 0.010633731 -0.21421492 -0.034827445 0.098029576 0.063426375 0.10080423 -0.010994999 0.05052825 0.016317444 0.14217402 0.047531452 -0.15215588 -0.021029212 0.016826516 -0.010244149 0.17301215 0.07844084 -0.13752885 0.17170152 0.09878256 0.139273 -0.10788603 -0.07049609 -0.07020882 -0.09892189
3995 -0.061489344 -0.034928646 -0.12462919 0.067107774 -0.057978485 -0.1592554 0.027291762 -0.06824888 -0.15164222 0.005578281 0.22978048 -0.0015428802 -0.009273415 0.027421955 0.21075326 -0.11717764 -0.074836925 -0.11486135 -0.010987145 0.030024108 0.0005961596 -0.029410806 0.004772646 -0.054484703 -0.18846077 0.018039439 -0.3203257 0.09244369 0.03482653 -0.14647055 -0.20799494 -0.041697368 0.010331955 -0.027579254 0.033349372 -0.14429207 0.038286157 0.18061413 0.16555345 0.03683476 0.10759999 0.12434355 0.020047639 -0.011194729 0.008748908 0.107268594 0.058143254 -0.19463092 0.16445886 0.12624928 0.16114575 -0.07595046 0.09126315 0.09330313 0.047511887 0.16224165 -0.14784785 -0.061228607 -0.086132646 0.13608359 0.19348677 -0.08081798 0.06471956 0.2329698 -0.03961093 -0.07647162 0.14196858 0.14643356 0.07189198 -0.31421158 -0.0032216269 -0.092837065 0.038648926 -0.122708134 -0.020938382 -0.06148026 -0.006626084 -0.15511361 -0.050193224 0.24087569 0.04112858 0.015916875 0.018010559 0.06673983 0.010576544 0.058928892 0.091469646 0.07049092 0.13897857 -0.17444146 -0.117969945 -0.08771683 -0.06516108 0.038972054 0.0811668 -0.09098452 -0.071181946 -0.07585611 0.1202236 -0.102478564 -0.13422333 -0.0038806472 0.16879515 -0.02976489 -0.16412896 -0.03586939 0.17773631 -0.004388185 0.19263381 -0.16518235 0.118893564 0.1714775 0.02452998 -0.054882642 -0.06375574 0.0716481 0.0459916 0.05871586 0.26005405 0.22402963 -0.11264428 0.11528162 -0.04138332 0.05877069 -0.070958294 -0.13209392 0.0011542557 -0.14297166
3989 0.0764598 -0.05181192 0.0005836234 0.1941313 -0.12020449 -0.056910835 0.0058387406 -0.05664566 0.16756381 0.052364044 0.15553916 0.06361761 0.08211018 -0.38363287 -0.09725438 0.1049071 -0.08135674 0.1057724 -0.32046175 0.15543817 0.07741133 0.12632269 0.29526654 0.07072849 -0.08434602 -0.11384561 -0.047980618 0.043008152 -0.264729 0.12919883 -0.31124425 -0.06952252 -0.03129302 -0.0011681332 -0.24970572 0.014600225 0.41767168 0.084895395 0.4458321 -0.07367594 -0.050991684 -0.0010720623 0.009502596 -0.09064408 -0.10588498 0.189087 -0.008058906 0.034798436 -0.014773244 -0.013487824 -0.062252812 -0.12737033 -0.0016713059 0.15815686 0.008057344 0.10852527 0.09131078 -0.24038188 -0.13081619 0.15926065 -0.021315508 -0.07738919 -0.19842465 -0.072680876 -0.04684073 -0.14668266 -0.023217453 0.009205806 -0.30391896 0.051386096 0.04634626 -0.09986532 -0.21935402 -0.030578041 -0.2136411 -0.041122254 0.0884364 0.008733667 0.025099793 0.31501064 0.20900935 0.23394813 0.15753753 0.1371665 -0.04511654 0.24044707 0.14393698 -0.029197043 0.09391633 0.18448211 -0.17832631 -0.16717778 -0.009444829 -0.03311755 0.107680015 -0.13379714 -0.2561639 0.056668773 -0.0074837953 -0.019375348 -0.1766772 -0.025523948 0.24673031 0.13419989 0.063736394 0.033527285 0.19894329 -0.047644008 0.06216508 -0.24625072 -0.09782271 0.117196195 0.11708109 0.10075694 0.20412341 -0.08586005 -0.23333544 0.09699484 -0.07293955 -0.12896204 0.08575734 -0.140733 0.16056083 0.17151561 -0.057603985 -0.19586359 0.07314294 -0.22533424
4012 -0.15866973 0.019262455 0.2632671 0.02304277 0.059297368 -0.0008107126 0.16461474 0.021163184 -0.015724223 -0.023773238 0.13185437 -0.112396255 -0.2842025 -0.056544982 -0.042554095 -0.02050641 0.10631383 0.08225644 0.09909547 -0.045138545 0.008928397 0.21762875 -0.0024139397 0.017528752 -0.26865596 0.11390715 -0.14524834 0.07088669 -0.2303535 -0.030709542 -0.1595748 -0.13196024 -0.035356537 -0.04900229 0.0022994692 -0.14736174 0.2700324 -0.13351469 0.112932116 -0.03236351 0.046507984 0.061637912 -0.13848041 -0.0210606 -0.031815827 0.047590252 0.0104628205 -0.17368045 -0.17858577 -0.2242573 0.015818544 0.17695571 0.13185337 0.18891661 0.12391368 -0.16354692 0.06258833 0.1519606 -0.12855959 0.076135226 0.0020548198 -0.20177096 0.25421435 0.1458481 -0.106786124 -0.28927928 -0.10731572 0.07218612 -0.014563091 0.075769775 0.10837335 0.024057455 -0.27535856 0.04564558 -0.23178825 -0.27483654 -0.2141995 -0.19927032 -0.046718568 0.051554915 0.17396227 -0.033094287 0.28264466 0.34589928 0.17142251 -0.005386013 0.19769649 0.082303174 0.037218373 0.21566759 -0.051622733 0.001495862 -0.26988256 0.16767447 0.14583302 -0.18839559 -0.06812829 -0.03398219 -0.08125525 -0.08007496 -0.004519185 0.029604293 0.012647509 0.14746542 0.069295675 -0.056685038 0.037735216 -0.025259517 0.08845257 -0.25345668 0.14981493 -0.15940821 -0.24910004 0.1689087 -0.11595963 0.14770941 0.17893939 -0.052264627 -0.024049295 0.14663497 -0.108699955 -0.12531446 0.26666725 0.101253 -0.003914819 -0.27058497 -0.05390478 0.14861879
3996 -0.031866696 -0.16883583 0.03588217 -0.07836632 -0.08117473 -0.08005901 0.18712512 -0.13999812 -0.010174393 -0.1441218 0.11902267 -0.0013257228 0.00035008223 -0.16673678 0.1112192 0.008245818 0.06267561 0.20697714 0.053909678 -0.10156678 0.12954977 0.09774524 -0.20618254 0.016589936 -0.040688206 0.12122083 -0.0071243537 0.016641099 0.16350959 -0.15381247 0.03629414 -0.10700176 -0.035212945 -0.045805633 0.034727532 0.11927758 -0.043575432 -0.037777714 0.09225677 0.044972785 0.19319525 0.16464655 -0.08939629 0.16166882 0.014641023 0.1682689 0.05172076 -0.07394134 0.09098955 -0.18110187 0.00073221035 0.0005768164 0.22045419 0.032586068 0.29915327 0.109218076 0.07778709 -0.07408329 -0.024578782 -0.10624401 0.17232692 -0.04963842 -0.092466995 0.17226385 0.06235559 -0.18840896 0.19293436 -0.05317442 0.07711789 -0.07223883 -0.1104534 -0.13903639 -0.23807986 -0.0510884 -0.025238242 0.055167798 -0.019084278 0.24756256 0.041150555 0.20425566 0.0662655 -0.09618809 0.075252846 0.25228795 0.25667936 0.18726952 -0.08417367 -0.15202966 0.1719576 0.1327843 -0.13179982 0.10585431 -0.21953487 0.23639347 0.13753845 -0.09642597 -0.17226112 -0.04410191 -0.16342995 0.16764899 -0.13511677 -0.12107003 0.14723676 -0.058973227 0.14800635 0.14061832 0.024906522 -0.30249792 0.12805736 -0.34038535 0.23470506 -0.078378536 0.082435004 -0.06894643 0.11778574 0.027062276 -0.21557337 -0.07272715 -0.045911517 -0.0056287213 0.004101419 0.26723206 -0.098039925 0.087947175 -0.20316009 -0.2657948 0.09864602 -0.15335575
3987 -0.02039731 -0.1207419 0.3100771 -0.0141935535 0.076695025 -0.08394525 0.17377535 0.025969602 0.012752835 -0.096257195 0.15685 -0.19440304 -0.38078588 -0.09298515 0.0073593934 -0.052218985 0.09686482 0.03516736 0.15742226 -0.14538325 0.23808716 0.11185418 -0.016078236 0.06350675 -0.16358244 0.08252678 -0.19967745 0.1419332 -0.11953907 0.033721432 -0.2550891 0.010580667 0.20567794 -0.09338824 0.098557755 0.045941833 0.28842068 -0.10778105 0.17968246 0.0423581 0.11668922 0.098805875 -0.27756354 -0.03176574 -0.16975369 0.05348941 0.00049477356 -0.105356075 -0.021915566 -0.08648858 -0.004106637 0.11459844 0.011000917 0.18827558 0.045181286 -0.18349737 -0.019880679 0.10648548 -0.22665054 0.15308942 0.00012048355 -0.22820537 0.22544469 -0.01179527 -0.07561499 -0.18318856 0.018709281 0.015204811 -0.09072939 0.14107184 -0.022968572 -0.13042578 -0.10764682 -0.058294985 -0.13162972 -0.2172112 -0.13977373 -0.2260741 -0.19709107 -0.095659725 0.076294415 -0.08639815 0.09335089 0.22253786 0.15417644 -0.09389034 0.13555989 -0.12513825 0.02667933 0.16479036 -0.16336176 0.027934583 -0.13950828 0.13768795 0.21191701 -0.17403649 -0.16204898 -0.110402286 -0.12080594 -0.07313612 -0.12749161 -0.11546397 0.09252969 0.12690659 0.10930637 -0.173336 0.05602537 0.018019078 0.24185312 -0.35616273 0.040093455 -0.21686749 -0.122517996 -0.016668465 -0.14493783 0.19123496 0.096053675 0.06473054 0.0030132143 0.21936671 -0.1699834 -0.025858818 0.17350443 0.16869576 -0.08814659 -0.18032964 0.07279093 0.16284476
4026 -0.119238354 0.2008065 -0.0021720987 -0.18535924 -0.05332101 -0.16845651 0.0064425827 -0.03845247 -0.26852825 0.13886866 0.058247767 0.186037 -0.2369604 0.07136707 -0.0024281237 -0.045025114 0.11877401 0.019794222 0.13331933 -0.0572561 -0.0012353348 0.107702866 0.064934626 0.07294622 0.084884204 -0.1882265 -0.119568475 -0.117922954 -0.06832128 -0.010430487 -0.122789636 -0.060622662 -0.01449174 0.000854816 0.13094074 0.17790358 0.071941085 0.032139238 0.073044494 0.15427275 0.13148826 0.069689535 0.17403506 0.19616239 -0.17749678 0.21260704 -0.052597947 -0.09871725 0.16260985 0.13879523 0.13647816 0.16099147 0.14796084 -0.17595182 0.065892786 0.14145675 -0.1300007 -0.022640985 0.12577659 0.075881355 0.32820433 -0.17084107 -0.07534194 0.18025108 0.11284898 -0.18166181 0.09927981 0.073681735 -0.05085538 -0.103278466 -0.02584254 -0.121674776 0.22492537 -0.15672995 -0.17354277 -0.018671136 -0.1605831 -0.0948588 -0.14685857 0.29963076 0.10414934 -0.007844723 -0.16783243 0.23210636 0.076095626 -0.017299918 0.2080296 -0.07118929 0.19606082 0.037827082 -0.18752326 -0.044647466 0.102133535 0.05571266 0.16447167 -0.0856398 -0.09003789 0.036469433 0.017047245 -0.12051095 0.069735155 -0.03366985 0.13540697 -0.060874425 -0.16925608 -0.027061531 0.2157511 0.07890908 0.04307758 0.001437502 0.07553801 -0.0072295107 0.06017699 -0.030452624 -0.1303813 0.055832326 0.008452112 0.15837352 0.23327884 0.19865002 -0.10724532 0.20898774 0.058052093 -0.070451185 -0.15704404 -0.2809094 0.013048312 -0.16557279
4007 -0.0032129365 0.11540619 0.12469852 0.1738196 0.103821754 -0.40505803 0.18217187 0.04070168 -0.09601509 -0.0070343283 0.28367388 -0.045753643 0.06722706 -0.24692392 0.25543663 0.17268682 0.18097182 0.047018558 -0.12403453 0.099860825 0.06329269 0.43178716 -0.09799624 -0.1187069 -0.038944747 -0.033618562 -0.045809604 0.12301212 -0.044155896 0.06289855 -0.15810989 0.014991567 -0.17193127 0.24029465 -0.020361083 0.09494325 -0.008909812 -0.0029830933 0.15778743 -0.049764935 -0.057127755 0.10870319 0.14808229 0.15529223 0.04083382 0.039626587 0.059337854 0.19021407 -0.23768854 0.094504766 0.16488668 0.06921987 0.25471908 -0.020563742 0.11147407 0.03210656 0.3041863 0.061247144 -0.047551643 0.008378591 -0.107336804 0.026240941 0.13719735 -0.22886816 0.22552004 -0.11870023 0.0290558 0.03216689 0.05688946 -0.069287024 -0.08465734 -0.05516023 -0.29317966 -0.09478027 -0.10378718 -0.10253356 0.03863006 0.18558738 -0.14869462 0.22282287 -0.04578476 0.016941385 0.014168707 0.21319328 0.10187138 0.14049695 0.20322753 -0.110590205 -0.037833277 0.16382688 0.09438408 -0.25440305 0.014043905 -0.018562952 -0.03266341 -0.11740075 -0.08688431 -0.1873038 -0.03985922 -0.09506832 -0.28496322 -0.20501798 -0.1401667 0.06965268 0.2054509 -0.058959976 -0.046737105 -0.07483325 0.007982104 -0.21477918 0.14475289 -0.0827019 0.0070563275 0.00029700765 -0.18848598 -0.17683664 0.026039643 0.076605 -0.0137840435 -0.12871017 -0.048456695 0.026897436 -0.09752972 0.074123725 0.021494329 -0.11361627 -0.10294668 0.13873473
3986 -0.063509606 0.14378126 -0.070126496 -0.13977617 -0.08860158 0.04982319 0.05056831 -0.10204323 -0.1535166 0.06234226 -0.018902082 -0.016249722 -0.16950656 0.012742652 -0.0025909066 -0.10296437 0.028549733 -0.018384872 0.020895135 0.088778086 -0.11791427 -0.13040617 0.016920215 0.10910217 -0.15890911 -0.04337327 -0.13020636 -0.059813447 0.054499466 -0.14118898 -0.025339568 0.042174064 -0.1632778 -0.038865745 -0.0055610393 -0.07587838 0.034579344 0.07029853 -0.060349047 0.110685684 0.15707833 0.07403578 0.02742249 0.06482333 -0.048004784 0.24780428 0.03324538 -0.10376449 0.064883366 0.07679498 0.01872061 -0.058025397 0.1010046 -0.039620765 -0.025778135 0.22992982 -0.10119373 -0.030944824 0.01467744 0.052968066 0.2578631 -0.118172996 0.0989709 0.2567378 0.12630986 -0.20946485 0.045736883 -0.09982263 0.030860035 -0.40188333 0.013175375 -0.067994796 -0.1575244 -0.1416472 -0.14155325 -0.1578052 -0.08517948 -0.12538852 -0.1259612 0.26988566 0.2092359 -0.002100912 0.033829138 0.08718455 0.08537314 0.18294463 0.07761825 0.16758773 0.18999317 0.06882659 -0.11776203 -0.14854422 -0.045318384 0.074205115 0.14558692 -0.0062528667 -0.06468499 -0.12678757 0.009674911 -0.1074986 -0.09789047 0.027190955 0.17796074 0.023070961 0.01323939 -0.1149367 0.17658581 0.029506838 0.013589621 -0.28581405 0.05064906 0.04154427 0.21898425 -0.057976495 -0.03610705 -0.14604075 0.17621166 0.09306867 0.17909732 0.0176646 -0.0952838 -0.018720113 -0.2001184 0.08532779 -0.040375926 -0.1369638 0.025314985 -0.02163678
4036 -0.14456132 -0.075225085 0.049232516 -0.066993214 -0.017213311 -0.21988529 0.30964607 0.2647981 -0.18201946 -0.15820834 0.05680531 -0.21171108 -0.2726621 -0.19538379 -0.004540226 0.06275685 -0.097524606 0.050321527 -0.12706918 -0.08907727 0.04687345 0.27767667 -0.13758153 -0.11216904 0.026495397 -0.22814603 -0.10029436 -0.07188211 -0.021212025 -0.10780138 -0.073886596 -0.15153727 0.08471291 -0.033027146 -0.2500657 0.2627964 0.2967059 -0.065223955 0.29063365 -0.22252688 0.115648285 0.01452093 -0.12541881 0.054110635 0.04130057 0.13092056 0.08500211 -0.16617092 0.13899651 0.099248074 0.13889785 0.17466983 0.072834745 -0.03600245 0.15336388 0.21575576 0.22375597 -0.054789003 0.1007818 0.2811428 0.113824494 -0.26026744 0.15681708 0.086806364 -0.030875174 0.21070284 0.16462265 -0.023146737 -0.059438076 0.065735705 0.013754563 0.04287008 -0.078974314 0.052340016 -0.056302633 -0.19140816 0.09430711 0.019213412 -0.038847897 0.23512146 -0.015291394 -0.03309418 0.1329927 0.035430558 0.057609525 0.093596175 0.03138102 0.022256684 0.1518955 0.13225174 -0.13937849 0.047100324 -0.038848106 -0.047458317 0.18569487 0.1044908 -0.06149186 0.0217967 -0.11840796 0.011252144 0.005748722 0.1755194 -0.050439283 0.059266124 0.15633212 0.008395524 -0.01046186 0.043202292 -0.09953024 -0.26360768 0.17525367 0.19845258 -0.051706776 0.253093 0.06313147 -0.111817494 0.059313178 -0.062264763 0.2679646 0.23950404 -0.25335237 0.08579623 -0.055517353 -0.14228791 0.2706956 -0.011576547 0.23768076 0.19883473
594 0.051150903 -0.0056465124 0.060965005 0.27141172 0.024869002 -0.12106198 0.010490264 0.12224339 0.016097717 -0.013738787 0.18575032 -0.02267015 0.054942824 -0.32618043 -0.04689166 0.020149766 -0.13763207 0.0316318 -0.31772777 0.0850937 0.037259437 0.049377516 0.27567893 0.010867173 0.043136675 -0.11416626 0.1341962 0.10081795 -0.1439782 0.20604835 -0.23625691 -0.060924925 -0.16020995 -0.07455398 -0.19925827 -0.124873504 0.21503007 0.095501825 0.4287313 -0.16199668 0.028195022 0.029375758 -0.035906456 -0.043481484 -0.1105897 0.22898152 -0.025002101 0.020705443 0.015370369 0.1287184 -0.06753045 -0.06959302 0.111908905 -0.004207663 0.111077175 0.05465677 0.14945902 -0.13700013 -0.046928555 -0.07288902 0.14496751 -0.06601895 -0.10681147 -0.1529277 -0.04214024 -0.08643414 -0.051924057 0.20109247 -0.05834095 -0.15289165 0.047401108 -0.06192212 -0.17321876 -0.14413838 -0.2431645 -0.10342564 -0.046589587 0.12522075 -0.07969333 0.2523622 0.20733386 0.2638716 0.13792802 0.15388823 0.0062838285 0.25365642 0.35977712 -0.018565116 0.1329992 0.1647638 -0.16795683 -0.14510116 -0.12399305 -0.075106665 0.19944629 -0.20034519 -0.15581441 0.011288203 0.11046097 -0.07625622 -0.05886051 0.1568536 0.04555821 0.04921729 -0.0034578764 0.05070608 0.11544128 -0.016678503 0.009687114 -0.2578494 -0.09870005 0.058516767 0.024152676 -0.063167505 0.20535675 -0.07482615 0.050047655 0.23199044 -0.052772675 -0.14797598 -0.099695995 -0.02500704 0.09706846 0.0011256054 -0.023747152 -0.03914087 -0.017765434 -0.054776456
4003 0.01198692 0.02811043 0.07964739 -0.024871264 -0.08526016 -0.13465862 0.06416775 0.08944473 -0.056530952 -0.15366764 0.17868893 0.24583082 -0.077484965 0.037967525 0.02260143 -0.008550051 -0.07604735 -0.029883675 -0.020761287 -0.026715135 0.008756704 0.1584954 0.07970695 0.022615608 0.12069151 0.011786914 -0.083519876 0.007682437 0.05619777 -0.14471212 -0.15783758 -0.101348944 0.06664618 -0.033215344 0.053312622 -0.051675722 0.109128915 0.07390907 0.27126855 0.12796116 0.1803636 0.07868988 -0.035438344 0.09686614 0.07730145 0.12243516 -0.15802051 0.09702106 0.12814792 0.047359616 -0.11927874 0.1540714 0.099716134 0.0030218805 0.082410194 0.17759782 -0.009349408 -0.10914337 -0.08065531 0.02176065 0.1196824 -0.19564955 -0.025986597 0.37326655 0.0779302 -0.1101779 0.10971575 0.083876595 -0.020168157 -0.16757636 0.15687717 -0.16269659 0.0027900587 -0.29071352 -0.16214454 0.13389088 -0.14224318 -0.096730985 -0.09627708 0.198967 -0.05447583 -0.043716606 0.077889316 0.1705214 -0.058677383 -0.0039606844 -0.10094534 -0.045092944 0.1880296 0.2117472 -0.1905398 -0.03757248 -0.13365972 0.025019353 -0.07069799 -0.021802165 -0.087572515 0.055800024 0.18715672 -0.029510196 -0.028881427 -0.03542571 -0.08064225 -0.037777945 -0.016391411 0.041705556 0.20607814 -0.014986347 0.11792819 -0.06435391 0.09366038 0.053689364 -0.02333528 -0.021948745 -0.21122976 0.051826503 -0.12277277 -0.03355479 0.26076522 0.110477 -0.058631595 0.01755389 -0.07512987 0.023002531 -0.1574284 -0.08466874 0.0018029389 -0.075787194
4011 0.07328493 -0.11115981 0.10877113 0.107569344 -0.12976275 -0.13940984 -0.09239423 -0.07601563 0.15271245 0.05908322 0.13109154 0.0024078644 0.07501892 -0.3111171 -0.05676342 0.00094692863 -0.23460379 0.14203413 -0.1635983 0.039072525 0.035332173 0.03220307 0.20986524 0.0716585 0.04120003 -0.10280934 -0.07131969 0.0060052145 -0.22589032 0.16579387 -0.29107744 -0.13261537 -0.14821254 0.012695648 -0.043561805 -0.04376476 0.1924494 0.058643375 0.4307764 -0.05460061 -0.016152343 0.13023856 -0.14056385 -0.09607316 -0.0534638 0.20105879 0.101164006 -0.0043739267 -0.031092357 0.059074763 0.04671265 -0.04552679 -0.033269767 -0.033694196 0.08138729 0.0139156515 0.1681567 -0.23113932 0.02491414 0.077057794 0.19010368 -0.15100284 -0.19454733 -0.011827723 -0.098024845 -0.075789414 -0.05806397 0.10149571 -0.15125622 -0.0075313514 -0.045965515 -0.14408506 -0.10660521 0.04675734 -0.16776653 -0.071544416 0.08205201 0.077376895 -0.022815347 0.24559475 0.12975878 0.30567726 0.18022205 0.21871082 -0.12728596 0.22669087 0.35293373 0.03918605 0.06305251 0.2655526 -0.06375107 -0.17971338 0.10848774 -0.15641865 -0.036580462 -0.17223297 -0.27365023 -0.030807827 -0.09894807 -0.16555978 -0.10229035 0.069130294 0.2398638 0.0759867 0.123650774 -0.015046358 0.049950957 1.691042e-05 0.016186932 -0.2362629 0.043545946 0.15852457 0.16140194 0.06631803 0.1368013 -0.046847697 -0.095373176 -0.02258711 -0.14046891 -0.026120719 -0.030631054 -0.14070427 0.110756636 0.18513529 0.004301177 -0.09974356 -0.0982828 -0.24413414
4005 -0.21119322 -0.07566153 0.03563309 -0.16287448 -0.11951191 -0.33133057 0.23699011 0.08634874 -0.23260854 -0.011697021 0.010504838 -0.13874367 -0.18068781 -0.26972932 0.033684917 0.009139359 -0.158772 0.112726316 -0.054731894 -0.051914684 0.021495663 0.3374767 -0.17653722 -0.08433621 0.10150957 -0.16972083 -0.11433318 -0.106932595 0.038958784 -0.15075605 -0.20267129 -0.14045294 0.072389446 0.05871348 -0.14292634 0.29488018 0.22622845 -0.21891223 0.31141886 -0.18754163 0.054893933 -0.06722129 -0.2251656 0.12889288 0.09761057 0.19533618 0.049973458 -0.15934707 0.06945137 0.07140652 0.23595296 0.13956672 -0.024900438 -0.1337636 0.12957023 0.2664718 0.099328145 -0.1140953 0.17486434 0.28831986 0.0048971153 -0.1907002 0.24335577 0.16041063 -0.08760083 0.18659148 0.3449067 0.074865356 -0.022345552 0.036166273 -0.05922027 0.030924255 -0.08678807 0.044536788 -0.12553209 -0.053446274 0.07305568 0.0930689 -0.003615956 0.14101793 -0.07743857 -0.045193907 0.19625135 0.13729441 0.056015965 0.050961796 -0.038803667 0.014764341 0.19064978 0.0127158705 -0.06462053 0.13123786 -0.081360295 -0.03252569 0.19209617 0.08163557 -0.09817878 0.014889162 -0.07672546 0.008829499 0.15488297 0.1344855 -0.118111596 0.054628674 0.17418915 0.09991281 0.015743084 -0.016464738 -0.12960452 -0.20268984 0.14098069 0.2143322 -0.05557913 0.18027118 -0.026663207 -0.05486334 -0.08616152 -0.06927438 0.23836952 0.21875603 -0.17962225 0.177137 -0.1255239 -0.06106043 0.2668006 0.012642302 0.21774574 0.18662307
3999 -0.18597344 -0.18972567 0.08335771 -0.022194508 0.025864676 -0.24370001 0.16367835 0.21512687 -0.23759194 0.07308641 0.14803942 -0.20122111 -0.2825782 -0.5930008 -0.07996765 -0.010578215 -0.0019757785 0.14553276 -0.10936444 0.123459205 -0.13663422 0.32928246 0.035946887 -0.10477329 -0.116529465 -0.1922457 -0.15969333 -0.047847405 -0.20607169 -0.2305551 -0.10224995 -0.12620664 0.0798404 0.09652621 -0.27544904 0.38587508 0.43927187 -0.23310661 0.3461503 -0.20117691 0.075451255 -0.013485217 -0.2738033 0.039900243 0.2527586 0.14004703 0.17427826 -0.1199802 0.079903096 -0.024860278 0.31862795 0.07734046 0.01259258 -0.05520621 0.15186478 0.23699811 0.26703778 -0.13830292 0.18247738 0.2610588 0.07862847 -0.4057448 0.30822134 0.28193825 0.02163179 0.3266307 0.25659075 -0.055369496 0.07571001 0.10768099 0.075735725 -0.06807078 0.09262905 -0.016689677 0.0653631 -0.18473992 0.11547133 0.08930107 0.051540855 0.19038649 -0.17134659 -0.1382938 0.149718 0.08599431 0.015182121 0.14280343 -0.06931775 0.13344702 0.27235729 0.008975462 -0.10777365 0.23389274 -0.100009605 -0.00029424674 0.25276533 0.22201645 0.00817123 -0.008798848 0.07585592 0.07546471 0.13451484 0.058827184 -0.11567805 0.014373055 0.025715396 0.09715753 -0.070927 -0.07646888 -0.21106917 -0.29071006 0.044833157 0.16553319 0.008699795 0.08213382 0.20575394 -0.124833636 0.0606301 -0.05066784 0.15876713 0.19913946 -0.23055634 0.15693468 -0.103256576 -0.014830624 0.10181394 0.07012243 0.33545688 0.123926856
3985 -0.040162202 -0.042623486 -0.0010527184 0.11690998 -0.14249143 -0.06698778 -0.064476766 -0.16164671 -0.18785553 0.0612205 0.32263896 0.004810482 -0.04819614 0.13284898 0.15951465 -0.16707434 0.050715726 -0.08126672 -0.10848265 -0.06467068 0.07053391 0.21996796 0.013628653 -0.20310883 -0.16189212 0.04807666 -0.5724003 0.023544725 0.05974062 -0.15433726 -0.28268117 0.05960971 -0.07847206 0.024283828 0.14120133 -0.283306 0.20528601 0.19129544 0.22630674 0.19834076 -0.12376322 -0.0030633316 0.20692801 -0.1770925 0.06991364 0.08062994 -0.124347664 -0.18599257 0.19660069 0.1907696 0.1387665 -0.13527326 0.35383806 0.033044606 0.09719737 0.53202707 -0.03609073 -0.09800395 -0.106368594 0.34201598 0.38254303 -0.09888503 -0.03559616 0.19438127 -0.058068793 -0.13407736 0.07204092 0.13783787 0.07175779 -0.3327112 -0.073732704 0.1325184 0.111051574 -0.08690088 0.109396204 -0.14014804 0.021489767 0.12697802 0.048979834 -0.014331004 -0.09969315 -0.17144081 -0.013296882 0.077182695 0.07298315 0.025764743 0.020757394 0.1512296 0.017018368 -0.23436186 0.049446866 -0.15521523 -0.11307511 -0.016026152 0.1691781 -0.13147336 0.17535318 -0.10423575 -0.093304865 -0.10979385 -0.18341297 -0.11768153 0.2780762 0.09920131 -0.28616667 -0.18383442 0.11090501 0.0069491686 0.19612342 -0.14435825 0.19811697 0.028694838 0.091456674 0.054877903 -0.22787896 -0.05039346 -0.008660769 0.23987089 -0.019812508 0.1415425 -0.17958921 0.17892358 -0.002194744 0.029477492 -0.20105673 0.13325353 -0.07584242 -0.20048064
4032 0.027160702 0.09822795 0.05276735 0.046583325 -0.06084716 -0.2421391 -0.09633931 0.11421816 0.018726787 0.117322914 -0.022760132 -0.044540755 0.003088453 -0.14677349 -0.17459738 -0.10611261 -0.034536716 0.011367419 0.02680416 0.024224909 0.19591449 -0.11797165 0.08419832 -0.021000499 -0.07172013 0.0056859376 -0.15534045 0.05512937 0.108243905 -0.12459026 -0.1019034 0.06600836 0.008403399 -0.009464919 0.020765057 0.049758125 0.24062021 -0.067711614 0.24753024 0.023295451 -0.06458203 0.07044256 -0.067934744 -0.068304464 -0.084578015 0.13910976 -0.028262125 -0.026594333 -0.20451859 -0.03797791 0.029770667 0.03206181 0.0050446754 0.2136868 0.25116494 -0.00053814665 -0.036627904 -0.13578331 -0.22061387 0.053746197 0.010079403 -0.13170478 0.1457007 0.15970777 -0.013337749 -0.22958845 0.3295038 0.15726551 -0.086830005 0.08686737 -0.0795524 0.05751967 -0.16853927 0.043217044 -0.15382434 -0.056281514 0.041759472 0.03633278 0.100568786 0.12384343 -0.09054309 0.019347837 0.16266066 0.068258904 0.14383641 0.08944716 0.21782799 0.026249787 0.0060192365 0.17177339 -0.06764727 0.06373728 -0.08586619 -0.04003035 0.15646824 -0.1436449 -0.17526673 -0.26285312 0.040162515 0.058756374 -0.26212117 0.05250797 -0.053040728 -0.11787797 0.12522937 -0.08907993 0.021210434 -0.1326706 0.14858223 -0.110293925 -0.0013154737 0.02676829 -0.09683682 -0.016210098 -0.18719012 0.03576379 -0.060074896 0.25352854 0.10970663 0.00063756166 0.01409058 -0.13568376 0.101445355 0.066018686 0.06579952 -0.18669465 0.056526825 0.073648274
4035 -0.01372151 -0.068772584 0.1805457 0.055964727 -0.08289066 -0.17041239 0.0828401 -0.0010550471 -0.050497543 -0.11709953 0.15310182 0.018048242 -0.16968212 -0.023785926 0.044616338 0.028871961 -0.010183712 -0.0016013671 0.007834624 -0.021311559 0.11082054 0.1834528 0.048497707 -0.016743474 -0.04032268 0.050898854 -0.14857368 0.049896184 0.0062279003 -0.21286464 -0.19075108 -0.114772 -0.004424059 -0.005700007 0.055747896 0.008114511 0.13698132 -0.027084084 0.15149446 0.0021818625 -0.0034250359 0.0808722 -0.048815224 -0.0031915891 0.097259335 0.08429479 -0.0026217755 -0.001405461 -0.004760779 0.031207459 -0.033458356 0.121096514 0.040612184 -0.0024151227 0.12769778 0.049266726 0.087891564 -0.014960861 -0.049639776 -0.0034126753 0.043771498 -0.09081885 0.09053778 0.11145096 0.020377953 -0.082386315 0.14467303 0.07215072 0.025150862 -0.07442713 0.104159676 -0.029292908 -0.19409156 -0.13720845 -0.09021722 -0.063141584 -0.06811532 -0.023380129 -0.042049635 0.17847987 0.07302171 0.0069387155 0.17652667 0.23128344 0.00963588 0.029508729 0.08698661 -0.020367477 0.07036751 0.18772826 -0.029947143 -0.14116932 -0.05115708 -0.035616003 0.12097459 -0.012881492 -0.11082234 -0.07345839 0.021432124 -0.00609653 -0.0992545 0.10346408 -0.01685591 0.070955575 0.10644434 0.03547247 0.06530942 0.0002613232 -0.0060587856 -0.17632893 0.033768903 0.014489877 -0.04677301 0.0023231956 -0.06017664 -0.056334663 0.07464729 0.035292946 0.058610603 0.03746729 -0.035647526 -0.004351832 -0.046646617 0.016421935 0.03609108 -0.014657443 -0.044128414 0.044433843
4024 -0.032794457 -0.046017736 0.11066582 0.06691412 -0.03576301 -0.12281785 0.0834 -0.031837564 -0.05486697 0.0029553815 0.16409251 -0.029078092 -0.18821377 -0.13067445 0.0024043762 0.010828917 0.029237254 0.0072509823 -0.03063021 -0.04736099 0.05995111 0.14378282 -0.005727879 0.020766823 -0.047120392 -0.008564124 -0.12258795 -0.002666893 -0.08039381 -0.06325385 -0.20896578 -0.088164076 -0.019128064 -0.028952902 0.04501106 0.12696822 0.21504657 -0.06452785 0.22935607 -0.034523893 0.015309269 0.022845846 -0.06071511 -0.0238505 0.0034812544 0.095747106 -0.0020654981 -0.029765623 -0.025132565 0.022124628 0.0560756 0.10295214 0.11682941 -0.03321116 0.08436915 0.06041431 0.09544099 -0.0069616637 -0.017977046 0.13552816 0.06509455 -0.10413412 0.06458713 0.12564668 -0.027801394 -0.09510087 0.08680254 0.05588524 -0.058831286 0.044862386 -0.0069815577 0.0035375718 -0.10249161 -0.0306347 -0.11513045 -0.10804061 -0.055654407 0.020463647 -0.0022756474 0.103994794 0.06348036 0.003738584 0.1263292 0.2040683 0.04740648 0.03639107 0.1659036 0.0014436605 0.020792319 0.106111094 0.015105075 -0.11180693 -0.021244774 0.008515583 0.107200556 -0.110891305 -0.1224669 -0.05881358 -0.043451406 -0.056417014 -0.070053905 0.034142166 0.018131573 0.13274582 0.1333199 -0.0059120143 0.064936526 -0.013021679 0.041294754 -0.18947807 0.045095854 0.004503715 -0.051804624 -0.016558886 -0.012406927 -0.0259148 0.032937676 0.07136995 -0.0333233 0.10326054 -0.017618664 0.033693224 0.031580463 0.049324453 0.004101675 -0.040522203 0.058828227 0.006549074
4016 0.022076664 -0.010371086 0.12352249 0.11551073 0.17817412 -0.171256 0.15248692 0.13217835 -0.02226152 -0.07636995 0.23116235 -0.088239305 -0.010554843 -0.24646807 0.22588967 0.17916675 0.21261348 -0.039350204 -0.11902116 0.120509185 -0.046042178 0.29129365 -0.06350724 -0.15547995 -0.08622382 0.05765762 -0.004822648 0.082529984 -0.0669728 0.05474 -0.04976362 0.004523283 -0.12450198 0.17988107 -0.024797376 0.05255133 -0.010800655 -0.050904013 0.18807355 -0.10569618 0.07998221 0.18864602 -0.0448717 0.10774337 0.10069055 -0.0110670645 0.01645479 0.21997698 -0.22085568 0.06979562 0.13604277 0.07169011 0.263492 0.06698581 0.14053053 -0.04373941 0.34537542 0.11178592 -0.042236023 0.02510589 -0.10908476 -0.0667046 0.15312058 -0.120356776 0.2036151 -0.10046232 -0.025560651 0.012448795 0.055166803 -0.10958533 -0.007249664 -0.14135496 -0.23383124 -0.22734775 -0.07460412 -0.15722343 0.02438203 0.11521962 -0.33507922 0.2475169 -0.11244966 -0.026741931 0.056813553 0.30496162 0.076195665 0.11600617 0.12890083 -0.050995037 0.036148604 0.28456107 -0.069023594 -0.28829205 -0.10000814 -0.04758877 -0.033759534 -0.11814773 -0.067780584 -0.10746299 0.0088304095 -0.13134655 -0.25787905 -0.32117096 -0.17933671 0.097322546 0.31688172 -0.11101382 -0.098620586 -0.031071158 0.049698416 -0.2737922 0.0828367 0.018683543 0.030141493 -0.07724752 -0.18443011 -0.081138186 0.054438837 -0.00089638977 0.08231853 -0.085888855 -0.09816268 -0.012497805 -0.13799354 0.08089093 -0.03471507 -0.09388997 0.017281517 0.12637575
4028 -0.07038129 -0.2243915 -0.013056366 0.00794348 -0.07738823 0.030519726 -0.034176763 -0.071510434 -0.050791148 -0.05158207 -0.1559926 -0.0054065604 0.021322617 -0.073400654 0.10658459 0.14607683 0.14613917 0.116577946 0.10576259 0.044398796 0.25867063 0.10114519 -0.16011058 0.06936685 -0.055020005 0.14989327 0.014975555 0.018285457 0.17404778 -0.18158196 -0.23787971 -0.13863772 -0.114068314 -0.14512582 0.022916602 0.26666096 0.076522574 -0.22935003 0.052219745 -0.100653306 0.1653766 -0.124992125 0.010597335 0.16797017 -0.01327222 0.44388258 0.07597585 -0.046204578 0.13010857 -0.26357827 -0.19464545 0.094663925 0.41033652 0.079155594 0.3405991 0.043048084 0.16191351 -0.0062788483 0.06288941 -0.03677083 0.19402133 -0.21528941 0.11894387 0.29377913 0.078454256 -0.13840404 0.16378583 0.03272416 0.014501534 -0.035183094 -0.21275738 -0.07323962 -0.34985888 -0.14260739 -0.043752607 -0.055395585 -0.0042373314 0.4000628 0.025725218 0.11601498 -0.08673743 -0.023998747 0.10473484 0.26152954 0.3348869 0.12489935 0.061855134 0.0090174265 0.09187273 0.14060058 -0.15775554 -0.091080405 -0.128666 0.28541607 0.096851416 -0.17040478 0.008209169 0.061806306 -0.0557958 0.24750982 0.0077425684 0.007789415 0.034369625 -0.09884584 0.17016351 0.17459878 -0.04537745 -0.08257825 0.20685388 -0.35132867 0.013935569 -0.08510533 -0.006282279 -0.11841954 0.049497698 0.08817489 -0.091954045 0.15246445 -0.053023938 -0.13756739 0.0134576 0.060976386 0.06431286 0.052574564 -0.1505444 -0.25864083 -0.014799781 -0.01421834
3991 0.032388825 -0.084784225 -0.020061646 0.21204653 -0.024854284 -0.0135716265 -0.18391648 0.042533964 0.09329342 -0.02405578 0.09013308 0.05831993 0.19083099 -0.33889627 -0.06740447 -0.10864352 -0.2122297 0.12007202 -0.28833765 -0.041641317 -0.0327025 0.05881102 0.29453886 -0.013996056 0.15188329 -0.09034094 0.102466784 0.0053445166 -0.13372001 0.19525442 -0.208048 -0.05014289 -0.1523481 -0.09827154 -0.10991853 -0.06354348 0.16429694 0.060945086 0.39640364 -0.15636156 0.025347674 0.06345442 -0.12955008 -0.10620578 -0.018995907 0.19595176 0.08233152 -0.080960914 0.051914316 0.11868992 -0.013344201 -0.036993384 0.056572564 0.005831406 0.21238413 0.014578926 0.19017982 -0.21231623 -0.051026877 -0.06446935 0.2734296 -0.20877841 -0.10738713 -0.0463647 -0.0666489 0.0036539403 0.01843569 0.23707429 -0.07182768 -0.188695 0.032404322 -0.14691916 -0.085590325 -0.059340484 -0.15939508 -0.07046263 0.055754222 0.1983523 -0.0063736066 0.2834725 0.18833718 0.37056333 0.17375766 0.21155304 -0.081689216 0.2871237 0.4304948 0.059020273 0.1818552 0.28169638 -0.19155155 -0.06919501 -0.014034004 -0.1310713 0.21305199 -0.16749093 -0.2935795 -0.069601625 0.051423773 -0.119156994 -0.06750781 0.14305429 0.15646751 0.017900813 0.027818382 0.0036497414 0.040435422 -0.05680612 0.053304367 -0.19118778 -0.004535833 0.14684837 0.11150331 0.078177184 0.14161776 0.0032672791 -0.07420524 0.103022724 -0.112849295 -0.023605486 -0.035697345 -0.041705742 0.20309754 0.035133544 0.02127083 -0.12505968 -0.08304352 -0.18036085
3993 0.06256867 -0.17730935 -0.09329727 0.2666311 0.18461205 -0.13923615 0.04702955 -0.035082545 -0.11800547 -0.12403509 0.27536973 -0.052475657 0.23060095 -0.06865436 0.25600076 -0.23094165 0.02318913 0.08346586 -0.3524726 -0.019751986 0.070573874 0.14700967 0.02153269 -0.15859121 -0.010939759 0.07629113 -0.37055802 -0.14001238 0.11832359 -0.16499968 -0.38440895 0.18663199 -0.13279699 0.03561481 -0.09512781 -0.05513622 -0.05939299 0.09820213 0.13139465 0.13644819 0.019584974 0.01458032 0.19217244 -0.2451317 -0.030228857 0.03138214 0.046970893 -0.26139396 0.10404144 0.328442 0.13061887 -0.027271872 0.46528074 0.009135734 -0.145112 0.3169178 -0.06947762 -0.009499864 -0.19972508 0.19131614 0.4191891 -0.19567278 -0.03140397 0.37579918 0.018130835 -0.021331973 0.05969833 0.25192827 0.020999873 -0.22934994 -0.07556228 0.04009207 0.046503123 -0.013077814 0.17876384 -0.081103176 -0.11318033 -0.00448545 0.12129571 0.07136555 0.022592725 -0.113106966 -0.030811217 0.11854571 0.001445985 0.17686571 0.13428627 0.042019784 0.10992623 -0.107418746 0.17413773 -0.1641957 -0.11150778 0.08595559 -0.055727754 -0.003042862 -0.021223066 -0.22382553 -0.002886616 -0.20535752 -0.11456876 -0.16021514 0.22958301 0.0397722 -0.23812903 -0.13238208 0.064469345 -0.058674335 0.41131553 -0.026569257 0.18702368 0.047525346 0.1945524 0.08451013 -0.2954551 -0.058081802 -0.2709234 0.03398199 0.06292634 0.25425953 -0.15767092 0.032196883 0.14716755 0.14115132 -0.061160907 0.20592362 -0.06765025 -0.012356878
3983 0.08697447 -0.034237146 0.26869193 -0.14501633 -0.11357609 0.0016518538 -0.12951297 -0.1442949 0.062238816 0.038035624 -0.021454543 0.07083593 -0.23699206 -0.13639745 0.13838384 0.0090118535 0.11250942 0.008629871 0.15772352 0.04822386 0.0021227137 0.017676808 0.024873134 0.078154355 -0.032664873 -0.037448734 0.031578325 -0.036371317 0.04643263 -0.04531221 0.057853658 -0.019069595 -0.13557027 0.07031271 -0.005642248 0.062216848 0.17047377 -0.083006226 0.1554885 0.10567269 0.038152367 0.0029159845 0.04140371 -0.007512451 0.079382874 0.07151235 0.17664394 -0.05822313 -0.17377357 0.04741476 0.14681105 -0.021875288 0.028576646 -0.10779361 0.10802095 0.21407126 -0.018804025 0.091695346 0.056983907 0.011291809 0.031858664 0.02124098 0.02759666 0.23021835 0.2397207 -0.14664546 0.27003056 -0.066531464 0.09217779 -0.1355165 0.019046864 0.056606505 -0.29893076 -0.06744291 -0.09507009 -0.08975896 -0.021267343 -0.06809669 -0.014252304 0.20478489 0.1474016 -0.014744821 0.06754207 0.18617766 0.05712313 0.14390498 0.18022285 -0.017872272 0.08465614 0.060904846 -0.14123267 -0.2976888 -0.001297204 -0.03601521 0.1491098 0.019124335 -0.21558988 -0.16305503 -0.054568853 -0.08679438 -0.0050397962 0.15197569 0.3194199 0.17219904 -0.017480973 -0.0654431 0.21449572 -0.10017831 -0.01222752 -0.3261067 -0.10260276 -0.106688485 0.08771516 0.023560012 -0.15914024 -0.11102644 0.08668261 0.06923074 -0.058759727 0.09702906 -0.11517444 -0.044612322 -0.11286512 0.09359252 -0.096717134 0.056823988 -0.0904933 -0.017354822
4037 -0.06812201 0.015187653 0.1072752 0.12177687 -0.15822645 -0.21165815 -0.10426268 -0.04834816 -0.1529609 0.1001735 0.23905727 -0.06789924 0.0016451717 -0.022559395 0.12109873 -0.076823816 0.113474905 -0.07035802 0.03451902 -0.00523993 0.04886551 0.27358964 0.08231414 -0.05076515 -0.11751738 0.06316639 -0.27483338 -0.06735754 -0.059753988 -0.1580375 -0.13717495 0.09413194 -0.06436133 0.08137586 0.09717796 -0.054688096 0.2820341 0.13504876 0.07233751 -0.023751352 -0.09995241 -0.08812699 0.091113836 0.0835988 0.06571325 0.021405954 -0.2179932 -0.06841866 0.16280131 0.05799921 -0.15872853 -0.050490003 -0.00609637 0.05535706 0.17889231 0.060798816 -0.24873996 0.06654957 -0.034081616 0.14261597 0.13029748 -0.033310033 -0.039416008 0.05809717 0.12522547 -0.08983136 0.07784558 -0.035831418 0.056140255 -0.27715635 0.06584624 0.10218628 -0.115112066 -0.16482216 0.037180845 -0.10551962 0.0622619 0.05221328 0.040870212 0.21390797 0.10611337 0.016347015 0.05814033 0.25430828 0.088007085 0.068078734 0.062372286 0.15347403 -0.003761806 0.11614206 -0.20999034 0.029190497 -0.0706496 0.03848175 0.41635567 0.045359936 -0.11747258 -0.049369927 -0.050451912 0.027356766 -0.016321909 -0.01794246 0.23727944 0.025518827 -0.20914607 0.0009909958 0.066581994 0.10046666 0.15617293 0.0017238274 -0.047766697 0.030768018 0.17696276 0.08495282 -0.3279499 0.0016858804 -0.16258343 0.25133297 -0.016194593 0.1172148 -0.088633664 -0.0028015948 0.10398068 0.0006113785 -0.06058381 -0.20199591 0.0032788757 -0.019794777
3984 -0.07077475 0.036498383 0.033571515 0.09151967 -0.02319637 -0.1086624 0.045622203 -0.03371126 0.030825708 0.008176402 0.096073456 -0.05626901 -0.10730218 -0.106564574 0.05091628 0.0030197727 0.06674039 -0.08273361 0.07528295 0.05460653 0.044933453 0.08867871 -0.04209427 0.07819692 -0.17168832 0.08095956 -0.047601257 0.086393185 -0.07959096 -0.16304465 -0.17327733 -0.12078677 -0.07619138 0.056425773 -0.04033077 0.11503556 0.21400875 -0.026077908 0.22468778 -0.03647728 -0.08411722 -0.009083911 -0.058252107 0.020969428 0.016416447 0.082651205 0.06591015 0.058775395 -0.060201462 0.06312702 -0.064098544 0.11809805 0.07931002 0.037691165 0.054581456 -0.045447346 0.048532814 -0.009147649 -0.09761727 0.09695767 -0.03072141 -0.09666392 0.15726027 0.06477372 0.0995844 -0.116988085 0.11732388 -0.00565166 -0.05527918 -0.03959585 0.04341878 -0.042463023 -0.25559336 -0.07434637 -0.122991845 -0.1306546 -0.032245625 -0.10098277 -0.030889677 0.1915468 0.09337662 -0.007949447 0.13441858 0.2580663 -0.030513948 0.011540172 0.1606294 -0.009312196 0.050212234 0.038679533 0.05244452 -0.17533259 -0.039325383 0.067877784 0.07644881 -0.031036885 -0.2062631 -0.13490292 -0.037359484 -0.015666606 -0.1627391 -0.00795313 0.050918188 0.15050898 0.14284277 -0.016765106 0.115862936 -0.032004036 0.033034947 -0.18000917 -0.015720949 -0.006955763 0.0410732 -0.022971585 -0.08321329 -0.027823197 0.004467224 0.042653717 0.025193516 0.04180732 -0.043734144 -0.05810242 0.029343864 0.124493755 0.077654794 -0.14181522 0.090828314 0.13347103
4015 0.033510488 -0.08167395 0.14775321 0.07053616 0.024038317 -0.14985715 0.08994776 0.017217496 -0.009876534 -0.10550508 0.16234323 0.0005281262 -0.07954159 -0.13817187 0.13637038 0.07500452 0.06636941 -0.010565696 -0.021751674 -0.032122497 0.09407115 0.21081813 0.051542643 -0.09712115 -0.046801623 0.032863133 -0.09792077 0.047068987 0.06209153 -0.118351966 -0.13279086 -0.062163886 -0.062202368 0.03250245 -0.0037382261 0.11875011 0.10667795 -0.007421481 0.22039568 -0.018846678 0.13366891 0.10678759 0.008489257 -0.00032017674 0.11414396 0.088270366 0.08266702 -0.03781824 -0.06852428 -0.013651776 0.07087969 0.1100988 0.14132944 0.040000264 0.20017011 0.022661027 0.15653116 0.06210628 -0.04207519 -0.047917616 0.047798883 -0.0815982 0.08820567 0.16684076 0.13404357 -0.093783095 0.15085696 0.046383597 0.0607243 -0.0031340867 0.040183887 -0.0029609785 -0.19718127 -0.06559031 -0.011313265 -0.06600207 0.026056802 0.02062702 -0.013764451 0.1960468 0.025341095 0.0070291315 0.043197908 0.19788407 0.120258324 0.10533747 0.14703245 -0.06863023 0.017667493 0.1919589 -0.0619456 -0.14393485 0.013913191 0.0011283248 0.025584051 -0.041328643 -0.10192511 -0.10373486 0.0064958595 0.01950669 -0.09387401 0.03104948 0.007880928 0.012758942 0.12278973 -0.034364183 -0.007184962 -0.05291312 0.113782346 -0.16549438 0.04144961 -0.028155578 -0.08664792 -0.0030775757 -0.07047834 0.0048678135 0.09769235 0.031371698 0.040540025 0.025334695 -0.050683632 0.019479359 -0.020216972 0.019888787 -0.02593665 -0.072869144 -0.03769923 0.030465893
4006 0.014589076 -0.010338309 0.1258608 0.08100497 -0.112127975 -0.099278435 -0.07076631 -0.028177494 0.09568002 -0.07460851 0.14349635 0.05970075 -0.20834953 -0.11527219 -0.0427299 -0.0048584505 0.0032901308 -0.02068858 0.09353146 0.025223207 0.0732208 0.037460513 0.01511719 0.012342829 -0.059829 0.03199196 -0.13030201 0.0068523893 -0.015904112 -0.22170623 -0.032558993 -0.098378845 -0.0064859376 0.0130859995 0.14860223 0.008070028 0.08737121 -0.021476815 0.057280757 0.046984307 -0.03389416 0.058515154 -0.04219965 -0.014795674 0.08449997 -0.049621496 0.010529101 0.089073546 -0.056799345 0.0446211 -0.064401716 0.13770644 0.0010379944 -0.0007181005 0.20626976 0.09525736 0.06217616 -0.008392453 -0.08694182 0.042206004 0.022861488 -0.08039981 0.100618884 0.14871806 0.07993519 -0.14199327 0.2771944 -0.006067532 -0.00357734 -0.025161231 0.053741973 -0.053541537 -0.25501332 -0.09488904 -0.14730471 -0.05519873 -0.050198942 -0.09091474 -5.525448e-05 0.23550454 0.13324563 0.0035760482 0.17840737 0.21779275 0.037641417 -0.0038323775 0.13568524 0.031177742 0.038278136 0.19784066 0.006663118 -0.21621765 -0.058907297 -0.034838445 0.09795669 -0.030030806 -0.20418178 -0.060388464 -0.071124315 0.0455708 -0.16518083 0.099196374 0.060042955 0.13817036 0.18013585 0.07275245 0.13179533 -0.099355794 -0.052357618 -0.19066742 -0.034275454 -0.010384659 0.0052470546 -0.027066633 -0.14148772 -0.07970627 0.018989258 -0.0073441025 -0.0023592287 0.0838179 -0.01959165 -0.0091944225 -0.060032967 0.06315694 0.020583265 -0.058602188 0.070379056 0.0033705796
4008 0.05766962 0.025181863 0.13857748 0.14705022 -0.0020852971 -0.13035758 0.03547067 0.06775585 0.0154419085 -0.09807775 0.113122545 -0.012146542 -0.12206927 -0.11889308 0.03637527 0.016601533 0.05639562 -0.060117632 -0.057149846 -0.018790172 0.12482005 0.05196423 0.1228111 -0.0409253 -0.08670067 -0.009505041 -0.07421626 0.04197245 0.024673887 -0.16270076 -0.13522474 -0.030776227 -0.080276564 -0.025653988 -0.015996652 0.10207961 0.10966532 -1.5416692e-05 0.16984507 0.009935359 0.078135334 0.09640383 0.022874348 -0.040319 -0.036454808 0.09793689 0.06604907 0.017637849 -0.05528049 0.07375678 -0.007941557 0.108204156 0.0945883 0.059875723 0.1241147 -0.035483383 0.077874854 0.001630318 -0.13673396 -0.012497308 0.084253006 -0.12650672 0.09740197 0.19020861 0.10039598 -0.139461 0.15945746 0.07545165 -0.018879049 -0.006463557 0.022350388 -0.010997645 -0.16908413 -0.08212031 -0.0604682 -0.06422534 -0.021302499 -0.08810594 -0.04542207 0.17451383 0.10902999 0.054235954 0.08709468 0.10794086 0.061586455 0.06478218 0.20198362 -0.025032898 0.022035211 0.16780964 -0.032356713 -0.15351972 0.006076078 0.0055821873 0.03763421 -0.062007677 -0.17267185 -0.13403504 0.023519205 0.024187054 -0.13130637 0.10342585 0.027130172 0.031557363 0.1734575 -0.05986063 0.089963466 -0.01229506 0.11591592 -0.16487306 -0.07036084 -0.021110019 -0.021251766 -0.03390903 -0.036088604 0.015747802 0.10241442 0.10935456 0.11844936 0.0028317114 -0.0036779812 -0.03219752 0.032158133 0.012122381 0.06758192 -0.080681294 0.0372957 0.054945365
4010 -0.03963372 -0.032864068 0.10179798 0.117143996 -0.06483942 -0.15460122 0.07952299 0.002896827 -0.041438077 -0.0978752 0.22368737 -0.018151583 -0.19736229 -0.044850588 0.11524642 0.0033919772 0.051707037 -0.14298634 -0.002699755 -0.10236743 0.03453028 0.1262784 -0.09139624 0.07072962 -0.097704284 0.09739437 -0.079260476 -0.022313427 8.5620755e-05 -0.28442386 -0.12267773 -0.11446922 -0.026630206 -0.060725007 0.12438059 0.21847993 0.16256833 0.007900325 0.20043187 -0.0011122443 0.07826717 0.037111696 -0.0298535 -0.0030377603 0.08466212 0.043482132 0.021514729 0.029565472 0.016419727 0.041859042 -0.09062382 0.1855575 0.08402328 -0.018190958 0.16768692 -0.023147028 0.035643753 0.034996945 -0.122314624 0.030856581 0.024959361 -0.09152142 0.095846124 0.31753972 0.14159632 -0.05419031 0.18426295 0.022857461 -0.023675475 -0.06101777 0.07116887 0.029489696 -0.17144527 -0.068496585 -0.05240055 -0.0020596718 -0.025328139 -0.0052412706 0.105733365 0.19106436 0.09266738 0.002824822 0.12902272 0.14196706 -0.013178438 0.037199125 0.07517499 0.055597622 0.0040591443 0.13815916 0.05436391 -0.07385876 0.0036875822 0.063138336 0.065195784 0.0016723754 -0.2539489 -0.09667071 0.052880157 0.03303373 -0.07786932 0.106759995 -0.0029369374 0.08942254 0.14736067 0.0496125 0.075110964 -0.038856048 0.07848403 -0.06915936 -0.041707817 0.0705089 -0.0043541463 -0.007182594 -0.05415631 0.009776648 -0.100219704 0.03917498 0.03402293 0.15850632 0.07299907 -0.022476293 -0.008585751 0.033523727 0.06735167 -0.09379053 0.12653759 0.032998808
