55 128
3980 -0.0755937 -0.07225859 0.16428195 -0.011785797 -0.009179416 -0.033338297 0.05558219 -0.029240754 -0.04828815 -0.01965756 0.15893854 0.08007717 -0.05090657 -0.051232655 -0.060805917 -0.08501696 0.04011709 0.023503995 0.058171183 -0.06922946 0.051680095 0.035909243 0.067845054 -0.06192894 0.038887896 0.034792304 -0.046380937 0.081416175 0.060740042 -0.03613696 -0.057252895 0.04807959 -0.007789335 0.009044839 -0.002334802 -0.05644536 0.10156119 -0.13441655 0.068753295 -0.0372576 0.042214103 0.11308873 -0.030025186 -0.048529554 0.09595089 0.08913536 -0.033165526 0.02159749 0.061300613 -0.0053358497 0.13906732 -0.04643989 -0.07199891 0.016567739 0.11402662 -0.022457663 0.11685349 -0.16779023 -0.036848508 0.11847174 0.11812704 -0.1980909 0.0042009586 0.018013079 -0.014432677 -0.122261606 -0.010597632 0.13491209 0.0018609923 0.035069607 0.059485786 -0.038312316 -0.15972687 -0.17268494 -0.028908696 -0.1305758 0.052228834 0.013752398 0.080874324 0.037600387 -0.076883025 -0.06956736 0.08595445 0.22891025 0.064577706 0.09416583 0.13662861 -0.03554242 0.096389 0.113946296 -0.050052896 -0.015654426 -0.06159599 -0.036508985 0.124766335 -0.08421351 0.025247753 -0.17459998 -0.07414749 0.12666127 -0.07926596 0.12939015 0.086390585 -0.009299063 0.10504003 -0.08287749 -0.00889495 -0.11464406 0.054135703 -0.15964735 0.13259682 -0.095498025 -0.028272307 0.03702216 -0.02863893 0.08661453 0.042754617 0.11501459 -0.005772129 -0.1139648 -0.07733119 -0.031704955 0.08142459 0.10888556 -0.19149844 -0.03511208 -0.19518924 -0.12833542
4001 -0.1302916 -0.055265073 0.27172506 -0.011381875 -0.16277003 -0.25924984 0.020519447 0.1049754 -0.08053689 -0.01472956 0.20403844 0.14350899 -0.03311879 -0.11650521 -0.09696753 -0.05415947 0.052863244 0.086415336 0.07904083 -0.055258527 0.06549528 -0.030601861 0.12040362 -0.1249763 0.039593313 0.0012787929 -0.17872155 0.13039331 0.10537263 -0.19166335 -0.0984141 0.10076334 -0.077629514 -0.054184318 0.1328043 0.01628233 0.090067476 -0.11703684 -0.011100146 -0.01599525 0.065859236 0.15703747 -0.03282343 -0.13851325 0.08720763 0.076427355 0.00044989027 -0.042689953 0.08221269 0.046128005 0.08398912 -0.058580235 -0.033930495 0.044852305 0.21157567 -0.046993513 0.04329748 -0.10610047 -0.035631444 0.14900625 0.08245247 -0.17074877 0.083557054 0.10164496 -0.12243968 -0.017517373 0.015521748 0.105683826 0.009729221 -0.04142987 -0.042164296 -0.029942224 -0.073356695 -0.17356431 0.017907003 -0.17433088 0.13398407 -0.0014854351 0.05292887 -0.04026748 -0.13660671 -0.06479715 0.10772225 0.16383414 0.1285465 0.059854936 0.058105174 0.109730676 0.15580985 0.13890867 -0.067579366 0.0013885408 0.09737721 0.0038488447 0.1151312 -0.072021335 0.16272072 -0.06426525 0.034156594 0.17576605 -0.0904043 0.12757848 0.044801064 0.00053465465 0.11087073 -0.11804884 -0.057498015 0.01703831 0.05547867 -0.17390434 0.16711414 -0.048787076 -0.037851747 0.056631412 -0.029811546 0.045697555 0.10482701 0.051776662 0.019093663 -0.042271726 -0.0827836 -0.03749082 0.0935946 -0.007015494 -0.115544036 -0.02390972 -0.20960489 -0.18032664
4018 -0.105198346 -0.28014785 0.18051708 -0.012278849 -0.0012174643 -0.09819197 -0.045287248 -0.10854918 -0.09061692 0.11843262 0.24630846 0.12291814 -0.06185219 -0.04609392 -0.0748375 -0.18671651 0.020532265 0.04412455 -0.05150304 0.027356917 0.22695558 0.10719315 -0.037463993 -0.05688783 -0.026153369 -0.05636424 -0.22617458 0.12572257 0.00071853865 -0.10980527 -0.20913857 0.014616537 0.13849433 0.025627948 0.161337 0.0019092425 0.11755127 -0.18611637 0.004143889 0.15788303 -0.042847265 0.00663386 0.012338874 0.0218233 -0.06985992 0.07733157 0.0059062443 0.075094916 0.08547675 0.035237517 0.09919288 0.1378756 -0.07233069 -0.095066436 0.029767262 0.11967162 -0.024151035 -0.14366046 0.02947275 0.109190665 0.091253325 -0.16402033 0.017181505 -0.0077455356 0.0036887054 -0.06348416 0.048775904 0.13365631 -0.020266136 0.07098385 0.08849424 -0.072561674 -0.098616906 -0.10733086 0.017628716 -0.08737313 0.01723505 -0.019417344 0.12828632 -0.007649649 0.07466911 -0.13405013 0.06250633 0.17532271 -0.007011478 0.12956896 0.06403336 0.005181333 -0.034913935 0.056867704 0.02776928 0.2180304 -0.12586096 -0.027687257 0.2217859 -0.061926335 -0.14852531 -0.28570238 -0.09917372 -0.055456746 -0.007850738 0.06236335 0.05634149 -0.097669326 0.0017725225 0.0688588 0.066494495 -0.14624855 0.09342623 0.003711614 0.009655107 0.10142803 0.04075468 -0.05974152 -0.03703572 -0.054825086 -0.1318165 0.12617467 -0.146904 -0.10029898 0.0056810942 0.034538206 0.02992759 0.055051476 -0.106174 0.11620455 0.009815055 0.04007064
3994 -0.06028597 -0.21880522 0.06521023 -0.07961864 -0.054214034 -0.10336578 -0.12753011 -0.09838446 -0.042673226 0.10990959 0.12590654 0.048038255 0.07743883 -0.0124382395 -0.1347247 -0.10088691 -0.1279254 0.15665476 -0.10079942 0.051765632 0.15847565 0.018303271 -0.11484558 0.03817906 0.05423424 -0.04172432 -0.17823632 -0.042140976 -0.07501091 0.009092905 -0.12510169 0.08233477 0.11116114 0.09355626 0.1939667 -0.06442524 0.12409597 -0.13889115 0.048671562 0.11034432 -0.012672482 -0.0058169924 -0.09173393 0.06429454 -0.0726781 0.012095834 0.044980515 -0.029621264 0.07767196 0.011789257 0.13880499 0.062375315 -0.10472174 -0.11569085 0.10407448 0.097694546 0.053838838 -0.15362166 -0.029177312 0.19542333 0.16301337 -0.12860738 0.05779661 -0.07659643 -0.08344011 -0.019776566 0.07504248 0.15290913 -0.012987083 0.04050703 0.0025442496 -0.029808559 -0.16280094 -0.12336525 -0.0026990694 -0.08659454 0.058611743 -0.0373181 0.09987183 0.008942745 0.049028154 -0.084064044 0.12121117 0.1581827 0.035459068 0.17148589 0.067031994 -0.033216015 -0.07766307 0.18270509 0.010612056 0.16021249 -0.033355154 -0.044555176 0.20152998 -0.04835466 -0.15409184 -0.21463904 -0.10583402 0.016989514 0.039672665 0.11294096 -0.002673713 -0.11025959 -0.019881174 0.084903374 -0.044214804 -0.07064839 0.114987515 -0.028776903 -0.010336045 0.0036876157 0.12012824 -0.025012773 -0.15193646 -0.10057377 -0.20265618 0.20070343 -0.1632404 -0.09278568 -0.068102784 -0.0472916 0.02032653 0.053995933 -0.06847496 0.15656385 -0.20215099 0.10981595
4029 -0.09992092 -0.02560527 0.25652185 -0.033534963 -0.15756072 -0.2543478 0.10728644 0.14373265 -0.10146185 -0.019804057 0.21894895 0.114398465 -0.110268995 -0.04445732 -0.0789447 -0.05510731 0.098491326 0.03366315 0.0970349 -0.19416548 0.085097395 0.027124207 0.109605126 -0.083796024 0.04196625 -0.0475898 -0.10162472 0.1396137 0.15082435 -0.10953948 -0.15818575 0.017493064 -0.077868715 -0.10721664 0.087443076 -0.002775169 -0.00085902365 -0.21189342 -0.09881452 -0.08082399 0.029177336 0.14918636 -0.040160645 -0.06454149 0.07022041 0.15192813 -0.009205317 9.229079e-05 0.0377071 -0.020250108 0.094477 -0.06838161 -0.072628506 -0.023637485 0.1040023 -0.08226458 -0.006892403 -0.16964942 0.023995202 0.06042507 0.123008996 -0.27090472 0.10194632 0.08408466 -0.08221567 -0.024134887 -0.05502101 0.08671741 0.11149355 -0.05794287 -0.056416225 -0.101574406 -0.20589213 -0.2687875 0.0003179303 -0.15903021 0.08951 0.014706748 0.029678976 -0.072308615 -0.24405801 -0.0686989 0.18188028 0.1339219 0.1035804 -0.02906183 0.04875729 0.021941457 0.19629353 0.15176289 -0.11828579 -0.010451149 -0.020944722 0.068611056 0.2229077 -0.09926917 0.13172744 -0.10156673 0.08402535 0.15554792 -0.05960484 0.16031243 -0.010647494 -0.044814486 0.022144957 -0.02900575 -0.031716518 0.0014660154 0.06697983 -0.13860644 0.18232831 -0.07180106 -0.042932775 -0.023241682 -0.014858106 0.09456947 0.19445361 0.09322383 -0.015923066 -0.13326727 -0.012968849 -0.014380613 0.027846038 0.019443003 -0.12973374 -0.028333863 -0.14355464 -0.1323583
3981 -0.017561596 -0.31373653 0.13178954 -0.050008357 0.026189765 -0.05456602 -0.11952258 -0.101549394 0.0043752776 0.081895664 0.24521618 0.035188682 -0.0014127982 0.07228535 -0.19956045 -0.15454872 -0.10240041 0.036885776 -0.13480689 0.030908963 0.15116526 -0.0066829263 -0.07938399 -0.05020741 0.024058294 -0.0423146 -0.29463518 0.06869367 0.033578686 -0.002198271 -0.20340474 0.117179 0.12041016 0.04383505 0.20401688 -0.0024075161 0.1574729 -0.08334462 0.023074549 0.21943581 -0.067389295 -0.067271695 0.018001093 -0.08401266 0.04536619 -0.06010446 -0.0022112648 -0.072595 0.016306961 0.08836322 0.08316866 0.13319796 -0.14647396 -0.14048056 -0.00437427 0.1626237 0.09650493 -0.20846534 -0.011634761 0.1591593 0.20451799 -0.14304003 0.0803623 -0.0441907 -0.101185925 0.013845415 0.08195762 0.12961534 -0.13907972 -0.012161248 0.0627475 -0.06511921 -0.09316999 -0.045977794 0.07869137 -0.20074138 0.09851028 0.055024695 0.21159486 -0.07654962 -0.009665914 -0.024959786 0.06134542 0.006131613 0.0380815 0.07618893 0.055169683 0.048457798 0.0012657855 0.08488889 0.014858752 0.18850355 -0.07932632 -0.012090458 0.17371441 0.052272495 -0.13864775 -0.33884358 -0.145736 0.054242536 -0.037072502 0.1769941 -0.045017768 -0.13807067 0.0042944634 0.04696903 -0.051881034 -0.12122623 0.04510995 0.0063234875 -0.039615497 0.09928771 0.06733275 -0.013313912 -0.009021884 -0.017970039 -0.13534167 0.123248145 -0.20366248 -0.082407095 0.10973661 -0.0518291 -0.03688004 0.122602455 -0.00043073177 0.16460621 -0.14883238 0.12001326
4020 -0.027508004 -0.1451445 0.13193901 0.11112174 0.07235932 -0.25659224 -0.023811826 -0.07990926 0.07365465 0.031548616 0.029620267 -0.07964482 -0.042306628 -0.053304326 -0.107766055 0.03321638 0.020159496 0.007986236 0.0024933359 0.1638703 0.171439 0.0025400722 -0.10184375 0.0030742146 -0.0987746 -0.014326047 -0.16425896 0.07041934 -0.08968843 -0.16590664 -0.11185045 0.06119293 -0.0848089 0.16230549 0.13289353 0.24063066 0.16944525 -0.042670924 0.2233139 0.044452816 -0.099591784 0.09764578 0.05133199 -0.003159037 -0.002038262 0.1010698 0.1571843 0.1732798 -0.15667668 0.15583773 -0.03435328 0.049857337 0.17222764 -0.02325743 0.23932247 -0.011877398 0.081662424 0.053271484 -0.11515313 0.117845036 0.025399152 -0.12366454 0.1443926 -0.050287608 0.07632066 0.023284785 0.012076971 0.10831254 -0.09865165 0.123697914 0.03733402 -0.043355864 -0.16737366 -0.12681216 0.009087655 -0.15478231 -0.014257195 -0.017825827 0.08175929 0.1321805 0.0046109287 -0.16976188 0.026360635 0.16310167 0.0746549 0.060424536 0.26608187 -0.022662884 -0.08237725 0.095567435 0.21005309 -0.08791706 0.09372758 -0.05061916 0.15156025 -0.045264345 -0.19504745 -0.2711172 -0.11278052 0.08161975 -0.24620831 0.068642594 -0.058173023 -0.011086915 0.118904024 -0.017754856 -0.10789669 0.022758782 0.07403423 -0.09919879 -0.15790816 -0.09718477 0.032530762 -0.11787605 -0.22001648 -0.13079251 0.058177326 0.2574184 -0.07160106 -0.11573098 -0.036034305 -0.05067667 -0.026166951 0.03758861 0.032201696 0.05783368 0.081736855 0.15066092
4013 0.03032901 -0.03917715 0.062105667 0.08221273 0.053494543 -0.077792645 -0.0866005 0.070948824 -0.10900049 0.032490153 -0.023054045 -0.05113188 -0.10949585 -0.04481938 0.03047519 -0.034248944 0.08177563 -0.069201805 -0.0629506 0.25813317 0.11337249 0.0013550633 0.1404611 -0.023112234 -0.08799422 0.041958682 -0.14833137 0.123411044 -0.0019296467 -0.17265874 -0.24968591 0.07096432 -0.107904404 -0.024010325 0.074552864 0.21883346 0.28921184 0.017503835 -0.0028371708 0.10524977 -0.09597556 0.027126122 0.23301879 -0.0036544467 0.054608032 0.23682474 0.07416027 -0.018413572 -0.043834515 0.08749733 0.05399263 0.08525476 0.16594982 -0.05948623 0.18361512 0.072928704 0.1486726 -0.10428654 0.09675069 -0.06764369 0.12645635 -0.29823565 0.07609801 0.032560464 0.060502682 -0.0149217425 0.050979134 0.06788889 -0.18338849 -0.020273868 0.10530854 -0.0043795737 -0.115461625 -0.14302811 0.059760854 -0.11687298 0.011966559 0.04008396 0.08031579 0.10388927 -0.04694373 -0.061905496 0.028155167 0.057826336 0.05340007 0.14729786 0.26733154 0.09145562 0.12338705 0.15359567 -0.038634267 -0.11724328 0.24194975 -0.04938464 0.12534884 0.13976213 -0.17127958 -0.25353563 0.112287335 -0.08194068 -0.19584881 0.08215659 0.17186975 -0.04452105 0.024117285 0.0072598555 -0.043306496 -0.01845089 0.009199762 -0.10395103 -0.15305938 0.068387575 0.034885995 -0.15654618 -0.008602583 -0.11833715 0.09433739 0.1424754 0.016482873 0.043157596 0.110715486 -0.076786846 -0.07909833 0.044308424 -0.08057551 -0.006171243 -0.036651816 0.09766669
4030 -0.0970319 -0.14165059 0.06868449 -0.11670594 0.09030821 -0.14168172 -0.02334796 -0.01981329 0.024306078 0.072898716 0.21776295 0.107872665 0.022368021 0.019924263 -0.10325171 -0.058399815 -0.05917163 -0.007581743 -0.026886638 0.13097009 0.19470577 -0.093294926 -0.042269252 0.056007605 -0.03245233 0.038500622 -0.13909419 0.038442004 0.1319341 -0.04876416 -0.033982374 0.03364679 0.09346052 0.059632212 0.16902259 0.066064544 0.05878548 -0.08852023 0.06762125 0.12862822 0.07269431 0.032910243 -0.012612322 -0.09375283 -0.03330645 0.044125155 0.09455327 -0.0048834495 0.018352311 0.14573854 0.062291298 0.1530235 0.00013910948 -0.013913926 -0.008477187 0.101231515 0.042795923 -0.029890196 -0.06810043 0.1005287 0.009853748 -0.08909619 0.13971297 0.055221904 -0.0022314456 -0.07794723 0.17884322 0.11894758 -0.116277635 0.056288987 0.013539437 -0.108423255 -0.09641933 -0.102899015 -0.01697797 -0.22648816 0.09464091 -0.060854785 0.14358597 0.17723659 0.035647582 -0.19642942 -0.039947923 0.2091513 0.10986917 0.10777541 0.06306982 -0.024258526 0.08717603 0.19267328 -0.022819394 0.06626365 0.027738977 -0.024952808 0.15443808 -0.059130043 -0.1294073 -0.30587882 -0.052918825 -0.016925532 -0.19625321 0.12896453 -0.1433269 -0.16575791 0.06650395 0.021297952 0.010441721 -0.104975626 0.060759753 -0.08708855 0.008868324 0.06322583 0.027267953 -0.061968554 -0.14528994 -0.25780886 -0.14537272 0.14097099 -0.048102636 -0.059370827 -0.03348499 -0.06674269 -0.022424411 0.004285825 -0.009409682 0.11003084 -0.051958404 0.08050909
4023 -0.024533797 -0.328745 0.0442028 0.12473657 0.06656082 -0.023754243 -0.14133543 -0.058957603 -0.13504384 -0.057186745 0.07301796 -0.0014671888 -0.1511049 0.06854265 0.08443217 -0.13063875 -0.14152347 -0.024411406 -0.12775727 0.14495265 0.08940554 0.07928544 0.04562112 0.09455518 0.037322387 0.16441876 -0.1764474 0.090380274 -0.088535674 -0.06694524 -0.33398926 0.023599856 0.13594636 -0.001200389 0.07321176 0.014342458 0.1759586 -0.039635617 0.1875349 0.066213734 0.023306679 0.009335178 0.01570533 -0.049940478 -0.05971954 0.07750646 0.03300866 0.029428933 0.033612706 0.033776175 0.11116708 0.08104827 0.042854443 0.039319467 -0.055540115 0.12180606 0.03000334 -0.17676874 0.0051254285 0.14304173 0.15604925 -0.16621064 0.12489694 -0.01198396 -0.121485725 0.009302366 0.011681451 0.18502176 -0.17207408 -0.043566465 0.041874677 -0.10376978 -0.08759196 -0.14466752 -0.044349737 -0.16535917 0.04972989 0.12080259 0.075595684 0.08181266 -0.068269216 0.0039200815 0.041895475 0.058422547 0.03439925 0.08428732 0.32801837 0.08477284 0.04597123 0.25006914 -0.036232106 0.046975754 0.059946574 -0.11385564 0.1880554 0.035604265 -0.24413542 -0.2154256 0.02466722 -0.06245662 -0.12167163 -0.011192069 0.14917028 -0.036926527 0.021782747 0.020810314 -0.06965776 0.051027782 0.05763484 -0.13332446 -0.055610757 0.025079727 0.04008997 0.021836864 -0.14716378 -0.073081255 -0.1799261 0.06362654 -0.03052876 0.101707265 -0.05291856 -0.104114674 -0.02295965 0.043446276 0.0011974211 -0.030163858 -0.034343105 0.03926715
4004 0.07218915 -0.085516945 0.0458099 0.087194055 0.045974918 -0.13451089 -0.13363953 0.051877566 0.008605129 0.06318158 0.0031595926 -0.13086523 -0.024299318 0.08075928 0.03141479 -0.07327652 0.044732224 -0.049141362 0.064164914 0.23764275 0.15484199 -0.082345895 0.071359895 0.1546972 0.012940765 0.07248231 -0.080036744 0.097755946 0.032809123 -0.07254663 -0.17621262 0.07102942 -0.059524022 -0.0043268926 0.14329575 0.052932233 0.2807833 0.014892904 0.19952655 0.097518496 -0.030350188 0.13731734 0.09082631 -0.05116698 0.07054737 0.16616586 0.08230132 0.025013061 -0.10547302 0.27321082 -0.040548842 0.16269955 0.13853031 -0.018926803 0.11451396 -0.036922436 0.007675807 -0.03585775 -0.0076786783 0.03170463 0.14377978 -0.14012897 0.118496336 -0.00878372 0.03685909 -0.07833659 0.0327976 0.15753323 -0.12367298 -0.04967417 0.05437604 -0.118272915 -0.13462268 -0.154624 -0.009794493 -0.14616127 -0.024056034 -0.02186185 0.011626988 0.14754322 -0.028256532 -0.003654468 -0.03210091 0.08579283 0.05139154 0.095752984 0.35867986 -0.042170983 0.059974015 0.17911193 -0.03251857 -0.14548138 0.08817351 -0.06010995 0.100258574 0.11964083 -0.24375732 -0.2830774 -0.006175778 0.04435483 -0.18210363 0.18598238 0.05249182 0.024362665 0.09596918 -0.028196555 -0.020331502 -0.007484721 -0.0052788937 -0.13021383 -0.11247064 -0.04288961 0.029022433 -0.13311921 -0.102336384 -0.031434108 0.097259425 0.19126375 -0.082320675 -0.055843845 -0.011968168 -0.09437904 -0.10349385 0.018223705 0.06950551 -0.024799703 -0.07837687 0.11357817
3997 0.051799428 -0.29435575 0.23847641 -0.18282907 -0.0044262437 -0.0515295 -0.11474388 -0.1494403 0.02500421 0.043517422 0.13678986 0.068458945 0.013927066 0.05967513 -0.10702492 -0.12500976 -0.13407235 0.07833088 -0.09452302 -0.08144774 0.22516958 0.05010438 -0.07290772 -0.016371105 0.036061347 -0.032663427 -0.22262184 0.054089557 -0.015665814 0.012073786 -0.1844342 0.088010676 0.15154418 0.04715638 0.22755915 -0.020564543 0.14491808 -0.08769641 0.017776573 0.17324352 -0.05844101 0.047497153 -0.06324676 0.012393493 -0.07546808 0.013945025 0.0873986 -0.016616138 0.017128134 -0.024307605 0.13330503 0.12565456 -0.14041913 -0.04517335 0.010505313 0.10370686 0.073758475 -0.04680525 -0.033439398 0.117485546 0.08773282 -0.15050144 0.08166038 -0.07258078 -0.054775 -0.02143852 0.022289807 0.15952413 -0.07487995 0.09257308 0.028756697 -0.06138672 -0.087042816 -0.081086025 0.05400909 -0.14396603 0.009999158 -0.012938187 0.15292561 -0.0576414 0.059804086 -0.18064263 0.07076096 0.1844633 0.038255427 0.17820725 0.07390517 -0.015816268 -0.07803686 0.14469394 0.023338823 0.2463515 0.02529678 -0.07358523 0.17660578 -0.037243567 -0.14682645 -0.29162362 -0.15034801 -0.033824306 0.012251658 0.120213434 0.053038098 -0.027534591 -0.015413523 -0.03526691 -0.015149789 -0.1313151 0.02714837 -0.009860705 -0.00941687 0.039531115 0.025354136 -0.006948935 -0.019061822 -0.023442004 -0.15428475 0.13756897 -0.14341067 -0.035794456 0.012302202 -0.012197672 0.0043872963 0.12038419 -0.06323023 0.12139588 -0.123127215 0.028612144
4038 0.0026747657 -0.08839851 -0.035344873 0.13203816 -0.015246122 -0.22355267 -0.117180385 0.007567319 0.054383885 0.052186802 -0.02303257 -0.05004613 -0.06831894 -0.07445007 -0.042860392 -0.015105597 0.05193975 0.016051332 0.052571144 0.10961175 0.137256 0.032885995 0.060919046 0.035032418 0.045302235 0.042150527 -0.050608847 0.058043923 0.028281128 -0.2183848 -0.10646835 -0.04419529 0.011880787 0.005415633 0.09746066 0.15179391 0.17857589 -0.13413434 0.06329487 0.11165865 -0.096846975 0.052808974 0.17009073 -0.15781829 0.04648792 0.15004435 0.06625173 0.06303624 -0.039621435 0.23726931 0.031244347 0.055749826 0.22827938 -0.034968555 0.19472568 0.07452617 0.011542215 -0.09667836 -0.038555726 0.05328241 0.12155571 -0.071282856 0.16184825 0.013235378 -0.014417395 -0.051131736 0.14950088 0.12925526 -0.10954184 0.04078779 0.15026039 -0.02086505 -0.14721607 -0.14949408 0.034703936 -0.1794577 -0.06977245 -0.0011201176 -0.020922838 0.14355335 -0.07459249 -0.20971307 0.033575762 0.11091356 0.1079046 0.06568226 0.30094936 0.034336623 0.0726488 0.16457893 0.05920745 -0.16547139 0.082985386 -0.06334605 0.16903383 0.09882199 -0.101794824 -0.3199307 -0.0013604878 0.06739725 -0.16020954 0.091878004 0.013115731 -0.03410042 0.11754079 -0.07079549 -0.003288021 0.05455587 -0.003492821 -0.08344505 -0.08611527 0.037799012 0.03714807 -0.11807803 -0.18499443 -0.17792025 0.073711984 0.21424662 -0.075109 -0.1038251 -0.07472268 -0.071540155 -0.11586994 -0.012056023 0.13777754 0.044572257 0.02126845 0.09668265
4025 0.1009282 -0.05243673 0.13101055 0.06980773 -0.04749339 -0.11371098 0.2028449 0.101074696 -0.016555162 -0.024209028 0.32361257 0.13970277 -0.038530946 -0.1571876 0.07404819 0.06711126 0.10314008 -0.17282075 -0.040664073 -0.48970336 0.14152981 0.19495945 0.07268624 -0.20557599 0.08877673 -0.23584642 -0.10095429 0.1361667 0.20700999 0.17988168 -0.2467913 0.09803037 -0.08707708 -0.13441361 -0.1062145 0.029778179 0.18217535 -0.03029984 0.18122652 -0.15066998 0.18188876 0.0077690408 0.10189796 -0.01922286 -0.03185668 -0.10570079 -0.18402015 -0.11140782 0.07765193 0.045249715 0.2452534 -0.16205311 -0.0666096 -0.085152365 0.25085303 -0.2136269 0.20905797 -0.080011375 -0.16908446 0.040504545 0.0015389328 -0.16123423 -0.20119724 -0.058789756 -0.038063746 -0.1594751 -0.023801303 0.17054974 -0.23409542 -0.09938071 0.08487453 0.046710443 -0.19020616 -0.06260421 -0.051290784 -0.15867667 0.07347656 -0.14241134 0.10731327 0.1027613 0.10664954 -0.058688622 -0.080094025 0.2502907 0.102540165 0.07199026 0.28331265 -0.04269002 0.24505925 0.1873512 -0.10954814 -0.08628565 0.13894853 -0.10928569 0.09593672 -0.046441786 0.09917826 -0.17047913 -0.19413635 0.117475875 0.111127056 0.27720964 -0.010694549 0.023644734 0.16669483 -0.27806857 0.11412124 -0.02222063 0.080382966 -0.03348977 0.21996 0.019891258 -0.021883087 0.15887277 0.012386668 0.21836479 0.01610719 0.34403732 0.100004 -0.120730884 0.10932383 0.015652874 0.2118325 0.119683065 0.054537226 -0.01675414 -0.096098326 -0.15364455
3998 -0.13744049 -0.29814902 0.22937596 -0.004009816 0.11354331 0.048734136 -0.047537014 -0.23472886 0.072107404 -0.043639634 0.037272222 0.12565756 0.005578154 -0.14296277 -0.081540324 -0.15842524 -0.07551678 0.05507189 0.10082262 -0.043028045 0.15465385 0.031974018 0.0027847271 0.025832374 0.002379521 0.115906395 0.037301846 0.113348916 -0.018630747 -0.059023883 -0.08505599 -0.094333984 0.10352814 0.024212664 0.015357872 0.114671394 0.119067475 -0.1928951 0.054002136 0.021398522 0.0040072077 -0.06858814 -0.052316498 -0.027435757 -0.038075168 0.049389828 0.10624833 -0.036816698 0.011443292 -0.025873743 0.07681452 0.13792539 -0.1216083 -0.05886294 -0.021000616 -0.052290253 -0.05251984 -0.18268669 0.09919076 0.099033624 0.20130077 -0.14430048 0.08487897 0.09185236 -0.10390263 -0.011030809 -0.021472855 0.20717703 -0.1334187 0.016344978 0.06336083 -0.08361523 -0.116078 0.011179199 0.023689365 -0.12020118 0.084859 0.11833581 0.21358761 -0.05219665 0.060110133 0.02044261 0.047965538 0.040945526 0.012621498 0.09514815 0.16950504 -0.08609579 -0.06857536 0.1006938 -0.03533259 0.29451552 0.02635996 -0.04077657 0.18761678 0.0036436573 -0.08122236 -0.41220087 -0.1337366 -0.071740046 0.022185756 0.20510037 0.035555575 -0.23739687 0.010057628 0.028121846 -0.13678855 -0.014045044 0.2542989 0.023090756 0.05281998 0.11555657 -0.033234753 0.11335551 -0.12857106 -0.09613608 -0.113455035 0.11981575 -0.14909382 -0.08208707 -0.0013254799 -0.08305871 0.079005904 0.12956943 -0.1625636 0.0036194385 -0.2847402 0.13853483
3990 0.04558236 -0.1260206 0.08411463 0.0069795335 -0.035539437 -0.14300331 0.18147169 0.0063091614 0.04217644 -0.04944 0.25470993 0.14870839 -0.024703229 -0.13801803 0.0005498463 0.15431905 0.008832164 -0.11010356 -0.036307056 -0.48369822 0.10238693 0.29862675 0.029064866 -0.16586755 0.13352533 -0.18766767 -0.115515135 0.080002666 0.115215965 0.1778838 -0.19619851 -0.05419542 0.0036893862 -0.066455826 -0.007920454 0.12036214 0.18418743 0.028044255 0.29741514 -0.038636513 0.09875186 -0.049131464 0.037949916 0.018400459 -0.036329005 -0.039850704 -0.16458914 -0.054241784 0.029182065 -0.094180435 0.13046096 -0.08028349 -0.07017074 -0.02725124 0.2147193 -0.17419109 0.21591885 -0.119086236 -0.11111077 0.03996445 -0.057439324 -0.15117514 -0.15135024 0.061122492 0.009686576 -0.035926107 -0.00301943 0.18891726 -0.2819118 -0.11431752 0.06166768 -0.01753981 -0.12904839 -0.047160465 -0.017266639 -0.23976733 -0.018276887 -0.042784505 0.08063911 0.05060991 -0.0045199655 -0.048606843 -0.10500028 0.34585655 0.058199074 0.17824908 0.19652821 -0.025098896 0.24137351 0.15348989 -0.0860019 -0.061506853 0.2029037 -0.043845635 0.13908505 -0.1126991 0.07646433 -0.17554896 -0.14188816 0.07028076 0.03142694 0.16718051 -0.013332282 0.047626313 0.095444016 -0.35141742 0.08678531 -0.023765933 0.12430789 -0.1029535 0.26612645 -0.03018741 -0.07201166 0.21079475 -0.013433592 0.3092305 0.08298924 0.31122595 0.12127771 -0.035005756 0.043089334 0.06072477 0.12522385 0.24256356 -0.07196827 -0.17172644 -0.13948983 -0.1922181
4027 0.053046174 -0.060418256 0.10281892 0.15577635 0.07121246 -0.22957394 -0.12929486 0.13460428 0.06632714 0.0073791603 0.022375086 -0.028759489 -0.11273916 -0.07361358 -0.09394647 -0.019892711 -0.11117311 0.12027696 -0.052856807 0.037348818 0.2030381 -0.09696952 0.1420299 0.055631757 -0.10240441 -0.19943728 -0.076097384 0.27686495 -0.040257946 -0.099941514 -0.13910142 0.00043909773 -0.047962494 -0.07871947 0.102884404 0.16736546 0.078909084 0.042713385 0.22269797 0.06388393 -0.04942585 0.042212684 0.012722011 -0.044119243 0.051046662 0.18241647 0.22765328 0.07972064 -0.02913782 0.16111942 -0.16479665 -0.019014988 0.044615325 -0.047299996 0.44159472 -0.011467425 -0.016149614 -0.015926963 -0.17537516 0.04786464 0.05323786 -0.0013637985 0.09734926 0.09311355 0.15861897 0.0011103704 0.06319096 0.030440766 0.010668491 0.054462392 0.11781296 0.042582165 0.03473342 -0.19239424 -0.017272934 -0.064457335 0.07791145 0.066939235 0.08077874 0.21510465 0.15147772 0.0017330925 0.020071032 -0.09075082 0.0938499 -0.007382752 0.247496 -0.043564636 0.061308857 0.0701804 0.11011664 -0.12013689 0.024669182 -0.055965573 0.13448279 0.07257334 -0.33179966 -0.44217777 -0.0035341545 0.082375444 -0.310427 0.23445761 0.044934075 -0.06360575 -0.051129453 -0.07049516 -0.0906604 -0.09529573 0.0019237751 -0.22428541 -0.22484724 -0.22176303 0.013289377 0.06197846 -0.2585243 -0.082875244 0.055169225 0.39619917 -0.0039853463 -0.019826068 -0.03224981 -0.049024045 0.06958564 0.13453436 0.04787174 0.03592904 -0.055478636 0.033357516
4031 0.045950916 -0.02281009 0.04228734 0.15251291 -0.15104058 -0.061504703 -0.12242695 -0.046866585 -0.11403811 0.06311202 -0.11628814 -0.08229127 -0.04940675 0.027821902 0.09073642 -0.025319953 -0.020798191 -0.091982245 -0.088082634 0.18228363 -0.061248176 -0.012902643 0.016359089 0.03988627 -0.113500826 0.0861579 -0.044407427 0.061768178 -0.08223197 -0.24011205 -0.10084008 -0.052079324 -0.0642015 -0.055041093 -0.017087704 0.038445033 0.26549712 -0.024637157 0.11708518 0.13492697 -0.04919221 0.03625473 0.18842632 -0.016789429 0.06608639 0.27725413 0.031176453 0.13117833 0.053637832 0.16191278 0.047636967 -0.009712585 0.19024937 -0.08723578 0.0365327 0.12035588 0.132667 -0.18000482 0.0034379133 0.117637075 0.1146804 -0.19125995 -0.0060174405 0.051473282 0.022854736 -0.066144265 -0.032731876 0.048914764 -0.17527483 -0.15107222 0.19870977 -0.088158816 -0.1961244 -0.26020736 0.15611336 -0.24923187 -0.043254428 -0.020704374 0.11672442 0.12793973 -0.15185732 -0.16178201 0.10988172 0.12994872 -0.07898325 0.16844118 0.26575857 0.2438691 0.19226834 0.057543937 0.004066663 -0.09725323 0.18743627 0.09380942 0.017369477 0.14505108 -0.10094551 -0.27721158 -0.028953252 0.120281406 -0.18927048 0.0995196 0.24793153 0.02420417 0.072262436 -0.065085635 0.10128804 -0.01862016 0.01773293 -0.1079132 -0.12399328 0.0636544 0.1773884 -0.17342405 -0.035173 -0.0012287251 0.06279933 0.31067976 -0.0014088184 -0.17513488 -0.027619572 -0.11107198 -0.12289702 0.17360976 -0.09296686 -0.04649423 0.0046452726 -0.07032562
3982 -0.12555042 -0.26104477 0.19787072 -0.10995488 0.10258501 -0.1308855 -0.049221143 -0.21897691 -0.033405304 -0.02250918 0.10529989 0.0878819 0.012373734 -0.07595472 0.038661547 -0.043498643 -0.021558508 0.030140953 0.05684006 0.16315186 0.2141403 0.044147532 -0.11667244 0.09335835 -0.025426919 0.08715293 -0.12638062 -0.05132351 0.00674198 -0.06331965 -0.023073288 0.005480005 0.044336166 0.07239421 0.039255053 0.020139854 0.11907016 -0.02809322 0.11802836 -0.05142132 0.027279615 -0.051972464 -0.011376545 0.035804953 -0.0207332 0.012973439 0.153034 -0.009386925 0.031267174 0.10043613 0.18261151 0.08492528 -0.023637684 -0.08963649 -0.063070364 0.07316449 0.10262327 -0.06140422 -0.035283055 0.08858746 0.07971562 -0.16436878 0.04617783 -0.15037559 -0.014932094 -0.010121874 0.07072798 0.21189655 -0.016817655 0.009237629 0.14867577 -0.0958767 -0.14911184 -0.07967079 -0.05349035 0.031750694 0.05581087 -0.020286605 0.21620081 0.079625905 0.03980781 -0.1589468 0.004383154 0.24417202 -0.119486086 0.13583148 0.11458963 -0.1408612 -0.0461967 0.05621061 -0.021832455 0.10519962 0.021813437 -0.17654599 0.22223707 -0.07570569 -0.10761859 -0.23018192 -0.10065865 -0.10915711 -0.13739231 0.1754219 -0.016545398 -0.12922347 0.036917426 0.03635992 0.011978362 -0.03783641 0.14705756 -0.071924984 -0.0036967187 -0.025928648 0.0032999774 -0.05931076 -0.2673242 -0.27536085 -0.1752492 0.20892933 -0.07163498 -0.020818517 -0.10610978 -0.019418074 -0.03203852 -0.115252316 -0.08333811 0.1818216 -0.108824186 0.17539345
4000 0.18900666 -0.19590129 0.29884878 -0.047232065 0.10427086 -0.17503662 0.19898169 0.0667072 -0.14211567 -0.23117314 0.24355456 0.027631432 -0.02094904 0.055181738 0.13927251 0.013617762 -0.0021134503 0.04070474 -0.0848639 -0.024778118 0.26492617 0.073570095 0.07765762 0.06258813 0.017333819 0.10688475 0.024785545 0.2656023 0.13685362 -0.09129887 -0.14668591 -0.06162445 0.29688883 0.089632146 -0.026348481 -0.22601926 0.047598567 0.11369666 0.0151367085 0.06713246 0.09758306 0.11840141 -0.08002306 0.11671722 0.18885772 0.07796454 0.24484335 0.0076725995 0.18242519 -0.041344825 -0.14859457 0.09189855 0.109351754 0.19429946 0.13457634 0.12036338 0.38842732 -0.12511294 -0.17148484 -0.03927965 0.10063019 -0.13013199 0.16374776 0.091553755 -0.028057804 -0.14220001 0.07742675 -0.05398998 0.1871255 0.23225708 0.22779876 0.08739421 -0.06272479 -0.18469764 0.027430356 0.06915279 -0.038874675 0.07322781 -0.033045996 0.08250196 -0.07839745 -0.23061278 0.1336855 0.36230093 -0.035095606 0.24941193 -0.11184959 -0.15539531 0.06956448 0.26260588 -0.089579485 -0.059727855 -0.11861684 0.099703856 -0.043461863 -0.11054694 -0.09689055 -0.07310721 -0.09752759 0.16440953 -0.16409045 -0.0062620877 -0.068861715 -0.055655483 0.02489026 -0.0060975123 0.08475024 -0.18413246 0.016616015 -0.14757226 0.16610281 -0.14719233 -0.15271956 -0.08107655 -0.041300315 -0.052846204 0.027257863 0.06339679 0.007861386 -0.009041134 -0.089723006 0.017194191 0.012840788 0.16501841 -0.14746301 -0.10390434 -0.32713988 0.0722839
4009 0.0047148718 -0.41387632 0.36158007 -0.09941922 0.026116492 -0.12823741 -0.1923475 -0.18335345 -0.018678203 0.10158277 0.123028114 0.095216066 -0.030805377 -0.09377464 -0.16061884 -0.11949741 -0.05839676 0.13356471 0.10934099 0.08721335 0.27165866 -0.015053134 0.0018084671 0.13297936 0.04832618 0.027170511 -0.16698627 0.105162516 -0.060497172 -0.060235042 -0.1729775 -0.0490099 0.17814608 -0.03838975 0.18025894 -0.0433369 0.118701525 -0.18399349 0.031343833 0.085563004 -0.064666174 -0.04881973 -0.07078263 -0.04355075 0.06914064 0.028612697 0.122864 -0.0132686375 -0.06127608 0.05121122 0.123653255 0.110283546 -0.09993742 -0.11887884 -0.060990855 0.01866786 0.013784482 -0.112118885 0.04033246 0.097680956 0.111003846 -0.10360866 0.06955198 -0.023812473 -0.12394054 -0.03252336 0.013282454 0.2048681 -0.06930078 0.08590337 0.10617705 -0.11191258 -0.041361548 -0.016578145 -0.02309762 -0.10605877 -0.019090993 -0.0064715976 0.22182792 -0.0379651 -0.012406769 -0.08805744 0.013551756 0.09791602 -0.039383214 0.102715805 0.105326645 -0.057808105 0.034195296 0.017635748 -0.029419912 0.18694848 -0.02219894 -0.054069262 0.14440794 0.0472351 -0.10410834 -0.2457601 -0.06820003 -0.00046964022 0.014882367 0.1925688 -0.0064722374 -0.051038854 -0.05323006 -0.0142321 0.01977476 -0.08954263 -0.049989887 -0.070507325 -0.018769229 -0.0010583466 -0.031369857 0.008256138 -0.040562887 -0.04166093 -0.04514395 0.13900234 -0.21975465 -0.03688759 -0.014966718 -0.05502868 -0.03080896 0.058460254 -0.0425862 0.06300834 -0.048349593 0.029403469
3986 0.14106315 0.03889939 0.23124334 -0.1779985 -0.0339129 -0.09515606 0.03010719 -0.1193126 -0.097305514 -0.033647995 0.11419126 0.087972485 -0.12134259 0.15289763 -0.016226146 0.1817859 -0.010876518 0.11657763 -0.08233864 -0.07414847 0.25237438 0.24083933 0.15253413 -0.008983488 0.0010322096 0.01700822 -0.20253931 -0.080642626 0.083863266 -0.22628742 -0.108979784 0.09415119 0.05378081 0.103967175 -0.116555564 -0.08984129 0.13882466 -0.15200295 -0.0121915415 0.009864517 -0.044051323 0.011326348 0.10491453 -0.22228298 -0.14703856 0.00028798135 0.21550858 -0.23524034 -0.029440602 0.033761334 0.10471253 -0.040565174 -0.009275036 -0.021653354 -0.11970475 0.009621346 0.2153315 -0.078004085 -0.10019763 0.033829853 0.24011083 -0.09288857 -0.032827955 -0.020102054 0.04530631 -0.10851381 0.15754539 0.11564253 0.11662367 0.0042336415 0.05706247 0.20488545 -0.08269461 -0.085771054 -0.022403058 -0.040299587 -0.18234828 0.0038243562 -0.13778424 0.14331362 -0.02496014 -0.09556695 0.08190417 0.19322449 -0.020258216 0.11156682 -0.1524793 -0.24552476 0.030140894 0.1831185 -0.10642443 -0.15491067 0.10460656 -0.0007406001 0.0003885203 -0.11002199 0.07227082 -0.14424366 -0.07733894 0.04949566 -0.017588759 0.12345414 -0.032867026 -0.04117571 -0.14662693 -0.111165754 0.056966268 0.15248497 0.18740956 -0.0894626 0.0059660487 -0.21875583 0.017425716 0.06351804 -0.19253413 -0.08685633 -0.04756053 0.264977 0.1666704 -0.08222884 -0.13937913 -0.107044645 -0.04218344 0.0954135 -0.12689798 0.056286808 -0.6438401 0.109850116
3992 0.1338858 -0.21293208 0.32199562 -0.12968467 0.12819135 -0.15868202 0.08907426 0.16338804 -0.10910907 -0.14015175 0.18815304 0.1917204 0.02893209 0.03800235 0.08143109 -0.06333395 0.087217756 -0.024240347 -0.13184896 0.09737198 0.18115602 -0.06221441 0.10819879 -0.088539384 -0.0599498 0.14633809 -0.05697494 0.14236198 0.09481527 -0.098401956 -0.24250424 -0.08642238 0.14903292 0.2018047 -0.07680988 -0.20270641 -0.07298461 -0.08444279 -0.08332658 -0.02660197 0.08437721 0.041159928 -0.17949203 0.095859684 0.22764711 -0.12488263 0.08541131 0.016068967 0.036215562 -0.078035235 -0.1672086 0.0029019965 0.056476083 0.1665007 0.15392828 -0.023831856 0.3720325 -0.1541001 -0.032351 -0.013531974 0.14676495 -0.1503508 0.048747305 0.05591274 -0.10013754 -0.18810335 -0.021514865 0.058048863 -0.028099718 0.019649016 0.223899 0.018735297 -0.015736563 -0.14927138 -0.008391809 0.012391648 0.0047344007 -0.0959709 -0.023915034 -0.0015853804 -0.14932567 -0.1477855 0.20609796 0.32197183 -0.045282166 0.040668227 0.005284351 -0.054108273 0.16223656 0.24621978 -0.087356724 -0.10424207 -0.06325122 0.08103045 -0.13308665 -0.053218193 0.044831317 -0.0510116 -0.0556457 0.11918344 -0.10962952 0.022960631 -0.111769065 -0.2598071 0.110502325 0.011756586 -0.09241949 -0.06432017 0.1288376 0.008636529 0.048089392 0.031403415 -0.037069414 -0.03297297 -0.20925719 0.025584077 0.062875696 0.13387552 0.09819323 -0.14142519 -0.100764014 -0.15190569 0.08191152 0.12638652 -0.22541468 -0.098012604 -0.23262717 0.033057466
3989 0.05624289 0.009892797 0.059962768 0.14862017 -0.13669978 -0.11134311 -0.04139623 0.02783616 -0.100067854 0.091037124 -0.068717 -0.10906439 0.047832232 0.03279033 0.13659659 -0.039376955 0.054838955 -0.16305688 0.072756894 0.1567185 0.051482506 0.000327375 0.02419368 0.016201474 -0.13655247 0.09644108 -0.018320095 0.16942203 -0.012937626 -0.18052475 -0.21408918 -0.02553297 -0.044588774 -0.01823364 -0.021717133 0.15538266 0.19171456 -0.12372698 -0.07115009 0.03860913 0.019317707 0.067488 0.15080683 0.018920572 0.02943634 0.17352708 0.06603145 0.048248056 0.017403042 0.19039436 0.09342188 0.11267794 0.101044066 -0.12792036 -0.035779472 -0.03902975 0.075738914 -0.07808793 0.0884418 0.14297709 0.08040424 -0.19928503 0.13557683 0.10116996 0.07701637 -0.027863428 -0.08460898 -0.06598167 -0.083032444 -0.17534173 0.051171012 -0.08201694 -0.21246962 -0.2037538 0.18390179 -0.27784026 0.107893266 -0.09316462 0.04967069 0.14714998 -0.17104496 -0.12964092 0.054813474 0.05097584 -0.019186888 0.06277733 0.27826512 0.10243885 0.17417638 0.11291621 -0.12498503 -0.10013852 0.2254324 0.12846304 0.010511144 0.2215922 -0.08527421 -0.34504762 -0.036285613 0.10841923 -0.1601062 0.12924781 0.18426986 -0.030736811 0.047676906 -0.0660412 -0.024022756 0.013725647 0.050732337 0.056981318 -0.123802 0.0691625 0.1315037 -0.06907135 -0.17623524 0.050300825 0.15401725 0.21645889 0.083907485 -0.08986604 -0.06390928 -0.17845897 -0.17341563 0.11027446 -0.03288698 -0.12233639 -0.15971023 0.048606694
4033 0.121451385 -0.12543935 0.33882782 0.060151767 -0.11140586 0.039188486 0.08456237 -0.16132027 -0.22862554 -0.023712084 0.027521523 0.09804751 -0.15156138 -0.017297644 0.08066858 0.043890525 0.039577257 0.016484167 -0.007697366 -0.08923202 0.22317594 0.1507675 0.15836647 -0.019104594 -0.055427764 -0.102111295 -0.24589148 0.018614106 0.025056444 -0.23224142 -0.017311685 -0.019463949 0.0040969844 -0.12037629 -0.15693772 -0.18088432 0.1305921 -0.168921 0.09498141 -0.09415199 0.08126643 0.040030856 -0.032172564 -0.15353541 -0.041299805 0.019890936 0.20563897 -0.028063662 -0.07912368 0.09934704 0.08394261 -0.10353594 0.041039288 -0.0644978 -0.10626467 0.057184458 0.10006029 -0.055401195 -0.14654537 0.13678072 0.15487102 -0.118703835 -0.12772794 0.11227238 -0.059062872 -0.16229658 0.04672494 0.035117317 0.12610716 -0.14569502 0.08498154 0.022328325 0.028250152 -0.05120645 -0.07145882 0.05931819 -0.07689626 -0.04120223 0.049208336 0.13379918 0.08124677 0.066708714 0.037140556 0.16077894 -0.15439275 0.11650341 0.009827246 -0.14280504 0.11504836 0.04119879 -0.13356657 -0.05725043 0.046136767 -0.07941279 -0.00967778 -0.07332467 0.075965926 -0.07480908 -0.21524194 0.13688566 -0.13557632 0.19057302 0.09370102 -0.07818123 0.010997226 -0.0798644 0.10696503 0.14520085 0.2137855 -0.24425228 0.020462222 -0.27297628 -0.023971513 -0.012169141 -0.22058083 -0.06783547 0.17842452 0.37613648 0.061605487 -0.08744371 -0.109979436 -0.0411466 -0.013263348 0.017213393 -0.15827927 0.07614821 -0.33943513 -0.123020515
4016 0.09700483 -0.075790204 -0.0060259635 0.016967911 -0.060853474 -0.055507917 0.1572635 0.15262306 -0.024198486 0.009422795 0.32826093 0.116662115 -0.03271783 -0.10272195 0.0082907695 0.10917608 0.033837 -0.12302452 -0.07500403 -0.4562015 0.097587414 0.16962841 0.076117545 -0.18552452 0.13585697 -0.24703564 -0.07097229 0.087478876 0.15203503 0.23130815 -0.17655264 0.041393623 -0.037816137 -0.1256687 -0.0334109 0.057174403 0.18078656 -0.100353435 0.19712523 -0.12536676 0.1752039 -0.036842402 0.073189445 -0.0600777 0.03243464 -0.12376608 -0.18043588 -0.114286534 0.073206194 0.061623424 0.22544004 -0.16597348 -0.061033677 -0.047959518 0.23129015 -0.20068526 0.20514938 -0.06887989 -0.12657438 0.13709831 -0.013964719 -0.1214093 -0.14268959 -0.017650148 -0.060191922 -0.10275335 -0.013519346 0.21269539 -0.29972994 -0.062197145 0.05637428 0.019079173 -0.16166551 -0.094075866 -0.021449871 -0.3198653 0.042911798 -0.1258083 0.09626933 0.16433153 0.09129991 -0.07354514 -0.09529056 0.33493134 0.21887408 0.17296019 0.25986493 -0.050963685 0.25445613 0.24427147 -0.13285111 -0.08402607 0.20505066 -0.054800257 0.10169651 0.019355755 0.13901873 -0.100068405 -0.1436345 0.11076754 0.13120274 0.23230766 -0.10130245 0.049608186 0.116494395 -0.254272 0.08162278 0.015224995 0.0036770392 -0.13094415 0.20820639 0.040238816 -0.031127349 0.20785835 0.08250116 0.19375062 0.06434315 0.28869003 0.104290076 -0.114018135 0.015351287 0.01470279 0.11214882 0.17955966 0.036375795 -0.020864094 -0.14906697 -0.15396541
4037 -0.067272805 -0.062485293 0.0015533195 0.111804664 -0.046680015 -0.25182107 -0.036324132 0.06777972 0.028227793 0.035171807 0.10251127 0.010440628 -0.033265848 -0.041696306 -0.105672576 0.010883371 0.006376883 -0.001458332 -0.068467505 0.14307487 0.14983681 -0.04607716 -0.04748863 0.18424256 -0.04637987 0.028568935 -0.07894103 0.07357604 -0.06363355 -0.09035942 -0.07962309 -0.010578473 0.0066050286 -0.03695671 0.19816355 0.10338904 0.11272754 -0.14688012 0.22794402 0.020018172 -0.07046596 0.040296044 -0.012250848 -0.043390058 -0.051611844 0.06953321 0.17755426 0.0706756 -0.1146347 0.21133184 -0.05144159 -0.02152316 0.15058707 -0.07816316 0.20303667 -0.074409045 -0.0045861066 -0.012534044 -0.16146877 0.1165944 -0.0005585071 0.0021144496 0.03657098 -0.036247645 0.005343876 -0.05194357 0.016331106 0.17254438 -0.04481401 0.042416696 0.026036156 0.0161457 -0.12272741 -0.09563443 -0.07190719 -0.1633829 -0.016181424 0.044398434 0.00022038083 0.12554477 0.059819438 -0.09119812 0.051332887 0.134796 0.08712825 0.15980768 0.08601119 -0.10042093 -0.012784693 0.1274276 0.12663554 -0.026646152 0.08871577 0.05740265 0.1703281 -0.06582026 -0.22264573 -0.35638174 -0.017362652 -0.00026561655 -0.26319063 0.0778053 -0.1756475 -0.03246235 0.017582271 -0.08739476 -0.046347488 0.11600034 0.15079558 -0.24552137 -0.046927597 -0.1308261 -0.0022664953 0.030705437 -0.29250222 -0.21082763 0.015714688 0.3887778 -0.11881441 -0.06557489 -0.013153996 -0.09942257 0.0075201658 0.007976833 0.082774624 0.009393601 -0.037332505 0.1520616
4014 0.07081226 -0.117074065 0.20835623 0.009307905 0.10622254 -0.072912335 0.08419523 -0.23306555 -0.1507026 0.030004608 0.16174926 0.07257605 -0.05942007 -0.06170877 -0.07855542 -0.053843156 0.091253206 -0.10640842 0.09443752 0.06561336 0.24346536 0.080322936 0.11449851 0.06276557 0.022998052 0.071671434 -0.13987215 0.028708758 0.091343515 -0.052003223 -0.07554073 0.16262965 0.03356489 0.122059524 0.04459626 -0.11883624 0.16905777 -0.14231732 -0.012863036 0.05323712 0.024173148 0.053094547 0.08102759 -0.007657178 0.039155267 0.07242655 0.06412491 0.008708032 -0.1422401 0.12993686 0.1983417 -0.06776657 -0.009780881 -0.10880818 -0.040928863 0.02745318 0.06935312 -0.013665193 -0.11150535 0.018508209 0.055244952 -0.27934012 0.097776614 0.123171866 0.08133914 -0.09051058 0.06959467 0.14477076 -0.111874856 -0.07259407 0.045316648 -0.045091294 -0.2025307 -0.05636694 -0.10434156 -0.07917955 -0.04526309 -0.14984258 0.06475001 0.0069050137 0.100551166 -0.056105893 -0.15409684 0.20733744 -0.024820993 0.26181895 0.13628016 -0.11693613 0.052255612 0.19640064 -0.08464722 -0.052969676 0.097250566 -0.11604904 0.20767097 -0.08523098 -0.004300001 -0.115895644 0.11726949 -0.019627342 -0.025785832 0.070694 -0.056114443 -0.010878603 -0.07701529 -0.035033662 0.04438891 0.009377302 0.049056023 -0.079504974 0.045272477 -0.100557126 -0.028121198 -0.1285088 -0.07079573 -0.11447329 0.06005653 0.115803994 -0.080465265 -0.053758156 -0.0047645713 -0.1193659 -0.025807392 0.07329682 -0.1010395 0.09299267 -0.18895532 0.07929056
4019 -0.032428063 -0.4517649 0.17975047 -0.018705934 0.14905338 -0.0072522406 0.05560712 -0.028855886 -0.15131249 0.056132782 0.21462078 0.10935636 0.062238697 0.027138764 -0.14651233 -0.16895969 -0.06198063 0.02539971 -0.12895775 -0.0610787 0.28909436 0.10298023 0.021868633 -0.0074209105 0.11137635 0.0051611434 -0.18855688 0.111378625 0.056820285 -0.021593362 -0.2303156 0.0013013453 0.15505269 0.048146337 0.11617763 -0.00023528817 0.01734971 -0.24075231 -0.10058145 0.11060419 -0.054792468 -0.05909218 0.10901447 -0.051141687 -0.09236622 -0.0272115 -0.0141264945 0.01852668 0.10062852 -0.08759418 0.12580922 0.11438294 0.020150412 -0.0741866 -0.07427991 0.03422036 0.056869507 -0.22769596 0.09213786 0.13144544 0.18479866 -0.2610178 0.07386151 0.107420444 -0.04469388 -0.0038471743 0.047258805 0.11897866 -0.09260296 0.07841243 -0.027370265 -0.07618455 0.01922022 0.06253254 0.03444887 -0.17509814 0.060048636 0.084192835 0.122610025 0.07682362 0.06330267 -0.06971821 -0.033454962 0.0018756173 0.04880682 0.12039606 0.036964163 -0.0043770527 -0.024056567 0.02909877 0.22293955 0.2175914 -0.032574706 -0.018921277 0.09834695 0.05452063 -0.13826059 -0.3996792 -0.17037964 0.0211843 -0.03896334 0.08458681 -0.09137614 -0.11971729 0.025575893 0.052012417 -0.10207263 -0.013243039 0.14587688 -0.07863223 0.15066981 0.12550357 0.036102593 0.044323448 -0.0044934116 -0.1608948 -0.028091352 0.19441734 -0.07545343 -0.14562127 -0.0041990927 -0.013125904 0.00888453 0.1676805 -0.076803714 0.05522886 -0.09845749 0.009126312
4021 -0.016893098 -0.27847844 0.19975185 -0.037679084 0.20621249 -0.12880805 0.07695809 -0.04265586 -0.17630728 -0.02879852 0.19017892 0.080406144 0.08709615 0.034288835 0.057104982 -0.08196799 0.03361678 0.07260719 -0.035490733 0.127457 0.23616044 0.06634724 -0.0034272617 -0.06554266 0.03263899 -0.009949422 -0.17129007 0.0825273 0.17729354 -0.0062550297 -0.13839285 0.11620801 0.13999651 0.17788 -0.0007136943 -0.22321947 -0.12519783 -0.07647011 -0.092382155 0.056481585 0.11384768 -0.06754307 -0.022620823 0.018526252 -0.06592162 -0.04411391 0.017947907 -0.061091844 0.09589538 -0.034140643 0.10782713 0.070823394 0.013428443 0.08583102 -0.12491052 0.17834498 0.14332376 -0.064530574 -0.13243169 0.0625198 0.10352927 -0.21100268 0.1839834 0.13630408 0.06432088 0.01613765 0.12737866 0.12907822 -0.035596594 -0.09876569 0.022430303 -0.084105335 -0.14545393 -0.042118292 0.06439076 -0.08628585 -0.017747477 -0.13882142 -0.026892021 0.041898668 0.054643594 -0.06708304 -0.08412576 0.19989392 0.040194828 0.24880627 -0.01949586 -0.11331883 -0.029152343 0.20184046 -0.060946524 -0.023515193 -0.01278564 -0.044679772 0.116005994 -0.05545989 0.06543073 -0.20834953 -0.011698709 -0.0033982336 -0.12054102 0.026376529 -0.15324436 -0.25208062 -0.00987762 0.0664209 -0.0255364 -0.005672681 0.2632265 -0.08816661 0.21235773 -0.005636937 0.04823037 -0.0029239494 -0.17892519 -0.16031273 0.00042018687 0.12452582 0.07451952 -0.08310451 -0.09852231 -0.05975183 0.067414805 0.13617894 -0.11728931 0.11234998 -0.30887288 0.043565206
3995 0.040322028 -0.122358546 0.23538956 -0.23297614 0.13696451 -0.19635528 0.06888744 0.019700898 -0.037039876 0.02290201 0.17472716 0.04097832 0.0035424498 -0.17154713 0.0921297 0.010303099 -0.011892047 0.097861744 0.002260404 0.15636154 0.18911083 0.002427195 0.016360313 0.04086817 0.005069055 -0.01880337 -0.023139432 0.10158151 0.120636985 0.1470458 -0.16456217 -0.022101108 -0.01045637 0.09408259 -0.069349185 0.008904545 0.108701006 -0.0103248935 0.19140819 0.0008513261 0.0820025 0.017405646 -0.15721457 0.06834921 0.08703917 0.14546485 0.07563086 -0.0031176624 -0.11917446 0.03511989 0.030857492 0.07245822 -0.0030254766 0.048993852 -0.028049413 0.07030826 0.12987554 -0.036159083 0.03855528 -0.025901865 0.09697636 -0.14287941 0.0972606 -0.15891892 0.048426248 -0.1503773 0.025250897 0.077799484 -0.11181507 -0.14346188 0.0255815 -0.35527012 -0.21355098 -0.21640855 -0.13368796 -0.107785456 0.041865896 -0.06509027 0.031382903 0.19976892 -0.016000863 0.026238278 0.036173474 0.2243453 0.12963583 0.09519137 0.1490155 -0.2204437 0.14590488 0.19509223 -0.2743213 -0.08159897 0.01310571 -0.027260706 -0.0051287725 -0.009524516 -0.04686637 0.0009048077 0.080366604 -0.15283649 -0.18726991 0.03954041 -0.05056089 -0.17381461 0.07171584 0.0930369 -0.057239335 -0.18487403 0.017402964 -0.16712742 -0.055472173 0.06446741 0.08038627 -0.1597017 -0.006192253 -0.21284556 0.002033371 0.069774695 -0.025048902 -0.16180064 -0.12829751 -0.11657622 -0.12439674 0.12821428 -0.33168298 -0.007158186 -0.11547123 -0.034373242
4012 -0.16002035 0.09360268 0.25422764 -0.24743089 -0.12999284 -0.18267547 -0.062652305 0.05569653 -0.07101436 0.13991778 0.2003186 -0.03924924 -0.114558764 -0.33156377 -0.038867757 -0.17146179 0.2475474 0.28072432 -0.0058987774 -0.01922511 0.09619623 0.13580838 0.047793593 -0.17800379 -0.031212121 -0.080893844 -0.19936569 0.1110174 -0.1260235 -0.08262664 -0.1905268 -0.12041026 -0.15088442 -0.1137072 -0.1382537 -0.10754683 0.20174302 -0.28729165 0.05646861 -0.05696841 0.10394996 0.10445091 -0.2253148 -0.07517642 -0.079594545 0.14096177 0.06273622 -0.2608531 -0.18628713 -0.07234949 0.26903778 0.2107254 -0.008612543 0.06740696 0.25309053 0.0046633957 0.23408881 -0.035835486 0.031505194 0.21170877 0.077517405 -0.14625002 0.029890327 0.01215226 0.03024527 -0.104544625 0.031567093 -0.026614051 -0.05830336 0.00032284472 -0.035976976 -0.04319361 -0.20756488 0.1115233 -0.040453427 -0.22490191 -0.07623954 -0.08493631 -0.12106389 0.033948243 0.013056614 0.06504746 0.17615926 0.07696082 0.12565105 0.18574552 0.1451719 0.0019601544 0.011215802 0.078094386 -0.32382753 -0.10850395 -0.22199036 0.028865611 0.05160261 -0.046519075 0.027772907 -0.20867328 -0.26884174 0.053471312 -0.08460103 0.11208952 0.20191635 0.119056165 0.2966222 -0.17355986 -0.023203054 -0.36057144 -0.011683929 -0.18612534 0.18802851 0.03222815 -0.02790366 0.21182822 -0.06925507 0.25024003 0.022567792 -0.10077824 -0.038236253 0.05738286 -0.17074272 -0.16437647 0.18769003 0.17691453 0.0035495178 -0.28041 -0.1703988 -0.05579552
3987 -0.09968433 -0.035296828 0.14243299 -0.12785463 -0.14489937 -0.06208012 0.0006898814 0.03633789 0.04526109 0.093563624 0.17997873 -0.07067696 0.011891385 -0.30779395 -0.015134757 -0.19454873 0.3300547 0.172417 0.0066113602 -0.1244938 0.16475104 0.13901186 -0.02656566 -0.11274805 -0.03071883 0.03813412 -0.22600766 0.04084426 0.079730175 -0.07119487 -0.17279187 -0.039146513 -0.20920621 -0.070294105 -0.12839127 -0.074174486 0.1083993 -0.3314618 -0.059419196 0.009483007 -0.0295811 0.20200658 -0.15576413 -0.107333876 -0.088482246 0.07488008 0.04464871 -0.22072658 -0.1370851 -0.08114411 0.22681895 0.033023257 0.036037143 0.046791833 0.16909562 0.034053467 0.12523909 -0.045139994 -0.09976117 0.06418557 0.1920386 -0.19004327 -0.11930552 -0.04937984 0.17079386 -0.1946304 0.05293851 -0.053658694 0.012923438 -0.15696315 -0.09301777 -0.13793927 -0.32999894 0.029699542 0.007510672 -0.20471214 -0.0052137943 -0.009560486 -0.09915905 0.039924692 0.013491414 0.030347735 0.15432703 0.08806805 0.14496356 0.19464777 0.054337285 -0.12676151 0.08937647 0.10753624 -0.22824408 -0.05691322 -0.27789867 0.06912293 0.19591776 -0.05104109 -0.072934866 -0.285884 -0.30178162 0.087051205 -0.11463502 -0.02812202 0.2429475 0.029868266 0.35578793 -0.18306682 -0.14755175 -0.34356338 0.115112975 -0.29221523 0.20632435 -0.13504083 0.17887068 0.16918737 0.044701308 0.24643137 -0.05370853 -0.054356325 -0.07598352 -0.042734224 -0.091683306 -0.07381284 0.11321627 0.12445275 -0.044245053 -0.21333528 -0.03388268 -0.15365134
3988 0.03790989 -0.075064234 0.20207307 -0.16955587 0.04701007 -0.0842186 0.10689469 -0.122249626 -0.049437735 -0.005307744 0.20676258 0.0603358 -0.010587035 -0.047172606 0.12186753 -0.07532994 0.07542401 0.07552571 0.027242316 0.039250724 0.13121332 0.060750145 -0.024815463 0.032502037 0.031968046 0.04468884 -0.05580845 0.078484036 0.081391245 0.12846956 -0.101039425 0.13753606 0.13125947 0.16126914 0.10812571 -0.16278784 0.18638901 -0.0013437849 0.19304198 0.10715429 0.09567273 0.18023211 -0.23489174 0.08032771 0.04671153 0.0550585 0.014920996 0.029256593 -0.12410573 0.103335924 0.061264675 0.13034819 0.009951356 0.12270477 -0.1599462 0.17167951 -0.029619195 0.14035209 -0.040593587 0.067871526 -0.006797651 -0.00045293523 0.16854839 -0.10442942 -0.036576476 -0.13780136 -0.069869004 0.095700644 -0.014519529 -0.09682944 -0.056036387 -0.2517552 -0.24653213 -0.23707072 -0.08122355 -0.1550692 -0.04198718 -0.029733928 -0.08520278 0.019290257 0.063050225 -0.062018946 0.037451364 0.42397588 0.18059602 0.25693855 0.14181933 -0.24523138 -0.044496655 0.2824469 -0.2828096 0.0093804505 0.013253624 -0.030757967 0.14424533 -0.12887087 -0.0075417804 -0.08730628 0.02083666 -0.16905874 -0.17935786 -0.053529795 -0.024775194 -0.046979792 0.070549786 -0.013976806 0.002021391 -0.09543382 0.09337372 -0.23376167 0.04372894 -0.025679005 -0.0066102967 -0.17175032 -0.07340341 -0.20017116 0.078847535 0.07041703 -0.16493128 -0.07238993 -0.12299537 -0.08228224 -0.10006691 0.112283066 -0.26717296 0.039575577 -0.25223017 0.03692673
4007 -0.012235841 -0.04977702 0.076165594 0.07523309 -0.06394841 -0.24716781 0.21178828 0.038038667 0.04225522 0.03543738 0.32538074 0.1336753 -0.032580085 -0.19614711 -0.03345324 0.2179203 0.091932125 -0.12044555 0.052595515 -0.422606 0.12726544 0.35792142 0.0052145165 -0.20212318 0.14396235 -0.24004789 -0.17582318 0.09357415 0.1288305 0.16924122 -0.2352958 -0.0054109963 -0.039343376 -0.07868938 -0.002062947 0.20244186 0.23337927 0.0018894345 0.31630406 -0.06559225 0.0645667 -0.07649279 0.097587265 -0.019995838 -0.087181196 -0.043497685 -0.22166333 -0.08108172 -0.0005926177 -0.029296838 0.17392553 -0.04046247 -0.07250453 -0.087211326 0.22406785 -0.236308 0.22027148 -0.13012992 -0.08753161 0.042611755 -0.07287964 -0.14316703 -0.20640971 -0.033104148 0.022665644 -0.05925737 0.02176243 0.19228005 -0.2633262 -0.077462755 0.033311795 0.0053306115 -0.14384036 -0.012852931 -0.04313302 -0.22160082 -0.021382011 -0.075203806 0.044002663 0.072843954 -0.029884273 -0.010045826 -0.14651798 0.3473635 0.072381206 0.11567315 0.1839147 -0.07704189 0.2367579 0.09709869 -0.10762554 -0.12931043 0.20421386 -0.040604092 0.12764284 -0.13985208 0.12143768 -0.16138051 -0.15165873 0.052867938 0.029805778 0.167287 -0.056420747 0.05608549 0.12337462 -0.36786294 0.13953902 -0.008463312 0.14221206 -0.062920086 0.27214724 -0.030884502 -0.08885197 0.20911592 -0.038766854 0.3082728 0.10905102 0.34075055 0.11818126 -0.050023824 0.088731006 0.07422684 0.15030687 0.17919531 -0.06503568 -0.16231816 -0.1591694 -0.16452706
4017 0.07124893 -0.19423935 0.29292125 -0.13638791 0.1276704 -0.16980758 0.07747298 -0.0956487 -0.08734417 -0.1526323 0.044426396 0.13022864 -0.05611214 0.04402464 0.12533006 -0.08416864 0.05518076 0.09405374 -0.063417874 -0.13656767 0.3608683 0.17418422 0.14697836 -0.15308823 0.07750118 0.0067979526 -0.05568536 0.053780805 0.1561886 -0.17334291 -0.10232205 -0.0011045092 0.124920644 0.14761147 -0.017429246 -0.11566157 -0.0220421 -0.110288404 -0.055011295 0.06507321 0.036083803 0.08891876 0.03954405 -0.009630922 -0.053372424 -0.029219687 0.0778345 0.018895283 -0.0044212416 0.011172043 0.08270624 0.05884791 0.0653642 0.08211371 -0.0041497555 0.088296846 0.110473804 -0.1176515 -0.047199957 0.011825401 0.15041511 -0.14210097 0.15865587 -0.011911781 -0.047538448 -0.07022043 0.055800203 0.188611 0.067749545 -0.012138291 0.13747779 0.029107992 -0.081028774 -0.06084947 0.024703864 0.027766054 -0.16861369 0.0323079 -0.13239574 -0.04435884 0.030528624 -0.1689505 0.07034678 0.23234102 -0.005889764 0.1523596 0.08159208 -0.15254728 -0.13096619 0.16969876 0.042531304 0.015644513 -0.034775797 -0.14124763 0.08893998 -0.15019356 0.07197774 -0.2569147 -0.13010962 -0.052905478 -0.043965187 0.05252877 -0.09669059 -0.15204483 0.08095408 -0.040428743 -0.03272312 0.08679323 0.25348556 0.061683986 0.11848835 0.04390537 -0.08162806 -0.078565426 -0.2091946 -0.12443403 0.12101146 0.16702619 0.091509916 -0.11653522 -0.15625353 0.046864238 -0.122244686 0.064359285 -0.05093881 0.08128664 -0.30147943 0.15152535
4026 0.1106536 -0.2162126 0.41847122 -0.091389075 0.16295975 -0.16938795 0.11190274 -0.1562916 -0.048426054 -0.076616466 0.2869071 0.14668554 -0.09904149 0.074307054 0.016344396 -0.024679359 0.100873746 -0.0017826722 -0.086119086 -0.0740326 0.1533375 0.039666835 0.060259562 -0.14456919 -0.210913 -0.06624019 -0.10460721 0.10998701 0.047592707 -0.19444607 0.076734796 0.06590383 0.14737478 0.2331879 -0.024275828 -0.13737315 0.007926864 0.004358166 -0.03002327 0.12510253 -0.007637654 0.036522232 -0.01871875 -0.07598402 0.077138126 -0.07621185 0.19484888 -0.0009696497 0.02162352 0.09240149 -0.08796239 -0.035178177 0.017226147 0.10531721 0.039454628 0.062487323 0.18585037 -0.03448598 -0.1554051 0.05017669 0.1434299 -0.13578151 0.055743266 0.08774757 0.09197958 -0.045362476 -0.040145222 0.101554304 -0.018704666 0.015108218 0.25990817 0.10107233 -0.009094334 -0.0402292 0.16759105 -0.1564437 -0.14206122 -0.115094915 0.059842855 -0.054501794 0.08092282 -0.25429285 -0.0013042159 0.33792138 -0.057245206 0.28208435 -0.074415036 -0.052879974 -0.027855076 0.15034686 0.024733605 0.12645708 0.0489399 0.07458981 0.10802447 -0.12100707 0.08157421 -0.28192008 -0.11384679 -0.0060405433 -0.16577631 0.012843651 -0.12575035 -0.19494927 -0.10307328 -0.08222156 0.010599709 -0.03382007 0.13397667 0.011612648 0.026009882 7.234631e-05 0.007424091 -0.0055933604 -0.029618267 -0.10979058 0.08902375 0.1414412 -0.0073377914 -0.119713925 -0.073829755 -0.057784494 0.010131579 0.19219919 -0.15479238 0.11712144 -0.23955931 0.16357385
3985 -0.07675459 0.018643545 0.116953425 -0.17107117 0.14959198 -0.17943835 0.04551041 -0.09052488 0.033601135 -0.08936568 0.17729938 0.024722677 -0.10340243 -0.12923607 0.06247849 -0.014517631 0.033810228 0.042570524 -0.04267116 -0.018294387 0.1683038 0.06846903 0.018202623 -0.052454386 0.01857361 -0.017892428 -0.12603123 0.043118343 0.12667209 0.09437909 -0.20262514 0.071737595 -0.07874421 0.0614568 -0.04860667 0.10329994 0.11678318 0.07954317 0.247657 0.009153785 0.15263143 0.058199685 -0.10689966 0.04615957 0.03470942 0.14672986 -0.010649252 -0.025232714 -0.122040674 0.10488973 0.1464335 0.17518653 0.015387885 0.061250422 -0.14170946 0.19362514 0.042959042 0.116537824 0.002815432 0.04325214 0.02686351 -0.00034283093 0.22696203 -0.1728855 0.033158515 -0.11680516 -0.014465415 0.012160527 0.073586635 -0.16538493 -0.078502744 -0.2693439 -0.2711916 -0.32334262 -0.12575701 -0.13359953 0.050984025 0.09478269 -0.056000497 0.14894661 -0.08522189 -0.019312063 0.19958456 0.15890595 0.19979134 0.019935042 0.16786726 -0.13868439 -0.030163128 0.21060213 -0.3219241 -0.15990597 -0.15608032 -0.13852802 0.0593215 -0.10914834 0.07123158 -0.13074759 0.04525155 -0.20675227 -0.2380562 0.11107786 0.003849021 -0.112944774 0.13019209 -0.07522174 -0.07529073 -0.15327777 0.14023484 -0.20215824 0.0006874599 0.07085635 0.019055162 -0.1395548 -0.26926154 -0.26499408 -0.063572325 0.080372676 0.022288332 -0.048476692 -0.14353834 -0.15615708 -0.12093946 0.07212238 -0.18751353 0.06881164 -0.21671367 0.07767244
3993 0.0029064773 -0.113853045 0.23931958 -0.074371554 0.17256941 -0.26968634 0.075247355 -0.06429379 0.027932875 0.008161202 0.28869858 0.053806428 0.043928076 -0.21032035 0.108501054 -0.061725985 0.21032217 0.10511858 0.06447983 0.13023822 0.09260293 0.086239 -0.022537848 -0.014325722 0.03951342 0.051261935 -0.06882004 0.14239806 0.09906336 0.16544424 -0.28677788 0.23635666 -0.03570698 0.22709477 -0.0007492716 -0.04565831 0.21702144 0.15338938 0.24805725 0.051827222 0.063420445 0.08304324 -0.11542346 0.18228029 0.123013556 0.07159874 -0.15391675 0.014794129 -0.04291573 0.09764192 0.056363534 0.11661435 0.01018356 0.06830709 -0.07349199 0.11020136 -0.03742579 0.08723865 0.040593207 -0.024961665 0.09866779 0.023917582 0.12809628 -0.21629223 0.08414882 -0.14908671 -0.1269942 0.065423965 0.0530406 -0.16135743 -0.03890387 -0.27205855 -0.2840305 -0.33636692 -0.10580192 -0.007312057 0.058716007 0.009420561 -0.11055841 0.039237946 -0.002356149 0.056520432 0.06733777 0.22206832 0.19374678 0.07564479 0.19951038 -0.24372922 -0.07737912 0.18032932 -0.2548664 -0.17972073 -0.112813696 -0.083854795 0.050260115 -0.03878426 0.068850614 -0.11839709 0.15079647 -0.18504761 -0.09769152 0.0073866267 0.058495343 -0.08959819 0.067249715 -0.03373576 -0.05749557 -0.1303903 0.17977464 -0.12778251 0.014351353 0.060571607 0.08771559 -0.16570495 -0.115849294 -0.18068717 -0.0126268 0.12190083 -0.16096678 -0.18207192 -0.044271156 -0.1412689 0.046914276 0.10595998 -0.29488686 0.04150916 -0.25076216 0.02901348
3996 -0.117219664 -0.21376589 0.21906696 0.034263063 -0.16755205 -0.21770258 -0.23639494 -0.06923418 0.006432496 -0.006990206 0.014456074 0.035165176 -0.121444754 -0.13977578 0.008135417 -0.066188976 -0.2023267 0.32886207 0.07533323 0.037004262 0.11238928 0.12098709 -0.09920151 -0.03550357 0.031141162 -0.14832185 -0.24698138 0.13919158 -0.044443484 -0.10753289 -0.28807655 0.02270908 0.12158902 -0.118692555 0.1519722 -0.027822575 0.0731321 -0.04917902 0.10019981 0.07572161 -0.034605145 -0.005553801 -0.20347796 0.020677183 -0.11635854 0.11750128 0.09246807 -0.08357875 0.15111585 -0.044277724 0.05858457 0.03555427 -0.18332803 -0.05887329 0.2967055 0.17764807 0.04636334 -0.09756454 -0.18277554 0.059048098 0.085782915 -0.1174738 0.026072517 -0.04769348 -0.008867512 0.12374801 0.21159436 0.20985523 0.006646717 -0.10709833 0.13479257 -0.05151861 -0.16071235 -0.19372444 0.037072364 0.07834526 0.035125718 -0.06663012 0.052624587 -0.11458434 0.050189696 0.004044688 0.10094273 0.14941502 -0.0836426 0.091460004 0.15666792 -0.057581317 0.06389875 0.24784976 -0.15647511 0.09067841 -0.0137691805 -0.10286558 0.33161542 -0.053324472 -0.28684407 -0.13806617 0.054727625 -0.024650028 -0.04386516 0.054698613 0.22229631 -0.101308 -0.02604716 0.09423736 0.042547952 -0.11469613 0.07444963 -0.06576307 -0.001805138 -0.19023253 0.064439386 0.07529078 -0.22805214 0.10872003 -0.24720037 0.061681032 -0.044942312 0.23386563 -0.06502203 0.06944907 0.13726878 -0.016342122 -0.054026958 0.09823067 -0.12788038 -0.009953444
4002 -0.023711449 -0.085611865 0.08816773 0.01789908 -0.15016453 -0.19216067 -0.09767595 0.036051814 -0.015071839 0.1895553 -0.11413812 -0.05146462 0.034456413 -0.25014168 -0.072048396 0.038795013 -0.14843656 0.30660892 0.025936343 -0.12346673 0.06453674 -0.01505754 -0.039025813 0.0733611 0.04962693 -0.28054118 -0.08201317 -0.054471564 -0.15402192 -0.046209216 -0.08131726 -0.026782155 -0.06988163 -0.040698476 0.05435861 0.1898607 0.19848299 0.0627906 0.13962881 0.0063433833 0.020267902 0.11360361 -0.16586794 0.1107247 -0.12477465 0.1876472 0.09747585 -0.07865948 0.12577114 -0.06567538 0.062509626 0.058605593 0.06762067 -0.12555122 0.36222982 0.051933434 0.015041084 -0.10022256 0.093407065 0.11569959 0.21017548 -0.16158423 -0.06585398 0.13836242 -0.058298554 0.04188521 0.13946402 0.031885237 0.04730482 -0.020057876 -0.076937795 0.013087773 -0.055332337 -0.13042288 0.057291046 0.014669544 0.07238492 -0.078101814 0.13805376 0.17828079 0.035353582 -0.040149495 0.101893134 0.16541545 -0.061617427 0.19982131 0.27296332 0.009401398 0.11293178 0.3801379 -0.046582785 0.05722615 0.19079381 -0.11815479 0.17494263 0.024125846 -0.30250168 -0.24696031 -0.12054133 0.02866671 -0.018793294 0.22545642 0.25560382 -0.14975816 0.011454204 0.11075597 -0.08745489 -0.068967395 0.0973314 -0.07873361 0.04224605 -0.062358793 0.22869135 -0.063732415 -0.123125896 -0.15753652 -0.14226766 0.23245439 -0.09964083 0.12147262 -0.065813534 -0.008939079 0.07928252 0.019148875 -0.081648566 0.11484801 -0.06802413 0.052718032
4003 -0.054697428 -0.088794634 0.011111175 0.077308014 -0.030490575 -0.08502938 0.12558238 -0.045700654 -0.14822353 -0.02074592 0.20905985 0.07098918 0.025909137 -0.049295947 -0.09239848 -0.06940906 -0.10751744 -0.09972432 -0.16408801 -0.013000672 0.08057518 0.14198647 -0.07526028 0.061556593 0.102440305 0.06743092 -0.08914035 0.05705602 -0.03171513 0.09367441 -0.24940613 0.10662232 0.098830916 0.04918539 0.1133299 -0.03910739 0.14880255 -0.19214737 0.05711798 -0.022131573 -0.10525678 -0.057133187 0.004598853 0.046777517 -0.034978088 0.039330397 0.023338713 0.04082521 -0.0016213539 0.064472176 0.10287655 -0.09022321 -0.012700465 -0.20366658 0.1023639 0.01790887 0.13216932 -0.23172273 -0.049929317 0.14711967 0.111731075 -0.25923526 0.022280568 -0.13343628 -0.13159287 -0.026256226 -0.0051018633 0.16399065 -0.11135728 -0.018696593 0.029079886 0.022334909 -0.18519516 -0.07489861 -0.14589621 -0.054452777 0.09428398 0.047364388 0.075875305 -0.032344278 0.006315643 -0.041432504 0.09530461 0.14860688 -0.0100698685 0.12998657 0.085733935 -0.039899398 0.038464114 0.13064961 0.099600695 0.117599264 0.08237961 0.01852423 0.18800281 -0.07816938 -0.19989866 -0.16772938 0.04671839 -0.023650782 -0.10482616 -0.0017734093 -0.06783784 -0.012084972 -0.08616096 0.058006283 -0.020057034 0.09248494 0.10026662 -0.09538685 0.041749734 0.0032012267 0.013947623 -0.03779607 -0.19284387 -0.18728042 -0.09780991 0.26393256 -0.18534021 -0.06709772 0.02584216 -0.11823158 0.036088437 0.08017784 -0.1324323 0.04535979 -0.15183474 0.11023522
594 -0.034979224 -0.007667616 -0.03871539 0.17454687 -0.17562048 0.052710343 -0.16017318 0.16426818 -0.23445846 0.14532734 -0.08143118 -0.033122562 -0.07148972 -0.016107561 0.076462835 -0.036363214 0.14453602 -0.013902178 -0.0067402045 0.18990275 -0.12678763 0.0063214963 0.051555816 -0.08622091 -0.10184917 -0.02409574 -0.0742085 0.06126833 -0.17405026 -0.15446243 -0.14941454 -0.030920684 0.020414595 -0.20054431 -0.012883062 0.045440692 0.1180589 -0.25912032 -0.22893785 -0.033170596 -0.019566221 -0.042417724 0.11489397 -0.047085267 0.02969206 0.10705322 -0.09051651 -0.0032161921 0.11746695 0.09019683 0.23916781 0.009711868 0.14236227 -0.09388546 -0.032825287 0.033470027 0.14553268 -0.062209304 0.101448156 0.16820435 -0.027808357 -0.16919819 -0.056493264 0.033731993 -0.008245054 0.00880682 -0.09022148 0.038118567 -0.15254277 -0.10242112 0.17495602 -0.026325949 -0.13587216 -0.262262 0.23512393 -0.35191736 -0.024632605 -0.10010816 0.006107691 0.08816606 -0.14612004 -0.18717732 0.10878182 0.25150177 0.018546818 0.1983807 0.24000606 0.11030445 0.24127364 0.10755228 -0.22174619 -0.08895957 0.22863221 0.123976186 0.12642896 0.28243348 0.052889306 -0.34398064 0.029079473 0.01920934 -0.21181133 0.037612855 0.19391312 -0.031580243 0.08542478 -0.092423566 0.061039068 0.04438771 0.007574419 -0.22140387 -0.051102735 0.013789793 0.09111025 0.0013447367 -0.16009273 -0.008171825 0.22304088 0.28155243 0.11091407 0.0075505828 -0.064543866 -0.13871996 -0.051292717 0.06554845 -0.07353128 -0.017915366 -0.1045928 -0.049317442
4011 0.02982874 -0.07182199 0.013185936 0.11710132 -0.2466633 -0.08740314 -0.15449023 0.15301771 -0.14391513 0.047995206 -0.11479638 -0.072854735 -0.026897985 0.07784035 0.25532982 0.021714864 0.1614378 -0.07324062 0.059912585 0.17416613 -0.06798569 0.13364828 0.038174152 -0.11929886 -0.02976403 0.058416504 -0.10044786 0.1821186 0.02996106 -0.114068665 -0.25111273 -0.013219599 -0.03548609 -0.12768567 0.11698287 0.0051170234 0.16410075 -0.068694405 -0.09291632 0.056397613 -0.13658978 -0.04237491 0.25899133 -0.01630582 0.13428976 0.097190045 -0.14743821 -0.024429075 0.19181156 0.037230577 0.28670844 -0.0154144885 0.10000032 -0.03085306 -0.03022539 0.15393767 0.17070684 -0.12613904 0.080672875 0.09768047 0.04827786 -0.15478793 0.063443616 -0.107278824 0.089045405 0.017513579 -0.061485343 0.08196187 0.052292146 -0.09282299 0.20052443 0.0297834 -0.15404066 -0.19377741 0.30324763 -0.21592028 -0.0071535083 0.016573392 0.007472093 0.07288151 -0.22397375 -0.24937735 0.058838 0.1639964 0.094811395 0.16360176 0.15782416 0.104375504 0.09708671 -0.026207445 0.016585547 -0.24191673 0.26340023 0.011698543 0.12805945 0.25544986 0.009980957 -0.43100446 -0.01625523 0.0038812277 -0.20932616 0.06791633 0.25594562 0.07062949 0.07740943 -0.19430439 0.078540556 -0.034730595 0.009800937 -0.1641428 0.03015135 0.0045339838 0.07466164 0.074505344 -0.09303346 0.02771541 0.24906139 0.38000607 0.097153336 -0.015783763 -0.030854423 0.041998174 -0.13375226 0.073658265 -0.036192674 0.004106605 -0.106386185 -0.1537729
3999 -0.022947242 -0.31724012 0.46727282 0.181296 0.1373782 -0.033562966 -0.20474404 -0.19642703 0.08832485 -0.110504724 -0.093496494 -0.043540094 0.17320739 -0.21391481 -0.20924996 -0.03325852 -0.04668603 -0.08424995 0.27977374 -0.04086836 0.3910773 -0.09241687 0.14830126 -0.046883713 0.0077330335 0.095575646 -0.01732736 0.2624816 0.042624604 -0.018203765 -0.21458885 -0.096044235 -0.019714665 -0.17008005 0.06434487 -0.06147113 -0.12699813 -0.28743556 -0.36288154 -0.15986012 -0.070105575 -0.34536263 0.12127974 0.030661985 -0.082879744 0.2713259 0.12478072 0.030876102 -0.050394744 -0.08693515 0.010384362 0.008558883 -0.1552148 0.047643322 -0.039092734 -0.22084254 0.0902862 -0.16481273 -0.10785585 -0.02263428 -0.004162462 -0.36358207 0.15546016 -0.08051838 -0.24596655 -0.18266015 -0.13427961 -0.00082914525 -0.14363387 0.33505958 -0.02926519 -0.042484127 -0.28585994 0.01273289 -0.04941852 -0.09367268 0.12545481 0.0204485 0.3240723 -0.24456276 -0.17536919 0.010663278 0.080790155 -0.034291208 0.17648514 0.0031295135 0.10053638 0.14838508 -0.06765964 0.0138534 -0.21792807 0.16972946 0.1205942 0.009446815 0.17728248 -0.038049456 0.33937418 -0.11513688 -0.19412255 0.18710443 0.023490878 0.2743723 0.06822895 -0.3248728 0.014748212 -0.14329682 -0.043041553 -0.0026589609 0.19387567 -0.13893022 0.054105442 -0.089475125 -0.10884602 0.0029782902 -0.29027778 0.034023426 -0.04543741 0.26997438 -0.24169376 -0.34558573 0.22636665 -0.26427805 0.37896433 0.23451202 -0.15481906 -0.028512474 -0.41346532 -0.053902462
4024 -0.09367811 -0.09986283 0.16528277 -0.11078273 -0.08408556 -0.18968445 0.005991569 0.1352748 -0.050070245 -0.03292159 0.20493029 0.120902844 -0.062961504 -0.14240137 -0.007963732 -0.008294245 0.07932178 0.0790913 -0.035377767 -0.09333882 0.17550309 0.01477838 0.1037365 -0.05337225 0.042353336 0.03268078 -0.13964783 0.08307552 0.08707485 -0.083606675 -0.19669718 -0.06202643 -0.09790429 -0.06868737 0.022060947 0.08225646 0.12070713 -0.11012991 0.089790866 -0.07262824 0.108043164 0.10271721 -0.06061072 -0.043441392 0.06123116 0.0320631 0.028731044 -0.11775705 0.025346475 -0.05781533 0.124629706 -0.0040021692 0.006038489 0.056161005 0.18025962 -0.0754587 0.15400031 -0.1379759 0.03514906 0.092290804 0.10393139 -0.12178321 0.0059515378 0.011154709 -0.13170908 -0.09189187 0.0039608274 0.07965123 0.020028932 0.04008442 -0.04133834 0.006475131 -0.11493198 -0.1222779 -0.02264691 -0.16597885 0.08918003 0.11954839 0.06344527 0.096994855 -0.16433589 -0.05283 0.17728718 0.16845298 0.15344766 0.06603096 0.09194735 0.02831707 0.13109311 0.18870275 -0.08358792 -0.0682153 0.028324267 -0.0036984598 0.072612464 -0.08209768 0.055614825 -0.088908434 -0.09780527 0.09972293 -0.022919971 0.1535047 0.009526065 -0.031109782 0.17608748 -0.100411564 -0.09788419 -0.0415349 0.070486315 -0.1701238 0.14452645 -0.008345062 -0.039667968 0.10271039 -0.020370916 0.049199786 0.008493787 0.07536283 0.04353174 -0.012872142 -0.04976909 -0.007035007 0.028793901 -0.002078715 -0.043094564 -0.0856221 -0.13649753 -0.051858913
4006 -0.020731715 -0.14603414 0.19744268 0.15211822 -0.022772787 -0.22603804 -0.061863333 0.04559608 0.034428716 0.1459608 -0.021051958 -0.041191924 -0.01481082 -0.19028795 -0.21464379 0.1434835 -0.04569028 0.29446265 0.106970794 0.00786529 0.20913495 -0.035913363 0.05559568 -0.0322841 -0.015998118 -0.17036621 -0.14667377 0.08356632 -0.0236155 -0.22686319 -0.11591174 -0.03778383 -0.08814999 0.060188208 -0.012793877 0.20674804 0.018146837 -0.16249944 0.16184205 -0.014061308 -0.017711807 0.11159695 -0.06370452 -0.13099627 -0.028864034 0.15244015 0.0811743 0.05266543 -0.007836209 -0.008940527 -0.06031217 -0.06237196 0.1792607 0.039450105 0.3758996 -0.037117317 0.089056104 -0.045513693 -0.12133713 0.15610738 0.12023489 -0.032814134 -0.039703287 0.1901009 0.059088632 -0.05182743 0.19722329 0.008936584 -0.0043967427 0.1560616 -0.09774475 0.076703 -0.054374356 -0.11029046 0.015597056 -0.14708439 -0.039242823 -0.07585314 0.011500466 0.33443588 -0.060212683 -0.044462368 0.0030094516 0.14201385 0.1413166 -0.03738087 0.21259183 -0.029598871 0.16302225 0.22842479 0.13098352 -0.28562948 0.06621803 0.032644738 -0.011142135 -0.036895916 -0.15838064 -0.14266197 -0.16696993 0.35045993 -0.1487616 0.08896567 0.051624153 -0.10765165 0.13898826 -0.0016360915 -0.09533828 0.0041614342 0.038494714 -0.20894523 -0.014109869 -0.33111322 0.16447939 0.038904108 -0.14841318 0.043799575 0.033441365 0.22561513 0.06805261 -0.060225714 -0.11798474 -0.008585891 0.1406274 0.12402227 -0.0076545156 -0.053468384 0.014233919 -0.13372278
3991 -0.10538421 -0.10936029 0.086191036 0.08307685 -0.19478966 -0.036167536 -0.06408404 0.23613086 -0.27145413 0.058002297 0.06786105 -0.020707007 -0.05719166 0.16440812 0.22497994 -0.07522854 0.12774874 -0.09372366 -0.052547455 0.25273016 0.10245992 -0.0062376913 0.07567729 -0.118195444 -0.10265394 0.065334484 -0.16336079 0.1907697 0.028966837 -0.12865497 -0.26923308 0.0046563433 -0.106931426 -0.10110785 0.12647653 0.051876996 0.12373368 -0.15257835 -0.010349052 -0.025411153 -0.014317502 0.061023638 0.082790956 0.039408706 0.0601354 0.06431653 -0.11189181 0.056034002 0.10732731 0.111965664 0.10091671 0.055151932 0.027202373 0.009686456 -0.012164889 -0.034241058 0.1345334 -0.20066686 0.14854121 0.21207158 0.07067927 -0.20382798 -0.0884964 -0.19461247 -0.023785824 -0.07538921 -0.15639415 0.10624867 0.029672371 -0.054981492 0.015115743 -0.01788448 -0.090229 -0.17078313 0.15160277 -0.20519544 0.06721815 0.09625166 0.018184239 0.086033165 -0.18518029 0.018402379 0.10355778 0.22274521 0.07748199 0.10747291 0.119645685 0.02948119 0.039486427 0.07355075 -0.027033467 -0.043423448 0.14566103 0.09530826 0.048360914 0.04456304 -0.06931993 -0.19476074 -0.14934662 -0.003506465 -0.21403031 0.012444228 0.095530115 -0.0724337 0.19792397 0.023479246 -0.04781249 0.017186366 0.12996392 -0.15395729 -0.018870495 -0.029550955 0.058092277 0.03162259 -0.05830922 0.08720541 0.16821654 0.21465123 0.116253786 -0.039364804 -0.036919925 0.058469847 -0.15198717 -0.002237968 -0.1682054 -0.040150065 -0.14933352 -0.003240271
4036 -0.039168064 -0.37699354 0.35192162 0.23614201 0.10417988 0.16541608 -0.26470113 -0.2273947 0.11248086 -0.15106061 -0.1384038 0.063473016 0.0614913 -0.21641026 -0.243563 0.05684276 0.022716938 -0.1046609 0.28072792 -0.067536116 0.48543662 -0.07797356 0.16782391 -0.0045800675 -0.006066148 0.12623629 -0.15731676 0.2453562 0.012858025 -0.06463597 -0.34079614 -0.13429661 0.030566836 -0.31117824 0.20502995 0.09955369 0.07949884 -0.3907407 -0.44600397 -0.11199045 0.0022924412 -0.4344873 0.21694589 0.061855175 -0.07541412 0.28179777 0.13901046 -0.051541075 -0.018437702 -0.23393996 -0.078824855 0.11799149 -0.07086126 0.056495436 -0.00990472 -0.21999389 0.061444744 -0.09500244 -0.010426484 -0.10049752 0.014361335 -0.36103547 0.19910592 0.042155407 -0.4054534 -0.15022986 -0.17922093 -0.08359209 -0.22731264 0.42149985 -0.13193119 -0.056120146 -0.31577474 0.017184563 -0.050430972 -0.20104238 0.12528789 0.26708463 0.3794521 -0.24473733 -0.1873068 0.04035802 0.20607854 -0.03247437 0.31025782 0.0034485147 0.10531411 0.2033022 -0.074022144 0.07890136 -0.28650674 0.19869934 0.11539346 0.08779349 0.2401487 -0.059647065 0.3832854 -0.018790606 -0.23468202 0.25584516 0.15833928 0.36495557 -0.017446471 -0.34848642 0.02570201 -0.06471955 -0.11172288 0.07390171 0.24285421 -0.2719825 -0.02523675 -0.051291432 -0.22861412 -0.056569785 -0.24232844 -0.012430641 0.028250076 0.31301785 -0.34366068 -0.34207565 0.32460663 -0.24573801 0.33081245 0.1882206 -0.15815575 -0.08298577 -0.5005413 0.044895995
4034 0.035061967 -0.048065018 0.1966654 -0.06534883 -0.11640069 -0.21168853 0.040811595 0.1229529 -0.17089824 0.0233725 0.12183361 -0.094648995 -0.015339749 -0.11685665 0.06012323 -0.043937813 -0.054971125 0.030513283 -0.025493119 -0.01801758 0.14534755 0.06789466 0.0425709 0.08212559 0.09088818 -0.009137504 -0.048849747 0.12826648 0.016360523 0.004354925 -0.24425851 -0.062419903 -0.03275737 -0.110122174 -0.06049056 -0.0132953245 0.15113254 -0.0742972 -0.008566914 -0.08954313 -0.06165577 0.0420796 -0.07082383 -0.052335683 0.05562789 0.14180395 0.15073992 -0.14775464 -0.060984932 0.08302614 0.09499565 0.04373979 0.045963727 -0.10525685 0.10488788 -0.018466255 0.22591023 -0.2161587 0.09396295 0.06939688 0.20488086 -0.2714587 0.029638924 -0.11752949 -0.13337524 0.019777432 0.01612648 0.054469466 -0.053177886 -0.0898276 0.0465827 -0.041523993 -0.12158728 0.0114895655 0.013115414 -0.10569867 0.02754355 0.028196713 0.07160398 0.029915316 -0.1787272 0.0025714026 0.114240214 0.06549326 -0.069653414 0.13425472 0.1552719 -0.022255024 0.18165627 0.16054423 -0.13364516 0.030047966 0.16087466 0.037907157 0.05821514 0.105187275 -0.14870197 -0.12710261 -0.0726313 0.016780151 -0.16509138 0.15337776 0.046127327 -0.028389499 0.028866885 0.038747266 -0.06095198 -0.029966842 -0.09819794 -0.10843719 0.054227564 0.008211891 0.033655114 -0.03305119 -0.012998416 -0.0795647 0.063126326 0.06581655 -0.09500728 0.05550929 -0.045501444 -0.11153702 -0.1252583 0.04816119 -0.048034284 -0.049457032 -0.17025736 0.10659564
4005 0.05889159 -0.42273077 0.35133466 0.051704094 0.12060812 -0.21287037 -0.1008611 -0.12233863 -0.032961965 0.012226315 0.12750049 -0.029497089 -0.0067377836 -0.18202448 -0.18230069 -0.06539784 0.0029601771 0.11288765 0.057874158 -0.0418461 0.15122044 -0.04269162 0.05376969 0.1574526 0.06384591 0.059169367 -0.07831294 0.08224761 -0.11582134 0.00828858 -0.18108399 -0.015615106 0.05595823 0.005283999 -0.09533419 -0.062197268 0.025133787 -0.06953066 -0.069033 -0.022628218 -0.056145452 -0.07625645 -0.05558823 0.0031962432 0.04982596 0.080994286 0.07635842 -0.034048438 -0.023192964 -0.038558885 0.11537852 -0.080781564 -0.03474283 -0.06569059 -0.06259554 -0.04865849 0.12379366 -0.19946574 -0.02376044 0.07550823 0.21472248 -0.22745955 -0.025821788 0.041362368 -0.043228455 -0.018611573 -0.12065413 0.029849254 -0.059062615 -0.012538021 0.046184145 -0.1148614 -0.12313893 -0.11742128 0.02718991 -0.10640727 0.029813819 0.030222503 0.16203643 -0.11010409 -0.1720963 0.01880566 0.055141006 -0.026632315 -0.09368744 0.15218684 0.103658915 -0.010448574 0.07707245 0.13535035 -0.1246607 0.04556228 -0.036738493 -0.0074739605 0.11615844 0.060580242 0.057340868 -0.21918048 0.024024706 0.083636485 -0.007042128 0.11568811 0.08345556 -0.09993135 -0.07479343 -0.09983845 -0.12627316 -0.058767017 0.046450302 -0.14910819 0.076489344 -0.11558008 0.07654131 0.05311645 -0.034923524 0.019882528 -0.08764413 0.07627594 -0.16224095 -0.076634385 0.04764121 -0.23251565 0.12743822 0.20729244 -0.09996795 0.01060755 -0.17154904 -0.0015029745
4015 -0.057868518 -0.10423836 0.25992858 -0.045956485 -0.11656685 -0.13883688 -0.043186568 0.13699773 -0.037068572 -0.046340268 0.06205674 0.111121155 0.010919047 -0.16494149 0.08660336 -0.040760458 0.0850296 0.056169294 0.026262674 -0.021407295 0.0987105 -0.013125236 0.115107834 -0.09645114 -0.05756575 0.04899214 -0.009487445 0.19300915 0.040426586 -0.111283414 -0.20282193 -0.14641012 -0.055885196 -0.09342668 0.0069625443 0.050607372 0.10732794 -0.089847036 0.03018262 -0.04591967 0.06688981 0.010552139 -0.04451709 0.059755463 0.1681611 0.09801118 0.008197144 -0.040535368 0.09283933 -0.063901864 0.028508877 0.050991993 -0.008531875 0.055443875 0.118378006 -0.06635942 0.09263414 -0.16236046 0.1465937 0.056691464 0.12739743 -0.068914644 0.0373527 0.0035829977 -0.11756173 -0.11182502 -0.12924813 0.045627717 0.046644293 -0.044576276 0.07402066 -0.06769028 -0.097520836 -0.17466357 0.07146472 -0.11464145 0.108770415 0.10094092 0.08813869 0.03274002 -0.18125555 -0.046707403 0.2522115 0.12337465 0.11566009 0.015001925 0.08134749 0.05917577 0.13112508 0.032524955 -0.14688155 -0.013752707 0.047003504 0.08842965 -0.033188086 0.05335653 0.12158868 -0.1786487 -0.08916778 0.055475805 -0.050764978 0.1907173 0.11914614 -0.13233258 0.11107211 -0.10604941 -0.06992647 -0.08023045 0.13315453 -0.11675831 0.064774826 0.0965235 0.002150093 0.07650728 -0.07281349 0.049298458 0.123104535 0.20681193 0.013373185 -0.14929423 -0.06873896 -0.04937781 0.01976842 0.10333474 -0.22268361 -0.13186346 -0.23078719 -0.11104546
3984 -0.08703199 -0.11174662 0.2443922 -0.04213997 -0.19341849 -0.20959653 -0.049062297 0.0040060254 -0.033300154 0.0281162 0.19885667 0.10384179 -0.10120194 -0.18040809 0.0062743467 -0.04910534 0.15248518 0.049990863 0.025573969 -0.016526716 0.1343536 0.042633537 0.058110055 -0.079655185 -0.07415369 0.02890697 -0.18672913 0.117213175 0.042410456 -0.16911028 -0.17371522 -0.025809076 -0.16029343 -0.08337937 -0.0046291733 0.042300157 0.17939779 -0.18751614 0.07052539 -0.043221284 0.03446579 0.096469715 -0.027372 -0.06512939 0.12000238 0.026395945 0.017034147 -0.089592926 -0.030673953 0.059268907 0.12627253 -0.10817184 -0.045941964 -0.0546948 0.20106068 -0.07859531 0.095550254 -0.12033866 -0.02033071 0.12526782 0.13237263 -0.11996029 -0.07734602 -0.049411915 -0.010676848 -0.06646737 -0.06161724 0.068250515 -0.016460052 -0.13062525 0.042542797 -0.03172008 -0.18882567 -0.10465881 0.035055775 -0.18348442 0.065638304 0.044172876 0.0697715 0.017722102 -0.09143925 -0.0045774435 0.14259568 0.08758249 0.07485901 0.06044631 0.09595296 0.026863666 0.13527721 0.07273888 -0.10300877 -0.059570413 0.001366197 0.051151842 0.11009465 -0.023251168 0.041496016 -0.10997924 -0.09466699 0.12654974 -0.008236866 0.13757934 0.08018509 0.009088643 0.13803457 -0.106593415 -0.0790796 -0.058150068 0.035733968 -0.120334156 0.010366101 -0.052388858 0.061802715 0.09952331 -0.00048177835 0.15679088 0.050808538 0.105249055 -0.020030146 -0.07893336 -0.057244085 -0.026788078 -0.026852224 0.022603706 -0.043334913 -0.076597825 -0.089690246 -0.054866504
3983 -0.10620941 -0.02759581 0.19787732 -0.020198684 -0.116224326 -0.13967687 0.0883675 0.10180346 -0.16370174 -0.011446225 0.20374909 0.060588207 -0.08120844 -0.17357834 -0.051582377 -0.065985754 0.09834516 0.03436087 -0.018775582 -0.06703057 0.12487297 0.045334343 0.08735972 -0.023142995 0.04353476 0.060504455 -0.1328152 0.07295619 0.058037832 -0.11945736 -0.21376507 -0.03861587 -0.07990107 -0.098410256 -0.03178081 -0.030775758 0.12775528 -0.22015281 -0.032750525 -0.08639992 0.046752278 0.0985412 -0.053495128 -0.05520411 0.032172795 0.122602336 0.025201114 -0.08003047 -0.03348525 -0.0035172962 0.09704787 -0.0058565126 0.06864062 -0.019403774 0.123689435 -0.054513175 0.14276235 -0.16778548 0.036493696 0.072733164 0.12504607 -0.23208544 -0.0077249473 0.024151534 -0.15614036 -0.09210659 0.009156439 0.044565476 -0.03600962 -0.047871485 -0.03687661 -0.05224771 -0.1895221 -0.1039165 -0.08340237 -0.13377753 0.047498543 0.05613136 0.023390641 0.0001916216 -0.150932 0.0102250455 0.19102833 0.14665207 0.04538 0.07150749 0.08195995 0.035978314 0.18689004 0.1726916 -0.13518463 -0.0067260126 -0.023375347 0.077111244 0.09069456 -0.073499784 0.025879448 -0.025945794 -0.04400422 0.12084895 -0.07857167 0.09059151 0.01357892 -0.03168396 0.16151507 -0.0078094574 -0.038257133 -0.011315416 0.05964749 -0.19647235 0.16988957 -0.008755411 -0.015198223 -0.034302246 -0.018369356 0.009295306 0.046992343 0.037236974 -0.056248594 -0.05909937 -0.027142923 -0.10060969 0.0392086 0.020250684 -0.10876899 -0.10450122 -0.12848592 -0.02147039
4032 0.066544555 -0.20824891 0.1126079 0.31658652 0.03975471 -0.34588516 -0.11565469 0.11135814 0.0795195 0.24976838 0.048184164 -0.14560845 -0.07994422 -0.16035789 -0.15304293 0.25041312 -0.10144649 0.30946812 0.020589799 0.050318018 0.1429686 -0.013431377 -0.008126927 -0.03336342 -0.056055456 -0.3840892 -0.15701607 0.20154838 -0.1403215 -0.13423769 -0.23468438 0.077882215 -0.03436001 0.1040613 0.026096346 0.41817278 0.18374471 0.134575 0.32627445 0.0458006 -0.08228301 0.034424417 0.019598486 -0.09022851 0.0073951064 0.13775718 0.022045162 0.07673813 0.08386175 0.14973904 -0.17203987 0.039613128 0.24592052 -0.010821847 0.45261672 0.033568006 0.060458746 -0.0020271062 -0.02072827 0.1847426 0.13604526 0.109027885 -0.045506284 0.04051498 0.03706538 0.05064216 0.15073124 -0.051837802 -0.013143025 0.29147932 -0.02976203 0.1927544 0.063719705 -0.16376218 0.13665733 -0.13896868 -0.01234713 -0.01571341 0.07680716 0.42946094 -0.01603581 -0.066466495 -0.049863297 0.11762468 0.17970155 -0.0742482 0.38149104 -0.012729814 0.08030763 0.30228025 0.1875304 -0.30129635 0.21024044 -0.015131347 -0.012953577 0.12679614 -0.32010952 -0.27921632 -0.1817699 0.24611953 -0.20933624 0.14819649 0.0807151 -0.15456046 0.0426259 0.08428535 -0.077954695 0.021159457 -0.06145963 -0.11806966 -0.23325366 -0.22328551 0.21780217 -0.037822526 -0.14937557 -0.16828209 -0.017012032 0.34553063 -0.05815633 0.0059716175 0.01305887 0.0013365062 0.11847999 0.12194115 0.07953555 0.12566634 0.06276619 0.09173797
