63 128
830 0.059272576 -0.066115126 0.050246693 -0.059770662 0.09865884 -0.07584484 -0.04307692 0.14029655 0.019060336 -0.11235767 0.18508422 -0.045908023 -0.13477439 -0.09132902 0.008405713 -0.0985548 0.088273026 -0.0021689117 -0.048726372 -0.13852535 0.11936479 0.04987844 0.014542074 -0.09611274 -0.032995287 0.045551892 -0.07311095 -0.032198437 0.09916396 0.026269631 -0.2702456 -0.033001482 -0.0874975 -0.036462273 0.012840079 0.10588336 -0.17396837 -0.17106684 -0.018436182 -0.026080199 -0.077905826 -0.028311731 -0.14207138 0.00030871682 0.043368727 -0.21719864 0.07447531 -0.069694154 -0.03463214 0.031860743 0.0014461172 0.057590663 0.028571142 -0.046019 0.16657038 0.032694038 0.23498376 -0.060256932 -0.08252894 -0.075443424 0.095973 0.017724935 0.04083047 -0.107865594 0.12791026 -0.07580772 0.32893798 0.14100595 0.1329288 0.0035076991 -0.0011115392 0.09143803 -0.05985446 -0.085992165 -0.028526777 -0.08811434 0.09389953 0.1438864 0.06322243 0.046061438 -0.18213832 -0.09037101 0.030478893 0.011234134 0.066522874 0.0058741793 0.053241786 -0.048016455 0.09628728 0.07455613 0.07286538 -0.055674538 -0.090226434 0.036354117 0.080511436 -0.029317003 -0.014263746 -0.20517468 0.029034555 -0.010354823 -0.07151452 -0.05826541 -0.13633965 0.03155755 0.12894396 -0.024276042 -0.079233676 -0.2678834 -0.018041993 -0.022516266 -0.021185754 -0.08448974 -0.09185038 0.071993135 -0.08516083 0.12727502 0.013042575 0.058892913 0.1598467 0.17845699 -0.102036305 0.03853467 -0.09276664 -0.022240553 -0.041804742 -0.033410203 -0.08205553 0.13296752
698 -0.009150837 0.0567681 -0.0056979232 0.0165543 0.02944714 0.06415115 0.002006279 0.056976143 0.060584396 0.0034073489 0.077908285 0.027988814 0.034831952 -0.08247049 -0.10883138 -0.057540745 -0.027539305 0.13840576 -0.14056382 -0.027639506 -0.02343004 0.034790043 0.09357446 -0.13099939 -0.058765016 -0.10328279 0.030328322 0.013248698 -0.043138873 0.12605424 -0.1296341 0.057625733 -0.16634294 0.061915748 -0.041205294 0.1415368 -0.044695903 -0.112852275 0.15240599 -0.19672821 -0.030631635 0.053621937 -0.10182257 -0.121733524 0.06883415 -0.027660538 0.00035883475 -0.12406706 -0.10586778 0.038439244 0.15101922 -0.00537872 -0.07543552 0.11463951 0.057623524 -0.069871224 0.23964292 -0.057669565 -0.023210516 -0.069909036 0.015108565 -0.008928359 0.05413567 -0.2176434 0.01791857 -0.015057581 0.0034350108 0.119749956 0.020622607 0.14506662 -0.06022178 0.09320907 -0.16556855 0.038522344 0.02833899 -0.1493033 0.016537003 0.07333494 -0.080327086 0.14417881 -0.10007342 -0.022795804 0.11571489 0.13248092 0.15736404 0.057028536 0.21789347 -0.08649284 0.04778756 0.18045542 -0.04618166 -0.13731168 -0.08176779 -0.012318086 0.07175443 -0.06285437 -0.055734348 -0.16324773 -0.123858295 -0.099376515 -0.029493732 -0.073652916 -0.014581984 0.086705014 0.10851594 -0.05905551 -0.059337087 -0.18005434 -0.08117516 -0.054766152 -0.0068737827 -0.018602783 0.043173645 0.07985705 0.036315873 0.03584903 0.055265885 0.07157293 0.037649453 0.054673433 0.02764706 0.031046359 0.032425754 0.090902254 0.03350611 -0.13397598 -0.12340629 0.04174765
856 0.010477701 0.15456198 0.08678439 0.0066687264 0.13228366 -0.22260992 0.072173715 0.16811393 0.02920359 -0.033624306 0.19399679 0.0032127523 -0.035482343 -0.20017391 -0.081031606 -0.035440292 0.1283792 0.0030473918 -0.09972862 -0.041981775 0.15613262 0.026392726 0.021706382 -0.11416748 -0.01390358 -0.0071117543 -0.14202677 -0.026951777 0.08304912 0.032719724 -0.13288249 0.04568251 -0.10768418 -0.12560989 -0.063469626 0.17471558 -0.11128245 -0.046314135 0.049383383 0.02188202 -0.10834028 -0.061381128 -0.1347647 0.0049345614 0.056475103 -0.045090213 0.09103113 -0.06866006 -0.15196235 0.07600457 -0.04584203 0.16977447 0.052878387 -0.049450494 0.15193775 0.027383124 0.15600806 -0.0316607 -0.03065053 -0.11509659 0.18430586 -0.05230986 -0.0075926427 -0.09651433 0.14166847 -0.066943415 0.21351162 0.085053414 0.045771822 0.05779774 -0.01097004 0.037126984 -0.019194068 -0.093831025 -0.01764285 -0.18402328 -0.04645772 0.14127503 0.08006938 0.12373602 -0.15174331 0.0038942632 0.075225644 0.08497863 0.06749842 0.0771475 0.070893735 -0.11125861 0.16725208 0.032937817 -0.038222585 -0.089086175 -0.10653908 0.02924012 0.0443652 -0.004166883 -0.0107574295 -0.16228817 0.040451016 -0.038199343 -0.21686982 -0.003912649 -0.123681284 -0.023988519 0.0068636923 -0.07544558 -0.054026507 -0.2823492 -0.018874587 -0.118860774 -0.073519886 -0.045207042 -0.051917624 0.056523446 -0.0791615 0.037785277 0.031241516 0.07585993 0.041001335 0.15845627 -0.05184857 -0.051969677 0.004424561 0.112433806 -0.07146334 0.0092920745 -0.008899771 0.13041227
747 0.049509898 0.052405983 0.07939737 -0.062319174 0.15138309 -0.1560341 -0.056592666 0.18236999 0.06259354 0.023338364 0.20598657 -0.12083031 0.12837823 -0.15067047 -0.09937785 -0.15000066 0.014656459 -0.04343443 -0.06784539 -0.083987676 0.12256626 -0.05284881 0.046129495 -0.02692764 -0.053766288 0.106842145 -0.035695918 6.277025e-05 0.1167483 0.052086107 -0.1849055 0.029235985 -0.12952451 -0.016116438 0.1113764 0.018805007 -0.10185167 0.06278953 -0.03904901 -0.021824785 -0.090232044 0.029230803 -0.112760015 0.047392465 0.039338455 -0.08488548 0.0691074 -0.13200776 -0.03546254 -0.02117213 0.025028676 0.08325871 -0.018276177 0.06387835 0.2052895 -0.05977944 0.18435809 -0.042916074 -0.16530955 -0.11019008 0.1046378 -0.055430535 0.13120565 -0.12193779 0.19356261 -0.101817064 0.16856827 0.07208534 0.22418033 0.076504715 0.0011775207 0.11470602 -0.13317962 -0.02603284 -0.060667515 -0.11156896 0.025923193 0.12037515 0.02632991 0.10664855 -0.15708853 -0.023032546 0.07308251 0.032381598 0.12696475 0.11035778 -0.008198818 -0.050683554 0.007860346 -0.0076814126 0.092454 0.003387526 -0.08324263 0.06104191 0.022068797 -0.025965542 -0.11953936 -0.3036066 0.013616324 -0.060524955 -0.094970345 -0.06655971 -0.1269133 0.034680363 0.06507361 -0.041073684 -0.11524789 -0.30154002 0.032109287 -0.038277138 -0.0010232507 -0.0517409 -0.006388678 0.052227736 -0.010126918 0.1644714 -0.028241096 0.09688497 0.14057302 0.1798971 -0.046041343 0.057468794 -0.026410906 0.03451454 -0.043765094 -0.10716662 -0.021636529 0.06773945
774 0.056510404 -0.039149057 0.08803562 -0.13889173 0.13195427 -0.1255951 -0.008436148 0.21808279 -0.04646035 0.010505706 0.16892742 -0.099274896 -0.10778065 -0.10505955 -0.02426936 -0.0812072 0.054610495 -0.038150385 0.029631073 0.018789863 0.14209193 -0.08447187 -0.070085146 0.05413161 -0.04046234 0.08861558 -0.121238835 0.035031457 0.17603055 0.103098676 -0.20446436 -0.013851005 -0.12681243 -0.1617738 0.1495533 0.10179319 -0.13583149 -0.09737492 -0.012132856 0.021233885 -0.048769917 -0.019485883 -0.1915092 0.08419375 0.13960089 -0.10022093 0.09981982 -0.10291748 -0.14183779 -0.037749637 0.08841647 0.01756744 0.08095675 -0.09709764 0.28166267 -0.029983386 0.21303213 0.040986396 -0.04545536 -0.16258888 0.02842767 -0.08825457 0.12923142 -0.033369925 0.105288066 -0.100912906 0.17328782 0.12841387 0.10978288 0.04492724 0.022611503 0.02541628 -0.085590884 -0.089752175 -0.054770958 -0.06462885 0.054238208 0.10115846 0.12237879 0.023180475 -0.13847245 -0.04150815 0.046867456 0.044074375 0.13936561 0.021788146 0.068489686 -0.039173327 0.0990779 0.08485027 0.04312628 -0.020826636 -0.106158935 0.06836064 0.13338183 0.020072173 -0.09303296 -0.120554514 0.15471983 -0.026109152 -0.07870779 0.04376581 -0.14254339 -0.13163593 0.07576818 0.042585704 -0.08139877 -0.25770944 -0.041838743 -0.16053039 0.016000172 -0.08158472 -0.08845413 0.06155028 -0.07018396 0.11013084 0.012276725 0.10768789 0.0889821 0.23420696 -0.011563033 -0.015578626 -0.025264269 0.11831191 -0.06686305 -0.080701105 -0.08404849 0.16490251
697 0.0964621 -0.054918725 0.1826275 -0.15373273 0.11660032 -0.11622279 -0.027093258 0.16507754 -0.00045929267 -0.016602755 0.14498965 -0.09202775 -0.10067516 -0.13208917 -0.032921664 -0.11381042 0.07888009 0.012487852 -0.005364866 -0.10147729 0.119057804 0.044626642 0.006466502 -0.021738715 0.009894774 0.07915401 -0.1066151 -0.012250223 0.09421437 0.06746998 -0.17871259 0.009254237 -0.11233343 -0.0899617 0.061811242 0.104952686 -0.07703572 -0.076484196 0.06563722 0.025791192 0.0049604657 -0.044707883 -0.1639295 0.04968493 0.05244506 -0.07387176 0.06099968 -0.08695463 -0.12563257 0.014390783 0.028139124 0.091861345 0.05925032 -0.07983616 0.21370496 0.029896334 0.16634385 0.005921624 -0.006941049 -0.10477242 0.08303114 -0.03192699 0.09737844 0.013621263 0.13035542 -0.14952369 0.22526325 0.0790554 0.103693485 -0.008020375 -0.038785595 0.064855404 -0.059167482 -0.082403794 -0.1062444 -0.08744004 0.1274656 0.16752265 -0.0012902175 0.06741522 -0.16718945 0.03236918 0.04212935 0.032310955 0.115105 0.010233334 0.10979793 -0.117515855 0.10048048 0.074835666 -0.030716356 -0.055254694 -0.14578071 0.060945675 0.11208085 -0.046021454 -0.11759787 -0.06568641 0.074044265 -0.0061397185 -0.087018006 -0.05009873 -0.055547457 -0.031304855 0.0686713 -0.0324359 -0.03655959 -0.19370173 -0.024695896 -0.038753543 -0.039458685 -0.06079117 -0.035106946 0.121413775 -0.17412414 0.12370383 -0.04397437 0.08844389 0.124632716 0.21002653 -0.027439704 -0.0066339434 0.0021237398 0.04849805 -0.016550409 -0.03009993 -0.0898736 0.18042749
800 0.06191073 -0.023386795 0.08255873 -0.10943376 0.14025623 -0.1433277 0.011217957 0.1854587 -0.008283051 -0.06241539 0.17665766 -0.021826908 -0.08965814 -0.07030231 -0.010505232 -0.07782106 0.08946238 -0.0009730624 0.012879081 -0.098926164 0.1779204 -0.004823033 -0.042579103 -0.011847155 -0.005804869 0.08710211 -0.16964217 -0.074419 0.13021958 0.020104999 -0.18911742 0.057466485 -0.120742045 -0.056528367 0.037617672 0.18667404 -0.11030154 -0.15380098 0.04257679 -0.0071061016 -0.0066292626 -0.016638737 -0.120924026 0.010494376 0.03837426 -0.13986108 0.097528376 -0.1286708 -0.08726893 -0.04810723 0.108293094 0.060383298 0.013141456 -0.026546825 0.20531794 0.0058515226 0.23933259 -0.046382483 -0.035940237 -0.12896049 0.11763 -0.042085603 0.13338651 -0.03182161 0.11363097 -0.116251 0.3167303 0.14356118 0.13993773 0.03264466 -0.058123384 0.0712906 -0.03381722 -0.059936438 0.007935617 -0.07769733 0.09889765 0.113505565 0.0611792 0.052918762 -0.22488703 -0.06403427 0.047885176 0.015504735 0.09091783 0.011633602 0.055849995 -0.060636375 0.11477671 0.059806228 0.06772638 -0.05307111 -0.080873065 0.010136927 0.06050755 -0.048716247 -0.03965444 -0.16754986 0.06071772 -0.0062326877 -0.05880856 0.02780451 -0.10333641 -0.018646356 0.0865562 0.010008432 -0.064611666 -0.20132455 0.016498633 -0.016968014 -0.04282127 -0.022515954 -0.053494856 0.055924967 -0.10270592 0.084987015 0.03799314 0.09228737 0.19849738 0.21027967 0.010647314 0.036066934 -0.088026576 0.08151769 -0.034655277 -0.05267402 -0.10677882 0.1828316
719 0.14294192 0.01811156 0.029166741 -0.06113706 0.09867127 -0.16937381 -0.006864689 0.11575212 0.067044094 -0.021200385 0.101443425 -0.037579216 0.012284578 -0.21295635 -0.03692285 -0.09235704 0.060622744 -0.02222414 -0.082326606 -0.03999634 0.1288557 -0.0015728906 0.06377388 -0.033659615 -0.011727867 0.1132159 -0.07181197 -0.0010332213 0.15199183 0.02431679 -0.21598774 0.012272162 -0.097257726 -0.056063127 0.026820615 0.11196981 -0.13469136 -0.029313873 0.028271152 0.044935025 -0.104827635 0.020177482 -0.217078 0.0559287 0.1062788 -0.14885925 0.08540753 -0.058340244 -0.10865636 0.041159775 0.0051901946 -0.0039300704 0.031205846 -0.017527461 0.19812912 0.023985341 0.23408869 0.0068234643 -0.08532382 -0.17041846 0.036561564 0.015910763 0.06681339 -0.060327183 0.13455406 -0.11959285 0.3121313 0.041174885 0.11945248 0.0037692836 -0.08240468 0.06737071 -0.045069702 -0.05346517 -0.048246607 -0.072800845 0.08040861 0.16742028 -0.036995187 0.05272163 -0.19689591 -0.08572208 0.071066454 0.08413835 0.048462223 -0.0076386635 0.07260839 -0.096299104 0.1787104 0.17996447 -0.018801358 -0.121768035 -0.10710119 -0.017189154 0.044271108 -0.0370507 -0.07926447 -0.09901422 0.1031124 0.0073032784 -0.06601075 -0.10176697 -0.09062738 -0.0103715565 0.06869839 -0.09415045 -0.14861031 -0.24187987 -0.05185832 -0.033658225 -0.016945448 -0.09341232 -0.04612402 0.013966497 -0.10671393 0.15675835 -0.05469867 0.037396137 0.12342692 0.21105348 -0.103414066 0.031824313 -0.05284001 -0.0012247041 -0.008094472 -0.075960025 -0.03157604 0.08709025
828 0.05819994 0.040216655 -0.0026771338 0.0055700587 0.07671318 -0.058949113 0.012452876 0.17362213 -0.012683041 0.04302793 0.13991155 -0.10026205 0.004527382 -0.17905319 -0.018304242 -0.052099608 0.106662445 0.021556871 -0.005829857 0.023058757 0.101071656 -0.029807212 0.022919048 0.010912019 -0.059640028 0.061466493 -0.06103298 0.0087004835 0.15263441 0.047794186 -0.22479235 0.03349033 -0.13735601 -0.1106831 -0.015737405 0.11232931 -0.082938194 -0.13705204 0.06576741 -0.064151764 -0.06274832 0.006497334 -0.19176236 -0.0006046242 0.11351472 -0.10079448 -0.005669318 -0.06108202 -0.11710925 0.036628757 0.10677322 -0.009891098 0.067788914 -0.09073134 0.10240252 -0.053067513 0.13711171 0.019185156 -0.04023542 -0.10421576 0.018852815 -0.024646899 0.016947486 -0.058213845 0.12876266 -0.088927284 0.18262471 0.09031253 0.21552923 0.056195613 -0.03316253 0.07778159 -0.06307002 -0.078511015 -0.021903375 -0.073493294 0.02541284 0.16322677 0.06984975 0.14873831 -0.19519305 -0.050667927 0.019628838 -0.00756679 0.112561956 -0.004681126 0.064817525 -0.025967577 0.13739064 0.03954801 0.07043728 -0.09041819 -0.12812841 0.05375617 0.059280265 -0.018043444 -0.05621414 -0.17318992 0.15672559 -0.0059407833 -0.16061108 -0.027962537 -0.16446161 -0.035946053 0.057652634 -0.014022885 -0.037718102 -0.33516797 -0.080193765 -0.10309104 -0.0453929 -0.12718661 -0.022306595 0.026698457 -0.07421674 0.06370246 0.037690368 0.1495265 0.095393926 0.18526018 -0.08196715 -0.0016450494 -0.067288384 0.048489224 -0.06817566 -0.012962541 -0.009238804 0.13339575
871 0.06881253 -0.21206929 0.2567805 0.032744747 -0.030227542 -0.24739084 0.016721772 -0.16277452 0.20729928 0.06230218 0.11258448 -0.20463777 -0.052717954 -0.09368458 0.27375817 0.1534323 -0.12487042 0.12948449 0.11639172 0.018498994 0.16972719 0.28048313 -0.037144978 0.08578001 -0.12570746 0.20757428 -0.09909184 0.079040214 0.0891032 0.21365763 -0.23798145 0.08682056 -0.054370794 0.23491831 -0.0031628022 -0.03204907 0.28938374 0.031357978 0.32158834 -0.14018492 -0.1474009 0.21916255 0.052383408 -0.055268276 -0.0014410563 -0.06125547 -0.099740036 -0.09160259 -0.10974086 -0.032143906 0.35201964 -0.23574129 0.09231871 0.2555963 0.0018835883 -0.025902731 0.09343014 0.018604126 -0.1802157 0.13527314 -0.08936504 -0.03218552 0.14275213 -0.21138267 -0.040255886 -0.053466067 -0.11319953 -0.08824655 0.046067465 0.08159397 -0.034086492 0.075500116 -0.33796364 0.03860265 -0.10112288 -0.18912262 -0.117981896 0.11728819 -0.2331779 0.10023861 -0.15691952 -0.28277475 0.07807523 0.18750557 0.17924125 -0.07876941 0.27797252 -0.08204425 -0.053005494 0.24689806 -0.10948586 -0.11776345 -0.19038503 -0.15518336 0.2212797 -0.18660006 -0.00784764 -0.16076568 -0.20502959 -0.10375224 0.051391248 -0.095230125 0.14574021 0.04758108 0.026804047 -0.12200891 -0.01832179 0.03601507 -0.063339844 -0.1056503 0.20471095 -0.07596288 0.1224017 0.048176896 -0.10416285 -0.06366675 -0.089705564 0.11985061 0.0030266715 0.011549978 -0.16832781 -0.095820986 -0.087669894 0.20313887 0.020345293 -0.22451054 -0.19531801 0.041044597
753 -0.016219012 0.14231832 0.18766133 -0.0041637816 0.100389995 -0.07621739 0.06233916 0.14492223 -0.11934702 0.021631813 0.09899716 -0.06605508 -0.019486299 -0.1419055 -0.049427256 -0.13711023 0.13418156 0.089284115 0.06514159 0.061027803 0.08674648 0.031455934 -0.14893721 -0.05601431 -0.081189506 -0.056434497 -0.17323466 -0.029397005 0.016985232 0.063753985 -0.074412405 0.027995273 -0.08176157 -0.09004417 0.13122976 0.004584661 -0.032463707 -0.0128536755 -0.023601862 -0.034966845 -0.12739618 -0.05254383 -0.11871307 0.13379934 0.18648352 0.07663976 0.017294189 -0.12145549 -0.096572645 0.12968728 -0.11834698 0.2872849 0.05653643 0.0011569865 0.13626643 0.0822007 0.02787557 0.023804551 -0.11773539 -0.038177352 0.14357992 -0.16825466 0.18794213 0.010638639 0.090795346 -0.20632732 0.011633034 0.04198678 0.05361346 -0.06666838 0.03349458 0.017236345 -0.22106707 -0.019722657 -0.10656698 -0.1378242 0.010333596 -0.076483734 0.06525191 0.08810512 -0.11368943 0.13593435 0.2502496 0.19485475 0.012757117 0.056602933 0.15482776 -0.020980813 0.20922631 0.04754572 -0.0693327 -0.074189335 -0.15269555 0.2219761 0.19077396 0.13014618 -0.23299098 -0.22020987 0.013110806 -0.14339179 -0.22037685 -0.13049158 -0.14413992 -0.015558239 0.046288982 0.058089245 -0.033288922 -0.32703787 -0.03052039 -0.113216065 0.11840304 -0.020265361 -0.06815197 0.037630476 -0.14236826 0.03892106 0.10385195 -0.018227495 0.0016297194 0.22700986 0.11521852 -0.0119625 0.116018094 -0.01821484 -0.0747175 -0.14629841 -0.056399863 0.1565809
708 0.036771443 0.07239949 0.19070311 -0.2566994 0.10884456 -0.109000124 -0.028974418 0.16121092 -0.07301371 0.01703468 0.14579673 0.05012383 -0.1270664 0.06527548 0.023930151 -0.08846351 0.08977002 0.07756359 0.16402541 -0.023926241 0.13733825 -0.036919124 -0.17247368 -0.043538734 -0.04984522 -0.047627043 -0.13730879 0.02633633 0.0922412 0.13635999 -0.06729517 0.012241115 -0.08413008 0.004427019 0.12684074 0.12960045 -0.03732457 -0.04553822 0.029878365 0.03750819 -0.08489228 -0.03412513 -0.121396735 0.15887524 0.09809694 -0.10513192 0.10945752 -0.13740747 -0.13570888 -0.03341445 0.11215646 0.21044914 -0.026030354 -0.06576908 0.19238806 0.1396618 0.19151738 0.055190913 -0.03890286 -0.08922916 0.03956805 -0.019849088 0.10224128 -0.059533324 0.1736029 -0.15921018 0.18700917 0.04764871 0.12513967 0.021282637 0.038487516 0.07158049 -0.08442409 -0.016900348 -0.0025013785 -0.09111377 0.085198276 0.036191456 0.14526154 0.09480672 -0.11012501 -0.016683178 0.07471719 0.05044551 0.085253514 0.032827437 0.071972944 -0.22442013 0.072492175 0.032740183 -0.02394195 -0.047780763 -0.052225605 0.06760548 0.12789002 0.031315476 -0.17720628 -0.2303392 -0.0023391964 -0.09184986 -0.2254796 -0.006740145 -0.12597273 -0.051821105 0.06194065 0.051675692 -0.097541116 -0.31755283 -0.11804451 -0.007985624 -0.003282306 -0.10429515 -0.1800911 0.08379564 -0.119410425 0.045147605 0.10407408 0.03367231 0.0731891 0.15200755 0.09656345 0.030244477 -0.057434004 0.023290582 -0.08287375 -0.07814453 -0.16070966 0.11654388
713 0.08063867 0.09954274 0.043229327 -0.15663129 0.13745658 -0.1781148 -0.08172673 0.16766575 0.042809747 -0.0427583 0.09430861 0.010162603 -0.013532673 -0.14397128 -0.1179339 -0.17579801 0.06579901 0.015605994 -0.04834093 -0.07423624 0.13711885 -0.031780805 0.038867146 0.015710888 0.0060556256 0.040566675 -0.06486043 -0.04484736 0.15198888 0.023133224 -0.20147692 0.034346938 -0.17015631 -0.049912237 0.021600628 0.129936 -0.08061643 -0.020638525 0.07214954 0.04055651 -0.0006941506 0.019893767 -0.14822565 0.11342688 0.065379135 -0.10315923 0.08099675 -0.096031405 -0.1609894 0.010215272 0.06862623 0.056780912 0.017834617 -0.011043075 0.1712561 -0.0013051393 0.23783018 -0.020245446 -0.057718232 -0.19514336 0.025423769 0.009980014 0.06509812 -0.062291227 0.12643395 -0.13645437 0.2220251 0.091594115 0.0884581 0.0131151555 -0.04975128 0.054239362 -0.09152616 -0.011266938 -0.0898761 -0.028487047 0.057787787 0.11484008 0.02611645 0.09426647 -0.12056899 -0.057033986 0.0726175 0.010911907 0.07579422 0.035534617 0.06954171 -0.106823504 0.12350963 0.120705545 0.008937924 -0.1065204 -0.11220394 -0.03175538 0.03023383 -0.03006086 -0.10279497 -0.14777179 0.032398883 -0.0006703278 -0.04104341 0.009505931 -0.13547887 -0.0038715175 0.13544154 -0.11221919 -0.09893395 -0.2533933 -0.10029149 -0.0034444612 -0.042505424 -0.10571219 -0.014479599 0.123384625 -0.09950095 0.09400713 -0.059822887 0.08922281 0.173497 0.15199703 -0.034638304 -0.01878278 -0.02702248 -0.008937336 0.06474365 -0.0714406 -0.07304571 0.109114036
819 -0.016884496 0.034960113 0.11182671 -0.15144493 0.15015805 -0.15987018 -0.034774274 0.23699498 0.013180288 -0.010752759 0.23614419 -0.1654467 -0.0897833 -0.1685721 -0.025147598 -0.16630027 0.19999763 -0.026316049 -0.05317841 -0.12717088 0.07414055 -0.04385004 -0.057110645 -0.010426626 -0.06725573 -0.020353258 -0.086349115 -0.057018843 0.14874956 0.002008283 -0.25794092 -0.10399778 -0.14601064 -0.05643248 0.0040408964 0.18651189 -0.10448915 -0.11310366 0.07329868 0.05122872 -0.0046849623 -0.042244762 -0.11439668 0.01832141 0.04585761 -0.19311078 0.0965256 -0.086415775 -0.07413309 -0.05808279 0.0720801 -0.025837548 0.04141026 -0.09593053 0.19894423 -0.041764367 0.21014696 0.011419889 -0.068401895 -0.07795148 0.03811374 0.059465535 0.01458143 -0.068437204 0.15547927 -0.14718215 0.26446754 0.0979808 0.15836251 0.019874496 -0.016563881 0.09396126 -0.03465048 -0.049647667 -0.01867775 -0.11372125 0.10161998 0.07250875 0.10146142 0.07417909 -0.22933647 -0.09291499 0.04609769 -0.000906798 0.06010987 0.030488424 0.012273729 -0.07430007 0.061514616 0.029287867 0.07418194 -0.058318853 -0.11227905 0.084183834 0.02297326 -0.024128998 -0.098524265 -0.16358675 0.014622791 0.024984198 -0.026543997 0.00063383766 -0.15152831 -0.0066418224 0.1338952 -0.035070326 -0.09953128 -0.24633448 -0.046033755 -0.018737933 0.0024724344 -0.1106069 -0.028001584 0.086431265 -0.02474294 0.14374126 -0.028355122 0.04114014 0.124347344 0.20720437 -0.0518892 0.02598737 -0.061447013 -0.015359215 0.008670273 0.022016807 -0.02291837 0.19863147
872 0.090407416 -0.08150015 0.16080862 -0.011311277 0.045893364 -0.059678175 -0.001661586 0.10846104 -0.10077518 0.19932868 -0.1473473 -0.026457459 -0.07327877 -0.16880976 0.124702215 0.18427302 0.08275918 0.04356554 -0.36957243 0.30879655 -0.15910059 0.15065819 0.084812276 -0.14831951 -0.14133985 -0.024182301 0.10499387 0.20457329 -0.07430327 0.044857472 -0.19866574 -0.0069191614 -0.06296228 -0.034235533 -0.33769906 0.13914435 -0.08500924 -0.3405973 0.16992103 -0.16083649 0.12667745 0.011329456 -0.273605 0.017280865 0.1482266 0.08915996 0.11125178 -0.026406268 -0.35112324 -0.13294654 0.3578976 0.039916206 -0.016476255 -0.005967727 -0.17174542 -0.025682902 0.27693185 0.14602016 0.22035386 0.105430044 -0.23801762 0.11632832 0.19640002 -0.06630931 -0.05241222 -0.00046217968 -0.056048006 -0.09151544 0.0933445 0.22472487 0.08636507 0.21820731 -0.015691224 0.08049786 0.15990861 -0.12412406 -0.08805183 -0.0025610193 0.0019928273 0.08372531 -0.092941985 0.061897542 0.19672087 0.04545734 0.08712273 0.054077063 -0.023873713 -0.02822553 0.06449457 0.12083645 -0.026284331 -0.1026934 0.13084891 -0.018503748 -0.18833658 0.17394875 -0.06650766 -0.14966837 0.0015827357 -0.06373915 0.038232796 -0.029621381 -0.010927517 0.10976682 0.22980753 -0.008391423 -0.075640604 -0.10477436 -0.1888106 0.08706574 -0.1664388 0.011660024 -0.06887634 0.19899334 0.004128156 0.020886943 0.27868992 -0.06695419 0.21805371 0.22112115 0.101054505 -0.14223102 -0.10318683 0.26608345 0.22158165 -0.28455448 -0.1759463 0.001906012
805 0.13004592 0.0674958 0.0823957 -0.13512896 0.1148381 -0.18024838 -0.026392432 0.25512844 0.03303729 -0.03218754 0.16876917 -0.081338026 -0.021457763 -0.21595748 -0.047833774 -0.12180474 0.15312135 -0.026333943 -0.038658395 -0.11926167 0.18440303 -0.0011881334 0.04052115 -0.009186227 0.018875705 0.047447793 -0.038303174 -0.018555285 0.20809476 0.035632003 -0.21442354 0.004726895 -0.08426794 -0.10265073 0.014184727 0.07138627 -0.12003748 -0.011060183 -0.019092843 -0.031869605 -0.045258954 0.07729797 -0.17536089 0.053777467 0.044377528 -0.17729685 -0.014696936 -0.0430632 -0.077468686 0.04395243 0.021797063 0.0022480222 0.03693757 -0.05303137 0.20911798 -0.046529993 0.1907791 0.028115924 -0.09532969 -0.16231146 0.02664952 0.029530633 -0.049761403 -0.15243942 0.16561487 -0.1748399 0.23038524 0.080412515 0.13109986 0.05771801 -0.033912312 0.039882258 -0.08046178 -0.058583442 -0.10749555 -0.0566532 0.020959852 0.1197036 0.023898866 0.16085626 -0.13852437 -0.11334242 0.0039468044 0.047345452 0.12870057 0.003062824 0.0589969 -0.12226805 0.15197688 0.110186905 -0.029528704 -0.098068565 -0.06300443 0.01714793 -0.007065492 -0.038152672 -0.019634701 -0.13442348 0.0044106417 0.023129918 -0.121529855 -0.011746257 -0.13517256 0.0037846395 0.12866127 -0.12019219 -0.06767172 -0.30627835 -0.050846897 -0.018948691 -0.0038468768 -0.124487996 -0.077225946 0.03891315 -0.09269748 0.11562812 -0.05207675 0.11870433 0.15517987 0.12932743 -0.09419043 -0.0075483886 -0.038229406 -0.03180232 -0.060537938 -0.048025534 -0.0037477296 0.026103117
861 -0.05901118 0.10168786 0.19922912 -0.051135395 0.047603317 -0.053261593 -0.05360107 0.11962559 0.02919825 -0.056263693 0.04721644 0.04317321 -0.08819207 0.011723796 -0.0043209963 -0.18603095 0.04164406 0.08303686 -0.058136106 -0.048224915 -0.0656139 0.04258761 -0.06540098 -0.11727169 -0.1481474 -0.12868069 0.02774092 0.16302945 -0.009170103 -0.06432583 -0.18044923 -0.079840526 -0.033249523 -0.10157784 0.028088707 0.05515869 -0.120201096 0.1124427 0.03994484 0.03586979 -0.12156846 -0.11896774 -0.111981206 -0.086166576 0.11527086 0.102869496 0.14727318 -0.10059267 0.037255477 0.21225226 -0.30706063 0.31052613 0.049632873 0.17344822 0.114248164 0.2319381 -0.009268987 0.034753174 -0.13000539 -0.028817493 0.23251696 0.012985588 0.18212745 -0.017997745 0.1962046 -0.07868763 0.07663376 0.06719979 -0.0950784 -0.1585358 0.16652296 -0.08648705 -0.13435388 -0.16741925 0.0052141612 -0.18365487 -0.1340886 -0.066095866 -0.0010253234 0.16941527 -0.13141572 -0.03275152 0.26379856 0.17421727 0.022921113 -0.013008975 0.14357826 -0.1836442 0.24186854 -0.035206683 -0.24458973 -0.17906627 -0.14117424 0.22811969 0.068682894 0.14573617 -0.14083397 -0.25104955 -0.03241546 -0.16440874 -0.36977455 -0.11473316 -0.0710413 0.04086415 -0.08296273 0.04679787 0.08026877 -0.34922197 0.04314901 0.0036873836 -0.05364118 0.12800446 0.022439957 0.13636108 -0.23909478 0.057926383 -0.04660484 -0.051655844 0.09455718 0.24421333 0.03336395 -0.04825353 0.06807589 0.22544427 -0.08680589 -0.20512588 0.05285579 0.023068668
882 -0.033465277 -0.101120315 0.20544945 0.1253902 0.054248348 -0.192529 -0.18800156 0.05657306 -0.026416179 -0.037926737 0.11552052 -0.12564465 -0.047088258 -0.10293271 0.015177269 -0.22673312 0.066151485 -0.025589958 -0.074717045 -0.048803166 -0.060918786 0.20066774 -0.06964708 0.05129195 -0.045286544 0.103776835 -0.020933272 0.06737645 0.004203984 -0.25339612 -0.14275338 -0.008524474 -0.10104998 -0.12036915 -0.08912398 0.02174892 0.11009348 0.027158068 0.17307179 -0.005798685 -0.04515327 -0.14735557 -0.018858856 -0.06050306 0.07620363 0.13557515 0.09968231 -0.11109778 0.06154357 0.17088869 -0.21235637 0.29104534 0.122830436 0.13751489 0.044879563 0.034644157 0.026729446 -0.12276849 -0.16608092 0.027376376 0.3729181 -0.24339573 0.24028249 -0.004897748 0.21990503 -0.054721333 0.016655171 0.09691375 0.025319703 -0.14325084 0.23678292 -0.089902915 -0.23033573 -0.07638448 0.048648864 -0.14209111 -0.24433756 -0.04571106 0.089622214 0.27667713 -0.23206662 0.007022285 0.20499717 0.068850115 -0.1490951 0.108942986 0.14471218 0.09271596 0.21918267 0.10451276 -0.0880761 -0.11051563 -0.044528313 0.21024874 0.025909264 0.15278232 -0.15646319 -0.13673498 -0.0015174885 0.045727856 -0.33652994 0.01552134 0.014293281 0.04709004 0.0037630775 -0.025064796 0.1506892 -0.29363593 -0.0009637518 0.0047842227 -0.043742754 0.07411305 0.2216948 0.17488694 -0.21435517 -0.05114851 -0.122046724 0.081112996 0.069373295 0.06499066 0.011441241 -0.18627341 0.06100705 0.19954656 0.05482755 -0.17673397 0.026249949 0.1041679
886 -0.12609082 -0.08635883 0.17298505 0.014775544 0.10780701 -0.14222793 -0.17890626 0.019512868 -0.0044312687 0.04977083 0.21378753 0.031167218 -0.019560711 -0.19206098 -0.09691457 -0.26661256 0.11048928 0.08950995 -0.08241189 -0.14738396 -0.12927009 0.22471923 -0.104919255 -0.0020297726 -0.099658564 -0.055419385 0.02239894 -0.021419175 -0.10172056 -0.1638236 -0.18900079 0.0046953037 0.049032524 -0.007961193 -0.015889455 0.103200614 0.04540614 0.09025454 0.104899384 -0.065615386 -0.072592065 -0.19779094 -0.17283063 -0.08130054 0.06628683 0.018720549 0.11675543 -0.09484839 0.023859447 0.23787837 -0.22455075 0.33422813 0.0639326 0.27824152 0.013404832 0.09303908 -0.016062925 -0.14520599 -0.18751918 0.0817456 0.33147085 -0.098765045 0.28934824 -0.0929781 0.15659872 -0.007892042 0.05757767 0.18351653 -0.12560366 -0.20574692 0.26999012 -0.11945045 -0.17268698 -0.022759851 -0.05520756 -0.1743122 -0.27688125 -0.15390705 0.08221031 0.2669146 -0.24753933 -0.027161093 0.21110041 0.23613982 -0.1723303 0.18372954 0.15384234 -0.048963558 0.21840169 0.009447388 -0.09583699 -0.021356607 0.05563939 0.18401033 0.04585448 0.21353385 -0.08748102 -0.06965728 0.07806681 -0.031685214 -0.33184195 -0.06316972 0.035258416 -0.035838686 -0.0139371725 -0.035908993 0.11444465 -0.21047021 0.0566644 0.041290503 -0.038013704 0.20774183 0.23728254 0.23120815 -0.19498762 -0.089160204 -0.10739132 0.012591786 0.06751856 0.25108904 0.033569913 -0.20398676 0.03474106 0.13564876 -0.01565215 -0.25138763 0.13606496 0.09812937
823 0.005845623 0.08185852 0.1459785 -0.02739217 0.14136226 -0.16200097 0.0045476714 0.18032107 0.022179397 0.05632484 0.079672635 -0.11023205 0.061391685 -0.018670805 -0.0033341816 -0.044720687 0.036156945 0.009092719 0.04997374 -0.0630224 0.089815296 -0.040728323 -0.11015617 -0.035477914 -0.009731744 0.022876484 -0.05916187 0.020872436 0.13777606 0.05999809 -0.11230612 -0.04665261 -0.07208118 -0.083748475 0.028541604 0.052874427 -0.17443469 0.009925714 0.007831087 0.0074089933 -0.14614026 -0.07948347 -0.1552404 -0.034899764 0.10456493 -0.090034164 0.026431777 -0.05361344 -0.10866648 0.08530099 -0.04221683 0.19725583 0.131034 -0.020697726 0.12200394 0.09069208 0.121603765 0.12897219 -0.12939773 -0.12271944 0.025582356 0.084452994 0.080364995 -0.120600596 0.22802174 -0.16877855 0.27349088 0.064512536 0.11657892 0.041968893 -0.012724055 0.087689064 -0.06988487 -0.05812592 -0.06204565 -0.16796511 -0.035669826 0.090048775 0.0897215 0.085972175 -0.23127908 -0.09794028 0.03488255 0.11920754 0.13624029 -0.008419194 0.09362507 -0.18004459 0.09014515 -0.06969473 0.042064693 -0.09819822 -0.16981061 0.12599307 -0.03152603 0.03897243 -0.15648289 -0.38258028 -0.051017523 -0.14847274 -0.21916577 -0.15926938 -0.23876093 0.02229354 0.038041666 0.0044739083 -0.08922288 -0.33959556 -0.063719146 0.0026900317 0.079689376 -0.09661409 -0.11106932 -0.047655102 -0.04653665 0.119433075 -0.10878192 -0.0069923615 0.080556706 0.19071724 -0.067907095 0.0412309 0.017687164 -0.050779067 -0.051950045 0.0073473025 -0.014756769 0.10359112
810 0.1253168 -0.033807755 0.18151407 -0.055348095 0.099551655 -0.16188556 0.03703849 0.08094223 -0.09411815 -0.04906452 0.10743496 -0.16620648 -0.09681872 -0.058447346 -0.0152008645 -0.10883407 0.055919513 0.13368411 0.0048627644 -0.07413564 0.16232929 0.07040494 -0.062427778 0.0014391848 -0.08104789 0.014606338 -0.09667977 -0.00550541 0.05001208 -0.024955004 -0.3271616 0.0623059 -0.002961384 -0.07658704 0.027243445 0.07065305 -0.13714868 -0.047919735 -0.06316409 -0.032605715 -0.09083402 0.042953912 -0.21343133 0.039502785 0.11080606 -0.1032542 -0.04281822 -0.0826541 -0.12592311 0.18542425 -0.033949085 0.14511828 0.029338734 -0.041701335 0.100553796 0.03544061 0.18571624 -0.054498136 -0.13667373 -0.16002631 0.07510648 0.09143701 -0.011670011 -0.10135454 0.0922689 -0.2166852 0.23096414 0.13563377 0.15381072 0.03644972 -0.052437555 0.121129885 -0.12344344 -0.009031709 -0.035699055 0.09437954 0.068126164 0.14962888 0.008555318 0.03751844 -0.15909761 -0.04920754 0.05317636 -0.040379155 0.11517746 -0.04168184 0.088023245 -0.16709402 0.07527856 0.08617076 0.06745826 -0.07846981 -0.12075521 0.05109857 0.020990953 0.035953667 -0.04189696 -0.17886001 -0.06726583 -0.044805955 0.0046651657 -0.05951481 -0.06455462 -0.010575987 0.1810366 -0.030232208 -0.02774683 -0.20752425 -0.06672576 0.050602447 0.01646431 -0.1537423 -0.012214299 0.0746897 -0.10918885 0.112123854 -0.023059111 0.0730917 0.14601886 0.2575705 0.01849143 0.095485814 -0.107892044 -0.06959399 0.05177496 -0.0035760924 -0.1307585 0.20354941
875 0.031358145 -0.080686726 0.10745686 -0.05677594 0.07899506 -0.04384411 -0.14094366 -0.008103006 0.039683275 0.029637888 0.07858004 -0.024966493 -0.024319654 -0.06651961 -0.06130569 -0.07258257 -0.002898383 0.0387026 -0.05153221 0.022998467 0.016651127 -0.027018854 0.087348334 -0.06376101 -0.077767685 0.10638626 -0.032278452 0.09240781 0.027804025 -0.03292988 -0.24166112 0.08568616 -0.082479656 0.11815704 -0.033031188 -0.033379275 0.012461626 -0.10623042 0.08843924 -0.0913578 0.03766237 -0.032080933 -0.12221692 -0.13379677 0.13913584 -0.03425573 0.040337287 -0.11789234 -0.20104064 0.05579537 0.12083377 -0.12985358 -0.03147517 0.13002668 0.018655105 0.0011532161 0.21508624 -0.06559807 -0.09319651 0.051480398 -0.057726376 0.024300124 0.2342527 -0.13339126 0.0019987158 0.043167114 0.025926828 0.07929417 0.08740019 -0.019984573 0.07033429 0.09373115 -0.16744125 -0.07102449 -0.039611153 -0.11398247 -0.0022324983 0.043219194 -0.1376292 0.0048477226 -0.09008813 0.07964428 0.12975544 0.046435606 0.053212434 0.017404431 0.076507375 0.026726644 0.053582907 0.07900508 0.042019118 -0.18507347 -0.01744768 -0.0028929848 0.042208 0.024521377 -0.09930771 -0.12136808 0.069728896 -0.042640947 -0.017878884 -0.07656782 -0.01692735 0.10988304 0.1255264 -0.050200753 -0.029997509 -0.1624407 -0.050663296 -0.049548425 -0.1623173 0.03202362 0.09803317 0.07063316 -0.1459537 0.07667789 0.023736348 0.06888047 0.12367631 0.059760667 -0.014853185 -0.04995932 -0.04189705 0.17387922 0.068888 -0.031516977 -0.0906768 0.103806354
745 0.04896146 0.016303927 0.118699126 -0.041842315 0.066517085 -0.21992306 0.13197295 0.079563 0.01752371 -0.054124698 0.19030645 -0.15977825 -0.02818624 -0.24336663 0.013858163 -0.027600786 0.1184021 -0.012260569 -0.11758788 0.06555409 0.07900568 0.022040786 -0.0386903 -0.027574008 -0.16183159 0.053450007 -0.12492463 -0.0903173 0.1514388 -0.050824627 -0.32132253 -0.00081222306 -0.09341717 -0.0076355306 0.00018561876 0.1855248 -0.17711847 -0.09865955 0.009222586 -0.038231988 -0.09647074 0.08425621 -0.21537894 0.05297265 0.15454453 -0.1269381 0.071907066 -0.15334058 -0.13063584 0.1284496 0.03834499 0.06122719 0.064723514 -0.060010377 0.14176251 -0.057683792 0.1707629 -0.023242086 -0.10534037 -0.11883431 0.09438515 -0.07106224 0.011621517 0.059353787 0.14749312 -0.14509954 0.31490886 0.086712375 0.1696002 -0.008520896 -0.052092295 0.11208604 -0.11809011 -0.011446096 -0.065640256 -0.049592093 0.09441049 0.037387904 0.00047817227 0.12831122 -0.19850537 -0.10393287 0.09371274 0.062985264 0.05395294 -0.039472595 -0.016831942 -0.021852888 0.19484232 0.07144307 0.060747847 -0.060737353 -0.100299664 0.072891206 0.05564928 -0.053084675 -0.11615135 -0.09677547 0.13842364 -0.01581598 -0.034748435 -0.079659715 -0.14926971 -0.061848547 0.052109767 -0.0049709375 -0.07838802 -0.18891339 0.005176352 8.9689216e-05 0.09143042 -0.0870948 -0.0033113253 -0.010294599 -0.041050468 0.11999043 0.038530897 -0.068061195 0.13406013 0.29131508 -0.0408719 0.030338477 -0.027762614 -0.07596834 -0.056171965 -0.05061668 0.024180455 0.09076771
867 0.11170328 -0.28233927 0.065300114 -0.06225635 0.09767295 0.1018069 -0.10730784 0.102616765 -0.0916705 0.20574206 -0.03697685 0.026805526 -0.019943383 -0.14224237 0.14490862 0.12163491 0.08970094 -0.028758205 -0.2531441 0.23711586 -0.13669328 0.09653378 0.067217626 -0.15460597 -0.18410541 0.01780672 0.055503104 0.21123745 -0.20273688 0.116305664 -0.28474075 -0.054554734 -0.0629231 -0.06614489 -0.08391058 0.16248485 -0.16008985 -0.36875334 0.019294703 -0.09254881 0.10885358 -0.026812654 -0.3979566 0.011217228 0.11917921 -0.045468368 0.12417629 -0.062732674 -0.29045922 -0.05751768 0.41730487 0.029815264 -0.011851703 -0.015684409 -0.10110327 -0.087947465 0.4144431 0.12217344 0.08541429 0.15216775 -0.29009137 0.008901528 0.21844333 -0.07382449 -0.04104672 0.0088144485 0.03222133 -0.022770563 0.056767203 0.22661363 0.0828816 0.087206215 0.010653725 0.0226441 0.22667404 -0.21888661 -0.012447615 -0.021762531 0.017793678 0.14647716 -0.015366999 0.06578427 0.050108526 0.13013817 0.06960394 0.0369885 0.048582356 -0.014645175 0.09319255 0.10891603 0.0043260134 -0.110688396 0.2270501 -0.020719677 -0.16355576 0.13714142 -0.06657319 -0.16408347 -0.10171195 -0.11187044 0.10988938 -0.11245323 0.06075648 0.14859179 0.2263231 -0.028805712 -0.03608102 -0.020988734 -0.048195414 0.04583136 -0.24700075 0.010158105 -0.06464493 0.090304404 -0.0378296 0.19090411 0.207409 -0.04420874 0.139234 0.17810775 0.09216724 -0.051873557 -0.06830892 0.28601307 0.12846144 -0.21394053 -0.1501375 -0.0995642
885 0.13943654 -0.088540174 0.15207462 0.013146067 0.023208704 0.10092763 -0.005224744 0.00379745 -0.123298384 0.23090746 -0.17671159 0.048927806 -0.12169992 -0.18344207 0.06536056 0.13572855 0.22074218 -0.0156033635 -0.2462553 0.23612921 -0.050427075 0.11540164 0.03361291 -0.022476122 -0.122011326 0.02102991 -0.073887065 0.036023315 -0.15803367 0.022800643 -0.09999964 0.09309647 -0.12599668 -0.002109855 -0.21556735 0.12630689 0.009551302 -0.45527855 0.23795971 -0.18915914 0.25699407 0.037315257 -0.25947705 -0.015169217 0.17600876 -0.033239238 0.050503846 0.05434787 -0.44381288 -0.04353984 0.40276232 0.0023260033 0.13910075 -0.012522895 -0.12735265 0.014312344 0.2859699 0.20066124 0.105528414 0.24722032 -0.2423775 0.122668244 0.18234308 0.015022995 -0.01953004 -0.09141227 -0.04459905 -0.07665126 0.06564938 0.104448445 0.12336819 0.18160158 -0.056842603 0.0484335 0.0034573635 -0.1975757 -0.0863389 -0.048685953 0.016716927 0.23774631 -0.10674513 0.09448847 0.0813873 0.096363574 0.018782647 0.11145519 0.062074065 0.075807475 0.1710343 0.042149145 0.03690819 -0.19156043 0.1763297 -0.015096773 -0.22265413 0.15459074 -0.09088086 -0.10703959 -0.06888905 -0.0061508776 0.057180427 -0.120165356 0.051958088 0.2428457 0.3049168 -0.044518027 0.013951374 -0.07893746 -0.056512263 0.08554453 -0.27599916 0.008208509 0.020568015 0.1220055 -0.17736188 0.059237484 0.18915686 0.04427733 0.27025515 0.21788988 0.06577942 -0.20485821 -0.1368175 0.17779994 0.09621197 -0.16569933 -0.119883515 0.0040233843
840 0.0999641 -0.13476267 0.09924947 -0.028869683 0.07437257 -0.14608623 -0.06513577 0.18809034 0.0650784 -0.12231412 0.18613486 -0.058432013 -0.082436785 -0.16508746 0.078344576 -0.075405926 0.069946624 0.0064850636 -0.050731957 -0.16414872 0.120936625 0.07710812 -0.031684976 -0.1286207 0.051778138 0.06920383 -0.08329252 -0.048795864 0.20365386 0.026473703 -0.13657224 -0.045849912 -0.10267697 -0.03569801 -0.051193 0.06365313 -0.07697596 -0.11115339 0.07152571 -0.05898094 -0.1049611 -0.10324184 -0.12813997 0.0023473857 0.0742401 -0.21927926 0.08284675 -0.0746907 0.0007682529 0.0069324197 0.00044760384 -0.011045386 0.057384446 -0.053444855 0.17128511 0.09494499 0.1922263 -0.0078832265 -0.07038852 -0.108264826 0.13000162 -0.021634286 0.03940163 -0.07524286 0.065800704 -0.12086013 0.37019804 0.12451312 0.030503353 -0.05909884 -0.049097396 0.061794505 -0.06545991 -0.009886113 -0.06569404 -0.11700115 0.10360092 0.05918701 0.18481693 -0.014775796 -0.14884596 -0.058897607 0.12019795 0.10083953 0.007289559 0.021771079 0.10365131 -0.047626324 0.18000439 0.114176184 0.07627262 -0.061629027 -0.08235448 0.04990334 0.07176451 -0.0068027517 -0.08668267 -0.13809045 0.030663755 0.01567131 -0.14009126 0.0028410836 -0.2107404 -0.019188767 0.12748112 0.0020342898 -0.1318049 -0.23728225 -0.093389526 -0.06082858 0.083646804 -0.04816228 -0.13340752 0.12763485 -0.05984919 0.046578206 -0.0139779905 0.006560675 0.13760696 0.16461101 -0.03722421 -0.055433612 0.017819952 0.006933079 0.049463082 -0.05573011 -0.10279906 0.15587649
769 0.0096235275 0.03933753 0.049840447 -0.16636801 0.13593215 -0.11860473 -0.13423662 0.14411293 -0.07838083 -0.02378672 0.12381002 -0.0031146768 -0.10235124 0.06288097 -0.026836403 -0.14032643 0.070955865 -0.0014665816 0.11463199 -0.018724365 0.083369926 0.008817941 -0.1863573 0.05610899 0.012631829 -0.03520041 -0.06873303 0.040272396 0.09260969 0.02882017 -0.10710101 -0.039106466 -0.016828336 -0.054432828 0.101808846 0.12743944 -0.088106796 -0.038208142 0.00041549734 -0.00907773 -0.109860614 -0.015893266 -0.10258396 0.068634935 0.13121739 -0.16883929 0.08628216 -0.15075625 -0.14161113 0.040040962 0.060898732 0.16172606 -0.003838089 -0.091114886 0.25093663 0.00545316 0.2080035 0.01591817 -0.08731692 -0.1993148 0.02378069 -0.010996839 0.049701028 -0.17330894 0.18892194 -0.06770715 0.14934236 0.1575462 0.07397661 0.0105278585 0.07764958 -0.00010428029 -0.1209732 0.037455153 -0.020126339 0.0056347484 -0.02588647 0.04332095 0.115460046 0.12563054 -0.19480945 -0.06776674 0.031213379 -0.01296047 0.0886677 -0.006832308 0.09118736 -0.18090853 0.06355925 0.13045812 -0.034783073 -0.07500355 -0.015766641 0.041445054 0.13640349 0.113661095 -0.1264406 -0.20799011 0.056299392 -0.1239348 -0.14659157 0.025712458 -0.21484984 -0.10239467 0.080006935 0.0009731648 -0.11669532 -0.31951785 -0.14914742 -0.018267991 0.035340358 -0.05604789 -0.10714549 0.13591738 -0.16863218 0.015280486 0.009905211 0.03953682 0.05363014 0.21465422 0.037385795 -0.026792372 -0.09903714 -0.031769957 -0.0044704196 -0.084825404 -0.1400677 0.20336829
890 -0.08388527 0.15968704 0.052602965 -0.2719998 0.19601858 -0.121793106 -0.074592866 0.16766724 -0.13074712 0.026111208 0.047791205 0.051643223 -0.14049502 0.16282648 -0.062753625 -0.13619815 0.06364083 0.013950021 0.2237149 0.09356338 0.115415655 -0.16894953 -0.29908937 0.1747139 0.0073830686 -0.07697973 -0.19347611 0.020770794 0.12532043 0.076848425 0.08479599 -0.018649982 -0.027785758 -0.043557186 0.1414118 0.09154105 -0.062416907 -0.01636902 0.06687806 0.10550487 -0.06601853 -0.07109749 0.0075673885 0.08319953 0.16549408 -0.024342628 0.23078373 -0.20092025 -0.26695636 -0.020752281 0.055568136 0.16896325 0.013781179 -0.058802165 0.26072246 0.08414389 0.09183648 0.020063214 -0.060498405 -0.116955325 0.07771458 -0.03213399 0.24169025 0.015583517 0.19822682 -0.019521097 0.054662526 0.12489497 0.121883795 -0.056560554 0.16628152 0.028168898 -0.18304363 -0.045057323 -0.06462433 -0.13223283 -0.06739081 0.06298964 0.112965144 0.12362988 -0.24982801 -0.04787883 0.12075588 -0.008568129 0.12601098 0.026145233 0.07571746 -0.19385807 0.14605482 0.026776135 -0.034335822 -0.14569487 -0.12932551 0.068967365 0.23396707 0.09081862 -0.20859316 -0.29740524 0.145613 -0.11828739 -0.24969701 0.14394355 -0.28466693 -0.20720081 -0.09693223 0.11402625 -0.10821286 -0.34889334 -0.13455006 -0.027389647 0.007306613 -0.013203887 -0.081512325 0.124437325 -0.25231168 -0.10634375 0.02040479 0.04730501 0.10628283 0.2122418 0.02971342 -0.09448826 -0.16264446 0.16812837 -0.0876762 -0.054358147 -0.19520773 0.36527994
729 -0.06808793 0.01437316 0.17691185 -0.10965062 0.08359276 -0.020234065 -0.09296466 0.06601555 0.022879332 0.0024918325 0.14104836 -0.06995599 -0.026911972 -0.13167487 0.005166318 -0.2567307 0.1037491 0.101192825 -0.015425785 -0.059465438 -0.05747428 0.0945424 -0.046485223 -0.0063014957 -0.15232746 -0.014222482 0.032466512 0.10857865 -0.0045319065 -0.11824677 -0.2034969 -0.08891314 -0.07005694 -0.028264679 0.01631904 0.07914484 -0.006099461 0.08368936 0.08342426 0.027757147 -0.010963546 -0.13041732 -0.14870541 -0.005209491 0.09941651 0.10482152 0.12816732 -0.16592632 0.03127729 0.121122114 -0.17630816 0.25318778 0.06264058 0.18324527 0.08920682 0.104667194 0.014791772 -0.049813107 -0.18129729 -0.010371614 0.24361283 -0.15528896 0.23555335 0.030693846 0.15652381 -0.08240198 -0.030574253 0.037316125 -0.102489844 -0.1719178 0.20547901 -0.12046098 -0.14267062 -0.055521533 -0.015161772 -0.14368188 -0.12639627 -0.16513316 0.0070517194 0.27600613 -0.09185398 0.03427813 0.18398869 0.11129789 -0.08582404 0.037374426 0.11574689 -0.04792191 0.22515851 0.0054030563 -0.16780844 -0.07030765 -0.033022024 0.21261668 0.07476578 0.14643511 -0.27058807 -0.19412114 -0.043587882 -0.12829551 -0.23198034 -0.12930866 -0.015276824 0.043295283 -0.05599804 -0.019561293 0.08616683 -0.26986217 0.046240292 0.029102398 -0.086483784 0.11178982 0.22210595 0.17696741 -0.248292 0.05056991 -0.10484796 0.022637835 0.07784581 0.16682298 0.07404697 -0.10605712 0.10979188 0.24479787 -0.04554672 -0.24667454 0.07380761 0.084814966
876 -0.067309834 0.050780106 0.18318522 -0.02271893 0.0870196 -0.07120593 -0.101217754 0.11199671 0.02565146 0.038101695 0.17211816 -0.04648743 0.0070425123 -0.12323351 -0.038447518 -0.17883427 0.11680916 0.047876038 -0.10720127 -0.08734267 0.0005858627 0.0929919 -0.033373203 -0.0782658 -0.11545311 -0.07697365 -0.044578593 0.07806247 -0.02677401 -0.03891418 -0.24939689 -0.03329907 -0.017285202 -0.057994705 0.0023044888 0.018833872 0.04525775 0.050455138 0.11714986 -0.014950116 -0.032361597 -0.16455773 -0.09579031 -0.06546865 0.09042279 0.13888982 0.10223719 -0.07472289 -0.001279869 0.1583041 -0.1581691 0.31804067 0.024542248 0.24194461 0.012941379 0.1054093 0.04961384 -0.049840443 -0.1835348 0.107392386 0.20869963 -0.119699374 0.26123685 -0.0044843266 0.1688158 -0.08854219 -0.024222454 0.09634492 -0.079723805 -0.11623569 0.27825138 -0.082501255 -0.12545371 -0.079074465 0.021669922 -0.21236761 -0.20046127 -0.18365602 0.080375075 0.23594683 -0.12477588 0.038616285 0.24409488 0.18894203 -0.0962766 0.21147157 0.04547179 -0.002488876 0.18571503 -0.101335146 -0.14876103 -0.06583375 -0.027149739 0.24883094 0.034269042 0.18703021 -0.101690404 -0.1351743 -0.011262722 -0.067322336 -0.3472802 -0.039055847 0.036112078 0.0435385 -0.022325195 -0.050841775 0.15348288 -0.30068934 0.012193102 -0.017141297 -0.088180654 0.15863124 0.1295367 0.14774294 -0.14841627 -0.027479623 -0.030759523 0.0515914 0.08390851 0.12270677 0.12087807 -0.14754008 0.094380416 0.23942427 -0.030436805 -0.19377069 0.050695904 0.071865514
863 -0.113285795 0.030792188 0.24001864 0.044313345 0.14053966 -0.076706305 -0.11112039 0.100737505 0.003855088 0.025397683 0.17772652 -0.08688969 -0.014655396 -0.15924476 -0.10042431 -0.26919606 0.13089833 0.02521571 -0.13111433 -0.07743606 -0.103215896 0.112869404 -0.04007541 -0.059879124 -0.20584613 -0.08721239 -0.0049538915 0.10239137 -0.1065733 -0.11352157 -0.24808525 -0.07884432 -0.058190946 -0.0786017 -0.024049569 0.063243344 -0.020167885 0.021526461 0.09122276 0.034922194 -0.0747004 -0.1592471 -0.058634564 -0.08836761 0.09466467 0.13638316 0.12497652 -0.08799025 -0.022979328 0.26378697 -0.24644084 0.3015236 0.06608965 0.15591505 -0.018553184 0.062419645 -0.0431284 -0.07819628 -0.17753005 0.11495166 0.23524638 -0.10062506 0.20870082 0.01949789 0.21257329 -0.06486554 -0.025510343 0.05075627 -0.06074733 -0.121823564 0.22652264 -0.09165044 -0.17768611 -0.11607327 0.0010260979 -0.24585703 -0.15954225 -0.08703498 0.043378867 0.27171636 -0.14909303 0.05578867 0.20633556 0.17082837 -0.06801815 0.0871752 0.13942567 -0.038744036 0.20130132 -0.018143855 -0.15114655 -0.13355651 -0.08135976 0.2454251 0.06750181 0.14122412 -0.15041132 -0.1642257 -0.017067805 -0.033751883 -0.3563104 -0.07728419 0.0041167676 -0.018678064 -0.0612191 -0.0013942485 0.13774762 -0.30467284 0.053131524 0.018801045 -0.026903365 0.08768082 0.1680971 0.14084357 -0.17210671 0.013482527 -0.06700828 -0.04207879 0.012198027 0.13248287 0.048187044 -0.11401816 0.093707405 0.19186735 -0.030931016 -0.17628302 0.04358839 0.07329031
776 0.08984429 -0.12612522 0.06547687 0.0379715 0.10877747 0.041515484 -0.1181674 0.08757092 -0.046206288 0.25781086 -0.06517294 -0.009660676 0.019803764 -0.19841315 0.047553383 0.14622429 0.07864995 0.1017847 -0.24363992 0.29878238 -0.04404797 0.09809017 0.04248916 -0.1474314 -0.11587848 -0.019503998 -0.024453735 0.18295547 -0.15992971 0.15243565 -0.2421215 0.08413958 -0.04215011 -0.14326604 -0.10884966 0.05630964 -0.09183858 -0.30674234 0.10978677 -0.1932888 0.18142922 0.0010600868 -0.3636594 -0.006791625 0.15676352 0.054462742 -0.007223242 -0.004660298 -0.40409377 -0.10974905 0.45606264 0.09437534 -0.006481503 0.055589054 -0.1055461 -0.07582372 0.3342308 0.19149621 0.14600545 0.12299806 -0.33180028 0.10481975 0.22130316 -0.07994146 -0.10382202 0.020611286 -0.08142454 0.02515968 0.07826336 0.29928467 0.05545061 0.17514761 0.019073049 0.09944001 0.13868336 -0.10882042 -0.13509654 0.008657371 0.037419345 0.12799633 -0.085380286 0.11325771 0.13810763 0.018537425 0.15094092 0.10027592 0.02076627 0.05078401 0.03217858 0.0013351367 -0.033134 -0.11042903 0.08648974 -0.04027004 -0.23244897 0.21032922 0.033074252 -0.12653571 -0.031175107 -0.15470232 0.1118146 -0.06796614 0.037463386 0.2040401 0.20422257 -0.021608455 0.028052775 -0.12696534 -0.1484695 0.04593527 -0.2677266 0.09223928 -0.050053664 0.16795659 -0.0710729 0.067627996 0.18717983 0.0309823 0.20182048 0.29191023 0.119059645 -0.131194 -0.03109748 0.26714787 0.18695389 -0.21892457 -0.09983059 -0.030034881
880 0.21104607 -0.07828243 0.19346376 -0.16782549 0.1013885 -0.14949551 -0.18862772 0.21326378 0.115620114 0.034865975 0.15497518 -0.23149273 0.1410067 -0.18385775 0.00038823197 -0.11443714 0.001674183 0.09787716 -0.07577376 -0.119482 0.2448716 0.042346735 0.020849736 -0.11748614 0.016852127 0.1135609 -0.049789965 0.034789875 0.13082908 0.09209917 -0.1552711 -0.0030905649 -0.036851894 -0.086256936 0.023195677 -0.0029947534 -0.12241218 -0.010590586 -0.011786523 -0.08088719 -0.049919438 0.021807412 -0.17396612 0.03135504 0.023989476 -0.04847736 0.03501157 -0.1150549 -0.076132596 -0.035388913 0.00046944182 0.12303568 0.060749937 -0.047312587 0.20827088 0.020428242 0.17725484 0.08468706 -0.049869467 -0.08852805 -0.029794041 0.062107403 -0.012659599 -0.09903025 0.12641722 -0.07523659 0.19284506 -0.047732383 0.19362383 0.09611296 -0.072720855 0.17099887 -0.078780755 0.0652669 -0.019018445 -0.0776246 0.07322418 0.22667731 -0.0019696902 0.087604865 -0.07721851 0.017599378 0.035827037 0.048039325 0.16625541 0.071756974 0.014204133 -0.17341517 0.002379676 -0.0087004695 -0.046804506 0.017666247 -0.09804824 0.10265967 -0.022824952 -0.013624558 -0.17974088 -0.071537375 -0.09846082 0.037660897 -0.22346993 -0.16461398 0.039940357 0.05106447 0.10444915 -0.063164204 -0.109421864 -0.28292766 -0.092305385 -0.004555369 -0.052379064 -0.115706466 -0.06406307 0.08628278 -0.12597866 0.18224967 -0.05068346 0.079255775 0.035662632 0.13694443 -0.0477814 0.039054412 0.011688603 -0.0072798193 0.04821046 -0.03515928 -0.060159754 0.04218964
879 0.027792325 -0.20887743 0.29645398 -0.08287313 -0.058758453 -0.32718265 0.15950368 -0.07543258 0.16278428 -0.01721603 0.20565225 -0.10717244 -0.11678473 -0.14412853 0.2400179 0.035966717 -0.016928429 0.17361479 0.075621516 -0.13840608 0.17167461 0.17064525 -0.062048476 0.033825524 -0.039824788 0.04405086 0.0005981143 0.25343436 0.1811045 0.104158 -0.28338104 0.18088666 0.03906968 0.2000181 -0.034991752 0.07363956 0.30054936 0.02372664 0.2794511 -0.13764529 -0.010549285 0.17319429 -0.1918283 0.042160016 0.08288785 -0.124898985 -0.12770273 -0.059905224 -0.0615375 0.031225704 0.29108027 -0.32942343 -0.02140588 0.29931816 0.12677553 -0.059141565 0.024162142 0.08667475 -0.13184035 0.28580728 -0.11517384 0.075247295 0.16551563 -0.32851523 -0.23009975 -0.08770342 -0.20609348 -0.08035044 -0.08875629 0.23973265 -0.025783053 0.07108102 -0.19668767 -0.11619133 0.043446932 -0.09273881 -0.04256137 -0.022236826 -0.22303368 0.019890223 -0.0045846095 -0.29889756 0.08720744 0.2585743 0.26469013 -0.12820117 0.23364896 -0.2688843 -0.09305975 0.36811313 -0.2480666 -0.0505885 -0.026431138 -0.1844417 0.17277256 -0.08000109 -0.097017445 -0.14028886 -0.30440298 -0.049990717 -0.010601362 -0.078708366 0.084275305 0.03323741 0.13677242 -0.18675412 -0.030153014 0.013238944 -0.032609794 -0.14995958 0.038013235 -0.17053008 0.046600148 0.08910172 -0.2331633 -0.0657261 0.010435253 0.19348241 -0.110951066 -0.013403854 -0.0647177 -0.017847376 0.010580509 0.25147814 0.08450437 -0.15443385 -0.125734 0.00944156
869 -0.062371623 0.1503902 0.1677179 -0.25257367 0.1837055 -0.15572265 0.008676897 0.19386828 -0.16214499 0.01709371 0.21021052 0.05091813 -0.16308962 0.024751905 -0.03939125 -0.1325968 0.19499448 -0.0678878 0.16945374 0.06627688 0.028247636 0.016174795 -0.16507079 -0.09104391 0.033083484 -0.081352286 -0.20657735 -0.054917157 0.05500943 0.17764732 0.09520054 0.07244759 -0.10181461 0.10737571 0.15721813 0.08781001 -0.023812095 0.05155662 0.011475127 0.046935443 -0.04042336 -0.0071668355 0.033540085 0.21997231 0.023103418 -0.17946537 0.118038826 -0.21301082 -0.24280548 -0.00094943884 0.26772922 0.21489923 -0.06953211 -0.12980081 0.18552403 0.054811746 0.080752164 0.04824811 0.09444354 0.022541929 0.07248009 -0.10829228 0.17556141 -0.011711375 0.2356033 -0.07314557 0.14053603 0.07159428 0.15015925 -0.044065557 -0.069172956 0.010432449 -0.053479005 -0.057507318 -0.17560036 -0.14397629 0.14146885 -0.04224957 -0.058051825 0.15920004 -0.20753233 0.15525357 0.043313228 -0.02482412 0.086230695 -0.091577105 0.122071505 -0.21320768 0.053919833 0.014803299 -0.1358274 -0.16385466 -0.084916264 -0.023828262 0.25473925 -0.010441112 -0.23651962 -0.29560187 0.17207769 -0.27338094 -0.21290928 -0.07747632 -0.34725052 -0.0102170585 -0.15038615 0.07903923 -0.14064375 -0.3357602 -0.004239248 0.027109716 0.0894204 0.017184217 -0.21172312 0.14777678 -0.35133836 0.067667805 0.15650588 -0.1162741 0.17277622 0.3525103 0.021072242 0.012202072 0.017312685 -0.0355358 -0.14502549 -0.12468285 -0.122688375 0.17753904
881 0.06867311 -0.23465478 0.3501269 0.051101655 0.03898132 -0.40382516 -0.0022367032 -0.19611005 0.25396988 -0.03527178 0.14701977 -0.22353464 -0.026903473 -0.021642145 0.23670638 0.06482719 -0.14783677 0.09627972 0.03640819 -0.018290572 0.22461751 0.2563343 -0.09311465 -0.060240522 -0.11704314 0.11676043 -0.11615794 0.18800697 0.11980982 0.16475794 -0.36738616 0.14743909 0.008193715 0.30451494 0.08620499 -0.03636779 0.1500967 0.04672188 0.23172727 -0.032480747 -0.133135 0.21347922 0.1016203 -0.003371549 0.09484842 -0.022191767 -0.06471257 -0.011729363 -0.12977083 0.071204014 0.21287335 -0.15531331 0.083505616 0.24762733 0.033415105 0.0045968536 0.0018781521 0.06157719 -0.15776886 0.18142876 -0.11004897 0.04388209 0.14343779 -0.19513856 -0.009726411 -0.011664138 -0.16446225 -0.06119381 -0.020951483 0.15306696 -0.012704079 0.03773557 -0.36629993 -0.02507407 0.017225398 -0.1686367 -0.11344324 0.016005324 -0.2316114 0.06824546 -0.0852973 -0.3390149 0.096728325 0.26851895 0.2534418 -0.08979795 0.22194068 -0.12495372 -0.13399549 0.18313637 -0.10310724 -0.16072938 -0.114278995 -0.13271919 0.17106861 -0.12633884 -0.044747926 -0.16737758 -0.29747865 -0.09005852 -0.0015260447 -0.13034327 0.10145826 0.063868694 0.045070887 -0.13384987 -0.050822552 -0.06600783 -0.048553992 -0.079642914 0.17175394 -0.14060135 0.07134826 -0.010859387 -0.18619536 -0.06441246 -0.010622358 0.04900877 -0.08848152 -0.09290541 -0.15458466 0.018751549 -0.06063396 0.16404198 0.037017617 -0.10424221 -0.16805457 -0.021165786
889 -0.16424447 0.08973365 0.22652747 0.09830121 0.14444321 -0.14814141 -0.062681414 0.02114032 0.040168773 -0.104311064 0.24906488 -0.1775582 -0.10830083 -0.09955042 -0.079401486 -0.3086166 0.03704589 0.02873377 -0.1718812 -0.13467517 -0.13096885 0.09290636 -0.038796827 -0.0542001 -0.22120157 -0.13398875 -0.063045524 0.1203561 -0.15123312 -0.10762758 -0.3201063 -0.10302169 -0.152229 -0.10764927 -0.019775964 0.115113474 0.0026615227 0.10493567 0.06320314 0.11421897 -0.079579175 -0.16683029 -0.028444521 -0.015914857 0.09616911 0.12553768 0.17726132 -0.14681697 -0.014362006 0.29482806 -0.1760639 0.320237 -0.024025915 0.1199334 -0.072258174 0.1016139 0.08424041 -0.13741083 -0.22103474 0.036493003 0.34938166 -0.22692615 0.15120351 0.035494067 0.20641248 -0.019797506 -0.038586717 0.06428155 -0.1557526 -0.1404542 0.18737479 -0.18846136 -0.16310579 -0.14541058 0.09117992 -0.2265317 -0.14559524 -0.11499574 0.09489175 0.18157212 -0.10728943 0.13488086 0.22143987 0.017201873 -0.15776022 0.12575074 0.15853912 0.020340186 0.14209491 0.06361233 -0.1651879 -0.124804795 -0.122147106 0.16673413 0.09306324 0.12195056 -0.11251736 -0.20723978 -0.09481477 -0.10183201 -0.20716462 0.022623092 -0.013310088 -0.032385115 -0.08251757 -0.019480463 0.10117826 -0.29863063 0.026808143 -0.04164913 0.020082196 0.037324987 0.24060704 0.17059147 -0.12181632 0.05766261 -0.15114312 -0.077688456 0.011127574 0.16705725 0.10162538 -0.12854595 0.13303557 0.3606547 0.048218526 -0.18072505 -0.12374691 0.19669156
811 -0.041239917 0.05740465 0.09885376 -0.21654402 0.13897108 -0.07682129 -0.033925578 0.16086829 -0.06346691 -0.07173575 0.15308611 -0.013629627 -0.2508174 -0.084135145 0.055270053 -0.15531997 0.27769366 0.018840035 0.15446125 -0.05666792 0.097911954 0.11167016 -0.2018738 -0.0064400327 0.061076898 -0.105970494 -0.1402756 -0.06454284 0.15896967 0.1496199 -0.049308777 -0.0072038895 -0.07385682 -0.01037962 0.15757062 0.16486079 -0.057321843 -0.07770549 0.0051495754 0.07143896 0.040406384 -0.009076012 -0.037952643 0.24296094 0.029269297 -0.2069515 0.05186694 -0.11324335 -0.15083997 -0.11460997 0.21302803 0.15441628 0.02650845 -0.1714081 0.19011392 0.03960891 0.12924321 0.06416133 0.08847827 -0.0865375 0.068511344 -0.07929429 0.07637079 -0.029888788 0.16610532 -0.12806544 0.13423201 0.12872896 0.13624261 -0.04252919 -0.06341768 -0.034235448 -0.09889093 -0.014258695 -0.14735758 -0.038086805 0.044079766 0.015612903 0.040871654 0.16217509 -0.2578207 -0.012473435 0.02182207 -0.014113935 0.050356764 -0.052081335 0.1299995 -0.10807565 0.10207872 0.07097348 -0.083105035 -0.13196762 -0.08542477 0.01154746 0.18450974 0.014312019 -0.121690065 -0.16688904 0.106315985 -0.17805715 -0.07890146 0.013346056 -0.3011608 -0.070717044 -0.010632923 0.00454085 -0.099647224 -0.366197 -0.01512158 -0.009553414 0.11757779 -0.05431366 -0.17529774 0.14056422 -0.27649269 0.03748548 0.05284204 -0.023780262 0.14973871 0.3113139 -0.022879357 -0.018834429 -0.029976683 -0.07378918 -0.16598411 -0.08575787 -0.108565114 0.250381
884 0.12781511 -0.23806703 0.07861359 0.04641053 0.22369651 -0.020721158 -0.29427734 0.03447036 0.019586453 0.05194105 0.13589364 -0.04996713 -0.16477019 -0.14997272 0.059948515 -0.16446704 0.21048507 0.016342586 -0.1234171 0.13554369 -0.13653725 0.18569314 0.13109459 -0.2730538 0.06253061 -0.041924395 0.037465084 -0.01988809 -0.05735554 0.2583378 -0.3005086 0.110604756 -0.26831266 0.08578938 -0.19263044 -0.04306895 -0.11917301 -0.1481139 -0.0317482 -0.05383411 -0.21643272 -0.17309573 0.12067433 -0.14297271 -0.052841082 -0.1285153 -0.033458725 -0.1256181 -0.26889473 0.09167126 0.1641138 -0.14148253 -0.047755435 -0.21771923 -0.18406753 -0.010977455 0.07650165 -0.16960594 0.24405614 -0.24974659 0.24924408 0.03404928 -0.19734925 -0.44007668 0.12178885 0.048093382 -0.111396596 0.25582016 0.025994977 -0.022681834 -0.020332502 -0.055868264 -0.3022923 -0.08882952 -0.044133253 -0.2665789 -0.21129881 0.26621845 -0.07821817 0.014746218 -0.060643878 0.29814592 0.07651821 -0.043009393 0.12297154 0.035066187 0.3858361 -0.13441426 0.010093297 0.019509437 0.050704017 -0.36925885 -0.123346716 -0.11361189 0.12430195 0.042552337 0.08413434 -0.22273222 0.009502682 -0.28808108 0.09130262 0.027126215 -0.10939284 0.07055179 0.029366378 0.051992506 -0.066366725 -0.23107016 -0.04222242 -0.1489523 -0.18225773 0.097904675 0.108468145 0.07627852 0.020892445 -0.031047255 0.089837715 0.026540311 -0.16081509 -0.09953769 -0.020223029 -0.062479395 -0.07843395 0.31004778 -0.03915017 0.23156314 -0.13570063 0.09975901
804 -0.039761826 0.03907036 0.19143033 0.09561564 0.05782614 -0.051751014 -0.1412132 0.0525933 0.03653288 -0.040319998 0.12728463 -0.10563728 -0.049665824 -0.1368338 0.013531476 -0.24427032 0.11104189 0.12809367 -0.0027420565 -0.05323499 -0.034809433 0.15473887 -0.13580392 -0.05265877 -0.10196401 -0.12209952 -0.045992903 0.10231422 -0.048855998 -0.096358664 -0.20803319 -0.040233046 -0.028287845 -0.1607708 0.07539998 -0.015601656 -0.05034652 -0.0140338885 0.053882066 -0.049532223 -0.060198363 -0.0889673 -0.1649261 -0.01629707 0.18252458 0.10817672 0.044588756 -0.03410091 0.0747934 0.18110552 -0.21935828 0.37900308 0.0044228546 0.14189199 0.07074086 0.12320928 0.048499767 0.017915625 -0.19017799 -0.0011347751 0.2202296 -0.14269172 0.19080062 0.012106222 0.20692709 -0.09301473 0.019092562 0.11868398 0.002556036 -0.073457815 0.18130755 -0.10870863 -0.18893242 -0.06432157 0.08654478 -0.09714523 -0.16628148 -0.1384273 0.1153245 0.24015231 -0.2355422 -0.017491795 0.22684303 0.087776445 -0.113951035 0.11268844 0.15698148 0.08118473 0.23036382 0.075167164 -0.21015942 -0.14053519 -0.07186922 0.23883648 -0.0019856847 0.17986417 -0.060049843 -0.12261172 -0.03830009 -0.04859534 -0.3124994 -0.07519104 0.03396682 0.11293171 -0.020604748 0.025864113 0.1431525 -0.4851397 -0.061148744 0.024862677 -0.016989673 0.058064688 0.08435696 0.06460226 -0.2202731 0.006150611 -0.049841873 0.006908989 0.030314693 0.12850092 0.03823848 -0.08526705 0.1041633 0.12236287 -0.0812894 -0.15413845 0.019333784 0.034064356
895 -0.0037581788 -0.168878 0.3006881 -0.091334626 -0.0511424 -0.3221845 0.05210881 -0.16148396 0.22379886 -0.031097103 0.13116692 -0.21064842 -0.04588956 -0.019901248 0.21098524 0.04212857 -0.17277215 0.05327991 0.1061457 -0.019110171 0.11494798 0.14141364 -0.07458988 0.040139686 -0.136015 0.01776043 -0.056988053 0.14051749 0.08230043 0.18753149 -0.30337167 0.03661394 -0.07121231 0.26598772 0.059494045 0.034936924 0.124177486 -0.026451267 0.23686919 -0.114132084 -0.102451295 0.26836362 -0.04681456 -0.007924387 0.103973486 -0.051995177 0.022203848 -0.09658433 -0.2000282 0.111090265 0.32613254 -0.2147374 0.011399793 0.19169067 0.0379179 -0.09249771 0.07831183 0.093947046 -0.11667549 0.18353237 -0.1952108 -0.00016706211 0.14152172 -0.23024946 -0.035361014 0.0033995144 -0.20728303 -0.056235015 -0.012763313 0.13673007 -0.002130259 -0.011737843 -0.3804055 -0.03930845 -0.0001669718 -0.22350259 -0.06518693 -0.06288747 -0.2640061 0.06291122 -0.05005942 -0.29884323 0.11378246 0.30988312 0.23338535 -0.050696786 0.2657058 -0.15474874 -0.114943504 0.2367204 -0.18369617 -0.15889807 -0.059814036 -0.12363255 0.20440897 -0.16213377 -0.019188788 -0.11487756 -0.28045392 -0.11335359 0.03654342 -0.046905495 0.13083509 0.041996956 0.088964574 -0.17079669 -0.046659764 0.003467873 -0.070117764 -0.15763459 0.17658865 -0.14664301 0.092760414 0.036326468 -0.15591918 -0.046231505 0.06418168 0.003652869 -0.111628704 -0.06877999 -0.18930544 -0.075880855 -0.06648982 0.23784938 0.04109467 -0.111485675 -0.22196537 -0.050137468
772 0.09763853 -0.073859274 0.11109509 -0.17960554 0.0019258872 -0.078604735 0.03971432 0.20160928 -0.118829675 -0.0007756904 0.15640523 -0.13377872 -0.24358225 -0.112509705 0.010533341 -0.07199775 0.08709339 0.012987021 -0.055885926 -0.06505997 0.0313673 0.056227475 0.0058374703 0.024928788 -0.026326014 0.02966246 0.008968843 -0.023687353 0.1522922 0.041432567 -0.22641408 -0.076518364 -0.054405313 -0.019334264 -0.044897784 0.0027442118 -0.064304344 -0.08934518 0.061240025 -0.13492754 -0.061157756 0.023154892 -0.16866001 0.042253863 0.053014625 -0.17620805 0.033760358 -0.045457482 -0.031316806 0.011538643 0.07632047 -0.010586957 0.0310524 -0.0076598995 0.14034134 0.04154749 0.20640586 -0.03622519 -0.031094907 -0.02011215 0.06059964 0.013049545 0.08572799 -0.13766862 0.07667523 -0.12876934 0.14976227 0.16363166 0.074344344 -0.062280703 0.10931742 0.07454506 -0.085530415 -0.047335476 -0.11702461 -0.03230203 0.049574748 -0.008697094 0.014221169 0.013212783 -0.14143099 -0.09666122 0.06331186 0.025758518 0.032543097 0.064312324 0.0746672 -0.053831022 0.07545287 0.12222358 -0.014703378 0.004523335 -0.051195234 0.08213721 0.11064461 0.031212933 -0.053996474 -0.17382304 0.08455912 -0.069677085 -0.07222115 -0.032425757 -0.105626605 0.043069847 0.12920319 0.003722104 -0.04542952 -0.18812545 -0.11705412 -0.045407165 0.07261322 -0.045826554 -0.071582206 0.12771544 -0.034675863 0.04186558 0.04125233 0.07827479 0.16539626 0.20005623 -0.06478807 -0.056302592 -0.06540151 0.010041245 -0.027442234 -0.17088597 -0.08122638 0.13196048
874 0.12323105 -0.06720842 0.041544564 0.013057956 0.046383087 0.050634164 0.04581547 0.06599098 -0.1836158 0.24158226 -0.07954032 0.021557432 -0.1571129 -0.22447054 0.12961932 0.17975222 0.24127834 0.056970067 -0.31374738 0.26608542 -0.114315465 0.15993083 0.13545637 -0.1282346 -0.14066082 -0.10364835 0.050759353 0.09389831 -0.1427098 0.12107739 -0.2191441 0.07816168 0.008811403 -0.013963532 -0.2267121 0.13614446 -0.01320754 -0.29357213 0.046584677 -0.07296356 0.080150686 -0.006230881 -0.27223557 0.1131642 0.05146864 0.01948712 0.05563191 0.035492573 -0.2816259 -0.08204214 0.3566322 0.057108473 -0.06904205 0.07839542 -0.24601416 0.018195309 0.29874974 0.025268791 0.16209018 0.2613835 -0.14453806 0.071949035 0.2351146 -0.099904515 -0.0074910205 0.031473327 -0.033424 -0.12734582 0.16189595 0.20031755 0.19088377 0.19691505 -0.0176399 -0.074624166 0.20653269 -0.25339824 -0.14486656 0.10126884 -0.06282849 0.15252677 -0.13284405 0.044489563 0.12800206 0.07908985 0.009981207 0.18514886 0.0044639925 -0.031658135 0.11640432 0.17723425 -0.124100514 -0.07112649 0.12500481 -0.06721979 -0.068100184 0.15061986 0.0711846 -0.15512635 0.0122099165 -0.01745834 0.01976143 -0.063574985 0.079453275 0.109866075 0.14442153 -0.025524285 -0.002297685 -0.13306181 -0.07985431 0.08030259 -0.2771901 -0.005863304 -0.01620551 0.05041896 -0.02253657 0.0288403 0.29218134 0.05781074 0.16291489 0.15732358 0.051313035 -0.096966706 -0.22248359 0.32387045 0.01695733 -0.24827614 -0.15185083 0.023518791
858 -0.06104317 -0.19391593 0.26016203 -0.032748118 -0.009596691 -0.2763533 -0.02486618 -0.23903868 0.197936 0.0883809 0.22766148 -0.052420966 -0.0437657 0.021072814 0.19058852 0.04758693 -0.04696177 0.11602758 0.18393052 -0.053654462 0.10024771 0.20169297 -0.10766551 -0.016526137 -0.0637596 0.16644518 -0.13977289 0.20481192 0.075962014 0.12528881 -0.21688692 0.07842258 -0.0533137 0.3046375 -0.028148135 -0.070024766 0.35602862 0.09488895 0.4480563 -0.05648349 -0.07793452 0.062051676 0.03138721 -0.15495792 0.13236584 -0.100063026 -0.0812408 -0.09716826 -0.09220869 -0.12643978 0.31058863 -0.22664319 -0.007066843 0.35163215 0.096012235 0.08015125 0.16895743 -0.021333285 -0.15117122 0.18981358 -0.057201065 0.081157155 0.21211131 -0.36461467 -0.07758716 -0.15712456 -0.12560038 0.034365684 0.13321806 0.100123666 -0.0012364623 0.14987968 -0.20966567 0.06930925 -0.030583555 -0.15515608 -0.055461973 0.10406988 -0.18492405 0.07316047 -0.22843902 -0.2294962 0.13168426 0.22675237 0.1680697 -0.028317893 0.16155843 -0.11713774 -0.15630174 0.112332106 -0.00551816 -0.20159124 -0.11329191 -0.13785104 0.13450544 -0.15546075 -0.0029075192 -0.06170858 -0.21331169 -0.113341786 -0.08138658 -0.118507795 0.1755424 0.1344596 0.070354626 -0.20846526 -0.04974194 -0.014768783 -0.13101707 -0.15892865 0.1000701 -0.009911165 0.0086872 0.11579559 -0.09993775 -0.1574773 0.04965604 0.13363172 -0.0691029 -0.08248556 -0.13584593 0.033776734 -0.105874315 0.08195729 0.014386661 -0.03738491 -0.124388926 0.018073017
888 -0.15806325 0.07196824 0.16069269 0.028593415 0.10165547 -0.031618603 0.0021432086 0.08230592 -0.06297797 0.023964526 0.12285697 -0.036604688 -0.072267786 -0.17478323 -0.021318698 -0.1843487 0.16001846 0.10218476 0.11135461 -0.00793029 0.056706097 0.15421154 -0.03609483 -0.040922027 -0.090933174 -0.0059814597 -0.03893217 0.14017025 -0.014219781 -0.062024705 -0.19783624 -0.077343546 -0.048607703 -0.17637205 -0.025655365 -0.052103233 -0.017936688 0.0106138205 0.026279138 0.02338371 -0.043711126 -0.17529137 -0.15218274 0.0049725166 0.11074768 0.1925433 -0.018937573 -0.07895306 -0.027287418 0.115537606 -0.20533584 0.32296997 0.11668373 0.14967157 0.006290913 0.11681632 -0.09553309 -0.082631364 -0.15436284 0.056323756 0.22661436 -0.15482739 0.2580629 -0.081494436 0.0755126 -0.14452037 -0.12092038 0.04414687 -0.023963088 -0.07042709 0.21108979 -0.07894835 -0.1713028 -0.12415979 -0.11463452 -0.20587225 -0.20918469 -0.018561644 0.063663535 0.24723014 -0.11998755 0.06632944 0.17115584 0.1316743 0.050428912 0.021666413 0.16175048 -0.0065434785 0.21995933 -0.073486246 -0.1407324 -0.07937374 -0.13421075 0.16141513 0.1287381 0.14555262 -0.07945689 -0.26947322 -0.04450921 -0.12917976 -0.27705806 -0.10234183 -0.03105371 0.04097288 -0.052532665 -0.034192946 0.14554134 -0.3406689 0.05178855 -0.090013005 -0.066497736 0.07057846 0.07303708 0.1366324 -0.24373573 -0.025028324 0.010877796 0.13877809 0.032001186 0.07429278 -0.06131411 -0.092562675 0.091821276 0.18863875 -0.14920612 -0.17172146 0.10215139 0.05860781
873 0.13105577 -0.18128069 0.123770356 0.05307113 0.064944066 0.040954188 -0.06353881 0.028329512 0.014971626 0.1262999 -0.16769099 0.08489048 -0.040179465 -0.17954364 0.22451213 0.1536913 0.090010814 0.07188378 -0.29679644 0.16320857 -0.119483314 0.22173744 0.10562411 -0.18835686 -0.055271108 -0.045527473 0.070124835 0.19789857 -0.14265053 0.14301369 -0.17629297 0.07067186 -0.06534522 -0.047164463 -0.19519065 0.038270254 -0.015011829 -0.2787115 0.1468401 -0.08797692 0.14781748 -0.06330144 -0.25774625 0.074368425 0.09941323 0.05012259 0.079147436 0.0060102795 -0.22230414 -0.14987344 0.34490567 0.06584499 -0.1425966 0.11928731 -0.15862796 0.053503092 0.25914955 0.08877796 0.09790823 0.12559181 -0.14517955 0.09053735 0.28378496 -0.024280082 -0.06660302 -0.087299466 0.030241199 -0.010036149 0.10401418 0.19081154 0.0328676 0.17684028 -0.05860819 0.011804514 0.13342312 -0.12385075 -0.041984417 0.06920101 0.06446663 0.056844085 -0.1232373 0.1056102 0.25707188 0.020166723 0.059250176 0.10536212 0.019352613 -0.007271707 0.079554796 0.0648936 -0.02130366 -0.14431684 0.07094896 -0.09177556 -0.1930692 0.14809391 0.06927187 -0.15537827 -0.040178232 -0.068717875 0.11615989 0.0483943 0.036420893 0.14831068 0.17318846 -0.006828706 -0.0070288465 -0.1115264 -0.07388937 0.14346856 -0.2227534 0.10907735 -0.07081134 0.25534892 -0.090042226 0.027134443 0.15355064 -0.006055702 0.3185393 0.22127374 0.1292454 -0.11247189 -0.071614355 0.32939807 0.19953048 -0.23529914 -0.22633201 0.026777351
703 0.08912709 -0.030894106 0.13988665 -0.045442127 0.11088532 -0.07069863 0.022014022 0.17264596 0.07899612 0.09250967 0.1477914 -0.2584111 0.02649455 -0.25118098 0.094413914 -0.14399719 0.10077801 0.1975075 0.03528364 -0.1687495 0.18059498 0.0017493318 -0.07866995 0.045814876 -0.10806687 0.02873699 -0.067695364 -0.038332283 0.16232063 0.109036274 -0.28026682 -0.019748876 -0.13075802 -0.061554924 0.0026259986 0.12654859 -0.09131037 -0.11965255 0.10948728 -0.02081184 -0.047947526 -0.031403083 -0.22290525 0.0703685 0.05251374 -0.14873493 -0.026004435 0.0123815 -0.01751172 -0.017396005 0.07499203 -0.02855371 0.12709947 -0.06322439 0.05685241 0.086465664 -0.007067818 0.11946447 -0.09931251 -0.045541633 -0.0032916644 0.15263996 -0.015291503 0.03160855 0.06989107 -0.20067196 0.22812203 0.018155973 0.14146104 -0.0064034276 -0.12933315 0.087167054 -0.03301624 -0.049116816 -0.027826903 -0.06810214 0.09826754 0.10948645 0.14579028 0.06780922 -0.18896325 -0.1310654 0.018650895 0.013092647 0.08145601 -0.013963299 0.111800335 -0.12600648 0.09088151 -0.09459815 0.116896115 0.004981066 -0.20193475 0.09570121 -0.016300738 -0.024939261 -0.15312828 -0.25827283 -0.015357882 -0.009297274 -0.082229115 -0.11815938 -0.122719124 -0.0031945934 0.061853275 0.049057737 -0.068152726 -0.3212 -0.07154895 0.00079241465 0.0040932135 -0.20586503 0.05156535 0.030783966 -0.097612105 0.12526086 -0.10735353 0.13757126 0.09256265 0.2637302 -0.07343841 0.05185243 -0.04354407 0.05178625 -0.03516842 0.0146971755 0.00038762818 0.21979406
887 0.14834543 -0.1261247 0.13081552 0.0457701 0.06495622 0.05734347 -0.065301254 0.08409176 -0.22906588 0.28261313 -0.13914266 0.035093535 -0.10878829 -0.04700745 0.024843005 0.19923112 0.07385794 0.08169932 -0.32872996 0.3105881 -0.16322021 0.10140713 0.0845717 -0.18495077 -0.12733014 0.0044108946 0.020994538 0.19557647 -0.09293895 0.041560855 -0.17334357 0.15004183 -0.07091267 -0.039631013 -0.10858179 0.1580345 0.009871849 -0.18347141 0.15717645 -0.091422975 0.17020038 -0.045681346 -0.25627065 -0.013279228 0.22158124 0.067921065 -0.01254128 0.031018103 -0.36262333 -0.06874245 0.31839004 0.09892489 0.10100787 0.066797875 -0.041754067 0.06513925 0.42686537 0.13597818 0.15583023 0.02578577 -0.23354706 0.10086887 0.2509071 -0.07614876 -0.009381322 -0.011152634 0.015971135 0.007897114 0.052615575 0.19751222 0.0753486 0.16100968 0.024608225 -0.000617434 0.18640427 -0.050522026 -0.10354827 0.027373001 0.005885032 0.10080303 -0.10433976 0.1118194 0.103674635 0.11960669 0.042897876 0.08786808 0.060813062 0.024455847 0.019779019 0.15071636 0.031533994 -0.12737799 0.12865016 0.023211252 -0.19119708 0.20104516 -0.1062167 -0.0798016 0.024260454 -0.088866666 0.019398991 -0.11517708 -0.014789612 0.09882213 0.28413457 0.015673427 -0.006533294 -0.10024017 -0.15042321 0.0026279523 -0.18240762 -0.021910144 -0.0456614 0.06582699 0.0015053493 0.07543197 0.16888015 0.06653713 0.19147043 0.26032478 0.2195491 -0.019197563 -0.053826135 0.21316057 0.15402965 -0.23396315 -0.16798274 0.060699992
878 -0.085265994 0.066543326 0.32287002 -0.0051885075 0.09495544 -0.07281187 -0.056055665 0.06452615 0.041809596 -0.08118499 0.09071674 -0.10055552 -0.108754 -0.09831436 0.037970595 -0.28835317 0.13082686 0.027401986 -0.062461097 -0.1323618 -0.063527696 0.2315287 -0.07263195 -0.019996814 -0.16974556 -0.027546609 0.044216197 0.14488445 -0.047092207 -0.12856211 -0.17984542 -0.16192408 -0.113828644 -0.053555906 -0.05509609 0.045999877 -0.03386616 -0.069818504 0.08398599 0.0274488 -0.061969966 -0.12688114 -0.04520829 0.021820888 0.1338044 0.14155956 0.16638814 -0.08131326 0.06815824 0.09564906 -0.27676 0.37216294 0.06812134 0.14060202 0.047097057 0.15053937 -0.03458501 -0.04153563 -0.19624075 -0.026596641 0.31907317 -0.17182387 0.24768019 0.05953509 0.2751902 -0.16737485 -0.031136144 -0.0015118398 -0.058335263 -0.15302044 0.24463353 -0.114640236 -0.23136622 -0.07130817 -0.024381189 -0.13946018 -0.13002509 -0.1178619 0.12369242 0.2355875 -0.17634422 0.0060206 0.2240424 0.08735165 -0.1051786 0.0863646 0.117241405 0.033322427 0.18539219 0.052837476 -0.12630554 -0.07510455 -0.05732789 0.23375538 0.078257985 0.13516837 -0.15627562 -0.22640856 -0.06512942 -0.0072030174 -0.27449694 -0.054832935 0.017788703 -0.0075673303 0.014232588 0.021352544 0.057445724 -0.39742693 0.056704562 0.059579987 0.04384387 0.05285672 0.11890618 0.16919565 -0.17181627 0.022879008 -0.06269137 -0.025838094 0.11343531 0.06944806 0.042155884 -0.115581654 0.05605233 0.17375433 -0.076907754 -0.3102154 -0.058041915 0.06731923
893 0.21405308 -0.16550714 -0.08792103 -0.010610103 0.12365419 0.0053771045 -0.24420193 0.07708436 0.001039868 0.09109024 0.056210123 -0.17871572 0.014740314 -0.1365232 0.14101796 -0.17001116 0.21041557 -0.055938166 -0.18716675 0.22306675 -0.015295055 0.072084084 0.06713943 -0.13020574 0.13247168 -0.06351864 -0.031395994 -0.078300595 -0.010348938 0.28264153 -0.3232018 0.030693324 -0.17785545 0.022832988 -0.1807629 -0.041456565 -0.15292786 -0.23838963 -0.017892182 -0.15332119 -0.30039877 -0.10338009 0.08241954 -0.18213162 -0.056365166 -0.14322585 0.042783897 -0.15253137 -0.22754195 0.12337101 0.06682513 -0.22074667 -0.09253924 -0.2954822 -0.0116355335 -0.16451536 0.02795176 -0.089788385 0.19870104 -0.26623046 0.22229266 0.02272435 -0.25055936 -0.47702253 0.045657348 -0.024290852 -0.1577456 0.22867382 0.009871707 -0.1215558 0.0048921476 -0.03041175 -0.29294604 0.04720029 0.012923466 -0.28220803 -0.15587004 0.13984597 -0.18940029 0.017516812 -0.100280724 0.26549187 0.19304098 0.046815313 0.059777953 0.06326771 0.2869216 -0.16029489 0.1540399 0.04487283 -0.036087822 -0.33868805 -0.07855749 0.04675009 0.19861557 0.15000522 -0.091206826 -0.11496662 -0.023702009 -0.2578653 -0.010879108 -0.035374407 -0.08655549 0.05466421 0.0742266 -0.020255616 -0.16042675 -0.16178142 -0.09020524 -0.20101614 -0.17631096 0.1623732 0.14404017 0.0529932 -0.085920066 0.014136924 0.16721894 0.021610618 -0.21639007 -0.014628836 0.016763633 -0.09201285 -0.16417961 0.24890514 0.05387636 0.17443456 -0.10609086 0.2139892
864 0.12232737 -0.26270127 -0.11837615 0.24180484 0.23708476 -0.08070759 -0.19337054 0.074856296 -0.0598579 0.036203012 0.15067326 -0.21865426 -0.0801256 -0.07262464 0.09805657 -0.09507587 0.07546782 0.071254626 -0.32253247 0.23011658 -0.00857601 0.08747735 0.030223262 -0.24155812 0.114552 -0.013997513 -0.15605648 -0.002017388 -0.103044 0.25140446 -0.32548735 0.082415655 -0.11794009 -0.0006278929 -0.22101784 -0.07357145 -0.18678778 -0.1599977 -0.0070004994 -0.12104066 -0.3332697 -0.23369525 0.17022917 -0.25324857 -0.04135948 -0.1221501 0.05765902 -0.11577244 -0.17119373 0.15535603 0.10427543 -0.18180585 -0.01621845 -0.15028237 -0.17599632 0.0066859354 0.08868288 -0.17966475 0.13880035 -0.043245073 0.31819615 -0.017619265 -0.14363007 -0.40025112 -0.06244164 0.20482798 -0.103733175 0.26817244 -0.13293165 -0.0637475 -0.049039852 -0.008379766 -0.16116163 -0.021567846 0.12256986 -0.3363709 -0.19425038 0.19153008 -0.113325864 -0.07141044 -0.16056061 0.18128176 0.1423915 -0.013936687 0.028836584 0.014293936 0.3256498 -0.08461354 0.14156395 0.03880674 0.05207903 -0.35035342 -0.19132927 -0.048164748 0.18305892 0.1407244 -0.0622461 -0.27264142 -0.07482281 -0.2866506 -0.058973853 -0.119906045 -0.10197701 0.102682434 -0.1480617 0.079710215 -0.18697275 -0.15605383 -0.09395897 -0.2048552 -0.07696672 0.10760567 0.12687665 0.009878109 -0.03794999 -0.013082692 -0.013010235 -0.013516729 -0.16332631 0.029940613 -0.0650662 -0.013064933 -0.057430934 0.3512394 0.049262762 0.15328352 -0.14080538 0.30662614
857 0.0438095 -0.28018007 0.10661475 -0.069499984 -0.092698 -0.121408805 0.011069645 -0.066506796 0.115351945 -0.07881806 0.0796841 -0.1695295 -0.042901915 0.0064085564 0.27374646 0.19098248 0.045838118 0.03789765 0.04783039 -0.049623325 0.171864 0.26812673 0.060916767 -0.14083312 -0.11860622 0.016879959 -0.035512473 0.11770367 0.14665616 0.06777257 -0.3239344 0.00083793653 -0.016004816 0.31215 0.0025674084 0.108676404 0.24880551 0.086000964 0.26640692 0.057903223 0.021147117 0.15449691 0.17197731 -0.06803228 0.036158837 -0.014543292 -0.121447764 -0.08613694 -0.107228674 0.05322122 0.28518078 -0.19477998 0.16512206 0.20374204 0.00031331877 -0.09216818 0.2028505 -0.08367544 -0.13759929 0.15611501 -0.19451602 0.011405211 0.020421451 -0.12560406 0.03311967 -0.067450345 -0.13405831 0.04083652 0.070120186 0.09315311 0.075377375 -0.0015851614 -0.316989 -0.04595961 0.019769713 -0.20384128 -0.11251321 0.046934716 -0.25325227 0.30361697 -0.029937526 -0.31360453 0.059268057 0.29373765 0.27071515 -0.009426821 0.11438698 -0.12541668 -0.07852608 0.004166153 0.009642226 -0.24520847 -0.07776415 -0.019402212 0.16865705 -0.1488453 -0.0108059 -0.22736067 -0.3445004 -0.1671222 0.106511846 -0.01564264 -0.06944328 0.12195283 0.1417878 -0.3446628 0.07122191 0.072586514 -0.017989922 -0.13895293 0.027008139 -0.12703744 0.14514281 0.1456319 -0.14696161 -0.0949544 0.00860049 0.21029894 0.044560865 -0.14963706 -0.13831447 -0.0046563433 -0.10460492 0.1870397 0.07980009 0.053673863 -0.079359286 0.14142305
866 0.081037045 -0.23326539 0.19205248 0.119870365 0.07822929 -0.26394403 0.05088113 -0.1549485 0.109141365 0.020172676 0.31187636 -0.104343474 -0.03098738 -0.15153535 0.17695451 0.109429546 -0.08115373 0.14545284 -0.059973538 0.069482855 0.06607809 0.22694552 -0.0021597834 -0.1353833 -0.16247667 0.10713199 -0.037388094 0.26396734 0.051156607 0.11285408 -0.32318565 0.26412362 0.08720356 0.25509858 0.059281882 -0.013686465 0.29220226 0.24092664 0.17081326 -0.10933587 -0.09503033 0.19484413 -0.014681035 0.027416496 0.12496 -0.18033542 -0.22010654 -0.071059614 -0.063800305 0.12874119 0.26302055 -0.30360878 0.013646954 0.31833717 0.16001613 -0.052319545 0.012028133 0.019118318 -0.2681351 0.18201692 -0.12591828 0.03847054 0.04063524 -0.25414574 -0.1248483 0.033568215 -0.09511955 -0.053430315 -0.1980855 0.23666845 -0.02072233 0.029882714 -0.20683922 -0.054814328 0.006920576 -0.023496326 -0.0452348 0.010990504 -0.14222565 0.16068552 0.040298514 -0.21526758 0.022322508 0.11521233 0.27667636 -0.2292296 0.2170202 -0.18177795 -0.099634975 0.4048876 -0.2234367 -0.05124059 -0.068952374 -0.23506702 0.2084271 -0.04665326 -0.13799678 -0.222477 -0.22214106 -0.16927701 0.08937144 -0.19814812 -0.09428541 0.019847691 0.03551226 -0.067468666 -0.052117113 -0.03655713 -0.025125166 -0.048909236 0.11659195 -0.122478664 0.103087604 0.08711601 -0.24184044 -0.021405406 -0.14180805 0.130464 -0.04665247 0.15990038 0.015847845 0.039475136 0.07904583 0.21376032 0.108412415 -0.2775128 -0.10457444 -0.022898827
868 -0.1546546 -0.4144649 0.053910032 0.030884504 -0.13359207 0.08597505 -0.17443278 0.10442343 0.07494213 -0.19378893 -0.0047797663 -0.098637074 0.011778495 -0.11766502 0.18998945 0.2307673 -0.058266327 0.060330316 0.15690383 -0.20875026 -0.0629651 0.22447602 0.113950774 -0.17419757 -0.11777414 0.045908034 0.15596765 -0.0038855912 -0.017865147 -0.14454627 0.15246063 -0.21340978 0.04207065 0.1063208 -0.13178085 0.09222499 0.16340055 -0.03528741 0.03291583 -0.08498099 0.037862413 0.011825531 -0.09795233 -0.23890033 -0.0002240762 -0.030054718 -0.09114254 -0.27030274 -0.17858754 0.12035889 0.05466533 -0.21202761 0.2666627 0.052589033 -0.05413941 -0.20816848 0.23377964 -0.18165895 -0.0712702 0.21335675 -0.28317603 0.021056686 0.11333797 -0.14374459 -0.17677803 0.17313041 0.017693046 -0.11132983 0.28594968 0.0040331925 -0.015135008 0.13020277 -0.37344733 -0.10510929 -0.15111902 -0.4036657 -0.070874825 0.4106485 -0.19725016 0.18745418 -0.033371877 0.030912088 0.18998279 0.3819918 0.25909734 -0.11808791 0.20428456 -0.05190064 0.08615279 0.112373896 0.1563431 -0.17278722 -0.096739724 0.14396256 0.17868266 -0.1678924 -0.041308295 -0.23911586 -0.21974248 -0.05504222 -0.017998405 0.045664247 -0.31140044 -0.053008195 0.31492022 -0.22535336 0.09028704 0.23492806 0.073083565 -0.24238731 -0.0069434317 -0.061171997 0.113530196 0.368679 -0.13752063 -0.059809413 0.097143576 0.06460996 0.0575611 0.0035190883 -0.26995465 -0.23131406 -0.11214907 0.23810674 0.21669377 0.03730847 -0.10921569 0.29326755
877 0.06294787 -0.20473725 0.16396399 -0.038746946 0.115359195 0.024436569 -0.10138711 0.060616616 -0.1279376 0.26265016 -0.0051681665 -0.05404376 -0.14687265 -0.11708306 0.12737644 0.1937403 0.1382187 0.1611065 -0.30125803 0.29576114 -0.16154908 0.18047208 0.016267724 -0.18123388 -0.16134463 -0.0069753123 0.074312605 0.23083514 -0.059612498 0.06515205 -0.27256155 0.07025322 -0.022239584 -0.011875036 -0.25696218 0.20289323 -0.045499444 -0.28885216 0.21673724 -0.11118855 0.18916719 -0.03266538 -0.2060685 -0.075681366 0.14388241 0.09090448 -0.0052999435 -0.0531893 -0.3190474 -0.20292339 0.37366673 0.058398623 0.07120661 0.00878068 -0.07452034 -0.0009187691 0.31174275 0.0991984 0.234403 0.08765953 -0.19891532 0.12564805 0.14384523 -0.09906571 -0.01486583 0.07234551 -0.060620617 -0.03977966 0.15479663 0.31306002 0.1187601 0.2532424 0.0047550397 0.045451332 0.24949159 -0.101941675 -0.1470811 0.1318436 0.00031186492 0.22756705 -0.12559068 0.06080655 0.03112303 -0.0008351654 0.15299663 0.005981368 0.024986142 -0.026227802 -0.02223353 0.08905399 -0.0058492892 -0.08186397 0.11347969 0.008563362 -0.17199473 0.13476679 -0.09370669 -0.060994588 0.00069560495 -0.07359082 0.024404747 -0.0817429 0.037955713 0.070255205 0.16760024 0.062038384 0.04357772 -0.13659997 -0.17490833 0.086257994 -0.24434647 -0.01774831 -0.014370241 0.10616352 0.002788184 -0.023483524 0.21385454 0.06414561 0.09526194 0.17229423 0.15618715 -0.015017674 -0.104086876 0.26454207 0.08409591 -0.12893653 -0.120175704 0.053573962
825 0.24817805 -0.16879705 -0.017341688 0.1789857 0.08125559 -0.050527226 -0.18306927 0.016098553 0.085981354 -0.037086535 0.12493733 -0.020811122 0.024246003 -0.22028066 0.062299956 -0.2802437 0.008764351 0.1328606 -0.08423821 -0.009689177 -0.07466036 0.11966312 -0.0051293485 -0.120078504 0.06795121 -0.14733106 0.04717579 -0.067393996 0.002494253 0.13484488 -0.12996861 0.29206392 -0.11685366 0.03103739 0.053416632 -0.029786577 -0.07334268 0.09588293 0.012382431 -0.16664663 -0.15026882 0.038512446 -0.07076805 -0.05101628 0.037616424 -0.042667713 -0.02200009 -0.047879625 0.015191723 0.18904485 -0.038818117 0.028026659 -0.0802943 0.0633005 0.03494005 0.044883493 -0.0650434 -0.085666016 0.07110225 -0.23940817 0.36756197 -0.00542981 -0.037267942 -0.18260752 0.10758421 0.005653953 -0.08522576 0.2929082 0.016381618 -0.06506293 -0.025318868 -0.16820602 -0.31658927 -0.037663944 0.083167866 -0.06016408 -0.25434738 0.0054259263 -0.0285318 0.17214893 -0.16128275 0.060854446 0.2620953 0.103687726 0.043657005 0.14118123 0.37693253 -0.07752779 0.16267118 0.07270679 -0.08302955 -0.24551536 -0.0093243765 0.017130861 0.0028820843 0.09403687 0.053785354 -0.19512731 -0.0076173265 -0.2847438 -0.050873376 0.031088537 -0.10136526 0.130574 -0.0024763907 0.08731093 0.04380981 -0.3446246 0.046914436 -0.08519735 -0.14645801 0.18070692 0.21712352 0.06796502 -0.14448765 -0.114068165 0.096079126 0.115525946 -0.050685205 0.15406291 0.07082 -0.021855347 -0.083429724 0.3733142 -0.084225245 0.017247796 0.0032913564 0.028730657
862 -0.038777746 -0.26669684 -0.06755519 -0.19990127 -0.15223667 0.29251212 -0.19983992 0.13197978 -0.058448613 -0.20117532 -0.017981386 -0.017788988 0.0031867542 -0.1698599 0.21028362 0.22619666 0.20660236 0.14384949 0.01092276 -0.010540814 -0.005803144 0.18523759 0.29105565 -0.33627027 -0.11649677 -0.027040256 0.1829177 0.016478704 0.15489744 -0.1624134 -0.075018205 -0.09472278 -0.023212083 0.21126898 -0.17355283 0.1232692 0.22829638 0.038472906 0.038699187 -0.011050137 0.14268668 -0.054334436 0.0062422426 -0.09851681 0.032973498 0.0795887 -0.11061712 -0.3914008 -0.10186324 0.027726488 0.08401792 -0.21494506 0.13134393 0.066770956 -0.024592092 -0.15721396 0.31902528 -0.30990884 -0.058535494 0.0787294 -0.17602876 -0.121003665 0.011347854 -0.045834184 -0.095188215 0.093412004 -0.009227706 -0.026081966 0.30279022 -0.07062368 0.09004909 0.14558972 -0.37428704 -0.08959096 -0.09920688 -0.22185148 0.022846272 0.27471197 -0.2166779 0.32300097 0.13581668 0.14151426 0.21124433 0.23115581 0.18558599 -0.034547243 -0.0021114761 -0.08354653 0.15922298 -0.009059182 0.07997601 -0.17828041 -0.046830982 0.16984242 0.2526462 -0.13132396 -0.22704218 -0.1590542 -0.09560721 -0.094986245 -0.028920427 0.045025513 -0.35258156 -0.00031815708 0.20709231 -0.2648681 0.13417217 0.047183897 0.012161371 -0.20562749 -0.20346166 -0.07616385 0.16787685 0.37606695 -0.20384304 -0.049348377 0.15807813 0.23853685 0.102357775 -0.102668375 -0.03799236 -0.10465726 0.011681201 0.21023698 0.0913073 0.15216441 -0.037895106 0.33640292
865 -0.02352568 -0.40248424 0.017806046 -0.03411883 -0.13364616 0.21531901 -0.238286 0.0546931 0.058179554 -0.18706171 -0.026422879 -0.14345138 -0.06826333 -0.06928616 0.23021117 0.283061 0.15807569 -0.033752777 0.12437008 -0.005831497 -0.012538562 0.28755173 0.14166915 -0.26684502 -0.087458 0.04338837 0.14722341 0.08092735 0.0878894 -0.15822718 -0.083134286 -0.2163829 0.05408933 0.09425466 -0.077547714 0.122364536 0.09811651 -0.15033811 -0.021137722 -0.058164258 0.042474907 -0.05005382 0.0021295063 -0.31658852 0.1183339 0.034374926 -0.12734291 -0.32292306 -0.19518313 0.088023424 0.020632284 -0.11616431 0.2561181 -0.07920881 0.029587716 -0.23636162 0.29486614 -0.16701932 -0.12706845 -0.03576202 -0.21592933 -0.08386636 0.0061749653 -0.11768141 0.03272838 0.13518432 -0.013316686 -0.022694055 0.26584658 0.05516353 0.20621856 0.15045188 -0.38902736 -0.0332784 -0.1220409 -0.25128135 -0.16168182 0.35057223 -0.1701413 0.29670146 -0.025782935 0.06490387 0.104920454 0.15714383 0.33752492 -0.060649775 -0.00023109073 0.01611825 0.007072833 0.008059223 0.16136926 -0.17562091 -0.05961243 0.19232176 0.25595364 -0.008973735 -0.056088142 -0.1589316 -0.06185888 -0.080981344 0.122716345 0.03978011 -0.2917026 -0.07609966 0.32944462 -0.24891543 0.08478788 0.07718373 0.07315462 -0.23012912 -0.15970889 0.021064593 0.14334968 0.27879903 -0.114677995 4.6284098e-05 0.045795362 0.1621462 0.028768502 -0.036652066 -0.100543045 -0.18325125 -0.14518629 0.16447856 0.1693472 0.16862252 -0.022076342 0.33201548
870 0.16496658 -0.12101557 0.27333248 -0.13203931 0.15005401 -0.22124986 -0.10810531 -0.036815964 0.2729521 0.009630412 0.117949195 -0.03302509 -0.1251097 -0.17792499 0.083092645 0.12751958 0.011860779 0.18837674 -0.055003095 -0.037962414 0.27845535 0.24952121 -0.034331042 -0.07612678 -0.04782805 0.0517198 -0.15238272 0.03890533 0.09011964 0.24588397 -0.17684425 0.12317775 0.11138548 0.29113975 -0.048979368 0.062263045 0.13111295 -0.11142336 0.22803442 -0.16794185 -0.054123744 0.18117283 0.05274865 -0.08495695 0.042285174 -0.123763084 -0.042991087 -0.038691845 -0.32167193 -0.011999077 0.33699882 -0.14591064 0.062005576 0.1825867 -0.046714213 0.052310538 0.18854688 0.055063277 -0.0935011 0.11894994 -0.18863183 0.075970985 0.027240003 -0.11286155 -0.011328236 0.124384984 -0.016532958 -0.11146412 -0.16342701 0.13198835 0.028264169 0.07824514 -0.22447465 0.1289116 -0.13475288 -0.1871125 -0.13353327 0.091970116 -0.13689415 0.13595715 -0.08530938 -0.26507849 -0.038489595 0.16071193 0.16560192 -0.010174521 0.18432331 -0.113910474 0.05376852 0.28208354 -0.17505446 -0.13160779 -0.03390379 -0.21967176 0.13053267 -0.14349166 0.020853736 -0.028114019 -0.18320899 0.018780872 -0.004800605 -0.04719382 0.09580695 -0.043322477 0.035975486 -0.13198996 -0.097351335 -0.055822585 -0.13116027 0.06917516 0.12263991 -0.069733426 -0.011652617 -0.04278259 -0.08959185 -0.12881993 -0.13114946 0.0054757283 0.02621465 -0.11714142 -0.091390885 -0.17738655 -0.08404231 0.097936384 -0.04062609 -0.15303306 -0.25023904 0.026923442
803 0.006541649 -0.07103922 0.15444505 0.005292872 0.06099195 -0.091048956 -0.24228157 0.15737365 0.083592735 -0.03304242 0.17235978 -0.18162166 -0.019108187 -0.12260565 -0.09404052 -0.111120746 0.03577585 0.058773402 -0.0041239862 -0.08899463 0.05545915 0.008722595 0.034374412 -0.13121532 0.013447038 -0.06209076 -0.092708975 0.106364235 0.07399426 0.016514884 -0.24397434 0.060064718 -0.030819552 -0.04042217 0.15197562 -0.03176312 -0.0015220994 -0.08454686 0.034241807 -0.1359623 -0.05766456 -0.07401033 -0.15191296 -0.13448575 0.20905292 -0.06335876 -0.0045209783 -0.09308124 -0.0931232 0.19855617 0.06423412 0.011676732 -0.11204646 0.07552576 0.09832645 -0.030901764 0.23851982 0.03367525 -0.17670266 0.09801454 -0.11600284 -0.02102037 0.25008202 -0.05301258 0.11576492 0.15673824 0.15484762 0.13348694 0.16080594 0.0701561 0.016971778 0.09610401 -0.10213509 -0.16795126 0.03532508 -0.046961352 0.07287869 0.07738922 -0.04377259 -0.099383965 -0.22215742 0.038687237 0.07189841 -0.052264087 0.06315072 0.09043619 0.057246868 0.034680024 -0.06917354 0.12780404 -0.089317694 -0.12757051 -0.14203173 0.031462833 0.13394967 0.058883816 0.01970068 -0.018519813 0.21850513 0.093247205 -0.17038083 -0.016150402 -0.02409038 0.0069419243 -0.007223068 -0.0061157714 -0.02572032 -0.3356365 -0.1381664 -0.08979408 -0.034348138 -0.07769426 -0.047537003 0.017338363 -0.20590942 0.13063537 -0.08522887 0.074828744 0.042678565 0.1651966 -0.059658103 -0.012320183 0.07811593 -0.007137558 0.08099153 0.09552446 -0.11599346 0.20702937
894 0.17529313 -0.30694872 0.2293643 0.12381816 0.005359169 -0.3618642 -0.054118954 -0.04419171 0.25368688 -0.0444331 0.097580604 -0.05659546 0.00863293 -0.23572926 0.2544405 0.09414324 -0.013089685 0.15673164 -0.024583613 0.045384932 0.2065084 0.1500516 -0.06294047 -0.018838797 -0.050126176 0.08574224 -0.014215295 0.14369176 0.32251963 0.1507104 -0.28559473 0.3780225 -0.0015460511 0.2648781 0.19794768 0.13135585 0.349912 0.113387294 0.10247737 -0.14008878 -0.19694652 0.1837032 -0.099209815 0.121457666 0.08788037 -0.20831607 -0.1575874 -0.119932406 -0.022508938 0.1411444 0.3440604 -0.4101558 0.0664615 0.37261507 0.06956996 -0.09297284 0.1277898 0.15073784 -0.28012317 0.17587368 -0.12563789 -0.0978558 0.20461176 -0.30539 -0.17278014 0.08215185 -0.03258809 -0.11763484 -0.22042097 0.24937002 -0.10511503 -0.016417012 -0.40887678 -0.10709747 0.09494962 -0.14377366 -0.17160815 -0.06888842 -0.17058061 -0.03513063 0.04860096 -0.4456459 0.09227254 0.3749677 0.19517747 -0.13485074 0.34603465 -0.20023936 0.035216298 0.6501113 -0.2814872 -0.10943327 -0.053629406 -0.27588713 0.23887947 -0.046126507 -0.20111196 -0.19331896 -0.28624982 0.026293818 0.02604047 -0.101102985 -0.05819705 -0.10011712 0.10851889 -0.0853121 -0.1499266 -0.055574972 0.039884638 -0.14661375 0.22773224 -0.2621668 0.052930374 -0.20753974 -0.11164632 0.046214692 -0.21207462 0.10216675 -0.21080343 -0.020322857 0.040994894 -0.010936984 0.16769189 0.16688828 0.08731968 -0.258529 -0.12516357 -0.11510153
859 0.24847049 -0.21168236 0.20426837 -0.1335354 -0.05108977 0.17852914 -0.054943908 0.20642096 -0.23113418 0.30535558 -0.28049532 -0.041242916 -0.10532692 -0.15364504 0.15930761 0.33601883 0.08821104 -0.011759631 -0.20628019 0.18035772 -0.12670498 0.28742445 0.20786127 -0.10348704 -0.10210468 0.16637796 0.123267256 0.19300294 -0.053371068 0.012616967 -0.053619996 -0.17557842 -0.06326209 -0.089150146 -0.3153811 0.0992593 0.07706621 -0.236404 0.28137773 -0.16378339 0.21084845 0.0034996672 -0.31373447 -0.119200595 0.18711229 0.08036955 -0.027233785 0.053730153 -0.4396608 -0.10789863 0.36928824 0.026077082 0.2573932 -0.06966387 -0.083550915 0.039407514 0.524632 0.16771328 0.12337524 -0.12220178 -0.3600076 0.05568918 0.14133564 -0.033256475 0.04435026 -0.24401385 0.046425987 -0.03596438 0.042032246 0.014674122 0.09549983 0.06987891 0.025552336 0.15213253 -0.1062514 -0.06860569 -0.09887306 0.008246234 0.01942067 0.24766575 -0.089175515 0.14288309 0.051499616 0.22763266 -0.009112029 0.06563142 0.12757178 0.02212372 0.17713042 0.071030036 0.11932426 -0.19860914 0.23208387 0.11535036 -0.28223643 0.13988905 -0.06259502 -0.026201893 -0.011387795 -0.13205677 0.048433438 -0.029433422 -0.00047265016 0.10297302 0.40166277 -0.18715702 0.052209195 0.10586787 -0.23141257 -0.008986128 -0.07348303 0.016969312 -0.059831668 0.25192624 0.013300443 0.035597194 0.09974357 0.08862696 0.38043493 0.18856071 0.09568767 -0.2677116 -0.08638735 0.1937034 0.19466962 -0.2870962 -0.22570959 0.08455187
860 0.0002484411 -0.08843369 0.16617745 0.017749792 0.088898994 -0.13149989 -0.11457375 -0.011457402 0.09506802 0.0030540542 0.11687766 -0.07400105 0.014202126 -0.14084005 -0.044756833 -0.10434166 -0.0073805396 0.004526906 -0.111569755 -0.027543355 -0.006084904 -0.014840128 0.084033206 -0.1426685 -0.009262274 0.12281618 -0.019373123 0.14313217 0.10077705 -0.03278321 -0.32268503 0.036187705 -0.11668283 0.05931257 -0.03775093 -0.08112568 -0.0077881087 -0.09377461 0.09745725 -0.06939232 -0.024447303 -0.10820696 -0.14094774 -0.12414283 0.16730742 -0.047220826 0.035520624 -0.08142864 -0.1029051 0.01963703 0.05514307 -0.1445022 -0.087446 0.11715893 0.073194265 0.009753592 0.21719897 -0.023939088 -0.11198987 0.034556292 -0.038924668 0.014834424 0.25327736 -0.20484492 -0.037420038 -0.011394959 0.07286303 0.07639624 0.061566066 0.03624615 0.031067535 0.12968248 -0.14847788 -0.06556709 -0.0071928403 -0.11730568 0.04220366 0.0028002458 -0.057575136 -0.124553375 -0.09931922 0.10237229 0.20456886 0.08650656 0.030921405 0.027784728 0.073503114 0.04714906 0.0006020327 0.13055322 0.024235055 -0.13603856 -0.04841139 0.029185055 0.031967048 0.062160928 -0.09249117 -0.053294428 0.04039165 -0.0118406955 -0.00063746754 -0.09861432 0.013285781 0.12331462 0.16099507 -0.06080454 -0.08072445 -0.19448347 -0.101024725 -0.08514288 -0.09133514 0.029424088 0.027676791 0.070619754 -0.07646121 0.095908366 0.025033673 0.007115299 0.033866312 0.04993423 0.0057714013 -0.029279312 0.074536875 0.119589865 0.15063098 -0.010237595 -0.096779935 0.060644884
