65 128
830 0.13945687 -0.06092873 0.249619 -0.045671217 0.018616099 -0.2731445 -0.08127006 0.13505206 -0.01929088 -0.05303056 0.11451745 -0.164749 -0.12088165 -0.048440475 0.05435214 -0.1046746 -0.02069316 0.065554254 0.004602045 -0.0066009765 0.2716431 0.11963762 0.15800397 0.0055068126 0.078788616 -0.00025924534 -0.12542517 0.08790359 0.16508387 0.027673839 -0.28275716 0.2061721 -0.023367763 -0.00053299824 0.061157987 -0.06098724 0.18950011 0.13887955 0.15170576 0.048671264 -0.08031778 0.09872482 0.03736941 0.0746607 -0.07856865 0.023577558 -0.026832704 -0.011016039 0.059086896 0.13444306 -0.061714407 0.124878466 -0.046173975 0.046827193 0.10978912 -0.0061026523 0.01663965 -0.027526055 -0.04278797 -0.02429623 0.12187496 -0.11947053 0.09651891 -0.049082424 0.103773035 -0.005084047 0.13985994 0.081292026 -0.017573437 -0.062265653 0.060713932 -0.014856365 -0.08565389 -0.17472325 -0.007943301 0.014811859 -0.008819836 -0.113123566 -0.13323568 -0.024049904 0.0017166338 -0.045697667 0.007471295 0.074596204 -0.13344511 -0.015478303 0.08958989 -0.066643976 0.039839484 0.093624935 -0.14750971 -0.08176178 -0.07852182 -0.09871761 0.10837178 -0.042796176 -0.14839867 -0.12674382 0.009508158 0.006959445 -0.054656647 0.14198756 0.014464502 0.022674369 0.05796212 -0.013991829 0.069866896 -0.076073445 0.022838566 0.074474335 -0.016802214 -0.11020981 -0.0066129407 -0.054104082 -0.06010716 0.088222265 -0.004765396 0.085295536 0.10575329 0.08269936 0.020526016 -0.018097313 0.09369248 -0.048581693 -0.035802387 -0.012071398 -0.22655104 0.07656538
698 0.039594203 -0.038951494 0.04217104 -0.008506231 0.039627228 -0.08427185 0.024711737 0.053164642 -0.0069112 -0.0064575174 0.10673513 0.038674496 -0.05501106 -0.003247835 0.040473636 0.009074996 -0.008274651 0.08198082 -0.018194621 -0.0035029424 0.17799707 -0.00761986 0.056365713 -0.05033376 -0.096991755 -0.038669515 -0.14452478 0.08146652 0.06088394 0.033050142 -0.020225042 0.01962452 -0.06913637 0.070406064 -0.090487316 -0.10657664 0.11700022 0.08542279 0.22920571 0.007927783 -0.049490727 0.10992161 -0.10547921 -0.10503783 0.0021632016 0.032281682 0.11127816 -0.06771411 -0.1334313 0.15240294 0.029570304 -0.09637766 0.03111341 0.13770193 0.09069509 0.06808569 0.1241345 -0.073306285 -0.22369939 -0.014314855 0.120964415 -0.10334124 0.13744281 -0.012564361 0.114518724 -0.095396265 0.10595058 0.12933592 0.08497617 -0.1176157 -0.04304234 0.037130304 -0.11998551 -0.11021053 -0.076005384 -0.049437016 -0.054674137 0.015209627 -0.07986631 0.12861684 0.03381983 0.046924576 0.021676918 0.081140965 0.002423087 0.058090456 0.19059029 -0.13940962 0.07900005 0.17564665 -0.010977863 -0.14705841 -0.0974708 -0.07767766 0.08016008 -0.07761691 -0.07192409 -0.1580302 0.074161075 0.015438768 -0.16648299 0.09997127 -0.02846509 -0.11094447 -0.0687094 0.011595392 -0.0030091829 -0.015230232 0.041566722 -0.031681664 -0.015707256 -0.040636983 -0.00544882 -0.009167292 -0.03144077 0.009096328 0.021662269 0.119042724 0.08316121 0.048577268 -0.077064335 -0.055853702 -0.021210799 0.053334992 -0.00084733334 0.031187134 -0.13612586 0.076565765
856 0.13834469 -0.019649971 0.20181353 0.07987044 0.1380036 -0.33159524 -0.0113122305 0.123195045 -0.079875864 0.04863666 0.043375343 -0.03811605 -0.023183716 -0.082425825 0.06407466 -0.07345853 0.077837706 0.04183218 -0.030967051 0.06072733 0.2420742 -0.061182726 -0.03259885 0.018113863 -0.02831616 -0.0054263836 -0.16550456 0.02841232 0.0366198 0.010314487 -0.26848838 0.0791317 -0.04048386 -0.036009733 0.013714276 -0.0409733 0.09436017 0.034516245 0.1200465 0.08621903 -0.08980083 0.14036803 0.085268565 0.12239813 -0.19127327 0.0049520656 0.069900796 -0.10617239 0.07260875 0.06225013 0.06470959 0.060400814 0.15748535 -0.042852677 0.08458042 0.06900375 0.090657674 0.00053701305 -0.09917967 0.046312824 0.15739608 -0.065553315 0.016286546 -0.037342113 0.0038385724 -0.10671827 0.17764415 0.07138936 0.043293003 -0.049123537 0.023786647 -0.020310331 -0.18323056 -0.14091276 -0.015591218 -0.08973307 -0.053885657 -0.151761 -0.14454754 0.12628078 0.08760543 -0.106534466 0.113464154 0.16199926 -0.0126833 0.023092726 0.17309508 -0.1147136 0.099710934 0.033612575 -0.08994567 -0.19578008 -0.08316283 0.012088964 0.10839315 -0.07032204 -0.24673793 -0.15809858 -0.074787855 -0.029337695 -0.09354918 0.05649918 0.026106985 0.04600255 0.08902868 0.0090030115 0.087914474 -0.08859833 0.06247447 -0.07381753 0.06495699 -0.07448567 0.076996446 -0.11368595 -0.014086897 0.009375922 0.07216058 0.119414635 0.076110095 0.03904483 -0.06803286 0.0062989816 0.04426616 -0.00032752496 0.02100758 -0.018419037 -0.067425355 0.03694518
747 0.20227101 0.04917616 0.23294851 0.00834743 0.10903133 -0.30995274 -0.0076275636 0.15906405 -0.07432757 0.034412306 0.1409532 -0.1529947 -0.106251575 -0.04915322 0.11198244 -0.15745085 -0.07855365 0.0492641 -0.02973081 -0.0045230403 0.21990354 0.07122049 0.09107003 0.05898364 -0.013564854 0.066721156 -0.18854381 0.030535331 0.077836335 0.057166062 -0.3234066 0.2335211 -0.03651237 0.035190932 0.075315446 -0.13461241 0.17360118 0.11792138 0.17401624 0.047487974 -0.031093393 0.14350463 -0.052806385 0.09038475 -0.057488043 -0.008578008 -0.038756352 0.051369496 0.03990977 0.0601285 0.06636945 0.019542407 -0.08442693 0.029046938 0.06713832 0.042519674 0.04498577 -0.026273517 -0.08939046 0.0010453581 0.0045079766 -0.07719834 0.078142844 -0.0066364612 0.06362816 -0.11772021 0.17467262 0.11905278 0.11748465 -0.053742997 -0.086664796 -0.023568949 -0.13298643 -0.14847586 -0.055152003 0.070112385 0.07399988 -0.061217945 -0.14113711 -0.017213643 -0.024340123 -0.042961244 0.03689096 0.03260077 -0.04687035 -0.012004311 0.07240384 -0.03880314 -0.014966449 0.105463214 -0.06274897 -0.11924848 -0.14827742 -0.10291287 0.081756756 -0.12861642 -0.12644394 -0.11169835 0.02417731 0.04461884 -0.08977955 0.03877409 0.045070887 0.0368206 0.073800065 -0.0606846 0.07997377 -0.084348984 0.017804941 -0.056901824 0.036432557 -0.1263043 0.005423015 -0.05253902 -0.05406424 0.107450776 -0.09863971 0.08720753 0.12832087 0.08175984 -0.037205264 -0.017992366 0.059520405 0.011169959 0.008772408 0.033230234 -0.05999804 0.031052863
708 0.13378944 -0.062796846 0.32724866 -0.00034850705 0.15681691 -0.3740494 -0.075946525 0.11884024 -0.081762806 -0.037480194 0.09881961 -0.16005719 -0.16003521 -0.1380766 0.24604675 -0.109042756 -0.04738446 0.028474368 0.023746151 -0.010916587 0.3256845 -0.0134081505 0.085147865 -0.029352777 -0.04562666 0.071913235 -0.18003799 0.18051632 0.19112514 -0.19882911 -0.2004273 0.06651074 0.037540648 0.02332364 -0.03746433 -0.14605108 0.11994306 0.0739218 0.14416726 0.06386114 -0.020949228 0.064648084 0.015370325 0.036211196 -0.13107733 -0.05944159 0.058955096 -0.07723701 0.093072094 0.116321094 0.006207017 0.0849208 0.081103854 0.03457079 0.13207974 0.09020457 0.10185982 -0.07068179 -0.18430164 0.07283099 0.16950887 -0.10595329 0.088407084 0.045367774 -0.037977364 0.026092514 0.26097724 0.017423607 0.10418758 0.05383091 0.093335226 0.041508336 -0.004901618 -0.11961368 -0.050618183 -0.046520937 -0.08674045 -0.12623115 -0.0037016105 -0.016837293 0.10219389 -0.10880842 0.058075033 0.10982458 -0.15145926 -0.06432029 0.121740304 -0.046635203 -0.00442026 0.04480179 -0.080771394 0.041653026 -0.058512148 0.0026734422 0.02538146 -0.13558789 -0.16245031 -0.11702107 -0.10151482 0.05784681 -0.04020244 0.09672373 0.007767603 0.014924584 0.09582831 0.013265924 0.09464403 -0.16783166 0.05735483 0.007669363 0.12159108 -0.06575491 -0.010587284 -0.12235912 -0.082639195 0.044172116 -0.044385433 0.025615856 0.11312369 0.030603958 -0.15441914 -0.011366901 0.14588769 0.02455043 0.012826126 -0.023860602 -0.0966197 0.058295216
840 0.18099983 -0.040940497 0.23157802 0.03200984 0.05275694 -0.32777375 -0.08477942 0.06426311 -0.033986736 -0.0048271264 0.04766102 -0.18983224 -0.09134962 -0.05910705 0.09089037 -0.08756388 -0.0587755 0.08237819 0.008878485 0.010648753 0.23671407 0.014207527 0.097002275 0.06618049 -0.0061774626 0.030657774 -0.15745309 0.064028345 0.056168046 0.0025139118 -0.27990583 0.12878025 0.025810337 -0.028620053 0.06149761 -0.13920215 0.101082765 0.074244685 0.13194633 0.09606152 -0.05849211 0.11810772 -0.07464903 0.053760666 -0.09999877 -0.009343638 0.046143707 0.008569896 0.101754785 0.08129436 -0.021265756 0.032093514 -0.0609896 -0.026883014 0.09266856 0.06149557 0.044624474 0.000720751 -0.16807081 -0.009588662 0.06340037 -0.110605255 0.07472466 -0.014603621 0.07990278 -0.04670918 0.21316233 0.025581095 0.15044512 -0.036641676 0.018343775 -0.0044743745 -0.07115676 -0.17911156 -0.036723703 0.018725611 0.008429459 -0.10461107 -0.12610064 -0.04591407 0.035431076 -0.092459306 -0.0064274804 -0.0091338735 -0.119685724 -0.08081541 0.084718406 -0.05191609 -0.0060329847 0.08745914 -0.096199766 -0.062987864 -0.070501715 -0.103776485 0.1253053 -0.12278725 -0.19248691 -0.13644227 0.02895989 0.006856979 -0.07237787 0.07770488 0.04562256 -0.049892332 0.031129843 -0.07355169 0.028572094 -0.10396862 0.034219958 -0.032473247 0.026629478 -0.17446956 0.036958244 -0.13448909 -0.09750529 0.12646665 -0.010057612 0.13988559 0.15250191 0.05617083 -0.099127114 -0.066027425 0.044641208 0.018323569 -0.037115328 0.026923208 -0.15757385 0.010809944
823 0.15558705 -0.022037076 0.17028925 0.033291966 0.03827467 -0.22245279 -0.123028696 0.16248858 0.067498475 -0.10694094 0.08941172 -0.10658896 -0.07776038 -0.04612457 0.04232044 -0.14562443 -0.05345636 -0.006477397 -0.05048572 -0.017426888 0.27741325 -0.05265753 0.15893434 -0.01129641 -0.007189579 0.084486425 -0.14062266 0.07987187 0.18854015 -0.10170144 -0.24456 0.18959288 -0.014131144 -0.005971014 0.03183078 -0.16011912 0.12243272 0.07941791 0.15128839 0.050309684 -0.10278964 0.18976063 -0.00029043143 0.014974631 -0.093745016 -0.029984672 0.022422196 -0.012148729 0.13057485 0.118352085 -0.008530157 0.050664425 0.018359821 0.078510016 0.124269195 -0.0030138202 0.058436256 0.0050703543 -0.11688695 -0.056825936 0.19462949 -0.15674712 0.03523185 -0.0282644 0.09589979 -0.009999391 0.16929476 0.1539865 0.09432687 -0.036369376 0.06497613 0.011599952 -0.021457896 -0.102388434 0.055826694 0.05864216 -0.035845894 -0.08465625 -0.14812094 -0.0025708964 0.05112357 -0.11689051 -0.000820491 0.021224061 -0.055980265 0.008509979 0.076898724 -0.036534324 -0.050297778 0.098994814 -0.075102106 -0.028538782 -0.10953022 -0.11409874 0.121313505 -0.15378585 -0.17204867 -0.14264865 -0.014296264 -0.013665298 -0.07437623 0.064298 -0.019763367 0.014150979 0.07758032 -0.0776808 0.050752673 -0.040864848 0.08772492 0.0062215123 0.0068819704 -0.11645721 0.033008683 -0.07801256 -0.048331033 0.09985502 -0.03616658 0.18607007 0.14773275 0.028194286 -0.081411555 0.013235621 0.1483446 -0.05116164 0.028201712 0.038911454 -0.06998764 0.037121378
719 0.15710121 0.06192967 0.20409922 -0.060925335 0.080596335 -0.30360982 -0.08550906 0.2239886 -0.03364333 -0.036569495 0.124789 -0.04873858 -0.062529005 -0.046768643 0.07426464 -0.1447184 0.037607152 -0.024842173 0.008045964 0.05442178 0.2417937 -0.09473303 0.09012317 0.015937079 -0.040154424 0.04030673 -0.17898352 0.11464374 0.18278785 0.01736894 -0.24073598 0.2509007 -0.05052853 0.053550005 0.026848972 -0.106572926 0.16138737 0.17351452 0.09052312 0.066745564 -0.045421597 0.13683194 0.0322201 0.12883957 -0.034975816 -0.0035901607 0.014077752 -0.04106473 0.05727014 0.13000563 0.02057005 0.050638124 0.054820325 0.06611812 0.11522065 0.06636415 0.074014924 -0.0033811107 -0.05695825 0.0016266406 0.102244444 -0.10266952 0.040109474 0.026770491 0.14543119 -0.08385012 0.16664983 0.06569608 0.076836705 -0.079265274 0.043013968 0.022844259 -0.04166083 -0.13242939 0.012833999 0.04187881 0.02820947 -0.10882052 -0.11408653 0.099488676 -0.03158208 -0.11720324 -0.01695464 0.07670885 -0.02768089 0.049163118 0.096051484 -0.021483043 0.025529867 0.0684168 -0.11042542 -0.17972355 -0.07361799 -0.06784134 0.08843258 -0.07210296 -0.13675529 -0.13476764 0.042813327 0.012706965 -0.11633799 0.09038307 0.031308446 0.014258598 0.028867442 -0.07599112 0.08149293 -0.12677538 0.016652009 0.030996386 0.010030146 -0.09773626 0.0066838954 -0.028576734 -0.06005034 0.06487565 -0.031970475 0.111497775 0.12479938 0.09098197 -0.037775863 -0.028958594 0.11502093 -0.08177205 -0.021548327 -0.007795118 -0.10841134 0.07025588
805 0.1069327 0.12917444 0.113743044 -0.0022620566 0.09177424 -0.27818704 -0.07629273 0.1786813 0.0053022346 -0.032755237 0.10294677 -0.12920675 -0.04538463 -0.026610613 0.085369825 -0.16280948 -0.0513599 0.017833259 -0.04364782 0.09860192 0.25310427 -0.109303564 0.12645666 0.02612812 -0.05419572 0.04857286 -0.21481222 0.045702353 0.20584598 -0.05733008 -0.22622095 0.2213478 -0.022971636 0.0012836214 -0.0026932636 -0.117895015 0.08327614 0.17400868 0.06257101 0.037283067 -0.049164 0.15212965 0.0060438383 0.033577483 -0.08318942 -0.0052508926 -0.011290794 -0.028049262 0.1615878 0.14163098 -0.012026543 0.037872884 0.0035460126 0.08286759 0.10479356 0.07863207 0.053698882 0.003587168 -0.113662176 -0.03784016 0.13340232 -0.08574583 0.034504104 -0.07947859 0.13068244 -0.01556975 0.21043277 0.07766672 0.16228545 -0.044297736 0.02487177 0.018798884 -0.0007876962 -0.1383311 0.03399818 0.038115513 0.0089067295 -0.06127507 -0.16284156 0.069597885 -0.03047488 -0.12677434 -0.0039413334 -0.019612433 -0.027815448 -0.016846921 0.101034306 -0.021014031 -0.035773557 0.12659183 -0.11635698 -0.1584536 -0.104677275 -0.09323081 0.078268394 -0.15905234 -0.13449766 -0.122684956 0.020217244 -0.029047802 -0.15086262 0.07758818 -0.010293279 -0.0019167379 0.0781016 -0.068612 0.02815024 -0.16035911 0.03003445 0.010163245 0.040341716 -0.128962 0.025699964 -0.045199092 -0.06663326 0.05220577 -0.06493485 0.1181567 0.20370093 0.09438264 -0.094687514 0.00079039304 0.1516137 -0.0821361 -0.006147149 0.036507364 -0.06206733 0.06303592
885 0.09466587 0.18707597 -0.13434486 -0.019694583 -0.056095295 0.20181206 -0.088077754 -0.1264721 0.15973392 -0.121571206 -0.1410798 -0.12971935 -0.21096914 0.19060037 0.25075862 0.12525815 -0.047939666 -0.08915691 -0.015122442 0.3483357 0.21190427 0.11161944 0.20537837 0.097566105 -0.21949303 0.011795239 -0.23688778 -0.08966631 0.19939148 -0.12342091 0.20107736 -0.025440494 -0.047564805 0.07967347 -0.15500042 -0.24284233 0.21071781 0.059991356 0.121522464 0.03941932 -0.30789533 0.18969575 0.24715473 -0.26784283 0.008512142 0.05355067 0.1988435 -0.021978168 -0.1929672 0.06470083 0.17000431 -0.28517023 -0.017686019 0.25993517 -0.07984403 0.30007654 0.107512504 -0.06198043 -0.14706497 -0.17595787 -0.030785479 -0.1983487 -0.05818565 0.0381198 0.22772044 0.013629195 0.13485728 -0.057600237 -0.13052396 -0.1424219 0.02018887 0.0866166 -0.16093795 0.2702737 -0.0071563227 0.1247966 -0.15769073 -0.014414366 -0.13491593 0.08631009 0.026315229 -0.14472213 -0.114490405 -0.17440021 -0.18176381 0.037902743 0.032624036 0.058869205 0.06430929 0.33431584 -0.1645084 -0.3139912 -0.14516056 -0.5193516 0.37695014 -0.17825195 0.043706633 0.14022756 -0.05471747 -0.040912237 -0.13544205 0.16452937 -0.052657522 -0.37368637 -0.2030146 -0.102935016 0.037238613 0.19351852 -0.13548836 -0.21651612 0.28690144 -0.0899065 0.039521456 0.07070666 0.10767413 -0.2134643 -0.043521177 0.028544875 0.12906241 -0.11478466 0.022384837 -0.25464946 -0.072025344 0.09222483 -0.024419168 -0.06595889 -0.34264487 -0.16909492
886 0.0032678423 0.14391577 -0.08530583 0.13852964 -0.049532343 -0.08401384 0.0338998 -0.020336494 -0.10932852 0.13345686 0.07905166 -0.100594476 -0.020799417 -0.015655385 -0.019110905 -0.004618417 0.077459626 0.06373502 -0.099189356 0.08336537 -0.055405688 0.18247396 -0.035913307 0.06027172 -0.0064376583 -0.17937404 -0.24913496 -0.21203515 -0.11188637 0.049732953 -0.2556564 0.098909326 -0.1762167 -0.07757146 0.19841039 -0.06309721 0.24808621 0.033611905 0.3183724 0.023679825 0.027335722 0.14609358 0.2054423 0.085772075 -0.20267008 0.08600086 -0.07214776 -0.15547608 0.012040646 0.11062634 0.2647538 0.07150656 0.2411655 -0.16900757 0.14817324 -0.027623234 0.028598301 0.17705967 -0.11377933 -0.044551905 0.09236714 -0.107835405 0.03531467 0.101468995 0.019572865 -0.14601077 0.07165967 0.2268967 -0.030796438 -0.20610657 0.05528207 -0.08389072 -0.23255074 -0.016000656 -0.100898676 -0.14207569 -0.195032 -0.1720138 -0.30990386 0.21003409 0.36398825 -0.052664027 0.11776568 0.29426053 0.060506985 0.122149944 0.327251 -0.052407905 0.12628044 0.18955766 -0.12529063 -0.21305661 -0.15437832 -0.05891162 0.22097068 -0.07257674 -0.21639173 -0.017550526 -0.023162287 -0.1796449 0.10103895 0.04073957 -0.09595715 0.17391348 0.095207736 0.02198696 0.20262048 0.14137548 -0.042974997 -0.24538459 0.28476492 -0.009798238 0.07573059 -0.09944933 0.015021254 -0.06849381 0.18241347 0.088486314 0.05441835 0.09804847 0.02041837 0.10523796 0.03334258 -0.01137849 0.22428165 -0.054861855 0.017174032 -0.06922391
774 0.08832266 -0.0951756 0.26587763 -0.04338049 0.13960038 -0.30668133 -0.06189785 0.17619194 -0.042643 -0.05804723 0.050289143 -0.1090217 -0.18758087 -0.048551366 0.099635884 -0.10957601 -0.008755838 0.0074440306 0.082604505 -0.043115098 0.2889985 -0.05829982 0.07846334 -0.008854056 0.09551505 0.04900747 -0.17055544 0.11590683 0.23457608 0.0071514626 -0.20101842 0.18184598 0.034226976 -0.05378152 0.040699862 -0.17236866 0.029260611 0.056841493 0.033463225 0.075918324 -0.082361005 0.13218038 0.007147125 0.12317289 -0.13140967 -0.04176644 0.023636516 -0.026620265 0.1186875 0.101270325 -0.016478756 0.100226425 0.015588489 0.04263603 0.08587219 0.047472477 0.06433044 0.01959344 -0.03155972 0.050999355 0.16913494 -0.1122759 0.10417857 -0.038328983 0.058777113 -0.034048438 0.21724936 0.07762673 0.05968194 -0.002905603 -0.008122905 0.0062497845 0.004335238 -0.18458275 -0.05933676 -0.09657072 -0.14987455 -0.08035027 -0.19259253 0.02608819 0.014520303 -0.1422217 -0.00031911398 0.104492195 0.011552769 -0.059922684 0.1389188 -0.0766615 0.027041906 0.040580243 -0.096266225 -0.06787684 -0.05297363 -0.076068036 0.021198338 -0.12623097 -0.11356937 -0.13210893 -0.092529036 -0.074440524 -0.0002126102 0.13380508 -0.09725004 0.02514755 0.06559564 -0.0371204 -0.008652973 -0.10513642 0.00883852 0.015387505 0.1034349 -0.16569012 -0.021089008 -0.07071031 -0.07955831 0.03422751 0.052464988 0.1390853 0.27250877 0.06859404 -0.12822895 0.013249228 0.10457716 -0.06554765 -0.062002912 -0.01825278 -0.18983302 0.03292449
713 0.10337996 0.0021315978 0.14852324 -0.016711546 0.16941066 -0.3316099 -0.038765036 0.16360584 -0.083823204 0.05540269 0.13368414 -0.13683861 -0.11672499 -0.0850534 0.12585737 -0.16325985 0.05229059 0.034045693 0.005400876 0.09265055 0.30112627 -0.09673714 0.056782402 0.06943912 -0.027596736 0.056095142 -0.24527027 0.085964136 0.18668678 0.008511694 -0.26690188 0.20072205 0.0017539797 0.034548987 -0.055835754 -0.080812365 0.09238977 0.09844264 0.023814235 0.043730475 -0.014659655 0.03091634 -0.020235267 0.08361159 -0.05968715 -0.072974466 -0.049422383 -0.012733127 0.09164606 0.11324594 -0.034883294 0.061608773 -0.019510029 0.071534716 0.007435442 0.07880084 0.059329435 -0.09269083 -0.0830657 0.06528322 0.13765952 -0.108744815 0.071709596 -0.033833265 0.17013533 -0.039295956 0.15679936 0.037518658 0.09654657 -0.11721088 0.03863323 -0.014507588 -0.116498254 -0.18153137 -0.057833314 -0.08878614 -0.025361892 -0.08102091 -0.10793876 0.100978896 -0.035042454 -0.102317326 0.0041306517 0.039967325 -0.06265691 -0.029036729 0.13965683 -0.066108815 0.046751216 0.046596117 -0.11109839 -0.18003123 -0.11834927 -0.07516528 0.14059794 -0.08719647 -0.070445105 -0.11823251 0.031504527 -0.026392175 -0.024503415 0.08619239 -0.04539572 -0.004631384 0.022089874 -0.019178838 0.022575036 -0.1982247 0.017570574 0.072430044 0.0032734626 -0.06626586 0.029564891 0.01186958 -0.059421025 0.05917861 -0.036864158 0.026848704 0.17328393 0.07149674 -0.055685744 -0.05179828 0.061775908 -0.06050736 -0.08695134 0.006487192 -0.13765526 0.11523729
819 0.19200104 0.046029754 0.25763893 -0.032048207 0.04764433 -0.30455133 -0.0462438 0.16928078 -0.039377704 0.025573626 0.15038319 -0.19885609 -0.103704944 -0.16670905 0.10204774 -0.19144027 -0.0660527 0.0012913552 -0.05042311 0.0039811903 0.28088975 0.047208752 0.07856437 0.028423674 -0.06892954 0.16880323 -0.18960911 0.09928128 0.11977271 -0.092649154 -0.29828927 0.23437895 -0.06942391 -0.0053199776 0.045960672 -0.18110329 0.13085207 0.08302919 0.104595274 -0.04463986 -0.070800066 0.10922262 -0.049785066 -0.0014510248 -0.042351533 -0.012707249 -0.007539007 0.011052687 0.09827419 0.06408871 0.007943232 0.10829373 -0.021734754 -0.060062572 0.09018588 0.07519431 0.10174507 -0.019599643 -0.06366239 -0.08424204 0.14690615 -0.13981012 0.033086993 0.0035165534 0.1475156 -0.090742916 0.19379118 0.10687816 0.14276367 -0.11213847 0.06452185 0.021879345 -0.13688055 -0.04916513 -0.05539923 0.0753752 0.030735908 -0.04917517 -0.05268892 0.010291485 0.0505764 -0.08567886 0.05668803 0.06065814 -0.11233137 0.048393812 0.123389564 0.043969132 0.010671912 0.04827813 0.029906726 -0.07003988 -0.11034117 -0.093456455 0.1265854 -0.11717787 -0.1297561 -0.16988151 0.022619303 0.008711883 -0.091667295 0.07984393 0.02750115 0.065390825 0.13178137 -0.0152165275 0.076975666 -0.11716305 0.04055686 -0.040149175 0.09178936 0.012921338 0.008633597 -0.043553438 -0.043192063 0.053424638 -0.12148772 0.07696848 0.124177426 0.054806713 -0.028066661 -0.051619656 0.059715565 -0.023932107 0.015859896 0.01904889 -0.066838555 0.020864435
753 0.21571551 0.11916383 0.22268029 0.14363186 0.097449034 -0.13309681 0.09629154 0.0032960002 -0.08445857 0.04785048 -0.001335809 -0.08275376 0.0921954 -0.048269965 0.11302739 -0.048017856 -0.08130471 -0.008073882 -0.05605734 0.036079377 0.17826389 0.0685751 0.12863185 -0.11089443 -0.005319253 -0.029088901 -0.035769556 0.030674722 0.14844823 -0.13838188 -0.32746115 0.08131574 -0.0379704 0.060548168 -0.015739284 -0.17745997 0.15013677 0.052971885 0.1960439 0.07507855 -0.09815642 0.12032121 0.013168767 0.047643166 -0.035428718 0.036031444 0.00024685965 -0.096975125 -0.049913947 0.09508184 0.16199066 0.1072031 0.11031121 -0.059221055 0.038973235 0.11428631 0.15060541 0.08212281 -0.17099184 -0.19204167 -0.039444212 -0.052423798 0.018939674 0.112136535 -0.017154735 -0.05653046 0.29933235 0.18268566 0.009161524 0.019394912 -0.006424365 0.033695243 -0.18612419 -0.026723158 -0.010972923 0.066882946 -0.18473718 -0.16490142 -0.0808198 0.024219545 0.20136085 0.018607514 0.13045287 0.19335715 -0.0050130426 0.03455933 0.2096767 -0.20433342 0.016081966 0.12687193 -0.07887317 -0.13479169 -0.034805495 -0.014533648 -0.054247186 -0.090378 -0.17730293 -0.16240667 -0.028229652 -0.030586258 0.013290835 0.09636104 -0.059541713 0.015283481 0.16827522 0.094436236 0.09038913 -0.10278525 0.119248584 -0.05213539 0.07457833 -0.053322285 -0.0133683095 -0.22378118 0.042671848 0.043869924 0.039515615 0.10419541 0.051721994 0.0145670455 -0.013804152 0.10684471 0.20277773 0.10514091 0.077073954 0.081356116 -0.017430883 -0.011626292
882 0.013273754 0.1660578 -0.064944245 0.17363161 0.012589882 -0.12622392 0.0618841 -0.06318109 -0.17599615 0.18201753 0.05215447 -0.043728698 0.04930576 -0.029499987 -0.027598491 -0.010093781 -0.116728164 0.0525104 -0.13650556 0.11168023 0.1912723 0.25570247 0.0106940335 0.07833411 -0.008074925 -0.13276367 -0.31108546 -0.13570729 0.04383782 0.06455063 -0.4515046 0.20498419 -0.14831339 -0.09537587 0.31099007 -0.0008329534 0.04155965 0.044415716 0.14190044 0.048838023 -0.07148833 0.11963613 0.20011158 0.058480658 -0.047573984 0.18554421 -0.11843754 -0.026329258 -0.15177311 0.053952232 0.18439455 0.19717044 0.2608311 -0.08581533 0.04500771 -0.0013159456 0.02089546 0.19203652 -0.02504536 -0.13738929 -0.008437675 -0.10798363 0.17042112 0.16341877 0.09205523 -0.10087041 0.009267138 0.20612128 0.0633647 -0.14645725 0.00849757 -0.05502621 -0.20915535 0.009426128 -0.14399698 -0.06797418 -0.312464 -0.028775869 -0.23576109 0.20257403 0.24557525 0.0051115355 0.074279495 0.3980387 0.069311276 0.1135217 0.31777623 -0.037856452 0.053945847 0.13372861 0.043728612 -0.13115796 -0.07087684 -0.031010238 0.20818612 -0.049363937 -0.15810928 -0.0032060465 0.057977382 -0.23291741 -0.036619574 -0.006546075 -0.13225937 0.18013749 -0.035480797 0.04063931 0.23539841 0.1371411 -0.06874479 -0.21564735 0.2239502 0.014698855 -0.008848124 -0.14226004 -0.15849029 -0.1680949 0.26738042 0.18838266 0.029011436 0.08766859 -0.0023756938 0.12619807 -0.043759793 0.0343621 0.16273251 -0.081305504 -0.05275968 0.034656066
745 0.20908011 0.040419888 0.2421165 -0.012182772 0.1160345 -0.36132598 -0.11667182 0.2165116 -0.01277945 -0.03847514 0.071176246 -0.15786977 -0.09459962 -0.12916923 0.094150655 -0.106979966 -0.0034587653 0.11464638 0.025895799 0.04770897 0.2667399 -0.03830163 0.054404803 0.0068224454 -0.053802103 0.02276 -0.19520693 0.10791152 0.12533823 -0.016421413 -0.19445172 0.25773722 -0.048130065 0.0050539724 0.031320993 -0.11391945 0.12422581 0.14671843 0.10364476 -0.004280596 -0.045637988 0.11377013 0.020281121 0.08691938 -0.046203222 -0.058619794 0.065463975 0.007004968 0.15058796 0.16455382 -0.07434269 0.040209636 0.02468285 0.01684136 0.110064216 0.087328 0.004718706 0.103726625 -0.06663134 -0.046382826 0.12335867 0.019572068 0.011248277 0.0895874 0.18917617 -0.06040014 0.1715254 -0.011888475 0.17364365 -0.06267437 0.07409215 -0.015267525 0.002529539 -0.16054331 0.050401352 0.097920276 -0.0041715098 -0.1273753 -0.055769634 0.025182458 -0.0056870035 -0.14919 0.049512748 0.04413243 -0.11798996 -0.014496906 0.13443762 -0.00476157 0.0032986612 0.10414867 -0.12416059 -0.18439442 -0.13566649 -0.11591434 0.07137851 -0.037953377 -0.049283423 -0.08044262 0.08390846 -0.05952714 -0.04138534 0.10911256 0.011247618 -2.4688807e-06 -0.015469292 0.0100601185 0.052285716 -0.16173834 0.005170282 0.0016717943 0.06335067 -0.07269647 -0.01823905 -0.08601154 -0.09596246 -0.014737824 -0.038640913 0.0070023765 0.19923346 0.09229581 -0.07360639 -0.018632997 0.07332205 -0.08558095 0.016723517 0.042864326 -0.15347901 0.030401329
697 0.074797995 -0.04086753 0.20357703 0.03750818 0.15242374 -0.14803253 0.002076769 0.057284363 0.012488985 -0.014565761 0.1429391 -0.09857503 -0.13105083 -0.06652766 0.16328076 -0.10734227 0.008162925 0.07750783 -0.003289474 -0.015773168 0.2895287 0.011314254 0.09498421 -0.096541084 -0.051335946 0.050639212 -0.18523125 0.13777648 0.18337728 -0.067606024 -0.23676741 0.13606173 -0.079276 0.049090274 0.0061237216 -0.21503869 0.04459493 0.0777261 0.12842898 0.09390683 -0.08383845 0.10428202 0.020072404 -0.027460484 -0.1161973 -0.10052374 0.010903637 -0.065198496 0.08017671 0.12000956 -0.0693824 0.03774133 0.04684256 0.07775786 0.053516403 0.02147153 -0.02607836 0.048345663 -0.17075764 -0.014268847 0.19925973 -0.09888274 0.059006076 0.05483549 0.022302505 -0.018999407 0.15795709 0.11710661 0.079983324 -0.0031856245 0.01638244 0.06008972 -0.008179164 -0.1465174 0.013922271 -0.08557851 -0.17658028 -0.040800765 -0.13934499 -0.0055733067 0.12644874 -0.08155756 0.034345444 0.090869 -0.037234716 -0.05381089 0.18042895 -0.08310086 -0.0069561806 0.15713403 -0.09570805 -0.08992495 -0.12833127 -0.028654417 -0.007175402 -0.20827289 -0.054078817 -0.10994707 -0.055113714 -0.010247263 -0.04957929 0.029986896 -0.021528492 0.04370158 0.009595809 0.062161986 0.108403906 -0.1388156 0.12754035 0.02655235 0.025353193 -0.041864898 0.013733974 -0.140811 -0.091641076 0.06469113 -0.00078175357 0.077853434 0.17900406 0.0033564647 -0.14244096 0.030046996 0.19811186 0.09412671 -0.0038136584 0.012608224 -0.0008842773 -0.038777467
871 0.018355738 -0.18845701 0.06519054 -0.07452231 0.13420284 0.11845147 -0.27003512 0.10070899 -0.17126107 0.097452775 0.009841486 -0.06649945 -0.08177704 -0.102739826 0.30555084 0.01538432 0.2408143 0.28090712 0.014472398 -0.013654501 0.046866506 0.28378388 0.16105895 -0.13941972 0.070330314 -0.043344896 0.12075667 0.16907454 -0.083036415 0.03703777 -0.014261895 0.024521727 0.053184018 0.31310606 -0.20458324 -0.06860029 0.37140188 0.04255671 0.40169483 -0.15435477 -0.1169928 -0.12963976 -0.18060046 -0.11270022 0.0801807 0.0061590606 -0.09552677 0.05341427 -0.24666789 0.20966595 0.12472053 0.06455069 0.16038623 0.33080056 -0.09764405 0.07569502 0.14723107 0.012991314 -0.016012762 0.16742046 -0.13721892 0.10605067 0.28019089 -0.11449683 0.21971947 0.1762454 -0.049992148 0.05098175 0.11447252 -0.10849254 0.049656358 0.051808875 -0.093148775 -0.16976015 0.040949013 -0.059022103 -0.18000554 0.18462026 -0.22584301 0.11454087 -0.18636282 0.07037225 -0.03083496 0.16235238 -0.01435135 0.103616916 0.20683104 -0.14004804 -0.23099847 0.11052517 -0.084177874 -0.17485027 0.06426372 -0.13588607 0.102080286 0.13111265 -0.048933342 -0.21732982 0.13634692 -0.36489186 -0.09404179 -0.14719275 -0.093501054 -0.03894554 0.034612138 -0.13670124 -0.12015569 -0.040577393 0.012566944 -0.07882621 -0.12105195 -0.0029590158 0.056311753 0.08589965 -0.21372639 -0.13842618 -0.024294034 0.16297852 0.14572573 0.036905963 -0.046371736 -0.18767935 -0.11286611 0.049162213 -0.05596671 0.038408995 -0.2606417 0.3786219
828 0.07736276 0.12630013 0.12764488 -0.08403917 0.0907492 -0.28834143 0.014398992 0.21518102 0.022049343 0.0016838332 0.10601492 -0.08411562 -0.031956363 -0.13484064 0.044769034 -0.09694315 -0.08082888 -0.036560614 -0.04241087 0.060656395 0.15729573 -0.030612161 0.07777734 0.050082717 0.01686238 0.088464685 -0.1450255 0.110526696 0.2790866 0.04425488 -0.32740113 0.35274038 -0.024915665 -0.058844592 0.027292939 -0.11336966 0.1622163 0.17409953 0.2350545 0.026646448 -0.050002597 0.16184229 -0.006731508 0.040924836 -0.03898862 0.029803144 0.049960908 -0.004080312 0.13954578 0.1797389 -0.036936384 0.0004308055 -0.028972318 0.053328395 0.2440618 0.07891446 0.09768718 0.06264112 -0.13882774 -0.044761878 0.087500684 -0.055632677 0.09563492 -0.07472571 0.14442445 -0.09343737 0.24469241 0.050139997 0.055328444 -0.00040416175 0.012848623 -0.015875889 0.027761472 -0.13375066 -0.024511503 0.011921553 0.041019388 -0.13639073 -0.1346101 0.052385528 0.00618726 -0.15955126 -0.015243005 0.04942628 -0.027558153 -0.0016195903 0.05505762 0.010583456 0.06198571 0.16946262 -0.1307392 -0.10764053 -0.027823608 -0.121170804 0.01079655 -0.06290028 -0.14820501 -0.12959138 0.05966082 0.021293527 -0.054762717 0.17093582 -0.025361275 0.05809313 0.08675766 -0.035792205 -0.039404344 -0.1661598 -0.0014766663 0.0433035 0.12037069 -0.16849431 -0.026186446 -0.064577416 -0.03978202 0.06720931 -0.05417326 0.09590481 0.17635572 0.15023063 -0.052793466 0.012795423 0.11569727 -0.09615707 -0.016760893 -0.0027396402 -0.171232 -0.0065104854
800 0.10381938 0.034425516 0.20055325 -0.0679949 0.1434132 -0.31010365 -0.015241315 0.18507452 -0.10392016 -0.0726532 0.12870358 -0.009476076 -0.14409846 -0.011759354 0.22334343 -0.09797567 -0.047676656 -0.10123679 0.03906379 0.035627443 0.15382369 -0.023260724 0.06858396 0.06520936 -0.022927277 -0.0064336164 -0.08208165 0.10175665 0.18776584 0.008265637 -0.20000537 0.13812429 0.069934845 0.0132784555 -0.054601625 -0.14840564 0.16226506 0.1427154 0.1490466 0.13887824 -0.031841997 0.105197504 0.0017257401 0.18075977 -0.023467846 -0.022731787 0.10284756 0.0067436243 0.040274046 0.09303194 -0.0029682482 0.09726031 -0.0032983797 0.09927518 0.13675335 0.03560969 0.0067624175 -0.062205035 0.014206474 0.18580952 -0.02191045 -0.061654627 0.024623426 0.10520267 0.025706762 -0.0194814 0.20891863 0.045384355 -0.061431725 0.1190518 -0.04638939 -0.07720183 0.019888232 -0.18993002 -0.028196994 -0.009773578 -0.11562219 -0.12745664 -0.08410507 0.1328906 0.001062001 -0.09610648 -0.00876034 0.16723798 -0.055521984 -0.04339513 0.14305857 -0.07419595 0.048883732 0.17335048 -0.2530591 -0.18296108 0.0077263336 -0.124480456 0.00811403 -0.071463756 -0.07564476 -0.16509393 -0.044335756 -0.032213505 -0.14706141 0.19041064 -0.050080422 -0.026558531 0.0083599165 0.0011426547 0.12052743 -0.19373122 0.03786532 -0.061772536 0.09336093 -0.09555185 -0.06678479 -0.010715368 -0.09400071 0.006203648 -0.014495445 0.042441063 0.22639962 0.12920623 -0.18549111 -0.010378242 0.16259035 0.07635124 -0.054711763 -0.06806607 -0.06827543 0.01713813
810 0.08392792 -0.028625073 0.23217784 -0.040255327 0.0393758 -0.32126433 -0.03975518 0.09710972 -0.029634915 -0.02324647 0.12552443 -0.21940409 -0.10403264 -0.096501164 0.019210715 -0.06629895 -0.052006193 0.08725823 0.040582348 -0.014112242 0.21266715 0.036602534 0.014634941 0.06523432 0.01231166 0.036543045 -0.16816188 0.063964546 0.05827619 0.019657478 -0.18793458 0.19879043 -0.03309642 0.007965827 0.016992815 -0.16397998 0.08824611 0.08670846 0.061506413 0.047653597 -0.10949478 0.10010734 0.027523968 0.07596552 -0.11809781 -0.035620745 0.05201063 -0.02307081 0.095428504 0.18016332 -0.0658875 0.051650714 0.044503767 0.02914298 0.04883894 0.08059637 -0.016012536 0.04533446 -0.0828821 0.09726597 0.17823842 -0.024879726 0.07100848 0.06381396 0.12911347 -0.08128124 0.18751927 -0.01007855 0.20058995 -0.009159241 0.03950895 0.03714014 -0.067850895 -0.27334827 -0.004858568 -0.0036301923 -0.10284054 -0.049433514 -0.118720874 0.026393762 0.038120758 -0.15171544 0.055863008 0.10383372 -0.08547996 -0.03917748 0.14108084 -0.047859292 -0.038671426 0.08667832 -0.12773733 -0.1207337 -0.17097959 -0.114501715 0.101742916 -0.106471695 -0.023607329 -0.123831935 -0.01104928 -0.0042170337 -0.04655817 0.10902783 0.056073643 0.024346042 -0.048708163 -0.0011525077 0.15395296 -0.14638746 0.044753697 -0.015840271 0.07071703 -0.13484327 -0.028779512 -0.07962731 -0.14596538 0.01718314 -0.044280004 -0.0028419897 0.19152004 0.07861854 -0.14218886 -0.05675903 0.071683645 -0.018287122 0.008514655 0.018606927 -0.17734988 -0.017352358
875 0.08329798 0.0024375154 0.06576678 -0.13394518 0.040203527 -0.07292217 -0.045570035 0.060346786 -0.013239636 -0.0027617833 0.12026985 -0.10674153 -0.09310126 -0.04512025 0.09906394 0.026421627 0.04046093 0.0660453 -0.06988875 0.028113063 0.17287962 0.07581607 0.1342011 -0.08143741 -0.08930316 0.02244358 -0.11801275 0.05907148 0.16236308 -0.01167761 -0.10697686 0.09799468 0.024465412 0.09079965 -0.09014804 -0.045660753 0.12058256 0.11030767 0.2021653 0.031732164 -0.01853707 0.106364526 -0.05849774 -0.06594842 0.05112286 -0.036356267 0.02559179 -0.08690301 -0.1562314 0.054921165 -0.035763685 -0.12377796 0.08385999 0.09255341 0.1526861 -0.046326224 0.06664244 -0.0310188 -0.088838816 0.08242189 -0.065438315 0.0066306633 -0.026394308 0.0492537 0.09486383 0.017669173 0.05702894 0.030557884 -0.101831034 -0.071993746 0.03615047 0.019460203 -0.05371796 -0.05515381 -0.1103975 -0.0142625775 -0.12917088 0.013682888 -0.20311853 0.13078915 -0.035348814 -0.09786341 0.029798554 0.050276123 0.03190628 -0.069938816 0.09880377 -0.07506499 0.14342703 0.26396263 -0.21277818 -0.19934765 -0.17181642 -0.17365763 0.18569604 -0.14807235 -0.033491068 -0.10800677 0.023024894 -0.07186557 -0.04411105 0.08600753 -0.15772577 -0.08183872 -0.06423845 -0.067928985 -0.09277339 0.0132259885 0.042479638 0.026408853 -0.07735238 -0.010372858 0.04281136 0.0073235417 -0.099531 -0.032014944 -0.09933526 0.056541692 0.0758878 0.012182576 -0.08747742 -0.12129342 0.038774624 0.047259204 -0.02064984 0.0608833 0.047573533 0.06788778
861 0.1347906 -0.020766897 -0.022152226 0.3049688 0.082193516 -0.02166285 0.03881578 -0.0752272 -0.15751229 0.2469008 -0.03064526 -0.26728228 0.018946787 0.014634457 0.2728694 0.030800667 0.014828209 -0.03582963 -0.037730087 0.15751565 0.02535403 0.263732 0.029428666 -0.05795619 -0.0026965216 -0.025019398 -0.013430908 0.052211814 0.03756102 0.000663564 -0.42479324 0.01055163 -0.10873669 -0.028252091 0.09692013 -0.16601999 -0.0014011444 -0.0017253093 0.2190732 0.06123145 -0.19194409 0.107789196 -0.03594531 0.08323741 -0.04625479 0.1175892 -0.09895206 -0.024454374 -0.034616176 0.13980618 0.1459039 0.2464218 0.1875502 -0.15993966 0.049015325 0.062079076 0.085925706 0.16993022 -0.094385095 -0.18356724 0.08337189 -0.24246441 0.13177435 0.04112294 0.13388602 -0.10104897 0.21151394 0.22505361 -0.08908285 -0.13506484 -0.03163363 -0.006710852 -0.23082167 -0.0075382446 0.008946807 -0.11203108 -0.2762381 -0.14898942 -0.25814313 0.16499119 0.2263456 0.0051737633 -0.04366642 0.2147064 0.03583744 -0.040458668 0.32815275 -0.12054336 0.13716248 0.10438983 -0.043176003 -0.23572996 0.07456691 -0.089230016 0.116907395 -0.05795314 -0.25955734 -0.13435766 0.00015336595 -0.086659975 0.012017844 -0.06285261 -0.034226485 0.071617655 0.10613788 0.12503093 0.08330113 0.02871858 0.090048134 0.021798152 0.11272674 0.0011923262 0.09973637 -0.20945458 -0.04956885 0.16634996 0.17120136 0.15851061 0.05714748 0.11301438 0.1077212 0.16084512 0.10929226 0.19055322 0.051385004 -0.15439487 0.0020065065 -0.1449991
867 0.14621544 0.09808818 -0.07526342 0.08646525 -0.0059998035 0.16192143 -0.061440058 -0.024719344 0.051323432 -0.07874839 -0.119468376 -0.014295183 -0.22842826 0.15132226 0.20596878 0.02040574 0.06863774 -0.105849795 -0.002639278 0.15806206 0.110089086 0.054395437 0.121892914 0.08267095 -0.1675305 -0.00090604625 -0.19799514 -0.02274627 0.13693216 -0.20034663 0.31588665 0.016318645 -0.05026177 0.10669016 -0.19620313 -0.28686976 0.28672546 0.02875824 0.28100172 0.02323882 -0.21442863 0.2555312 0.17544833 -0.2745135 0.08297699 -0.027471133 0.23777623 0.122779466 -0.22485621 0.065197304 0.20421925 -0.32459217 0.018561414 0.27474582 -0.07120097 0.2918384 0.10324912 -0.031133763 -0.18947332 -0.17081548 0.056108557 -0.2604656 -0.019900458 0.23500715 0.26441294 -0.013701815 0.04684557 -0.014505286 -0.055664126 -0.2257769 0.06849878 0.07719408 -0.070834644 0.2328878 0.008214538 0.10876632 -0.12810828 -0.08775018 0.018697187 0.08570868 -0.00065201113 -0.15499978 -0.14775237 -0.12591106 -0.2343805 0.07122134 0.09663683 0.11074258 0.14363639 0.31278867 -0.043715104 -0.20593779 -0.08545115 -0.44045013 0.27197024 -0.14058267 0.0051244367 0.09545707 -0.012624282 0.072118156 -0.12556724 0.14720866 -0.0474619 -0.33580276 -0.24094798 -0.11643465 -0.020999094 0.20541266 -0.055117648 -0.124743044 0.26103145 -0.11775208 0.044885594 0.014101377 0.031281814 -0.18107405 0.009995112 0.11705466 0.14527197 -0.15065019 -0.04961988 -0.3358622 -0.056594618 0.053567704 -0.08179304 -0.025806924 -0.29826254 -0.15038012
769 0.29259968 -0.12766126 0.34538352 0.08164057 0.22704366 -0.35673785 -0.049303714 0.099118076 0.03173333 -0.05636897 0.14230253 0.1267975 -0.27976814 -0.1583324 0.2084634 0.020888876 -0.011399406 -0.15758567 0.12154409 -0.19145936 0.2573735 -0.038958024 0.07713873 -0.111723386 0.07562448 0.075562775 -0.120852634 0.20142092 0.15204643 0.0020490633 -0.23595342 0.0685555 0.11637614 -0.08798242 0.06162918 -0.29082623 0.03139784 -0.08414106 0.19461623 0.18429364 -0.048202973 0.047913216 -0.012822866 0.04314912 -0.08929929 -0.12841415 0.14776483 -0.033102546 -0.08053708 0.12863359 -0.014567973 0.042878795 0.10925722 0.08736247 0.2535177 -0.0014163771 0.04377649 0.053557754 -0.19455096 0.16396931 0.04084758 -0.08664287 0.0029746562 0.33171684 -0.02977355 -0.06982942 0.34050524 0.20500782 -0.121595025 0.20254801 0.024507994 0.027882738 0.07840518 -0.20418176 -0.11849304 -0.05369429 -0.3259328 -0.18187927 -0.06840846 -0.04207688 0.15269509 -0.124533184 -0.040688723 0.29417652 -0.04439847 -0.023107857 0.2099241 -0.046619266 -0.034840174 0.14955543 -0.23273578 -0.116086066 0.0044689267 -0.08174728 -0.010643604 -0.13029344 0.023884187 -0.16049078 0.008043989 -0.030668503 0.07582163 0.16835572 0.015102834 0.031791866 -0.02263013 -0.06865688 0.26397607 -0.14153235 0.0903224 -0.0658388 0.06467 -0.0678258 -0.16299744 -0.031102577 -0.07177293 0.12997392 -0.037631895 -0.0077173454 0.20289503 0.0916624 -0.22530948 -0.092987366 0.3349767 0.09412155 0.021356726 -0.05485491 -0.07741863 -0.14076993
804 0.019335007 0.13058692 -0.057803057 0.076157615 -0.00024220381 -0.08152959 0.014567022 0.07528596 -0.18141286 0.1540344 0.013932196 -0.15048164 0.01917693 -0.028191986 0.041872915 -0.021735009 -0.014596186 0.038626194 -0.16969004 0.1337145 0.08472864 0.20283338 0.111013025 0.06197222 -0.052229855 -0.20761095 -0.22523099 -0.081399515 0.0559579 0.04396629 -0.3730688 0.1108572 -0.21505266 -0.052480545 0.09331444 -0.07481405 0.10268194 0.0158212 0.20924032 0.024418911 -0.047471233 0.165691 0.108563 0.13211964 -0.14498362 0.1551638 -0.029563256 -0.13380066 -0.07578966 0.08944165 0.2751551 0.14437313 0.21498996 -0.09322086 0.0234959 0.0043584066 0.07608218 0.15879704 -0.04134429 -0.073506184 0.08426316 -0.10326238 0.1537699 0.08920022 0.050985362 -0.17770852 0.04486671 0.17812951 0.0024709485 -0.1964876 0.030190881 -0.06806378 -0.20008975 -0.020231053 -0.075768694 -0.09991331 -0.19990893 -0.22749642 -0.2348577 0.18706915 0.3218976 -0.013219981 0.11549422 0.17850947 0.042923525 0.0819253 0.23017289 -0.068263546 0.12664355 0.10628874 -0.08347028 -0.14117502 -0.06900465 -0.07279405 0.1286545 -0.05259227 -0.16807039 -0.07939645 0.023983648 -0.1540144 0.035437524 0.08595955 -0.1034622 0.13472389 0.049710616 0.056545116 0.13471526 0.1182338 0.010893472 -0.122584864 0.2147944 -0.0025564653 0.04291139 -0.15366046 -0.013284513 -0.008740824 0.29504877 0.114542164 0.105315104 0.102356486 -0.014473364 0.1519109 0.0006976544 0.033186812 0.18013646 -0.116546124 0.01838645 -0.09512491
872 0.15508653 0.15657705 -0.0046339487 -0.06717545 -0.02034228 0.19817546 -0.029162204 -0.09888197 0.036207102 -0.041419312 -0.14696744 -0.10240504 -0.2801752 0.12613457 0.28328273 3.4366421e-06 0.110404916 -0.1478489 -0.008503919 0.32585958 0.19779895 0.10746894 0.18602137 0.14628126 -0.17916055 0.017016884 -0.25879025 -0.037301637 0.27530083 -0.2026727 0.16203757 0.07022964 -0.08452979 0.21786804 -0.14420779 -0.32968858 0.29356018 -0.012101857 0.1506502 0.11869638 -0.2793157 0.12384234 0.23834167 -0.21180418 0.12511802 -0.10828576 0.16742343 0.09508197 -0.3005083 -0.05191299 0.21718024 -0.31185618 -0.05332181 0.21849315 -0.18883501 0.326599 0.06569588 -0.0006178108 -0.08763811 -0.21176927 -0.09912476 -0.19351903 0.0018277147 0.25134322 0.24205337 -0.0128794145 0.05417143 -0.09958223 -0.13257693 -0.2506698 0.08886571 0.1510541 -0.14234765 0.25703835 -0.0324937 0.073437765 -0.17582782 -0.093019105 -0.0662599 -0.054057118 -0.0016141421 -0.21443813 -0.11027045 -0.18091437 -0.254645 0.07684949 0.027488317 0.11213036 0.10995811 0.34565687 -0.10884132 -0.21860711 -0.11326521 -0.49330714 0.30606508 -0.14252882 0.0751274 0.12750557 0.030700391 -0.0011937016 0.008957382 0.12769999 -0.09662424 -0.36349177 -0.24184468 -0.09873291 -0.041321404 0.16949317 -0.11386691 -0.13767166 0.2639866 -0.08878635 0.054561775 -0.024101473 0.029655082 -0.21911676 0.058397353 0.06618366 0.16038057 -0.1835087 -0.021649454 -0.39459592 -0.085299976 0.10635129 -0.13530701 -0.024519786 -0.36028087 -0.15322089
876 0.045818243 0.085589215 0.02807947 0.14806466 -0.028083704 -0.0874381 0.09319175 -0.059315436 -0.12898585 0.06204112 0.06546292 -0.13492359 0.04786555 0.02152307 0.025907548 -0.013586068 -0.04895082 -0.010690902 -0.14091693 0.13463098 0.060493182 0.23964804 0.08830894 0.071375675 -0.036158368 -0.1051105 -0.2011364 -0.12888388 0.008652368 0.041998047 -0.35050896 0.18708134 -0.13925281 -0.01798597 0.1710674 -0.077714935 0.10515928 0.050892547 0.11333915 0.0752464 -0.00820321 0.10090001 0.17883845 0.095712826 -0.11010413 0.16971356 -0.08948028 -0.13315004 -0.097217575 0.042832255 0.25641772 0.1163022 0.23451535 -0.10065212 0.004038804 -0.009321525 0.035110228 0.14699958 -0.055262882 -0.084541835 0.043350432 -0.14665177 0.12754393 0.16822726 0.02935705 -0.17772421 0.039390445 0.1948324 0.06911749 -0.13180357 -0.038848925 -0.06026268 -0.20831533 -0.07596078 -0.11449908 -0.110338636 -0.23031273 -0.07928785 -0.26309454 0.19294086 0.30819604 -3.846305e-05 0.12234451 0.32274988 0.13368036 0.074234806 0.28189084 -0.08292782 0.052561905 0.104186855 -0.036514413 -0.14196794 -0.12481247 0.009296259 0.1159269 -0.06946832 -0.14161925 -0.10805987 0.011370943 -0.1864398 0.027090477 0.040662207 -0.07015996 0.1810903 -0.014022742 0.03748092 0.22545335 0.119636245 0.028854053 -0.24446379 0.24429642 -0.052491423 0.037550185 -0.15386789 -0.055506848 -0.0849957 0.22147848 0.14706607 0.06344089 0.08787132 -0.020823767 0.13169177 0.10304809 0.08247349 0.18104479 -0.041395143 -0.003761493 -0.044675488
889 0.16920802 0.07816411 -0.050411794 0.33549067 0.18256418 -0.090911455 0.095717974 -0.16294676 -0.016028667 0.14574412 0.0031544482 -0.11044869 0.12273843 -0.031619072 0.10461436 -0.015409741 -0.034850724 0.0122175375 -0.17248425 0.22832577 0.10796743 0.024365362 -0.0011145633 0.023463015 -0.11482533 0.010908936 -0.11587305 -0.047384694 -0.06865433 0.036391724 -0.31244838 0.10507508 -0.041053407 0.041701548 0.036682922 -0.09484744 0.03916381 0.02062537 0.21393177 0.042932246 -0.11007447 0.06484559 0.0862184 0.059913944 -0.12580046 0.04732975 -0.029213334 -0.038676973 0.007790213 0.12912682 0.12549506 0.1211154 0.18772508 -0.0932164 -0.041242965 0.021699296 0.04532684 0.11332562 -0.1834817 -0.13037036 0.104919985 -0.12334561 0.01020442 0.10265704 0.09614127 -0.06701457 0.044904795 0.17794542 -0.05630022 -0.11983617 0.025589563 -0.1526506 -0.22125384 -0.019196585 -0.01488778 -0.144307 -0.23777416 -0.20657225 -0.15503305 0.13424055 0.33523476 -0.009903063 0.11720725 0.29466918 -0.025582977 0.029724564 0.3389844 -0.18739924 0.08318033 0.078182854 -0.032664403 -0.20239207 -0.110934764 -0.05419812 0.21307442 -0.09812517 -0.2376627 -0.12163606 0.04203843 -0.22966352 0.036437977 -0.057867352 -0.09566919 0.05231697 -0.022768244 0.12680028 0.061144315 0.028311921 0.12796083 -0.09825139 0.18487763 0.011834087 0.15179707 -0.23655465 0.023227422 -0.05003023 0.12000998 0.072885916 -0.035592344 -0.015622868 0.12653397 0.10613405 0.13693757 0.18138441 0.072121106 -0.015957804 -0.03191095 -0.015336139
884 0.14981152 -0.28025442 0.15618847 0.06255119 0.068795785 -0.16331846 0.09151378 -0.09837745 0.1602419 0.0029265606 -0.0053394004 -0.08706168 0.0733535 -0.20767273 -0.11162272 0.12502806 -0.13143717 0.24536769 -0.2900657 0.19954614 0.21754432 0.056042302 0.046294983 0.11516602 -0.13349423 -0.039115924 -0.091311835 0.08593938 0.032152146 0.12964684 -0.25501156 0.21009615 0.035884924 0.021851761 -0.3313609 0.07328012 0.093544915 0.037616078 0.12696123 0.027508993 -0.15795982 -0.025423083 0.13027717 -0.25906417 -0.20110317 0.22326843 0.2866005 -0.13744645 -0.027512776 0.079859406 -0.2247902 -0.24717027 0.20427872 0.060673673 -0.03804376 0.14556031 0.12425753 -0.18931162 -0.15167339 0.1015099 0.34112886 -0.04902019 -0.08915047 -0.15909968 -0.09991787 -0.022146475 -0.05725844 -0.10873221 -0.22385508 -0.07190091 0.12263121 -0.054531876 -0.28829437 -0.101042286 0.027994366 -0.27404007 -0.07657094 -0.03460799 -0.030453198 0.19346797 0.09338729 -0.078294516 0.159463 0.20086019 -0.055358004 0.18584108 0.12452658 -0.083426714 0.3751504 0.1927599 -0.05351732 -0.191869 0.061965805 0.1525367 0.049827237 -0.025417155 -0.1734575 -0.22394502 -0.13239568 0.07117415 -0.2822725 0.13746203 0.10131965 -0.05359434 -0.1050873 0.06162832 0.016240627 0.050562453 0.1763883 -0.08867508 -0.109145 -0.07205112 0.23921697 -0.0073096855 0.004901062 -0.25945807 -0.11992224 0.11725132 -0.15405688 -0.109683454 0.011501363 -0.2628658 -0.054439656 0.33561665 -0.11524187 0.07517582 -0.25667158 0.046263617
811 0.13412975 -0.06497721 0.31747597 0.076179124 0.19688472 -0.32675105 -0.09483284 0.1487246 -0.03174857 -0.057045545 0.12523842 -0.03669931 -0.28302112 -0.054674696 0.27919528 0.04413869 0.06350502 -0.14917517 -0.04395651 -0.046174694 0.313764 -0.01716694 0.10374193 -0.08132844 0.019400973 0.05368747 -0.119354434 0.120745726 0.18850757 -0.07120752 -0.23023187 0.057706147 -0.0042035314 -0.06476829 -0.05823462 -0.16912003 0.18283042 -0.1553006 0.1502173 0.022622082 -0.027670207 -0.0071265833 0.07209307 0.15424548 -0.21030493 -0.08420518 0.03016364 -0.12553096 -0.09285469 0.026778363 0.17495908 0.16078715 0.14454009 0.10142806 0.19766377 -0.015261412 0.21070899 -0.03366311 -0.102678604 0.23068796 0.056102578 -0.16733482 0.07330159 0.18553302 -0.06779019 0.009148474 0.2686012 0.14729989 -0.13589913 0.13756539 0.049707223 0.12084312 -0.113528125 -0.092927985 -0.03844345 -0.17112747 -0.165004 -0.2247035 0.08275466 -0.027558085 0.120959796 -0.08646018 0.073150665 0.14507458 -0.13066003 -0.018327724 0.11160925 0.018907353 -0.07151495 -0.021999069 -0.16194458 -0.0055718413 -0.08383195 -0.05614324 0.041122474 -0.11591202 -0.13108505 -0.1195682 -0.17612973 0.09116834 0.10131539 0.30486122 -0.06312822 0.07647186 0.09848664 -0.036874853 0.21519315 -0.20707412 0.0006333498 -0.008853939 0.20550382 -0.12266015 -0.14527659 -0.0327095 0.021075016 0.16174811 0.029973187 0.07731548 0.14731576 -0.036385786 -0.115848914 -0.10082004 0.31901348 0.031558476 0.07349243 -0.09009765 -0.23388061 0.058658384
776 0.1328417 0.05003596 -0.043458115 0.07658129 -0.058755536 0.12623316 -0.06575619 -0.12782902 0.037145756 -0.06916272 -0.13222192 -0.118081205 -0.18890412 0.069882855 0.20083211 -0.021265242 0.07856295 -0.09708711 0.05940928 0.25858587 0.16504063 0.06957434 0.11450371 0.048310217 -0.15772246 0.02077754 -0.21746746 -0.040895436 0.14605947 -0.23609515 0.32839444 -0.0879761 -0.0740268 0.15486746 -0.1892455 -0.3510547 0.311082 0.05721806 0.2339558 0.04307169 -0.25554517 0.1326615 0.16375957 -0.19759674 0.09225429 -0.04038108 0.18121101 0.03329832 -0.11828701 0.036371347 0.1739631 -0.26442802 -0.08914457 0.1508044 -0.079962894 0.22664134 0.093435325 -0.19040014 -0.09627555 -0.15428174 0.051160995 -0.31968382 -0.11139373 0.13339302 0.24399251 0.027951768 0.08877694 0.014329109 -0.08753831 -0.22774588 0.07779899 0.06958617 -0.21305297 0.22229047 0.001535311 0.08792017 -0.06702549 -0.03055687 -0.03360659 0.021600699 -0.018832233 -0.13876918 -0.105572976 -0.13077071 -0.20765445 0.09330583 0.14462738 0.020817287 0.15297236 0.31332365 -0.15301436 -0.23614821 -0.14217496 -0.48591137 0.44786277 -0.17676249 0.05782747 0.047478694 -0.03159361 0.010657609 -0.07596206 0.13145988 -0.07099336 -0.41944852 -0.15524253 -0.07810842 -0.07330264 0.14032418 -0.050359398 -0.1575826 0.27326918 -0.02552793 0.11002965 0.08709749 0.103308514 -0.15643656 0.02227506 0.04187832 0.09969299 -0.17300957 -0.004739442 -0.23920484 -0.0058722952 0.054688092 -0.1132679 -0.008552262 -0.2846518 -0.13279909
880 0.053528722 0.022022558 0.18228835 -0.18750615 0.010885961 -0.26357797 0.09785515 0.015345999 0.04234548 0.024471892 0.084435925 -0.113548614 -0.10630245 -0.058635842 0.0787303 -0.21661395 -0.12481619 0.042369775 -0.08209121 -0.09680195 0.16779177 -0.04192399 0.012289198 0.19795246 0.07585019 0.10605062 -0.09312587 -0.047921337 0.2484698 0.026535353 -0.21210308 0.24655902 -0.038812675 -0.008793255 0.1485202 -0.11834868 0.0754433 0.025628671 0.23423524 0.061482105 -0.100199886 0.2567559 -0.12514412 0.050701503 -0.2063659 -0.11573265 0.015230897 0.080962166 0.037987474 0.06198298 0.14056106 -0.14440536 -0.07322764 0.08885275 0.14717482 0.115141936 0.0016014676 0.08746681 -0.24074793 -0.0019022371 0.015943822 -0.003544486 0.18728393 -0.19018643 0.071573995 -0.10204165 0.17657568 0.059014183 0.14512536 -0.083238594 -0.06503329 0.025681777 -0.07448896 -0.11154902 -0.12716374 0.02964127 0.0043742997 -0.048502948 -0.21696445 -0.12902525 0.023353724 -0.15742972 0.004147603 -0.010416975 -0.044881225 0.001280959 0.087444074 -0.13164024 -0.11326226 0.24448606 0.0420648 0.18571952 -0.08277409 -0.16547458 0.11464009 -0.17524788 -0.35567394 -0.15334433 0.020614898 -0.039346907 -0.09360786 -0.053549718 -0.061066125 -0.021284282 0.17479268 -0.07329692 -0.16281347 -0.051865254 0.03701967 -0.056209613 0.107456766 -0.23207325 0.070623115 -0.110668465 -0.16393693 0.0792944 -0.089750804 0.20184015 0.13318336 0.13278684 -0.09353187 -0.058554992 -0.08810393 0.009161839 0.01732422 0.017695408 -0.049990896 0.00864185
890 0.20834938 -0.15796293 0.31541538 0.20402582 0.2250392 -0.39140236 0.019383356 0.038037173 -0.1401949 -0.017353872 0.08752918 -0.065000355 -0.23234394 0.08472088 0.27793643 -0.055463273 -0.02412478 -0.175962 0.16422908 -0.074954934 0.24045931 0.06244432 -0.023060724 -0.081183575 0.089229226 0.11999071 -0.07888851 0.15905112 0.18361309 -0.059297442 -0.12427714 0.034149744 0.15336514 -0.03086022 0.07217272 -0.17946461 0.004933415 0.09955601 0.074532405 0.1707275 -0.06103169 0.16276594 0.031817503 0.18776977 -0.05914626 -0.038257685 -0.0079016 0.051632263 -0.0037099621 0.047476277 0.006699026 0.19347732 0.07148331 -0.0015583865 0.1798377 0.03097358 0.047392808 -0.093550645 -0.020609992 0.08683895 0.088606134 -0.2763029 0.03754615 0.1814623 0.028711168 0.03646613 0.2611267 0.13782677 -0.13066578 0.100924395 -0.0641597 -0.066213384 -0.028175026 -0.1278288 -0.11809848 -0.03200924 -0.22921255 -0.14901292 -0.07128024 0.058599796 0.008228978 -0.053601824 -0.09715649 0.27910075 -0.087128885 -0.19134475 0.2823068 -0.1127169 0.12942244 0.075526774 -0.13062817 -0.16660301 -0.026940871 -0.11814433 0.13575852 -0.2032454 -0.18401977 -0.15502283 -0.14344992 0.01524421 -0.094141245 0.10993729 -0.077694535 0.010712788 0.03228818 0.044359457 0.1412038 -0.15042967 0.0598607 0.08591386 0.15918261 -0.09095378 -0.06590438 -0.12773766 -0.10439578 0.09862838 0.068071656 0.0911883 0.18075272 0.06024953 -0.078673534 0.061832517 0.27305543 0.09157006 -0.103120446 -0.14947037 -0.0977089 -0.0277135
878 0.123868525 0.009786393 0.0068229893 0.20363398 0.024281234 -0.14067438 0.03521875 -0.098271705 -0.06416746 0.07108148 0.011974519 -0.0829005 0.11600853 -0.028298587 0.056761224 0.004323341 -0.013434801 -0.033836234 -0.10097036 0.119227424 0.08304115 0.14278091 0.06910668 -0.00138343 0.006215663 -0.09594536 -0.111031435 -0.031129807 0.083096534 0.008979005 -0.3295593 0.10339359 -0.09363405 0.053931814 0.143644 -0.0708272 0.106514975 0.047327723 0.1763887 0.09074518 -0.0646445 0.09641923 0.14330097 0.077259235 -0.0687632 0.112879634 -0.109981075 -0.12875877 -0.115564495 0.11599046 0.27120897 0.089288265 0.2533378 -0.092469886 0.026713952 0.092453554 0.10099424 0.16347566 -0.20426689 -0.19279382 0.009090714 -0.11913185 0.14745562 0.09112439 0.088185355 -0.07809822 0.08078972 0.16108589 0.0005574393 -0.15374593 0.078615 -0.07858619 -0.23019293 0.0009901321 -0.09598477 -0.057780907 -0.23908201 -0.18182899 -0.16168188 0.10434942 0.32733303 0.032607403 0.07131958 0.26033506 0.05256328 0.10504639 0.27058595 -0.13988014 -0.0211314 0.089778796 0.0026844018 -0.10809456 -0.030095683 -0.038365252 0.1857136 -0.015202843 -0.2270946 -0.11193368 0.116569 -0.22767599 0.08657218 0.007936371 -0.1123236 0.08868651 0.074423365 0.047688026 0.13856584 0.04223893 0.033522785 -0.13397624 0.23046754 0.0010556797 0.052317806 -0.2053524 0.005918925 -0.050156176 0.22956175 0.11213118 -0.05452771 0.05090268 0.068276815 0.115670525 0.06982991 0.08115096 0.16187891 -0.022800814 -0.06967581 -0.022270763
874 0.15724467 0.22867188 -0.035996694 -0.0056605847 0.075256124 0.1535786 -0.015727645 -0.10395613 0.066047825 -0.09957858 -0.09347532 -0.056159433 -0.25067222 0.17420746 0.36377063 0.09487733 0.019023012 -0.10861657 -0.144877 0.35952854 0.18670867 0.08989325 0.279839 0.07911614 -0.2888083 -0.008695702 -0.21053909 -0.06384609 0.17423828 -0.15083992 0.1736754 0.030832421 -0.021452356 0.18922175 -0.1712833 -0.18311363 0.19411822 0.08337079 0.16642624 0.12459646 -0.25040713 0.16389309 0.2044673 -0.21425903 0.090546675 -0.0042807367 0.22136769 0.056998882 -0.32805607 0.017317018 0.13596603 -0.24148391 -0.035788804 0.24330574 -0.095487304 0.24620453 0.07320729 0.009855152 -0.2134974 -0.1486909 -0.1210124 -0.1332545 0.03288218 0.18777128 0.16683483 0.015599902 0.03848991 -0.13061331 -0.155889 -0.12064427 0.046518072 0.120941095 -0.06252785 0.17660932 -0.053777844 0.029127117 -0.19366506 -0.1337967 -0.0784158 0.033100717 0.08959426 -0.10086279 -0.032170292 -0.13762961 -0.27043363 -0.035570934 0.0018956242 0.08038395 0.1117513 0.32543316 -0.103259295 -0.24583355 -0.12504758 -0.399932 0.2141963 -0.1398082 -0.015306858 0.12154256 0.049825955 0.020286905 -0.12530662 0.15734027 -0.04473629 -0.35695422 -0.30482113 -0.100909345 -0.009359747 0.18506594 -0.08767858 -0.15225182 0.24007888 -0.1235233 0.052601933 -0.090146214 0.029519452 -0.17337479 0.02961582 0.026125595 0.09153255 -0.11763092 0.004350436 -0.3746439 -0.04782817 0.19086663 -0.04086819 -0.04004068 -0.28083092 -0.11772319
870 0.086718835 -0.23128252 -0.034419235 -0.0031084907 0.18790877 0.15120092 -0.3374033 0.26614362 -0.12300142 0.05820173 -0.0061680125 -0.120301865 -0.26706943 -0.099495076 0.34142905 -0.025866974 0.10807753 0.29085094 -0.010125227 0.0053440765 0.11153495 0.35664818 0.18836504 -0.08525215 0.028399201 -0.071839385 -0.0429794 0.12641302 0.018664626 -0.025534138 -0.0014491 0.109557085 0.03809969 0.21331699 -0.22726978 -0.0138417715 0.37211713 -0.001210426 0.37806877 -0.2168792 -0.06278005 -0.054097086 -0.079964414 -0.27174497 0.064362824 0.008410559 -0.148287 0.16150644 -0.16004728 0.049687296 0.15302056 0.017670812 0.051690422 0.3616719 -0.11515117 0.094217084 0.07653163 -0.07699083 0.12401897 0.052374437 0.00036604545 0.118628055 0.23139518 -0.11427285 0.23016666 0.20739363 -0.06931527 0.15493476 0.15284063 -0.13126224 -0.0019384831 -0.12755959 -0.14987513 -0.16135563 0.07785084 0.02189731 -0.11000234 0.29815614 -0.14560205 0.087802336 -0.26757804 0.14264093 0.03807447 0.036354437 0.015855365 0.13936692 0.21181037 -0.010737032 -0.2579502 0.22743048 0.00064409163 -0.17770429 0.0021478266 -0.19359615 0.15736824 0.078279465 0.08949223 -0.25652367 0.15388133 -0.4205167 -0.11084254 -0.042093378 -0.21280777 -0.06457734 0.18828936 -0.06676847 -0.12627934 -0.029415566 0.06545872 -0.20046592 -0.10325023 0.13420545 0.033493374 0.19437149 -0.058634758 -0.27050498 -0.11291244 0.08049516 0.23917422 0.007383861 -0.06749684 -0.10428308 -0.21361606 0.07980798 -0.039734814 0.15037918 -0.18099917 0.34899142
729 0.15120356 -0.06704555 0.09041363 0.26989454 0.10579836 -0.15900525 0.12930642 -0.14636227 -0.06680585 0.14432408 0.083859086 -0.07826885 -0.019407675 -0.030099655 0.07108553 -0.04876591 0.030458184 -0.068311974 -0.074733585 0.09595426 0.15473036 0.18826269 -0.016101215 0.0059888307 0.044063088 -0.0102527 -0.15164024 -0.01673669 0.031761467 0.08284381 -0.37093854 0.13438398 -0.109985836 -0.016891282 0.18776685 -0.12533721 0.04892806 -0.07371626 0.17280239 0.08039949 -0.1608882 0.11927288 0.091961674 0.07784291 -0.07964993 0.028262967 -0.13864738 -0.007364397 -0.07735783 0.031395607 0.24723639 0.23193267 0.09867225 -0.1791742 -0.078820884 0.019271659 0.019855784 0.12248663 -0.056952395 -0.17925388 0.028811397 -0.17300513 0.04955516 0.1143649 0.17273083 -0.0918999 0.038394533 0.267139 -0.06623734 -0.10948081 -0.012438441 -0.1458984 -0.3597869 0.007159271 -0.09883465 -0.103603564 -0.31318185 -0.12544358 -0.15748851 0.12033131 0.33322555 0.08400624 0.07910752 0.29359284 0.054217443 0.0714382 0.33912018 -0.18482998 -0.018975258 0.063037224 0.05168749 -0.17239025 -0.08020004 -0.13505279 0.25180522 -0.05693334 -0.1907974 -0.18124531 0.04943932 -0.28666645 0.13171516 -0.0002974329 -0.16715606 0.10713003 0.11266486 0.14389034 0.12026138 -0.011253047 0.112881795 -0.16061896 0.22715487 0.092705056 0.0736974 -0.17853743 0.11080429 -0.02280882 0.22289799 0.064011365 -0.01582837 -0.00061755825 0.11867609 0.14942914 0.07106918 0.14637767 0.07645111 -0.028042313 -0.0032071348 -0.13846688
703 0.15093617 -0.049394738 0.22167082 0.11053576 0.0578461 -0.31730798 -0.061582185 0.108869 0.0011822847 -0.078686886 0.058114555 -0.3136806 -0.052012015 -0.054786306 0.011342541 -0.15044768 -0.14686774 0.10182998 -0.06416764 -0.0127239395 0.23624009 0.040839482 0.17766662 0.03184838 0.022467617 -0.015540147 -0.22469576 0.08165004 0.10600313 0.049491387 -0.29872766 0.28845417 -0.025489265 -0.066017896 0.06936046 -0.18082707 0.101671174 0.14764184 0.113376535 0.00032132372 0.02673252 0.1175435 -0.05063074 0.09648551 -0.10091309 0.039793745 -0.04056786 0.020658609 0.20328042 0.18964884 -0.01700882 0.09505288 -0.11814545 0.018893687 -0.025523545 -0.02651755 -0.022622993 0.033948805 -0.105442666 -0.00333588 0.1570659 -0.14690933 0.113381 -0.029283939 0.04072696 -0.023244698 0.07004476 0.065477796 0.09084454 -0.08871883 0.040373698 -0.09877464 -0.0249119 -0.19378947 0.013930624 -0.032341935 -0.00022711788 -0.20688406 -0.13735634 -0.09662328 0.13447851 -0.1140813 0.029037192 0.007842726 -0.10510448 -0.05645487 0.1222584 -0.007337718 0.051739644 0.071305126 -0.14227892 -0.03697211 -0.12660745 -0.14233345 0.07235601 -0.16051984 -0.084198475 -0.09781708 -0.05330312 -0.027136497 0.00598233 0.15544403 -0.0096304305 0.061091557 0.02663126 -0.062092204 0.004331292 -0.04711789 0.08571074 0.0106032975 0.1542987 -0.21611609 0.049866557 -0.13865831 -0.08105984 0.08687878 0.040220585 0.11246701 0.18789543 0.0620416 -0.03905808 0.048944417 0.16138396 -0.011187389 -0.018242342 0.024369728 -0.22636521 -0.021225134
772 0.07143317 0.00067095936 0.11192439 -0.026322948 0.09448799 -0.2765415 -0.06507401 0.052492235 0.051252708 0.06620499 0.14018974 -0.15949497 -0.13734666 -0.13605689 -0.048909687 0.008385018 -0.12661898 0.11371563 -0.009834241 -0.024214339 0.2707589 -0.031557035 0.030164346 0.018991657 0.02908694 0.040496487 -0.20384888 0.0399584 0.15791339 0.023695838 -0.12570035 0.18320046 -0.036315884 0.061946966 -0.02539042 -0.15368646 0.04071583 0.0005743003 0.1311123 -0.060079128 -0.1280368 0.17819442 -0.090800285 0.05802325 -0.09127552 -0.041000832 0.041637287 -0.026846126 -0.028401205 0.24464765 -0.040899802 -0.058804553 0.10263163 0.16705549 0.16254161 0.014496153 0.05301123 0.045613084 -0.08524386 0.17991665 0.14744142 0.018263083 0.07281038 0.033740085 0.112466976 -0.05454464 0.12860101 0.06938225 0.09351766 0.024793563 -0.021368299 0.07703046 -0.0930333 -0.12909275 -0.03755199 0.04227352 -0.14936179 0.0035946995 -0.14119653 0.040704206 -0.058734424 -0.16045818 0.025837094 0.023498932 0.05173329 -0.01880081 0.10895887 -0.055622194 -0.08640065 0.23615928 -0.17551123 -0.120285966 -0.23711869 -0.23415859 0.16151933 -0.21291032 0.043962613 -0.0192759 -0.04021241 0.03448877 0.011268477 0.08131953 -0.09131538 -0.03807043 -0.04739418 -0.0031731399 0.02330098 -0.019172821 0.022598783 0.06857109 -0.020797273 -0.12173022 -0.03748015 -0.057373796 -0.19410394 -0.00016519935 -0.09547955 -0.0021963876 0.07445273 0.03977932 -0.12998699 -0.02632573 0.09437185 -0.0701612 0.05620284 0.020699523 -0.03391382 -0.020338912
803 0.05236948 0.059179995 0.16235024 -0.22780176 -0.09175487 -0.1485778 0.034333736 0.057215147 0.08201862 -0.119307995 0.14423957 -0.13761549 -0.14113092 -0.17961507 0.08780173 -0.21819773 -0.16520868 -0.09656645 -0.07466076 0.043097895 0.21649402 0.040337462 0.12577796 0.11805921 0.051868524 0.11030314 -0.15943974 0.1481768 0.23488113 0.07160142 -0.357984 0.23271872 -0.036882102 0.11153746 0.13369493 -0.38331407 0.18351516 0.09684132 0.31721982 -0.021853728 -0.2240228 0.09873132 -0.17925106 0.068152145 0.012919814 -0.05328858 0.18328531 0.030005239 0.17150843 0.2798729 -0.054272316 -0.05167002 -0.1645953 0.02848577 0.13690959 0.046986636 0.17426097 -0.029204287 -0.06315193 0.03263666 0.0752541 -0.076752864 0.1310212 -0.28452325 -0.005038115 -0.10746771 0.12597825 0.19737655 0.0069986074 -0.10228314 0.07162044 0.06848523 -0.046537638 -0.014499066 -0.07703837 0.007040935 0.08330849 -0.09466964 -0.35052717 -0.1257547 0.06406364 -0.19038758 0.021498904 0.13247778 0.009977052 0.24605036 -0.022999296 -0.023880899 -0.04119953 0.1060087 0.030730793 0.0137354825 0.04408212 -0.11584905 0.097393356 -0.13372545 -0.22992265 -0.07550294 0.0023920336 -0.09409479 -0.028455628 -0.10454359 -0.057555873 0.14973502 0.16154893 -0.13724178 -0.10747862 0.07968523 -0.043853845 -0.080599755 0.07010242 -0.10092234 0.025151411 0.053028636 -0.120478384 0.09541458 -0.059554495 0.13144217 0.028948678 0.14710137 -0.038463082 0.053602275 -0.0048112134 -0.09624661 0.034520403 -0.041450232 -0.0487353 0.051560305
881 0.10171061 -0.2912195 0.18327576 -0.03447841 0.20784035 0.025245521 -0.3035757 0.2659913 -0.21723846 0.15270749 -0.05584667 -0.20691864 -0.17686261 -0.24273622 0.2679662 0.021671109 0.1570036 0.31738475 0.029311927 -0.0015879251 -0.014589998 0.28262383 0.20992039 -0.20093864 0.035611935 -0.07730311 0.048054323 0.25621924 -0.12838134 -0.010855581 0.028023366 0.02653133 0.064570665 0.28166458 -0.29458255 -0.120455384 0.34076115 -0.015958257 0.43944263 -0.15672076 -0.13610226 -0.123907246 -0.20608354 -0.18198171 0.12995324 0.07147855 -0.06388862 0.071220115 -0.19340773 0.19799156 0.25106207 0.032555986 0.15582383 0.2222821 -0.21739586 0.08953299 0.2255971 -0.07913416 0.08617645 0.17321432 -0.07697476 0.15750866 0.19744763 -0.053052023 0.16099186 0.12578014 -0.038024236 0.06029096 0.20367126 0.010399049 0.039917868 0.007527103 0.0014796611 -0.19549412 0.088341236 -0.06333638 -0.19155358 0.26536322 -0.24671772 0.084997535 -0.20255426 0.017967988 0.03719681 0.15047146 0.09878194 0.15210594 0.15610111 -0.11198408 -0.20389304 0.067875385 -0.054188613 -0.123076536 0.023051085 -0.15000424 0.04009363 0.1243727 0.079939775 -0.3488379 0.08335389 -0.3853085 0.019734219 -0.09310162 -0.1244229 -0.123518966 0.1458324 -0.21645625 -0.22791864 0.02001666 0.0493162 -0.22556679 0.020945445 -0.036364105 0.12234142 0.111304946 0.026367208 -0.19060467 -0.069979146 0.082621194 0.23058255 0.038823754 -0.10429005 -0.08195566 -0.10283062 0.093087815 -0.030262947 0.14838168 -0.24949346 0.24707875
857 -0.039805893 -0.35423538 0.14840817 -0.025274005 -0.02580904 0.022191241 -0.2846241 0.09627816 -0.07146453 -0.076409474 0.119519725 -0.23508015 -0.20369525 0.033794135 0.38875642 0.15199822 0.29249856 0.23448002 0.12907782 -0.024665987 0.097165376 0.35520962 0.06905374 -0.19974953 -0.10185946 -0.19942537 -0.16620363 0.29551175 -0.100471586 0.140847 -0.037868805 -0.111255184 -0.14902091 0.26790246 -0.00559164 -0.02179882 0.45101428 0.106823295 0.40299323 0.037747756 0.06362131 -0.15205054 0.011044826 -0.14798349 0.13137168 0.0337367 -0.060802627 -0.16239958 -0.16879007 0.043554578 0.17750753 -0.20498155 0.09682753 0.26248422 -0.048036944 0.05934282 0.12677523 -0.05278606 -0.1353181 0.21959563 -0.13660696 0.056870606 0.2099928 -0.110157855 0.027430449 0.0843573 -0.16971143 0.009315341 0.2413689 -0.15041757 0.028810788 0.08582042 -0.18026564 -0.24468848 0.13297996 -0.15111735 0.10698585 0.3319127 -0.1970819 0.053412102 -0.21669243 0.08108545 -0.00993714 0.030642083 0.16986674 0.14388809 0.05727212 0.006786328 -0.2461865 0.100117564 -0.07680403 -0.3706611 -0.11817728 -0.1236159 0.21204951 -0.015764508 0.06691282 -0.11764155 -0.019898115 -0.16211887 -0.08125512 -0.083682775 0.0313403 -0.026350405 0.054429695 -0.2577468 0.016562622 -0.013066142 0.033433434 -0.30809528 -0.12740417 -0.05571055 0.08372919 0.16432561 -0.041807655 -0.032769583 0.04773397 0.16167727 0.068717256 -0.08211989 -0.19587368 -0.040145017 -0.258966 0.09926536 -0.004191341 0.16842596 -0.221965 0.28502944
887 0.12369951 0.17937225 -0.076309815 -0.14005597 -0.031542525 0.104878925 -0.09252427 -0.1418637 -0.0035130773 0.024081767 -0.20748039 -0.07088237 -0.096677944 0.008776508 0.18597203 -0.032325577 -0.108915694 -0.022023914 0.049471825 0.36704668 0.23616974 0.0013935661 0.20897166 0.18820111 -0.12649591 -0.03575136 -0.21153937 -0.0132801905 0.27670035 -0.17181425 0.24120678 -0.08644311 -0.08659553 0.21357551 -0.20641218 -0.40468824 0.24668793 0.053658325 0.172047 0.15887481 -0.33927205 0.07551238 0.2398556 -0.103291176 0.08290054 0.036386617 0.19281755 0.038619895 -0.2299351 0.045087636 0.29489025 -0.32386866 -0.08124307 0.27813584 -0.21477981 0.34409192 0.1071127 -0.20867614 -0.10148693 -0.09248021 -0.14449088 -0.2455171 -0.037720114 0.18861473 0.22003344 -0.021363689 0.11189898 -0.10009853 -0.043945193 -0.10988302 0.0091271335 0.09584193 -0.23076075 0.26947272 -0.048045337 0.09503086 -0.14584723 -0.041327544 -0.024345502 0.042316835 -0.040218234 -0.23160127 -0.14951654 -0.14722377 -0.18648732 0.07183725 0.055089466 -0.026174001 0.1189699 0.30300522 -0.24020556 -0.18858758 -0.0873608 -0.5202421 0.42061606 -0.18386644 0.118327804 0.13559806 -0.03171861 0.006393124 -0.10306628 0.1438267 -0.05594336 -0.47777206 -0.3239503 -0.09528827 0.0062602493 0.077833116 -0.19607717 -0.16883588 0.2948228 -0.10697859 0.061274786 0.08339456 -0.03149867 -0.20272242 0.07897929 0.005974947 0.127513 -0.20442694 -0.09986177 -0.24677946 -0.06976724 0.14588065 -0.13610715 -0.106384 -0.3426481 -0.22398372
858 0.025846707 -0.20310266 0.10069241 -0.03692851 0.14814313 0.121776246 -0.16659994 0.24744701 -0.05417913 0.020550476 -0.002647661 -0.08866752 -0.17025557 -0.067953736 0.27666616 0.07106389 0.10327514 0.2466692 0.00908753 -0.045770057 0.044131942 0.2737318 0.12435075 -0.18594466 0.044053417 -0.029977003 0.05782662 0.16449694 -0.094514884 0.12978235 -0.013548207 0.067549974 0.009185216 0.13756095 -0.14474142 -0.05582929 0.23718196 -0.016082624 0.35996073 -0.15658288 -0.17842129 -0.0055612917 -0.15807383 -0.15906885 0.08191127 0.0445991 -0.028265929 0.12967125 -0.18098311 0.120355435 0.14972268 0.06242517 0.015589527 0.28222933 -0.11870323 0.06902222 0.11971799 0.04351669 0.079966776 0.093608715 -0.078582995 0.17769521 0.23105794 -0.17473564 0.124194145 0.06756792 -0.023998303 0.13329104 0.14175019 0.034048177 -0.13715984 -0.032489076 -0.10114872 -0.28864315 0.11068818 -0.077109374 -0.1465297 0.331168 -0.2941961 0.062147267 -0.2462507 0.0881582 0.11897218 0.1429568 0.14549957 0.095396906 0.20406882 -0.12269394 -0.1970901 0.19189571 -0.032181043 -0.31402034 -0.041766584 -0.20888053 -0.019492542 0.07675425 0.10121578 -0.3152634 0.032394785 -0.35150376 -0.12336865 -0.021884311 -0.12901671 -0.06717498 0.1438405 -0.08395385 -0.2153706 0.020646567 0.09152875 -0.25384226 -0.06937875 -0.026427804 0.032827742 0.08654627 -0.021315103 -0.2030364 -0.068207115 0.10758449 0.25321943 0.037837565 -0.0851337 -0.07143977 -0.17663534 0.14496896 -0.05275094 0.14666852 -0.23629923 0.22940661
888 0.12770268 0.13417429 0.07294854 0.27832842 0.07549026 0.014452063 0.072318606 -0.18480219 -0.1084798 0.15058605 0.053810578 -0.2599502 0.08823329 -0.0038484829 0.30301714 0.057197496 -0.048861973 0.04531273 -0.070373334 0.15655832 0.13331679 0.22398168 0.05318523 -0.07423452 -0.073091544 -0.066556916 -0.05395622 -0.03037152 0.08493084 -0.1124485 -0.38428646 0.07505559 -0.09448775 0.061882965 0.1607451 -0.054286294 0.12098486 0.024707675 0.15333527 0.0131705515 -0.15560393 0.016012305 0.014470927 0.120865725 0.032283172 0.05560477 -0.061581686 -0.11267049 -0.06303056 0.17617898 0.11719802 0.26973146 0.16075781 -0.10884157 0.046549313 0.1001182 0.036112677 0.25597024 -0.1575408 -0.21833816 -0.07625165 -0.021407025 0.05024185 0.113306865 0.10499583 -0.05846206 0.24111377 0.17268331 -0.04140107 -0.10529853 0.004897829 0.059846696 -0.29867166 0.06297423 0.035836972 0.059714083 -0.3263497 -0.11333824 -0.09326494 0.10285426 0.31401485 0.08152341 0.103634655 0.2760144 0.0241576 0.05376396 0.32112253 -0.24789274 -0.11108584 0.17333654 -0.07047467 -0.17915568 -0.061553188 -0.13786587 0.100520216 0.007255981 -0.22112817 -0.034093317 0.015850369 -0.13463917 0.061814018 0.007314556 -0.1075162 -0.05651972 0.111124486 0.23571414 0.102323376 0.07229707 0.108983874 -0.13971932 0.16410455 -0.037310164 0.020034727 -0.2854988 -0.013325448 -0.027655846 0.08172645 0.0605333 -0.13837408 0.12066704 0.18902542 0.19722238 0.08079277 0.10829202 0.14576739 0.014662729 -0.06468074 0.023988016
879 -0.034274623 -0.22290792 0.053735983 -0.044748317 0.18337233 0.038816668 -0.18659367 0.21165304 -0.09108806 0.09917932 0.02324809 -0.17612924 -0.19798706 0.02633671 0.42355126 0.05176412 0.16504693 0.21050373 -0.05043022 0.112151206 0.07436453 0.28088078 0.12352871 -0.12586269 0.006328083 -0.09786745 0.021132056 0.2019991 0.10020697 0.104363546 -0.03752805 0.08281981 -0.033341683 0.18266626 -0.16167192 0.07580628 0.2089751 0.04341871 0.2858798 -0.078739524 -0.17458485 -0.075168245 -0.03786439 -0.11284385 0.066067114 0.035737336 -0.102516614 0.077531874 -0.15448502 0.1107654 0.16333364 0.044989407 0.079742804 0.36132693 -0.14189352 0.11328465 0.10956181 -0.045694865 0.12743561 0.16882373 -0.09554431 0.17321904 0.20063306 -0.24220257 0.2093381 0.14662302 -0.04824317 0.056391567 0.04403941 -0.021271585 -0.047813334 0.055170376 -0.095640875 -0.16069584 0.17794938 -0.08458639 -0.15577434 0.28321955 -0.26128417 0.15029791 -0.2726129 0.044149023 -0.031013584 0.086044714 0.10857069 0.112219095 0.14156304 -0.13657226 -0.21447836 0.1523196 -0.051102106 -0.27797055 0.004231989 -0.23074149 0.09873361 0.08150489 -0.015530817 -0.22737277 0.0014490682 -0.3355134 -0.15495226 -0.109305315 -0.13205872 -0.07367206 0.13922113 -0.07672016 -0.17700443 -0.03196958 0.02508399 -0.1286514 -0.066048615 -0.034731172 0.091181114 0.16875044 0.018130168 -0.15640563 -0.0096167205 0.10092159 0.18384692 0.07181015 -0.009271729 0.019601338 -0.2099773 0.1122799 -0.04995487 0.025604537 -0.2056622 0.22835304
893 0.115205124 -0.27116546 0.1259206 0.19385007 0.112642385 -0.16972756 -0.052401792 -0.02369986 0.07038284 0.05326808 -0.096759565 -0.12055021 0.030112952 -0.24677572 -0.049628258 0.13664341 -0.07521338 0.1978873 -0.18509825 0.23414405 0.22335462 -0.047275417 -0.011868933 0.05559846 -0.17122239 -0.006492634 -0.18336545 0.12884212 0.08250912 0.010007775 -0.21784654 0.22054385 -0.0065171 -0.0010676741 -0.24318655 0.038831796 0.10934854 -0.026294889 0.10366406 -0.06835049 0.017369838 -0.0130190095 0.018962497 -0.086818546 -0.16653222 0.2489801 0.20567507 -0.104180135 0.020454757 -0.05651524 -0.0916072 -0.18168607 0.23433384 0.05725378 0.14267363 0.05353762 0.17733093 -0.1240244 -0.00067373755 0.12670033 0.32123017 -0.15155086 0.014571306 -0.08125855 -0.14045058 -0.016049335 -0.037244648 -0.040648922 -0.09971027 -0.047519565 -0.02712951 -0.046900604 -0.26726973 -0.053176418 0.07141368 -0.2519785 0.028776249 0.050291095 0.018633725 0.1753284 -0.07445911 -0.09404559 0.10455271 0.05965253 0.14230698 0.13252531 0.17210425 0.08801997 0.28729543 0.25021562 -0.078153 -0.16057223 0.093221396 0.08644564 0.055103973 -0.1252796 -0.10737469 -0.15717676 -0.17415683 0.10907535 -0.19975515 0.15829092 -0.03396714 -0.10835652 0.0054128645 0.06539585 -0.1264644 0.08557023 0.16780798 -0.14713447 -0.048198078 -0.09995938 0.22120716 -0.08641019 -0.11133027 -0.24850596 0.025759082 0.2913814 -0.09948581 -0.14116924 -0.04995673 -0.15257443 0.018950202 0.23915547 -0.13076761 0.052453488 -0.18042251 0.10007174
863 0.03567923 -0.0077977832 -0.04768593 0.12659076 -0.07488589 -0.12854491 -0.020051338 -0.08761479 -0.09066091 0.09174416 -0.017607316 -0.14132938 -0.020574944 -0.0081161475 0.107529745 0.09225081 -0.07419271 0.031130133 -0.02598285 0.05773399 0.06037451 0.23283984 -0.034545936 0.07899312 0.062127776 -0.18140702 -0.20352569 -0.10547556 0.0741082 0.002703469 -0.3830465 0.036094375 -0.10213091 -0.20994867 0.27700996 0.010428332 0.06612426 -0.027280383 0.1707069 0.051716305 -0.017053537 0.08940721 0.2261107 -0.0025604684 -0.118165344 0.1684241 -0.06445304 -0.12801524 0.009173213 0.050872654 0.20209403 0.13776815 0.25098577 -0.21003492 0.15137815 0.10561213 0.08663069 0.22650465 -0.13101725 -0.18433408 0.038885303 -0.12649664 0.08721236 0.06089926 0.07986819 -0.07620406 0.15852888 0.15806918 0.0148932645 -0.17139257 0.080297984 -0.08468066 -0.22078602 0.044869293 -0.1408063 -0.12834479 -0.290913 -0.055191148 -0.20410228 0.24381055 0.33417624 -0.022427931 0.037402567 0.32256773 0.087982446 0.085520834 0.30930856 -0.03211814 0.08814504 0.143548 0.0114223445 -0.171272 0.029656485 -0.0445234 0.20580068 -0.03627972 -0.2513364 -0.009912303 -0.04332418 -0.22684658 0.057456482 0.10654068 -0.17239393 0.14040636 0.11572437 0.06675161 0.17880456 0.096250914 -0.09569766 -0.26884836 0.2612811 0.0030352732 0.010957229 -0.110652536 -0.04986179 -0.12343347 0.21094857 0.14768504 0.05865496 0.07093548 -0.041655857 0.14632244 -0.13524032 0.0370868 0.1683685 -0.051984955 -0.06482328 -0.05362879
864 0.11154686 -0.20967405 0.07987699 0.27367672 0.068542995 -0.24044111 -0.010161211 -0.098792695 0.13875246 -0.037796702 -0.009481047 -0.13265389 0.078670315 -0.14055555 -0.024896415 0.1322538 -0.14555395 0.18549272 -0.2666846 0.28686285 0.114317074 -0.037967067 -0.032729503 0.12211692 -0.13595982 0.06907151 -0.17368923 -0.025379835 -0.049137216 0.077024825 -0.21033008 0.3053016 0.11426105 -0.012728656 -0.1860251 -0.0026589795 0.07945781 0.012420762 0.08888328 -0.048852295 -0.10298636 -0.08622879 0.09805046 -0.13081734 -0.19208544 0.17849442 0.22181167 0.00030302643 0.045104884 0.0040322808 -0.15453698 -0.17240454 0.17701764 0.074304774 0.117077515 0.057438895 0.107540354 -0.12364323 -0.04296151 0.14537935 0.2893563 -0.0840964 -0.0711225 -0.08542094 -0.15590478 0.043411613 0.022122474 -0.0066667823 -0.09636799 0.013528989 -0.024116665 -0.016885757 -0.18129893 -0.17499456 0.09333457 -0.2854073 -0.042925965 0.10567952 -0.04859217 0.080559745 -0.057272494 -0.09402956 0.17808388 0.213952 0.069327176 0.16054721 0.22060087 0.05946411 0.21001796 0.24315584 -0.04765705 -0.13378616 0.03647335 0.15446828 0.044100948 -0.088873856 -0.11558641 -0.19661815 -0.095144704 -0.013714221 -0.28927362 0.070259616 0.031648308 -0.09497905 -0.13359767 0.044068255 -0.07087316 0.13812505 0.13045508 -0.2811535 0.051145025 -0.17065775 0.20185456 -0.033133436 -0.12894261 -0.35107803 -0.12274748 0.19223717 -0.12502496 -0.07947708 -0.011306758 -0.2841531 0.1087781 0.30025238 -0.11451968 0.07989699 -0.2603077 0.16500148
873 0.16801362 0.019278402 -0.03618025 -0.02347684 0.003311859 0.11785605 -0.21442357 -0.014273899 0.056454908 -0.0948983 -0.11526424 -0.10213617 -0.13381508 0.16522738 0.24788354 0.07186651 -0.073868655 0.0019642115 0.024360267 0.22110994 0.15472178 0.05645168 0.2829332 -0.02181195 -0.14528514 -0.009222223 -0.1626702 0.030284436 0.21122468 -0.14358243 0.23980576 -0.049553346 0.0033728934 0.15395792 -0.14345056 -0.21936019 0.22077966 0.14592898 0.20118535 0.12745902 -0.17865346 0.17495672 0.23884442 -0.1834298 0.03836299 0.1139463 0.103716694 -0.04443912 -0.23559038 0.012375817 0.3333836 -0.29101232 0.027021399 0.27224076 -0.057829425 0.2573351 0.14601067 -0.14108482 -0.20938419 -0.15819412 -0.06792465 -0.24834125 -0.012562285 0.11361719 0.14572312 0.010925498 0.14040335 -0.030832533 -0.08457508 -0.092227004 -0.046668466 0.052100718 -0.06765654 0.26053938 -0.03447358 0.1017526 -0.111815624 -0.011715668 -0.062153473 0.08972537 0.054166354 -0.09066878 -0.16219799 -0.15718912 -0.05612486 -0.029008811 0.008434231 -0.010984864 0.08960483 0.186434 -0.1362369 -0.104479134 -0.12569284 -0.36992642 0.27296746 -0.17809105 -0.019898923 0.07724577 -0.06808502 0.0019649907 -0.108743206 0.11357109 -0.033415332 -0.36217713 -0.22406259 -0.13776547 0.01097202 0.21068703 -0.14696935 -0.16325448 0.29002482 -0.14886329 0.055965733 0.0073691634 0.118834324 -0.119649224 -0.0072871693 0.07706061 0.07320081 -0.13870962 0.012026726 -0.1329841 -0.0018195385 0.11362381 -0.027656546 -0.07882084 -0.23684973 -0.1916705
877 0.10714963 -0.084388815 -0.102014266 -0.0050629377 0.04427532 0.10617261 -0.14345838 0.009904853 0.083114624 -0.058405485 -0.09806005 -0.015477 -0.18821894 0.17504726 0.1402759 0.056472946 0.003295894 -0.05565543 0.041228984 0.13961755 0.029354637 0.011917548 0.16411094 0.08031538 -0.006482896 -0.01771617 -0.16912402 0.018155202 0.2811611 -0.09716176 0.25131172 0.095752664 0.035043716 0.16160445 -0.19052845 -0.19648449 0.30847615 0.088995986 0.26481774 0.11190361 -0.11611436 0.22810917 0.27084857 -0.22703789 -0.0032542236 0.030477276 0.041327275 0.039871793 -0.21781337 0.012282583 0.2726837 -0.37638658 0.02958805 0.29786623 -0.032424904 0.27700916 0.09252631 -0.09972915 -0.20413668 -0.14967282 0.058911517 -0.24567248 0.03039174 0.12033664 0.18247704 0.058864206 0.047304176 -0.03718828 -0.14250956 -0.19946888 0.017675266 -0.043329086 -0.09131775 0.17981012 -0.048394386 -0.0041079405 -0.14096081 -0.037489496 -0.033993267 0.08699822 0.020307738 -0.09369024 -0.1842382 -0.16421883 -0.05433055 0.009978272 0.0432877 0.041106556 0.13056731 0.31755614 -0.09511095 -0.09352102 -0.08102113 -0.35945898 0.2805209 -0.18685918 -0.01512624 0.07282468 -0.040234692 0.016584564 -0.0022855 0.15977533 -0.17514347 -0.32683557 -0.18537161 -0.08984869 -0.0757727 0.2055817 -0.0838449 -0.070444904 0.25541463 -0.15779054 0.08874599 0.0007173654 0.095594496 -0.2111344 -0.01718313 0.08880461 0.06771357 -0.20529906 0.009958902 -0.24133164 -0.06589061 0.12521559 -0.11817821 -0.009122562 -0.29673108 -0.14309327
869 -0.040097028 -0.061196193 0.31125185 -0.021474523 0.12486746 -0.32536426 0.0038441184 0.121787 -0.15861306 -0.0652701 0.15060936 0.016795332 -0.28713888 0.033923034 0.2796005 -0.04893799 0.0077705677 -0.16201018 0.04758565 0.003318148 0.24917611 0.02329429 0.018595373 0.05172439 -0.027480666 0.11063449 -0.15480386 0.06864845 0.1163047 -0.19547306 -0.16391623 -0.025228092 0.09899244 -0.048923384 0.033588268 -0.18776686 0.13210358 0.019466124 0.12821443 0.22707136 -0.1433954 0.11308211 0.14832364 0.15379019 -0.17883027 -0.08482194 0.16991657 -0.018805508 0.08676943 -0.05599964 -0.06465625 0.25989962 0.06822157 -0.03827327 0.23613746 -0.017393667 0.033902112 -0.11363709 0.030659033 0.15544814 0.21762376 -0.2101714 0.045804523 0.19748202 -0.10182675 0.00014247543 0.29936722 0.057312462 0.059066754 0.16951779 0.041706063 0.06482505 0.1362247 -0.24071059 -0.06905264 -0.15928032 -0.18374322 -0.026322316 -0.04744341 -0.01664511 0.08338093 -0.124621324 0.07030381 0.28978798 -0.19435142 -0.13591698 0.15216798 -0.063691586 0.02806058 0.07131663 -0.10071002 0.08254941 -0.09939699 -0.006459291 0.056171693 -0.19370796 -0.24864218 -0.24299885 -0.19502339 0.05996309 -0.16595009 0.23497763 -0.06918839 -0.05856104 -0.007863581 0.05960684 0.15327993 -0.09754602 0.024458284 -0.098272905 0.259139 -0.16166066 -0.094065584 -0.1791626 -0.07840648 -0.006993839 0.084158614 0.11906548 0.24893849 -0.009013694 -0.2854504 -0.059683632 0.19642586 0.06864461 -0.084659405 -0.12019197 -0.1983209 0.08437242
825 0.26163164 -0.10506191 0.08227388 0.40064785 0.06458382 -0.2850619 0.01845798 -0.15608928 0.056413792 0.10092922 -0.15477568 -0.20454416 0.07120765 -0.13027932 -0.12156666 0.21181786 -0.24002476 0.14715075 -0.23818691 0.3286133 0.17918614 0.055935964 0.0023732716 0.091385305 -0.075349815 0.0209617 -0.13938439 -0.11659766 -0.03816442 -0.026233258 -0.31098962 0.18856886 0.098237015 -0.014885485 -0.18109055 0.0034564089 0.0088848295 -0.07045926 0.030261397 -0.06478528 -0.16522518 0.015068065 0.0017642899 -0.12648207 -0.1608624 0.29391536 0.11813827 -0.017668638 -0.10518141 0.0050903456 -0.060787216 -0.08336644 0.24258065 -0.04704408 0.09941204 0.12352326 0.25721985 -0.08630989 -0.03260828 0.013038559 0.21049027 -0.08847692 0.04619386 -0.101543486 -0.15640154 -0.008284462 0.19057827 0.048294548 -0.066548966 0.054468513 -0.08902798 0.07288548 -0.3379453 -0.11179183 0.014296965 -0.15329102 -0.11256672 0.04060454 -0.113956146 0.10450259 -0.09457265 -0.024346542 0.17475805 0.1000431 0.07017504 0.091630004 0.1854911 0.060601767 0.2362752 0.2514641 -0.022445483 -0.22547062 0.0720858 0.11935384 -0.0054605277 -0.08059753 -0.08740664 -0.10679946 -0.069492914 0.11891297 -0.20350634 0.07547582 0.049726658 -0.09080873 -0.010498283 0.046681438 0.022494104 0.11981872 0.041386772 -0.15968178 -0.085654095 -0.11540136 0.15574193 -0.117873505 -0.11901276 -0.24347128 -0.026523642 0.2332062 -0.1039864 -0.07030902 0.0017831577 -0.249453 0.039666135 0.26738226 -0.019994544 0.09525349 -0.19754583 0.10979834
866 0.20667364 -0.18564002 0.06977963 -0.05747638 0.24976167 0.075983524 -0.3217593 0.32324165 -0.11332683 0.020799998 -0.0480828 -0.009903841 -0.30216783 -0.26246005 0.117791444 -0.011634755 -0.12437832 0.38195267 0.0950268 -0.21000749 0.038557738 0.26008788 0.102977365 -0.07165511 0.16654773 -0.09346212 0.0073629227 0.047101017 -0.06452441 0.04094987 0.085861705 0.14748624 0.15536045 -0.025108956 -0.18744174 -0.07018435 0.30585217 -0.047815356 0.25777116 -0.37826824 0.05255416 0.013777734 -0.12416405 -0.3090545 0.00309699 0.11002105 -0.051716693 0.20863916 -0.11187899 0.08610253 0.11188846 0.04721596 -0.058078695 0.21229102 -0.083881855 0.15824436 0.12020192 -0.021441678 0.10781359 0.005700971 -0.022983626 0.13649364 0.15921316 -0.10340582 0.10780229 0.1551402 0.053103253 0.18888636 0.009580521 -0.038339503 -0.08059566 -0.3279912 -0.26206657 -0.10630978 -0.157363 0.028449733 -0.25615233 0.1471381 -0.07400663 0.15585138 -0.12043326 0.16352782 0.16382973 0.111860275 -0.00096921454 0.14731261 0.35192087 0.08365074 -0.030838445 0.32994246 -0.028098565 -0.30028862 0.11879095 -0.17721105 -0.007609966 0.048106182 0.19972537 -0.23173583 0.046545573 -0.4462171 -0.09953489 0.24854054 -0.32589835 -0.009498444 0.30663458 0.019603472 -0.08259151 -0.08704457 0.014793156 -0.34702384 0.023072857 0.17297544 -0.07398584 0.18030404 -0.09307311 -0.45600054 -0.20899865 0.007337351 0.33172157 0.046864722 -0.08636955 -0.21109739 -0.21201575 0.15848947 -0.052262224 0.19054718 -0.24523461 0.23765326
862 0.004331737 -0.3105519 0.09928488 -0.07889148 -0.09309442 0.070143625 -0.14449888 0.0125916265 0.0067457655 -0.30005276 -0.07767112 -0.14106645 0.03615586 0.19548678 0.32345304 0.013304188 0.30929756 0.023881456 0.13769841 0.01774023 0.06776836 0.18378775 0.09374799 -0.110139504 0.008147289 -0.11019904 0.09991635 0.22983393 0.12407924 -0.008017632 -0.037146587 -0.14328565 -0.10122722 0.36939514 -0.08415082 -0.12867579 0.3457444 0.1468265 0.26185018 0.1576287 0.043599095 -0.10723819 0.059183322 0.0047999783 0.11378665 -0.06415311 -0.13915269 -0.18057139 -0.034949634 0.059446972 0.09167458 -0.24175118 0.16085987 0.21089919 -0.15999381 0.041153036 0.14169386 -0.04606205 -0.16576274 0.08747506 -0.13708815 -0.058831785 0.18073897 -0.088401504 0.057240408 0.12956187 -0.21328114 -0.028615162 0.3185334 -0.19053203 0.09847316 0.04673248 -0.25177357 -0.2528013 0.15525451 -0.14708982 0.073458105 0.22022815 -0.31414646 0.12482428 -0.15966296 -0.043909628 -0.02214483 0.084079094 0.1496243 0.05476609 0.071027815 -0.1524924 -0.121389806 0.10323198 -0.09276124 -0.4256032 -0.109691754 -0.03546428 0.2663993 -0.0811374 -0.05747909 -0.057411324 -0.038324818 -0.18543987 -0.033090178 -0.18581723 -0.08922499 0.084449135 -0.08102996 -0.23824947 0.050597183 -0.11459184 0.025845218 -0.14060883 -0.19491774 -0.08196087 0.17132704 0.09023427 -0.22539952 0.0015643731 0.20272699 0.3206628 0.12651551 -0.242282 -0.29015464 0.02509646 -0.16201857 0.15569614 0.018054767 0.18191065 -0.123039834 0.34241238
865 -0.0039449357 -0.3760732 0.20631622 -0.04650626 -0.16738144 -0.10113601 -0.1751383 -0.039311163 0.004799112 -0.3307662 0.06973365 -0.19455619 -0.07460641 0.063859135 0.2283117 0.118431285 0.28381264 -0.02803465 0.21418059 -0.04055546 0.10111166 0.37216613 0.04068994 -0.14345987 -0.002734972 -0.046907287 0.019500544 0.26116234 -0.007295773 -0.022571573 0.026298292 -0.1672982 -0.029717501 0.27466354 0.072692044 -0.03566123 0.3363125 0.19162917 0.24749039 0.13627423 -0.0067464276 0.021384552 0.004570082 -0.1942346 0.24225937 0.043787066 -0.10353879 -0.26142433 -0.14209071 0.14752284 -0.03360469 -0.21594375 0.17008892 0.06631968 -0.006569582 -0.040962506 0.09970498 -0.081467964 -0.2724246 0.120124854 -0.13983335 -0.09769462 0.17890787 -0.1788313 0.13485552 0.1542799 -0.27925718 -0.07596796 0.43171266 -0.13972853 0.1946671 0.040029004 -0.39570114 -0.2990551 -0.0081758695 -0.08040527 0.029095232 0.36201435 -0.41326904 0.27508315 -0.19401246 0.0352938 0.020563921 0.08677466 0.22539191 0.0036699683 0.018709213 -0.017934792 -0.18185319 0.14859957 -0.021746775 -0.5305837 -0.116704606 -0.0699423 0.4355754 -0.0053028804 -0.063481234 -0.12744609 0.04500753 -0.194504 -0.11762203 -0.13048936 -0.024336193 0.045549337 -0.011999398 -0.3989443 0.10633163 -0.06036942 0.09794001 -0.3079278 -0.2588157 0.022757564 0.208994 0.1862944 -0.25189477 -0.048310358 0.08511087 0.21869986 -0.08241924 -0.12244569 -0.31507638 -0.12971146 -0.30941477 0.1000777 0.09761404 0.2994535 -0.047800466 0.35128877
895 0.104870975 -0.22385111 0.17326988 -0.091830015 0.21709833 0.019265175 -0.26681614 0.25879276 -0.21617244 0.15579489 -0.028066268 -0.08906615 -0.12520008 -0.24109651 0.084383026 0.055788036 0.027200205 0.40025777 0.047243748 -0.17245689 -0.03426056 0.28279346 0.19956437 -0.24264012 0.2356156 -0.030869918 0.103210464 0.1736596 -0.08645377 0.07692175 0.04883279 0.1078763 0.15439998 0.14150943 -0.26021895 -0.06592713 0.31293783 0.030394098 0.3363108 -0.31495005 -0.019543083 -0.13782567 -0.17833708 -0.29436472 0.15922341 0.177437 -0.19990921 0.090336315 -0.25532457 0.21374856 0.22471629 0.030568419 0.119715676 0.2074004 -0.17852058 0.12960568 0.36609092 -0.10813064 0.058055382 0.08647322 -0.19319072 0.116680436 0.17550564 -0.104510255 0.18080379 0.18312234 0.0005250357 0.1258355 0.11419595 -0.013521915 0.016888646 -0.032802597 -0.10104086 -0.09114539 -0.15093479 -0.09601436 -0.25216532 0.29420686 -0.22169222 0.17476732 -0.20775558 0.054019008 0.0350624 0.26843855 0.110170856 0.13254303 0.25689793 -0.08579469 -0.04105572 0.11090184 -0.00516869 -0.22176538 0.03937294 -0.10901959 0.032371067 0.04392328 0.06940976 -0.298164 0.02252489 -0.3995808 -0.004636563 0.10511189 -0.28995627 0.020218931 0.1729953 -0.21258333 -0.22589654 -0.06645723 -0.1168875 -0.16060822 0.08566594 -0.054519854 -0.00014752979 0.16318528 -0.03630586 -0.29148558 -0.13678437 0.14863148 0.26619524 -0.017213395 -0.062048778 -0.16198067 -0.054557517 0.028518725 -0.07451802 0.18141812 -0.37045267 0.33542594
868 0.07445413 -0.27773818 0.123692945 -0.039870102 -0.13289769 0.12018722 -0.1140827 0.049567204 0.090324365 -0.29666433 -0.010602967 -0.2780009 -0.004439215 0.18701398 0.16407238 0.054748718 0.15144308 0.13239016 0.1276931 -0.08727807 0.06446196 0.12882689 -0.024662074 -0.16524535 -0.10579136 -0.077107176 0.010555937 0.22039051 0.0377673 -0.04289179 -0.1141778 -0.11609864 -0.07067451 0.35807985 -0.0066736136 -0.12918548 0.32246673 0.1465074 0.25637206 0.087820545 0.15420371 -0.048114583 0.019772787 -0.072046526 0.11452796 -0.061097234 -0.06944855 -0.20104367 -0.024269281 0.037208106 0.016210264 -0.37036625 0.27201378 0.08825584 -0.07049606 0.06350137 0.19625454 0.06468373 -0.19614422 0.049401168 -0.054033436 0.05641298 0.10088597 0.025759904 -0.16366391 0.017625013 -0.11672019 0.0403584 0.23046264 -0.21625493 0.06119586 0.0489934 -0.20699786 -0.21236292 0.12750317 -0.12303355 0.09083418 0.17311141 -0.3149742 0.019828591 -0.11482395 -0.1349727 0.09031544 0.12244173 0.20310669 0.073656395 0.13968371 -0.08866242 0.05534471 0.20485449 -0.07625091 -0.45724806 -0.26912078 0.08051455 0.11222752 -0.22413747 -0.027560122 -0.036221437 -0.16335264 -0.059078604 -0.021382438 -0.19144583 -0.08257379 0.17887878 -0.0061511975 -0.175138 0.070300475 -0.010009509 0.021381268 -0.11831342 -0.22733466 -0.11271101 0.12940083 -0.099047944 -0.2340941 -0.04508456 0.0658759 0.35976425 0.119086154 -0.25763494 -0.31612474 0.06795237 -0.11086309 0.18685758 0.08001154 0.27243415 -0.016453085 0.3131951
859 0.16409299 0.19324858 -0.062352933 0.040485915 -0.06643913 0.06456297 -0.09237448 -0.036547482 0.08216502 -0.2230643 -0.18257454 -0.1583294 -0.10288232 0.17159958 0.33798033 -0.03912816 -0.0040492434 -0.26948705 -0.065428734 0.32342583 0.114481546 0.008740027 0.20798376 0.23685116 -0.20892575 -0.10891174 -0.10662909 -0.030505056 0.2932493 -0.24127352 0.2646247 0.020637793 -0.07051819 0.19589214 -0.16034105 -0.21177936 0.2894743 0.06389719 0.096121624 0.10006988 -0.28631228 0.24698119 0.21775974 -0.06588145 0.19040373 0.018747613 0.19594684 0.033011373 -0.21513964 0.16933039 0.37338778 -0.2833481 -0.0012596108 0.31247684 -0.315427 0.4027143 0.054994237 0.02971431 -0.22404894 -0.0988359 -0.16518228 -0.13839625 0.045482133 0.07734917 0.2633912 0.008390311 -0.07544271 -0.20955023 0.0042581055 -0.1836744 0.13877806 0.034487534 -0.2858663 0.23093902 0.11247354 0.19790182 -0.13852993 -0.2005993 -0.011218928 0.14163958 0.07412027 -0.20406075 -0.06711127 -0.2377526 -0.1722697 0.13265556 -0.029371573 0.076068096 -0.098623164 0.31807595 -0.13469602 -0.30960903 -0.04362198 -0.61953217 0.38150612 -0.0036738683 -0.022857953 0.14525728 -0.01047156 -0.00093588466 -0.11056797 0.18307252 -0.03239153 -0.42633805 -0.16427542 -0.20567192 0.021422165 0.18072824 -0.0016839304 -0.3031563 0.34501266 -0.16840032 0.14341056 -0.002246021 0.0382243 -0.24960111 0.09787104 0.046277713 -0.05370093 -0.09822751 -0.047392935 -0.2907115 -0.20460601 0.10237713 0.052283604 0.035373304 -0.2894719 -0.16262513
894 0.2370262 -0.3491209 0.11436812 -0.08189157 0.21361457 -0.077161714 -0.40085766 0.40506715 -0.13834086 0.05341408 -0.002803047 -0.17854519 -0.3267917 -0.0586066 0.12901744 0.034536753 -0.084408306 0.45888737 -0.004595713 -0.13308331 -0.0014345656 0.22322999 0.14308831 -0.07139108 0.15734227 -0.07427613 -0.051169638 0.10160912 -0.10087638 0.12449449 0.14314926 0.1892006 0.22676684 0.10676014 -0.22541496 0.07193312 0.3564022 0.06463192 0.36758742 -0.33003476 0.074357726 -0.11228214 -0.03912956 -0.27322322 0.1304785 0.095939636 -0.14329927 0.2956816 -0.12773639 0.09248919 0.1671292 -0.09823245 0.05489579 0.20912251 -0.16422391 0.14620656 0.2854309 -0.16708416 0.2307486 0.07100411 -0.07184592 0.18236582 0.02667426 -0.0004132411 0.19919434 0.15790665 -0.08034296 0.13386539 0.018010717 -0.17025474 0.020245284 -0.21621905 0.034709163 -0.08203751 -0.10635684 -0.041592192 -0.11243908 0.24032679 -0.10884441 0.120050825 -0.30897197 0.0011266884 0.052413076 0.2651218 -0.029158074 0.1730662 0.25407025 -0.024945306 0.07261927 0.12181446 0.060305145 -0.1856303 -0.12388496 -0.15148626 0.14140025 0.01563964 0.011489529 -0.22904998 0.008317748 -0.4145105 -0.03960772 0.12722583 -0.37598294 -0.02180826 0.10649528 -0.18865897 -0.26669428 0.10896087 -0.2584438 -0.17569336 0.16639099 -0.100175336 -0.010468996 0.23638855 0.066248104 -0.4092668 -0.27402753 0.08296562 0.34744704 -0.02360807 0.012394724 -0.15260014 -0.1693141 -0.03122697 -0.08431937 0.19221197 -0.40612942 0.3986688
798 0.2923109 -0.112951666 0.48623943 0.08712394 0.44621056 -0.5477998 0.103731945 0.020234311 -0.07552363 -0.0115164 -0.045147687 0.21260263 -0.3658808 -0.21904851 0.352966 0.025856761 0.029669436 -0.0021810876 0.11889537 0.07708665 0.4695577 0.07181157 0.059670106 -0.21550281 0.18306227 0.18403961 -0.20357454 0.15692917 0.37020165 -0.13233025 0.058947224 0.10822814 0.043739215 -0.046295155 -0.021422394 -0.29879653 -0.039619837 -0.023573175 0.3121023 0.1505702 -0.17502499 0.1381187 0.1849616 0.06498075 -0.15686949 -0.17059383 0.10475672 0.08043423 -0.0955705 -0.0014188894 0.118354745 -0.0011716877 0.074544884 0.10936476 0.33675846 0.049546387 0.10843727 -0.0241993 -0.061684094 0.059601676 0.0026233713 -0.09406348 0.079821646 0.3043208 0.009064454 0.01614212 0.38632756 0.14123477 0.0023115906 0.4223136 -0.2562961 0.10871021 0.078367874 -0.0842419 -0.22226909 -0.14668065 -0.3151782 -0.022086207 -0.0844119 0.018075258 -0.01568168 -0.10282917 0.04757358 0.32442862 0.019160142 -0.26524618 0.2723069 -0.13470253 0.102062665 0.15355442 -0.12676634 -0.072305754 -0.08635076 -0.04404827 -0.13672669 -0.16332185 0.074171424 0.06100686 -0.08049487 0.0071854624 0.17604743 0.07221411 -0.09470647 0.07954937 -0.13223599 0.17754595 0.033136413 -0.2976509 -0.13955939 0.056987766 0.2519781 0.027541215 -0.18666391 -0.0841976 -0.07596871 -0.020490231 0.16039146 -0.12654178 0.32399467 -0.0377106 -0.25826946 0.04837099 0.39721823 -0.03312737 -0.009849483 -0.14623028 0.042422082 -0.23740268
860 0.065346725 -0.119034745 0.099311486 -0.11744541 0.07911454 -0.07731088 0.009437142 0.06686756 -0.046159577 0.037371982 0.07178028 -0.071733266 -0.14876302 -0.052344218 0.101861306 -0.017649291 -0.0071014315 0.07511989 -0.055174105 0.07887266 0.10720527 0.11709194 0.08750969 0.01228475 -0.03595342 0.002703401 -0.09098015 0.017663134 0.13008748 0.057636432 -0.004086982 0.11448069 0.014813726 0.11137945 -0.096104346 -0.042898756 0.1153221 0.053947218 0.20384012 0.024321472 -0.13002186 0.11668699 -0.04234457 -0.044085152 -0.017407823 0.038517404 0.066371635 -0.0036202103 -0.17480592 0.033988442 0.1379135 -0.118419185 0.047965165 0.14532371 0.033215605 0.06417281 0.06659657 -0.10010243 0.00096127944 0.07645537 0.018076617 0.032596 0.067573786 -0.07480867 0.06664054 -0.063528396 0.05725065 0.08208494 -0.11096687 -0.044086635 -0.09874601 -0.05176781 -0.12673026 -0.052540563 -0.09567988 -0.02570766 -0.14797208 0.06871977 -0.2009384 0.09595396 -0.037713986 -0.011569826 0.061534848 0.094556 0.090172224 0.06364716 0.14529523 -0.15344073 0.07118273 0.24017052 -0.08094814 -0.067903146 -0.08566934 -0.16742691 0.11504392 -0.045622837 -0.059515797 -0.22059526 0.016706966 -0.15209398 -0.09893344 0.030493068 -0.12258341 -0.12994717 0.050211914 0.019944347 -0.14557518 0.081620015 0.06359662 -0.116949394 0.049832415 -0.01892979 0.062558345 0.02875585 0.042357776 -0.1311335 -0.05062916 0.025131712 0.048541874 0.098639905 0.008795761 -0.03450306 -0.061226543 0.1008839 -0.035972256 0.008996485 -0.03458323 0.0025461286
883 0.15723936 0.03923757 0.10743299 -0.23377098 0.012220957 -0.13329184 -0.057336 0.13703197 0.06321869 -0.12772562 0.029711355 -0.110388316 -0.113133654 -0.071667716 0.0021516648 -0.07204475 -0.10142154 0.056895975 -0.028622244 0.07133241 0.33373323 -0.050910424 0.083825 0.041347597 -0.08157336 0.09425364 -0.20202447 0.041183755 0.2865213 -0.02543764 -0.0745488 0.20830612 0.03955697 0.08004124 0.028483082 -0.07195073 0.044347182 0.12626612 0.011353605 0.0041768835 -0.07919268 0.10064995 0.059673764 -1.1905644e-05 0.08165087 -0.031920847 0.060048483 -0.034299113 -0.06722121 0.06796479 -0.040507812 -0.1910389 0.11828024 0.090611435 0.019520545 0.07810439 0.104614586 -0.019358754 0.023126535 0.014275123 -0.017073968 0.08216884 -0.054784533 0.053859644 0.06991583 -0.08920855 0.035017118 -0.007049954 -0.0101528 -0.11182373 0.047991455 0.010209241 -0.08645092 0.03375927 -0.110870644 0.07234241 -0.093106575 0.028793216 -0.21949878 0.09321196 -0.07937099 -0.2768914 0.08662607 0.11301087 0.057482548 0.033753164 0.085301585 -0.022523824 0.1953077 0.21756838 -0.11297124 -0.20471118 -0.24446413 -0.1586842 0.21301796 -0.14177293 0.030721657 0.013325514 -0.026651459 -0.10771114 -0.04379106 0.04259083 -0.17430241 -0.02745228 -0.113576606 -0.09057788 -0.051301282 0.07671483 -0.11623304 -0.040800527 0.02238124 -0.043122135 0.01923198 0.022430982 -0.14842543 -0.20586409 -0.07806169 0.06542719 0.0859504 -0.01103936 -0.092334025 -0.056442425 -0.07469997 -0.05363086 0.020898394 0.075220294 -0.03229403 0.080871664
