154 128
414 0.18754184 0.01674454 0.0658199 0.21405691 -0.010678966 -0.089537464 -0.15523429 -0.13736342 0.018782156 0.017282026 0.08172902 0.15549266 -0.11270883 0.08204869 0.14372133 0.17906415 0.076502346 -0.019658895 -0.17825393 -0.13349272 0.1259575 0.234096 0.012568311 -0.027648818 -0.058284134 -0.1655642 -0.09428378 0.033000614 0.00925838 -0.12870766 0.022861473 -0.17879666 0.027665127 -0.04277706 -0.18006667 -0.10891792 0.16331796 0.14783224 0.11701705 0.23866343 -0.19848277 0.13058846 -0.01585225 -0.16399182 0.058243703 0.12661578 -0.011808429 0.031000705 -0.07462194 -0.08536455 -0.006650908 0.040644303 0.09735055 -0.007070551 0.12083237 0.024252705 0.2912846 0.059553783 -0.17350502 -0.06331548 0.03234647 -0.14739966 0.18994701 0.02159408 0.07645635 -0.15808591 -0.0039779902 0.08256932 0.04571409 -0.13715829 0.06436912 0.094572365 -0.24832174 -0.1775892 0.07814818 -0.22214401 0.0025200802 0.08676842 0.02385074 0.22117956 0.20714375 -0.080586776 0.1894737 0.21576816 0.0127219595 0.21517484 0.13833474 0.06547664 -0.02859276 0.17843327 -0.06612663 -0.021470621 0.011328332 0.13285324 0.23932837 0.03129155 -0.1258913 -0.009880072 -0.16552942 -0.14152056 0.14768776 0.15313648 -0.013666043 -0.013293543 0.016462231 0.018620862 0.07434612 0.18600264 0.018137122 -0.09645099 0.08161025 0.067188144 0.15631786 0.047009453 0.032053646 -0.06264085 -0.017527748 0.08946461 0.04604534 0.0009307546 0.04804762 -0.15562733 0.026245756 -0.1436571 0.18309456 0.07030611 -0.02720341 0.0017158383
601 -0.0045071803 -0.2541697 0.1765757 0.14832036 0.09357434 0.1338856 -0.09541698 -0.115459085 0.19360308 0.0397862 0.0458392 0.06220703 0.00032359682 -0.03354641 -0.055698637 0.08474253 -0.28166547 0.06138232 -0.06847302 0.050817423 0.056241605 0.25310537 -0.02309914 -0.18557009 -0.13214327 0.04532198 -0.1787362 0.009798967 0.029780345 0.22261155 -0.07536634 -0.011787866 -0.12662618 0.21943152 -0.028187169 -0.0984101 0.1428604 0.19936071 0.2657536 -0.07191875 0.06544479 0.013411682 0.1423428 -0.07614388 -0.108522475 0.0376508 0.12610659 -0.28493533 -0.14529015 -0.051077764 -0.04112336 -0.131614 0.17675509 0.13407986 0.20352453 0.2446526 0.068944655 0.24629527 0.03661418 -0.20484939 0.16622557 0.046251502 0.1514725 -0.00222133 0.015231731 0.006214728 0.05687528 0.0059959427 0.1064143 -0.00524201 0.015558637 -0.103533484 -0.062256843 0.13291489 -0.045059662 -0.10729439 0.09489682 0.157558 -0.101312384 0.20161808 -0.13207556 0.008530675 -0.2468452 0.1643087 -0.043693718 0.07463025 0.2098384 0.01937813 0.16670734 0.28117982 -0.10843582 -0.22818503 -0.18306792 -0.056902487 0.223018 -0.029209001 -0.14095904 0.04178371 -0.0759186 -0.15364663 -0.08409367 0.03127292 -0.02446271 0.11901988 -0.22004515 -0.0013899144 0.075991504 -0.041630153 0.17420441 -0.16254354 0.121548295 -0.3041568 0.13574809 0.17300172 -0.17232962 0.040586136 -0.116010986 0.077442996 0.09476472 -0.200633 -0.23111178 -0.07155614 0.033103373 -0.113850415 -0.05196726 0.12614657 -0.03546641 0.029834928
373 0.031553857 -0.14949003 -0.002979207 0.0697263 -0.013193321 -0.029432084 -0.32601961 -0.08984176 0.07222612 -0.09789594 0.0022597243 -0.004382438 0.0053552883 -0.17804842 0.05878525 0.29281372 0.046068855 -0.0050172275 -0.012047166 0.17825045 0.048039224 0.034610413 -0.10211579 -0.13607243 -0.05504822 0.053652883 -0.31435728 -0.24665773 -0.0174242 -0.18106207 -0.09420686 0.050197937 -0.001954074 0.07568476 -0.12332338 0.20736073 0.28116867 0.064901 0.16664301 0.06269065 0.04847239 0.0482935 0.40953365 -0.11509191 -0.08140115 0.14302157 0.12153441 -0.04547878 -0.12928033 -0.03579085 -0.0419029 -0.16826841 0.21600953 -0.0072535495 0.19890235 0.10632088 0.085898764 0.05175311 -0.035548367 -0.13828233 0.08765886 0.0021594563 0.020489395 -0.011812707 0.06383766 0.020218011 0.25743222 0.068114564 0.03997739 -0.054860845 0.0007773899 0.07856479 -0.26775858 -0.11238401 0.027569093 -0.10375258 0.003368775 0.04038444 0.007693777 0.19810604 -0.011618243 -0.11175159 0.029788705 0.00085461064 0.022157514 -0.11232315 0.021282213 0.042831242 0.3397689 -0.024442444 0.035534676 -0.060305703 -0.15035619 0.15804744 0.04493891 -0.04673601 -0.16504519 0.12592784 -0.18381423 -0.10597096 -0.07470601 -0.048788637 0.037207294 0.11199178 -0.012219912 0.11668907 0.15209433 -0.042802073 0.18399742 -0.11659148 -0.1677026 -0.07545942 0.036018953 0.04413743 -0.19931905 -0.22153011 -0.15214391 0.09632078 0.13202459 -0.022299048 -0.15830174 -0.044606045 -0.13897483 -0.053874772 0.009703139 0.1590496 0.11073762 0.09143288
591 0.14162363 -0.29409575 -0.061202854 0.02090249 -0.06599109 0.03704507 -0.18222405 0.0695903 0.15832543 -0.15655741 0.053737167 -0.036278334 0.016166018 -0.1576135 0.16653515 0.20197153 0.036954466 -0.058416747 0.032215033 0.18291567 0.018867122 0.10379679 -0.025270784 -0.12619895 -0.07895701 0.14958623 -0.24490383 -0.041241314 0.018722514 0.01954825 -0.18498425 -0.0767605 0.051279485 0.068368874 -0.022573935 0.04973456 0.3056276 -0.095736116 0.19441591 0.12984586 -0.08370614 0.034703467 0.36131066 -0.041499905 0.013373981 0.00043608676 0.07872209 -0.1567291 -0.1900079 0.05215918 0.028086644 -0.24835207 0.11432316 -0.006332907 0.18108928 0.06966999 0.015699431 0.13006784 -0.128069 -0.07639328 0.10567538 -0.06751248 -0.030190919 -0.07452086 0.020058254 -0.012738014 0.17412864 0.015379847 -0.0111073125 -0.041698862 0.051895123 -0.12204063 -0.078068845 -0.024511188 -0.019370567 -0.15961929 -0.09815286 0.09576683 0.100053266 0.2306867 0.0050606662 0.013764092 -0.008073692 0.030513193 -0.09249042 -2.4666006e-06 -0.070534974 0.11361373 0.30247676 0.087091155 -0.0919511 0.086269535 -0.056319475 0.029216189 0.015664995 -0.07883382 -0.120230794 0.09024854 -0.22850266 -0.19545445 -0.14034702 -0.025679864 -0.0916221 0.12394522 -0.14962918 0.06192 0.04312519 -0.053660948 0.2532178 -0.21792357 -0.09261879 -0.036405697 0.13487875 0.06717157 -0.20454815 -0.26483837 -0.12418248 0.044357356 0.08590976 -0.09114788 -0.2503765 -0.1288034 -0.13328269 -0.0016880598 0.04400516 0.19202742 0.01819368 0.10502043
636 0.022266984 -0.34120074 -0.15070744 0.19016477 -0.008196533 0.04922728 0.017032206 -0.09823414 -0.25218496 -0.17356463 -0.024119912 -0.109208584 -0.31148297 0.115087375 0.1992559 -0.10359595 -0.15339938 -0.092665315 -0.24218604 0.1492686 0.089580104 0.16136265 -0.09280325 0.072493754 0.055019796 0.051110096 -0.0045179385 -0.04312639 0.21653047 -0.19369856 -0.20441762 0.16496637 0.111775234 0.086000845 -0.20738186 0.17621931 -0.14711781 -0.008424998 -0.07240588 -0.021538176 0.06549452 0.30973825 -0.0013446421 -0.013035063 0.05353101 0.17760196 0.0052912245 0.027930345 -0.097146735 0.11254829 0.15778196 -0.05328274 0.28357244 0.1045503 -0.10883305 0.121142365 0.15054484 -0.062483467 0.090647876 -0.083986044 0.14091283 -0.08956061 0.16475113 -0.08133179 0.008166242 0.14774184 -0.145432 0.09433547 0.016165063 -0.20736334 -0.029425919 -0.22914217 -0.3437467 -0.06570048 -0.11804136 -0.18544775 -0.16210593 -0.018889803 -0.11238553 0.2333234 -0.12367984 -0.35426342 0.059774395 0.075697936 0.05836465 -0.05287215 0.13443048 -0.02649535 0.18707359 -0.11502977 0.038987294 -0.23601206 0.09143479 0.08993647 0.22868237 0.2945395 -0.028172791 -0.05515098 -0.10741178 -0.0914216 -0.113627985 0.12414005 -0.047736887 0.12756592 -0.034036633 -0.15389805 -0.039828327 0.25823572 -0.0912797 -0.20263582 0.39904788 -0.21313505 0.33797264 0.062019046 0.015097995 -0.2545331 0.002880687 -0.10629879 0.053002786 -0.0479234 -0.06351587 -0.41782165 -0.16733871 0.2332166 -0.08273169 0.17419764 -0.1432097 0.021237113
629 0.07054184 -0.1461426 0.25194925 0.19733417 0.18828179 0.14296782 -0.13344595 -0.08768735 0.19128841 0.025231265 -0.06027642 0.09572806 -0.0816374 -0.00069308595 0.0059689158 0.05789282 -0.10542041 0.020527674 -0.072132975 0.10833412 0.11369116 0.33989957 0.078706875 -0.20054056 -0.117183305 0.081895046 -0.3228425 0.0041836943 -0.10435932 0.07738507 -0.10138614 0.10568324 -0.075973496 0.16032828 0.023201263 -0.10764832 0.25007305 0.19672625 0.17851359 -0.054720078 -0.073397845 0.22905149 0.15204325 -0.08169794 -0.08786051 -0.1537291 0.19802146 -0.051004943 -0.26161104 -0.22353847 -0.19828646 -0.20908958 0.13813269 0.045484595 0.20124961 0.03350155 0.12160619 0.18828793 -0.0043668835 -0.13148375 0.27179477 -0.059538472 0.1420551 0.14908205 0.10251759 0.029136857 0.060254075 0.10167647 0.12745509 -0.0048353197 -0.09241173 -0.090769306 -0.11179715 -0.11779635 -0.1372476 -0.12502213 0.024021002 0.14658907 -0.047550984 0.027750248 -0.10336717 0.03267101 -0.22231828 0.048776902 -0.051398575 0.09331059 0.2724149 0.07007219 0.06615206 0.18392558 -0.097438246 -0.11019679 -0.24397515 -0.131046 0.15089104 -0.08764419 0.05277106 0.11831763 -0.19075027 -0.13715501 -0.14878102 0.06514529 0.14783055 0.05793992 -0.20042582 -0.023956738 -0.10554911 -0.06742805 0.27268022 -0.14633112 0.06276473 -0.2376343 0.17085221 -0.023586545 -0.16513018 -0.007544013 -0.11991505 -0.04760307 0.065576605 -0.12322693 -0.14381127 -0.13128299 0.052825008 0.09054517 -0.122438416 0.20958745 -0.041217554 0.043632068
492 0.12420575 -0.14080814 -0.054394167 0.1913085 0.020894073 0.10189733 -0.22884266 0.0008165292 0.1672766 0.030375661 -0.18325834 -0.028319001 0.07472184 -0.059614744 0.21203429 0.4225009 -0.050259873 -0.11443693 -0.0010053787 0.25124413 0.031358246 -0.025126282 -0.20894377 -0.18733892 -0.07445715 0.1589919 -0.25214213 0.0313384 0.12236135 -0.06911325 -0.11297056 0.063423075 0.014375267 0.06443401 -0.03087929 0.18862487 0.17601804 0.030170588 0.24900736 0.073345155 0.033631723 0.012382915 0.37702358 -0.11455944 0.046739195 0.048632864 0.16677439 -0.24851924 -0.017331522 0.0661469 0.06147374 -0.22468774 0.27877954 0.038160607 0.23196766 0.028528964 0.0051833955 0.097216666 -0.11070655 -0.10477741 0.011408971 -0.012388174 -0.0480524 0.04717594 -0.021113556 0.072416656 0.12386347 0.047793597 0.07360879 -0.057265166 0.16230224 0.04933987 -0.13322611 0.15103318 -0.048111435 -0.11477502 -0.015228648 0.059869923 0.031644996 0.24462771 -0.044884693 -0.03982702 0.010973738 -0.064311534 -0.097217925 -0.057625037 0.05518488 -0.068584874 0.3569992 -0.09214623 0.02433814 -0.09208292 0.0033273052 0.20124336 0.115167946 -0.09461525 -0.08681318 0.04647573 -0.1605887 -0.068703465 -0.10154206 0.06393471 0.00038940477 0.000100734076 -0.064049624 0.05424759 0.13179237 -0.0777345 0.20536436 -0.111716315 -0.15219456 -0.07491408 -0.02492602 0.05557347 -0.025724793 -0.17515379 -0.045494508 0.10615756 0.10178042 -0.1221646 -0.15477382 -0.15761067 -0.08936512 -0.09606286 0.0650687 0.09368581 0.120659456 0.079857245
524 0.12384182 -0.16996086 -0.09215337 0.035879545 -0.018286383 0.00021383018 -0.21151337 0.0019887916 0.11816772 0.0045215776 -0.067020826 -0.07384535 0.0098350765 -0.13022839 0.19539623 0.4564483 -0.059096772 0.029259712 -0.035454765 0.23065029 0.19393851 0.1545196 -0.09733909 -0.14159578 -0.04848651 0.025543423 -0.32682168 0.019782057 0.16520162 -0.04572369 -0.13017538 0.041799244 -0.01955289 0.1094524 -0.15633398 0.12481039 0.13711774 -0.034138832 0.1063629 0.11323577 -0.14229915 -0.044171486 0.35624728 -0.09575446 0.021694971 0.103398114 0.25198898 -0.0648237 -0.26812232 -0.052779924 -0.07759766 -0.29787305 0.18998645 -0.028793786 0.21532272 0.13710865 0.0025729875 0.13012147 -0.18138312 -0.1866425 -0.041058104 -0.107644774 -0.07350317 -0.055346545 0.09091154 0.0063555916 0.1038301 -0.093820274 0.092876725 0.0185313 0.014907691 -0.09238905 -0.07858875 -0.013986368 -0.04516179 -0.11289771 -0.039334305 0.11635555 0.03743375 0.23135284 -0.034620106 -0.26504666 -0.06803814 -0.090441726 0.022340396 -0.08536015 0.03392074 0.050267 0.25672314 -0.008965682 -0.08148528 -0.033300463 0.031349134 0.13651234 0.15055381 -0.12739247 0.07604664 0.1370687 -0.049943324 -0.043442 -0.11740173 -0.09953783 0.013329322 0.007257059 -0.09917706 0.025395203 0.0022451612 -0.07455095 -0.045266215 -0.080136485 -0.15260245 -0.05533793 0.11116733 0.10202033 -0.12282587 -0.24288218 -0.17685005 0.10713099 0.25682497 -0.12546775 -0.27703708 -0.08483816 -0.11649537 -0.061224837 0.012296287 -0.025819682 0.07724364 0.10385095
553 0.013762131 -0.082199685 -0.045541678 0.15126808 -0.026172487 0.04428717 -0.03654609 -0.06673991 0.22023027 -0.030929076 -0.07686422 -0.021896001 0.058094542 -0.1509637 0.19450915 0.5102801 -0.12802592 0.048747603 0.13966288 0.25593814 0.010280528 0.11512019 -0.1691279 -0.19332011 -0.13263772 0.084476426 -0.2399628 0.028110996 0.066827394 -0.04422113 -0.044527963 -0.008017905 0.017725311 -0.021845717 -0.058881234 0.22949 0.1310165 0.07390939 0.17385198 -0.049786493 -0.041382436 0.0533473 0.33618328 -0.13755253 -0.020280305 0.1273514 0.2661585 -0.008469239 -0.08913422 0.13668698 -0.038713533 -0.17841768 0.2068182 -0.038902443 0.18055253 0.06463826 -0.007257653 0.19038288 -0.1681356 -0.059522796 -0.16040613 -0.08763539 -0.015688969 -0.0502323 -0.040624637 -0.008166346 0.1361122 -0.0064944346 0.001096338 0.020586895 -0.050455783 -0.04406291 -0.17324059 0.15845262 0.051803026 -0.15357693 -0.102066286 0.18782261 0.05349528 0.18205965 0.0021516525 -0.115998834 0.06958323 -0.057569537 0.09462489 0.06897389 -0.05577502 0.03905928 0.27882487 0.098199934 0.014752906 -0.2005884 0.018355815 -0.00042506758 0.056146096 0.021579877 -0.039795894 0.12378936 -0.09608145 -0.08735532 0.025918538 0.026766267 -0.08481978 0.043119237 -0.091882885 0.15106003 0.1386926 -0.076753184 0.15470794 -0.17692997 -0.047577076 -0.058576517 -0.017353555 -0.028048238 -0.20970449 -0.35461932 -0.18180236 -0.05860237 0.037861373 -0.02566361 -0.32802364 -0.1474495 -0.060772274 -0.078121595 0.060398072 0.17992747 0.0038094828 0.06774377
566 0.08915419 -0.14576532 -0.0790833 0.073718525 -0.0775451 0.18157665 -0.17261368 0.08836396 0.10921724 -0.0018115414 -0.05766879 -0.15809898 -0.05916452 -0.05191856 0.14681694 0.3585744 -0.0503429 -0.037045673 0.004688382 0.19483465 0.19774716 0.18679148 -0.23140389 -0.094805494 -0.07314493 0.011368708 -0.24561483 -0.028857559 0.029295223 -0.026619494 -0.10484518 0.07112509 -0.013132489 0.011886893 -0.02356031 0.04602763 0.34628928 0.012237356 0.07304585 0.12574959 -0.13497819 -0.045617275 0.2638347 -0.11838781 0.0058450354 -0.014596403 0.29540202 -0.16002172 -0.13087992 -0.14644207 -0.10409591 -0.2664495 0.14209494 0.018874545 0.16511682 0.15500277 0.06453057 -0.045611612 -0.05565421 0.026904859 0.025477696 -0.13669088 -0.01932565 0.07201069 -0.08417719 0.14703487 0.17742912 0.0952507 0.07948259 -0.06875901 -0.03601209 0.06666586 -0.20162492 0.15041102 -0.13495429 -0.03332337 0.07553822 0.1937914 0.10523864 0.29994994 -0.09272666 -0.11730989 -5.4579246e-05 -0.082814895 0.047447525 -0.0002352438 -0.006834512 0.08243786 0.25534037 0.023808494 -0.05796497 -0.10907755 -0.0836125 0.23035641 0.18763086 -0.16401303 0.11587613 0.17961434 -0.07939673 -0.0697225 -0.13815512 0.06871179 -0.021357426 0.13147607 -0.14621481 0.17127691 0.20286545 -0.03499157 0.039766278 -0.15572076 -0.19431466 -0.21885638 -0.07795212 0.13422246 -0.1412133 -0.21300466 -0.113416485 0.084323496 0.1433024 -0.034731887 -0.037604682 -0.16151537 -0.08974187 -0.13627306 0.011828493 0.038440045 0.054213163 0.074543156
412 0.06874513 -0.26178318 -0.12832035 0.08230416 -0.05097275 0.17523777 -0.21698096 -0.11530082 0.11978871 -0.08404573 0.025189914 -0.053988114 0.043307003 -0.027056295 0.118023865 0.36386266 -0.008412417 -0.09994114 0.079475045 0.24236499 0.10200698 0.010437213 -0.21450843 -0.2382437 0.056213062 0.13256358 -0.29797882 -0.0066445977 0.1799732 -0.0853005 -0.17482209 0.029842755 -0.027686989 0.07672919 -0.09605795 0.14603624 0.22139539 0.0837172 0.21842085 0.048750848 0.1299267 0.011580173 0.41311136 -0.14426929 0.1127874 0.16063195 0.05422108 -0.24848472 -0.23220113 0.08494252 -0.06451373 -0.23135234 0.14383532 -0.10957361 0.1640925 0.011340499 0.07007486 0.12388754 -0.034924746 -0.15257002 -0.12526335 -0.048720744 -0.013069151 0.049614593 -0.020412784 0.14127843 0.20170742 0.11964915 0.037704166 0.08535141 0.01989294 0.14342259 -0.18655767 0.043644372 0.16240913 0.0751548 -0.017800014 0.16685504 0.10293441 0.2425006 -0.02491266 -0.1081764 0.13045594 -0.06797782 -0.020022973 0.000112234724 -0.05006223 0.051834878 0.2329104 0.0029884255 -0.10565193 -0.26427764 -0.14674051 0.17752723 0.14135064 -0.15931739 0.00921763 0.16338663 -0.124365374 -0.18742861 -0.014762666 0.03329329 0.033480566 0.08404938 -0.05821249 -0.047085714 0.118635766 -0.13034771 0.052599106 -0.1455938 -0.108110115 -0.059647474 -0.043747485 0.10196573 -0.16851142 -0.28106123 -0.13096425 -0.09212271 -0.025404578 -0.09131439 -0.105344534 -0.18982404 -0.13025406 -0.044546187 0.05008459 0.13332853 -0.0060800854 0.075248055
423 0.11027147 -0.11895833 0.0015135726 -0.16477157 -0.08669065 -0.060829416 -0.24613224 0.035053853 0.10023406 -0.15332988 -0.040802192 0.0482839 0.138612 -0.06378644 0.13572927 0.41826993 0.048431937 -0.047914978 -0.030883895 0.22785966 0.06716959 0.023015732 -0.20270126 -0.060782436 -0.01469876 -0.089822166 -0.36854264 -0.09282931 0.10112813 0.0025273126 -0.21680483 0.0147720855 0.19160199 0.12153235 -0.03792076 0.24181025 0.10363815 0.08253621 0.19576803 0.03264746 -0.059965048 0.069506235 0.35363993 -0.039206717 -0.013172276 0.051813755 0.045967266 -0.058585316 -0.0120113315 0.10423461 -0.16822964 -0.2500016 0.11165988 -0.11548954 0.2749306 0.11973957 0.029597076 0.30900154 -0.14471316 -0.01304154 -0.0017568172 0.06959237 -0.13790156 -0.06281257 0.11981845 0.07540396 0.29251516 0.103618465 0.121253565 -0.18348561 -0.031333722 0.0151958475 -0.1526931 -0.11909711 0.061767224 -0.22672433 0.10577354 0.024947776 0.25538272 0.23583421 -0.17253864 -0.085013196 0.03750697 0.16519718 0.07672285 0.13466607 0.047205262 0.06070276 0.27826113 0.040296763 -0.1067971 -0.1776171 -0.09317164 0.052191515 0.15737633 0.020685352 -0.14431815 0.14042282 -0.16880602 -0.012045293 -0.05466228 -0.0003259894 -0.018467337 0.14689927 -0.28972405 0.080362774 0.051446546 -0.15510517 0.17481257 -0.21182154 -0.06529398 -0.010525009 0.009244578 -0.05616006 -0.13704628 -0.10830062 -0.22677062 -0.052044373 0.18438523 -0.07511376 -0.2885991 -0.13224062 -0.11448037 -0.20946723 -0.030647583 0.13471021 -0.06735045 0.12649068
370 0.07389829 -0.29631793 0.06053063 0.08366527 -0.025111614 -0.042217966 -0.36862648 0.14402795 0.15294336 -0.023050815 -0.018864522 -0.033998854 -0.02978458 -0.103137866 0.26134333 0.5361452 0.049863134 0.028858542 0.07318713 0.20363885 0.2151389 0.059428375 -0.1909308 -0.07696551 0.061069496 0.097418375 -0.19905715 -0.0102704875 0.3008321 -0.24118502 -0.027915154 0.052078847 0.065664984 0.19442756 -0.013364101 0.046765685 0.21562916 -0.121295385 0.1594637 0.0135183735 -0.11319697 0.028924176 0.32084492 -0.027721012 -0.008339401 -0.0303164 -0.008875548 -0.12044957 -0.25153977 0.0027921468 -0.06513232 -0.24445446 0.15247454 -0.09668138 0.2760551 0.25621748 -0.015631428 0.059304234 -0.14144766 -0.18807241 0.014205329 -0.07594857 -0.07905581 0.004161452 0.027842186 0.07637752 0.32366148 0.10345703 0.063387066 0.07878502 0.05688599 0.23415723 -0.10935199 0.09500291 -0.040804766 -0.14719585 0.090959854 0.05820003 0.107277565 0.3300782 -0.044701695 -0.11086256 0.004626464 -0.041036993 0.06452777 -0.1109199 -0.09753809 0.15530679 0.34977797 0.19204484 0.004782398 -0.069388784 0.01645754 0.05253345 0.14761418 -0.07716477 -0.10633477 0.037086852 0.042583168 -0.14236218 -0.014361436 0.058004923 -0.009161227 -0.067330375 -0.072562225 -0.066424824 -0.033659752 0.0032643315 0.041896556 -0.06253884 -0.16435331 0.03745533 0.024122167 0.15944847 -0.078819595 -0.12243026 -0.088177174 0.115433104 0.13428353 -0.14427999 -0.27376682 -0.022119077 0.04482523 -0.113739125 0.05431814 0.08396687 0.0032363485 0.052620318
461 0.115736514 -0.27829555 -0.08457383 0.030496217 0.044613734 0.102247976 -0.10279056 0.06268744 0.059289746 -0.10090016 -0.013980452 -0.0981019 -0.027562832 -0.03393558 0.15358153 0.37302193 -0.07166048 -0.21719171 0.008407787 0.17395478 0.054825526 -0.02045061 -0.09609541 -0.10339751 -0.06823739 -0.04465305 -0.108318985 -0.072514914 0.17212698 -0.08169573 -0.15014705 0.026013589 -0.034413103 0.2438766 -0.12688059 0.10080308 0.23730014 -0.03336572 0.053071704 0.12067685 -0.028644957 -0.06496049 0.37229377 0.013344546 -0.06313496 0.15660729 0.14369072 -0.20078313 -0.13324845 0.06733134 -0.055358466 -0.2819554 0.2752115 0.030167883 0.18690822 0.12843823 0.15876532 0.17660728 -0.13941418 -0.16388232 0.01371076 -0.10394134 -0.03491755 -0.11089865 0.025133971 0.07918993 0.26810092 0.1727185 -0.034563214 -0.014816973 0.016444582 0.06211746 -0.10903467 0.12232403 -0.035190944 -0.12721266 -0.11741206 0.067459434 0.124467865 0.16106395 0.049039524 -0.2142514 -0.011697498 -0.003654981 0.03532861 -0.07575662 0.0035280709 0.1244562 0.31492963 0.12923108 0.057989907 -0.12739158 -0.023624398 0.04783154 -0.046725553 -0.068156295 -0.05499758 0.14504354 -0.05109545 -0.07374689 0.1984641 -0.030676816 0.010893657 0.23480183 -0.11632572 0.05046254 -0.07263463 -0.052017972 0.13651927 -0.029285625 -0.07096485 -0.11322171 0.092792295 -0.044066776 -0.032322258 -0.14033052 -0.108867936 0.062289868 0.33594036 -0.06602767 -0.18199085 -0.18241519 -0.097106285 -0.09481706 -0.12285885 -0.05826366 0.027736075 0.1208145
580 0.032220166 -0.12652531 0.13469711 0.08925446 0.10520522 0.07394124 -0.20384906 -0.060819536 0.2080438 -0.030209597 -0.12728173 -0.07349501 0.16775256 -0.1438309 0.20616402 0.33011475 -0.18675606 -0.13137029 -0.16046333 0.009482102 0.20961224 0.134263 0.030091945 -0.06637825 -0.03802544 0.03531803 -0.333519 -0.114845306 0.1333133 -0.070004314 -0.13885984 0.034363836 0.045790777 -0.039361913 -0.015416008 0.08084417 0.21743517 -0.04339908 0.17251489 -0.052670285 -0.018672762 0.11575343 0.32214317 -0.064215526 -0.14018486 0.088043965 0.22884546 -0.042118903 -0.20921326 -0.0502466 -0.107874244 -0.24235371 0.11488659 0.16264002 0.28657264 0.114364125 0.14698592 0.15675014 -0.06233437 0.0655256 0.106089465 -0.0032885952 0.078461446 0.07575602 -0.010487174 0.09743947 0.15633078 0.13967338 0.11853579 0.15208119 -0.10032552 -0.025786974 -0.24807502 0.07704125 0.037491184 -0.15545037 0.065407604 -0.013502568 0.0030242119 0.30612677 -0.04080919 -0.0394327 0.074721046 -0.08500824 0.008205218 -0.07186852 -0.055594083 0.16302198 0.34948173 0.048923753 0.03714952 -0.13046578 0.08666955 0.083606236 0.031248583 -0.1369269 -0.1766514 0.14768054 -0.21662562 -0.12672453 0.16449066 0.03627022 -0.02600791 0.03991114 -0.10384125 0.0962245 -0.01158296 0.03669431 0.13240597 -0.12470316 -0.19755414 -0.033505384 0.009628869 0.14503309 -0.28102082 -0.2554356 -0.091714345 0.15298147 0.08148454 -0.09245646 0.012451695 -0.030069849 -0.1290792 0.23644108 0.08819485 0.094087146 -0.004170938 0.09461744
567 0.02198555 -0.16487642 -0.027655046 0.016015222 -0.1739274 0.091654494 -0.10061216 0.041100673 0.21083562 -0.066437766 0.022417793 -0.0635906 0.014928995 -0.06983908 -0.03564509 0.60889447 -0.09807043 -0.07932006 -0.06488834 0.12859638 0.1060986 -0.0041244654 -0.07200036 -0.24758616 -0.06127307 0.12857972 -0.25184563 -0.19555849 0.15851636 -0.10066979 -0.2628231 0.15761285 -0.002235524 0.21357468 -0.099419504 0.10305826 0.184993 -0.05554407 0.13539524 0.034732666 -0.046957172 -0.11891883 0.41245484 -0.019339092 0.057541817 0.0022372762 0.11429093 -0.059541516 -0.120171815 -0.1396306 0.07125148 -0.16123897 0.09197078 -0.09372187 0.16230294 0.23031081 0.09514111 0.06930226 -0.026641786 0.0032076968 0.1337119 -0.10400611 -0.050766815 -0.0493444 0.017188678 -0.09818339 0.18798865 0.11254194 0.048319142 -0.16156878 -0.113131195 0.20793718 -0.2010438 0.18289727 -0.13898946 -0.30190495 0.080936894 0.06497556 0.07405006 0.16316964 -0.12943035 -0.15810297 -0.12874593 -0.08599297 0.023801668 -0.03243452 0.1107668 0.06983369 0.26293057 -0.097736366 -0.08520031 -0.07010422 0.036322817 0.18917564 0.03206204 -0.0112731205 -0.12912183 0.03969428 -0.11168957 -0.1938281 0.0077548493 -0.0044964678 0.06252331 0.16916135 -0.1419695 0.1373029 0.11653101 0.04205881 -0.009250981 -0.19114171 -0.039689872 -0.09029766 0.07952177 0.020112652 -0.21704844 -0.23627898 -0.10287714 0.095542476 0.18093324 -0.022142323 -0.015004426 -0.12760931 -0.1865982 -0.06139436 0.030504448 0.039599262 -0.11230625 0.07622297
641 0.17190936 -0.38285002 0.24142784 0.060393568 0.19639426 0.022725962 -0.27524087 0.0805882 0.28738043 0.046743296 -0.024582913 0.0703751 -0.06275227 0.12946054 0.09920685 0.08284151 -0.19290487 0.06599624 -0.16865218 0.060708236 -0.11882579 0.15926787 -0.049446672 -0.23057966 -0.13928826 0.16312891 -0.26165655 0.0063480046 -0.03264905 0.12258127 -0.18467368 0.044343267 -0.21301775 0.07540833 -0.004764714 -0.06909416 0.112111054 0.09790351 0.20397602 -0.08352106 -0.014137708 0.07712247 0.12836725 -0.025569111 0.042046767 -0.010159484 0.15821949 -0.18736656 -0.09729214 -0.08431543 -0.007972576 -0.28840292 0.11097961 0.049932983 0.25527605 0.17269574 0.16918495 0.21295308 0.031548932 -0.11058669 0.23057687 -0.053484377 0.13661624 0.08493518 0.0011936103 0.07545202 0.10399875 -0.096755885 0.13273498 -0.009804292 -0.060122497 -0.0044194576 -0.06269425 -0.0951335 -0.041921195 -0.17232426 0.07371908 0.12827449 -0.013470794 0.0780598 -0.102682725 -0.17389844 0.04800652 -0.020076003 -0.026525866 0.036401786 0.088885665 0.029479356 0.16952604 0.09945211 -0.017589811 -0.1258877 -0.15961078 0.0694399 0.08886524 -0.14620666 -0.098455474 -0.016858064 -0.12752408 -0.11909592 0.0687098 0.09232752 -0.11890345 0.25638312 -0.12162603 -0.0001637596 -0.04762204 0.043831483 0.23755714 -0.065847464 -0.00878533 -0.10914249 0.029419616 0.21015914 -0.38033944 -0.08326269 -0.27755663 0.060925666 0.03294125 -0.04829921 -0.19989912 -0.018727679 -0.1334425 0.05990525 -0.07104394 0.09824727 0.061027106 0.12395725
615 -0.05669092 -0.110979415 -0.06852488 0.06464721 0.1619547 -0.10866989 -0.20880313 0.08987209 0.17860326 0.18032812 0.051566076 0.022226177 -0.12300501 -0.15474717 0.22915167 0.106717564 -0.10782513 -0.18539232 0.097662196 -0.33446497 -0.02737127 0.292756 -0.0413386 0.050655417 -0.108494885 0.16358031 -0.042790584 0.16413558 -0.03546218 -0.047978375 0.035211887 -0.29579708 0.16640928 -0.19673139 -0.04616051 -0.0373385 0.25607738 -0.03774035 0.24481477 0.10238077 -0.26911196 0.03260065 0.16305643 -0.03566367 -0.0075433096 -0.18144062 -0.27663317 0.07106681 0.2936477 0.15517034 -0.1400508 0.053554814 0.16680272 0.08753145 0.14261165 -0.22716554 0.14549226 -0.14834988 0.075209916 0.47892568 0.060391523 0.18979034 -0.010002466 0.19564526 0.20563002 -0.09635968 0.0084697325 0.23590092 -0.1616825 0.1040678 0.12897985 0.2042476 -0.09914899 -0.08621917 -0.23188084 -0.25324866 -0.29724848 0.18409333 -0.114970595 0.15427515 0.044721592 -0.1659446 -0.12759157 0.5890589 0.13561122 0.06382944 0.2578685 -0.032497685 0.12910508 -0.0033831096 -0.06733147 0.0054969653 0.28980377 -0.1165688 0.29068163 -0.26806334 0.07881827 0.08957902 -0.24815756 -0.23201796 -0.038877785 -0.1891877 0.11683629 0.2103718 -0.16678849 -0.25034907 0.061359372 0.081180386 -0.13200895 -0.03574358 0.2597176 0.070896484 -0.044261772 0.05904106 -0.317631 -0.092442915 0.040260322 -0.07435077 0.0030090176 -0.21089773 -0.1348453 -0.07704782 -0.017264025 -0.29754707 -0.06856812 -0.43260354 0.27371284 -0.06513777
659 0.11336679 -0.111145884 -0.085674174 0.13652894 0.18693705 -0.15184337 -0.24649513 0.035471756 0.25517794 0.08936888 0.082027525 0.03487502 -0.24313931 -0.18009879 0.44322103 0.19918247 -0.035440594 -0.15249929 0.1905306 -0.32997307 0.029368239 0.27384636 -0.118224636 0.022395233 -0.07838122 0.26867697 0.1033016 0.10409217 -0.08960528 -0.12269141 0.003464166 -0.3361371 0.09082421 -0.20601925 -0.068466455 -0.09718327 0.2795849 0.089436755 0.3421726 0.19048199 -0.2944797 -0.063127175 0.17349222 0.020770367 -0.16524081 -0.2871525 -0.34762576 0.102901876 0.22527239 0.19650014 0.018315922 0.11174665 0.08982299 0.22974949 0.2718415 -0.24007536 0.11999162 -0.13094199 -0.05415715 0.39347208 0.04435222 0.07017984 0.017040016 0.14914602 0.24878083 -0.12557247 -0.03288544 0.288169 -0.28415358 0.12596613 0.08782546 0.255572 -0.18597503 0.010621281 -0.19088192 -0.31426558 -0.24973951 0.08089461 -0.12014812 0.15104023 0.0896268 -0.23225284 -0.09987253 0.46262223 0.13046831 0.051231507 0.32754523 -0.11912464 0.0069938013 -0.100928575 -0.021770172 -0.054704264 0.2977167 -0.08226398 0.36367866 -0.255245 0.11097885 0.041274298 -0.19154665 -0.28288502 -0.009386461 -0.35618764 0.15602969 0.3745159 -0.16322222 -0.22419946 0.13910891 -0.05397661 -0.13339695 0.0035491427 0.20286414 0.18286878 -0.0905318 0.07856623 -0.28082237 0.06702124 0.031162854 -0.08422955 0.11191881 -0.18083405 -0.045602813 -0.059420712 0.039735388 -0.3134103 -0.18193522 -0.43491244 0.34275782 -0.033453953
590 0.09661928 -0.032154467 -0.077923305 0.09585723 -0.116353184 -0.046300042 -0.06151768 -0.044261348 -0.08427476 -0.24277946 -0.0630694 -0.26013675 0.048930153 0.061234597 0.118974514 0.17262998 -0.010428465 -0.025141485 0.0048956336 0.3535498 0.09404032 0.15623072 -0.09085007 -0.059923407 -0.006798522 0.1834192 -0.056152645 -0.05023298 0.15688413 -0.36666423 0.017247058 0.04093378 -0.021908915 0.041697633 -0.18708387 0.08696105 0.06591339 0.01654261 -0.08964995 0.12688828 -0.00065346883 0.04088849 0.25717992 0.123138286 0.029050551 0.3303483 0.0650813 -0.022854298 -0.1317996 -0.05166948 -0.013228738 -0.048396517 0.26811925 -0.15763538 0.11176221 0.12753819 0.100779586 -0.12118797 0.042661924 -0.1559723 -0.010420709 0.033842463 0.21700199 -0.07662693 -0.05180034 -0.018856015 0.26226467 -0.26498362 -0.00502803 -0.0003383677 -0.1547649 -0.15033641 -0.4246312 0.085559934 -0.0167843 -0.011447251 0.021557715 0.14340656 -0.2946589 0.12913258 0.0039718496 -0.1426633 0.039565116 0.08999304 0.18855081 0.024414254 0.06676015 -0.13256587 0.12858893 0.010063839 0.2023615 -0.30158207 -0.009204201 0.1408875 0.09419651 0.27211285 -0.0098964125 -0.07129138 -0.050457805 -0.20130195 -0.27559972 -0.088743284 -0.05888855 0.14403744 -0.18688531 -0.16017278 0.00086271664 0.10773329 -0.17611708 -0.18175264 0.21522462 -0.059330303 0.15542844 0.045904197 -0.117994286 -0.25874868 -0.02124365 0.096578605 0.023012323 -0.07183547 -0.069576986 -0.23932786 -0.20721489 0.102617845 0.03665862 0.13807297 -0.19829205 0.14790866
616 0.15158422 -0.39621568 0.11754902 -0.07785323 -0.0835207 -0.0824697 -0.123737656 -0.052245177 -0.1390483 -0.029618874 0.1262503 -0.3544129 -0.25232953 0.1802347 -0.013008736 0.20682359 -0.5732086 0.09390872 -0.11683794 0.22131686 0.4088518 0.24456207 -0.25674918 -0.034634262 -0.22373158 0.015302922 0.058940604 0.27784982 -0.08920635 -0.059329942 -0.024528341 -0.04392605 0.005367144 -0.09458253 -0.15039514 -0.06425672 -0.1177792 0.09054828 -0.10604115 0.08453217 -0.1762414 0.30852392 0.04321789 -0.013189848 0.042668678 0.38880834 -0.018787595 0.2526865 -0.27783552 0.18086022 -0.0039947215 0.03138326 -0.01997093 -0.15014908 -0.20629351 -0.018362014 0.17307617 -0.19844283 0.06517797 0.14955492 0.11394382 -0.26719058 0.121939495 -0.07995571 0.026730236 -0.008324544 -0.15969393 0.24731396 -0.007087716 0.012547449 -0.023577202 -0.015629292 -0.23124276 0.08531308 -0.079539955 -0.1777516 -0.1746567 -0.19220316 -0.09078633 0.027245019 0.09479989 -0.24224143 0.033965524 0.08999947 0.04087104 0.10371797 0.14438789 -0.1235516 0.007076225 -0.28308716 0.09667655 0.16152087 0.05067773 0.42607632 0.19923565 0.21930909 -0.021193093 -0.12856269 -0.23963305 -0.33915287 -0.2222727 0.101714425 0.062193353 0.046014205 -0.0947905 -0.04910289 0.18842939 0.16346085 0.04895166 -0.15445396 0.23776557 -0.2600962 0.19185701 -0.027225882 0.0074733314 -0.059442956 -0.0739338 0.0586476 -0.00088922086 -0.116549164 0.08726117 -0.08570486 0.028751599 0.26723257 -0.093270525 0.32233366 -0.023796577 0.037797567
513 0.12915757 -0.2243405 0.0476552 0.058305208 0.085477546 0.05210011 -0.11022183 -0.0011606372 0.20877843 0.09183881 0.00021334294 -0.036997553 -0.03646042 -0.021763196 0.14970902 0.30221677 -0.09265293 -0.10365136 -0.006298653 0.21304184 0.22401717 0.0006272946 0.02651423 -0.27136442 -0.1452307 0.16795033 -0.31384858 -0.092930034 0.075216934 0.039142393 -0.093384124 0.039475583 -0.06754399 0.16356044 -0.08035685 0.025468457 0.27012444 0.018049205 0.15081672 -0.02042288 0.022067726 0.0733149 0.23999265 0.0038633032 -0.09550937 -0.1511186 0.09040241 -0.17927283 -0.060944274 -0.06426236 -0.032353602 -0.2856723 0.133452 0.048153896 0.10923017 0.10696159 0.033451404 0.14408989 0.023321575 -0.012604608 0.16065632 -0.089115515 0.108739085 -0.0006614172 -0.049229406 0.039167102 0.23923436 -0.05103609 0.20523675 -0.0242819 -0.006720988 0.08705136 -0.16713125 -0.0004369816 0.031854838 -0.18464923 0.018297689 0.14994076 -0.07389232 0.20052463 -0.11848303 -0.12485395 -0.14678784 -0.087232664 -0.06403335 0.10175179 -0.012432936 0.24899594 0.2548464 0.09770464 -0.08421283 -0.01332456 -0.18910703 0.14833523 0.07616143 -0.0882221 0.021817248 0.13883483 -0.1529071 -0.1910269 -0.09206681 0.06956966 -0.046307687 0.14053093 -0.16309917 0.054644395 0.07211581 -0.055628918 0.1436454 -0.050015513 -0.06008976 -0.0034489327 0.12874746 0.07080569 -0.18835324 -0.24029586 -0.047205858 -0.06458043 0.060952842 -0.08383792 -0.26192355 -0.09503825 -0.08115656 -0.015325085 -0.078877285 0.1469256 -0.07374189 0.098171055
542 0.09035331 -0.29359603 -0.02255361 0.033261616 -0.2538041 -0.016613849 -0.11870865 0.060077183 0.22344202 -0.03107411 -0.08729519 -0.15944222 -0.009259031 -0.045011558 0.19316714 0.39811578 -0.15523723 -0.1185703 0.004463393 0.16814877 0.05779287 0.07648311 -0.18382993 -0.232328 0.047547776 -0.009336744 -0.22318393 -0.094080806 0.11904909 -0.06725482 -0.00936264 0.024619078 -0.075100094 0.12940122 -0.2403632 0.061690573 0.14608836 0.0588822 0.19135034 -0.13962087 -0.042498972 0.047864478 0.23303981 -0.079093605 0.053020228 0.045359973 0.07154889 -0.018377246 -0.06088795 0.047036856 -0.10158887 -0.27477768 0.20245051 -9.4308045e-05 0.16209076 0.10677741 0.12653802 0.15669602 -0.20824872 -0.11236706 -0.0687855 -0.1291829 -0.0021773414 0.040439963 0.07473903 0.055464294 0.21934797 0.05404318 0.06014557 -0.113451764 -0.10830295 0.07253932 -0.09081421 0.10860759 -0.013914817 -0.110694505 0.029729208 0.14258485 0.033827048 0.09659735 -0.019561749 -0.048885893 -0.022973033 0.09230488 -0.07621229 0.041936073 -0.17083928 0.042847235 0.42222688 0.0664137 0.06907259 -0.052346617 0.061529998 0.05361314 0.06472991 -0.14353481 -0.040031895 0.22976615 -0.04812326 0.046148382 -0.027855977 0.019778777 0.006435918 0.15608671 -0.026937798 0.11594394 0.08802449 0.060932975 0.2424781 -0.097477615 -0.10360763 -0.122245744 -0.08623194 0.17615846 -0.30164978 -0.1540856 -0.18337615 -0.008185935 0.16476887 -0.12972541 -0.21816862 0.02045771 -0.029763175 -0.12862122 -0.08147473 0.031858575 0.054404847 -0.05571491
623 -0.03731132 -0.17350689 -0.100234106 0.17665449 -0.09996254 -0.08398475 0.02750757 -0.07462215 -0.24708742 -0.106518626 0.09647711 -0.34462416 -0.33993566 0.14818536 0.22686154 0.16109818 -0.23673336 -0.17333686 -0.082588404 0.20766583 0.10691182 0.15669453 -0.17022732 -0.066300124 -0.06028866 0.056391124 -0.06470913 0.13368438 -0.15267289 -0.23654725 -0.15511018 0.06161677 0.022176487 0.043605577 -0.040130578 0.10891141 -0.17362967 -0.04092092 -0.10654641 0.1335096 0.055801257 0.2640194 0.009486704 0.047746014 0.0208594 0.35458148 0.06158684 0.12335408 -0.22272158 0.18336597 0.16620703 -0.038986895 0.21282022 -0.17832531 -0.17646566 -0.057180177 0.24957412 -0.036750127 0.08182964 0.045929857 0.059622746 -0.2684274 0.0645634 0.022181148 0.20972432 0.12227078 -0.14659019 0.1378658 -0.05394651 -0.21567899 -0.19014283 -0.14288776 -0.3330288 -0.062924564 0.11676097 -0.25480878 -0.05908885 -0.043794822 -0.3686328 0.011485287 -0.15259215 -0.22831984 0.10185665 0.06074323 -0.03660279 0.01888204 0.1902299 -0.008395904 0.20549022 0.016540501 0.029242033 -0.2647985 0.13863014 0.19939491 0.0046614325 0.30191958 -0.3152861 -0.043888524 -0.0073875445 -0.13938063 -0.07725847 0.04165117 0.05261103 0.16134097 -0.16923624 -0.22004208 0.094801866 0.20838533 -0.04024579 -0.19276391 0.097114734 -0.14959443 0.25811198 -0.003122857 -0.12709443 -0.020878471 0.095135845 -0.04485537 0.013234485 -0.05858977 0.04872231 -0.15776238 -0.09919595 0.14697036 -0.004739477 0.14277709 -0.08135237 0.08416848
376 0.09126575 -0.08781044 -0.1990885 -0.057499994 0.05063308 0.022186808 -0.24703062 -0.1224973 0.16688338 -0.044973098 -0.08732831 -0.05738628 0.03393643 -0.079246394 0.10382622 0.38672748 -0.10185851 -0.078946404 0.12130813 0.21982343 0.11169934 -0.11916095 -0.11436556 -0.14651228 -0.050858244 0.03456202 -0.27121505 -0.23683432 0.07226074 -0.07946167 -0.0834469 0.07264564 0.056255814 0.14981268 -0.120608844 0.115009956 0.08211475 0.10978956 0.07645143 0.12921634 0.017779076 0.06293805 0.35185793 -0.043961488 -0.098373346 -0.0021380845 0.054159194 -0.10960401 -0.14389734 0.056987472 -0.07806252 -0.32755062 0.104381226 -0.0578143 0.22670059 0.21787693 0.15660453 0.15714079 -0.06859309 -0.012891749 0.07449525 -0.054710314 -0.08912156 0.04593354 0.007264363 0.030165667 0.20958242 0.041232314 0.24021854 0.09291364 0.028759435 0.16343066 -0.092976 0.0047647 0.024051638 -0.22048841 0.011859032 0.053970043 0.033827465 0.32693356 -0.10083209 -0.1580184 -0.08447003 0.016599663 -0.10184508 0.06259051 -0.019323522 0.19952647 0.26379177 0.093929514 -0.08059272 -0.082679644 -0.05916954 0.16989289 -0.02054971 -0.16636798 -0.07190766 0.10035498 -0.16286051 -0.07064794 0.018952992 0.06991556 0.1144287 0.18898247 -0.22123186 -0.016254582 0.02873004 -0.13747591 0.08605144 -0.042371113 -0.047757808 -0.12902759 -0.008381652 0.19402988 -0.25294286 -0.26456258 -0.08498726 -0.057337455 0.25688142 -0.0113757895 -0.33595824 -0.21174167 -0.086742476 -0.16195627 0.011257709 0.13437714 -0.065232635 0.09682912
650 0.054992527 -0.09580467 -0.040799357 0.14840832 0.2505207 -0.10965299 -0.2567916 -0.011491186 0.19310904 0.22057399 0.06307166 0.036667887 -0.29533958 -0.1525227 0.38144815 0.25137246 -0.041543927 -0.2285183 0.13690053 -0.3156716 0.08010967 0.27487645 -0.103249624 0.0046944893 -0.18977863 0.16749167 -0.10859793 0.16417551 -0.07086386 -0.0070311837 0.007533124 -0.3322393 0.09850519 -0.112409286 -0.014343246 -0.036027342 0.22012211 -0.05110554 0.23263307 0.16760756 -0.35123804 0.058133833 0.06789813 0.02012445 0.09247259 -0.21343897 -0.39311162 0.0933951 0.19954765 0.09619479 -0.08995493 0.04469651 0.102866836 0.18537116 0.18277699 -0.23090732 0.09031096 -0.07661432 0.026403887 0.46685696 0.07995135 0.14009795 0.101728834 0.27261513 0.15180497 -0.12055519 0.056770183 0.24628963 -0.14185145 0.20675685 0.1523896 0.2785776 -0.085757084 -0.040609457 -0.11556329 -0.23576333 -0.20989005 0.1023148 -0.1050709 0.13513893 0.03611819 -0.22931248 -0.043189898 0.5304253 0.13855039 -0.023595247 0.2905325 -0.10338614 0.077726565 0.008817871 0.033243347 -0.028274 0.14561673 -0.061667956 0.20385143 -0.2796269 -0.011519694 0.08411337 -0.16890973 -0.303388 0.050562978 -0.22286205 0.09739639 0.21986756 -0.4020549 -0.22200336 0.10862351 0.13248852 -0.19771175 -0.083132885 0.17107616 0.2715323 -0.09820585 0.17348994 -0.28666928 -0.17207006 0.22030891 -0.002672605 0.019508174 -0.228837 -0.0016280472 -0.050696474 0.117090784 -0.2932244 -0.14333189 -0.48112127 0.40970388 0.005800955
612 -0.06996465 -0.21477984 0.11030126 -0.019504549 -0.043365307 0.09877603 -0.025945453 -0.20819086 -0.13838369 -0.07885529 -0.052074373 -0.11201504 -0.07328245 -0.01794359 -0.0021022467 0.17769268 -0.030460559 0.0034292114 -0.28033316 0.2630585 0.037434574 0.20636469 -0.028249566 -0.07469518 0.059160005 0.027416509 0.008572857 0.043913312 0.11241904 -0.20522645 -0.12856226 0.16389847 -0.12629704 0.0091929855 -0.2747832 0.18110147 0.008438283 0.04274848 -0.09749797 -0.0399627 0.06801081 0.14405893 0.08028144 0.1374017 -0.07195046 0.2544876 -0.03652654 -0.1590259 -0.36552393 -0.070286416 0.14951183 0.020869777 0.2938777 -0.09888999 -0.14755557 -0.023914084 0.3274246 -0.13407609 0.09883848 -0.021784324 0.0077229445 -0.036457192 0.12914352 0.025891678 0.24020573 0.08451618 -0.11388753 0.017851943 -0.053176343 -0.102531984 0.055480942 -0.142493 -0.560971 -0.05702103 -0.0018399719 -0.12856756 -0.15578905 -0.09072285 -0.2067241 0.17066462 -0.04819757 -0.31725627 -0.06580724 0.08789029 0.20315522 0.1270625 0.11310539 -0.038791817 0.17593762 -0.13068433 0.18029112 -0.24707943 0.052012365 0.11588281 0.027989507 0.16963175 -0.16503115 -0.06957295 -0.039457425 -0.14421819 -0.014869723 0.0074495 -0.105734624 0.1062845 -0.103181444 -0.3615919 -0.050111543 0.13666219 -0.009075563 -0.32240897 0.23567513 -0.14278577 0.36331964 0.22680566 0.07191378 -0.013890285 0.22477749 -0.09391353 -0.07872126 0.06456932 -0.14578226 -0.19298913 -0.1854952 0.10281747 0.022999452 0.18163812 -0.064330235 0.0131503185
483 -0.0447733 -0.20804717 -0.088692345 -0.106968455 0.032981187 -0.03798465 -0.15437192 -0.04541698 0.18127804 -0.14954466 -0.07168546 0.01424001 -0.020544846 -0.054453958 0.25375226 0.3573526 -0.14062472 -0.10953213 -0.050905976 0.15769033 0.1441255 0.16519484 -0.191457 -0.07004878 -0.17405401 0.15196839 -0.33478397 -0.06462869 0.050560515 -0.009331063 -0.02215431 0.018943632 -0.10839952 0.079831 -0.08983237 0.11580317 0.078273155 0.008774152 0.14469482 -0.0032348179 -0.14033502 0.18670803 0.36210704 0.0011610071 0.112804316 0.18352741 0.24080954 -0.14848454 -0.11783581 -0.120979205 -0.11487758 -0.32704934 0.19352013 -0.09654099 0.18791613 0.123352155 0.06230834 0.22881094 0.06155253 -0.056034867 0.06905471 -0.16040131 -0.05345044 0.11539205 -0.06593928 0.13851543 0.137733 0.07038582 0.13022305 0.01937596 0.09479279 0.27051002 -0.13890703 0.016286418 0.021207457 -0.26298296 0.04682308 0.037836473 0.03643374 0.12199495 0.05857626 0.051223032 0.06079723 0.082947895 -0.061570514 0.02716575 -0.13639978 0.06584359 0.24733463 -0.038257673 0.049202316 -0.051805917 -0.009244113 0.12361128 0.1529886 -0.05999236 -0.07741326 0.2538028 -0.13331847 -0.050432388 -0.05720939 0.06797695 -0.021973664 0.02971839 -0.16156942 0.20927085 0.01955273 -0.028912412 0.26355115 -0.07065967 -0.14895922 -0.04567175 -0.01093625 0.009599591 -0.14406185 -0.19890568 -0.10997895 0.061142553 0.036474973 -0.17174052 -0.0326645 0.04165424 0.12681265 0.15264992 -0.060401022 0.1528834 0.05905269 0.06135897
685 -0.12780723 -0.25885388 -0.095211715 0.12015358 0.10213866 0.23292944 0.029108724 -0.11850048 -0.18904561 -0.18112054 -0.003506319 -0.11514166 -0.19817057 0.16878371 0.19334488 -0.07177033 -0.20613232 -0.04134761 -0.35486844 0.14062378 0.08611115 0.24665666 -0.054717097 0.06902248 -0.06678604 0.1683492 -0.10656707 -0.030349571 0.26078627 -0.22874339 -0.07690974 0.0429671 -0.069690555 0.08330941 -0.05057772 0.14018287 0.09261625 -0.103936724 -0.19969296 0.056690797 0.04658189 0.36409712 0.22688355 -0.033844173 -0.00826898 0.29426268 0.050298475 0.002132534 -0.06723311 0.051033027 0.10325923 0.11688876 0.22704193 0.18770814 -0.11047968 -0.015760845 0.20156625 -0.021248324 0.045099773 -0.14929137 0.05271356 -0.26798746 0.18248215 -0.07560806 0.3193708 0.21087141 -0.11515991 0.09274963 -0.028162096 -0.21556328 0.07666925 -0.12489816 -0.38710248 0.022482052 -0.088024594 -0.25646508 -0.07238068 0.059431493 -0.3669671 -0.14720742 0.029295098 -0.31464836 0.07092195 0.1338041 0.07973175 0.0556035 0.023130205 0.09412701 0.23453355 -0.014480098 0.23043007 -0.13660166 -0.21587683 0.06859173 0.21951015 0.20595098 0.029163755 -0.07451435 -0.10555268 -0.07871472 0.0037056992 -0.06108429 -0.019622542 0.123311155 -0.005336933 -0.26657534 -0.27208856 0.15955126 -0.10451299 -0.2044514 0.24442528 0.00031089064 0.16583729 0.122776054 0.16240364 -0.07270884 0.0767449 -0.1737753 -0.013363724 -0.15420516 -0.15049243 -0.23055893 0.058435727 0.053143907 0.1228409 0.1830271 -0.1815647 0.04838919
584 0.011773569 -0.35056612 0.050163813 -0.066981435 -0.010822439 0.13803329 -0.28898782 -0.05575598 -0.19163725 0.1833597 0.18839844 -0.41767392 -0.12242954 -0.024599962 0.05256106 0.20189416 -0.484772 -0.01661557 -0.32314837 0.2175575 0.36052367 0.11610836 -0.4340466 0.058258656 -0.14096327 0.06228613 -0.06537776 0.07790944 0.04194305 -0.02765368 -0.006468298 0.20690022 0.08127531 -0.1353533 0.0065269647 -0.18066396 -0.051585253 0.24722975 -0.021530254 -0.04155394 -0.15637295 0.23441195 0.07072968 0.0359505 -0.048113015 0.25457567 0.19317213 0.032192715 -0.13256748 0.22679867 0.012127177 0.15222034 0.0045871465 0.029812718 -0.029184777 -0.021685464 -0.020626357 0.007967628 0.009885386 0.25114495 0.07093826 -0.15340641 0.03887965 0.14871371 0.16353472 0.13509424 -0.13755944 -0.05447602 0.1647727 -0.05816347 -0.08090224 0.05601207 -0.15772428 -0.029351879 -0.01607978 -0.21788217 -0.14734352 -0.07431062 -0.11393974 -0.020409364 -0.03545651 -0.20736168 0.23297614 0.2436309 0.14325456 0.14654393 -0.040469993 0.022584278 -0.14610086 -0.27794155 -0.1337894 -0.018720344 0.049969833 0.37647614 0.34972566 0.12313625 0.070526056 -0.035718802 -0.25413498 -0.40809628 -0.13046215 0.19319938 -0.11537293 0.23577423 -0.049785107 0.049406476 0.03614657 0.22269946 0.3431092 -0.30258667 0.1669996 -0.1642908 0.18468921 0.078829035 0.12880078 0.12000502 -0.14208014 -0.054375887 0.03441463 -0.024932174 0.17011201 -0.15248337 0.28986102 0.24515344 -0.1821692 0.31465113 -0.055973243 -0.10419465
428 0.23000517 -0.114222385 0.2647557 -0.054706898 0.00070440216 0.22302032 -0.14724052 -0.06936377 0.17162807 0.04157002 -0.045662723 0.045957353 -0.05781162 -0.042668596 0.04050549 0.25630057 0.036232702 -0.20496255 -0.21153478 0.12046522 0.013106328 0.1529294 0.14822687 -0.38424027 -0.016298706 0.009507613 -0.03865711 0.192115 0.0161666 0.1816453 -0.032193787 0.1502222 -0.17168373 0.18504377 -0.0253664 0.20702922 0.32940823 0.067971736 0.1867524 0.115687266 -0.02583156 -0.100866124 0.23813154 -0.0801753 0.11620496 -0.057490744 0.0914081 -0.2510698 -0.1398325 0.04495669 -0.17525855 -0.19384678 0.14912038 -0.015549623 0.10498559 0.1709328 0.20953833 0.110265195 -0.20904456 -0.029982409 -0.0506583 -0.08661002 -0.1777787 -0.098532274 0.11470181 0.019534448 0.08100931 -0.048969768 0.034731645 0.090950914 0.13596293 0.08450047 -0.21485946 -0.021428175 0.003453969 -0.23620242 0.036908012 0.044895843 0.16922288 0.30167264 -0.119063154 0.1433355 0.041994948 -0.00942538 -0.1432357 0.17332333 -0.1397686 0.03692492 0.18227227 0.0701739 0.029238343 -0.107717924 0.057828985 -0.020602984 0.2018638 0.024393555 -0.16521895 0.08497765 -0.19562808 -0.2530306 -0.16404328 0.062143967 -0.042686805 0.19368275 -0.14391585 0.04683597 0.048352297 -0.04031113 0.26026654 -0.19390926 -0.0813838 -0.2551998 0.20348784 0.32566005 0.04954814 -0.29074654 -0.10116192 -0.04283708 0.19034737 -0.16851841 -0.157864 -0.1576149 0.18277116 0.049772054 -0.22714803 0.076241195 -0.02131666 0.19855061
577 0.08629297 -0.017935129 0.05163353 0.09627942 0.294996 -0.10100849 -0.21249261 0.030090772 0.21092895 0.15268852 0.044629388 0.0036833098 -0.3346879 -0.0050986335 0.3446465 0.23091725 -0.06978845 -0.19825558 0.15327628 -0.27738765 0.093566254 0.31333894 0.043055214 -0.14944063 -0.07204638 0.16002662 0.073263295 0.09256441 -0.13258834 0.03811706 0.068011284 -0.33049968 0.07834472 -0.18298732 -0.09161402 0.0056896447 0.18388394 -0.006531641 0.24049447 0.16697074 -0.23290631 0.027185906 0.127402 -0.11042362 -0.13361453 -0.1607651 -0.40077275 0.044621438 0.3175282 0.18011938 -0.05606189 0.16650654 0.110120416 0.18609917 0.09942965 -0.14494532 0.2165859 -0.05724527 -0.043786414 0.31270447 0.05627702 0.15149848 0.015639039 0.08710655 0.14697666 -0.12617159 -0.021967616 0.24033006 -0.06935905 0.2537755 0.117955215 0.18179989 -0.122851804 -0.036425732 -0.06889838 -0.3059329 -0.27818805 0.13855988 -0.15398335 0.23134775 0.0650202 -0.18758288 -0.05639766 0.41057822 0.029144414 0.026949419 0.29522148 -0.020056313 0.11177921 -0.04139416 0.032931354 -0.13756028 0.16787572 -0.14386667 0.3924164 -0.18585101 0.018821746 0.068998836 -0.20283037 -0.27024582 0.051990177 -0.27849492 0.07745417 0.15140787 -0.19523019 -0.103178404 0.07158818 0.102843 -0.07892117 0.060020488 0.23895155 0.13073003 -0.19303745 0.09563644 -0.20807263 -0.07666174 0.09599424 -0.05794127 0.1493705 -0.11287626 -0.07152769 0.15349433 0.076662734 -0.3002617 -0.12856728 -0.3787026 0.37125626 0.044245496
475 0.03606382 -0.17592981 -0.056931533 0.04136238 -0.048624318 -0.008208036 -0.19758856 -0.0072937654 0.19075581 -0.15082973 -0.10352675 -0.0447273 -0.002618871 0.0036163342 0.24589437 0.32927197 -0.122196846 -0.07137201 -0.07441415 0.17995776 0.18018508 0.11870967 -0.013525746 -0.21152599 -0.18993518 0.073842764 -0.28920296 -0.029431496 0.20131828 -0.047254108 -0.0722753 0.017468551 -0.06403053 0.07543944 0.008632002 0.1382428 0.22640318 0.06448042 0.2377736 0.07471992 0.0017657834 0.10649579 0.32669973 -0.018059054 0.012196164 0.12871185 0.12573373 -0.028936578 -0.03873096 -0.018521087 -0.19863448 -0.37899992 0.20650966 0.08904718 0.20562245 0.042390976 0.07209075 0.09110477 -0.10618297 -0.073704936 0.05093885 -0.05332208 -0.07545314 0.08522779 0.074720606 0.051838864 0.17468312 0.08743944 0.113009214 0.08686892 0.029884508 0.121824 -0.0985711 0.104735725 -0.007461327 -0.024434883 -0.0018134846 0.16530108 -0.00374818 0.22700737 -0.038075123 -0.031914454 0.048372544 -0.039321348 -0.032211933 -0.03559131 -0.003283859 0.054216087 0.36992586 0.074006036 0.09001015 -0.113556564 -0.14275794 0.18405119 0.08851505 -0.16199298 -0.051114533 0.14840166 -0.17721136 -0.07351855 -0.009343348 0.041673273 0.0020666362 0.0738807 -0.13722144 0.07592513 0.019937066 -0.009891931 0.19180574 -0.0802038 -0.27045566 -0.09446517 -0.032013785 0.14074908 -0.19072017 -0.18245032 -0.15391265 0.10753806 0.16830462 -0.111065574 -0.06513422 -0.04508967 -0.07671557 -0.03370948 -0.040442724 0.18825664 0.0105361 0.043041807
635 0.07127331 -0.14263546 -0.115696855 0.21744037 0.10938831 -0.1702701 -0.18347436 -0.106218785 0.23708026 0.12591574 0.0053030807 0.045666005 -0.12399189 -0.06013432 0.32330132 0.24595636 -0.053229727 -0.3108074 0.1954223 -0.237338 0.047432132 0.3388222 -0.10415845 0.06132562 -0.036656007 0.06863094 -0.2023982 -0.00853915 -0.13309628 -0.032197062 0.112815164 -0.40301093 0.15982553 -0.17626873 -0.0076269694 -0.13068558 0.34677988 0.011519455 0.30762088 0.22974049 -0.25011107 0.015880112 -0.0076223384 -0.021056034 -0.08278354 -0.254936 -0.4350831 0.083923176 0.12297919 0.17814335 -0.020746922 -0.015389479 0.12992105 0.0549092 0.11441772 -0.04112635 0.17180295 -0.1096074 -0.044464238 0.33738706 0.029101096 0.11103321 0.003856208 0.19375011 0.027380107 -0.11310517 0.013699208 0.27197567 -0.0893459 0.26431984 0.20773588 0.17527509 -0.06717772 0.03845265 -0.17048235 -0.3336674 -0.25824526 0.16502142 -0.07528196 0.16401632 0.1545823 -0.06392585 -0.14513348 0.51040006 0.09693806 0.03990913 0.12685873 -0.004989414 0.03976581 0.07030192 -0.00046240288 -0.015469902 0.14523765 -0.117510565 0.35223174 -0.3482993 -0.0002051953 0.079795144 -0.17621483 -0.1490647 -0.03953806 -0.18346968 0.049077768 0.22624959 -0.090057716 -0.23593463 0.12342453 0.09950216 -0.13993417 -0.029001936 0.2003488 0.12957259 -0.046141095 0.17764689 -0.14410101 0.008254802 0.13736422 0.03161381 0.009223395 -0.21447128 0.089113146 -0.067934565 -0.023693752 -0.29446012 -0.15804029 -0.28944713 0.20216456 0.051403653
640 0.09802806 -0.017034696 -0.025779193 0.1555621 0.20335968 -0.038744364 -0.20062447 -0.005008515 0.21506673 -0.048077077 0.026304029 0.05556653 -0.24453373 -0.11939203 0.40508056 0.13267414 0.077017 -0.18547608 0.23129871 -0.20069088 0.14675562 0.3411935 -0.110136054 -0.00587866 -0.09403988 0.10208713 -0.016227692 0.054488696 -0.059455402 -0.07950968 -0.0053281276 -0.33306983 0.08097427 -0.19594589 0.075548336 -0.090888195 0.25679877 0.033707246 0.30225495 0.2112338 -0.37145907 0.015705744 0.0741886 0.034366544 -0.02330292 -0.13109863 -0.4258522 0.124568574 0.10954189 0.10578968 -0.0009502825 0.1218524 0.043534104 0.17315267 0.107803196 -0.041967336 0.1835145 -0.067961365 -0.06398491 0.3369399 0.11764128 -0.013394564 -0.011516436 0.1432334 0.108227864 -0.2221051 0.112934805 0.25184205 -0.28283516 0.19593632 0.081366986 0.20495233 -0.18004368 -0.06824259 -0.1695205 -0.24164128 -0.25038558 0.035616364 -0.0690746 0.2726497 0.079930365 -0.1412556 -0.012081664 0.54098725 0.10296642 -0.051784724 0.21434237 -0.098977804 0.062676154 0.023787279 0.026306193 -0.13540877 0.2573629 -0.12691963 0.3167028 -0.24469069 0.07168511 0.049180597 -0.28033185 -0.14500265 0.01320183 -0.19619715 0.18139909 0.25069886 -0.15536891 -0.36410347 0.107428454 -0.027152533 -0.08520294 -0.04610026 0.17884582 0.18789753 -0.1450045 0.04392387 -0.19927639 0.002596955 0.20427191 0.09332241 0.059977036 -0.061612 -0.08127567 -0.036308132 0.050042555 -0.34943908 -0.14386201 -0.38214123 0.26460257 -0.04793453
400 0.11969932 -0.18037713 0.046878505 0.07088754 0.04304878 0.21137086 -0.19531924 0.03886854 0.16629355 0.046934724 -0.14737998 0.01346954 0.012703882 -0.021958388 0.1304142 0.274523 -0.15241374 -0.096809775 -0.04259064 0.16689293 0.0011755087 0.14927214 -0.0657599 -0.2412335 0.05562322 0.07062 -0.21626702 -0.015345739 0.07140555 -0.030533388 -0.060628068 0.02125227 -0.19394411 0.15405291 0.0526539 0.13618444 0.28345388 0.16347916 0.19401471 0.0405758 -0.019355727 0.08416631 0.26956815 -0.053158026 0.045316204 -0.04533357 0.25548574 -0.077400476 -0.10473157 -0.04339261 -0.028858112 -0.1782374 0.24744584 0.022347596 0.22322908 0.21694632 0.16110955 0.12801306 -0.060021672 -0.0026605835 0.071584314 -0.0999926 0.104728326 0.06580235 0.0884038 0.02209432 0.18484588 0.0074838134 0.1553862 0.010032695 -0.036703594 0.02389169 -0.17025949 0.019711303 -0.0063429205 -0.07308745 0.00993343 0.16333324 -0.0023550955 0.123266965 -0.03752941 -0.04196367 -0.10701162 -0.02839892 -0.12704845 0.0812972 -0.06336741 0.12282029 0.19701222 0.06072951 0.05524895 -0.15717538 -0.110487446 0.043011576 0.12618558 -0.13656329 -0.050581142 0.09352758 -0.22840324 -0.09175624 -0.15559798 0.02391042 0.040232506 0.18384351 -0.11252332 0.09527615 0.057095595 -0.13418372 0.13407454 -0.099812165 -0.19166024 -0.22262366 0.14183499 0.04879131 -0.09429707 -0.1600533 -0.15587784 0.036241762 0.13638964 -0.09562682 -0.23101002 -0.09134515 -0.16330226 0.05622951 -0.10320848 0.12090851 0.019208416 0.06965714
630 -0.038653616 -0.2762275 0.06485187 0.047794264 0.17283633 0.014511205 -0.010919616 -0.15705185 0.09654338 -0.05791934 0.078603506 0.07380904 -0.222006 0.067316286 0.082092285 0.098081976 -0.25192896 -0.15973079 -0.21272364 0.030395804 0.098256886 0.20847487 -0.1489747 -0.21888372 -0.13503508 -0.07280877 -0.13869563 0.0598152 0.05126944 0.0037852442 0.00822288 -0.046169788 -0.09054036 0.19445917 -0.026359743 -0.024926877 0.16797335 0.26081908 0.107456796 -0.032432605 -0.00025513946 0.24540731 0.033979636 -0.018946167 0.0629769 0.21450673 0.27900413 -0.009965483 -0.15348515 -0.018441504 0.057226446 0.018585902 0.08575896 0.15667632 -0.11346272 0.30085018 0.08526321 -0.030799076 -0.11472403 -0.04551811 0.19761628 -0.11196233 0.37166244 -0.02791905 0.077324785 0.020237288 0.08694764 -0.043844692 0.11072579 -0.08159973 -0.054691467 -0.11950551 -0.22698303 0.05049068 -0.17244996 -0.24570188 -0.15476137 0.020536963 -0.28049672 -0.04019458 -0.11204294 0.024535958 -0.05060191 0.2546004 -0.11623411 0.12177028 0.11296645 -0.063090414 0.13676994 0.07192579 0.13778786 -0.22496144 -0.17821515 0.15371935 0.045481656 0.1257051 -0.046275057 -0.1240236 -0.10673363 -0.16382894 -0.13222906 0.11589732 1.7965007e-05 -0.0020954623 -0.11643183 -0.01159684 -0.15185499 0.078245334 0.08266496 -0.17596984 0.16216199 -0.2761802 0.08792659 0.06459449 0.052218936 -0.04865841 -0.10262132 -0.143129 -0.058231875 0.017811382 -0.08724368 -0.18285461 -0.0024774307 0.14269629 -0.15082873 0.32943016 -0.15780336 -0.031676363
378 0.08562869 -0.15940018 -0.022552818 -0.0006260123 0.0041362657 0.072439514 -0.15178566 0.09108758 0.2617534 -0.11576794 -0.04196506 -0.037267078 -0.026198482 -0.00045695688 0.19963259 0.3725773 -0.071051404 -0.103215106 -0.029659055 0.16431193 0.19130772 0.12898752 -0.043743048 -0.18047924 -0.03872209 0.120720714 -0.2448217 -0.06032411 0.12488236 0.083266445 -0.03870736 0.010502763 -0.010003979 0.034718294 -0.0610702 0.1619748 0.23829986 -0.030536868 0.20285451 -0.05719132 0.05115509 -0.009367735 0.3689794 -0.119270034 0.05023756 0.03991978 0.22337526 -0.18393701 -0.16965617 -0.015420215 0.027971802 -0.17834526 0.14177838 0.050138857 0.22854695 0.022024592 0.08261763 0.22769459 -0.09254953 0.014342965 0.009680517 -0.18261561 0.07137508 -0.026750447 -0.09252119 0.1611071 0.08098259 0.06860433 -0.014124661 0.012205458 0.07623999 0.044759706 -0.14316075 0.13893585 -0.050918963 -0.19659957 0.013579504 0.096573725 0.04515047 0.24443613 0.006606855 -0.023569485 -0.056608126 -0.1001509 0.01255716 -0.011354462 -0.01623127 0.077375144 0.2254794 -0.087148204 -0.14336188 -0.07605668 -0.05626634 0.098286204 0.17373668 -0.10200524 -0.011929525 0.066688076 -0.24460366 -0.1549204 -0.10574907 -0.025901632 0.052356582 0.13457087 -0.057272684 0.1195218 0.10601953 -0.034838304 0.105927706 -0.12291756 -0.17143126 -0.03569164 0.013042484 0.05816249 -0.13141373 -0.1623466 -0.1069996 0.029184582 0.16767696 -0.09844156 -0.09669135 -0.047052953 -0.11455051 0.023787972 -0.06632858 0.1029415 0.0077923466 0.13068426
465 0.13863854 -0.21929742 0.15913652 0.10582747 -0.07366804 0.1370777 -0.20676203 0.02022952 0.23999618 0.04953383 -0.101717375 0.11480089 0.005270672 -0.028416594 0.13181758 0.41974363 -0.08482665 -0.077882946 -0.00061630656 0.22296433 0.04857334 0.16222407 -0.103575125 -0.22365731 -0.09179537 0.13669345 -0.24191587 -0.0044995844 0.05033563 -0.09139566 -0.08562988 0.21981013 -0.06612535 0.17274055 0.055670317 0.003318874 0.27349317 0.10635494 0.11595455 -0.019718114 0.044277117 0.045196924 0.17564225 -0.021318529 -6.9869886e-05 0.024013756 0.1333832 -0.073896885 -0.02653227 0.11869221 -0.027590206 -0.26282653 0.21756473 -0.051655516 0.11691108 0.17177029 0.121648215 0.13130222 0.04913566 -0.046978887 0.15628582 -0.04705775 0.08868347 0.105891794 0.067472324 -0.01154642 0.14872806 0.035159618 0.17062424 0.027382873 -0.019992067 0.1128662 -0.23771837 -0.035376567 0.0063349484 -0.09782384 0.039334197 0.18290685 -0.09533691 0.17915317 -0.02051677 -0.07546576 0.01364999 -0.09452122 -0.0030343167 0.13187617 -0.027361738 -0.04195757 0.19832598 0.05005532 0.05235679 -0.16633886 -0.08112996 -0.016263133 0.013830991 -0.10686668 -0.08474053 0.07602614 -0.075579956 -0.1147203 -0.058896802 0.09240755 0.03951858 0.15795478 -0.13823223 0.1196973 -0.002908035 -0.0016393008 0.097644575 -0.14077744 -0.13832997 -0.097844124 0.040260162 -0.044839002 -0.08661204 -0.2528727 -0.16819659 -0.058192458 0.14424531 -0.08482494 -0.24119997 -0.039714918 -0.0364437 -0.13034451 -0.045352202 0.13039164 -0.016698878 0.088801734
348 -0.07335701 -0.21677986 0.007109908 0.06110566 -0.09343946 0.05567479 -0.21408443 -0.10191313 0.31068537 -0.22357868 -0.12085102 0.011394864 0.024965815 -0.04420131 0.055145696 0.4727472 -0.049164254 -0.05148989 -0.03974055 0.3247323 -0.077474326 0.12217037 -0.09111886 -0.17445295 0.043685436 0.039412767 -0.39214644 -0.07135406 0.20636033 -0.09676676 -0.093950994 -0.03325962 -0.04513174 0.11449535 0.065040044 0.09856705 0.119682774 0.11706866 0.24426621 -0.017340085 -0.036416315 -0.065122575 0.36915416 -0.13106441 0.011961141 0.10237926 0.15957539 -0.10587215 -0.090364024 0.020987125 -0.31750938 -0.2637955 0.07841576 -0.03161325 0.22719719 0.03503626 0.122023866 0.05248923 -0.11941782 0.01986571 0.09717723 -0.15997247 -0.037110023 -0.13354592 -0.04918464 0.085104875 0.088600196 0.13972677 0.071553394 0.05759278 0.11220174 -0.005647975 -0.18426523 -0.094434924 -0.22729269 -0.14106345 0.055197183 -0.0462909 0.012901734 0.16725738 0.048581623 -0.046164665 0.11257189 0.112568155 0.012896376 -0.035307575 -0.08985988 0.034321453 0.35019708 0.055337172 0.027797753 -0.20648167 -0.029299382 0.16462535 0.25085628 0.03262573 -0.09551051 0.2497684 -0.30622673 0.013688741 0.0064000096 0.09822026 0.033736296 -0.03560226 0.00065188337 0.10166028 0.17482384 -0.060224645 0.11094057 -0.2466848 -0.20100357 -0.16838059 -0.01799459 0.017575564 -0.086467534 -0.12132275 -0.23044737 -0.029951645 0.13450465 -0.13908026 -0.14844543 -0.023013419 0.003519526 -0.08925235 -0.004771285 0.012675569 0.03797548 -0.06287809
637 0.07177643 -0.28002903 0.03701684 -0.09514409 0.007219452 0.0150058055 -0.23087627 -0.02657701 0.123541586 0.20205651 0.04813485 -0.080861986 0.052678898 -0.13451086 0.1818599 0.1773916 -0.2919487 -0.22824396 -0.13934699 0.14648575 0.265086 0.12425121 -0.19086304 -0.11406909 -0.23901343 0.2699734 -0.094519265 0.035415515 0.1417749 0.16189884 -0.1549921 0.18091436 -0.18530497 0.055724323 -0.12144338 0.019618535 0.1091742 0.17463796 -0.048854392 0.034647945 0.041607093 0.14500748 0.2888519 0.07283116 -0.040031303 0.26436946 0.20275229 -0.023829581 -0.20081607 -0.0065443935 0.075552665 -0.080250524 0.026313586 0.022412753 0.11122876 0.10401161 -0.04682001 0.17043696 0.03341015 0.16194436 -0.07208999 -0.08167111 0.052946564 0.076857686 -0.049511895 -0.006420492 0.14927143 -0.18226272 0.11915415 -0.05539609 0.15234007 0.097428 -0.073795564 -0.10400706 0.1365266 -0.06354403 0.012358533 0.020841159 -0.01491699 0.11955849 0.10737268 -0.021871932 -0.121826395 0.1550451 -0.05611937 0.101888135 -0.20164584 0.093991406 0.07015208 0.12362482 -0.1494224 -0.040880464 -0.123306565 0.012977585 0.12992612 -0.17730428 -0.05885294 0.0065008868 -0.17365657 -0.2942964 -0.09402512 0.29718512 0.04672955 0.21408269 -0.116190925 0.15799229 0.26427478 0.13871507 0.4661885 -0.13161935 -0.19534582 -0.1344181 0.06995714 0.19238172 -0.30203408 -0.2532511 -0.18889287 0.12790179 0.07627928 -0.09735297 -0.13090493 0.045967862 0.051746693 0.053343665 -0.14990549 0.185134 -0.09895109 -0.014286515
561 0.086613946 -0.13728689 -0.07568528 0.014498254 -0.12999542 -0.034557324 -0.24859017 0.1360647 0.18525073 0.011503984 -0.11103704 -0.16167557 0.0091578 -0.13320406 0.18979226 0.40006602 -0.036049984 -0.022187376 -0.055894893 0.2519031 0.119001254 0.13011853 -0.1392731 -0.01848973 0.001622171 0.11344819 -0.15083253 -0.021053748 0.14764413 -0.12199541 -0.047395702 -0.011145106 -0.009470806 0.08739467 -0.088340886 0.096725136 0.059452374 0.004576792 0.1615259 -0.04303093 -0.1038796 0.001076462 0.28891402 -0.099316135 -0.009961749 0.030896919 0.050566193 -0.1409489 -0.117007084 0.02132415 -0.17339207 -0.27880383 0.20547919 0.021056768 0.13785015 0.1418468 -0.007931246 0.16919476 -0.23149171 -0.21045226 0.00022531846 -0.08948982 -0.0034578978 0.053073823 -0.04004203 -0.009085893 0.24034113 0.07911078 0.11334386 0.013726749 -0.02191834 0.21103168 -0.111050755 0.16785851 0.061241444 -0.26308745 0.006348942 0.11108847 -0.05145032 0.19697964 -0.14141212 -0.10595082 -0.09067706 -0.006872626 0.13302745 0.075167954 -0.025010675 0.029730117 0.34423405 0.06682432 0.100510225 -0.0006581577 -0.017572064 0.11273808 0.18233961 -0.093700774 -0.10866613 0.17106733 0.0043293433 -0.1209682 -0.08936134 -0.112282254 -0.10714199 -0.027909745 -0.18134327 0.111522205 0.15705201 -0.11223555 0.13902596 -0.11012567 -0.16063817 -0.07948817 0.07277322 0.050246354 -0.119161814 -0.26851526 -0.07870358 -0.015432253 0.200998 -0.03297795 -0.19039337 -0.025902515 -0.09389575 -0.11988451 -0.016864466 0.09885771 0.08870858 0.042331174
436 0.17352888 -0.034147877 -0.15425915 -0.029105516 -0.080856726 -0.03976384 -0.164442 0.066753246 0.14714503 -0.052735742 -0.17184325 -0.09531423 0.15836386 -0.18707995 0.16796002 0.36139008 0.14743716 -0.07613177 -0.013347859 0.23824124 0.06723326 0.0142868515 0.07064712 -0.10095771 0.09596147 0.18871915 0.043472745 -0.16764338 0.05126139 -0.026557898 -0.14779495 0.12299583 0.057132814 -0.09373721 -0.21329534 0.08591739 0.19721009 -0.02599533 0.20885022 0.14011519 0.048032835 -0.016563224 0.37297222 -0.06973728 -0.01471561 0.036069818 0.06753244 0.032417905 0.13958979 -0.027496902 -0.0033907893 -0.17666702 0.32369328 0.18470232 0.28402454 -0.019619139 0.2492051 0.14743704 -0.19281891 0.011730706 0.14988327 -0.06607608 -0.15684044 0.20193346 0.019151697 -0.036436964 -0.002303375 0.079988606 0.0504545 0.042583924 0.292539 0.08154756 0.012210406 -0.043961897 -0.008485533 -0.041400388 -0.15042847 0.13724376 -0.04436468 0.18434845 0.00536876 -0.22936605 -0.18374255 0.08060868 0.06922424 0.14505154 0.013844093 0.099697754 0.27201486 0.15592694 -0.14686058 -0.010954772 -0.035940945 0.19703119 -0.013005314 -0.08844514 -0.1695597 0.060314167 -0.15810613 -0.13778052 0.04710605 -0.022947678 0.07094046 0.10047341 -0.350602 0.013116153 0.09358957 -0.07303705 0.12595 -0.090424635 -0.084791265 -0.16333382 -0.0075633633 0.024359154 -0.3143929 -0.12223383 -0.21926785 -0.06147801 0.13754374 -0.10250941 -0.15888874 -0.08038227 -0.060974177 -0.071370035 -0.13029057 0.14126135 0.02410558 0.015136144
599 0.018872252 -0.18205704 -0.08991837 0.046403084 0.12354309 -0.2605476 -0.19516133 -0.12302189 0.31463262 -0.05268209 0.10275895 0.07305307 -0.27485874 -0.14155301 0.31851807 0.24196877 -0.081728496 -0.28672904 0.15765451 -0.30766344 0.06976926 0.47446725 -0.04488907 -0.12930626 -0.16866213 0.20917661 -0.10196726 0.07813573 -0.10897777 0.051896613 0.02167473 -0.36516917 0.24017262 -0.13319571 -0.15820281 -0.006486762 0.32347265 -0.0205738 0.24663882 0.2567429 -0.28966975 0.017611243 0.1386853 -0.008269908 -0.094114736 -0.10653922 -0.39967984 -0.04757833 0.30582243 0.1175008 -0.07707979 0.12813465 0.027335636 0.19033934 0.080550216 -0.17778596 0.18003228 -0.1886169 0.08538414 0.3670232 0.10782358 0.1620221 -0.056232966 -0.02380647 0.22549725 -0.18847139 -0.015360898 0.16696039 -0.3139777 0.25243592 0.17194664 0.13888234 -0.16586412 0.074077465 -0.22205454 -0.19248098 -0.35438755 0.13414808 -0.02322497 0.1134744 0.13581906 -0.20188725 -0.08509728 0.60625803 0.052377783 0.06482806 0.25671396 -0.13843626 0.1689773 -0.08171622 0.082654186 -0.06293928 0.14291148 -0.11615383 0.29587412 -0.33683613 0.19936703 0.09792434 -0.28016147 -0.14558163 -0.009862221 -0.31149757 0.14309578 0.26827714 -0.27789837 -0.26369974 0.02243351 0.0530389 -0.14366862 -0.011781304 0.32362697 0.19364107 -0.22366877 0.13742648 -0.2244445 -0.07139402 0.04481427 -0.16695958 -0.0822595 -0.13425612 -0.036887646 -0.03388957 0.072962254 -0.3167279 -0.19829321 -0.36124787 0.36046952 0.009013376
592 0.07607609 -0.25611985 0.02132973 0.16066723 0.13783284 0.10319459 0.01752344 0.026592946 -0.24312435 0.09248996 -0.07480875 -0.16763845 -0.29201132 0.03177367 0.1616402 0.13093896 -0.31802958 -0.22015662 -0.115889154 0.11624368 0.10421636 0.27615994 -0.21296494 -0.00040525998 0.06551078 0.07754558 0.0736583 0.14133707 0.1131526 -0.18723257 -0.043713335 0.061736763 -0.047248963 -0.013237194 -0.16657862 -0.06642443 -0.12624873 -0.06046508 -0.24541806 0.046254 -0.11799892 0.2150534 0.08484992 -0.030929573 0.17953435 0.28392053 0.015784694 0.18175958 -0.11164939 0.012812347 0.08280476 0.10567237 0.08319254 0.00935454 -0.22875021 0.012350638 0.1997851 0.06243239 0.15847869 -0.06726435 -0.019947995 -0.15023278 0.20790389 -0.036007643 0.014068012 -0.08352134 0.0376037 0.13945253 0.00833457 -0.18134092 0.021337215 -0.044769388 -0.37452605 -0.0562614 0.018052902 -0.21016824 -0.12410213 -0.05078116 -0.17836434 -0.019957703 -0.063401036 -0.45890203 0.027580075 0.090648934 0.15019433 0.11238502 0.056613456 -0.06644441 0.09328384 -0.023315176 0.18165098 -0.17827727 -0.011112845 0.10370108 0.13380754 0.2962626 0.04777787 -0.102663375 -0.05828154 -0.2515618 -0.018183941 0.03401322 0.061011862 0.17837083 0.14908415 -0.2254868 0.06578863 0.17632872 0.095908195 -0.27327392 0.24178608 -0.33690372 0.2192874 -0.09305796 -0.04398862 0.010233022 0.15298459 0.05230867 -0.08839585 -0.032153454 -0.14677398 -0.35550034 -0.13463715 0.2453247 0.036898386 0.32967648 -0.032643404 -0.07031975
391 0.01275048 -0.10775811 -0.056302954 -0.012835237 -0.01586756 0.09367938 -0.3699455 0.112095855 0.20697394 -0.07699804 -0.046654135 -0.0398736 0.05654898 -0.07876112 0.14760272 0.41422862 -0.09441482 -0.1918813 -0.07754393 0.24484758 0.13013913 0.15723331 -0.12401548 -0.048962962 -0.08274861 0.21695301 -0.3744011 -0.20610292 0.105038665 -0.20031625 -0.07603379 0.0015768704 -0.079479165 0.045051105 -0.07757062 0.1250661 0.20127033 -0.031210747 0.1383173 -0.05100898 0.07871978 -0.06247321 0.29869717 0.0024949545 -0.0012867519 0.048263 0.18584354 -0.2893607 -0.06557509 -0.03525804 -0.13924755 -0.18893017 0.15352352 -0.031203855 0.23751147 0.0743829 -0.027668621 0.13504952 -0.046660155 -0.096076496 0.004968555 -0.013098689 -0.03121227 0.026678123 -0.018887907 0.11888351 0.14445285 -0.0691119 -0.0062814075 -0.023266625 0.015854482 0.2263469 -0.1659444 0.029543648 -0.05151068 -0.16780631 0.035090607 0.11990232 0.17664452 0.2077068 0.017939033 -0.05673826 0.0017125902 0.034178354 0.06786682 0.04342954 -0.076317504 0.014851894 0.2517171 -0.03562997 -0.08341644 -0.054490242 -0.0032143707 0.07164782 0.09768658 -0.10287428 -0.021589955 0.15941486 -0.26269478 -0.052892786 -0.16996874 0.065888144 0.0017016478 0.18271895 -0.055827107 0.029345436 0.07035684 0.022634448 0.15998024 -0.16961893 -0.14020923 -0.2563955 -0.017737513 0.0037615746 -0.13968897 -0.21432702 -0.11020144 0.14437328 0.12203358 -0.018659897 -0.01888626 -0.06064718 -0.0955443 -0.07510091 -0.09101247 0.033830393 0.042484313 0.097512074
609 0.04423535 -0.15840128 0.0956147 0.22025183 0.049458504 -0.06748614 0.012981145 -0.10907215 0.07782778 -0.12452187 -0.04857132 0.009368136 -0.06355905 0.023706755 0.0021194257 0.17138116 -0.15028751 -0.29075396 -0.34211972 0.22222562 0.1423366 0.24497588 0.017592397 -0.30241793 -0.01930667 -0.018222172 -0.10558929 -0.022271244 0.14975145 -0.016829269 -0.121296175 0.06573047 -0.040227808 0.10913778 0.0056280787 0.13194525 0.053871326 0.16088551 0.15815854 -0.052333236 -0.048815455 0.10854751 0.10574051 0.04797734 -0.14096819 0.09180098 0.2535827 -0.14741063 -0.19557412 -0.0521709 0.08554673 -0.088728696 0.23707393 -0.035381634 -0.13417257 0.013517182 0.13335381 0.01955273 -0.034472696 -0.06673748 -0.008121965 -0.018829003 0.08796177 -0.17249984 0.038452584 0.015866999 0.11325271 -0.11306538 0.07118209 -0.06196706 -0.14558557 -0.10681687 -0.29602978 -0.08853732 0.09203449 -0.19633076 -0.19118778 0.09799559 -0.22097431 0.056115247 -0.15653776 -0.13363384 -0.040797822 0.17355496 -0.03208965 -0.037789524 0.10171206 0.06662757 0.27361935 0.057035178 0.1524614 -0.26781818 -0.039279297 0.09017571 -0.047115456 0.13724889 0.017504971 0.07709799 -0.093462735 -0.10967979 -0.22706272 0.017416429 -0.0034627293 0.11917722 -0.10197614 -0.16957629 -0.063861944 0.055588335 -0.011456039 -0.15905425 0.016062234 -0.2768751 0.39067322 0.037443474 0.024042757 0.006095629 0.09705934 -0.14205925 -0.00967149 0.11779015 -0.27386346 -0.1867037 -0.07610623 0.12229958 -0.10969966 0.3524123 -0.0509156 -0.0704083
595 -0.06461954 0.06541831 -0.074747585 0.016226916 0.20434268 0.034556095 -0.11620131 -0.13895996 0.1515718 0.14907442 0.027943885 -0.15780061 -0.32225358 -0.14833055 0.3848154 0.100374654 -0.12653638 -0.15770923 0.19121717 -0.20275883 -0.023482123 0.3453015 -0.1122872 0.16025685 -0.10422357 0.19865873 0.054049868 0.17084569 -0.16018511 -0.05350454 0.0891055 -0.39915755 0.07363043 -0.13198583 -0.09478092 -0.08275403 0.27111405 0.034713175 0.24024226 0.2562545 -0.25204527 0.085308045 0.07739957 -0.072881885 -0.12541537 -0.04151491 -0.30978882 -0.013750601 0.16957992 0.16943164 0.0022293872 0.18131208 0.04843804 0.039901752 0.021446176 -0.17726377 0.2157975 -0.040304758 0.043813936 0.3402002 0.013220589 0.043717 0.016604032 0.02230212 0.22761133 -0.11613061 0.0500065 0.12346294 -0.2036502 0.12180217 0.054683153 0.1614257 -0.2646845 0.08331386 -0.26748472 -0.27308172 -0.33311218 0.21568596 -0.2255678 0.26425403 0.08351193 -0.07361298 -0.09445323 0.37359574 0.10441913 -0.10004845 0.31615278 -0.08729675 -0.0014105273 0.035284884 0.104535095 -0.025506994 0.3540905 -0.06951282 0.25847167 -0.42174527 -0.075910635 0.13679273 -0.3085399 -0.24266016 0.026675195 -0.19291037 0.08338534 0.2959609 -0.04718713 -0.25944865 0.14718428 0.063586414 -0.030884143 -0.08636265 0.13195623 0.19825286 -0.1853745 0.034437563 -0.25785968 -0.060466025 0.07119016 -0.02786032 0.15759444 -0.12584469 -0.1199283 -0.0056535206 -0.0064233346 -0.2835356 -0.14751652 -0.53231394 0.36316547 0.15441196
559 0.16328646 -0.3113647 0.042056482 0.05855298 -0.048276708 0.1870119 -0.23116297 0.07507023 0.08541858 -0.09897034 -0.120469436 0.0727432 0.03200313 0.019248964 0.24782027 0.3957899 0.0132482955 -0.009524487 -0.0025642943 0.13277145 0.104562975 -0.031235443 -0.1724599 -0.20066142 0.017482553 0.1003638 -0.08532631 -0.02907514 0.22161166 -0.15703163 -0.032393247 0.086767256 -0.026099127 0.1853089 -0.086811215 0.21451734 0.16156109 0.034119755 0.1393681 0.08244628 0.06472816 0.017301427 0.48104376 -0.08037141 -0.019511273 0.008975159 0.10962021 -0.089982845 0.050090846 -0.08565742 -0.085118726 -0.19872372 0.29275462 0.16636312 0.053604357 0.10642011 0.13706706 0.07893099 -0.007967187 -0.012520302 0.07023646 -0.16002603 -0.094604805 0.0046297573 -0.0575028 0.015592624 0.16839875 0.092358656 0.029478064 -0.042770047 0.038851056 0.051723834 -0.12293035 0.1223794 0.023181653 -0.078785196 0.024273941 -0.018310886 0.12271367 0.33702973 -0.060051546 -0.15456025 0.10544026 -0.041029453 -0.04574404 0.03221664 0.046730485 -0.0023246934 0.3750352 0.046977554 0.054710276 -0.14995582 0.015292329 0.20783491 0.10788984 -0.22936814 0.031529583 0.18000765 -0.22082366 -0.03430797 -0.09190963 0.12775756 0.010261178 0.00019984895 -0.16310655 0.20217727 0.18005913 -0.12602949 0.23193954 -0.034241818 -0.1454997 -0.06344531 0.08939651 0.03598603 -0.18820152 -0.20900267 -0.15210961 0.070876 0.13917707 -0.16684808 -0.14441626 -0.087848894 -0.21214825 -0.07290949 -0.033521507 -0.038918402 0.13891436 0.07412137
363 0.22738989 -0.14516276 0.18672064 0.06376085 -0.21647418 0.12569708 -0.17926413 0.089128815 0.3300122 -0.101606146 -0.23867019 -0.18084079 0.082430765 -0.17385265 0.2899777 0.28035393 -0.046951775 -0.079367794 0.011409139 0.1289829 0.19264333 0.12555486 -0.09556144 -0.08808175 0.0754079 -0.023244374 -0.20744283 -0.18817897 0.05080707 -0.21929432 -0.16562939 -0.004667203 -0.123943634 -0.024020934 -0.044990264 0.19687337 0.22014497 -0.059823785 0.13778573 -0.01942226 -0.25920793 0.10090783 0.19414702 -0.21063435 -0.021736953 -0.008710997 0.16544193 -0.14653663 -0.22278139 0.13426915 0.051918183 -0.2984405 0.14873363 0.013224751 0.27611893 0.18829481 0.2544539 0.17520829 -0.26476207 -0.035214696 0.039904866 -0.13965489 0.055335935 -0.032329243 0.052682575 0.17587869 0.16141786 -0.044522945 0.09587574 0.09652912 -0.07030481 0.04215773 -0.122656524 0.087193124 0.04501017 -0.14344314 0.055730592 0.22509885 -0.06822282 0.16149315 -0.00027318115 -0.08512839 0.12679216 -0.1424052 -0.049896188 -0.07428173 -0.048588723 0.09947632 0.23742269 0.014064334 -0.12491988 0.01943951 0.12986813 0.12679817 0.00569071 -0.10249294 -0.026856476 0.1638189 -0.14590465 -0.16231696 -0.09353973 0.048869878 -0.015973741 0.101867415 -0.095407255 0.058471955 0.12933628 0.056942284 0.16841647 -0.16253687 -0.17882231 -0.054028355 0.031931173 0.17598252 -0.27705544 -0.1755294 -0.05557071 0.118201695 0.22612657 -0.20051412 -0.20640734 -0.10052773 -0.21097864 0.096112564 0.11103912 0.12994401 0.057584155 0.091972545
581 0.14808384 -1.0882964 -0.15710919 0.6071398 0.18590467 -0.037563834 -0.68409765 -0.07371552 0.06491462 -0.30198345 0.11451233 -0.67892337 -1.0741926 0.24829033 0.93853915 0.6878041 -0.79865074 -0.5182139 -0.44142365 0.18892488 0.72171015 1.1748686 -0.7443869 -0.11701483 -0.33961433 0.41342652 -0.58661777 0.14077863 -0.014474661 -0.343626 -0.46090457 -0.2812977 0.13996254 -0.30002898 -0.36801434 0.37235987 0.18476626 0.05969885 0.33998138 0.5029938 -0.51506406 0.9510861 0.83929306 -0.20429395 -0.10687517 0.4543721 0.029547889 0.3468992 -0.43619514 0.32965094 0.28556457 -0.03052818 0.7414696 0.012914182 0.042434298 -0.28353348 0.652541 -0.2587766 0.18883863 0.5649333 0.1765402 -0.29291773 0.40388152 0.39145866 0.7384335 0.25448757 -0.16305578 0.7224865 -0.002151958 -0.27615374 -0.20655411 -0.008887917 -1.3431257 -0.22252996 -0.16627964 -1.1278677 -0.60329616 0.20498286 -0.5816834 0.32266024 -0.20364915 -0.9238552 0.13372107 0.9622326 0.30363765 0.23694852 0.59314233 -0.13003774 0.48760346 -0.45148996 0.43065643 -0.69781244 0.19608745 0.45623514 0.8779328 0.27461228 -0.19331318 -0.07364683 -0.7476265 -0.9338047 -0.20440026 -0.10448405 0.21707758 0.9588111 -0.5562956 -0.80931944 0.23462152 0.7118595 0.08844818 -0.85070074 0.9014768 -0.70383567 0.35320368 0.5496463 -0.61087817 -0.3494727 0.18094619 -0.39596087 0.044444844 -0.258629 -0.4500349 -0.74555266 -0.0535188 0.09350394 -0.28958887 0.37185803 0.18931943 0.18836631
642 0.15054367 -1.0759245 -0.14498988 0.5943011 0.18400155 -0.02190611 -0.685214 -0.07710184 0.06856431 -0.29160625 0.12032987 -0.6683016 -1.0704603 0.24657422 0.92671776 0.68630785 -0.8097946 -0.5206964 -0.43859738 0.18831573 0.7242564 1.171021 -0.7321567 -0.11810081 -0.35225186 0.4116787 -0.56860334 0.14417017 -0.00032666526 -0.35103783 -0.45266291 -0.2818144 0.13945162 -0.2880749 -0.3617482 0.37014264 0.1925775 0.07123952 0.34801638 0.5030677 -0.50445455 0.95226496 0.8330904 -0.19896102 -0.095831424 0.461263 0.026955247 0.35389534 -0.43794242 0.32083923 0.28014025 -0.026493063 0.72940266 0.026848754 0.049267232 -0.2751338 0.6483477 -0.25749317 0.18780772 0.5514948 0.16860116 -0.28988793 0.41782176 0.40533575 0.73303497 0.24219665 -0.1471147 0.711094 -0.004893338 -0.2778502 -0.2053357 -0.008420179 -1.3394321 -0.2124741 -0.17198974 -1.1134729 -0.59496456 0.19686024 -0.58258885 0.33301535 -0.1951627 -0.93207383 0.13288163 0.9638547 0.30532184 0.23225014 0.59226024 -0.12554026 0.4822894 -0.447156 0.41893896 -0.68848807 0.19633347 0.44966853 0.8762006 0.27124593 -0.19799633 -0.06702375 -0.7469962 -0.9254344 -0.19729336 -0.0992724 0.20568408 0.9479978 -0.546823 -0.80111104 0.24058984 0.7103852 0.087758146 -0.8378684 0.89471143 -0.69721806 0.35679176 0.53868914 -0.59916574 -0.35023567 0.18397924 -0.38268584 0.047870647 -0.260544 -0.43735564 -0.737062 -0.056353595 0.08769279 -0.29078826 0.36211357 0.1934394 0.16941492
438 0.032999985 -0.23077507 -0.182871 0.04735799 -0.12204216 -0.035514206 -0.18653972 -0.029847385 0.14805685 -0.02812973 -0.12819041 0.043133885 0.04590738 -0.05155471 0.15503019 0.39401966 -0.035607517 -0.04386899 -0.013445062 0.2212006 0.14896673 0.16719897 -0.20428638 -0.12109689 0.0703683 0.04184984 -0.27343738 -0.10227403 0.23694357 -0.037386842 -0.018972207 -0.064215116 0.12690577 0.22684963 -0.28515646 0.22720969 0.23051819 0.1548134 0.35776588 -0.012603624 -0.026475284 0.09413877 0.29293704 -0.08953074 -0.015942283 0.052898426 0.1568003 -0.04451948 -0.10422375 -0.09256195 -0.0649749 -0.26746058 0.19454315 -0.032090772 0.11169122 0.04890758 0.046800714 0.14858323 0.052951522 -0.085878626 -0.033734012 -0.07467009 -0.11310048 0.13406274 -0.11930486 0.16372555 0.100493066 0.067121975 0.04342555 -0.121422276 0.09800469 0.030709505 -0.087099895 0.01705231 0.16238914 -0.14902587 0.012324247 0.07381192 0.08279148 0.21849811 -0.090903476 -0.11713378 -0.042739753 -0.0079664225 -0.021221327 -0.06506575 -0.10229726 0.05032765 0.22359115 0.035596717 -0.05646848 0.010895277 0.036142018 0.1394737 0.20894253 0.0068138274 0.010842155 0.16650638 -0.16963851 0.038415458 -0.14073877 0.11099042 0.12978141 0.0820379 -0.12574646 0.087371774 0.115750335 0.07366146 0.09413588 -0.0023047337 -0.062907286 -0.091502 0.030075498 0.13579166 -0.17070644 -0.017450057 -0.13505527 -0.030496698 0.18009265 -0.090481006 -0.279007 -0.08477337 -0.036532972 -0.023308886 -0.053486243 0.09990675 0.0025665734 0.11647101
395 0.015419645 -0.25411096 0.27181286 0.124247804 -0.0036065185 -0.021928113 -0.32485285 0.01224275 -0.047533203 0.032785725 0.073170885 -0.06357189 -0.051798046 0.075769044 0.24574855 0.3684239 -0.15548773 -0.11297327 -0.0787491 0.101049386 0.21184742 0.04530266 -0.13592376 -0.16883011 0.020892154 0.0033993216 -0.28743356 0.01250897 0.08481797 0.021719426 -0.016090695 0.111150436 -0.20509641 0.057990987 0.036448494 0.013319955 0.26044083 0.2863841 0.20545948 0.00107179 -5.1954503e-05 0.09266507 0.14052872 0.22424284 -0.12411098 0.029286478 0.23937586 -0.102366604 -0.07691227 0.050707642 -0.05736331 -0.16912541 0.2227693 0.009345565 0.10565981 0.12946533 0.059988026 0.011507927 -0.060752045 -0.03633841 0.09655968 -0.11872983 0.05248904 0.054995894 0.018089447 0.074186385 0.07809814 -0.12979357 0.1337537 0.12812798 0.021926725 0.08805835 -0.012905972 -0.0036521486 -0.0023960185 -0.178934 -0.020793635 0.109676085 0.05410016 0.22005981 -0.07012194 -0.09237685 -0.02227822 -0.03012269 -0.07650943 0.17038721 -0.068412095 0.018338967 0.19020358 0.1046869 -0.104711175 -0.03948096 -0.17420965 0.09513705 0.21365981 -0.21184254 0.036800344 0.02464685 -0.118907675 -0.21996649 -0.07548339 0.22377424 -0.06278161 0.08644209 -0.094946645 0.004656042 0.050336342 -0.22625436 0.12260101 -0.07286905 0.11006692 -0.22262105 0.0868608 -0.10416676 0.12612447 -0.113155454 -0.16206963 0.070023626 0.1705229 -0.003859288 -0.14809082 -0.017507203 -0.11414039 -0.07490688 -0.2460052 0.13806808 -0.09495145 0.13686362
506 -0.0021419378 -0.22178218 0.000629666 -0.019113228 -0.058898754 0.009862793 -0.05071099 -0.01830884 0.18452376 0.0355347 -0.06294861 0.04119338 -0.015332227 0.05485747 0.121517904 0.57307553 -0.044666514 -0.09389208 0.0107914 0.2400281 0.08182275 -0.058194302 -0.07242645 -0.13702334 -0.14587003 0.08794896 -0.28128895 -0.09262463 0.18989913 -0.052932486 -0.10088136 0.1046807 0.026522327 0.10318963 -0.1241075 0.083647765 0.2205325 0.09949228 0.10293737 -0.040895253 -0.0430769 -0.09939344 0.3608344 0.008054433 -0.04201701 -0.027712325 -0.03394571 -0.24959186 -0.193862 -0.04385554 0.0007462605 -0.3821732 0.13509795 -0.08116317 0.13858908 -0.05498541 -0.015071495 0.111626945 -0.08165644 -0.08576352 -0.05319341 -0.053730927 0.04647069 -0.04366634 -0.0099082 0.017894087 0.10523965 -0.005678576 0.203163 0.009782157 0.14970322 0.17849801 -0.113533236 0.16388965 0.008344804 -0.18507312 0.006966069 0.10191176 0.06153461 0.17186564 -0.08186295 -0.06284206 0.034081336 0.07927674 -0.035810817 0.05174706 0.042085294 0.11496917 0.3758269 -0.099797525 -0.016869191 -0.08399856 -0.06185766 0.02181922 0.19866084 -0.049564462 0.05048667 0.18409203 -0.0498514 -0.20472352 0.01119783 0.13640083 0.124038726 0.18051267 -0.15775025 0.14261787 0.03463247 0.04478428 0.17140928 -0.09174962 -0.16358034 0.02053497 0.05106179 0.018069651 -0.15308903 -0.24714872 -0.13549848 0.08479831 0.31063056 -0.15609482 -0.15168215 -0.3045908 -0.022968793 -0.06347275 0.10692917 0.09670785 0.0456541 0.08512336
500 0.048800502 -0.16228892 0.18024917 0.022856386 0.021410555 0.044553958 -0.014007199 0.02770935 0.16839929 -0.0400922 -0.026741538 -0.019544717 -0.15320984 -0.018005908 0.19168118 0.17779739 -0.1984562 -0.09143923 -0.06928769 0.16569862 0.19802795 0.26351056 -0.17057393 -0.16728428 -0.16171174 0.049623292 -0.21802637 -0.08366684 0.066889085 0.10095465 0.12701793 0.11595718 -0.03616676 0.039406497 0.07724046 0.086458854 0.23884399 0.11343162 0.20415346 0.046261247 -0.00895255 -0.04823621 0.27317014 0.016748292 -0.078103125 -0.038363613 0.09341066 -0.10659829 -0.112308145 -0.0489201 -0.08654968 -0.30580664 0.16017069 0.10817638 0.12371156 0.1710927 0.17316647 0.101796426 -0.092184156 -0.028550483 0.20931679 -0.1436075 0.05186162 -0.02798258 0.060807377 0.05299031 0.17490609 -0.1350276 0.12826392 0.0037618182 -0.07035995 0.08970553 -0.13007899 0.038404766 -0.0061353175 -0.22748321 0.08318772 0.010413725 0.030938242 0.15702206 -0.22903906 -0.12562928 -0.11735028 -0.035473235 -0.014526639 0.083738565 -0.080933444 0.257545 0.27239102 0.0682219 0.05385075 -0.17241132 -0.005436533 0.032419 0.10174749 -0.06299261 0.027930537 0.044090062 -0.23384899 -0.04184718 -0.029718488 0.1103938 0.021367367 0.14669763 -0.09492218 0.15364021 0.17457859 -0.09497512 0.14734277 -0.10214913 -0.25834018 -0.10253895 0.20380329 0.045367274 -0.1267656 -0.22747032 -0.20498602 0.049228266 0.10272538 -0.09586543 -0.1952517 0.07510304 -0.14880748 -0.1583903 -0.09654956 0.06609631 0.13992962 0.10955012
544 0.16983265 -0.1330545 -0.06328189 0.03611682 -0.18499051 0.14704564 -0.2479344 0.19712913 0.12400393 -0.10980214 -0.16713533 -0.042320743 -0.06895857 -0.0018005946 0.24659044 0.39987683 -0.07472344 0.06506501 -0.049188744 0.1095471 0.16917866 0.08754887 -0.011280634 -0.10752175 -0.16729595 0.04034454 -0.21225296 -0.1097422 0.20345011 -0.049729865 -0.104995966 -0.06438782 -0.033528093 0.17595549 -0.04082358 0.2706001 0.19207303 0.0996497 0.19425482 0.05893891 -0.0613689 0.0032888977 0.23728 -0.04991605 0.0098524345 -0.01343729 0.1673782 -0.09049417 -0.06057068 -0.11971841 -0.07008691 -0.19794118 0.0783552 -0.02015261 0.2299758 0.09031983 0.051632527 0.018890576 0.021569708 -0.14900763 0.08502392 -0.19311255 -0.030269282 0.0021601117 0.13155866 0.12587307 0.21149981 -0.02244181 0.1306332 -0.06240807 -0.055784054 0.13432126 -0.17977671 0.079883546 0.09782918 -0.03017726 0.024221944 0.18167527 0.13610765 0.33040118 -0.087712094 -0.22079486 -0.0770609 -0.002256235 0.024054574 0.020069797 0.0516515 0.16571712 0.29150382 -0.0075788754 0.08806678 -0.020105153 -0.0068171057 0.27357787 0.104226895 -0.15556249 -0.021349313 0.12575667 -0.16181932 -0.124540456 -0.07684403 0.095262446 0.041226797 0.2204503 -0.19903713 0.0960696 0.20690204 0.011581204 0.047834747 -0.10393669 -0.2727093 -0.06860555 0.03987905 0.19115204 -0.07187986 -0.12660831 -0.12955333 0.08374263 0.2134339 -0.042725746 -0.22081076 0.047934115 -0.23049232 0.04096023 -0.11957501 0.12489079 -0.030180028 0.08725823
683 0.17109275 -0.19791593 -0.041158576 0.0640537 -0.11846496 0.153971 -0.1305491 0.044522297 0.09805585 -0.08597775 -0.15578583 -0.020981997 0.12545696 -0.06237079 0.021241575 0.44041657 0.069443785 -0.18053974 0.15676075 0.08273763 0.070828505 0.01813498 -0.17389987 -0.2652747 -0.010308507 0.048707068 -0.23555695 -0.0024141197 0.06558934 -0.069069386 -0.07940134 0.046482697 0.1345928 0.24634528 -0.0021890025 0.15890184 0.10935729 0.07689142 0.12911879 0.10409607 0.10223336 0.046224844 0.38735008 -0.09844431 0.008490928 0.10251045 0.17459898 -0.17609547 -0.1093134 0.072997086 -0.11979756 -0.1629721 0.26833922 -0.066154584 0.23126562 0.040342852 0.21080114 0.16281489 -0.03620588 -0.09253269 -0.018621078 -0.17034431 -0.06313154 -0.10034653 0.03650838 0.12013691 0.2760312 0.041562486 0.04978737 0.14344943 0.0300338 0.04205367 -0.11488896 0.15401675 -0.024776492 -0.03748327 -0.013072328 0.17618993 -0.06300894 0.3157456 -0.048212267 -0.041248173 -0.11999948 0.09193882 -0.08733694 0.04277564 0.018167503 0.013550407 0.24520837 0.10776163 -0.0062390184 -0.1144698 -0.06482034 0.13760173 0.21218607 -0.05375493 -0.00029816767 0.118515946 -0.14145243 -0.14042643 -0.06989036 -0.06653376 0.0805863 0.14412718 -0.0721046 0.081295505 0.061854895 0.0029553352 0.20650919 -0.06679155 -0.044110153 -0.057553127 0.09083121 0.058147885 0.0045359493 0.02382585 -0.14147505 -0.0028424717 0.13425168 -0.18596396 -0.23000088 -0.09043814 -0.09544957 -0.031873908 0.0019291121 0.086545095 0.12085455 0.214241
661 0.017227292 -0.019193701 -0.06866135 0.21800564 0.12970887 -0.1597913 -0.14159462 -0.047460716 0.24745029 0.08123201 -0.037646428 -0.06618562 -0.23136094 -0.24432087 0.34667444 0.07048457 -0.033456378 -0.22400616 0.15330689 -0.17067207 0.0074796686 0.37725937 -0.115832224 0.027931552 -0.102952145 0.21454751 -0.024148919 0.123582184 -0.024334062 -0.18196097 0.08895091 -0.32429934 0.10350963 -0.19139585 -0.13049343 -0.10201748 0.25102547 0.080439314 0.21698236 0.12758406 -0.32942122 0.0413731 0.041632574 -0.07247548 -0.06759424 -0.20331544 -0.38347253 -0.011501414 0.22769015 0.14198743 -0.0011270983 0.19267693 0.12827493 0.06440767 0.11367177 -0.21296194 0.20731036 -0.14512539 -0.0023973817 0.26952854 0.047856025 0.072355315 -0.031502165 0.114963815 0.19948883 -0.20363219 0.09703822 0.15521438 -0.17911942 0.2367737 0.18353455 0.22202495 -0.19048022 -0.024242584 -0.20036119 -0.1943586 -0.24567313 0.13032562 -0.25623575 0.17589413 0.08092098 -0.10901488 -0.0010996115 0.47052222 0.24147734 -0.029737027 0.19257611 -0.19937481 0.15122056 0.02289197 -0.051431313 -0.106684655 0.1867185 -0.11483947 0.26406094 -0.30098325 0.08192112 0.18688852 -0.21756333 -0.31911576 -0.03570237 -0.24759448 0.18652771 0.20454505 -0.11435392 -0.19320524 0.1274184 -0.07635304 -0.06505385 -0.057293925 0.13662025 0.26934776 -0.08630878 0.16014738 -0.24078625 -0.011376555 0.047553577 -0.13671075 0.07588474 -0.21341856 -0.122924834 -0.14371344 0.05157829 -0.30876812 -0.06666988 -0.34847692 0.24846643 -0.10065786
606 0.11322303 -0.18129833 0.052824624 -0.081722215 -0.012528122 0.06381014 -0.2704089 0.06776048 0.1878265 -0.18123074 -0.15427275 -0.00020707106 -0.041336015 -0.06885239 0.22897711 0.355382 -0.06521627 -0.10971401 -0.023105873 0.2369368 0.16710623 0.18619937 -0.061255295 -0.113633946 -0.0667719 0.09634064 -0.18882401 0.02114692 0.072591476 -0.08995175 -0.14105473 -0.016237564 0.03563236 -0.006733303 -0.06497439 0.01112939 0.2286186 -0.13156968 0.15006576 -0.038724106 0.06915499 -0.06509611 0.2942557 -0.05444374 0.050527416 0.1710572 0.03142401 -0.15295969 -0.21166135 0.037414376 -0.1956661 -0.39411104 0.119809 0.015330418 0.24727531 0.26035598 0.16882384 0.26851988 -0.18844114 -0.16412511 0.07233701 -0.09010987 0.0676604 0.113257594 0.012943032 0.14948654 0.20591713 0.097937286 -0.07896305 0.01056977 0.08851278 0.12836908 -0.20294967 0.06432708 0.009648753 -0.100032575 -0.0051483186 0.08441716 0.13141613 0.20122352 -0.029176392 -0.042174328 -0.06370529 -0.03573616 0.0009208097 0.06090962 0.0032710817 0.09709592 0.20432124 0.021345513 -0.080928184 -0.09513757 -0.12873314 -0.10136289 0.04289124 -0.159463 -0.12616467 0.023365036 -0.16557004 -0.112187564 -0.10401739 0.050253693 -0.04668525 0.20422344 -0.11434668 0.10215521 0.030086989 -0.03726008 0.12386878 -0.11479622 -0.15659441 -0.013433446 0.029076932 -0.012133734 -0.050932556 -0.16039254 -0.051144898 0.049491525 0.20347893 -0.0803997 -0.16641858 -0.01804162 -0.12902167 -0.17745538 -0.0640746 0.079051584 0.08280681 0.10706616
579 -0.022759838 -0.25606835 -0.02122236 0.23814318 -0.03677309 -0.032702483 -0.053400155 0.060939133 -0.13379008 -0.051918514 -0.031135583 -0.12748562 -0.18991974 0.13002701 0.1845335 0.108964466 -0.12279019 0.004810864 -0.05541032 0.10647929 0.050558273 0.19700173 -0.10327172 -0.1454072 0.0758672 0.000658417 0.052107308 0.17397565 0.05981381 -0.2612616 -0.10164546 -0.005049098 0.0073476085 0.17078449 -0.14972067 0.19669867 -0.07897358 -0.06383925 -0.12904775 -0.03332203 -0.030233698 0.13832563 0.24266097 0.07792441 -0.08766766 0.31998158 0.14273873 0.08561652 -0.15600766 0.093116164 0.0748452 -0.06746408 0.25645718 -0.051180843 -0.16850717 0.02900138 0.059017878 -0.017637877 0.13946557 0.1558047 0.12767427 -0.06755331 0.28566164 0.006935112 0.028979974 0.16491103 -0.014524808 0.1004125 0.041950442 -0.05438376 -0.17646213 -0.1820126 -0.33249384 -0.112628326 0.07054328 -0.27642688 -0.010307981 -0.049888644 -0.1815304 -0.05348135 0.009987663 -0.2993583 0.065882325 0.2571842 0.038635403 0.036136795 0.17555483 -0.06054161 0.24218947 -0.1138787 0.20096362 -0.19635794 -0.09690411 0.1672425 -0.009772537 0.16529827 -0.055263106 -0.24165326 -0.119876966 -0.17886986 -0.038128115 0.10924882 -0.049115513 0.026152316 -0.13582745 -0.1423907 -0.046109274 0.2557925 0.09361632 -0.26956677 0.49640918 -0.19425207 0.30697888 -0.019549884 0.08732085 -0.051073045 0.16168568 -0.13600157 0.012609097 -0.016376762 -0.026712945 -0.14556555 -0.17360811 0.1361404 -0.008432804 0.21934465 -0.16196929 -0.10239916
574 0.09484586 -0.29248235 0.30633307 -0.026105475 -0.051072385 -0.01163416 -0.1957765 0.0027707159 0.0420414 0.13007946 -0.09677874 -0.16942938 -0.23620449 0.11858244 0.06906822 0.2432164 -0.45533103 0.12397635 -0.11722506 -0.14558402 0.18422669 0.13591538 -0.06508466 -0.0892821 -0.006843772 -0.010733784 -0.15785964 0.13388284 0.014020536 -0.09932473 0.0485694 0.106585346 0.13906565 0.0067550847 0.06883178 -0.1114349 0.03606139 0.19884512 0.1530339 0.15172897 -0.16942531 0.17562784 0.24547051 0.034776594 -0.072769 0.21870494 0.16028076 0.17547387 -0.2708016 0.17541422 -0.13970745 0.10482139 0.107391804 -0.09680056 -0.08746777 0.22713637 -0.05786909 0.15893988 0.24278732 0.066176236 0.13852009 -0.15601847 0.027899753 0.040074803 0.3457971 0.096574455 -0.06027272 0.059777483 0.044681758 -0.16749653 -0.09965289 -0.04892754 0.0057848236 0.13623124 0.059312575 -0.2064569 -0.16405569 -0.00811968 -0.20321772 -0.15829937 0.17204282 -0.2353178 -0.17438148 0.2875262 0.040757164 0.30800238 0.30960345 -0.11580798 -0.056351572 -0.23628333 0.061755046 0.13432422 0.059913915 0.33884037 0.20879012 0.26120025 0.011909096 0.041158017 -0.0220314 -0.3333579 -0.01924311 0.25409493 0.045743294 0.09670648 0.061743416 -0.21438198 0.049988832 0.19678712 0.25004083 -0.15488517 0.26568142 -0.19505131 0.049235042 0.021325026 0.06567053 0.091109015 -0.22822595 -0.06915122 -0.059628356 -0.04834657 0.12995957 0.02782417 -0.004658555 0.15667886 -0.10540677 0.31860533 -0.085078634 0.0036001762
670 -0.0037853823 -0.14403792 0.046722118 0.1688391 0.21490988 -0.10162815 -0.06643816 -0.07709764 0.09556298 0.036056664 0.13240811 0.019240785 -0.28612685 -0.16102083 0.3767932 0.22914748 -0.011225959 -0.1914053 0.19801326 -0.20966506 -0.006022291 0.2823428 -0.117835544 0.03210044 -0.1192059 0.26162478 -0.02621469 0.10088154 -0.15243933 -0.10502549 0.034454424 -0.30369353 0.121025994 -0.158811 -0.11874284 -0.058849126 0.3409457 0.07123924 0.37034053 0.11695507 -0.2772791 -0.004678881 0.10646873 -0.027651226 -0.086099006 -0.24336492 -0.39435077 0.08924179 0.21310571 0.119331695 1.1936311e-05 0.030975357 0.10907557 0.23983902 0.11963289 -0.18310668 0.043963738 -0.170775 -0.02401473 0.36108616 0.02351717 0.15647851 0.02647479 0.112763345 0.13249874 -0.11664263 -0.025482444 0.102009185 -0.19540773 0.2334167 0.15120666 0.15846255 -0.20060474 -0.05021831 -0.17073652 -0.3175502 -0.29594582 0.10682965 -0.16433191 0.13395223 0.07910429 -0.23323253 -0.0832825 0.6185239 0.10749145 -0.017901937 0.3507921 -0.14180554 0.13689655 0.08502909 0.081992656 -0.11529628 0.30023155 -0.09854011 0.25879732 -0.30230522 -0.07295295 0.0980003 -0.115109295 -0.21839061 0.012612348 -0.34882855 0.15973078 0.10531557 -0.18935722 -0.22837573 0.045074075 0.040155083 -0.16585037 -0.13070562 0.19121993 0.13981503 -0.05713709 0.06614693 -0.22169404 -0.1039301 0.10705962 -0.0909281 -0.011974846 -0.11824753 -0.023009872 -0.010250509 0.10859894 -0.28745195 -0.19624431 -0.46547028 0.32399225 -0.008540172
515 0.13127246 -0.27215907 -0.06292615 -0.0724668 -0.0862847 0.12007521 0.014241789 -0.024789544 0.14384882 -0.10571704 -0.058119472 -0.16357026 -0.12833248 -0.096053906 0.07591254 0.33827633 -0.0739145 0.029224444 -0.106543526 0.20783316 0.06388248 0.011891253 -0.17166057 -0.26525524 -0.058766138 0.28885362 -0.28626657 -0.05053955 0.12504436 -0.11875917 -0.28464112 0.0033370377 0.0063108974 -0.06654314 0.007868941 0.10847109 0.10930172 0.03962997 0.191011 -0.0036808082 0.038867474 -0.0040324787 0.42197794 -0.080167025 0.01718525 -0.0040415744 0.053122707 -0.16492483 -0.07125119 -0.14389937 0.09631209 -0.27297118 0.22384165 0.09760891 0.21565397 0.086571105 0.13637528 0.27665004 -0.23168093 -0.102148436 -0.07622753 -0.08927395 -0.00647641 -0.0009482746 0.06999182 0.10658904 0.2067298 0.050072864 0.0857118 -0.020152325 0.07682737 0.086903736 -0.054921962 0.029645775 0.030937204 -0.0045780363 0.03078068 0.07525593 0.15134184 0.17955287 -0.06531804 -0.014407608 0.051302414 0.06967219 -0.022643812 -0.04779946 -0.09126467 0.1543271 0.2887626 0.134003 0.120107345 -0.1805904 -0.018282715 0.18580215 0.09413294 -0.084565826 0.011741335 0.24985333 -0.16768116 0.005083267 -0.05403173 -0.04812095 -0.07121432 0.056796756 -0.10809171 0.07348915 0.11436916 -0.026384749 0.20491067 -0.27974778 0.040884253 -0.08757108 -0.019342043 0.0017710238 -0.13159521 -0.09300997 -0.0047494583 -0.08496266 0.09538943 -0.21078362 -0.11746505 -0.2000453 -0.13696796 0.023990227 0.06113794 0.060315445 0.18582615 0.04038886
627 -0.078302756 0.047798745 -0.13696879 0.119042754 0.19747539 -0.21329029 -0.17383243 -0.08934126 0.19656856 0.05384421 0.07758136 0.057881 -0.16844393 -0.10150444 0.35719317 0.14579627 -0.006206205 -0.1451182 0.17754549 -0.3336614 0.020941572 0.3568931 -0.052842002 -0.060606178 -0.20765325 0.17333499 -0.13159895 0.040557247 0.0004258519 -0.030471055 0.009182582 -0.35818467 0.16970567 -0.115575746 -0.015213333 -0.051473305 0.20815258 0.10710213 0.2420272 0.23121807 -0.391856 0.011126912 0.109170765 0.052083462 -0.08119428 -0.104388885 -0.38912043 0.053621713 0.15978788 0.021424174 -0.06289546 0.10477699 -0.003015141 0.18662567 0.20915112 -0.1455324 0.23773573 -0.15591177 0.02273471 0.4553043 0.15810879 0.07593766 -0.028470179 0.020905081 0.11401177 -0.16482626 0.022965716 0.25437868 -0.31176546 0.25396845 0.08040978 0.1970162 -0.3431141 -0.08196524 -0.07513149 -0.2954555 -0.18849705 0.09420468 -0.24959694 0.12593958 -0.0143240485 -0.18881403 -0.11562241 0.54716617 0.07579279 -0.018745871 0.24155413 -0.10323661 0.06603617 0.13561937 0.07451711 0.060627993 0.2599945 -0.009271231 0.43808466 -0.17437167 0.06647396 0.032481804 -0.24711932 -0.046287004 -0.021675954 -0.28698102 0.14703056 0.27590996 -0.21488306 -0.25262925 0.07982559 0.05439869 -0.1575181 -0.06453993 0.2741611 0.13111973 -0.0793229 0.12777826 -0.19188403 -0.029052723 0.123157084 -0.02901832 0.10208692 -0.124750964 -0.060955573 0.011583998 0.039348315 -0.2875873 -0.085518874 -0.4584312 0.22258046 -0.03407205
600 0.037667714 -0.06443816 0.05133138 0.043804318 0.17523205 -0.09923011 -0.17358243 -0.039682575 0.16123265 0.08439255 0.047717545 0.016283358 -0.21604909 -0.25148603 0.27602676 0.15818286 -0.05652354 -0.18280394 0.055740878 -0.30733177 0.11003027 0.36875987 0.0281181 0.050305888 -0.24668035 0.2732304 -0.024074206 0.20039092 0.053766623 0.069599494 0.01577436 -0.35205778 0.05347922 -0.22706616 -0.13360435 0.016986195 0.3511378 0.03924263 0.23755348 0.2154068 -0.309073 0.123717226 0.111327775 -0.01800263 -0.028753985 -0.100488365 -0.30960003 0.07579014 0.31233874 0.017472535 0.016501699 0.044298775 0.051931664 0.2225632 0.10904045 -0.217614 0.17157888 -0.19578207 -0.024128629 0.3622627 -0.06030432 0.12946759 -0.050724886 0.15774792 0.16560644 -0.111973085 0.1489727 0.15639934 -0.24650106 0.17935185 0.25224563 0.2203645 -0.16321753 0.015281507 -0.1465809 -0.10525566 -0.28857866 0.1804827 -0.007944235 0.19405 0.057382956 -0.1995163 -0.086767934 0.5414842 0.16149117 0.002124691 0.20057681 -0.16152032 0.09848704 0.09489965 0.04475172 -0.049489263 0.25275055 -0.057348482 0.27041873 -0.3495166 0.041281752 0.019193783 -0.20253915 -0.29247758 0.029569067 -0.34319517 0.119797856 0.2982331 -0.24890652 -0.22602658 0.11905992 0.0847238 -0.18906637 -0.10303966 0.23127846 0.15906897 -0.1196388 0.11003981 -0.25111493 0.020496715 0.16607918 -0.04420714 -0.012257355 -0.18920237 -0.034324057 -0.0178967 0.08994795 -0.24842124 -0.20683683 -0.43695626 0.2909447 0.08064194
